{"conv1.weight": [[[[0.7288265228271484, -0.8120567798614502, -1.0471110343933105], [0.11179991811513901, 1.0595288276672363, -1.3587843179702759], [0.36584731936454773, 0.5739473700523376, -0.660329282283783]], [[1.1461293697357178, -3.172083616256714, -0.5037683844566345], [0.29462379217147827, 0.3026288151741028, -0.6743146181106567], [-0.4636269211769104, -0.10559437423944473, 0.13515187799930573]], [[-0.6644790768623352, 0.5601365566253662, 0.1688171774148941], [-0.336818128824234, 0.4684770107269287, -0.18084979057312012], [-0.5839211344718933, -0.1558067351579666, -0.5616179704666138]]], [[[0.17135164141654968, 0.8161990642547607, 1.299330234527588], [0.8115548491477966, 0.6396018266677856, 0.3105612099170685], [1.0118159055709839, 0.3079150915145874, -2.1243319511413574]], [[-1.9484962224960327, 0.40894365310668945, -1.1954803466796875], [-0.5355375409126282, -0.6189202666282654, -0.3466685116291046], [-0.08005068451166153, -0.3260771632194519, 0.006425866857171059]], [[0.27110564708709717, 0.6917645931243896, 0.4478047490119934], [-0.15990892052650452, -0.10034327954053879, 0.22940033674240112], [0.005788825452327728, -0.03720438852906227, 0.6440778970718384]]], [[[-0.8702432513237, 0.7283927202224731, -0.7047429084777832], [0.3078770935535431, 0.06173551082611084, -0.07053996622562408], [-0.33169302344322205, -1.3351982831954956, 0.7725876569747925]], [[0.8954170942306519, -0.5133458375930786, -0.07719115167856216], [-0.6237807869911194, 0.5151211619377136, 0.2946722209453583], [1.3472188711166382, -0.21143990755081177, -2.996259927749634]], [[-0.24593976140022278, -0.13591359555721283, -1.1878968477249146], [0.17178800702095032, 0.11895862966775894, -0.5096255540847778], [0.528957188129425, 0.4687322974205017, -0.7034596800804138]]], [[[-0.9637244939804077, 0.8398727774620056, 0.01539238728582859], [-1.4185378551483154, -2.039106845855713, 0.734489917755127], [0.20032204687595367, -0.4851411283016205, -0.07809427380561829]], [[-0.2901848256587982, -0.35013121366500854, -0.20144274830818176], [-1.7756823301315308, -0.7708092331886292, 1.0374388694763184], [-1.1144191026687622, 0.44272494316101074, 0.24353447556495667]], [[-0.26946938037872314, -0.5731109380722046, -1.0242058038711548], [0.25484713912010193, 0.11938761919736862, -0.010295363143086433], [0.6434279680252075, 0.5873637795448303, -0.100619837641716]]], [[[0.8685013055801392, -0.2951835095882416, 1.360432505607605], [-0.3210774064064026, 0.7336588501930237, 0.15313270688056946], [0.8357841968536377, -0.1796039640903473, 1.5407816171646118]], [[-0.325610876083374, -0.1772318035364151, -0.3500792384147644], [0.45919978618621826, -2.1022655963897705, -0.3127679228782654], [-0.9101923108100891, -0.015726933255791664, -0.5349331498146057]], [[0.8557309508323669, 0.2194110006093979, 0.1616183966398239], [0.11052001267671585, -0.5210157036781311, -0.3986303210258484], [0.11426098644733429, -0.19426622986793518, 0.1343855857849121]]], [[[-0.4429548680782318, -0.4512524902820587, -0.8225054740905762], [-0.9589134454727173, -0.5422903299331665, 0.44968491792678833], [0.9801971912384033, 0.194296196103096, -1.0505363941192627]], [[0.5728137493133545, 0.9641758799552917, -1.1278313398361206], [-0.3265742361545563, 1.1522607803344727, -1.8162933588027954], [0.674910306930542, 0.04890630021691322, 0.5375020503997803]], [[-0.2996784448623657, 0.2780103087425232, 0.4079039692878723], [-0.5011272430419922, 0.32224681973457336, 0.37718841433525085], [-1.0115693807601929, -0.3700467348098755, -0.7793524861335754]]], [[[0.7328466176986694, -0.09394408762454987, 0.496112197637558], [-1.47490656375885, 0.15403568744659424, 0.36217182874679565], [0.42630016803741455, 0.8803308010101318, -3.3367090225219727]], [[0.966605007648468, -0.11215218156576157, 0.16804994642734528], [0.8285664916038513, 0.37062591314315796, -0.36927464604377747], [-1.05648934841156, -0.8930935263633728, 0.46422669291496277]], [[0.7554751038551331, 0.1826140284538269, 0.3073771595954895], [0.42902517318725586, -0.07851625233888626, -0.07780371606349945], [0.38070744276046753, -0.06115535646677017, 0.06713692098855972]]], [[[-0.9271527528762817, 0.16536298394203186, -1.6685680150985718], [0.33242714405059814, -0.7289417386054993, -2.5197131633758545], [-0.3362472355365753, -0.9625912308692932, -0.6582321524620056]], [[0.353553831577301, -0.9964349269866943, 1.0624210834503174], [-0.8065946102142334, -0.7183600664138794, 0.08041878789663315], [-0.008473091758787632, -0.2899014949798584, 1.9563416242599487]], [[-0.3409365117549896, 0.22418875992298126, 0.4479014575481415], [0.041222892701625824, -0.2028580754995346, -0.11875306814908981], [0.08508261293172836, -0.05874425917863846, -0.08721393346786499]]], [[[-1.9365732669830322, -0.20284730195999146, -0.49380841851234436], [1.554499864578247, 0.30944353342056274, -0.6557698845863342], [1.25923490524292, 0.10293517261743546, 0.614678144454956]], [[-0.16106852889060974, -1.5278836488723755, 0.23947535455226898], [0.8277908563613892, 0.7715128064155579, -0.6746301651000977], [-0.48435235023498535, 0.15588314831256866, -1.8565565347671509]], [[-0.07653608918190002, -0.021041374653577805, 0.1517641693353653], [0.1362999826669693, 0.43686985969543457, 0.41256770491600037], [-0.5403076410293579, -0.03429538384079933, 0.2211049199104309]]], [[[-2.832127332687378, 0.259398877620697, 1.5098742246627808], [0.5704946517944336, -0.6073793768882751, 0.0005643619224429131], [1.0883064270019531, -0.4023079574108124, 0.4595140516757965]], [[0.7083857655525208, 0.11897222697734833, -0.6856961846351624], [-0.6543490886688232, 0.16302388906478882, 0.10077986866235733], [-0.5547879934310913, 0.507645845413208, 1.1976542472839355]], [[0.7761107683181763, 0.23722146451473236, -0.0989266037940979], [0.4544930160045624, 0.0033067718613892794, -0.1872154325246811], [0.16656866669654846, -0.2956089973449707, -0.0011788466945290565]]], [[[-1.3345502614974976, -0.019711747765541077, -0.14958032965660095], [-0.38714322447776794, -1.9322057962417603, -0.3238125741481781], [0.6358329057693481, 0.037814799696207047, -1.1844805479049683]], [[1.387823224067688, -0.13027478754520416, 0.6995103359222412], [-0.15417644381523132, 0.8870397806167603, 0.12843944132328033], [-1.4230878353118896, -0.469204843044281, -2.7036774158477783]], [[0.4830438494682312, -0.08565692603588104, -0.10705114156007767], [0.21071329712867737, -0.28875893354415894, -0.31176602840423584], [-0.34903088212013245, -0.7815834879875183, 0.5845588445663452]]], [[[-0.6832015514373779, 0.5506384968757629, 0.529792070388794], [-0.8389540910720825, 0.7048631310462952, -0.031291525810956955], [-0.4646913707256317, 0.7813357710838318, 0.6600860357284546]], [[-0.8968884944915771, -1.8049066066741943, -1.3333570957183838], [-0.677754282951355, -2.228032112121582, 0.36204230785369873], [0.7057826519012451, -2.2247986793518066, 1.0792595148086548]], [[0.2322452962398529, 0.030517220497131348, 0.23043173551559448], [0.004303951282054186, -0.288144052028656, -0.11496768146753311], [-0.18805083632469177, -0.19658030569553375, 0.01262033823877573]]], [[[-0.8564390540122986, -0.4442574083805084, 0.7029731273651123], [1.1752920150756836, 1.2723785638809204, -0.7145227193832397], [-0.9256800413131714, -2.0434608459472656, -0.3144291043281555]], [[0.9556718468666077, -0.6811742782592773, -1.8535699844360352], [-0.39849191904067993, -0.1927580088376999, -0.40731295943260193], [-0.566456139087677, 0.30421286821365356, -1.0111119747161865]], [[-0.15056607127189636, -0.2901984751224518, 0.0658310204744339], [0.23748335242271423, 0.12457400560379028, 0.0881384015083313], [0.26999542117118835, 0.28153011202812195, 0.6051624417304993]]], [[[0.15584787726402283, -0.5220655202865601, 0.33617061376571655], [-0.5116189122200012, -1.6558181047439575, 0.3112872838973999], [0.8364287614822388, -0.653577983379364, 0.6809389591217041]], [[-0.12197498977184296, 0.7866824269294739, -0.43445125222206116], [0.6749918460845947, 0.43428680300712585, 0.309846431016922], [-0.16398385167121887, 1.125726342201233, -0.06909025460481644]], [[-0.8949392437934875, 0.14673933386802673, -0.4817139208316803], [0.03362315148115158, 1.071274757385254, -0.14335963129997253], [-0.3196893632411957, 0.21494168043136597, -1.3265589475631714]]], [[[0.4155714809894562, -0.002035445999354124, -0.41999855637550354], [-0.4499128758907318, -0.018326286226511, 0.15008892118930817], [-0.04938444122672081, 0.2340586632490158, -0.21924112737178802]], [[-1.4467321634292603, -0.4421273171901703, 0.5786802768707275], [-0.06229706481099129, 1.4363956451416016, 0.11725027114152908], [-2.2967793941497803, 0.5565974712371826, -0.19487743079662323]], [[-0.8172147274017334, -0.2689855098724365, -0.138682559132576], [0.4393208920955658, 1.089278221130371, -0.3516213595867157], [-0.41572797298431396, 0.45577213168144226, -1.442589521408081]]], [[[-2.625424861907959, -0.37086889147758484, -0.10558410733938217], [0.2098858654499054, 0.5763618350028992, -0.7163627743721008], [-0.7782030701637268, -0.3626403510570526, 1.2629904747009277]], [[-2.005558729171753, -0.0068016014993190765, -0.0720253437757492], [-0.1707233339548111, -2.1659367084503174, 0.1771674007177353], [-0.7202926278114319, -0.2290380448102951, -1.7279260158538818]], [[0.2907346487045288, -0.26354244351387024, 0.5248273611068726], [-0.32523414492607117, -0.3456478416919708, 0.00125950388610363], [0.25403258204460144, -0.023915711790323257, 0.5828366875648499]]], [[[-0.724479615688324, 0.9118856191635132, 0.2581450641155243], [-0.0188747588545084, 0.08231674879789352, 0.3581387996673584], [-1.4255082607269287, 0.9930229783058167, 0.07146934419870377]], [[0.00955095887184143, -1.3082330226898193, 0.6796905398368835], [-2.5628066062927246, 0.6835615634918213, -1.5497701168060303], [-0.6120301485061646, -0.07226765900850296, 0.12837669253349304]], [[-0.3836071491241455, -0.4063057005405426, -0.578554093837738], [-0.02900555729866028, 0.4984718859195709, 0.9495570659637451], [-0.18721114099025726, -0.6659241318702698, -0.34438827633857727]]], [[[0.3639066517353058, 0.5842113494873047, -0.8934406042098999], [-0.4919196367263794, -0.9012181162834167, -0.958580732345581], [0.0800701379776001, 0.3406808078289032, 1.1409955024719238]], [[-0.2522575855255127, -0.7013382315635681, 0.2327905148267746], [1.1966519355773926, -0.11807427555322647, 0.705633282661438], [-0.1586618721485138, 0.8642879724502563, -0.975421667098999]], [[-0.9818661212921143, -0.5907149314880371, -0.7148637771606445], [0.1324615776538849, 0.7181395888328552, 0.8581559658050537], [-0.7078030109405518, -0.12117297947406769, 0.06252656131982803]]], [[[-0.282011479139328, 0.5211179852485657, 0.05944330245256424], [0.4545169174671173, -1.166305422782898, -0.40862300992012024], [0.5020796656608582, 0.014945107512176037, -0.2667388617992401]], [[1.0310639142990112, 0.514408528804779, 1.4200575351715088], [0.09459677338600159, 0.4562135338783264, -0.3411404490470886], [0.5939838290214539, 0.06072087585926056, 0.3338220417499542]], [[-1.2660369873046875, -0.031081117689609528, -1.0120917558670044], [-0.34053874015808105, 0.9918420910835266, -0.382563054561615], [-0.15575508773326874, 1.091508150100708, -0.011884171515703201]]], [[[-0.3232395350933075, 0.08072435855865479, 0.2215258628129959], [0.8392918109893799, 0.3096315562725067, -0.1344701200723648], [-1.1180287599563599, -0.5993086695671082, -0.5733948349952698]], [[-0.8984010219573975, -0.5374977588653564, 0.5170773267745972], [1.9992353916168213, 0.39992555975914, -1.255994439125061], [-2.9190547466278076, 0.7255145311355591, 0.6227280497550964]], [[-0.15844716131687164, -0.05223178118467331, -0.06164255365729332], [-0.30287107825279236, 0.45347535610198975, 0.0669097825884819], [-0.2670515477657318, -0.107939213514328, 0.22654318809509277]]], [[[0.3186723291873932, -0.2132614254951477, 0.7334489822387695], [1.009385585784912, -0.6218281388282776, 1.0278782844543457], [-0.31925204396247864, -0.0714913159608841, 0.565510094165802]], [[0.43258461356163025, 0.060269150882959366, -0.38407012820243835], [0.3405546545982361, -0.27588942646980286, -0.3044936954975128], [0.18552596867084503, 0.4923403263092041, -2.3458876609802246]], [[-0.26300057768821716, -0.22275958955287933, -0.022657785564661026], [0.9372692704200745, 0.9756224155426025, -0.06358551234006882], [-1.4000341892242432, -0.6814464330673218, -1.3195103406906128]]], [[[1.0476235151290894, -0.6562472581863403, 0.7219321727752686], [-1.4487119913101196, 0.7268586754798889, 0.2926751971244812], [-2.984259843826294, 0.48946240544319153, 0.42938631772994995]], [[-1.4038234949111938, 0.6637871861457825, -0.1454477161169052], [-0.8069236278533936, -1.0806126594543457, 0.6673215627670288], [0.2421082705259323, -0.1989072859287262, -0.09785912930965424]], [[0.3655858635902405, -0.04585180804133415, 0.5946334600448608], [-0.18238745629787445, -0.6558102369308472, 0.19082997739315033], [0.5106525421142578, 0.13408079743385315, 0.29324471950531006]]], [[[-0.9212179183959961, -1.4789671897888184, -1.1294372081756592], [-1.3819044828414917, 0.20983552932739258, -0.6758772134780884], [-0.5136814117431641, -0.0374600924551487, -2.4577391147613525]], [[-1.659249186515808, 0.4890599250793457, 0.683459460735321], [0.8537062406539917, -2.058467388153076, 0.25315406918525696], [0.4937605559825897, -0.6203504204750061, 0.5016186833381653]], [[-0.2770821750164032, -0.4046640396118164, -0.20656053721904755], [0.5508268475532532, -0.36448732018470764, -0.16636492311954498], [0.8420969247817993, -0.024016644805669785, 0.14326725900173187]]], [[[-1.313214898109436, -0.07650120556354523, -0.7669934630393982], [-2.275672674179077, 0.9660584330558777, -1.075549602508545], [0.079070545732975, -1.4163168668746948, -0.1308056265115738]], [[-0.6793187260627747, -0.39561620354652405, -0.2806040048599243], [0.9310356974601746, -1.935694694519043, -1.7347842454910278], [0.4408104717731476, 1.0368232727050781, -0.23543503880500793]], [[-0.0038922864478081465, 0.063136987388134, 0.8068612813949585], [-0.11444244533777237, -0.45213547348976135, 0.197130486369133], [-0.23334477841854095, -0.2630023956298828, 0.22381193935871124]]], [[[0.08307521045207977, -0.17266735434532166, -1.2131434679031372], [-0.7395223379135132, -0.0047388458624482155, 0.5361660718917847], [-1.078640103340149, -0.7420029044151306, -0.32881832122802734]], [[-0.28701508045196533, -0.22563417255878448, 0.3700069785118103], [-0.2888278663158417, 0.4735575318336487, 0.3257078230381012], [2.008882522583008, 0.8449987173080444, -1.8757896423339844]], [[-0.21232925355434418, 0.7521649599075317, -0.06680217385292053], [-0.6816281676292419, 0.3689887523651123, -0.1213490292429924], [-0.7902812957763672, -0.0861406996846199, -0.5665737390518188]]], [[[-0.3142944872379303, -0.4077814519405365, 0.25442826747894287], [0.8661046028137207, -0.07310321927070618, -0.012025417760014534], [-0.6785809993743896, 0.7768267393112183, 0.24956965446472168]], [[0.8385183811187744, 0.6402592658996582, 1.5934717655181885], [-1.3832975625991821, -0.9608383774757385, -1.7517352104187012], [0.24095231294631958, -0.06000308319926262, 0.6799355149269104]], [[-0.668249785900116, -0.24296331405639648, 0.06699152290821075], [0.5551507472991943, 0.25707605481147766, 0.8401612043380737], [0.34929707646369934, -0.10952775180339813, 0.4710300862789154]]], [[[-0.2517228126525879, 0.1024431511759758, -0.13195854425430298], [-0.5957340002059937, 0.07599686831235886, 0.6321286559104919], [-0.3283528685569763, -0.3370559811592102, -0.06873223185539246]], [[1.8346524238586426, -0.09165405482053757, -0.18947511911392212], [0.7668902277946472, 0.3040388822555542, 0.03639041632413864], [-2.5699045658111572, -0.3498741090297699, 0.5421856641769409]], [[-0.4617859721183777, 0.7591102719306946, -0.48780468106269836], [-0.6425288319587708, 0.5407492518424988, -0.7324793934822083], [-0.5414457321166992, 0.8093778491020203, -0.43668660521507263]]], [[[-0.27955013513565063, 0.03862745687365532, -0.5182015895843506], [0.16022589802742004, -1.2545623779296875, 0.3764638900756836], [-0.12390965223312378, 0.30710870027542114, -0.17434567213058472]], [[-2.179802417755127, -0.3659375309944153, 0.7328445315361023], [-0.5165817737579346, 0.5005175471305847, -0.6371501088142395], [2.047746419906616, -0.5627321004867554, 1.0573264360427856]], [[0.3226986527442932, 0.14050261676311493, 0.5024120807647705], [0.3230404257774353, -0.23575016856193542, -0.050318747758865356], [-0.3540741205215454, -0.6310058236122131, -0.7088509798049927]]], [[[0.2187153846025467, -0.06310742348432541, 0.48670104146003723], [-0.12796694040298462, -0.7038778066635132, -0.350565105676651], [-0.13708055019378662, 0.5026507377624512, -0.13268721103668213]], [[-0.28128641843795776, 0.5236501097679138, -0.5039222836494446], [1.1475249528884888, 0.9310081005096436, 0.4494689106941223], [0.6660814881324768, 0.16708868741989136, 0.851743221282959]], [[0.2025061994791031, 0.7799363136291504, -0.7112945318222046], [0.4792560636997223, 0.6360695958137512, -0.17202754318714142], [-0.6652143597602844, -0.22047938406467438, -2.374378204345703]]], [[[1.1062344312667847, 0.5319650173187256, 1.8180150985717773], [-0.3624246120452881, -0.271637886762619, -0.1444147676229477], [-0.3117053210735321, -0.29063501954078674, -0.14939112961292267]], [[-1.2991031408309937, -2.391212224960327, -0.5037738084793091], [-0.11723802238702774, -0.13019557297229767, -0.024088475853204727], [-0.299286812543869, -0.006922621745616198, -0.12756824493408203]], [[-0.16439029574394226, 0.0379125252366066, -0.3151364028453827], [-0.2271638810634613, 0.40460723638534546, 0.23008188605308533], [0.6457621455192566, -0.26038023829460144, -0.1870778203010559]]], [[[1.0289770364761353, 0.4598786532878876, -0.5812417268753052], [-1.5733293294906616, 0.3552796542644501, -0.4632631838321686], [0.45644888281822205, -0.07347514480352402, -0.9343494176864624]], [[1.0719298124313354, -0.07096175104379654, -0.6670076251029968], [1.3213238716125488, 0.7912724614143372, -0.47052356600761414], [1.307128667831421, 0.6135398149490356, 0.2566072642803192]], [[0.4610685706138611, -0.08038324117660522, 0.3855430483818054], [-0.4806910753250122, -0.220206618309021, 0.6518639326095581], [-0.8823239207267761, -0.3861660659313202, 0.31578293442726135]]], [[[0.8102414608001709, 0.35983195900917053, 0.23139092326164246], [-0.9827495813369751, 0.33695030212402344, -0.6942537426948547], [-0.8279107213020325, -0.4092351198196411, 0.2610693573951721]], [[0.8308278322219849, 0.04463225230574608, 0.8658775091171265], [-0.042571403086185455, -1.5659713745117188, -0.2397765964269638], [-0.5220228433609009, 0.33961164951324463, -1.7559460401535034]], [[-0.24543918669223785, -0.5417243242263794, -1.0040130615234375], [1.271569013595581, 0.5661781430244446, 0.6245396733283997], [-0.3746124505996704, -0.7228962779045105, -0.08616022765636444]]], [[[-0.21024343371391296, -0.10651429742574692, 1.5123164653778076], [-0.5799492001533508, 0.9509669542312622, -0.5910903215408325], [1.731600284576416, -0.4442287087440491, -0.7929714918136597]], [[0.4221796691417694, 0.12435876578092575, -1.1719918251037598], [0.16283029317855835, -0.8799431920051575, -0.10725461691617966], [-0.42306116223335266, -0.21105699241161346, 0.2036890834569931]], [[-0.3784017860889435, -0.4804518520832062, -0.6741353273391724], [-0.44622546434402466, 0.6861214637756348, 0.04779466614127159], [0.050693199038505554, 0.7390114665031433, 0.060544662177562714]]], [[[1.1468322277069092, 0.9945819973945618, 1.3684008121490479], [0.6822666525840759, 0.7840626239776611, -0.14301298558712006], [1.3341797590255737, 0.8631104826927185, 1.1803041696548462]], [[-0.35834449529647827, 0.1020200178027153, -0.19234201312065125], [-0.009001187980175018, -0.058327075093984604, -0.08224160969257355], [-0.4472561478614807, -0.04090272635221481, -0.05004478245973587]], [[0.38145026564598083, 0.5839232802391052, -0.5981274247169495], [0.5618555545806885, 0.7127244472503662, -0.0822930708527565], [0.07342526316642761, 0.3810138702392578, -0.6148928999900818]]], [[[1.1418863534927368, 0.7097826600074768, -0.06730040162801743], [-0.2630186975002289, -0.5184469223022461, -0.2583193778991699], [1.4762932062149048, 0.5177252292633057, 0.9614623188972473]], [[-0.5174497961997986, 0.3347274363040924, -0.5003862380981445], [-2.1646902561187744, -0.7417389750480652, -0.2267274111509323], [-0.4006151258945465, -0.438909113407135, -0.3235554099082947]], [[0.2958211302757263, 0.4426400065422058, -0.6808688640594482], [0.18489320576190948, 0.2824152410030365, -0.24129965901374817], [-0.3152329623699188, -0.26711395382881165, -1.0623068809509277]]], [[[-0.9099422693252563, -1.1059155464172363, -0.886584460735321], [-1.1621683835983276, 0.8255935907363892, 1.0615683794021606], [-1.2185896635055542, 0.8641552925109863, 1.4666155576705933]], [[0.7458959817886353, -0.5715795159339905, -0.7124384045600891], [-0.19121181964874268, 0.5353785753250122, 0.17092004418373108], [0.0046349335461854935, 0.2616857588291168, -0.2781745195388794]], [[0.6619641184806824, 0.013438970781862736, -0.07255217432975769], [-0.28332823514938354, 0.2076673060655594, 0.5404453277587891], [-0.08460301160812378, -0.014338824898004532, 0.41376248002052307]]], [[[1.0204334259033203, 0.3745870590209961, 0.30752262473106384], [-0.3286689519882202, 0.4088738262653351, 1.0122379064559937], [0.7752469778060913, -1.1009067296981812, 0.8198208808898926]], [[0.42344868183135986, -0.0139461075887084, 0.2880626320838928], [-0.27431902289390564, -0.3059488534927368, 1.011196255683899], [1.3867219686508179, 0.3508191406726837, 0.8084596395492554]], [[0.070618636906147, 1.0518711805343628, 0.5704258680343628], [-0.726183295249939, 0.40994203090667725, 0.23829452693462372], [-0.7259876132011414, -0.6256868243217468, -0.7509899735450745]]], [[[1.4530712366104126, -1.3091099262237549, -0.8098757863044739], [1.1306334733963013, 0.7159689664840698, -0.8078004717826843], [0.17119379341602325, -0.8303007483482361, -2.2964329719543457]], [[-0.3137547969818115, 0.1386498361825943, 0.9627574682235718], [-0.21130238473415375, -1.2351547479629517, -0.20855824649333954], [-0.2839721143245697, 0.19035956263542175, 0.17408955097198486]], [[0.3156094551086426, 0.04616023600101471, 0.1632082462310791], [0.2723986506462097, 0.018200978636741638, 0.10207806527614594], [0.4353979527950287, -0.0107008907943964, -0.22077971696853638]]], [[[1.4942723512649536, 0.5930103063583374, -1.0766500234603882], [0.30758392810821533, 0.7666637897491455, -0.428354948759079], [0.4012584388256073, 0.07506547123193741, 1.7278163433074951]], [[-0.9567607641220093, -0.0831514298915863, 0.14111994206905365], [-0.018784932792186737, -2.006192207336426, -0.5557534694671631], [0.41933396458625793, -0.2129560261964798, 0.03210288658738136]], [[0.30735382437705994, 0.6794615387916565, 0.0766289159655571], [0.10897382348775864, 0.3609102666378021, -0.2035452425479889], [0.29616469144821167, 0.3247320353984833, -0.13730975985527039]]], [[[-1.0497541427612305, -0.2232382893562317, 0.09563519805669785], [0.08127335458993912, -1.8506289720535278, 0.2182498574256897], [-2.1302578449249268, -1.1934353113174438, -0.7242486476898193]], [[-1.0474382638931274, 1.0191521644592285, -1.241495966911316], [-0.1730048507452011, -1.5288487672805786, -0.22015182673931122], [-0.9449530243873596, 0.5997157096862793, 0.5542673468589783]], [[-0.19711878895759583, -0.06775344163179398, 0.3536919355392456], [0.17371448874473572, -0.27452966570854187, 0.0346052385866642], [0.7479152679443359, 0.2806714177131653, 0.2899862229824066]]], [[[0.763045608997345, 0.9685370326042175, -1.2076029777526855], [-0.8081409931182861, -0.37496402859687805, -0.2583163380622864], [-1.1791014671325684, -0.15990516543388367, 0.29813969135284424]], [[-0.940982460975647, -0.2491617649793625, -1.5647302865982056], [0.7282986044883728, 0.9522362947463989, -0.4128202497959137], [-1.8770835399627686, -1.7026090621948242, -0.9421539306640625]], [[0.10725847631692886, -0.005982059985399246, -0.8086031675338745], [-0.5085136294364929, 0.29995429515838623, -0.09764103591442108], [-0.4330463111400604, 0.058357808738946915, 0.48026567697525024]]], [[[-2.0435304641723633, 0.6432263851165771, 1.7740914821624756], [-0.19511044025421143, -0.4062314033508301, -0.15786191821098328], [0.37561455368995667, -0.44858643412590027, -0.19627723097801208]], [[-1.796978235244751, -1.1418614387512207, -0.5224618911743164], [-0.4912230372428894, 0.10269197076559067, -0.20355825126171112], [0.5554768443107605, 0.27188268303871155, -1.0828677415847778]], [[0.03011360950767994, -0.4918477535247803, 0.0010460930643603206], [0.5128437280654907, 0.06898742914199829, -0.5319145917892456], [0.7416565418243408, 0.24544379115104675, -0.4165767729282379]]], [[[0.5804001092910767, 0.04327329620718956, -1.9504085779190063], [-0.5426918268203735, -0.0872296467423439, 0.6066071391105652], [0.78537917137146, 0.029117705300450325, 0.9572508335113525]], [[1.2986143827438354, -0.5906364917755127, -0.682890772819519], [0.8070980310440063, 0.564329981803894, -0.7194032073020935], [-1.7277735471725464, -0.6546821594238281, -1.3607546091079712]], [[0.1748676598072052, -0.3080880343914032, 0.12014835327863693], [0.5444265007972717, -0.021475758403539658, 0.4809989035129547], [0.36161983013153076, -0.06585684418678284, 0.06731811910867691]]], [[[0.2632147967815399, -1.4146195650100708, -0.6919630765914917], [0.9493271708488464, -2.0669870376586914, 0.3532482981681824], [0.44980135560035706, 0.5934236645698547, 0.45377853512763977]], [[-1.0171478986740112, 0.7044084668159485, 0.7073659896850586], [0.7131698131561279, -0.9528208374977112, -0.04532104730606079], [1.2458608150482178, 0.38905078172683716, -0.5192926526069641]], [[0.029044073075056076, 0.4821110665798187, 0.2559298574924469], [-0.5128744840621948, 0.1670338213443756, 0.3873787820339203], [-0.6322411298751831, 0.6183758974075317, 0.6862366795539856]]], [[[-0.40859341621398926, -1.432775616645813, -0.3443988561630249], [0.08950028568506241, -1.8943846225738525, -0.6070806384086609], [0.541077196598053, -0.9355624914169312, 0.24325615167617798]], [[0.2565231919288635, -2.1083133220672607, -1.1216480731964111], [-0.7660499811172485, 0.40028074383735657, -0.5710911154747009], [-0.916448712348938, 0.31655988097190857, 0.7494400143623352]], [[-0.5192992091178894, 0.7802509069442749, -0.47098058462142944], [-0.19061528146266937, 0.7643227577209473, -0.26637330651283264], [-0.024752875789999962, -0.20199018716812134, -0.989474892616272]]], [[[1.5179990530014038, -0.3970772624015808, -0.17754283547401428], [0.5921550393104553, -0.6073379516601562, 0.1065342128276825], [1.3732329607009888, -0.7754272222518921, 0.1639927476644516]], [[-2.0654258728027344, 0.3959900140762329, -0.151018425822258], [-2.802948236465454, -0.02221010811626911, 0.17921313643455505], [-1.334181308746338, 0.08635887503623962, 0.23086176812648773]], [[0.031555868685245514, -0.14047010242938995, -0.3368978500366211], [0.055963099002838135, -0.15678519010543823, 0.07054079324007034], [0.3764933943748474, 0.16052807867527008, 0.37885943055152893]]], [[[-0.01588154025375843, 0.516648530960083, -0.7148225903511047], [-1.9691555500030518, 1.4591810703277588, -0.18738232553005219], [0.9360936284065247, -1.1823790073394775, -0.7219405770301819]], [[-0.7025119066238403, 0.10261068493127823, 0.603691816329956], [-1.559867262840271, 0.760041356086731, 0.6839267015457153], [-1.3292202949523926, 0.011445190757513046, 0.13618618249893188]], [[0.18325239419937134, 0.26085540652275085, 0.29565268754959106], [-0.1173538938164711, -0.03323844447731972, 0.3349330723285675], [0.059075336903333664, 0.056910935789346695, 0.25677400827407837]]], [[[1.118336796760559, 0.9831178784370422, -0.4560934603214264], [0.4520711302757263, 0.6276566386222839, 0.27946561574935913], [0.6795487403869629, 0.019040295854210854, -0.00979580543935299]], [[-1.0878386497497559, -0.2178977131843567, -0.16777080297470093], [0.5502409934997559, -0.4487997591495514, -0.9610438346862793], [0.47626328468322754, -0.5011890530586243, 0.31242796778678894]], [[-1.399221420288086, 0.10109554976224899, -0.8862099051475525], [-0.0820946991443634, 1.1868276596069336, 0.13916242122650146], [0.07512718439102173, 0.12421541661024094, -1.1029785871505737]]], [[[-0.3055519759654999, -0.11659585684537888, 0.2953510880470276], [-0.4899689853191376, -0.9255164861679077, 0.35158583521842957], [0.35450854897499084, 0.5721611976623535, 1.164841890335083]], [[-1.545487880706787, -0.16487884521484375, 1.4432976245880127], [-0.20550814270973206, 0.8301492929458618, -0.21794109046459198], [-2.510148286819458, -1.2424763441085815, 0.5941014885902405]], [[-0.30584046244621277, 0.4595981538295746, -0.29991579055786133], [0.10725641995668411, 0.7261143922805786, 0.1852302849292755], [-0.4802343249320984, -0.5786930918693542, -0.22746539115905762]]], [[[-0.07480812817811966, -1.751680850982666, -1.4249207973480225], [-0.6041131615638733, 0.6740935444831848, -0.6372488141059875], [1.2858691215515137, 0.8188431859016418, 0.7346251606941223]], [[0.8781752586364746, 0.2759486734867096, 1.0817581415176392], [-0.4589863717556, -0.400147944688797, 0.6272285580635071], [-1.3920964002609253, -0.8327678442001343, -0.7527643442153931]], [[0.1852504014968872, -0.25222790241241455, -0.6567760109901428], [0.1614360362291336, 0.014747507870197296, -0.07870896905660629], [0.5656905174255371, 0.6198334097862244, 0.20769146084785461]]], [[[0.5334181785583496, -0.2366025745868683, -0.01079691294580698], [-1.8124452829360962, -0.07004763931035995, -0.653803288936615], [-1.4487923383712769, -0.6811963319778442, -0.21242967247962952]], [[1.3080655336380005, -0.47651273012161255, 0.25619953870773315], [1.201607346534729, -0.9496996998786926, -0.009326580911874771], [1.2384861707687378, -0.7694524526596069, 0.8213337063789368]], [[-0.10833727568387985, -0.312315970659256, 0.5407556295394897], [0.6651946306228638, 0.27238622307777405, 0.1271069198846817], [0.10666733235120773, -0.07520188391208649, 0.21258544921875]]], [[[-1.4746936559677124, -0.5538069605827332, -0.03511207178235054], [-0.8127697706222534, -0.648708164691925, 0.30066999793052673], [-1.3698487281799316, -0.24844835698604584, 0.010381218045949936]], [[1.2558013200759888, 0.18714410066604614, 0.3042834997177124], [0.6310902237892151, -0.16395781934261322, -0.31875190138816833], [1.7319806814193726, 0.024355707690119743, 1.1956838369369507]], [[-0.5364284515380859, -0.822547972202301, -0.5665401816368103], [-0.16044080257415771, 0.5805461406707764, 0.01616845279932022], [-0.30130255222320557, 0.2360919862985611, 0.20746704936027527]]], [[[-0.8151872158050537, -0.29294878244400024, -0.7512512803077698], [0.5563609600067139, 0.736356258392334, 0.6492902040481567], [1.9701443910598755, 0.3531160056591034, -2.1511929035186768]], [[-0.7221421599388123, 0.11018763482570648, -1.0092194080352783], [-0.38535431027412415, -0.8046541810035706, 0.2811153531074524], [0.10135167837142944, 0.6993482112884521, -0.27395161986351013]], [[0.16693228483200073, -0.5499750971794128, -0.24946221709251404], [0.34114325046539307, -0.5240738391876221, 0.5499254465103149], [0.5120814442634583, -0.47784966230392456, 0.330037385225296]]], [[[0.6318287253379822, -0.0004585891729220748, -2.108551263809204], [-1.3462995290756226, 0.44718191027641296, 0.1089150533080101], [-0.5347907543182373, 0.003662217641249299, 1.2258012294769287]], [[-0.7574406862258911, -0.7511298060417175, -0.17320120334625244], [-0.7285336256027222, -1.4882484674453735, -0.598002016544342], [0.22982759773731232, 0.7380690574645996, 0.7931327223777771]], [[-0.3839665949344635, 0.402031809091568, -0.07671833783388138], [-0.9712873697280884, 0.39151373505592346, -0.06161380931735039], [-0.5921913981437683, 0.754967212677002, 0.3401045501232147]]], [[[0.40598568320274353, 0.05328937992453575, -0.03923594951629639], [0.30998051166534424, -1.2895755767822266, -0.2168000340461731], [-2.497410535812378, 0.015858158469200134, 0.16936194896697998]], [[0.3182395398616791, -0.14206530153751373, 2.289942502975464], [0.26895973086357117, 0.749811053276062, 0.03904636576771736], [0.5147209167480469, -0.562780499458313, -0.1794884204864502]], [[0.6987989544868469, 0.013188265264034271, -0.36273622512817383], [0.6137455701828003, 0.08922543376684189, -0.32685282826423645], [-0.03926952928304672, -0.22817189991474152, -0.44282475113868713]]], [[[-0.5167685747146606, -0.008289300836622715, -0.4672991931438446], [-0.45611006021499634, 0.6125446557998657, -0.201027512550354], [-0.5522052049636841, -0.2945069968700409, -0.27296680212020874]], [[-0.6001195311546326, -0.3900536596775055, -1.0771487951278687], [-0.7339513897895813, 1.7039648294448853, 1.1596558094024658], [0.005559814162552357, 0.5353392362594604, 0.9598010778427124]], [[0.11667440831661224, -0.2131037563085556, -0.9605333209037781], [0.8478437066078186, -0.0786249041557312, -0.3457004427909851], [0.8374766111373901, -0.3966889977455139, -0.3750316798686981]]], [[[0.6661219596862793, -0.664935290813446, 0.23932087421417236], [-0.8465276956558228, -0.502726674079895, -0.6572287082672119], [-1.3519185781478882, 0.1478431075811386, 0.44818389415740967]], [[1.4344655275344849, 0.10181774199008942, 0.4226701855659485], [-1.1893310546875, -0.16736461222171783, -0.7536190152168274], [1.400012731552124, -0.7830227613449097, -2.191804885864258]], [[0.4878644049167633, 0.22203148901462555, 0.7786641716957092], [0.20005086064338684, -0.3978239595890045, -0.0208845566958189], [0.11134505271911621, -0.5417864322662354, 0.2009284347295761]]], [[[-0.2948591113090515, -1.3915754556655884, 1.5115994215011597], [-1.6324671506881714, 1.0249947309494019, -0.02574371173977852], [-2.4010918140411377, -0.006973180919885635, -2.3417718410491943]], [[0.13053172826766968, 0.10653148591518402, -0.08652196079492569], [0.27669987082481384, -0.0668802410364151, -0.6236640214920044], [-0.12147173285484314, 0.45760783553123474, 0.6118098497390747]], [[-0.5808591246604919, -0.3514573574066162, 0.7616939544677734], [0.47849637269973755, -0.11456717550754547, -0.41770443320274353], [0.08146408200263977, 0.2241169810295105, 0.12193417549133301]]], [[[-0.5383767485618591, -1.2777059078216553, -0.35312768816947937], [-0.9334685802459717, 1.0863330364227295, 0.5430700778961182], [-0.998711884021759, 1.1889243125915527, 0.5507434010505676]], [[-0.1559496819972992, 0.6683616042137146, 0.7044998407363892], [0.5085964798927307, -0.4146932363510132, -0.590114176273346], [-0.06231091171503067, -0.16514594852924347, -0.6708424091339111]], [[-0.34349092841148376, -0.02061910182237625, -1.0948868989944458], [-0.13234300911426544, 0.9452791213989258, 0.33930647373199463], [-0.8672168254852295, -0.28864946961402893, 0.08305022865533829]]], [[[0.6095082759857178, -0.9069437384605408, 0.8000763654708862], [-0.20946674048900604, 0.06599561870098114, -0.6332709789276123], [1.7145791053771973, 0.30473223328590393, 0.3911832273006439]], [[-0.04504399374127388, -1.406063199043274, 0.11664143204689026], [-1.5151530504226685, 0.5678772330284119, 0.404368132352829], [0.2782740294933319, 1.2573368549346924, 0.16420045495033264]], [[-0.057134829461574554, 0.8457754254341125, 0.8660152554512024], [-0.48715752363204956, 0.09476419538259506, 0.18568621575832367], [-0.48150280117988586, -0.08426942676305771, -0.2712070643901825]]], [[[-2.813568115234375, 0.16183966398239136, -1.2241405248641968], [-0.27203381061553955, 0.5225868821144104, 0.147642120718956], [1.7792168855667114, -0.3604391813278198, 0.5111978650093079]], [[-0.880220353603363, 0.3173782229423523, 0.6282491683959961], [-2.013803005218506, -0.8937954306602478, 0.49243512749671936], [0.4256703555583954, 0.7149237990379333, -0.05146675929427147]], [[0.0804814025759697, 0.5408720374107361, -0.13326410949230194], [-0.2267901450395584, -0.10491485893726349, -0.16842325031757355], [0.2744157016277313, 0.013160433620214462, -0.0005956454551778734]]], [[[-0.6432317495346069, 0.4563833177089691, 1.3309502601623535], [-0.26051706075668335, -0.13614557683467865, -1.2310638427734375], [-3.328051805496216, 0.4247264862060547, 0.6305528879165649]], [[0.8335256576538086, 0.45290809869766235, -0.9520881175994873], [0.46454036235809326, 0.40392574667930603, 0.1755683273077011], [0.1495024710893631, -1.0436769723892212, -0.5888935923576355]], [[0.3646300435066223, -0.5710120797157288, -0.3372038006782532], [0.2729775309562683, -0.15813782811164856, 0.1717269867658615], [0.5139883756637573, 0.2558004856109619, 0.6013956665992737]]], [[[-2.974222421646118, 0.4877292215824127, -0.8387346863746643], [0.3564048707485199, 1.3818738460540771, 0.3071804642677307], [-0.5186368823051453, -1.2098057270050049, 0.8267606496810913]], [[0.4378941059112549, 0.7436048984527588, 0.4272250235080719], [0.5874282717704773, 0.19811660051345825, 0.6130350828170776], [0.6738987565040588, -0.20909640192985535, -0.4800546169281006]], [[-0.19990646839141846, 0.4906921684741974, 0.22521834075450897], [0.2055741548538208, 0.1456148326396942, -0.015398763120174408], [0.07287568598985672, 0.025447331368923187, 0.620460033416748]]], [[[-0.8219059705734253, -1.7181963920593262, 0.3490106463432312], [-0.17172513902187347, -0.8616396188735962, -0.5541816353797913], [0.66459059715271, -0.4987075924873352, 0.6723001599311829]], [[-0.5043137669563293, 0.4092990458011627, 0.3796674609184265], [0.5104572772979736, -1.564265489578247, 0.8822115063667297], [-1.5187917947769165, -0.6147489547729492, 1.563564419746399]], [[-0.2756970524787903, -0.07660096883773804, 0.6594210863113403], [0.1745672971010208, -0.10932832956314087, -0.2619789242744446], [0.5535611510276794, 0.1196669340133667, -0.4181690216064453]]]], "conv1.bias": [0.3952381908893585, -0.35288774967193604, -0.5688484311103821, 0.42305293679237366, -1.2099169492721558, 0.006859858054667711, -1.0416542291641235, -0.20594948530197144, 0.41659846901893616, 0.9375744462013245, 0.5646008849143982, 0.4700707197189331, -0.3220982849597931, 0.38091304898262024, -0.09013307094573975, 0.5009920597076416, -0.360025554895401, -0.08401721715927124, -0.5574931502342224, -0.16516824066638947, -0.9674631953239441, -0.12815451622009277, -0.2954597771167755, 1.0280418395996094, -0.46148326992988586, 0.6575964689254761, -0.6836968064308167, 1.2158373594284058, 1.1605122089385986, 0.6421278119087219, 0.5899698138237, -1.1577913761138916, -0.6133886575698853, 0.4066689610481262, 0.028896017000079155, -1.9239777326583862, 0.4248207211494446, -0.19015827775001526, -1.3377798795700073, 0.03547428175806999, 0.7112853527069092, 0.5584294199943542, -1.1851451396942139, 0.3656361401081085, 0.49983450770378113, 0.03850191831588745, -0.0589774064719677, 0.6974708437919617, 1.1829023361206055, -0.5470713973045349, 0.3310762941837311, 0.16161295771598816, 0.2501864433288574, 0.6920361518859863, 0.268547385931015, 0.6061819791793823, 1.1804511547088623, -0.41839584708213806, -1.496734857559204, -1.5652482509613037, -0.491178959608078, -0.7151166200637817, 0.8869274258613586, 0.8895171880722046], "bn1.weight": [0.9894686937332153, 0.9476933479309082, 1.1583423614501953, 1.1342694759368896, 1.262134313583374, 1.0560846328735352, 1.07209050655365, 1.456102728843689, 0.7742764353752136, 1.189534306526184, 1.3893753290176392, 1.0819594860076904, 1.0492773056030273, 1.444135308265686, 1.2330487966537476, 1.1344853639602661, 1.027986764907837, 1.0566984415054321, 1.341178059577942, 0.7849506139755249, 1.4609193801879883, 1.1249675750732422, 1.1554661989212036, 1.0209225416183472, 1.0049796104431152, 1.0388200283050537, 1.1835792064666748, 1.1843595504760742, 1.7256734371185303, 1.789487600326538, 0.8929343223571777, 1.0624663829803467, 1.4696130752563477, 1.225940227508545, 1.3734437227249146, 1.0722516775131226, 0.9636356830596924, 1.2610121965408325, 1.376355767250061, 1.3060503005981445, 0.8505170941352844, 1.3195433616638184, 1.0482771396636963, 1.0763105154037476, 0.94520503282547, 1.487159252166748, 1.1712926626205444, 1.2664134502410889, 1.2424402236938477, 0.9843190908432007, 1.1414108276367188, 1.2481460571289062, 0.7843987345695496, 1.1909935474395752, 1.2235203981399536, 1.3895618915557861, 0.931363046169281, 1.1319936513900757, 1.0704078674316406, 0.8881562948226929, 1.0827916860580444, 1.195290446281433, 1.1654661893844604, 1.0253432989120483], "bn1.bias": [-0.11616338044404984, -0.545748233795166, -0.23338037729263306, -0.16478528082370758, -0.8748505115509033, -0.24943824112415314, -0.43703314661979675, -0.3567793667316437, -0.18921761214733124, -0.9620143175125122, -0.03538008779287338, -0.13535813987255096, -0.6206721663475037, -1.4943139553070068, -0.3122168779373169, 0.21786269545555115, -0.37341657280921936, -0.732723593711853, -1.1135427951812744, -0.022035736590623856, -0.6307883858680725, -0.5079044103622437, 0.13215360045433044, -0.30444708466529846, -0.0838097482919693, -0.7953588962554932, -0.28188666701316833, -0.622981607913971, -1.2120321989059448, -1.3888874053955078, -0.817481279373169, -0.2370026707649231, -0.9636319279670715, -1.8056449890136719, -0.48235538601875305, -1.141197919845581, -0.6536669135093689, -1.099851369857788, -1.4511175155639648, -0.8272740244865417, 0.01597450114786625, -0.6105990409851074, -0.9290701150894165, -0.7811461091041565, 0.24549759924411774, -1.0564486980438232, -0.3839174211025238, -0.454189270734787, -0.471558541059494, -0.5042780637741089, -1.1234139204025269, -0.3201761543750763, 0.06529068946838379, -0.52765291929245, -0.8435716032981873, -0.9610764384269714, -0.5680989027023315, -0.20047597587108612, -0.5193025469779968, -0.567054271697998, -0.622965931892395, -0.7522850632667542, -0.9670328497886658, -0.647079348564148], "conv2.weight": [[[[-0.6281125545501709, -0.6841762661933899, -0.6413971185684204], [0.1195700615644455, 1.0678622722625732, -0.39915239810943604], [0.09347055107355118, 1.7701630592346191, 1.301062822341919]], [[-0.3206620216369629, -0.13304033875465393, 0.45551109313964844], [0.01179063506424427, -0.10881181061267853, 0.37721484899520874], [0.13234269618988037, -0.27887532114982605, -0.27544504404067993]], [[-0.8019585013389587, -1.2878001928329468, -0.14782892167568207], [0.09500159323215485, 0.19978997111320496, -0.2146972268819809], [0.5914344787597656, -0.06902524828910828, -0.8059189319610596]], [[0.07183753699064255, -1.21527099609375, 0.8108290433883667], [0.1329418420791626, -0.9877970814704895, -2.1319406032562256], [0.791631281375885, -1.1183124780654907, 1.2890375852584839]], [[-0.440684050321579, 0.36524564027786255, 0.33841848373413086], [0.004705195315182209, 0.2638185918331146, 0.7035315632820129], [1.5483729839324951, -0.7752458453178406, -0.43243151903152466]], [[0.7779695391654968, 0.09583574533462524, -0.25203898549079895], [0.13775256276130676, 0.4123789370059967, 0.3027905821800232], [1.598110318183899, 0.11896415799856186, -0.15734456479549408]], [[-0.6308494806289673, 1.5101670026779175, -0.32097476720809937], [0.2716417610645294, 0.0937136709690094, -0.5924683809280396], [0.40274298191070557, -0.915500283241272, -1.0345028638839722]], [[-0.3446195125579834, 0.08777134865522385, -0.2720680832862854], [-0.19532854855060577, 0.006655147299170494, 0.5165703892707825], [1.2750937938690186, -0.7158927917480469, 0.5101678371429443]], [[-0.05143531411886215, -0.21249763667583466, 0.324052631855011], [-0.8869900107383728, 0.5045408606529236, -0.25988903641700745], [0.074635349214077, 0.039842430502176285, -0.077654168009758]], [[0.4096633493900299, -1.4330312013626099, 0.10764013230800629], [-0.5384899377822876, 1.147585153579712, 0.09050553292036057], [1.2108254432678223, 0.2644764482975006, -1.6896376609802246]], [[-1.6727056503295898, 0.11560888588428497, -0.07204674184322357], [0.6723831295967102, -0.38970109820365906, -0.33691200613975525], [-0.4985652565956116, 0.3771657347679138, 0.07892686128616333]], [[0.9914162755012512, -1.0213810205459595, -0.985762357711792], [0.27839159965515137, -0.4018830955028534, 0.0028909994289278984], [0.48385363817214966, 0.5709421038627625, -0.33699825406074524]], [[-0.3211485743522644, -1.217637062072754, -0.549741804599762], [-0.5892561078071594, -0.13995465636253357, 0.8122099041938782], [-1.8258464336395264, 0.22013095021247864, 0.3999972343444824]], [[-0.2224862277507782, -0.06745483726263046, -0.34159648418426514], [1.0790332555770874, -0.2498263418674469, -0.2145702838897705], [0.5364111065864563, -0.13222342729568481, -0.7499956488609314]], [[-0.584915816783905, 0.254640132188797, 0.24332186579704285], [-0.2620689868927002, 0.43588802218437195, -1.074011206626892], [-0.1583479940891266, 0.07066193968057632, -0.19203424453735352]], [[-0.7862812876701355, 0.4596315920352936, -0.6585613489151001], [-0.5877248644828796, 0.9233077764511108, 0.9870932698249817], [0.5692832469940186, -0.21276506781578064, 0.5699880719184875]], [[1.0019787549972534, -0.19107778370380402, 0.2459818720817566], [-0.632053017616272, 0.4966261088848114, -1.0845342874526978], [-0.5015668272972107, 0.40916556119918823, 0.722499668598175]], [[-0.21576383709907532, -0.2254149168729782, -0.2340823858976364], [-0.47163474559783936, -0.4023272693157196, -0.8752566576004028], [-0.3957923352718353, -0.04964345321059227, -0.5354640483856201]], [[-1.1122326850891113, -0.2980964183807373, -0.21052679419517517], [-0.5007742047309875, 0.5994544625282288, -0.6401722431182861], [0.9971163868904114, -0.9798488020896912, -1.3956549167633057]], [[-0.13090068101882935, 0.2715144455432892, 0.6194214820861816], [-0.5495900511741638, -0.7697553634643555, -0.5293988585472107], [1.06177818775177, 1.009265422821045, 0.14914660155773163]], [[-0.26065054535865784, -0.0032234375830739737, 0.9530137777328491], [1.0683163404464722, 0.06369327753782272, -0.12511089444160461], [-0.48778340220451355, -0.2860325872898102, 0.15149055421352386]], [[-0.1819661408662796, -0.9534016847610474, -0.691710889339447], [0.6279801726341248, -1.3002800941467285, -0.0204938855022192], [-1.0958679914474487, -0.2913728356361389, 0.5877068042755127]], [[-0.41381973028182983, 0.5219142436981201, 0.799813449382782], [-0.31600192189216614, 0.19799643754959106, -0.6155759692192078], [0.07601016759872437, 0.03244910016655922, 0.4185331165790558]], [[0.2887774407863617, -0.164823517203331, 0.8461392521858215], [-0.4887777268886566, -0.06962109357118607, -0.6906847357749939], [-0.15668079257011414, 0.5407931208610535, 0.034533336758613586]], [[0.04338885471224785, -0.308103084564209, 0.5682916045188904], [0.2111637443304062, 0.6446624994277954, 0.9343917369842529], [1.104337453842163, -0.23719727993011475, 0.31186774373054504]], [[-1.3743683099746704, -0.8889182806015015, 0.05323636159300804], [-0.0031024087220430374, 0.4269818067550659, -0.4346019923686981], [-0.4456140100955963, 1.0664184093475342, 1.1393167972564697]], [[1.153282642364502, 1.4855787754058838, -0.5715070962905884], [0.04040384665131569, -0.5224429965019226, -1.0195047855377197], [0.12568286061286926, 0.05144427716732025, 0.8409676551818848]], [[0.005713331047445536, -0.2734920084476471, -0.25008684396743774], [0.7846657633781433, 1.208920955657959, -0.519348680973053], [-0.6580713987350464, -0.9650444984436035, -0.2649112641811371]], [[-0.723635733127594, -0.24651005864143372, -0.7619311213493347], [0.2336135059595108, -0.3713621199131012, -0.034533411264419556], [0.6089319586753845, -0.692689061164856, 1.3622256517410278]], [[0.2636586129665375, 1.1078903675079346, 1.4766217470169067], [0.5462417006492615, 0.22543416917324066, 0.22007319331169128], [0.13682234287261963, -0.6151131987571716, 0.468146950006485]], [[0.23193146288394928, -0.15373489260673523, 0.07060636579990387], [-0.9517931342124939, 0.13093207776546478, -0.13796429336071014], [-0.05541875213384628, -0.36026954650878906, -1.1067187786102295]], [[0.3364087641239166, 0.9535287618637085, 0.2719630300998688], [1.1619834899902344, -0.48179224133491516, 0.8261836171150208], [0.01423761248588562, 0.02305496670305729, -1.0336495637893677]], [[-0.5136311650276184, -0.3645264208316803, 0.18557606637477875], [0.5137378573417664, -0.40744006633758545, 0.07451963424682617], [1.8506957292556763, 0.5119379758834839, 0.17719779908657074]], [[-0.18229779601097107, 0.671808660030365, -0.7274965643882751], [-1.4957222938537598, 1.3159157037734985, 0.13945090770721436], [0.29546937346458435, -0.8429402709007263, -0.8015589714050293]], [[-0.6157791018486023, 0.5299298763275146, 0.21875204145908356], [0.20147600769996643, -0.23027490079402924, 0.4784535765647888], [0.749466598033905, 0.357148677110672, -0.23189210891723633]], [[0.034843798726797104, -0.21133704483509064, -0.3179754614830017], [0.8341923952102661, -0.24908341467380524, 1.3945348262786865], [-1.5813825130462646, -2.677203893661499, -1.0058400630950928]], [[-0.979122519493103, 0.6275885105133057, -0.9953785538673401], [0.1600850373506546, 0.1497478038072586, -0.6298977732658386], [-0.38163599371910095, 0.43875983357429504, 0.5416764616966248]], [[-1.9895223379135132, 0.1863916963338852, 0.050319645553827286], [-1.947213053703308, -0.432990700006485, 0.1640317589044571], [-0.31999555230140686, 0.6166013479232788, 0.5622972846031189]], [[0.3533027172088623, 0.22720898687839508, -0.9926396608352661], [0.6675066947937012, 0.1554109901189804, 0.5419636368751526], [1.0813579559326172, -0.031764835119247437, -0.9563701152801514]], [[-0.32313859462738037, 1.0538365840911865, 0.11315331608057022], [-0.0819406658411026, -0.48138612508773804, 0.3318314850330353], [0.026901068165898323, 0.05318969488143921, 0.2000221610069275]], [[1.0650628805160522, 0.5841793417930603, -1.5611224174499512], [0.49109989404678345, -0.4052303731441498, 0.3874877989292145], [0.27110755443573, -0.18633389472961426, -0.12829835712909698]], [[0.5239072442054749, -1.485976219177246, 1.44636070728302], [1.0684764385223389, -0.16101384162902832, -0.6342405080795288], [0.6677444577217102, -0.33879050612449646, 0.39254188537597656]], [[-2.0222725868225098, 0.9797729849815369, 0.6628094911575317], [0.8100548982620239, 0.6349484920501709, 0.05682697519659996], [-0.31182119250297546, 0.2864808142185211, 0.23552171885967255]], [[-0.21829690039157867, -0.4806993901729584, -0.0018422635039314628], [0.6308557987213135, 0.6763222813606262, -0.6584267020225525], [-1.021714210510254, -0.32110512256622314, 0.6421687006950378]], [[-0.9242567420005798, 0.14306220412254333, 0.44501158595085144], [-0.6731523871421814, -0.25399765372276306, 0.9215579032897949], [0.11707432568073273, 0.22333326935768127, 0.3849862515926361]], [[-1.299594521522522, 0.5552940964698792, -0.3852321207523346], [0.3582373261451721, 1.0170209407806396, 0.24415883421897888], [-0.5362581014633179, 0.1411847323179245, -0.4874882400035858]], [[-0.18861742317676544, -0.4562636613845825, 0.18791651725769043], [-2.431704044342041, 0.3585822880268097, -0.32714658975601196], [0.49663102626800537, -0.5028877854347229, 0.7116721868515015]], [[0.2666155993938446, 0.2944973409175873, -1.6171284914016724], [0.07076878845691681, 1.091439962387085, -0.8166108131408691], [0.4362685978412628, -0.4286684989929199, 1.0013571977615356]], [[-0.6811146140098572, -0.2408624291419983, 1.2702808380126953], [-0.028610851615667343, -0.547947108745575, 0.9000877737998962], [-1.1313899755477905, -0.16551931202411652, -0.49643296003341675]], [[-0.18348060548305511, -0.15386143326759338, -0.23065607249736786], [-0.08840884268283844, 1.24696683883667, 1.2129549980163574], [-0.2939528226852417, -1.7884026765823364, 0.9672211408615112]], [[0.20572859048843384, 0.2497541606426239, -0.5406035780906677], [-0.06782585382461548, -0.7546177506446838, -0.20634593069553375], [-0.5039361715316772, -1.251777172088623, -0.9249711632728577]], [[0.2800813317298889, -0.34705233573913574, 0.5760498046875], [-0.19851097464561462, 0.13931021094322205, 1.4199720621109009], [-0.6863074898719788, 0.37894004583358765, -0.07384408265352249]], [[-0.013211173936724663, -0.2520518898963928, -0.41141897439956665], [0.31994345784187317, 0.08535715192556381, -0.8853937387466431], [0.39882734417915344, -0.4132315516471863, 0.8379358649253845]], [[0.2398635596036911, 0.08232813328504562, -0.3508051037788391], [0.1145053505897522, 0.2407786250114441, -0.11588328331708908], [-0.8391287922859192, 0.15851251780986786, -0.881936252117157]], [[-0.42171210050582886, 0.6623159646987915, 1.1186984777450562], [0.37965506315231323, 1.2660571336746216, -0.7077962756156921], [0.6506508588790894, 0.09264715760946274, -0.03148810192942619]], [[-0.25870370864868164, -0.3238134980201721, 0.5332431793212891], [-0.3072260022163391, -1.33759343624115, 0.12918277084827423], [-0.9209965467453003, 0.17888203263282776, 0.290195494890213]], [[0.17674420773983002, 0.15225352346897125, -0.5891380310058594], [0.3820970356464386, -0.09030439704656601, 0.9397585391998291], [-0.014535665512084961, -0.17246317863464355, -0.2758709192276001]], [[-0.4163401424884796, 0.8028963208198547, -0.247783362865448], [-0.28908899426460266, 0.26474738121032715, -0.9468993544578552], [-0.10821881145238876, -0.8777019381523132, 1.0310142040252686]], [[-0.22857241332530975, 0.4477480351924896, 0.17119993269443512], [-0.2278643399477005, 1.129239559173584, 0.5463994741439819], [-1.7234658002853394, -1.271286964416504, -0.3710055947303772]], [[-0.27012398838996887, -0.04599328711628914, 0.25698113441467285], [-0.2147846221923828, 0.14752700924873352, 0.3004002273082733], [0.30865806341171265, -0.7846434116363525, 1.8624022006988525]], [[0.65506511926651, -2.1766581535339355, -1.2758386135101318], [-0.42138439416885376, 0.0642404705286026, -0.4677797555923462], [0.8878456950187683, 0.137671560049057, -0.426688015460968]], [[0.05541342496871948, 0.12183172255754471, -0.14398552477359772], [-0.20319432020187378, -1.5314583778381348, 0.6374425888061523], [-1.4677973985671997, 0.549987256526947, -1.060736894607544]], [[0.4614701569080353, -0.7985826730728149, 0.010873250663280487], [-0.665569007396698, 0.730844259262085, 0.40296128392219543], [-0.1424490511417389, -0.14665283262729645, 0.7062609195709229]], [[0.6848589777946472, -0.5275458693504333, 0.40402331948280334], [-0.2827335298061371, 0.7681090831756592, -0.27730149030685425], [0.44247227907180786, 0.292574018239975, -0.9826449155807495]]], [[[-0.17278024554252625, -0.2366338074207306, -0.3357163667678833], [-0.8881075382232666, 0.817607581615448, -0.7985057830810547], [-0.04762006923556328, 0.34960755705833435, 0.15042228996753693]], [[0.04313190281391144, -0.5079523324966431, 0.5006127953529358], [-0.8127918839454651, -0.24319300055503845, -1.36956787109375], [0.6576700210571289, 0.7491209506988525, -0.26004770398139954]], [[-0.0867186188697815, -0.20918838679790497, -0.4652184545993805], [-1.4611505270004272, -0.11106669902801514, -0.6869063973426819], [-1.8461284637451172, -0.5634150505065918, 0.8643500804901123]], [[-0.23384015262126923, -0.32473573088645935, 0.23336727917194366], [-0.36399441957473755, 0.04050261527299881, -1.528882384300232], [0.4409518539905548, -0.3518575131893158, 0.06328392028808594]], [[0.5228018164634705, -0.3226543366909027, -1.4683133363723755], [-0.11770381033420563, -0.6968518495559692, -0.11048641800880432], [0.4400762617588043, -0.8481040000915527, -0.13791191577911377]], [[0.7360774278640747, 0.13505111634731293, 1.8077623844146729], [0.3124716281890869, -0.2001572996377945, -0.3655771315097809], [-0.2004794180393219, -0.19788327813148499, 0.06846842169761658]], [[0.7004772424697876, -0.13440918922424316, -0.1564355343580246], [0.6929458975791931, -0.07464830577373505, 1.0468921661376953], [0.9957893490791321, -0.07909147441387177, -0.061966702342033386]], [[-0.10947848856449127, -0.21023651957511902, -0.2630680203437805], [-0.17653274536132812, -0.6965203285217285, 0.5578796863555908], [-0.09104008972644806, -0.5318636298179626, 0.6684873700141907]], [[0.8808783292770386, -0.6446793079376221, 0.38162538409233093], [0.07531637698411942, 0.9141774773597717, 0.4919516146183014], [0.4686487019062042, -0.007649979088455439, -0.18998876214027405]], [[-0.12722992897033691, 0.33785468339920044, -0.3007481098175049], [-0.052912622690200806, -0.5955358147621155, -0.4966583847999573], [0.6916967034339905, 0.42148852348327637, 0.8764708638191223]], [[0.21287530660629272, -0.8263949155807495, 0.021340787410736084], [-0.9603040218353271, 0.38360825181007385, 0.23981602489948273], [0.6470698714256287, 0.1705934852361679, -0.7149808406829834]], [[0.5230804681777954, -0.3230346441268921, 0.5591052174568176], [-0.27636340260505676, -2.312243700027466, -0.2430282086133957], [0.40660643577575684, 0.5428395867347717, 0.20182682573795319]], [[1.2236835956573486, -0.27473774552345276, -0.2135455161333084], [-1.4729795455932617, -0.45044729113578796, 0.43690747022628784], [-1.351988673210144, 0.08478744328022003, 0.5111979842185974]], [[-0.2814258933067322, -0.10233839601278305, -0.3498688340187073], [0.29898571968078613, 0.0922640785574913, -0.22054573893547058], [-0.04787394776940346, 0.6705068945884705, -0.8200744390487671]], [[-0.5969646573066711, 0.20010177791118622, -0.9048706889152527], [0.051503509283065796, 0.5828014612197876, -0.40015560388565063], [1.8586000204086304, 0.002316234167665243, -0.14639976620674133]], [[0.5631808042526245, 0.17565672099590302, 0.004542543552815914], [-0.20400545001029968, -0.30486366152763367, 0.36450743675231934], [0.12279392778873444, 0.26128605008125305, 0.1333082616329193]], [[-0.18995486199855804, -0.4084055721759796, 0.22886744141578674], [-0.37097734212875366, 0.45610180497169495, -0.008684033527970314], [1.3229111433029175, -0.35619327425956726, 0.4657866358757019]], [[0.8738332986831665, 0.3222764730453491, -0.5777571797370911], [0.25507429242134094, -0.5576459765434265, 0.9088090658187866], [-1.1239010095596313, 0.44110143184661865, -0.4556801915168762]], [[0.821658194065094, 0.12507516145706177, -0.4114528000354767], [0.9362124800682068, 1.6493802070617676, 0.25907501578330994], [-0.9272978901863098, -0.23211105167865753, 0.6622134447097778]], [[0.559328556060791, -0.8705474734306335, -2.3349578380584717], [-0.17304962873458862, -0.5905093550682068, 0.8114618062973022], [-0.24129174649715424, -0.026880523189902306, -0.1659664362668991]], [[-0.6499044895172119, -0.472393661737442, -0.10684549063444138], [0.3494586944580078, -0.5317606329917908, 1.0308988094329834], [0.6738128662109375, 0.6220844984054565, 0.2551754117012024]], [[0.36751824617385864, 0.5122164487838745, 0.775564968585968], [-0.0068543595261871815, -0.2873538136482239, 0.5990574955940247], [-1.5682538747787476, -0.15490852296352386, -0.9747825264930725]], [[0.1313856691122055, 0.11288928240537643, -1.1873677968978882], [-0.08712427318096161, 0.3417819142341614, 0.32338136434555054], [0.8564670085906982, 0.7172642350196838, -0.21738076210021973]], [[0.689251184463501, -0.2623916268348694, 0.25779712200164795], [-0.6575539112091064, 0.961246907711029, -0.2861455976963043], [0.3531107008457184, -0.3246939778327942, 0.25094854831695557]], [[-0.35212674736976624, -0.19400867819786072, 0.5061100721359253], [-0.014908615499734879, -0.24004891514778137, -0.03751900792121887], [-2.753138542175293, -0.1285063773393631, 0.6470212340354919]], [[-0.775570273399353, 0.3633365333080292, -0.3238435983657837], [-0.5521014332771301, 0.43192723393440247, -1.030111312866211], [-0.7128060460090637, 0.05732373893260956, 0.018419494852423668]], [[0.555354118347168, -0.19151218235492706, -0.8789811730384827], [0.1427915245294571, 0.2740805745124817, 1.400496482849121], [1.513403058052063, 0.6945829391479492, -1.514264464378357]], [[-1.1035714149475098, 0.26045870780944824, 0.5443213582038879], [-0.8739457726478577, 1.5759124755859375, 0.3011762201786041], [-3.8666088581085205, 0.5379642844200134, -0.6354950666427612]], [[0.22405490279197693, -0.07166139781475067, 0.8991309404373169], [-0.3731845021247864, -1.004734754562378, 1.264039158821106], [-0.05099581182003021, 0.11154258251190186, 0.8852890729904175]], [[-0.8152004480361938, 0.5471241474151611, 0.17728771269321442], [0.10763467848300934, -0.7227126359939575, 0.2404821515083313], [-0.7708053588867188, -0.6492018103599548, 0.6997737884521484]], [[0.08933832496404648, -0.04076153039932251, 0.47025200724601746], [-0.17809994518756866, -0.07377858459949493, -0.01853541098535061], [0.1320115327835083, -0.5555488467216492, 0.3651273846626282]], [[-0.6615275740623474, -0.3528498113155365, -0.6504091620445251], [-0.4416971206665039, -0.5966669321060181, -1.002981185913086], [-0.5032927393913269, 0.29145127534866333, -0.3757406175136566]], [[0.0592237263917923, -0.21789227426052094, -0.18025150895118713], [0.12846136093139648, 0.3549448847770691, 0.0151939382776618], [1.3783764839172363, -0.28939172625541687, 0.369999498128891]], [[0.3975074291229248, 0.38629788160324097, -0.3575206995010376], [0.1308349221944809, -0.3627328872680664, -0.4690585136413574], [1.6364169120788574, -1.260532021522522, 0.41819727420806885]], [[0.7371196746826172, 0.3997029960155487, 0.8034218549728394], [-0.2332947552204132, 0.5012481808662415, 0.4031798839569092], [-0.5548571944236755, 0.4253428280353546, 0.3302052915096283]], [[-0.3765307068824768, -0.6363975405693054, 0.12803779542446136], [-0.7985917329788208, 0.3436051905155182, -0.13451708853244781], [-0.2855580449104309, -0.3405461311340332, 0.40642839670181274]], [[0.508522093296051, 1.0555914640426636, 1.0855331420898438], [0.3504093587398529, 0.1959814429283142, -0.8091804385185242], [-0.4919326901435852, 0.04286310076713562, 0.5738188028335571]], [[0.41472959518432617, -0.19629880785942078, -0.11922934651374817], [-0.6246180534362793, 0.02326074242591858, -0.13373714685440063], [0.8247698545455933, -1.325412392616272, -0.02795374020934105]], [[-0.4780427813529968, -0.8352309465408325, -0.018532827496528625], [-0.036714982241392136, 0.6060905456542969, 0.012532349675893784], [0.4016738831996918, -0.7148230075836182, -0.29600051045417786]], [[0.3965078890323639, -0.1937856823205948, -0.011049880646169186], [-0.0195872001349926, 0.19213028252124786, 0.7548223733901978], [0.25690585374832153, -0.19295942783355713, 0.6579264998435974]], [[-0.3390381932258606, 0.41496917605400085, 1.2415722608566284], [-0.1698407083749771, 0.09516643732786179, 0.5702739953994751], [0.8874022364616394, 0.44314658641815186, 0.029691452160477638]], [[-0.4244890809059143, 0.28400862216949463, 0.7716399431228638], [0.6021207571029663, -0.5137728452682495, -1.4572594165802002], [0.42081788182258606, -0.6210251450538635, -0.5513351559638977]], [[-0.3379391133785248, -0.7509838938713074, 0.3108423948287964], [0.04308793321251869, 0.6381388306617737, -0.9889670610427856], [0.04534981772303581, -0.3056708574295044, -0.23523443937301636]], [[0.5500926971435547, -0.43294665217399597, -0.08726269751787186], [0.7711153626441956, 0.868539035320282, 0.3444788157939911], [-1.6238880157470703, 0.8270903825759888, 0.02500912919640541]], [[-0.19782263040542603, -0.04975556582212448, 1.3554762601852417], [-0.5783147215843201, 1.2102248668670654, -1.036306381225586], [-0.03837297111749649, -0.3277167081832886, 0.45705997943878174]], [[-0.49036550521850586, -0.6134049892425537, -0.04510471224784851], [-0.059766318649053574, -0.5561086535453796, 0.09880144149065018], [0.5316628813743591, -0.009029220789670944, -1.0765511989593506]], [[0.05484661087393761, 0.47655999660491943, -0.8416993618011475], [-0.2935657501220703, -0.19387783110141754, -0.5262769460678101], [0.7372588515281677, -0.4518737196922302, -0.533653736114502]], [[0.3404872715473175, -0.3732309341430664, -0.32853439450263977], [-0.24625657498836517, 0.5274466872215271, 0.8266847729682922], [-0.7927131652832031, -0.383537620306015, 0.7499203085899353]], [[0.4019380807876587, -1.1601617336273193, -1.7218472957611084], [-0.63023841381073, -0.7011450529098511, -0.6721789240837097], [1.2890914678573608, -0.5679377913475037, -0.08068982511758804]], [[0.01936952769756317, -0.041247401386499405, -0.623611569404602], [-0.363187313079834, 0.4463936686515808, 0.4683026969432831], [0.568256139755249, 0.06853896379470825, 0.048626601696014404]], [[-0.08149679005146027, 0.108995221555233, 0.2955667972564697], [-0.2958976626396179, 0.23173600435256958, 0.5660228729248047], [-0.5041767954826355, -0.764604926109314, 0.3983975648880005]], [[0.07261203974485397, -0.41279545426368713, 0.17848241329193115], [0.328494131565094, -0.36523139476776123, 0.1562717854976654], [-1.141238808631897, -0.304196298122406, 0.7097969055175781]], [[0.30517297983169556, -0.4170543849468231, -0.1384362429380417], [-0.35642972588539124, 0.8827250599861145, 0.7568796277046204], [0.8017642498016357, -0.08929958939552307, 0.7398842573165894]], [[0.8445346355438232, 0.7970367670059204, 0.43892452120780945], [0.6731564402580261, -0.07348453998565674, -0.5650078654289246], [-0.8541350364685059, -0.3634117841720581, -0.03623470664024353]], [[0.27970409393310547, 0.8169872164726257, -4.2557053565979], [0.16737408936023712, 2.4880857467651367, -0.8986774682998657], [0.011843964457511902, 0.1702268421649933, -0.06989909708499908]], [[-0.31447288393974304, 0.4098840057849884, 1.0815443992614746], [-0.09092783182859421, 0.4653463065624237, -0.6723038554191589], [0.5927280783653259, 0.4763202369213104, -0.30609336495399475]], [[0.4795350134372711, -0.488298237323761, 0.5045822858810425], [-0.6181777715682983, 0.6946666240692139, -0.7281957864761353], [-1.3921250104904175, -0.24662302434444427, 1.1244958639144897]], [[0.20160917937755585, -0.020694127306342125, 0.29943275451660156], [-0.12705916166305542, 0.5350139141082764, -0.1347905844449997], [-1.0978482961654663, 0.561102032661438, -0.1036638393998146]], [[-0.53597491979599, -0.5389569997787476, -0.602094829082489], [-1.1753356456756592, -0.00026234984397888184, -0.37798672914505005], [-1.19547438621521, 0.6624090671539307, -0.4134971499443054]], [[-0.8099621534347534, 0.8960985541343689, -0.09529823064804077], [0.01755196414887905, -0.01935826987028122, -0.692008376121521], [0.9405946731567383, 0.6081938147544861, -0.27638372778892517]], [[-0.36301326751708984, -0.17295649647712708, 0.8299394249916077], [-0.3290879726409912, 0.9445866346359253, 1.2678903341293335], [0.3507087826728821, 0.5474355816841125, -0.35104605555534363]], [[0.3831946551799774, 0.24901317059993744, 1.5305296182632446], [1.411969542503357, -0.252606064081192, -0.16187219321727753], [-0.21089981496334076, 0.4270000159740448, -0.2682691514492035]], [[0.06541413813829422, 0.8768489956855774, 0.03168549761176109], [-0.15518422424793243, 0.20623943209648132, -0.1056065708398819], [-0.1243324726819992, 0.23910970985889435, -0.07492981106042862]], [[0.9485658407211304, 0.46329739689826965, -0.5369437336921692], [0.33670783042907715, -0.24783223867416382, -0.3612824082374573], [0.3856860101222992, -0.9676447510719299, -0.6871368885040283]]], [[[-0.5749354362487793, 0.257175087928772, 0.24826200306415558], [-0.4686944782733917, 0.1079360619187355, -0.4507640302181244], [-0.10185051709413528, -0.04913651943206787, -0.9440023303031921]], [[0.5637739896774292, -0.8728338479995728, -0.6172846555709839], [0.338578462600708, 0.6965172290802002, -0.04883573204278946], [0.7951660752296448, -0.9247501492500305, -0.4028661847114563]], [[0.24170787632465363, 0.04635712876915932, -0.22993159294128418], [0.48043525218963623, 0.14878761768341064, -0.009618600830435753], [0.497191846370697, -0.5116891264915466, -0.5640503764152527]], [[0.5714161396026611, 0.044619642198085785, 0.3295559287071228], [0.8516132235527039, -0.6821799278259277, -0.04308299347758293], [-1.0844542980194092, -0.20745086669921875, 0.25213465094566345]], [[-0.0743233785033226, -0.5858576893806458, -0.8275913000106812], [-0.3256666660308838, -1.854156255722046, 0.6785970330238342], [0.5660582780838013, -0.42413368821144104, 0.14520202577114105]], [[0.33247530460357666, -0.40406739711761475, -0.6260519027709961], [0.6187072992324829, -0.0622849203646183, 0.17217594385147095], [-0.732814610004425, 0.5774213075637817, 0.2431993931531906]], [[-0.1344665288925171, 0.8745981454849243, -0.3103667199611664], [-0.3905254602432251, 0.4050348103046417, -0.17481879889965057], [0.7911570072174072, 0.0405765175819397, -0.5102542638778687]], [[1.0901398658752441, 1.4315929412841797, 0.5747319459915161], [0.3157119154930115, -0.43145090341567993, 0.15013065934181213], [-0.06612507998943329, -0.1773628443479538, -0.16520996391773224]], [[-0.6627669930458069, 0.23015300929546356, 0.5007891058921814], [-0.30001792311668396, 1.9077693223953247, -0.1284978687763214], [-0.8403254747390747, -0.11144105345010757, 0.9342522621154785]], [[0.5553590059280396, 0.6623197793960571, 0.5754483938217163], [-0.7380428314208984, 0.4234018623828888, -0.10341664403676987], [0.5883172154426575, -0.061185017228126526, 0.5181799530982971]], [[0.05056168511509895, 0.17346006631851196, 0.2049141824245453], [0.906231164932251, -0.5714534521102905, -0.6117408871650696], [-0.723463237285614, -0.39570707082748413, -0.0003112583654001355]], [[0.12178277224302292, 0.9982901215553284, 0.07672294974327087], [-0.1319543868303299, 0.38556692004203796, -0.8881837129592896], [-0.4284771978855133, -0.7153624892234802, -1.0889431238174438]], [[-0.7812787294387817, 0.37078163027763367, -0.5239626169204712], [0.9897287487983704, 0.8066024780273438, 0.25971147418022156], [-1.388535976409912, 0.0024800256360322237, 0.10549195855855942]], [[0.12865164875984192, 0.379046767950058, -0.22428424656391144], [-0.22262191772460938, -0.10133475810289383, 0.2729118764400482], [0.16627535223960876, -1.042189121246338, -0.9595775604248047]], [[-0.0014042319962754846, -0.10286631435155869, 0.47299423813819885], [1.280591607093811, 0.7115223407745361, 0.8299957513809204], [-0.03378629684448242, -0.3519870936870575, 1.0842742919921875]], [[-1.7299150228500366, 0.47578561305999756, -0.5291911959648132], [0.3878018260002136, 1.1337847709655762, -0.23369453847408295], [-0.2620084583759308, -1.6663286685943604, -0.2686904966831207]], [[-0.5079658627510071, 0.43783342838287354, 1.2309554815292358], [-0.0098909642547369, 0.06659208983182907, -1.1413415670394897], [0.4304174780845642, -0.16962377727031708, 0.45841720700263977]], [[-0.3442939221858978, -0.31104645133018494, 0.4835280776023865], [-1.0058108568191528, -0.5854135751724243, 0.4523654580116272], [-0.929929256439209, -0.26062142848968506, -1.2259753942489624]], [[-0.2621600925922394, -0.22343087196350098, 1.1754915714263916], [-1.0788638591766357, 1.0359711647033691, -0.19827322661876678], [0.6780151128768921, 0.43063226342201233, 0.04078207165002823]], [[0.3712393045425415, 0.8882451057434082, 0.6471472382545471], [-0.3517044186592102, 0.8401886224746704, 0.15742094814777374], [-0.13593140244483948, -0.45157504081726074, -0.4785008132457733]], [[0.6071562170982361, 0.3242323696613312, -0.6238482594490051], [-1.2001253366470337, -0.6286568641662598, -0.477454274892807], [0.0044763823971152306, 1.054970622062683, 0.15317639708518982]], [[-0.3522917628288269, -0.16122515499591827, -0.20599325001239777], [-1.1098588705062866, -0.4253813922405243, -0.2429194301366806], [-0.7082104086875916, 0.3883616030216217, 0.22029295563697815]], [[-0.40834277868270874, -0.6036027669906616, -1.1039060354232788], [0.47016623616218567, 0.6797696948051453, -0.6175820231437683], [0.1594601422548294, -0.4713577628135681, -0.9143538475036621]], [[-1.6930378675460815, -0.16412226855754852, 1.4395924806594849], [-2.721184015274048, 0.3020177483558655, -0.058377716690301895], [-1.4533978700637817, -0.3225119709968567, 0.18822890520095825]], [[0.5865991115570068, -0.12375645339488983, -0.3306165039539337], [0.4214279055595398, 0.3236090838909149, -0.00040641811210662127], [-1.4137521982192993, -0.497774600982666, -0.06605621427297592]], [[0.27733999490737915, 0.9137074947357178, 0.6779925227165222], [0.15586742758750916, 0.8907968997955322, -0.6606844067573547], [-1.0824881792068481, -0.30651789903640747, 0.20490367710590363]], [[-0.038897376507520676, -0.34497231245040894, -1.196304440498352], [-0.07496748119592667, 0.08926290273666382, 0.6147053241729736], [0.2390136420726776, -0.9455642104148865, -0.22851639986038208]], [[0.5808882117271423, -0.017668016254901886, -0.10661555081605911], [0.12296734005212784, -0.2957257926464081, -0.21178653836250305], [0.11379872262477875, -0.8573753833770752, 0.36567986011505127]], [[-0.6557929515838623, -0.1995355784893036, -0.26674142479896545], [-0.12245871871709824, -0.8734607100486755, 0.2703472077846527], [-1.2011796236038208, 0.026377521455287933, 0.4022764563560486]], [[-0.7820866703987122, 0.2346193641424179, 0.6568496227264404], [-0.569525420665741, 0.4947702884674072, -0.6665982007980347], [0.8527941107749939, -2.8012876510620117, -0.06690717488527298]], [[-0.6206862330436707, -0.2507646977901459, 1.1888504028320312], [-0.24239136278629303, 0.32209518551826477, -0.15892404317855835], [0.13265711069107056, 1.2280150651931763, -0.04108436033129692]], [[0.16560770571231842, 0.6601676940917969, 0.2008322924375534], [-0.10004381090402603, -0.5976923108100891, -1.2368680238723755], [0.7744356393814087, 0.06375628709793091, 0.43448305130004883]], [[0.7804369330406189, -0.060653235763311386, -0.29867735505104065], [0.039845649152994156, -0.9324473142623901, -0.32656365633010864], [1.1187013387680054, 0.46564093232154846, 0.04049088805913925]], [[0.6452658772468567, -0.3330652415752411, 0.12613052129745483], [0.8189401030540466, 0.7127802968025208, -0.08479639887809753], [1.7988262176513672, -0.1347419023513794, -0.3869003653526306]], [[0.5427374839782715, -0.15042968094348907, -0.13999396562576294], [-0.4964592754840851, -0.8909319043159485, 0.3011833131313324], [-0.7708234786987305, 0.18158620595932007, -0.24424101412296295]], [[-0.09862446039915085, 0.2459871470928192, 0.08570045977830887], [-0.21544116735458374, 0.07201071828603745, 0.3538086712360382], [-0.214339017868042, -1.3442492485046387, 0.7613919973373413]], [[0.12269473820924759, -0.2950877845287323, 0.4959707260131836], [0.38823962211608887, -0.7643354535102844, -0.48206833004951477], [1.2327722311019897, -0.4809718430042267, 1.230285882949829]], [[-0.16166777908802032, 0.062487076967954636, -0.4689943194389343], [1.079303503036499, 0.5526607632637024, 0.32267749309539795], [-0.6297199130058289, 0.7103699445724487, 0.29092907905578613]], [[0.6706243753433228, -0.768889844417572, -0.12860994040966034], [0.7404724955558777, 0.02128351666033268, -0.030494309961795807], [-0.09101223945617676, 0.42742881178855896, 0.5270914435386658]], [[-0.7062836289405823, 1.3477983884513378e-07, 0.29139867424964905], [-0.6136868596076965, -0.38112369179725647, 0.5734401941299438], [-0.43945011496543884, -0.3980061113834381, 0.5288306474685669]], [[1.825386643409729, -0.23251180350780487, 0.3009023368358612], [0.5505529642105103, -0.017102999612689018, -0.5502233505249023], [0.5802187323570251, -0.7175880074501038, -1.961753249168396]], [[0.9304322600364685, -0.2546123266220093, -1.6396843194961548], [0.37071773409843445, 0.3601725995540619, -0.5557855367660522], [-0.006945824716240168, -0.9535532593727112, -0.2437666654586792]], [[0.6522124409675598, -0.6220618486404419, -0.22524170577526093], [-0.5257896780967712, 0.2951154112815857, -0.5425270199775696], [-1.0410938262939453, 0.21337434649467468, 0.3351145088672638]], [[-0.5791866183280945, 1.6870148181915283, 0.6549463272094727], [-1.3240047693252563, 0.3695693612098694, 1.2251769304275513], [-0.8138534426689148, -0.04387713968753815, -0.17425650358200073]], [[0.47328323125839233, 0.8759381771087646, 0.21961957216262817], [0.015167350880801678, -0.2318446785211563, 0.3462419807910919], [-0.5118110775947571, -0.6716626286506653, -1.1860321760177612]], [[0.03965776413679123, -0.7747081518173218, -1.086987018585205], [-0.03619731217622757, 0.8358056545257568, -0.352263480424881], [-0.8045815825462341, -0.0300284493714571, 0.2253345549106598]], [[1.2722551822662354, -0.7683277130126953, -0.14615334570407867], [-0.6691374778747559, 0.06121157109737396, -1.101349949836731], [1.378715991973877, 0.17489194869995117, -0.8704172968864441]], [[0.8599429130554199, -0.5972117781639099, -0.5680593252182007], [0.08397463709115982, 0.6360417604446411, 0.44957342743873596], [-1.4738850593566895, 0.041376952081918716, -0.70979243516922]], [[-0.10496682673692703, -0.0016322025330737233, 0.9031208157539368], [-0.6884709596633911, 0.8049260973930359, -0.2422923892736435], [0.5815761685371399, 1.319223165512085, -0.4119475483894348]], [[-0.04122515022754669, -0.5578205585479736, -0.42255699634552], [-0.20809750258922577, -0.007613107096403837, -1.5330195426940918], [0.3496241867542267, -0.8935805559158325, 0.4435849189758301]], [[0.7644736170768738, 0.6355714201927185, 0.8187921643257141], [-1.5241992473602295, -0.43796786665916443, 0.2467014193534851], [1.0613553524017334, 0.4074450731277466, 1.2499760389328003]], [[1.0343486070632935, -0.12478220462799072, 0.5293897986412048], [-0.22709380090236664, -0.5145092010498047, -0.04047529771924019], [-0.6382734179496765, -0.9208614230155945, -1.4776115417480469]], [[0.3645786941051483, -0.1411602646112442, 0.18333019316196442], [0.9446627497673035, -0.6517261266708374, -0.7278606295585632], [0.6237179040908813, -0.582221508026123, -1.188849687576294]], [[0.24581030011177063, -0.3208664059638977, -0.1131323054432869], [-1.2980382442474365, -0.34248799085617065, 1.1475108861923218], [-0.6233268976211548, 0.5902276635169983, -0.328556090593338]], [[-0.01706823520362377, 0.4919494092464447, 1.3631799221038818], [0.6773890256881714, -0.32020166516304016, 0.3841722309589386], [0.2273319810628891, 0.3044121563434601, -0.26579976081848145]], [[-0.4032558500766754, -0.287150502204895, 0.17173659801483154], [1.14530611038208, 0.49823492765426636, -0.008006077259778976], [-1.7113659381866455, -2.2464711666107178, -0.35319653153419495]], [[0.10181187093257904, -0.9027336835861206, 1.0217468738555908], [-0.691157341003418, -0.6297120451927185, -0.12687036395072937], [-0.8407281637191772, 0.02111729234457016, -0.2174299657344818]], [[-0.49170708656311035, 0.5891938209533691, 0.03951535373926163], [-0.6397024393081665, 0.09965382516384125, 0.8707942962646484], [-0.9294682145118713, -0.07390787452459335, -1.0098756551742554]], [[-0.45529913902282715, 0.25980132818222046, 0.28693002462387085], [-1.2098500728607178, 0.7209808826446533, -0.5006985068321228], [-0.44513368606567383, 0.3167388439178467, -0.7685887217521667]], [[0.28498488664627075, -0.05550076812505722, -0.3622710406780243], [-1.2284353971481323, 1.0482287406921387, -0.268446147441864], [-0.8529998660087585, -0.6475933790206909, 0.901679277420044]], [[0.3431866765022278, 0.10976427793502808, 0.7732341885566711], [0.5990502238273621, 0.12340598553419113, -0.8405677676200867], [0.12462503463029861, -0.7054004073143005, -0.019681837409734726]], [[-2.4610648155212402, 0.6122753620147705, 0.12155603617429733], [-0.711283802986145, -0.39891958236694336, -0.013863476924598217], [0.6183497309684753, 0.5728791356086731, 0.9251406192779541]], [[-1.8410735130310059, 0.2219301015138626, -0.039216622710227966], [1.5879546403884888, 0.8687301278114319, -0.8051871657371521], [-0.6948737502098083, 0.38771867752075195, 0.481349378824234]], [[0.27298784255981445, 0.09710817784070969, -0.6717469096183777], [-0.7229395508766174, -1.1761951446533203, 0.597504734992981], [-0.4654581546783447, 0.045784059911966324, -1.239335536956787]]], [[[0.16945286095142365, -0.3769855499267578, -0.041071817278862], [-0.11238008737564087, -0.11111395806074142, -0.25333794951438904], [-0.1757129579782486, 0.3684787154197693, -1.611772060394287]], [[0.2983243763446808, 0.862006425857544, -0.17665934562683105], [-0.5957556366920471, 0.5825099945068359, -1.2224522829055786], [-0.9112921357154846, -0.7848421931266785, -1.2144441604614258]], [[-0.64100581407547, 0.5978886485099792, -0.13462235033512115], [-0.10534126311540604, -0.7566112279891968, 0.8344769477844238], [-2.829059362411499, 0.13334670662879944, -0.28163787722587585]], [[-0.3777930438518524, 0.0283280611038208, 1.20066237449646], [0.8409819602966309, 0.3207607865333557, 0.6411383748054504], [0.8785841464996338, -1.4304980039596558, -0.48210421204566956]], [[-0.025296399369835854, -0.7456287145614624, -0.08792250603437424], [-1.0924707651138306, 0.046961572021245956, -1.996834397315979], [-0.10793598741292953, -0.146113783121109, 0.3162699341773987]], [[0.12119386345148087, 0.16351383924484253, 1.0398359298706055], [-0.6502887010574341, -1.2332638502120972, 0.32270878553390503], [0.13635125756263733, 0.20515696704387665, -1.5127675533294678]], [[-0.5645909905433655, 0.3526805639266968, -0.8722589612007141], [-0.08282319456338882, 0.2323475033044815, 0.44999855756759644], [0.39935651421546936, 0.8730854392051697, -1.044065237045288]], [[-1.078500747680664, 0.21723946928977966, 1.3695485591888428], [0.05773965269327164, 1.2579437494277954, 0.339740127325058], [-0.16701474785804749, -0.10944993048906326, 1.2588204145431519]], [[0.2920999526977539, 0.14377813041210175, 0.32716113328933716], [-0.89986652135849, 0.3491950035095215, -1.118109941482544], [-1.224442720413208, -1.0730111598968506, -0.24673178791999817]], [[-0.5904747843742371, -0.9643499255180359, 0.3318801820278168], [-0.4609510898590088, 0.043586842715740204, 1.728750228881836], [-0.10912705212831497, -0.945183515548706, -0.20040196180343628]], [[0.009634988382458687, 0.9258396029472351, -0.5272299647331238], [0.6184772849082947, 1.2572745084762573, 0.3846718370914459], [-0.4824327826499939, -0.6659790277481079, -0.8399236798286438]], [[-0.06893821060657501, 0.11403252184391022, -0.586235761642456], [0.2899579107761383, 0.5758848190307617, -1.3120241165161133], [-0.8790130019187927, 0.21503649652004242, -0.6826568841934204]], [[-1.0218381881713867, -0.3747538924217224, -0.4016863703727722], [-0.0005405303090810776, 0.24033965170383453, 0.047861624509096146], [0.052101027220487595, 0.40238478779792786, -0.7995203733444214]], [[0.0963003933429718, -1.0115199089050293, -0.24617819488048553], [-1.017775297164917, -0.8819438815116882, -0.47433221340179443], [-0.1353401094675064, -0.46539491415023804, -0.6397851705551147]], [[0.23004919290542603, 0.5068777203559875, -0.037316277623176575], [-0.8027089834213257, -0.14445997774600983, -0.9168826341629028], [0.5243502259254456, 0.2925014793872833, 0.07365751266479492]], [[-0.004549556411802769, -0.15455318987369537, -0.6864812970161438], [0.2016429901123047, -0.8044725656509399, -0.9971015453338623], [-0.5121609568595886, -0.17561298608779907, -0.2737703323364258]], [[-1.8402659893035889, -0.6316525340080261, -0.08287075906991959], [0.6795629262924194, -0.19320212304592133, 0.8079414367675781], [-0.9260247945785522, 0.6278241872787476, 0.07840003073215485]], [[0.6540815234184265, 0.774183988571167, -0.3893326222896576], [-0.05579587444663048, 0.664668083190918, -0.05445495992898941], [0.8046097755432129, 0.1380029320716858, -1.2074474096298218]], [[0.08234760910272598, 0.5786295533180237, 0.12093710899353027], [0.5320287346839905, 0.5163623690605164, -0.14626063406467438], [-1.0073655843734741, -0.13887348771095276, -0.9307681322097778]], [[0.5677608251571655, 0.10129546374082565, 0.32180455327033997], [0.6900337934494019, 0.6249160766601562, 0.481703519821167], [0.3987687826156616, -0.39518943428993225, 0.18252043426036835]], [[-0.2734259366989136, -0.5459561944007874, 0.2421804964542389], [-0.7042417526245117, 0.22005432844161987, 0.3554431200027466], [-0.11896651238203049, -0.22632157802581787, -0.061175938695669174]], [[1.09100341796875, -1.381836175918579, 0.12899962067604065], [0.7270758152008057, 0.9778509736061096, 0.35520872473716736], [0.0675005167722702, -0.5836131572723389, -0.007951254025101662]], [[-0.3501165807247162, 0.5752179026603699, 0.14747931063175201], [-0.5286680459976196, -0.427396297454834, 1.4991949796676636], [0.2314278930425644, -0.16936852037906647, -1.455365538597107]], [[0.4218510091304779, -0.18828992545604706, 0.3760952353477478], [0.05572880059480667, -0.4827108383178711, 0.7052385210990906], [-0.06146005168557167, -1.086094856262207, -1.5081534385681152]], [[1.0913500785827637, 1.1807953119277954, -1.2495273351669312], [0.5230122804641724, -0.06598205864429474, 0.6193462610244751], [0.6790040731430054, 0.08751188218593597, -0.6899531483650208]], [[-1.1620211601257324, 0.16596224904060364, 0.14390027523040771], [-0.4745073914527893, 0.39461416006088257, 0.790432870388031], [0.5775976181030273, 0.5520129799842834, 0.7990677356719971]], [[-0.3234378695487976, 0.3908483684062958, 0.9669796824455261], [1.1573424339294434, 0.09625128656625748, 0.004090823698788881], [-0.6748223304748535, 0.12130661308765411, -0.8673701286315918]], [[0.2950168251991272, 0.20336371660232544, 0.6279669404029846], [-0.6545177698135376, 0.12884871661663055, 1.1797326803207397], [-0.6248430013656616, -0.3349464535713196, 0.5918735861778259]], [[-1.8167961835861206, -0.12587130069732666, -0.4145480990409851], [-1.239496111869812, -0.2991185486316681, -0.7630364894866943], [-0.27360570430755615, -0.27031591534614563, -1.2618807554244995]], [[0.8658842444419861, -0.35717394948005676, -0.04847143590450287], [-0.0691976249217987, -0.5757136940956116, -1.4716235399246216], [1.4123040437698364, -0.5957228541374207, -0.024106167256832123]], [[-0.3655998110771179, 0.15708805620670319, -0.5805084705352783], [1.0302461385726929, -1.0880953073501587, -0.2710496783256531], [-0.125296488404274, -0.17290517687797546, -0.6576908230781555]], [[-0.5293616056442261, -0.04254402592778206, -1.4805095195770264], [1.3612165451049805, 0.6423774361610413, 0.594228982925415], [-0.8613588809967041, 0.9548807740211487, -0.8950709104537964]], [[0.12708891928195953, -0.25691983103752136, -1.203334093093872], [-0.23050901293754578, -0.6736215353012085, 0.09775562584400177], [-1.7308820486068726, 0.33929622173309326, 0.45276781916618347]], [[0.2506782114505768, -0.252994179725647, -0.5859911441802979], [0.10463059693574905, 0.20711742341518402, 0.12365798652172089], [-1.3051692247390747, 1.115558385848999, 0.018452243879437447]], [[0.13115812838077545, 0.08094940334558487, 1.1345330476760864], [-0.30731669068336487, -0.12099003046751022, -0.4999202787876129], [0.9243019223213196, 0.0819108784198761, -0.2537269592285156]], [[-0.8202382922172546, 0.2493390142917633, -0.40807992219924927], [0.8905614614486694, 0.23094666004180908, -0.8307260870933533], [1.3928968906402588, 0.22102980315685272, 0.2557401955127716]], [[0.1319195181131363, 0.2732270658016205, 0.34600332379341125], [-0.11210217326879501, 0.24002960324287415, -0.3525106608867645], [1.7513267993927002, -0.09131792187690735, 0.6311437487602234]], [[-0.4466669261455536, 0.6998500227928162, 0.06425900757312775], [-1.114784598350525, 0.19984780251979828, 0.9378964304924011], [-1.0668734312057495, 0.18256889283657074, 0.5760395526885986]], [[0.5194702744483948, 0.14525865018367767, -0.9881659746170044], [-0.7327649593353271, 0.2629469931125641, -0.3893670439720154], [-0.2576659321784973, -0.03819908946752548, -0.26203471422195435]], [[0.2571435868740082, -0.4976997375488281, 0.4781554043292999], [0.12746520340442657, -0.9090354442596436, -0.20742447674274445], [-0.6371631026268005, 1.2182592153549194, 0.05213603749871254]], [[-0.2159746289253235, -1.2910244464874268, 0.46364858746528625], [0.8056591749191284, 0.3339672386646271, 0.5427632927894592], [0.3437637388706207, 0.8924806714057922, -0.03955523297190666]], [[-0.0815383568406105, 0.21299496293067932, 0.5400040149688721], [-0.43065351247787476, 0.49718037247657776, -0.02132347971200943], [-0.9739985466003418, -0.7246220111846924, 0.2973598539829254]], [[0.15397387742996216, 0.5299575924873352, -1.999006748199463], [-0.05058449134230614, 1.5001696348190308, -1.074358582496643], [1.102897047996521, -0.19570884108543396, -0.725533127784729]], [[0.3287995159626007, -0.6265272498130798, -0.9875433444976807], [-0.04805019125342369, -0.6074128746986389, 1.3395841121673584], [0.13259980082511902, 0.5881703495979309, 0.8890688419342041]], [[-1.1508057117462158, -0.2487204521894455, -0.22437706589698792], [0.07767892628908157, -0.7746937870979309, 0.07588595151901245], [0.2116883546113968, -0.9163230061531067, 0.47738927602767944]], [[0.15654592216014862, 0.16478054225444794, 0.4131552278995514], [-1.243148684501648, 0.8487668633460999, 0.302848219871521], [-0.4390418827533722, -0.6365717649459839, -1.6794204711914062]], [[0.3159472644329071, 0.6897405982017517, 1.2584515810012817], [0.1281021535396576, -0.3267280161380768, -0.37070414423942566], [1.1584125757217407, -0.5783592462539673, 0.37311944365501404]], [[-1.2011662721633911, -0.18678498268127441, 0.3906945288181305], [-0.8139179348945618, 0.6130987405776978, 0.34317925572395325], [-0.5807461142539978, -1.9674752950668335, -0.5163861513137817]], [[-0.6065006256103516, -0.7995629906654358, 0.6290161609649658], [-0.055301863700151443, -0.6992223262786865, -0.6185799241065979], [-0.3016340136528015, -0.26398953795433044, -0.19947414100170135]], [[0.8564587235450745, -0.6332114338874817, 0.5617177486419678], [0.3945348858833313, 0.04315144941210747, -0.14172998070716858], [0.43522223830223083, -0.9649844765663147, -0.24593955278396606]], [[-0.9591368436813354, 1.1606504917144775, -0.055453527718782425], [-0.8625171184539795, 0.9096802473068237, 1.8146153688430786], [-0.7015122771263123, 0.523733377456665, 0.2404608130455017]], [[-0.2895243167877197, 0.6029216647148132, -0.14820228517055511], [0.5239740014076233, 0.10186302661895752, 0.5676904320716858], [0.6655638813972473, -0.014462336897850037, -0.0625406801700592]], [[0.4369969666004181, -0.12107397615909576, -0.5984266996383667], [-0.001100638066418469, 0.422334223985672, -1.6300384998321533], [-1.3432741165161133, -0.20103272795677185, -1.2279870510101318]], [[-0.3174245357513428, -0.8053379058837891, 0.3720317482948303], [-0.18885359168052673, -0.820231020450592, 0.12296894937753677], [-0.43258246779441833, 0.11461621522903442, 0.611081600189209]], [[-0.8802888989448547, 0.18241751194000244, 0.0801626667380333], [-0.671203076839447, 0.3312090337276459, 1.638867974281311], [0.196025550365448, -0.3363695740699768, 0.32540953159332275]], [[0.13249000906944275, -0.0513874813914299, 0.7971389293670654], [-0.12049043923616409, -1.1273661851882935, 0.5739452242851257], [-1.5010759830474854, -0.4262056350708008, 1.5962766408920288]], [[0.0745527371764183, 0.005653956439346075, -0.7116197347640991], [1.1279839277267456, 0.31971269845962524, -0.49656185507774353], [-0.016730979084968567, -0.7287225127220154, 0.6893460154533386]], [[0.37700727581977844, 0.7496015429496765, 0.514314591884613], [0.522496223449707, -0.23701627552509308, 0.09876252710819244], [0.1835044026374817, -0.6179022192955017, -1.2285362482070923]], [[0.4526858627796173, -0.6562740802764893, -0.01174877304583788], [0.36458390951156616, -0.463540643453598, -0.652949333190918], [0.21039704978466034, 0.6287792325019836, 0.2794094979763031]], [[0.8758919835090637, 0.5701724290847778, -0.17986664175987244], [-0.06885184347629547, -0.6811962723731995, 0.5932440161705017], [-0.08624274283647537, -0.31472325325012207, -0.6819103360176086]], [[0.6129862070083618, 0.895763099193573, 0.6082165241241455], [-0.5998077988624573, 0.687809944152832, -0.16404160857200623], [1.1061259508132935, -0.7203870415687561, 0.11273658275604248]], [[-0.4076206088066101, -0.01719403825700283, 0.3557993173599243], [0.29032936692237854, 0.6338748931884766, 0.2673019468784332], [-0.3428511321544647, 0.2070763260126114, -1.2627595663070679]], [[0.1037692129611969, -0.7884881496429443, 0.26067811250686646], [0.5899937152862549, -0.3738303482532501, -0.5671607851982117], [1.2224736213684082, 1.0769037008285522, 0.8060939311981201]], [[-1.7491772174835205, 0.3861941993236542, -0.3776182532310486], [0.7710666656494141, -0.02811526134610176, 0.9262608289718628], [-0.6305375695228577, 0.796622097492218, 0.6594603061676025]]], [[[-0.8753213286399841, 0.4809468686580658, 0.1268366426229477], [-0.5809242129325867, -0.23375673592090607, -0.5496454834938049], [0.14340557157993317, -0.4425579309463501, 0.1936139017343521]], [[0.3984614908695221, -1.0080854892730713, 0.3298637568950653], [-1.0405009984970093, -0.7245436906814575, 0.015555200167000294], [0.6816169023513794, 0.9504190683364868, -0.43812447786331177]], [[-0.9611291885375977, -0.27936118841171265, 0.14251962304115295], [0.1461227983236313, 0.6161163449287415, -0.4021179974079132], [-0.953148603439331, 0.576171338558197, -0.03943384066224098]], [[-1.1165086030960083, 0.5334083437919617, -0.18475337326526642], [0.2832157015800476, -0.25521957874298096, -0.38391926884651184], [0.05742599442601204, 1.236633539199829, -0.12994708120822906]], [[-0.7003086805343628, -1.250420331954956, -0.03618293255567551], [0.45588597655296326, -0.17113038897514343, 0.8138542175292969], [0.9338895678520203, 0.017383147031068802, 0.7038813233375549]], [[1.7437946796417236, -0.14543509483337402, -0.57683265209198], [0.5340023636817932, 1.1194021701812744, -0.5998951196670532], [-0.244855135679245, 0.014339394867420197, 0.1196492612361908]], [[-1.0424351692199707, 0.34051552414894104, 0.458861380815506], [0.609233558177948, -0.8040616512298584, 0.25983545184135437], [0.30048274993896484, 0.3007538318634033, -0.6212005615234375]], [[-0.8076959252357483, 0.7701225280761719, -0.5256607532501221], [-0.46770721673965454, -0.7624157071113586, -0.754664957523346], [-0.6193845868110657, 0.6858846545219421, 0.4677411615848541]], [[0.25699886679649353, -0.037539295852184296, -0.39969170093536377], [0.07229939848184586, -1.1629530191421509, 0.0015223982045426965], [-0.7630614042282104, -2.618865489959717, -0.16434048116207123]], [[-0.04349122196435928, 0.23005451261997223, -0.661676824092865], [-0.5097975730895996, 0.11065108329057693, 1.0735515356063843], [1.5758674144744873, -0.5163596868515015, 0.2536255419254303]], [[-1.4707541465759277, 0.29083412885665894, -1.6954823732376099], [-0.7361441850662231, 0.5331755876541138, 0.42791256308555603], [0.40681594610214233, 0.11016754806041718, -0.35142064094543457]], [[0.4811728298664093, -0.671279788017273, -0.5645285248756409], [-0.5568454265594482, -0.1166563332080841, -0.41233310103416443], [-0.727764368057251, 0.1802334040403366, 0.6334010362625122]], [[-0.44192054867744446, -1.0605849027633667, 0.5828626155853271], [-0.401223361492157, 0.36021289229393005, 0.5708827376365662], [-0.5231817364692688, -0.29265329241752625, -0.14262136816978455]], [[0.25940802693367004, 0.4836617410182953, -0.570142924785614], [0.0075014070607721806, -0.36804017424583435, -0.36080631613731384], [0.6083373427391052, -0.550023078918457, -0.08936253190040588]], [[0.4815552830696106, 0.5315400958061218, 1.5668498277664185], [0.14734378457069397, 1.0251725912094116, -1.2227556705474854], [-0.2864476442337036, 0.11071708053350449, 0.30149704217910767]], [[-0.5410993099212646, -0.23004023730754852, 0.6377689838409424], [-0.15829584002494812, 1.193185806274414, -0.21603967249393463], [-0.0010220431722700596, -0.5214583873748779, 0.02418452501296997]], [[-1.1184453964233398, -0.6328101754188538, 0.7416408658027649], [0.7452974319458008, 0.045324575155973434, 0.6558752655982971], [-0.033009763807058334, 0.41058313846588135, 0.8673616051673889]], [[-0.9538184404373169, 0.7075883746147156, 0.31845730543136597], [-0.8079760670661926, -0.7993741631507874, 0.08003018796443939], [0.9997701644897461, -0.9522153735160828, 0.0964580625295639]], [[0.17357434332370758, 0.7958601713180542, 0.6554811000823975], [-1.2632651329040527, -1.0970141887664795, -1.6998571157455444], [-1.2486101388931274, -0.8599329590797424, 0.7713404893875122]], [[0.18345339596271515, 0.16483865678310394, 0.11332038044929504], [0.6107731461524963, -0.45362696051597595, -0.21988599002361298], [-0.42885100841522217, 0.32532998919487, 0.7413579225540161]], [[0.3875175416469574, 0.17306919395923615, -1.7249630689620972], [-0.2653530538082123, -0.8095681667327881, -0.2847073972225189], [-0.566811740398407, -0.14402537047863007, -0.4894653260707855]], [[1.0741742849349976, -0.1123398169875145, 0.8806018829345703], [-1.00411057472229, -0.48538583517074585, 0.2702457010746002], [-0.32093867659568787, 0.08585493266582489, -0.4255506992340088]], [[-0.8253337740898132, -0.06057261303067207, -0.08243796229362488], [-0.7360206246376038, 0.733405351638794, -0.630343496799469], [0.2672751545906067, 1.0902270078659058, 0.936015248298645]], [[-0.6043120622634888, 0.8952630162239075, 0.5406491756439209], [0.12149488925933838, 0.36906835436820984, -0.35393720865249634], [-0.746343195438385, -0.1292976588010788, 0.5604181885719299]], [[0.16230498254299164, -0.12080338597297668, 0.1945212334394455], [0.5563726425170898, 0.4834068715572357, 0.4598844647407532], [-0.25573623180389404, 0.35210758447647095, -0.05957749858498573]], [[-0.3953499495983124, -0.0994461253285408, 0.6856976747512817], [-0.05580443888902664, 0.28840890526771545, 0.5239382386207581], [-0.5400514006614685, -1.02316415309906, -0.523772120475769]], [[-0.2974531948566437, 0.6470339298248291, 0.17351116240024567], [-0.12887024879455566, 0.9661898612976074, -0.018196258693933487], [0.30462372303009033, -0.18978889286518097, 0.5770146250724792]], [[-0.2858549654483795, 0.899761974811554, 0.21580718457698822], [-0.9032107591629028, -0.4214327931404114, 0.8288944363594055], [0.5709230303764343, 0.21921764314174652, 0.7281680107116699]], [[-0.26944535970687866, -0.3843429386615753, -0.510587751865387], [-0.9923631548881531, -0.16248010098934174, -0.6190256476402283], [-0.9544529318809509, -0.49204885959625244, -1.35316801071167]], [[0.11714625358581543, -1.1203792095184326, -0.9575747847557068], [0.5171026587486267, -1.4420347213745117, 0.5030608773231506], [-0.6402772068977356, 0.25807878375053406, 1.4591248035430908]], [[-0.5976463556289673, -1.5512176752090454, -0.341352641582489], [0.2688196003437042, -0.3931293487548828, -0.49999725818634033], [0.055545251816511154, 1.2942148447036743, -0.6030879020690918]], [[-0.09410498291254044, 0.5096697211265564, -0.228994220495224], [-0.1223418340086937, 0.5780392289161682, -0.8219648599624634], [-0.70073401927948, 0.7306575179100037, -0.02593960613012314]], [[0.2386648803949356, -0.597389817237854, 0.9167459607124329], [0.7950282096862793, -0.5610302686691284, -0.6870987415313721], [-0.011083145625889301, -0.36681631207466125, 0.20209410786628723]], [[-0.7553076148033142, -0.1497940570116043, -0.41677170991897583], [1.59988534450531, -0.5953575968742371, -0.1272098422050476], [0.1908881813287735, -1.5305213928222656, 0.13873207569122314]], [[-0.31836679577827454, -1.818090796470642, -1.3117876052856445], [0.4082678556442261, -1.1320816278457642, 0.6433014869689941], [-0.40726324915885925, -0.5264306664466858, 0.06476911902427673]], [[-0.878298819065094, 0.42700284719467163, 0.7811636328697205], [-0.37283647060394287, 0.33793729543685913, 0.5458244681358337], [0.49181774258613586, 1.2564723491668701, -0.025414958596229553]], [[-0.03158766031265259, -0.46260595321655273, -0.3621143102645874], [-0.2890951931476593, 0.5202785134315491, 0.33033323287963867], [-0.29599684476852417, 0.4293586015701294, -0.3369773328304291]], [[-0.19888626039028168, 0.3383749723434448, -0.4092821180820465], [-0.20011068880558014, 0.7099758982658386, 0.5238307118415833], [-1.51544189453125, 1.2492976188659668, -0.500320553779602]], [[1.0139394998550415, -1.0488917827606201, -0.2908708155155182], [1.1030526161193848, -1.0152817964553833, 0.3701868951320648], [-1.353096604347229, -0.3914097547531128, -0.2709565758705139]], [[0.9723036885261536, -1.5001981258392334, 0.4202003479003906], [-0.582261860370636, -0.16711170971393585, -2.1420514583587646], [1.92868173122406, 0.7163718342781067, 0.21974389255046844]], [[-0.1581733673810959, -0.6466073989868164, 0.03942808136343956], [-0.6363697052001953, 0.27031004428863525, 0.031846530735492706], [0.054742150008678436, 0.0033051965292543173, 0.5471564531326294]], [[0.040166955441236496, -0.10311409085988998, -0.4441022574901581], [-0.5137665867805481, -0.2522895634174347, -0.02134852670133114], [-0.008288679644465446, 0.4334060549736023, 0.2610023021697998]], [[0.7280029058456421, 0.07338894158601761, -1.2041682004928589], [1.4557371139526367, -0.33237385749816895, 0.9877963662147522], [-1.6986063718795776, 1.1010668277740479, 