{"conv1.weight": [[[[0.2227206826210022, -0.3154982924461365, -0.7536075115203857], [0.23241151869297028, 0.927384614944458, -1.1284048557281494], [0.2753898799419403, 0.38990357518196106, -1.0825408697128296]], [[0.6190676689147949, -1.9193073511123657, -0.18390816450119019], [0.003871449502184987, 0.1468358188867569, -0.9977132678031921], [-1.0161834955215454, 0.16492636501789093, 0.42387381196022034]], [[-0.2501644790172577, 0.5159083604812622, 0.31534117460250854], [-0.1546393632888794, 0.2778633236885071, -0.07719986140727997], [-0.3584442138671875, -0.35794442892074585, -0.4178566634654999]]], [[[0.6334457397460938, 0.7265456318855286, 0.9696117043495178], [0.22912484407424927, 0.7251400947570801, 0.3896646499633789], [0.9002441167831421, 0.43420690298080444, -1.0477720499038696]], [[-0.9910284876823425, 0.15378603339195251, -0.9274916052818298], [-0.8766013979911804, -0.19092264771461487, -0.2566353976726532], [0.11401006579399109, -0.31213685870170593, 0.01664145290851593]], [[0.12573929131031036, 0.6053771376609802, -0.13369381427764893], [0.029255909845232964, 0.31890884041786194, 0.14536096155643463], [0.16526661813259125, 0.23251484334468842, 0.44449853897094727]]], [[[-0.8410159349441528, 0.7704141736030579, -1.0845372676849365], [-0.021658968180418015, 0.024907242506742477, 0.3151315152645111], [-0.6433004140853882, -1.0659700632095337, 0.5569138526916504]], [[0.7863181233406067, -0.23215070366859436, 0.051614273339509964], [-0.044158417731523514, 0.17087973654270172, -0.13730144500732422], [0.806087076663971, -0.39678525924682617, -1.9576890468597412]], [[-0.276229590177536, -0.33123019337654114, -0.8378937244415283], [0.14330345392227173, -0.0987497940659523, -0.21912238001823425], [0.578222930431366, 0.34909552335739136, -0.26424747705459595]]], [[[-0.7013992071151733, 0.8320062756538391, -0.4554661214351654], [-0.3688080310821533, -1.5042027235031128, 0.7999342083930969], [0.06441430002450943, -0.838766872882843, -0.40435126423835754]], [[-0.40251079201698303, 0.1347283124923706, 0.10904112458229065], [-1.1245568990707397, -0.12105501443147659, 0.769887387752533], [-0.6728353500366211, 0.2132752537727356, 0.2577168047428131]], [[-0.16016753017902374, -0.45305192470550537, -0.7819795608520508], [0.15197394788265228, 0.07364828139543533, 0.043535906821489334], [0.5069246888160706, 0.5301838517189026, -0.03272377327084541]]], [[[0.48148927092552185, -0.7112115621566772, 1.026384711265564], [-0.511081874370575, 0.7624610662460327, 0.10349288582801819], [0.8258882761001587, -0.34133678674697876, 1.042891263961792]], [[-0.29296109080314636, -0.1890350878238678, -0.18548354506492615], [0.10445191711187363, -1.5094938278198242, -0.4199550449848175], [-0.4399701952934265, -0.058711349964141846, -0.5350747108459473]], [[0.6337268948554993, 0.15476682782173157, 0.084950290620327], [0.1818542778491974, -0.2718718945980072, -0.15777555108070374], [0.13150262832641602, -0.058122605085372925, 0.20141233503818512]]], [[[-0.5676736235618591, -0.8503684401512146, -0.7776117920875549], [-0.4670659899711609, -0.3683452308177948, 0.36515265703201294], [0.4383191466331482, -0.2043401300907135, -0.5201608538627625]], [[0.33002135157585144, 0.7045824527740479, -1.1483585834503174], [-0.2623523771762848, 0.8840265274047852, -1.5112593173980713], [0.019869724288582802, -0.03863842040300369, 0.3561660349369049]], [[-0.4035910665988922, 0.11143975704908371, 0.3007736802101135], [-0.35704413056373596, 0.264918714761734, 0.46440479159355164], [-0.7308604717254639, -0.17637692391872406, -0.5665030479431152]]], [[[0.5095117092132568, -0.20670950412750244, 0.5954703092575073], [-1.0040870904922485, 0.4157145023345947, 0.2694685459136963], [0.3391546905040741, 0.7598478198051453, -1.9590412378311157]], [[0.14438912272453308, -0.5339252352714539, 0.7126098275184631], [0.5252920985221863, 0.3979939818382263, -0.1714259684085846], [-0.6897966265678406, -0.6289101839065552, 0.4895003139972687]], [[0.5154595971107483, 0.08812621980905533, 0.17522087693214417], [0.27977898716926575, -0.062436364591121674, -0.23397508263587952], [0.5388891696929932, 0.29745882749557495, 0.034801557660102844]]], [[[-0.8574575781822205, 0.12660792469978333, -0.8418436646461487], [0.29152771830558777, -0.7577885389328003, -1.8369495868682861], [-0.7278761863708496, -0.6791990399360657, -0.09398572146892548]], [[0.2670457363128662, -0.8952797055244446, 0.740760862827301], [-0.921373188495636, -0.40933293104171753, 0.1388709992170334], [-0.2827669382095337, -0.3081960678100586, 1.378193736076355]], [[-0.2637157142162323, 0.23945525288581848, 0.35478347539901733], [0.07430103421211243, -0.22981971502304077, -0.10144847631454468], [0.061320412904024124, -0.1844947338104248, -0.1482730507850647]]], [[[-1.2323404550552368, -0.022124774754047394, -0.6210997104644775], [0.9509653449058533, 0.5504190325737, -0.3996348977088928], [0.7541255354881287, 0.363391250371933, 0.7208595871925354]], [[0.0634242370724678, -0.8895610570907593, 0.024736281484365463], [0.704826831817627, 0.5664634108543396, -0.39343586564064026], [0.00498308427631855, -0.24417860805988312, -1.0092452764511108]], [[-0.037365254014730453, 0.010559040121734142, 0.27299952507019043], [0.054399535059928894, 0.3335190415382385, 0.4654524028301239], [-0.785690188407898, -0.2641077935695648, 0.2477211058139801]]], [[[-1.826202392578125, 0.13291777670383453, 0.9798239469528198], [0.286815345287323, -0.5881134867668152, 0.04316030442714691], [0.8563283681869507, -0.7654770612716675, 0.37291017174720764]], [[0.64792799949646, 0.40384989976882935, -0.28266429901123047], [-0.05464661121368408, 0.18993020057678223, 0.2287507951259613], [-1.0080244541168213, 0.1886364072561264, 1.0340019464492798]], [[0.4660737216472626, 0.27316224575042725, -0.14812740683555603], [0.42075949907302856, 0.3859408497810364, 0.06057874485850334], [-0.10485176742076874, -0.25101032853126526, 0.007696384098380804]]], [[[-0.8039395809173584, -0.18027929961681366, -0.06704215705394745], [-0.5194627046585083, -1.0513832569122314, -0.31521913409233093], [0.36674734950065613, 0.06985106319189072, -0.6448129415512085]], [[1.0409247875213623, -0.4936486780643463, 0.4706776738166809], [-0.2275363653898239, 0.6918526291847229, -0.011305608786642551], [-1.5166338682174683, -0.5153564810752869, -1.843442678451538]], [[0.3759656548500061, 0.09042902290821075, -0.11543764173984528], [0.09868086874485016, -0.0898732841014862, -0.2586272656917572], [-0.3624591827392578, -0.5910438895225525, 0.5791875123977661]]], [[[-0.4794180989265442, 0.4596841037273407, 0.5947890877723694], [-1.0319197177886963, 0.647773027420044, 0.277025043964386], [-0.24891309440135956, 0.5420213341712952, 0.46369272470474243]], [[-0.4096856117248535, -1.4065581560134888, -1.0754995346069336], [-0.412873238325119, -1.536389946937561, 0.10284338891506195], [0.4447854161262512, -1.157598614692688, 0.5566973686218262]], [[0.3598168194293976, 0.03441774100065231, 0.2287367880344391], [0.06859494000673294, -0.2945365011692047, -0.07848409563302994], [-0.0797022134065628, -0.19992201030254364, -0.026110386475920677]]], [[[-0.06056537851691246, -0.4437828063964844, 0.2918238937854767], [0.5815877914428711, 0.9079535007476807, -0.5722974538803101], [-1.1898292303085327, -1.699690818786621, 0.01737784966826439]], [[0.7889969944953918, -0.9973750114440918, -0.582669198513031], [-0.3781700134277344, -0.11764434725046158, -0.1717892587184906], [-0.9285978674888611, 0.09843118488788605, -0.4095710217952728]], [[-0.36727914214134216, -0.15340985357761383, 0.22460468113422394], [0.113326795399189, 0.118381068110466, 0.022101089358329773], [0.15859942138195038, 0.2623157203197479, 0.5971028208732605]]], [[[0.15109606087207794, -0.5090751647949219, 0.4116877317428589], [-0.6275999546051025, -0.846721351146698, 0.2340926229953766], [0.4976120889186859, -0.6567897200584412, 0.645882248878479]], [[-0.04275248572230339, 0.39867839217185974, -0.2557773292064667], [0.4653587341308594, 0.4860571622848511, 0.15175431966781616], [0.10383972525596619, 0.8917272686958313, -0.3982779383659363]], [[-0.7391301393508911, 0.2661556899547577, -0.13886456191539764], [-0.07111595571041107, 0.7059029340744019, -0.29952529072761536], [-0.2235872894525528, 0.1984894573688507, -1.0054426193237305]]], [[[0.42390185594558716, -0.4078524112701416, -0.4511725604534149], [-0.2531073987483978, -0.46160373091697693, 0.3092293441295624], [-0.045093171298503876, 0.10721240192651749, -0.7561758756637573]], [[-1.3119251728057861, -0.02188953571021557, 0.6034452319145203], [0.17472535371780396, 0.872046172618866, -0.0076281121000647545], [-1.592218041419983, 0.390661358833313, -0.11309278756380081]], [[-0.3988874554634094, -0.29921478033065796, -0.11764167249202728], [0.3808321952819824, 0.7543295621871948, -0.30342793464660645], [-0.3471503257751465, 0.209124356508255, -1.1182376146316528]]], [[[-2.191458225250244, -0.6821401715278625, 0.19832199811935425], [0.37234145402908325, 0.41058483719825745, -0.4070950448513031], [-0.4201953113079071, -0.22083480656147003, 1.2864904403686523]], [[-1.051135540008545, -0.06440921872854233, -0.2792087495326996], [-0.41376209259033203, -0.9146937727928162, -0.060969166457653046], [-0.5811542868614197, -0.16877704858779907, -1.0791079998016357]], [[0.19488222897052765, -0.4169139564037323, 0.4503665268421173], [-0.21642224490642548, -0.11122816801071167, 0.12744663655757904], [0.13181400299072266, -0.0764932632446289, 0.3837564289569855]]], [[[-0.2969186007976532, 0.6316664814949036, 0.5470395088195801], [-0.23820443451404572, 0.10161688178777695, 0.17568643391132355], [-0.6682027578353882, 0.37296175956726074, -0.12033984065055847]], [[0.0010061294306069613, -0.8770150542259216, 0.4268663227558136], [-1.8527376651763916, 0.4827735424041748, -0.6438565254211426], [-0.6710342764854431, -0.6576836109161377, -0.3383916914463043]], [[-0.2945946753025055, -0.4283899962902069, -0.5660070776939392], [-0.032235872000455856, 0.38941141963005066, 0.7576128840446472], [-0.03862736374139786, -0.5933374762535095, -0.42643555998802185]]], [[[0.23957230150699615, 0.5027473568916321, -0.7311522364616394], [-0.25307855010032654, -0.24255934357643127, -0.9131724238395691], [-0.035158075392246246, 0.7084790468215942, 0.8017289042472839]], [[-0.593730628490448, -0.5991126894950867, 0.6226803660392761], [0.6151105165481567, -0.1961471289396286, 0.4737875759601593], [0.19978389143943787, 0.6484891176223755, -0.8900712728500366]], [[-0.7408668398857117, -0.42848989367485046, -0.42927512526512146], [0.05892777442932129, 0.35662856698036194, 0.7422216534614563], [-0.4595175087451935, -0.28368353843688965, 0.13913968205451965]]], [[[0.06236640736460686, 0.35698482394218445, 0.045632727444171906], [0.1163477674126625, -0.7094171643257141, -0.21577687561511993], [0.34560319781303406, 0.15170331299304962, -0.2289663851261139]], [[0.7291591167449951, 0.7552236318588257, 0.9209808707237244], [0.09351792186498642, 0.3152537941932678, -0.20266366004943848], [0.6360555291175842, 0.07552682608366013, 0.23294097185134888]], [[-0.808169960975647, 0.01942637749016285, -0.8508776426315308], [-0.23426327109336853, 0.8346645832061768, -0.35123249888420105], [-0.04983550310134888, 0.9101603627204895, -0.015872063115239143]]], [[[-0.4582933187484741, 0.03396796062588692, 0.30217084288597107], [0.7044427394866943, 0.4378553330898285, 0.03143467754125595], [-0.5589582920074463, -0.6244893074035645, -0.5771106481552124]], [[-1.0258500576019287, -0.11697644740343094, 0.581139087677002], [1.121894121170044, 0.2068832367658615, -0.7046986818313599], [-2.1395742893218994, 0.5954586267471313, 0.6894090175628662]], [[-0.31516286730766296, -0.25727012753486633, -0.14160870015621185], [-0.21314817667007446, 0.38121432065963745, 0.10639762133359909], [-0.16236986219882965, -0.10481718182563782, 0.3344828486442566]]], [[[0.44967132806777954, 0.02856588177382946, 0.6699842214584351], [0.6631684899330139, -0.3684437572956085, 0.6768003702163696], [-0.5286921858787537, -0.03471899777650833, 0.38962045311927795]], [[0.5747836828231812, -0.08974362164735794, -1.0078693628311157], [0.4414765536785126, -0.05631910264492035, -0.36470282077789307], [0.1942073106765747, 0.370477557182312, -1.9042575359344482]], [[-0.21669676899909973, -0.13437414169311523, 0.1210818663239479], [0.5523510575294495, 0.6619515419006348, -0.1778634488582611], [-0.9564959406852722, -0.3738674223423004, -0.8050151467323303]]], [[[0.7285071015357971, -0.5613608360290527, 0.47700434923171997], [-1.293135404586792, 0.5210322737693787, 0.20609663426876068], [-2.109004020690918, 0.25618255138397217, 0.4979567527770996]], [[-1.105797529220581, 0.600999653339386, 0.02910715527832508], [-0.41266703605651855, -0.9158788323402405, 0.5634920001029968], [0.21595637500286102, -0.23716698586940765, 0.18448269367218018]], [[0.328910231590271, -0.09920399636030197, 0.5048387050628662], [0.03573790192604065, -0.39177781343460083, 0.3576872646808624], [0.3907616436481476, -0.06343157589435577, 0.02120407298207283]]], [[[-0.8126286268234253, -1.0054243803024292, -1.2106902599334717], [-0.6573001742362976, 0.29564401507377625, -0.5215927958488464], [-0.4305005371570587, -0.05805263668298721, -0.7953960299491882]], [[-1.7147234678268433, 0.0941917896270752, 0.8251345753669739], [0.4839714467525482, -1.1105902194976807, 0.11287926137447357], [0.5543755888938904, -0.9353897571563721, 0.3561634123325348]], [[-0.3401643931865692, -0.36052176356315613, -0.12814101576805115], [0.39027899503707886, -0.3029898405075073, -0.088011234998703], [0.6491338610649109, -0.03259477764368057, 0.048272840678691864]]], [[[-0.9439306855201721, -0.29717278480529785, 0.2657272219657898], [-1.1949453353881836, 0.3064325749874115, -1.0808720588684082], [-0.022413033992052078, -0.8276888132095337, -0.012926212511956692]], [[-0.6439208388328552, -0.2507317364215851, 0.11783872544765472], [0.8721247911453247, -1.7477704286575317, -0.6478361487388611], [0.3250802755355835, 0.92027747631073, -0.4413239657878876]], [[-0.12646448612213135, -0.10888466984033585, 0.6938601732254028], [-0.04257916286587715, -0.3028015196323395, 0.38564571738243103], [0.0070175654254853725, -0.3235684037208557, 0.19650483131408691]]], [[[0.0099804000928998, 0.03750087320804596, -0.2986251711845398], [-0.4193739593029022, -0.23453441262245178, 0.15669165551662445], [-0.5705260038375854, -0.5466591119766235, -0.18206021189689636]], [[-0.6260748505592346, 0.2512226402759552, 0.43852272629737854], [-0.2610388994216919, 0.4691130518913269, 0.10521452873945236], [1.5362049341201782, 0.5421414971351624, -2.05656099319458]], [[-0.17609088122844696, 0.4786410927772522, -0.09581904858350754], [-0.5725350379943848, 0.17358580231666565, -0.037370506674051285], [-0.5022547245025635, 0.048118725419044495, -0.5504292249679565]]], [[[-0.22559574246406555, -0.021483300253748894, -0.04254806786775589], [0.7056858539581299, 0.15669552981853485, -0.09593109786510468], [-0.3197854459285736, 0.6143602132797241, 0.06215853616595268]], [[0.933474063873291, 0.5740028619766235, 0.8794757723808289], [-1.210917592048645, -0.9591626524925232, -1.2540160417556763], [0.34719493985176086, -0.1935228556394577, 0.2876596450805664]], [[-0.6417247653007507, -0.316853404045105, 0.09494726359844208], [0.2662357687950134, 0.04875974729657173, 0.4943522810935974], [0.4708471894264221, -0.0250825397670269, 0.3514956831932068]]], [[[-0.616199791431427, -0.006017027422785759, -0.09746149927377701], [-0.3019181489944458, 0.10515348613262177, 0.12112303078174591], [-0.39009401202201843, -0.09956943243741989, -0.035776957869529724]], [[1.2549232244491577, -0.03875400871038437, -0.07880639284849167], [0.6708403825759888, 0.28036510944366455, 0.13070794939994812], [-1.5505194664001465, -0.26385512948036194, 0.5470345616340637]], [[-0.3723607063293457, 0.5588268637657166, -0.536179780960083], [-0.4821765422821045, 0.45224395394325256, -0.6605926752090454], [-0.34979739785194397, 0.7418731451034546, -0.3223721981048584]]], [[[-0.09733977913856506, -0.20613418519496918, -0.05865715071558952], [0.01677597686648369, -0.42539459466934204, 0.2903229892253876], [-0.16067972779273987, 0.2997972369194031, -0.2594646215438843]], [[-1.422202229499817, -0.2796058654785156, 0.707802951335907], [-1.0838959217071533, 0.45101821422576904, -0.9700636267662048], [1.2878336906433105, -0.541886568069458, 0.7200550436973572]], [[0.21097928285598755, -0.07679113745689392, 0.5450400710105896], [0.26998773217201233, -0.40778598189353943, 0.12365113943815231], [-0.37758782505989075, -0.5912504196166992, -0.2941601872444153]]], [[[0.24640710651874542, -0.2688257396221161, 0.1381492167711258], [0.1122150644659996, -0.5469908714294434, -0.4042274057865143], [-0.13327164947986603, 0.27531105279922485, -0.026038048788905144]], [[-0.4461131691932678, 0.007490016985684633, -0.4021700620651245], [0.9204567670822144, 0.34053218364715576, 0.522467315196991], [0.6643173098564148, 0.2467612624168396, 0.7485466599464417]], [[0.18188519775867462, 0.6339991688728333, -0.5218631625175476], [0.42494669556617737, 0.43823757767677307, -0.17632271349430084], [-0.6316021084785461, -0.3329807221889496, -1.5270241498947144]]], [[[0.9481775164604187, 0.30081138014793396, 1.2201406955718994], [-0.6551779508590698, 0.0025245787110179663, 0.06110223010182381], [-0.26141971349716187, -0.23742175102233887, -0.15028299391269684]], [[-0.9687178134918213, -1.556025743484497, -0.28996673226356506], [-0.21524052321910858, -0.14593929052352905, -0.13365156948566437], [-0.1403132528066635, -0.10271904617547989, -0.4063873291015625]], [[-0.16035246849060059, 0.1946873664855957, -0.2966925799846649], [-0.17771580815315247, 0.5957803130149841, 0.3152785003185272], [0.5783818960189819, -0.25135642290115356, -0.38076698780059814]]], [[[0.4755626618862152, 0.33969274163246155, -0.2867259979248047], [-1.5780953168869019, 0.4764319360256195, -0.7965603470802307], [0.24093209207057953, -0.35666486620903015, -0.010984714142978191]], [[0.5489505529403687, -0.006776044610887766, -0.43700867891311646], [0.6278817057609558, 0.535037636756897, -0.5192010998725891], [1.098616361618042, 0.6631011962890625, 0.5592247247695923]], [[0.30706310272216797, -0.2765151560306549, 0.3074876368045807], [-0.323972225189209, -0.3516317307949066, 0.600737452507019], [-0.5829256176948547, -0.22073987126350403, 0.46506640315055847]]], [[[0.4240407347679138, 0.005632794927805662, 0.4284815788269043], [-0.7396233081817627, 0.47668391466140747, -0.32137197256088257], [-0.3651963770389557, -0.5178960561752319, 0.27060332894325256]], [[0.7919936180114746, -0.1608886867761612, 0.5754615068435669], [-0.37666770815849304, -0.9623406529426575, 0.0759396106004715], [-0.5257373452186584, 0.3726159632205963, -1.2270358800888062]], [[0.019334152340888977, -0.37201541662216187, -0.8614837527275085], [0.9831224679946899, 0.35555803775787354, 0.2897585928440094], [-0.1910068690776825, -0.4327009916305542, -0.19495539367198944]]], [[[-0.023675162345170975, -0.21820275485515594, 0.9823453426361084], [-0.42686742544174194, 0.5702692270278931, -0.28305375576019287], [1.3924534320831299, -0.14870987832546234, -0.8758023381233215]], [[0.5347145795822144, 0.03251859173178673, -0.7160212993621826], [0.2869263291358948, -0.4145372807979584, -0.2346477210521698], [-0.44009941816329956, -0.1991553008556366, 0.11639457941055298]], [[-0.44700315594673157, -0.30689918994903564, -0.5089253187179565], [-0.4934330880641937, 0.5319532155990601, -0.04403055086731911], [0.06185675039887428, 0.6651488542556763, 0.011530975811183453]]], [[[0.9370507001876831, 0.6752091646194458, 0.9136173725128174], [0.8520114421844482, 0.3047858476638794, 0.22640633583068848], [0.897286593914032, 0.5052636861801147, 0.8884817957878113]], [[-0.19951263070106506, 0.25207823514938354, -0.19745494425296783], [0.05121059715747833, -0.21593347191810608, -0.04729098826646805], [-0.7808142304420471, -0.07805299758911133, -0.0077254315838217735]], [[0.1259869486093521, 0.1997552365064621, -0.4423433840274811], [0.607676088809967, 0.5381836295127869, 0.3454623818397522], [0.11145701259374619, 0.31892502307891846, -0.3793060779571533]]], [[[0.712630569934845, 0.2363603711128235, -0.08999060839414597], [0.05770673230290413, -0.5068483948707581, -0.3244595527648926], [1.0901460647583008, 0.11495041847229004, 0.8326008915901184]], [[-0.7122530937194824, 0.30229464173316956, -0.3275144100189209], [-1.201371431350708, -0.5010977983474731, -0.020578769966959953], [-0.29261520504951477, -0.6392802000045776, -0.2604832351207733]], [[0.41587284207344055, 0.3501944839954376, -0.5103124380111694], [0.2536950707435608, 0.10431282222270966, -0.09744139760732651], [-0.26867979764938354, -0.40696510672569275, -0.8579972982406616]]], [[[-1.175386905670166, -0.481731653213501, -0.6017323732376099], [-1.126951813697815, -0.08534583449363708, 0.8933418393135071], [-0.853094220161438, 0.3330329954624176, 1.0419074296951294]], [[0.47433045506477356, -0.46038156747817993, -0.28295913338661194], [-0.1648215800523758, 0.4598901867866516, 0.18118330836296082], [0.08713103830814362, 0.46446263790130615, 0.10070179402828217]], [[0.46018892526626587, -0.12636926770210266, -0.42003247141838074], [-0.27844420075416565, 0.46244943141937256, 0.5609769821166992], [-0.15759150683879852, 0.25206464529037476, 0.40696510672569275]]], [[[0.8901537656784058, 0.46239185333251953, 0.08088979125022888], [-0.4996393322944641, 0.43497341871261597, 0.6827070713043213], [0.6382978558540344, -0.689613938331604, 0.6064798831939697]], [[0.13684937357902527, -0.018184905871748924, 0.5106418132781982], [-0.2469504475593567, -0.24696765840053558, 0.9081646203994751], [1.090956687927246, 0.29161667823791504, 0.3321996033191681]], [[0.37741804122924805, 0.6867027878761292, 0.4136142134666443], [-0.34431689977645874, 0.26720789074897766, 0.29111841320991516], [-0.4228830635547638, -0.43137460947036743, -0.43764805793762207]]], [[[0.90338134765625, -1.2128474712371826, -0.16826097667217255], [0.8423162698745728, 0.5762067437171936, -0.10342635214328766], [0.19909432530403137, -0.7522664070129395, -2.036843776702881]], [[-0.43256983160972595, 0.19628283381462097, 0.910510241985321], [-0.1540631204843521, -0.4057033956050873, -0.23661966621875763], [-0.7270570397377014, -0.15555989742279053, -0.030044876039028168]], [[0.04732450097799301, -0.1528969556093216, -0.056482043117284775], [0.23339878022670746, 0.09298266470432281, 0.2752781808376312], [0.44289863109588623, 0.0787847563624382, -0.03852374106645584]]], [[[0.9645258188247681, 0.3609788715839386, -1.4272568225860596], [0.13751576840877533, 0.3792593777179718, -0.249434232711792], [0.5419895052909851, 0.6018106937408447, 1.4506481885910034]], [[-0.4238952696323395, 0.15341663360595703, 0.18167121708393097], [0.025739207863807678, -0.8871026635169983, 0.11384890973567963], [0.16374732553958893, -0.5167942047119141, 0.4238055944442749]], [[-0.004385888576507568, 0.4008869528770447, -0.17831280827522278], [0.2468113750219345, 0.434895783662796, -0.06627921760082245], [0.19918744266033173, 0.2508326470851898, -0.163671612739563]]], [[[-0.7602025866508484, -0.16420340538024902, -0.057428378611803055], [0.07195906341075897, -1.5375181436538696, 0.2610122263431549], [-1.4306554794311523, -1.25709867477417, -0.9171409010887146]], [[-0.41558098793029785, 0.7758394479751587, -0.6055825352668762], [0.10272575914859772, -0.8523343205451965, 0.16538922488689423], [-0.9545341730117798, 0.6348499655723572, 0.08441907912492752]], [[-0.3563630282878876, 0.045223187655210495, 0.30131667852401733], [0.048850636929273605, 0.24874484539031982, 0.17326098680496216], [0.418527752161026, 0.30394285917282104, 0.03861156851053238]]], [[[0.6244768500328064, 0.7610793113708496, -0.7732003331184387], [-0.4213814437389374, -0.08385137468576431, 0.21001969277858734], [-0.8656405210494995, -0.1597270369529724, 0.22295907139778137]], [[-0.7822445631027222, -0.10042987763881683, -1.348362922668457], [0.521731436252594, 0.6404833197593689, -0.29101741313934326], [-2.073789358139038, -0.9190161824226379, -0.7678956985473633]], [[0.18314528465270996, -0.2513582408428192, -0.4700894057750702], [-0.3250106871128082, 0.24732014536857605, 0.08708569407463074], [-0.2196698784828186, -0.025951629504561424, 0.4447990953922272]]], [[[-1.5534943342208862, 0.39211100339889526, 1.177621603012085], [0.14104273915290833, -0.46257826685905457, -0.286222904920578], [0.5566744208335876, -0.05506276339292526, -0.02455664798617363]], [[-1.1788753271102905, -1.0403083562850952, -0.7731285095214844], [-0.2747681438922882, 0.096646249294281, -0.13026362657546997], [0.23784182965755463, 0.24374613165855408, -0.5018128752708435]], [[-0.04137548804283142, -0.4126403331756592, 0.1396246999502182], [0.3415350019931793, 0.03592710942029953, -0.5698960423469543], [0.7012884616851807, 0.3559470772743225, -0.36382946372032166]]], [[[0.2923893332481384, -0.024844979867339134, -1.0478787422180176], [-0.38946542143821716, -0.5546729564666748, 0.10547108948230743], [0.598178505897522, 0.6579287648200989, 0.3683640658855438]], [[0.9856416583061218, -0.762536346912384, -0.9048235416412354], [0.47985556721687317, 0.4314189553260803, -0.739958643913269], [-1.1855567693710327, -0.306919664144516, -1.2697583436965942]], [[0.18002143502235413, -0.22975942492485046, 0.26246848702430725], [0.38530561327934265, -0.012655336409807205, 0.532996416091919], [0.13100889325141907, -0.1659514605998993, 0.09963846951723099]]], [[[-0.05020660161972046, -1.4149798154830933, -0.6606927514076233], [0.693812370300293, -1.691306233406067, 0.4430156648159027], [-0.24983157217502594, 0.6565148234367371, 0.30016738176345825]], [[-0.2936720848083496, 0.19751344621181488, 0.8144301176071167], [0.5856804251670837, -0.39541929960250854, -0.2127169668674469], [1.0026003122329712, 0.1903115212917328, -0.3208698034286499]], [[0.18878822028636932, 0.4085594415664673, 0.09081430733203888], [-0.2910010516643524, 0.16565212607383728, 0.2554934620857239], [-0.2165495753288269, 0.4475923478603363, 0.3932667374610901]]], [[[0.050895486027002335, -1.1965408325195312, -0.35648661851882935], [0.22779659926891327, -1.136800765991211, -0.10883747786283493], [0.5935743451118469, -0.8754379153251648, 0.3967706859111786]], [[-0.3734733760356903, -1.385163426399231, -1.1720070838928223], [-0.6239593029022217, 0.12298699468374252, -0.22581467032432556], [-0.5990041494369507, -0.46922269463539124, 0.344450443983078]], [[-0.2886698544025421, 0.3812662661075592, -0.3907768428325653], [-0.0687398612499237, 0.546884298324585, -0.26980024576187134], [0.11312823742628098, -0.13422656059265137, -0.8771569728851318]]], [[[0.9188547134399414, -0.7158198356628418, -0.06564994901418686], [0.6254683136940002, -0.45684781670570374, 0.3475304841995239], [0.970576286315918, -0.8515567779541016, 0.3333818018436432]], [[-1.7285683155059814, 0.07597015053033829, -0.22734545171260834], [-1.848280668258667, 0.03730293735861778, -0.07766768336296082], [-0.9128440022468567, -0.1766207367181778, 0.3351922929286957]], [[-0.008658865466713905, -0.04882647097110748, -0.4042535722255707], [-0.02454516477882862, -0.011238097213208675, 0.1860123574733734], [0.3498983681201935, 0.3641873598098755, 0.4580312669277191]]], [[[0.20970368385314941, 0.580352783203125, -0.5259915590286255], [-0.9603615403175354, 1.1368094682693481, -0.0038080450613051653], [0.5884439945220947, -1.1628235578536987, -0.23074693977832794]], [[-0.8213300704956055, 0.0845794677734375, 0.41359761357307434], [-1.1753133535385132, 0.7323411703109741, 0.4427335262298584], [-1.0263310670852661, 0.04671343415975571, 0.15626013278961182]], [[0.09061583131551743, 0.36294397711753845, 0.21795451641082764], [0.0088325385004282, 0.0904991552233696, 0.26895272731781006], [0.006575232837349176, 0.1606413871049881, 0.19425749778747559]]], [[[0.6435714960098267, 0.57869553565979, -1.0611974000930786], [0.2939319312572479, 0.4551909267902374, 0.35263770818710327], [0.6755674481391907, -0.037865981459617615, -0.346517413854599]], [[-0.4310721457004547, -0.14767718315124512, -0.25634658336639404], [0.5049354434013367, -0.12235510349273682, -0.7826908230781555], [0.6706836819648743, -0.7834975123405457, 0.27740219235420227]], [[-0.7610177993774414, 0.038175590336322784, -0.7101080417633057], [-0.12736953794956207, 0.900092363357544, 0.2868620455265045], [-0.2160017341375351, -0.09711544960737228, -0.6752460598945618]]], [[[-0.35020649433135986, 0.012679285369813442, 0.06122798100113869], [-0.6906470656394958, -0.32466936111450195, 0.4723120927810669], [0.5996103882789612, 0.40062782168388367, 0.763063907623291]], [[-0.6556990146636963, 0.19698800146579742, 1.1008342504501343], [-0.3415842354297638, 0.6108680963516235, -0.10250632464885712], [-1.3990098237991333, -0.8934842348098755, 0.5277197360992432]], [[-0.3366449773311615, 0.33335015177726746, -0.37237295508384705], [-0.13185644149780273, 0.7042786478996277, 0.10849303007125854], [-0.5921186208724976, -0.4027548134326935, -0.12727630138397217]]], [[[-0.24859827756881714, -1.1760905981063843, -0.9188401699066162], [-0.3709430396556854, 0.6750641465187073, -0.30063989758491516], [0.8410292267799377, 0.3691236972808838, 0.823291540145874]], [[0.5213979482650757, 0.6167933344841003, 0.6211055517196655], [-0.5692914128303528, -0.3566065728664398, 0.3990767300128937], [-1.1543030738830566, -1.1067320108413696, -1.0512288808822632]], [[0.01891489513218403, -0.1688573807477951, -0.3518184423446655], [-0.02188078500330448, -0.06166978180408478, -0.14687122404575348], [0.3275884985923767, 0.48324301838874817, 0.10393070429563522]]], [[[0.6842103004455566, 0.07017974555492401, 0.05099346488714218], [-1.3181573152542114, -0.05440158396959305, -0.6276366710662842], [-1.1964716911315918, -0.7994924783706665, 0.03814847767353058]], [[0.8396594524383545, -0.20226597785949707, 0.4343104958534241], [0.8935098052024841, -0.5385181903839111, 0.571902334690094], [0.8074060678482056, 0.13705259561538696, 0.5279644727706909]], [[-0.26612699031829834, -0.3326919674873352, 0.1718415468931198], [0.5018844604492188, 0.3753073811531067, 0.3039219379425049], [0.0904877707362175, 0.17008686065673828, 0.27926477789878845]]], [[[-1.1155296564102173, -0.23112110793590546, 0.004509683232754469], [-0.4398253858089447, -0.4070095717906952, 0.35454022884368896], [-1.285623550415039, -0.34811392426490784, 0.19581915438175201]], [[1.0810465812683105, 0.06280189752578735, -0.07925492525100708], [0.2629545032978058, -0.21148879826068878, -0.07351184636354446], [1.2389861345291138, 0.3008079528808594, 0.8724360466003418]], [[-0.3732648491859436, -0.5693194270133972, -0.4451199173927307], [-0.0391656868159771, 0.5598801970481873, -0.05825505778193474], [-0.2687290608882904, 0.1695118546485901, -0.018109222874045372]]], [[[-0.4538966715335846, 0.11672195792198181, -0.4025438725948334], [0.2592998445034027, 0.7098398208618164, 0.6952385902404785], [1.22299325466156, 0.6386592388153076, -1.5804189443588257]], [[-0.547877848148346, 0.1365266740322113, -0.35644087195396423], [-0.7045177817344666, -0.3421787917613983, 0.14952367544174194], [0.15942330658435822, 0.8229888081550598, -0.20736630260944366]], [[-0.020389044657349586, -0.3189871907234192, -0.10515513271093369], [0.2015441358089447, -0.4223943054676056, 0.5328603982925415], [0.30033808946609497, -0.41023075580596924, 0.29111960530281067]]], [[[0.32148799300193787, -0.10714928805828094, -1.1877604722976685], [-0.9949930310249329, 0.12762956321239471, 0.23685044050216675], [-0.6505136489868164, 0.08789170533418655, 0.8953982591629028]], [[-0.6693897843360901, -0.7793588638305664, -0.08639958500862122], [-0.33615970611572266, -1.2895588874816895, -0.41371622681617737], [-0.2796747386455536, 0.7089054584503174, 0.4785982370376587]], [[-0.11991439014673233, 0.39961522817611694, 0.0019927117973566055], [-0.7466349005699158, 0.25835171341896057, -0.21740102767944336], [-0.45045799016952515, 0.6841579079627991, 0.2321336269378662]]], [[[0.9180153012275696, -0.011814448051154613, 0.13882943987846375], [0.593669593334198, -0.13611121475696564, 0.017932817339897156], [-1.5693250894546509, -0.3443651497364044, 0.15198004245758057]], [[0.20573699474334717, 0.017666254192590714, 1.5807645320892334], [0.1572573184967041, 0.5428944230079651, 0.026964787393808365], [0.2702597677707672, -0.11020088195800781, 0.29456910490989685]], [[0.5651285648345947, -0.02181464061141014, -0.2651251256465912], [0.45268699526786804, 0.036424897611141205, -0.3572535812854767], [-0.24266864359378815, -0.42435091733932495, -0.45086339116096497]]], [[[-0.5093998312950134, -0.202259361743927, 0.002097467193379998], [-0.19053047895431519, 0.48983821272850037, -0.2234823852777481], [-0.47386810183525085, -0.1178106740117073, -0.10716971009969711]], [[-0.5201322436332703, -0.42284634709358215, -0.3893897235393524], [-0.46212038397789, 1.1326954364776611, 0.7404202818870544], [0.2786795198917389, 0.7523890733718872, 0.8921599984169006]], [[0.0813625156879425, -0.25548607110977173, -0.8284057974815369], [0.715191662311554, 0.03673403337597847, 0.026112718507647514], [0.4061896502971649, -0.5369047522544861, -0.2971509099006653]]], [[[0.5376055240631104, -1.0530277490615845, -0.16478803753852844], [-0.983612596988678, -0.3513394892215729, -0.3462578356266022], [-0.8051607012748718, 0.3882836699485779, 0.49964338541030884]], [[1.1134446859359741, 0.3583603799343109, 0.12642842531204224], [-0.8039488196372986, -0.11289011687040329, -0.3405362367630005], [1.0001568794250488, -0.010817773640155792, -1.3959242105484009]], [[0.20047242939472198, 0.09709332883358002, 0.5207420587539673], [0.10501497983932495, -0.31181851029396057, -0.08072703331708908], [0.15206937491893768, -0.5440579056739807, 0.04260175675153732]]], [[[-0.19512978196144104, -0.6933407187461853, 0.8511874079704285], [-1.1489616632461548, 1.0309810638427734, 0.24793143570423126], [-1.561518907546997, 0.3524521589279175, -1.6009374856948853]], [[0.045526210218667984, -0.022290002554655075, 0.030547402799129486], [0.13714678585529327, -0.3452061414718628, -0.6270026564598083], [-0.4006243348121643, 0.22305984795093536, 0.2785644233226776]], [[-0.5320837497711182, -0.23438003659248352, 0.7870061993598938], [0.4383932054042816, -0.02123602107167244, -0.2088635116815567], [-0.08626361936330795, 0.08853457123041153, 0.08951386064291]]], [[[-0.48966121673583984, -0.7654001712799072, -0.35724321007728577], [-0.9591596722602844, 0.887934148311615, 0.10897590219974518], [-1.2630661725997925, 1.079272747039795, 0.3726506233215332]], [[0.23125550150871277, 0.5617831349372864, 0.5263223648071289], [0.5749134421348572, 0.14637114107608795, -0.8084662556648254], [-0.050310879945755005, -0.5229800343513489, -0.14249856770038605]], [[-0.14849674701690674, 0.0015335148200392723, -0.4711686372756958], [-0.06684765219688416, 0.2984742820262909, 0.28867968916893005], [-0.34606504440307617, -0.38220342993736267, -0.04840192198753357]]], [[[0.7913999557495117, -1.021211862564087, 0.6261376142501831], [-0.0310433991253376, 0.3175877630710602, -0.4259895980358124], [1.050301432609558, 0.6716252565383911, 0.4448970556259155]], [[-0.0653344988822937, -1.0279655456542969, -0.23735524713993073], [-0.7227047085762024, 0.5054953694343567, 0.35487642884254456], [0.2040737271308899, 0.7763782143592834, -0.16804726421833038]], [[0.06261100620031357, 0.663882315158844, 0.5456798672676086], [-0.4562896490097046, -0.10404402017593384, -0.10508844256401062], [-0.08882369101047516, 0.18139240145683289, -0.11150971800088882]]], [[[-1.831184983253479, -0.1811758279800415, -0.9317644238471985], [0.2969399690628052, 0.18474696576595306, -0.004320916254073381], [1.466953158378601, -0.007965237833559513, 0.7077603340148926]], [[-1.0776183605194092, 0.27542826533317566, 0.3792734742164612], [-1.217477798461914, -0.14787372946739197, 0.11056526005268097], [0.6451340317726135, 0.40512070059776306, -0.13711535930633545]], [[-0.07743614166975021, 0.48682039976119995, -0.05519005283713341], [-0.274332731962204, 0.00475605484098196, -0.10613765567541122], [0.24074605107307434, 0.09222718328237534, 0.028281278908252716]]], [[[-0.3884255886077881, 0.17205122113227844, 0.9866541028022766], [-0.21506857872009277, -0.524032711982727, -0.9174596667289734], [-2.6854488849639893, 0.31480395793914795, 0.4956730604171753]], [[0.48332101106643677, 0.24600647389888763, -0.3912331759929657], [0.38990598917007446, 0.4154798686504364, 0.35410401225090027], [-0.32632118463516235, -0.666364312171936, -0.5675727128982544]], [[0.3774913549423218, -0.42351433634757996, -0.33588868379592896], [0.3439709544181824, -0.007644276134669781, 0.20116743445396423], [0.3652586340904236, 0.09477287530899048, 0.31916549801826477]]], [[[-2.3613951206207275, 0.46753090620040894, -0.7131024599075317], [0.13350409269332886, 0.7762065529823303, -0.33053597807884216], [-0.7168022394180298, -1.1212927103042603, 0.8306527137756348]], [[0.16059447824954987, 0.2973610758781433, 0.3770834803581238], [0.17575544118881226, 0.08893608301877975, 0.4121345579624176], [0.3721902668476105, 0.11077892780303955, -0.2869581878185272]], [[-0.05877894163131714, 0.5243543982505798, 0.20376670360565186], [0.34269386529922485, 0.043630700558423996, -0.17542177438735962], [-0.0904640257358551, -0.16139119863510132, 0.4161325991153717]]], [[[-0.21299506723880768, -0.7719508409500122, 0.1145094782114029], [-0.3645864725112915, -1.0352646112442017, -0.4844629764556885], [0.47579509019851685, -0.07540006935596466, 0.6909111142158508]], [[-0.2148115634918213, -0.4400215148925781, 0.0471615195274353], [0.7170454859733582, -1.3819674253463745, 0.5356374382972717], [-0.8639416694641113, -0.3885799050331116, 1.0664271116256714]], [[-0.42046821117401123, -0.11595536023378372, 0.7746862173080444], [0.11635873466730118, -0.014959012158215046, 0.012516127899289131], [0.15103986859321594, 0.040065210312604904, -0.30295637249946594]]]], "conv1.bias": [0.7887997031211853, -0.313669353723526, -0.46185290813446045, 0.45134851336479187, -0.7557963132858276, -0.01884610205888748, -0.5945901274681091, -0.1526694893836975, 0.022148625925183296, 1.0716991424560547, 0.4112588167190552, 0.4991774260997772, -0.18772104382514954, 0.44113966822624207, -0.4282643795013428, 0.2385280430316925, -0.43638911843299866, -0.03105206973850727, -0.5773300528526306, 0.1525965929031372, -0.6710457801818848, 0.15540897846221924, -0.9012560844421387, 0.00984128937125206, -0.5421346426010132, 0.04137049987912178, -0.35766905546188354, 0.526652455329895, 0.8134042620658875, -0.10902626067399979, 0.07232372462749481, -0.47025352716445923, -0.5542216300964355, 0.49136465787887573, -0.11175399273633957, -0.9804301857948303, 0.052018456161022186, -0.4428027272224426, -1.1636977195739746, 0.23637725412845612, -0.036644238978624344, 0.003977368585765362, -0.9627724289894104, 0.3554626703262329, 0.011480169370770454, -0.0863802433013916, -0.014183949679136276, 0.6274964809417725, 1.22575044631958, -0.014873247593641281, 1.2008776664733887, 0.0574774444103241, 0.09213336557149887, 0.3418867588043213, 0.23730526864528656, 0.2093547135591507, 1.050944209098816, -0.3546157777309418, -1.0494908094406128, -0.406453400850296, 0.3512316942214966, -0.8462767601013184, 0.45749083161354065, 0.36854252219200134], "bn1.weight": [0.9998806715011597, 0.9379777908325195, 1.1063528060913086, 1.0231263637542725, 1.2401243448257446, 0.9992000460624695, 0.9432196021080017, 1.225138783454895, 0.8184530138969421, 1.094947338104248, 1.1620312929153442, 0.8175526261329651, 1.1776258945465088, 1.084059476852417, 1.4003046751022339, 0.97930908203125, 1.1659832000732422, 0.949248731136322, 1.13835871219635, 0.8340957164764404, 1.3785054683685303, 1.1334869861602783, 1.0844769477844238, 0.9593432545661926, 1.1261999607086182, 0.9933421611785889, 1.253421664237976, 1.0209046602249146, 1.588556170463562, 1.3551878929138184, 0.8241881728172302, 1.1748377084732056, 1.1199921369552612, 1.1285501718521118, 1.031252145767212, 1.119133710861206, 0.7346632480621338, 1.0790759325027466, 1.1271774768829346, 1.3094501495361328, 0.7860850095748901, 1.2126880884170532, 0.998557984828949, 1.0095670223236084, 0.9824832677841187, 1.2501797676086426, 1.030300498008728, 1.0707731246948242, 1.016549825668335, 0.9415860176086426, 1.0745950937271118, 1.0520811080932617, 0.763934314250946, 1.0592362880706787, 0.958835244178772, 1.124187707901001, 0.8851571679115295, 0.9931175112724304, 0.8557321429252625, 0.8394656181335449, 0.9272914528846741, 1.1180311441421509, 1.232706069946289, 1.0304855108261108], "bn1.bias": [-0.10318385064601898, -0.7358417510986328, -0.4699924886226654, -0.22800587117671967, -0.8328374624252319, -0.07587540149688721, -0.7287609577178955, -0.3464013338088989, -0.30048975348472595, -0.6945424675941467, 0.047938670963048935, -0.11970485001802444, -0.8164368271827698, -1.0026828050613403, -0.5077671408653259, 0.026369484141469002, -0.413563996553421, -0.49014753103256226, -0.8665611743927002, 0.022144829854369164, -0.7855819463729858, -0.5403305292129517, 0.07687892019748688, -0.08770658820867538, -0.06877236813306808, -0.6745263934135437, -0.31582358479499817, -0.4249066710472107, -0.9597494006156921, -0.8402084708213806, -0.4481716454029083, -0.33340057730674744, -0.7059379816055298, -1.6169755458831787, -0.21021969616413116, -0.9845559000968933, -0.5259609222412109, -0.8744551539421082, -1.1704459190368652, -0.6459453105926514, -0.08316385746002197, -0.5202183127403259, -0.821940541267395, -0.5792152285575867, 0.0395483635365963, -0.7331268191337585, -0.7139379382133484, -0.47967666387557983, -0.5608047842979431, -0.23490217328071594, -0.996478796005249, -0.2427312731742859, -0.24203819036483765, -0.5250991582870483, -0.7630595564842224, -0.5539596676826477, -0.5991614460945129, -0.44371655583381653, -0.41387221217155457, -0.6111566424369812, -0.3842177093029022, -0.604332447052002, -0.805277943611145, -0.8148294687271118], "conv2.weight": [[[[-0.07569711655378342, -0.5558450222015381, -0.628220796585083], [-0.3172492980957031, 0.9366127848625183, -0.5610659718513489], [0.7937148809432983, 0.5807624459266663, 0.23327814042568207]], [[-0.25382664799690247, 0.2622242569923401, 0.38534581661224365], [-0.6513298153877258, -0.23485420644283295, 0.7515056729316711], [0.45076316595077515, -0.22467723488807678, -0.04815603047609329]], [[-0.5628973841667175, -1.3895174264907837, 0.6081693768501282], [0.010872327722609043, -0.0426391176879406, -0.8788921236991882], [-0.30358999967575073, -0.1288222372531891, -0.0804717168211937]], [[-0.558858335018158, -1.1136772632598877, 0.5543016195297241], [0.018866145983338356, -0.8914147615432739, -0.4860878884792328], [0.26160621643066406, -0.6119232773780823, 0.2978905439376831]], [[0.28832730650901794, 0.0810742899775505, 0.5722936987876892], [-0.19017842411994934, 0.6247186064720154, 0.1513519287109375], [1.3030592203140259, -0.005241734907031059, 0.05574961379170418]], [[0.38602951169013977, -0.695940375328064, 0.5042689442634583], [0.3119383752346039, 0.292496919631958, -0.3334616720676422], [0.6877958178520203, 0.27607226371765137, 0.15429991483688354]], [[-0.3051048517227173, 0.9210548400878906, 0.30185893177986145], [0.5519013404846191, 0.28957483172416687, -0.4163420498371124], [-0.17075392603874207, -0.4794836938381195, -0.9782379865646362]], [[0.43603941798210144, -0.2546180784702301, 0.24477894604206085], [-0.8325002789497375, -0.14106258749961853, 0.2998700737953186], [0.9473788738250732, -0.3878335952758789, 0.35965266823768616]], [[-0.16731834411621094, 0.019482361152768135, -0.13803204894065857], [-1.316378116607666, -0.15277521312236786, 0.049413345754146576], [1.2534239292144775, 0.5913529992103577, 0.8246805667877197]], [[0.07604963332414627, -1.4560883045196533, 0.2545916438102722], [0.0056055462919175625, 0.5428985953330994, -0.44778984785079956], [0.7661428451538086, 0.2968010902404785, -0.6900985836982727]], [[-0.5554192662239075, 0.12905393540859222, 0.23111610114574432], [0.1303698569536209, -0.406944215297699, 0.1930953860282898], [0.14142338931560516, 0.029192468151450157, 0.46573349833488464]], [[0.6544052958488464, -0.603760302066803, 0.17966172099113464], [0.1042504757642746, 0.1594509333372116, -0.14923173189163208], [0.09712323546409607, -0.023452628403902054, -0.4424995183944702]], [[-0.12758316099643707, -1.0550814867019653, -0.17993858456611633], [-0.6993143558502197, -0.9226028919219971, 0.3512864410877228], [-1.2527724504470825, -0.02169068716466427, 0.1507928967475891]], [[-0.37572604417800903, 0.670973002910614, 0.03211989253759384], [0.8868709802627563, -0.8054289221763611, 0.3630218505859375], [0.19699326157569885, 0.25964900851249695, -0.3642532527446747]], [[-0.33813726902008057, -0.15240487456321716, 0.06739749759435654], [-0.006777676288038492, 1.13038969039917, -0.5517956614494324], [0.591468095779419, -0.19434934854507446, 0.4439649283885956]], [[-0.7638773918151855, 0.032031215727329254, 0.1994955688714981], [-0.3265637457370758, 0.6727541089057922, 0.7139126658439636], [0.6023485660552979, -0.3843003809452057, 0.3169417381286621]], [[0.019045360386371613, 0.09745433926582336, 0.18648169934749603], [0.01090588141232729, 0.19955778121948242, -0.8142531514167786], [-0.5709180235862732, -0.6310988068580627, 0.5098854303359985]], [[-0.637837290763855, 0.14642998576164246, -0.3635867238044739], [0.17973381280899048, -0.2454388588666916, -0.06804397702217102], [-0.43134573101997375, 0.36574167013168335, -0.1387079954147339]], [[0.06412641704082489, 0.014316690154373646, 0.004433192312717438], [0.25960129499435425, 1.1564174890518188, 0.5047180652618408], [0.8880673050880432, 0.4216400682926178, 0.14226339757442474]], [[-0.1338033378124237, 0.3386979103088379, 0.1810094565153122], [-0.715984046459198, -0.13900558650493622, -0.6440949440002441], [0.9990693926811218, 0.7043432593345642, -0.04692698270082474]], [[0.03499481454491615, 0.4393661320209503, 0.6700817346572876], [0.7225725054740906, -0.3887312114238739, -0.037838637828826904], [-0.9358029961585999, 0.3457268178462982, 0.10747084021568298]], [[-0.006284811068326235, -0.5088208317756653, -0.22813458740711212], [0.026186257600784302, -0.6329174637794495, 0.2404216229915619], [-0.8862782120704651, -0.6888551115989685, 0.14575964212417603]], [[-0.1714521050453186, -0.4012625217437744, 0.4809827506542206], [0.05885636433959007, 0.029427988454699516, -0.8276195526123047], [-0.010953744873404503, 0.511044442653656, 0.023887595161795616]], [[-0.21052804589271545, -0.46823689341545105, 0.8755728602409363], [-0.28507107496261597, -0.2172902375459671, -0.15901993215084076], [0.5271011590957642, 0.2608136236667633, 0.05205808952450752]], [[-0.3289533257484436, -0.09092197567224503, -0.24210061132907867], [0.104977086186409, 0.6879560947418213, 0.8787607550621033], [0.626067042350769, 0.031077492982149124, -0.11724528670310974]], [[-0.7230729460716248, -0.5173109769821167, 0.5316938757896423], [-0.008071377873420715, -0.08105456829071045, -0.14136119186878204], [-0.420932412147522, 0.6279869079589844, -0.16276927292346954]], [[0.9132946133613586, 1.0414608716964722, -0.5471422076225281], [-0.48588380217552185, -0.6665877103805542, -0.7726945281028748], [-0.2784444987773895, -0.16880089044570923, 0.23846791684627533]], [[0.2501561939716339, -0.4171900153160095, 0.3195301592350006], [-0.034852977842092514, 0.8764282464981079, -0.5520122647285461], [-0.20302411913871765, -0.13170215487480164, -0.06047583743929863]], [[-0.007727897725999355, -0.7476874589920044, 0.18484947085380554], [0.1017465591430664, -0.27968448400497437, -0.1601027548313141], [0.19153523445129395, -0.17474934458732605, 0.4689701199531555]], [[0.5048771500587463, 0.4205477237701416, 0.8685936331748962], [0.12504073977470398, 0.26223984360694885, -0.4764610230922699], [0.006753929890692234, -1.0051140785217285, 0.2895473837852478]], [[0.44832664728164673, 0.11772181838750839, 0.08621947467327118], [0.01336397510021925, 0.45371201634407043, -0.039117518812417984], [0.36396923661231995, -0.1839018166065216, -0.7848269939422607]], [[0.0077858734875917435, 0.7116360068321228, 0.7480912208557129], [-0.5513619184494019, -0.6092237234115601, -0.10604416579008102], [0.18516531586647034, 0.19097892940044403, -0.1507059931755066]], [[-0.3838975727558136, -0.23926733434200287, 0.18657545745372772], [0.23472461104393005, -0.3566422462463379, 0.7472450137138367], [1.5472006797790527, -0.25513067841529846, -0.5386364459991455]], [[-0.5267742276191711, 0.8538691401481628, -0.743880033493042], [-1.3875807523727417, 0.7444585561752319, 0.873205304145813], [0.07382918894290924, 0.12138673663139343, -0.7271873950958252]], [[-0.023265179246664047, 0.9412312507629395, 0.35749104619026184], [0.008729484863579273, -0.28603288531303406, -0.38293078541755676], [0.5497256517410278, -0.12595917284488678, -0.7312290668487549]], [[-0.18999063968658447, 0.1925487071275711, 0.11959338188171387], [0.5988894701004028, 0.35160353779792786, 0.41176584362983704], [-0.9871901273727417, -0.8736660480499268, 0.19004064798355103]], [[-0.09353744983673096, 0.404703289270401, -0.06779126822948456], [0.3797299563884735, 0.0809558555483818, -0.7015540599822998], [0.22630992531776428, 0.08065091818571091, -0.08804891258478165]], [[-0.755094051361084, 0.21404927968978882, 0.3900996744632721], [-0.7762075662612915, -0.3900004029273987, -0.5868984460830688], [0.4916902780532837, 0.18190771341323853, 0.2518308460712433]], [[0.1291346698999405, -0.038763366639614105, -1.1528810262680054], [-0.4648105502128601, 0.10720397531986237, 1.220482349395752], [0.815258264541626, -0.39385029673576355, -0.6914759874343872]], [[0.30143845081329346, 1.1938713788986206, 0.1032111868262291], [0.5419699549674988, -0.5813990235328674, -0.01475233118981123], [-0.4898587167263031, -0.5576362609863281, -0.40085357427597046]], [[0.2485685497522354, 0.4281969368457794, -0.3752495348453522], [0.21951179206371307, 0.18849052488803864, -0.11202476173639297], [0.13836686313152313, -0.1879507303237915, 0.3200554847717285]], [[0.07579877972602844, -1.4155833721160889, 0.6354464292526245], [0.15034940838813782, -0.40407800674438477, 0.188400536775589], [0.48920106887817383, -0.6954389214515686, 0.2233113944530487]], [[-1.5231951475143433, 0.9686959981918335, 0.11335732787847519], [-0.12893733382225037, 0.5518437027931213, 0.6947793364524841], [-0.6799306869506836, 0.3000045418739319, 0.9911586046218872]], [[0.46671849489212036, 0.1271832138299942, -0.5729995965957642], [0.3363204896450043, 0.45149749517440796, -0.6190029382705688], [-1.0449659824371338, 0.5594925880432129, 0.6920510530471802]], [[-0.3065427541732788, -0.10838739573955536, -0.1859310120344162], [-0.8336186408996582, -0.2490069419145584, 0.10565656423568726], [0.1996663212776184, -0.4137054681777954, 0.02442827634513378]], [[-0.9191775321960449, 0.7716952562332153, -0.4018840789794922], [-0.26214659214019775, 0.9714862108230591, -0.41531094908714294], [-0.4787851870059967, 0.06425157189369202, -0.1977311670780182]], [[0.7756410837173462, -0.11356251686811447, 0.3560119867324829], [-1.425135612487793, 0.4962102770805359, -0.13548102974891663], [0.47812771797180176, -0.37439754605293274, -0.019187210127711296]], [[0.8941943049430847, -0.1693171113729477, -0.8479122519493103], [0.5640743970870972, 0.7108242511749268, -0.1876828968524933], [0.2680155038833618, -0.2119232416152954, 0.5228773355484009]], [[-0.2341974973678589, -0.7970218658447266, 0.3295387029647827], [-0.6259812712669373, -0.3543446958065033, 0.6147395968437195], [-0.9786983728408813, 0.5777419805526733, -0.2315549999475479]], [[-0.6595665216445923, 0.45776334404945374, 0.6319823265075684], [-0.5648610591888428, 0.6144090890884399, -0.040591973811388016], [-0.36997175216674805, -0.5112513899803162, 0.3349432647228241]], [[0.10593019425868988, 0.36802616715431213, -0.19765911996364594], [-0.19213949143886566, -0.5476759076118469, 0.09754268825054169], [-0.7969967126846313, -0.8117247819900513, -0.6806159019470215]], [[0.3890078365802765, -0.48998987674713135, 0.37474408745765686], [0.04332298785448074, -0.23044638335704803, -0.11148973554372787], [-0.04930730164051056, -0.07044271379709244, 0.14863097667694092]], [[-0.6111838817596436, -0.4359574019908905, 0.05653582140803337], [0.34192657470703125, -0.18720826506614685, -0.24745112657546997], [0.36556729674339294, -0.14573150873184204, -0.07376769185066223]], [[-0.2171258181333542, -0.1201002299785614, -0.1979297548532486], [0.02373293600976467, 0.09405776858329773, -0.5938014388084412], [-0.6274283528327942, 0.08088049292564392, 0.07983674854040146]], [[-0.09235361963510513, -0.002424907172098756, 0.3044435381889343], [-0.30508869886398315, 0.9599627256393433, -0.12673139572143555], [0.9342598915100098, 0.33171403408050537, -0.0056393989361822605]], [[0.4781384766101837, 0.314176470041275, 0.19450432062149048], [0.423112690448761, -0.48956969380378723, 0.20812179148197174], [-1.7481348514556885, -0.1299639642238617, -0.7181476354598999]], [[0.07378531247377396, 0.394477903842926, 0.0007759200525470078], [-0.13695429265499115, -0.5402493476867676, 0.293356329202652], [0.1532362699508667, 0.5785356760025024, 0.20528338849544525]], [[-0.6650230288505554, 0.6200926303863525, 0.6294717788696289], [-0.10068461298942566, 0.32452648878097534, -1.3973686695098877], [-0.19105340540409088, -0.5573662519454956, 0.8290227651596069]], [[-0.7423540353775024, 1.0911446809768677, -0.17378701269626617], [-0.29304271936416626, 0.6895121335983276, -0.137297585606575], [-0.6694052815437317, -0.06895821541547775, -0.2871227562427521]], [[0.3666805326938629, -0.13445834815502167, 0.6025400161743164], [0.12280391901731491, -0.02839350700378418, 0.365936815738678], [0.2255403697490692, 0.2113116830587387, 1.0102289915084839]], [[0.758783757686615, -0.606309711933136, -0.881676435470581], [0.23829181492328644, -0.2648133635520935, 0.014170008711516857], [0.27254632115364075, -0.34075555205345154, 0.29030364751815796]], [[0.18732507526874542, 0.5008158087730408, 0.155657559633255], [-0.732903778553009, -1.0271586179733276, 0.33637070655822754], [-0.44907885789871216, -0.10204605758190155, -0.5871047377586365]], [[-0.1311885118484497, -0.4815814793109894, 0.049122076481580734], [-1.2785923480987549, 0.704081118106842, 0.24090701341629028], [-0.23396262526512146, 0.5516558885574341, 0.4687553644180298]], [[-0.051320213824510574, -0.32828786969184875, 0.03743506595492363], [-0.9085091352462769, 0.2636951804161072, -0.2349257916212082], [-0.10451757907867432, -0.14873848855495453, -0.5504963397979736]]], [[[0.4248538017272949, -0.8072448372840881, -0.7220495939254761], [-1.074981689453125, 0.05311896651983261, -0.3131069242954254], [0.37989068031311035, 0.48667028546333313, 0.024573758244514465]], [[0.1888711154460907, -0.41024768352508545, 0.12503737211227417], [-0.30272337794303894, -0.10855749249458313, -0.89203941822052], [0.8677164316177368, 0.7315362095832825, 0.29204633831977844]], [[-0.18043577671051025, 0.4509966969490051, -0.6317155957221985], [-0.9418602585792542, -0.294927716255188, 0.04139607772231102], [-1.1279264688491821, -0.6616011261940002, 0.8339447975158691]], [[-0.6782333850860596, -0.05973410606384277, -0.08970171958208084], [-0.8324647545814514, 0.09640359878540039, -0.9857413172721863], [-0.078057661652565, 0.2095744013786316, 0.4476512670516968]], [[0.919442892074585, -0.23873643577098846, -1.0556752681732178], [-0.5801408290863037, -0.33935701847076416, -0.3229074478149414], [1.1145578622817993, -0.27011096477508545, -0.26217275857925415]], [[-0.08235315978527069, -0.01709849014878273, 1.6268048286437988], [0.005582317244261503, -0.12649370729923248, -0.37108439207077026], [0.40058770775794983, 0.45073002576828003, -0.4025716185569763]], [[0.21418893337249756, 0.04757457599043846, -0.4295823276042938], [0.506913423538208, -0.2896781861782074, 0.8574320673942566], [0.4944559633731842, -0.3164745271205902, -0.13222220540046692]], [[-0.07703039050102234, -0.33424070477485657, -0.8440960645675659], [-0.4645029902458191, -0.5109082460403442, -0.11656893044710159], [-0.1709306687116623, 0.15042048692703247, -0.122203528881073]], [[-0.038926996290683746, -0.36787158250808716, 0.7076727151870728], [0.046298179775476456, 0.7533494830131531, 0.46745023131370544], [0.6127148866653442, -0.04643414914608002, -0.5525575280189514]], [[-0.28627079725265503, 0.3811843991279602, -0.05260002985596657], [0.09519197791814804, -0.2721877098083496, -0.6123335361480713], [0.20359311997890472, 0.1705445498228073, 0.4477948248386383]], [[0.14161548018455505, -0.877682089805603, -0.679973840713501], [-0.48877009749412537, 0.42404305934906006, 0.020399298518896103], [0.18756523728370667, -0.6157755851745605, -0.3051019012928009]], [[0.014633799903094769, 0.0005723941139876842, 0.5744954943656921], [-0.033688243478536606, -1.629335880279541, 0.24529650807380676], [0.0988733172416687, 0.619200587272644, 0.14249029755592346]], [[0.8394608497619629, 0.042261432856321335, -0.4555417597293854], [-0.7263116836547852, 0.1855573058128357, 0.5470244884490967], [-0.33733639121055603, 0.35269784927368164, 0.6298117637634277]], [[0.6686219573020935, 0.4997386634349823, 0.3029150068759918], [-0.029313990846276283, -0.29757797718048096, 0.08331099152565002], [-0.9041200280189514, 0.5928584933280945, -0.17136386036872864]], [[-0.024060793220996857, -0.04566289857029915, -0.20757928490638733], [0.6272313594818115, 0.0648043155670166, 0.1897098869085312], [1.3463841676712036, -0.09957563132047653, 0.13909126818180084]], [[0.15939496457576752, 0.15859484672546387, 0.21738745272159576], [-0.305557519197464, 0.08355358242988586, 0.0025740417186170816], [0.12382661551237106, 0.3613145649433136, -0.38590899109840393]], [[-0.13518747687339783, -0.5062738656997681, 0.7213192582130432], [-0.9117384552955627, -0.26946374773979187, -0.002183527685701847], [0.6102542281150818, -0.37812626361846924, -0.11294407397508621]], [[-0.10190527141094208, 0.2772136330604553, -0.19714553654193878], [0.3692282736301422, -0.12524637579917908, 0.8762828707695007], [-1.022984504699707, 0.5689340233802795, -0.11589442938566208]], [[0.7912304997444153, -0.32818347215652466, -0.17411674559116364], [0.6654831171035767, 1.4093842506408691, 0.365396112203598], [-0.8095571994781494, 0.02713792957365513, 0.6882825493812561]], [[-0.10651907324790955, -0.6140607595443726, -1.5219961404800415], [-0.4175911843776703, -0.23141542077064514, 0.009942533448338509], [-0.29355379939079285, -0.4173760712146759, -0.406867116689682]], [[0.2902180254459381, -0.08341556042432785, 0.5629709362983704], [0.35781583189964294, -0.18642760813236237, 0.5235375761985779], [0.3792332112789154, 0.7501545548439026, 0.36639919877052307]], [[-0.49737370014190674, 0.3015953004360199, 1.466414213180542], [0.9241745471954346, -0.28116559982299805, 0.3866148889064789], [-0.9770447015762329, 0.2703767418861389, -0.637643575668335]], [[-0.456489622592926, 0.520728349685669, -1.1782236099243164], [-0.07412144541740417, 0.2506101131439209, 0.3160300552845001], [-0.1602524369955063, 0.36675357818603516, -0.8485825061798096]], [[0.569100022315979, 0.2575441896915436, 0.5002909898757935], [-0.12332373112440109, 0.32599949836730957, 0.02597145177423954], [0.05123554915189743, 0.253543883562088, 0.5622902512550354]], [[-0.13215519487857819, 0.4720580577850342, 0.13193295896053314], [-0.10304795205593109, -0.4792102575302124, 0.4462214410305023], [-2.168342113494873, -0.1280156373977661, -0.28170350193977356]], [[-0.07185372710227966, 0.09496710449457169, 0.3595743179321289], [-0.7591424584388733, 0.2351166307926178, -0.8264316916465759], [0.022273849695920944, -0.5777761936187744, 0.22547942399978638]], [[0.5138584971427917, -0.03501762077212334, -0.9726113677024841], [0.5812847018241882, 0.016104066744446754, 1.1912217140197754], [0.7155464291572571, 0.8039743304252625, -1.2493653297424316]], [[-0.3709028661251068, 0.1316179484128952, 0.28108030557632446], [-0.4257144033908844, 0.22705702483654022, 0.3200756311416626], [-1.378322720527649, 0.47905540466308594, -0.3122229278087616]], [[-0.06375613808631897, 0.05059324949979782, 0.5343441963195801], [0.36124131083488464, -0.8195188641548157, 0.9329624176025391], [0.045922692865133286, 0.3239500820636749, -0.05768493190407753]], [[-0.7996731996536255, 0.16861939430236816, 0.025242643430829048], [-0.1324232965707779, -0.5984473824501038, -0.11719494313001633], [-0.21876651048660278, -0.9892191886901855, 0.7601777911186218]], [[0.07685032486915588, 0.4008634686470032, 0.7836567163467407], [-0.09138929098844528, 0.49080580472946167, -0.014950692653656006], [0.09757285565137863, -0.7615976929664612, 0.08776330947875977]], [[-0.3845914900302887, 0.4150097072124481, -0.44475680589675903], [-0.22752124071121216, -0.4491068422794342, -0.6889512538909912], [-0.837670624256134, -0.09533418715000153, -0.3243471682071686]], [[-0.15696293115615845, 0.04029065743088722, -0.537379801273346], [0.4329858422279358, 0.5997669696807861, 0.20983397960662842], [0.3051205575466156, -0.3968544900417328, -0.16501493752002716]], [[0.5881255865097046, -0.7043607234954834, -0.1881539672613144], [-0.362213134765625, -0.8939183354377747, -0.2273104041814804], [0.8870745301246643, -0.3231174349784851, 0.5188781023025513]], [[-0.0626220703125, -0.019275514408946037, 0.23471097648143768], [-0.2177693247795105, 0.4576717019081116, 0.018677571788430214], [-0.22554413974285126, -0.06444478780031204, 0.2795841097831726]], [[-0.04134080559015274, -0.46505317091941833, 0.4563412070274353], [-0.4089391231536865, 0.22232574224472046, -0.09087017923593521], [0.3249807357788086, -0.09676370769739151, 0.2652307152748108]], [[0.41927772760391235, 0.518995463848114, 0.36375710368156433], [0.16136251389980316, 0.053116459399461746, -0.8853111863136292], [-0.05883180350065231, 0.3712800443172455, 0.39704814553260803]], [[0.5059877038002014, 0.020013848319649696, 0.01900436356663704], [0.2268088310956955, 0.07593020051717758, 0.4296110272407532], [0.31934067606925964, -0.44071492552757263, 0.7410153150558472]], [[0.002870989730581641, -0.12761500477790833, -0.16360343992710114], [-0.07711873948574066, 0.3969478905200958, -0.029182840138673782], [-0.19959260523319244, 0.6303887367248535, -0.4564046859741211]], [[0.4405209720134735, -0.3275800049304962, 0.009982128627598286], [0.3409275412559509, -0.18721707165241241, 0.09441374987363815], [0.5474029779434204, -0.5331413149833679, -0.41704121232032776]], [[0.08118247985839844, 0.27187782526016235, 1.3409788608551025], [-0.2194269448518753, 0.06794305145740509, 0.4345676600933075], [1.137227177619934, -0.47559458017349243, -0.21863393485546112]], [[-0.014480683021247387, 0.4618162214756012, 0.4827483892440796], [0.15436141192913055, 0.23183037340641022, -0.8489845991134644], [-0.28974461555480957, -0.7381995320320129, -0.3986870348453522]], [[-0.05566991865634918, -0.37839969992637634, 0.13439278304576874], [0.23988403379917145, 0.42300108075141907, -0.7323244214057922], [-0.028409266844391823, -0.1807253509759903, 0.4708101451396942]], [[-0.21878378093242645, 0.03724834322929382, -0.2875833809375763], [0.31302931904792786, 0.5778759121894836, 0.5408978462219238], [-0.6190624237060547, 0.044489938765764236, 0.4993593990802765]], [[-0.1513110101222992, -0.029769139364361763, 0.21820829808712006], [-0.9247512221336365, 0.16981711983680725, -0.9963933229446411], [0.2242615967988968, 0.14712409675121307, -0.4746156334877014]], [[-0.38029035925865173, -0.3929838538169861, 0.15983009338378906], [-0.22325332462787628, -0.8063105344772339, -0.1527927815914154], [0.05866004899144173, 0.6505900025367737, -1.1136497259140015]], [[0.14512529969215393, -0.0885949358344078, -1.039853811264038], [-0.2973547577857971, 0.003527474356815219, -0.6933520436286926], [0.3394172787666321, -0.6927778720855713, -0.34762921929359436]], [[0.25331398844718933, 0.20794281363487244, 0.22619731724262238], [0.3896334171295166, 0.34367287158966064, 0.8170967698097229], [-1.1532838344573975, -0.09298639744520187, 0.24675968289375305]], [[0.169044628739357, -0.2835592031478882, -0.8186957240104675], [-1.0506020784378052, -0.37946194410324097, -0.39345067739486694], [0.6043350100517273, -0.33075088262557983, -0.06314589828252792]], [[0.5573214888572693, -0.027853786945343018, -0.35924121737480164], [-0.6145840883255005, 0.1530037224292755, 0.199929341673851], [-0.610748827457428, 0.005859289783984423, 0.17013515532016754]], [[-0.2930789589881897, 0.22383786737918854, -0.05211714655160904], [-0.20338213443756104, -0.215223029255867, 0.2747029960155487], [-0.9629032611846924, 0.04479539766907692, -0.03978322818875313]], [[0.4839278757572174, -0.6367963552474976, 0.36923858523368835], [0.7220079302787781, -0.26931479573249817, 0.01872071996331215], [-0.9797645807266235, -0.45546624064445496, 0.36925986409187317]], [[-0.0757380947470665, -0.1675589233636856, -0.29774394631385803], [0.6299118399620056, 0.1327514946460724, -0.1910860538482666], [0.591017484664917, -0.09548454731702805, 0.22036483883857727]], [[-0.17371052503585815, 0.3268013000488281, 0.6683298349380493], [0.20979174971580505, 0.4452020227909088, -0.6203012466430664], [-0.3924131393432617, -0.7248990535736084, 0.4788341820240021]], [[0.6552799344062805, 0.38655099272727966, -2.487328290939331], [0.21510617434978485, 1.162899374961853, 0.01496114395558834], [0.4688693583011627, -0.0717233195900917, 0.48400789499282837]], [[0.01969822123646736, 0.4731709957122803, 0.6038558483123779], [0.21442526578903198, 0.13508550822734833, -0.4169473648071289], [0.19702628254890442, 0.5563743114471436, -0.5953472852706909]], [[0.7531739473342896, 0.38590705394744873, -0.2606563866138458], [-1.2100803852081299, 0.21678932011127472, -0.18142418563365936], [-0.574048638343811, 0.05804133415222168, 0.42852991819381714]], [[0.2786131799221039, 0.06996922194957733, 0.5351883172988892], [0.2835303544998169, -0.050776854157447815, -0.3100806772708893], [-0.9460079669952393, 0.4084200859069824, -0.5998527407646179]], [[0.1721380203962326, -0.07438687235116959, 0.08577434718608856], [-1.3403655290603638, 0.2446015626192093, -0.4835174083709717], [-0.2496107667684555, -0.1153925284743309, 0.520645797252655]], [[-0.7168391346931458, 0.05528540909290314, 0.8699403405189514], [0.6007586121559143, 0.17588044703006744, -0.7252646684646606], [0.4109087884426117, -0.6474811434745789, 0.3200700879096985]], [[0.05097618326544762, -0.34607455134391785, -0.12693236768245697], [0.00617956230416894, 0.5133157968521118, 0.5807839632034302], [-0.5456207394599915, 0.5074501037597656, -0.41947245597839355]], [[0.43576210737228394, 0.09349459409713745, 0.861495852470398], [-0.22465981543064117, -0.07024741172790527, -0.4090632498264313], [0.16754679381847382, 0.45918262004852295, 0.5314965844154358]], [[0.05645347759127617, -0.02227579802274704, -0.6437746286392212], [-0.22033199667930603, 0.49751752614974976, 0.17128974199295044], [-0.04763037711381912, 0.10619691014289856, -0.1607472449541092]], [[0.4615572392940521, 0.5800176858901978, -0.10300643742084503], [0.1832217574119568, 0.24636012315750122, -0.1398043930530548], [-0.2382756471633911, -0.6163190007209778, -0.5808901786804199]]], [[[-0.9069517254829407, 0.26741117238998413, 0.45365044474601746], [-0.25582700967788696, 0.4554537236690521, 0.6016141176223755], [0.4931410849094391, 0.38911378383636475, 0.14122073352336884]], [[-0.008930709213018417, -0.33774179220199585, -0.3464612662792206], [0.03445843607187271, 0.6125712990760803, -0.5496276021003723], [0.2429204285144806, -0.5191739201545715, -0.4394364058971405]], [[0.3392345905303955, -0.029620464891195297, 0.05996815860271454], [-0.14541484415531158, -0.5544040203094482, 0.011480838991701603], [0.21089473366737366, -0.6318347454071045, -0.16389799118041992]], [[0.6436144113540649, -0.5262373089790344, -0.2731204032897949], [0.5865750312805176, -1.235473871231079, 0.7353814840316772], [-1.1085633039474487, -0.4754179120063782, -0.36924728751182556]], [[0.31615331768989563, -0.07452572882175446, 0.07643470913171768], [-0.2817980647087097, -0.4813487231731415, 0.20844227075576782], [0.5237958431243896, -0.41251981258392334, 0.2741263806819916]], [[-0.07740270346403122, 0.15444600582122803, 0.037275057286024094], [-0.1792292445898056, -0.2736148536205292, 0.05087689310312271], [-0.6438567638397217, -0.13297781348228455, 0.2025727927684784]], [[0.08949831873178482, -0.1701904684305191, -0.09711524099111557], [-0.11352542042732239, 0.43353894352912903, 0.006173277739435434], [0.7621293067932129, -0.2661767899990082, -0.4219255745410919]], [[0.5611028671264648, 0.8139243721961975, 0.4890742003917694], [0.11059603095054626, -0.6646917462348938, -0.3636821210384369], [-0.25515297055244446, 0.11498217284679413, -0.15862730145454407]], [[-0.8920481204986572, 0.2122577279806137, 0.0931481197476387], [0.03221592307090759, 1.5078175067901611, 0.1993912160396576], [-0.8666110634803772, 0.034871023148298264, 0.3088756501674652]], [[-0.23097340762615204, 0.6225563287734985, -0.07360079884529114], [0.5066062808036804, 0.23027247190475464, 0.7931135892868042], [0.2608816623687744, -0.47763457894325256, 0.2608228027820587]], [[0.7657685279846191, 0.132218137383461, -0.3321398198604584], [0.8854999542236328, -1.0531255006790161, -0.4140244722366333], [-0.1375197321176529, 0.49288105964660645, 0.3094732165336609]], [[0.3360888361930847, 0.2229911983013153, 0.025064479559659958], [0.23610901832580566, 0.9391342997550964, -0.8244085907936096], [0.48007965087890625, -0.9011996388435364, -0.7462576031684875]], [[0.44643905758857727, 0.6846075057983398, -0.9209070801734924], [-0.060756973922252655, 0.12330864369869232, 0.6858354210853577], [-0.8765886425971985, 0.2614103853702545, 0.5228484272956848]], [[0.2822214961051941, -0.6271325945854187, 0.1135365441441536], [0.09486542642116547, 0.19716434180736542, -0.6920017004013062], [-0.5203510522842407, -0.12348458915948868, 0.45939624309539795]], [[0.2471478432416916, -0.28587356209754944, -0.16091984510421753], [0.09435731917619705, 0.2618972957134247, 0.06465578824281693], [-0.46110013127326965, -0.3179270029067993, 0.47254684567451477]], [[-1.2591619491577148, 0.5837870836257935, 0.40720316767692566], [-0.032149653881788254, 0.7543729543685913, -0.5929741859436035], [-0.22033829987049103, -1.2304236888885498, 0.0034925974905490875]], [[0.2674614191055298, 0.08515097945928574, 0.6838832497596741], [0.2974596321582794, 0.39927729964256287, -0.6709393858909607], [0.440038800239563, -0.15665890276432037, 0.29912593960762024]], [[-0.22505886852741241, -0.18215541541576385, -0.004503363277763128], [-0.8045859932899475, -0.22858811914920807, 0.263172447681427], [-0.13209477066993713, -0.08742937445640564, -0.49578142166137695]], [[-0.3406709134578705, 0.4778043329715729, 0.6553354263305664], [-1.1855206489562988, 0.2834441363811493, 0.954561173915863], [0.6904557347297668, 0.6429128050804138, 0.3845789432525635]], [[0.2573111355304718, -0.0178193598985672, 0.32843101024627686], [-0.4818013608455658, -0.05842072144150734, -0.01505312044173479], [0.49451470375061035, -0.3043401539325714, -0.8295702338218689]], [[0.5922754406929016, 0.03120454028248787, -0.23683969676494598], [-0.5231992602348328, -0.16455481946468353, 0.38142693042755127], [-0.8645052909851074, -0.05532263591885567, -0.49586206674575806]], [[-0.5507757067680359, -0.3035065233707428, -0.4796687066555023], [0.017073962837457657, -0.12523439526557922, 0.018803274258971214], [-0.5873779058456421, 0.2889751195907593, 0.7785717844963074]], [[-0.16229113936424255, -0.6125310659408569, -0.3096529543399811], [0.1481713056564331, -0.13135282695293427, -0.5684283971786499], [0.1670466959476471, -0.438700407743454, -0.32022160291671753]], [[-1.237176775932312, -0.00881026592105627, 0.7419033050537109], [-0.9871514439582825, 0.12035702913999557, 0.06165444478392601], [0.025049345567822456, 0.12351620942354202, -0.5952052474021912]], [[0.6781189441680908, -0.23027865588665009, -0.5670087933540344], [0.10378115624189377, 0.14863985776901245, 0.0316033810377121], [-0.6274218559265137, -0.08469581604003906, -0.010863503441214561]], [[0.08902307599782944, 0.6375828981399536, -0.07422050833702087], [0.12028347700834274, 0.6710662841796875, -0.7018082141876221], [0.15884330868721008, 0.22673925757408142, -0.07442427426576614]], [[-0.5488443970680237, 0.02722826972603798, -0.7762115597724915], [-0.33660247921943665, 0.26401108503341675, 0.01131180115044117], [-0.1316380351781845, -0.39363595843315125, -0.09254195541143417]], [[0.6362132430076599, -0.3498986065387726, 0.36994656920433044], [0.1293155997991562, 0.10241463780403137, -0.31386488676071167], [0.3280154764652252, -0.2752266526222229, 0.16289688646793365]], [[-0.598678469657898, -0.19138163328170776, -0.6146079301834106], [-0.1712551712989807, -1.4743679761886597, -0.29500117897987366], [0.11852111667394638, 0.41979384422302246, 0.7399864792823792]], [[0.0659390240907669, -0.20677968859672546, 0.34025371074676514], [-0.8880983591079712, -0.011891692876815796, -0.8032131791114807], [0.7280071973800659, -0.5216492414474487, -0.24209976196289062]], [[0.11142120510339737, -0.7441484332084656, 1.1900944709777832], [-0.1856740564107895, 0.20983244478702545, -0.10994403064250946], [-0.07327447086572647, 0.7060325145721436, -0.09040849655866623]], [[0.1053614467382431, 0.04685391113162041, 0.22766119241714478], [0.15532228350639343, 0.520531177520752, -1.2165251970291138], [0.3333163559436798, 0.14826640486717224, -0.056150417774915695]], [[0.3915235698223114, -0.30690816044807434, -0.2512356638908386], [-0.29612284898757935, -0.21146471798419952, -0.3425770103931427], [0.9962430596351624, 0.5541645288467407, 0.6143305897712708]], [[-0.08868569880723953, -0.13903290033340454, -0.6987383365631104], [0.26999256014823914, -0.4078165292739868, 0.28943538665771484], [0.8482359051704407, 0.11725348234176636, -0.13427966833114624]], [[0.7015263438224792, 0.005863490980118513, -0.12292744964361191], [-0.4872891306877136, -0.7224924564361572, -0.40583130717277527], [-0.1985856592655182, 0.13274997472763062, -0.17189881205558777]], [[-0.30495113134384155, -0.06564149260520935, 0.13876265287399292], [-0.7174604535102844, -0.28421321511268616, -0.26357802748680115], [-0.2384454309940338, -0.8677660226821899, 0.3834069073200226]], [[0.31933316588401794, -0.011418251320719719, -0.020031118765473366], [-0.12063086777925491, -0.7698491215705872, -0.7553791999816895], [1.2702484130859375, -0.1415981501340866, 0.3213922679424286]], [[-0.23401571810245514, 0.4022577702999115, -0.5076478719711304], [0.14984972774982452, 0.5129014253616333, -0.4756249487400055], [-0.8659337162971497, 0.9003853797912598, 0.06695548444986343]], [[0.34281447529792786, -0.5860351920127869, 0.08036927878856659], [0.7523893117904663, 0.19974443316459656, -0.0833500400185585], [0.3954368829727173, 0.7985573410987854, 0.29451340436935425]], [[0.008989561349153519, -0.811127245426178, 0.4594516158103943], [-0.31490814685821533, -0.2521386742591858, 0.05604058876633644], [0.02998504415154457, -0.07337308675050735, 0.6471456289291382]], [[0.9638314247131348, 0.100532665848732, -0.19366316497325897], [0.23890751600265503, 0.25148409605026245, -1.0318807363510132], [0.7012428045272827, 0.0728035494685173, -0.9766381978988647]], [[0.9075354337692261, -0.6507736444473267, -1.27448308467865], [0.7855467200279236, 0.22228525578975677, -0.6086909770965576], [0.28661319613456726, -0.6588616371154785, -0.4024686813354492]], [[0.881557047367096, -0.9809995889663696, 0.9060929417610168], [-0.6278913021087646, 0.3812423348426819, 0.14595769345760345], [-0.5504084229469299, 0.4405837655067444, 0.40913262963294983]], [[-0.283397912979126, 1.452928900718689, 0.21299134194850922], [-0.4386613667011261, 0.750863790512085, 0.7540696859359741], [-0.11348982900381088, -0.01060569379478693, -0.3383128046989441]], [[-0.34819939732551575, 0.315915584564209, -0.08706788718700409], [-0.1762293577194214, -0.48446887731552124, 0.571851372718811], [0.0804310142993927, -0.6938924789428711, -0.45658591389656067]], [[0.2067417949438095, -0.24539171159267426, -0.9205505847930908], [-0.5766041874885559, 0.48326918482780457, -0.25028106570243835], [-1.2597789764404297, -0.37481653690338135, -0.3813604712486267]], [[0.511894702911377, -0.5904143452644348, -0.5120252370834351], [0.0473707839846611, -0.09182532131671906, -0.5041531920433044], [0.8998111486434937, 0.33284518122673035, -0.6181371808052063]], [[0.7241565585136414, -0.9520922303199768, -0.2322658896446228], [0.1180596724152565, 0.227632537484169, 0.5169310569763184], [-0.44636106491088867, 0.35588809847831726, -0.486400306224823]], [[0.6325947046279907, 0.2717377543449402, 0.4308890700340271], [-0.7104293704032898, 0.8792560696601868, -0.7982219457626343], [-0.28144457936286926, 0.6265721917152405, -0.7283845543861389]], [[0.12188657373189926, -0.5109660625457764, -0.3639540374279022], [-0.6793949604034424, -0.1827511340379715, -1.4425771236419678], [0.08662104606628418, 0.32040274143218994, 0.08928918093442917]], [[0.43672439455986023, 0.485632061958313, 0.06391575932502747], [-1.1014025211334229, 0.23292677104473114, -0.4539918303489685], [0.5397821664810181, 0.13377296924591064, 0.7442124485969543]], [[-0.2817779779434204, 0.024071289226412773, 0.3083019256591797], [0.13883931934833527, -0.10862914472818375, -0.4486195147037506], [-0.007116981782019138, -0.503675103187561, -1.0076146125793457]], [[-0.008842946030199528, -0.4682196080684662, -0.3223258852958679], [0.648612916469574, -0.3073537051677704, -0.6068102121353149], [0.054792456328868866, -0.2257736772298813, -1.0430179834365845]], [[-0.08727463334798813, -0.41422194242477417, 0.21454444527626038], [-0.7754789590835571, -0.163535013794899, 0.4873248338699341], [0.34567105770111084, 0.5057932734489441, -0.132090762257576]], [[0.7539435625076294, 0.1462443321943283, 0.5121753811836243], [0.717580258846283, -0.1833273470401764, 0.4712987542152405], [-0.6078917384147644, 0.38548168540000916, 0.18351876735687256]], [[0.24975648522377014, 0.1911746710538864, 0.4033590257167816], [0.5862210392951965, 0.2174912989139557, -0.3733697235584259], [0.37594613432884216, -0.8643050789833069, -0.31794267892837524]], [[0.31038403511047363, -0.04750777781009674, 0.6468847393989563], [-0.6377825736999512, -0.4182070791721344, -0.12315469980239868], [-1.3161439895629883, 0.7613091468811035, 0.11734889447689056]], [[0.4401915371417999, 0.2324623018503189, -0.4037799835205078], [-0.2171177864074707, 0.22222264111042023, 0.28502368927001953], [-0.8596674203872681, 0.28904783725738525, -0.5435801148414612]], [[0.12364639341831207, 0.40319058299064636, 0.5365825295448303], [-0.6303130984306335, 0.18262092769145966, -0.4452149271965027], [-0.225276917219162, 0.15962892770767212, -0.8627374768257141]], [[0.2786673605442047, 0.2615506052970886, -0.6379384398460388], [-0.3237461447715759, 0.6687285304069519, -0.020036164671182632], [-0.7598395943641663, -0.511564314365387, 0.6792845726013184]], [[-0.7449502348899841, -0.056852661073207855, 0.37988772988319397], [0.3478327691555023, 0.2102213203907013, -0.5286179780960083], [0.3528766930103302, -0.7204017043113708, -0.6555637121200562]], [[-1.9960271120071411, 0.20104341208934784, 0.1524103581905365], [-0.10035333037376404, 0.42976975440979004, -0.1928311437368393], [0.14720697700977325, 0.017614757642149925, 0.36329084634780884]], [[-0.8163439035415649, 0.4650731086730957, 0.0222849752753973], [0.8569522500038147, -0.12303714454174042, -0.4891503155231476], [-0.5044456124305725, 0.7864667773246765, 0.5631532669067383]], [[-0.5962177515029907, -0.2519918978214264, 0.24252836406230927], [-0.912552535533905, 0.03772835060954094, -0.4271160066127777], [-0.8205732107162476, -0.3289376497268677, -1.274211049079895]]], [[[0.48755979537963867, -0.17420676350593567, -0.13905680179595947], [-0.38728734850883484, 0.07883462309837341, 0.13860313594341278], [-0.3362073004245758, 0.06504666805267334, -0.7016276121139526]], [[-0.09996899962425232, 0.15992824733257294, 0.22934579849243164], [-0.2227289229631424, 1.1177525520324707, -0.15662655234336853], [-0.2658821940422058, -0.9233646988868713, -0.46295738220214844]], [[-0.15026436746120453, 0.5321038961410522, -0.10078834742307663], [-1.0497130155563354, -0.1299939900636673, 0.7483261823654175], [-2.3108413219451904, -0.3392942249774933, -0.20628613233566284]], [[0.21517160534858704, 0.37550827860832214, 0.7943670153617859], [0.3650883734226227, 0.41932156682014465, 0.7357910871505737], [0.6393260955810547, -0.8885835409164429, -0.5888363122940063]], [[-0.17154571413993835, -0.37324419617652893, 0.3518867790699005], [-0.57142573595047, 0.27691638469696045, -1.2924370765686035], [0.31798094511032104, -0.12918031215667725, -0.5531059503555298]], [[-0.030567876994609833, -0.33829838037490845, -0.24009455740451813], [0.05177661404013634, -0.6536573171615601, -0.4696398079395294], [-0.06966136395931244, -0.7897689938545227, 0.056958332657814026]], [[0.15605011582374573, 0.22463686764240265, -0.020511724054813385], [-0.09665603190660477, 0.1523779034614563, 0.0624227374792099], [0.8572061657905579, 0.6910662055015564, -0.5254524946212769]], [[-1.0802428722381592, 0.7205254435539246, 1.1735780239105225], [0.012196380645036697, 0.20211662352085114, -0.17828530073165894], [-0.4092255234718323, -0.013353276997804642, 0.5791329145431519]], [[0.5654163956642151, -0.2675306499004364, 0.45255348086357117], [-0.6296550631523132, 0.04204922541975975, -0.8527460694313049], [-0.4573494791984558, -0.11434795707464218, 0.673886239528656]], [[0.36211198568344116, -0.23080119490623474, 0.4864281117916107], [-0.10492951422929764, 0.03834269568324089, 0.913262665271759], [-0.20553162693977356, -0.059267353266477585, -0.4486737847328186]], [[0.03143380954861641, 0.6632595062255859, -0.17505046725273132], [0.5233864784240723, 0.9288818836212158, 0.16983795166015625], [-0.5435582399368286, 0.11454130709171295, -0.39576083421707153]], [[-0.47354838252067566, -0.022091172635555267, 0.484552800655365], [-0.4200268089771271, -0.21934714913368225, -0.10885119438171387], [-0.9197995066642761, -0.5147004723548889, -0.23435842990875244]], [[-0.6760802268981934, 0.02157706953585148, 0.22989708185195923], [0.011249832808971405, 0.04890158399939537, 0.17949174344539642], [0.0970751941204071, 0.17918306589126587, -0.7128593921661377]], [[-0.3740839958190918, 0.21893957257270813, 0.007242792285978794], [-0.07981639355421066, -0.025841297581791878, -0.3738953173160553], [-1.1689435243606567, 0.623968780040741, -0.13604892790317535]], [[-0.33302801847457886, 0.8361591696739197, -0.006161345634609461], [-0.7388239502906799, -0.8140323162078857, -0.20511673390865326], [-0.2878175675868988, -0.40525975823402405, -0.4564443826675415]], [[-0.07867367565631866, -0.3545662462711334, 0.04315805062651634], [0.08339478075504303, -0.06001930311322212, -0.28625503182411194], [-0.26575222611427307, 0.04772425442934036, 0.4557206928730011]], [[-1.0623191595077515, -0.2688398063182831, 0.2724702060222626], [0.1522362232208252, -0.006567686330527067, 0.6648958325386047], [0.2623305022716522, -0.12205659598112106, -0.009131068363785744]], [[0.41309472918510437, 0.5645959377288818, -0.6346148252487183], [0.07457853853702545, -0.02668747678399086, 0.29778796434402466], [0.5364077091217041, 0.29746973514556885, -0.27830275893211365]], [[0.02622436359524727, 0.11130452156066895, 0.25007200241088867], [-0.2867204248905182, -0.28664371371269226, -0.3749132454395294], [-0.6764481663703918, -0.09603706002235413, -0.6127514243125916]], [[0.0034458674490451813, 0.21529021859169006, 0.19060644507408142], [0.7857330441474915, -0.0027960692532360554, 0.3738968074321747], [0.33864080905914307, 0.0655892863869667, -0.6020295023918152]], [[-0.1945973038673401, -0.20334173738956451, -0.6189488172531128], [-0.7543030381202698, 0.5577901005744934, -0.14144280552864075], [-0.17538748681545258, 0.35756462812423706, -0.09059491753578186]], [[1.2995989322662354, -0.7333568930625916, 0.12263865768909454], [0.4050053060054779, 0.38554105162620544, 0.16158685088157654], [-0.03071494959294796, -0.6717718839645386, 0.06398081034421921]], [[0.06346701085567474, 0.04245959222316742, -0.24230016767978668], [0.11493835598230362, -0.23709607124328613, 0.7567532658576965], [0.5717707276344299, 0.22088494896888733, -0.3843890130519867]], [[0.10714199393987656, 0.16086429357528687, 0.33440110087394714], [0.4095665514469147, -0.37653908133506775, 0.8697176575660706], [-0.013047340326011181, -0.7425181865692139, -1.2431718111038208]], [[0.5508245229721069, 0.7636210918426514, -0.1051677018404007], [0.49982741475105286, -0.48267874121665955, 0.4044719338417053], [0.1020636111497879, 0.07943617552518845, -0.5960685610771179]], [[-0.25218749046325684, 0.22916020452976227, 0.2777128219604492], [-0.5622956156730652, 0.295545756816864, 0.21730288863182068], [-0.647086501121521, 0.05193684995174408, 0.12492572516202927]], [[0.05231029540300369, 0.3420371115207672, 0.1272922158241272], [0.467998743057251, -0.26713427901268005, 0.061834655702114105], [-0.3961632549762726, -0.07509664446115494, -0.04033539444208145]], [[-0.27594080567359924, 0.9365503787994385, -0.2924109995365143], [0.34919965267181396, 0.056466180831193924, -0.042585648596286774], [-0.7645615339279175, -0.3254147469997406, 0.14796702563762665]], [[-1.1212021112442017, 0.39061686396598816, -0.4854837656021118], [-0.6321471333503723, -0.5912980437278748, -0.5308188199996948], [-0.22863321006298065, -0.40860122442245483, -0.4945288300514221]], [[1.0545313358306885, -0.8295800089836121, -0.17589321732521057], [-0.3148193359375, -0.6087858080863953, -0.7033873796463013], [1.0729029178619385, -0.09716106951236725, -0.45448142290115356]], [[0.7939751744270325, -0.2497725635766983, -0.18179264664649963], [0.5060601830482483, -0.19354400038719177, -0.4320845901966095], [-0.17353790998458862, 0.10427603870630264, 0.15987062454223633]], [[0.4935499131679535, 0.17048096656799316, -1.0427480936050415], [0.8067575693130493, 0.5472672581672668, 0.4027978181838989], [0.15864621102809906, 0.6998249888420105, -0.6078872680664062]], [[-0.4993946850299835, -0.04292140156030655, -0.008605487644672394], [-0.36148184537887573, -0.256119966506958, -0.38451093435287476], [-0.5777237415313721, -0.6545557379722595, -0.15510889887809753]], [[0.8097665309906006, 0.062359925359487534, -0.6054818630218506], [-0.5043463110923767, -0.2200433611869812, 0.6413032412528992], [-1.2286494970321655, 0.6143701076507568, -0.5313635468482971]], [[-0.08027933537960052, 0.8023360371589661, 0.23701390624046326], [-0.30866265296936035, -0.20919851958751678, -0.10027903318405151], [-0.42305219173431396, -0.30893078446388245, 0.39208346605300903]], [[-0.5375204086303711, 0.22003033757209778, 0.17557471990585327], [0.5398252606391907, -0.13313348591327667, 0.1845865547657013], [0.5802452564239502, -0.3935452997684479, -0.24847030639648438]], [[0.17939670383930206, 0.32421591877937317, -0.10056571662425995], [-0.5463987588882446, 0.23150023818016052, -0.26890984177589417], [0.8817380666732788, 0.30644887685775757, 0.6037076115608215]], [[-0.7990704774856567, 0.5690280795097351, -0.3353135883808136], [-0.8401563763618469, 0.040866803377866745, -0.182077556848526], [-0.6929378509521484, -0.04275653138756752, 0.9260680675506592]], [[-0.08575515449047089, 0.0015506683848798275, -0.18712054193019867], [-0.8318155407905579, -0.1698155701160431, -0.4072748124599457], [-0.7154298424720764, 0.06005280464887619, -0.5746052265167236]], [[0.9613922834396362, -0.014512427151203156, 0.57318115234375], [-0.4256352186203003, -0.3348032534122467, -0.5219829082489014], [-0.6810203790664673, 1.1058025360107422, 0.6252869963645935]], [[-0.804573655128479, -0.7404068112373352, 0.7729400396347046], [0.3026830852031708, -0.1242419183254242, 0.6082710027694702], [0.026107078418135643, 0.1574258655309677, 0.334096759557724]], [[-0.23637492954730988, 0.142289936542511, 0.6014763712882996], [-0.09862049669027328, 0.08367843180894852, -0.05646941438317299], [-0.8372381329536438, -0.40325021743774414, 0.09014128893613815]], [[0.06952348351478577, 0.36262619495391846, -1.1236296892166138], [-0.023918932303786278, 0.691155731678009, -1.3363879919052124], [0.7743596434593201, -0.14301647245883942, -1.0257902145385742]], [[-0.11660990864038467, -0.4325246512889862, -1.315311312675476], [0.04882816970348358, -0.9597228169441223, 0.20797958970069885], [0.23633988201618195, 0.23917357623577118, 0.4344206750392914]], [[-0.6768320202827454, 0.05334940180182457, 0.038509439677000046], [0.48018863797187805, -0.4630046486854553, 0.28800639510154724], [-0.7446293830871582, -0.6290090680122375, 0.6651837229728699]], [[0.630632758140564, 0.10816306620836258, 0.11387809365987778], [-0.2326265275478363, 0.5392464995384216, 0.2076590359210968], [-0.48768311738967896, -0.9455232620239258, -1.050074577331543]], [[0.020919131115078926, -0.45902886986732483, 0.40805521607398987], [-0.22858843207359314, -0.3569149076938629, -0.28483614325523376], [0.96889728307724, -0.27560895681381226, 0.34912845492362976]], [[-0.3134266436100006, 0.049754563719034195, 1.263039469718933], [-0.8442270755767822, 0.8471750020980835, -0.18629087507724762], [-0.8730835318565369, -1.0171366930007935, 0.21503698825836182]], [[0.14034195244312286, -0.14424681663513184, -0.3362793028354645], [-0.711968719959259, -0.23662374913692474, -0.5713977217674255], [-0.6525205969810486, -0.6016800403594971, 0.041525114327669144]], [[0.9453942775726318, -0.9510071277618408, -0.7193378806114197], [-0.9778262972831726, 0.22989621758460999, -0.12469232827425003], [0.1558041125535965, -0.08790979534387589, -0.6826820373535156]], [[-0.37476304173469543, 0.6568647623062134, -0.32576680183410645], [-0.4638758897781372, 0.32099300622940063, 1.15823233127594], [-0.6358584761619568, 0.523688793182373, 0.5122175216674805]], [[-0.061478305608034134, 0.31100791692733765, 0.35593703389167786], [-0.16885820031166077, 0.5819894671440125, 0.3598060607910156], [0.5143589377403259, -0.055548641830682755, 0.6602786183357239]], [[-0.15972201526165009, -0.27792641520500183, -0.2760908901691437], [0.7376729249954224, 0.28593775629997253, -1.1482179164886475], [-1.2177661657333374, -0.4856688380241394, -0.17394758760929108]], [[0.027706380933523178, 0.022036515176296234, 0.6100649237632751], [-0.5804548859596252, -1.7032887935638428, -0.16598846018314362], [-0.25713300704956055, -0.14328186213970184, 1.0106216669082642]], [[-0.9320576786994934, 0.34888067841529846, -0.9283666610717773], [-0.42026612162590027, -0.11585654318332672, 0.6830434799194336], [0.15404067933559418, 0.21272294223308563, 0.3438732922077179]], [[0.24662311375141144, -0.4263990819454193, 0.6993250250816345], [0.11375925689935684, -1.2299697399139404, 0.12219594419002533], [-1.3434380292892456, -1.3264087438583374, 0.14751861989498138]], [[0.31130731105804443, 0.6333029270172119, 0.082845538854599], [1.442510962486267, -0.001701384549960494, -0.6661825180053711], [-1.1569944620132446, -0.5307666063308716, 0.08393313735723495]], [[0.01992342434823513, -0.04306400939822197, 0.5017747282981873], [0.7310584783554077, 0.1561557948589325, -0.44815030694007874], [0.5710777640342712, -0.3427276611328125, -0.4252921938896179]], [[0.45475298166275024, -1.2940030097961426, -0.09107963740825653], [-0.025931209325790405, 0.19031526148319244, -0.29041364789009094], [0.12568429112434387, 0.714576244354248, -0.2060786485671997]], [[0.3958775997161865, 0.5815625786781311, 0.4628058969974518], [0.12432242929935455, -0.4661000669002533, 0.3529343605041504], [0.41057702898979187, -0.24835655093193054, -0.6010841727256775]], [[0.16535095870494843, 0.16767175495624542, 0.678107500076294], [-0.03540504351258278, 0.4765032231807709, -0.2471904456615448], [0.2665238380432129, -0.7227164506912231, 0.08766064792871475]], [[0.4330103397369385, 0.20613284409046173, 0.6704102754592896], [0.1798819750547409, 0.28913336992263794, 0.1253703385591507], [0.0036946735344827175, 0.4014500677585602, -0.6879209876060486]], [[-0.14910884201526642, -0.6257676482200623, 0.5077944397926331], [0.15146704018115997, -0.27154144644737244, 0.3042110204696655], [0.08760154992341995, 0.7313109636306763, -0.3198798894882202]], [[-0.4802670180797577, 0.23362720012664795, 0.2770081162452698], [0.8133255243301392, 0.20369990170001984, 0.6944257020950317], [-0.23915715515613556, -0.19937734305858612, 0.8147164583206177]]], [[[-0.1616561859846115, 0.8453626036643982, 0.3681079149246216], [0.14513760805130005, -0.6915551424026489, -0.31988459825515747], [-0.4139319360256195, -0.38382065296173096, 0.003036386566236615]], [[0.20112556219100952, -0.32519176602363586, -0.5415552258491516], [-1.903923511505127, 0.2388465255498886, 0.255397230386734], [-0.5327361226081848, 0.9592989087104797, -0.65306556224823]], [[-0.6163786053657532, -0.35689154267311096, -0.2497987300157547], [-0.7178203463554382, 0.6517630815505981, -0.42201098799705505], [-0.5918907523155212, -0.3881784975528717, -0.7295569777488708]], [[-0.6855772733688354, -0.11403936892747879, 0.10532772541046143], [-0.2792908251285553, 0.1337917149066925, -0.38877636194229126], [0.14536963403224945, 0.4428695738315582, 0.50276118516922]], [[-0.37936922907829285, -0.5179604887962341, -0.05197304114699364], [0.19690679013729095, 0.0023575183004140854, 0.5088949203491211], [0.2603989243507385, 0.49356961250305176, 0.5908816456794739]], [[0.7612050771713257, 0.10288414359092712, -0.0897742360830307], [0.7607396841049194, 0.33849596977233887, -0.7911300659179688], [-0.2801412343978882, -0.12719249725341797, 0.15076690912246704]], [[-0.38809633255004883, -0.21371378004550934, 0.014917965047061443], [-0.03821277618408203, 0.2545635998249054, 0.16517947614192963], [0.14557917416095734, -0.003955213353037834, 0.05146609991788864]], [[-0.9025024771690369, 0.4587520956993103, -0.792843759059906], [-0.3852686285972595, -1.083786964416504, -0.3755721151828766], [-0.4323262572288513, 0.13517501950263977, 0.4284270405769348]], [[-0.12653127312660217, -0.3776985704898834, -0.003693493315950036], [-0.4401894509792328, -0.2330877035856247, -0.003437967272475362], [-1.366133213043213, -1.4929975271224976, 0.16969795525074005]], [[0.4503294825553894, -0.5723984837532043, -0.943917989730835], [-0.022406240925192833, -0.23799444735050201, 0.2874225974082947], [0.8457103371620178, -0.21060918271541595, 0.4394262433052063]], [[-0.016690267249941826, 0.07303062081336975, -0.933890700340271], [-0.40878355503082275, -0.49104583263397217, 0.16837874054908752], [0.794771134853363, 0.4359760880470276, -0.5710259675979614]], [[0.9328360557556152, -0.043495506048202515, -0.06903167068958282], [-0.20877547562122345, 0.2717212736606598, 0.19727255403995514], [0.16451789438724518, -0.1246541440486908, 0.6530326008796692]], [[0.014811933040618896, -1.0054490566253662, -0.18546664714813232], [-0.28260692954063416, 0.26502564549446106, 0.33218562602996826], [-0.4697777032852173, -0.1644400954246521, 0.06142747774720192]], [[0.6410931944847107, 0.2126142531633377, -0.8189971446990967], [-0.34704333543777466, -0.17860212922096252, -0.40665000677108765], [-0.4357549846172333, 0.820584774017334, 0.1888081282377243]], [[0.48033303022384644, 0.13825245201587677, 0.46317917108535767], [0.5483571290969849, 0.11711316555738449, -0.6768419742584229], [0.05228617042303085, 0.34115374088287354, 0.09705021232366562]], [[-0.0014302958734333515, -0.1502198576927185, 0.14124715328216553], [0.20987087488174438, 1.1697810888290405, 0.40497255325317383], [-0.42029035091400146, 0.11260413378477097, -0.7644197344779968]], [[0.11605070531368256, -1.0986369848251343, 0.5081091523170471], [0.6777103543281555, 0.17384235560894012, 0.5374601483345032], [0.21197591722011566, 0.31865543127059937, 0.41534414887428284]], [[-0.25928714871406555, 0.3939034640789032, 0.4699784815311432], [-0.3806297481060028, 0.4361266791820526, -0.09268205612897873], [0.8761465549468994, -0.17738163471221924, -0.13966594636440277]], [[0.11201941967010498, 0.10697910934686661, 0.19589562714099884], [-0.4452863931655884, -0.4590889811515808, -0.6471385359764099], [-0.5792667269706726, -0.49183389544487, 0.6512523889541626]], [[0.2360842376947403, 0.3633783161640167, -0.24590013921260834], [0.437078058719635, -0.20951631665229797, -0.4496060013771057], [-0.5746200084686279, 0.6842302083969116, -0.05844609811902046]], [[0.10092540830373764, -0.8138405084609985, -1.5086864233016968], [-0.5156814455986023, -0.5586825609207153, 0.32323530316352844], [-0.5854633450508118, 0.4887818992137909, 0.022738130763173103]], [[0.48519936203956604, 0.1508650779724121, 0.33598509430885315], [-0.7464867234230042, 0.09595344960689545, 0.5271175503730774], [-0.36703217029571533, 0.3217489421367645, -0.2680228054523468]], [[-0.4324966371059418, -0.2862505614757538, 0.4344976246356964], [0.01942473277449608, -0.03573130443692207, -1.2348078489303589], [0.41954880952835083, 0.7070944905281067, -0.02360425889492035]], [[-0.3392184376716614, 0.5624095797538757, -0.4048443138599396], [0.5442840456962585, 0.39616602659225464, -0.34214484691619873], [-0.023270582780241966, 0.27910634875297546, -0.47748929262161255]], [[0.38534238934516907, -0.17786268889904022, -0.20652495324611664], [0.9395204186439514, 0.5316441059112549, 0.14488427340984344], [-0.6808730363845825, 0.21275591850280762, 0.09071844816207886]], [[-1.1230803728103638, -0.3437739610671997, 0.25687989592552185], [0.04253087937831879, -0.6505324244499207, 0.7596664428710938], [-0.581558346748352, -0.8135908842086792, -0.7431078553199768]], [[-0.09563887864351273, 0.06875789910554886, 0.6914365291595459], [0.6072366237640381, 0.4671855866909027, -0.11703283339738846], [-0.01645810529589653, -0.3425954282283783, 0.06679581105709076]], [[0.26522135734558105, 0.2571956515312195, -0.3515448570251465], [-0.3038477599620819, -0.05130992457270622, 0.3803636133670807], [0.21610429883003235, -0.02249005436897278, -0.1429792195558548]], [[0.009534205310046673, -0.47322067618370056, -0.0017122747376561165], [-0.8678639531135559, 0.27413690090179443, -0.3903640806674957], [0.07161305844783783, -0.7037578821182251, -0.22030282020568848]], [[-0.11827122420072556, -0.25198403000831604, -0.6562169194221497], [0.48439309000968933, -0.48758378624916077, 0.3601745665073395], [-0.8335638642311096, 0.2297230362892151, 1.3442550897598267]], [[-0.3417452275753021, -0.5927310585975647, -0.36971452832221985], [0.2155979722738266, 0.2918742597103119, -0.11671210080385208], [-0.6009491682052612, 1.0196194648742676, -0.4711160361766815]], [[-0.09414868801832199, -0.14061009883880615, -0.4342827796936035], [-0.011025399900972843, 0.28098076581954956, -1.0373876094818115], [-0.2522292733192444, 0.31448274850845337, -0.0785221979022026]], [[-0.2150261551141739, -0.47210821509361267, 0.3313544690608978], [0.24535484611988068, -0.3329501152038574, -0.056086160242557526], [0.41966012120246887, -0.10382284224033356, -0.2486003041267395]], [[-0.10087738931179047, 0.2766503095626831, 0.10199577361345291], [0.817122757434845, 0.004393965005874634, -0.27741891145706177], [-0.35513442754745483, -1.4524872303009033, 0.5074572563171387]], [[0.598854660987854, -1.0486994981765747, -0.8214790225028992], [0.4122146964073181, -0.3736121356487274, 0.3555702865123749], [-0.22418786585330963, -0.012039249762892723, 0.20833756029605865]], [[-0.0679931491613388, 0.15974317491054535, 1.1906235218048096], [-0.10564028471708298, 0.10715747624635696, 0.5963576436042786], [0.8494952917098999, 0.2661355137825012, 0.013486494310200214]], [[0.643722414970398, 0.013496628031134605, -0.19584548473358154], [0.39101746678352356, 0.44140535593032837, 0.0897480770945549], [-0.5764757394790649, 0.4111047089099884, 0.17903871834278107]], [[-0.4817192852497101, -0.031947825103998184, -0.08623675256967545], [-0.3769717514514923, 0.28207874298095703, -0.1337687373161316], [-0.267304927110672, 0.7198493480682373, 0.06058211624622345]], [[0.40943676233291626, -0.8526331782341003, 0.5634987354278564], [0.4602281153202057, -0.9180359840393066, 0.15413512289524078], [0.12524688243865967, 0.09112739562988281, -0.3847876191139221]], [[0.5709047317504883, -0.6188107132911682, 0.22109957039356232], [-0.157114177942276, 0.19569598138332367, -1.0932480096817017], [0.9859375357627869, 0.5658697485923767, 0.3071029484272003]], 