{"conv1.weight": [[[[0.6317422986030579, -0.7062826156616211, -1.0779640674591064], [0.29074522852897644, 0.9831896424293518, -1.495465874671936], [0.36279967427253723, 0.5202120542526245, -0.38948097825050354]], [[1.1884807348251343, -3.099020004272461, -0.41635727882385254], [0.3830954432487488, 0.21415729820728302, -0.5266270041465759], [-0.5071529150009155, 0.01804238371551037, 0.18146948516368866]], [[-0.623107373714447, 0.6059718728065491, 0.20369549095630646], [-0.31945011019706726, 0.46434515714645386, -0.207685187458992], [-0.6197487711906433, -0.24213653802871704, -0.6630260944366455]]], [[[0.14640666544437408, 0.766642689704895, 1.1555345058441162], [0.7606964111328125, 0.5246098637580872, 0.4012744426727295], [1.094217300415039, 0.493929922580719, -2.012690544128418]], [[-1.9768315553665161, 0.3356145918369293, -1.3540078401565552], [-0.6291418075561523, -0.5883299112319946, -0.3524250388145447], [0.05030948668718338, -0.27050352096557617, -0.05912927910685539]], [[0.2640911340713501, 0.7308782935142517, 0.36535772681236267], [-0.20366844534873962, -0.06355024129152298, 0.12914526462554932], [0.02496311627328396, 0.09196740388870239, 0.6423397660255432]]], [[[-0.7856826186180115, 0.7269206047058105, -0.7103042602539062], [0.44766533374786377, 0.01999085210263729, -0.10076438635587692], [-0.375443696975708, -1.378402829170227, 0.7605573534965515]], [[0.90022873878479, -0.7653461694717407, -0.12545748054981232], [-0.5285429358482361, 0.4820859134197235, 0.342561274766922], [1.254529595375061, -0.3321813642978668, -2.8782601356506348]], [[-0.28110063076019287, -0.16579072177410126, -1.1797865629196167], [0.13604584336280823, 0.08542763441801071, -0.48066309094429016], [0.5154430270195007, 0.4573705792427063, -0.677359402179718]]], [[[-0.9454257488250732, 0.8250731229782104, 0.08131023496389389], [-1.534534215927124, -1.937504529953003, 0.8626048564910889], [0.14878733456134796, -0.4655395448207855, -0.052794139832258224]], [[-0.3826538622379303, -0.3217935264110565, -0.1606636494398117], [-1.648505449295044, -0.583551824092865, 1.034173607826233], [-1.2154719829559326, 0.3151458203792572, 0.14546823501586914]], [[-0.2183266133069992, -0.604776918888092, -1.0176997184753418], [0.2642917037010193, 0.08708701282739639, 0.0014411811716854572], [0.6424988508224487, 0.5448168516159058, -0.09347698837518692]]], [[[0.8241420984268188, -0.24440206587314606, 1.335544466972351], [-0.3467322885990143, 0.7292038202285767, 0.011298495344817638], [0.8455334901809692, 0.03108244761824608, 1.60354745388031]], [[-0.387710839509964, -0.16762322187423706, -0.488359659910202], [0.27956128120422363, -2.0383834838867188, -0.2969217598438263], [-0.8304480314254761, -0.027651896700263023, -0.5051763653755188]], [[0.8733111023902893, 0.24976763129234314, 0.19686077535152435], [0.10757476091384888, -0.4952816665172577, -0.3717791736125946], [0.09068234264850616, -0.20383070409297943, 0.1403590738773346]]], [[[-0.514382541179657, -0.564129650592804, -0.8834007382392883], [-0.8832404613494873, -0.3960839807987213, 0.3145006000995636], [1.131963849067688, 0.3199938237667084, -1.016847848892212]], [[0.4566148817539215, 0.9060025215148926, -1.1290751695632935], [-0.24916952848434448, 1.0529948472976685, -1.8061237335205078], [0.7291037440299988, 0.010906830430030823, 0.597326934337616]], [[-0.3276929259300232, 0.24682185053825378, 0.454961895942688], [-0.47693827748298645, 0.3473535180091858, 0.47551313042640686], [-0.9632745385169983, -0.3525882959365845, -0.7178781032562256]]], [[[0.5976869463920593, -0.05485701188445091, 0.5589589476585388], [-1.5648295879364014, 0.17212487757205963, 0.3593684136867523], [0.31488898396492004, 0.8773923516273499, -3.270690441131592]], [[0.9535742998123169, -0.20014575123786926, 0.10734228044748306], [0.6846796870231628, 0.30541273951530457, -0.3974969983100891], [-1.042445421218872, -1.117913842201233, 0.4701167345046997]], [[0.7025456428527832, 0.22538892924785614, 0.27169325947761536], [0.4190174639225006, 0.019016604870557785, -0.08887403458356857], [0.42681005597114563, 0.06256072968244553, 0.066652312874794]]], [[[-0.6937170624732971, 0.10986324399709702, -1.4998133182525635], [0.33533769845962524, -0.6571052670478821, -2.5504302978515625], [-0.3138214647769928, -1.0542664527893066, -0.8917149901390076]], [[0.20978067815303802, -0.8905912041664124, 1.0451480150222778], [-0.8473496437072754, -0.6924236416816711, 0.03910854458808899], [-0.17460967600345612, -0.16996519267559052, 2.023855209350586]], [[-0.28294965624809265, 0.25219541788101196, 0.4128876328468323], [0.09824622422456741, -0.18943466246128082, -0.15143893659114838], [0.13422949612140656, -0.03618065267801285, -0.11907142400741577]]], [[[-1.9515866041183472, -0.19596414268016815, -0.34139615297317505], [1.554068922996521, 0.2533320486545563, -0.5907822251319885], [1.2342053651809692, 0.16223005950450897, 0.6480664610862732]], [[-0.2556368112564087, -1.3904701471328735, 0.12165382504463196], [0.935262143611908, 0.8428402543067932, -0.5417171716690063], [-0.48899564146995544, -0.0014865091070532799, -1.8718398809432983]], [[0.011306178756058216, -0.05211507901549339, 0.10011013597249985], [0.17399105429649353, 0.40363505482673645, 0.3377811312675476], [-0.539287269115448, -0.06399797648191452, 0.17390289902687073]]], [[[-2.861382007598877, 0.3708309829235077, 1.4316620826721191], [0.5166661143302917, -0.6060757637023926, -0.00087076670024544], [1.1555930376052856, -0.5061708688735962, 0.5373407006263733]], [[0.6894110441207886, 0.04138021916151047, -0.6256864666938782], [-0.5176407098770142, 0.2226569652557373, 0.2786925137042999], [-0.5756134986877441, 0.6321792602539062, 1.1387543678283691]], [[0.6829898953437805, 0.20728398859500885, -0.06391910463571548], [0.3752014935016632, -0.012547477148473263, -0.15347419679164886], [0.11136291921138763, -0.2856649160385132, 0.06932264566421509]]], [[[-1.1126986742019653, -0.0906151831150055, -0.07104310393333435], [-0.3714136779308319, -1.83717679977417, -0.42847034335136414], [0.7071362733840942, 0.07141108810901642, -1.0183817148208618]], [[1.2853904962539673, -0.08474276214838028, 0.8119820952415466], [-0.07989466935396194, 1.0264891386032104, 0.12218724191188812], [-1.403754711151123, -0.49104827642440796, -2.7448415756225586]], [[0.42766666412353516, -0.11029691994190216, -0.09303902089595795], [0.1921166330575943, -0.26463526487350464, -0.26476889848709106], [-0.35124653577804565, -0.772188663482666, 0.637644350528717]]], [[[-0.8342085480690002, 0.5609520673751831, 0.5903053879737854], [-0.9784788489341736, 0.687829852104187, -0.09095732867717743], [-0.6119745373725891, 0.7961933612823486, 0.6422739624977112]], [[-0.826742947101593, -1.666642665863037, -1.1799074411392212], [-0.5808550119400024, -2.1912899017333984, 0.37793272733688354], [0.7103995680809021, -2.1893162727355957, 1.0451960563659668]], [[0.21872006356716156, 0.08623609691858292, 0.2707282304763794], [0.005936333443969488, -0.22659030556678772, -0.10728514194488525], [-0.19796717166900635, -0.1765879988670349, -0.019327402114868164]]], [[[-0.9310272336006165, -0.3918004035949707, 0.5713706016540527], [1.0253311395645142, 1.2075088024139404, -0.857478678226471], [-1.0612491369247437, -2.1865158081054688, -0.2904782295227051]], [[0.9566245675086975, -0.706861674785614, -1.824387788772583], [-0.43917983770370483, -0.1522907018661499, -0.43353208899497986], [-0.5611319541931152, 0.2932298183441162, -1.0255029201507568]], [[-0.15420649945735931, -0.2837531566619873, 0.0766993910074234], [0.2748892605304718, 0.07793836295604706, 0.06427396833896637], [0.3180356025695801, 0.24917639791965485, 0.6098790168762207]]], [[[0.05286065489053726, -0.5443007946014404, 0.3797817826271057], [-0.48712947964668274, -1.6240092515945435, 0.25520768761634827], [0.8156507015228271, -0.7853828072547913, 0.6467961668968201]], [[-0.10675892978906631, 0.8148037791252136, -0.27229490876197815], [0.5873358845710754, 0.4383251965045929, 0.33338817954063416], [-0.27999579906463623, 1.186171054840088, -0.21928192675113678]], [[-0.909056544303894, 0.06908083707094193, -0.4689421057701111], [0.08197832107543945, 1.0126311779022217, -0.14671474695205688], [-0.26386886835098267, 0.22025072574615479, -1.292921781539917]]], [[[0.4183293282985687, -0.008708956651389599, -0.43004852533340454], [-0.40673235058784485, -0.19624248147010803, 0.12244361639022827], [-0.01735842414200306, 0.2130451649427414, -0.13564299046993256]], [[-1.5118674039840698, -0.3831283152103424, 0.6249508261680603], [0.04663018509745598, 1.468545913696289, 0.1499275118112564], [-2.11889910697937, 0.5036253929138184, -0.18202480673789978]], [[-0.8300618529319763, -0.1789325475692749, -0.040219154208898544], [0.32501131296157837, 1.0630544424057007, -0.38746511936187744], [-0.46902287006378174, 0.48732951283454895, -1.4158103466033936]]], [[[-2.6828677654266357, -0.46133437752723694, -0.09390778094530106], [0.2766415774822235, 0.5114110708236694, -0.8374331593513489], [-0.7238620519638062, -0.34552866220474243, 1.2349597215652466]], [[-1.7260160446166992, -0.10231004655361176, -0.13491486012935638], [-0.23723216354846954, -2.162083864212036, 0.031430356204509735], [-0.7206598520278931, -0.202903151512146, -1.5838128328323364]], [[0.26881179213523865, -0.30177825689315796, 0.550780177116394], [-0.3218020498752594, -0.34787291288375854, 0.03462379053235054], [0.2922937572002411, -0.013794191181659698, 0.6081786751747131]]], [[[-0.7110123038291931, 0.8957903981208801, 0.242932990193367], [-0.1349840760231018, 0.1304282397031784, 0.2662807106971741], [-1.4626230001449585, 1.0634938478469849, 0.11570338159799576]], [[-0.035506684333086014, -1.1867544651031494, 0.5922923684120178], [-2.38582181930542, 0.7540678977966309, -1.49134361743927], [-0.6546941995620728, -0.10707250982522964, 0.10393859446048737]], [[-0.3014217019081116, -0.4243561923503876, -0.5932717323303223], [0.010802032425999641, 0.4219302535057068, 0.8989349603652954], [-0.12646907567977905, -0.7646151185035706, -0.42534247040748596]]], [[[0.408494770526886, 0.5873801112174988, -0.7934494018554688], [-0.5651021003723145, -1.0241572856903076, -0.8289046287536621], [0.017346199601888657, 0.41524043679237366, 1.0005565881729126]], [[-0.2838381826877594, -0.6626282334327698, 0.20889289677143097], [1.176279902458191, -0.20784573256969452, 0.7463188171386719], [-0.29888954758644104, 0.8048878312110901, -1.0605922937393188]], [[-1.0515506267547607, -0.6164966821670532, -0.7268146276473999], [0.15480977296829224, 0.7175288200378418, 0.857146143913269], [-0.6244853138923645, -0.11305161565542221, 0.05490313097834587]]], [[[-0.27913036942481995, 0.5169530510902405, -0.0467955656349659], [0.44854027032852173, -1.0278230905532837, -0.5083820223808289], [0.5506725907325745, 0.07918034493923187, -0.2382296472787857]], [[0.9908837676048279, 0.6250224113464355, 1.3173108100891113], [-0.017417076975107193, 0.3615393340587616, -0.28748977184295654], [0.560651957988739, 0.08626019954681396, 0.2882204055786133]], [[-1.2630137205123901, -0.03735398128628731, -1.0488853454589844], [-0.3432953357696533, 1.008190631866455, -0.40261852741241455], [-0.14292548596858978, 1.127098560333252, -0.01593172363936901]]], [[[-0.30891314148902893, 0.08198613673448563, 0.2675671875476837], [0.9501802921295166, 0.335374653339386, -0.16387556493282318], [-1.022886037826538, -0.7932453155517578, -0.4195793867111206]], [[-0.9908236265182495, -0.4922522306442261, 0.531883955001831], [1.9159808158874512, 0.36260491609573364, -1.2508412599563599], [-2.951227903366089, 0.6746741533279419, 0.4194638431072235]], [[-0.15222370624542236, -0.03006049431860447, 0.0003038800205104053], [-0.26897987723350525, 0.49601441621780396, 0.11031415313482285], [-0.2975281774997711, -0.1337353140115738, 0.19039207696914673]]], [[[0.3830551207065582, -0.14689932763576508, 0.692141056060791], [1.0984965562820435, -0.6225828528404236, 0.9596457481384277], [-0.36068060994148254, -0.20208106935024261, 0.5778540968894958]], [[0.5529109239578247, -0.039177678525447845, -0.36968880891799927], [0.48376280069351196, -0.32419300079345703, -0.4021400213241577], [0.20897787809371948, 0.5900768637657166, -2.347526788711548]], [[-0.23020148277282715, -0.22080236673355103, 0.0011051156325265765], [0.8595302700996399, 0.8931531310081482, -0.07674111425876617], [-1.349472999572754, -0.6270049214363098, -1.2014718055725098]]], [[[1.1601475477218628, -0.5201776027679443, 0.6823350787162781], [-1.5800009965896606, 0.6414156556129456, 0.330544114112854], [-3.00046706199646, 0.45837217569351196, 0.43619224429130554]], [[-1.3463284969329834, 0.7343398928642273, -0.1291404813528061], [-0.8511879444122314, -0.930025577545166, 0.5348715782165527], [0.2376466691493988, -0.2637978196144104, -0.1284477561712265]], [[0.34420615434646606, -0.022621802985668182, 0.5652652382850647], [-0.15231512486934662, -0.5757185816764832, 0.21056872606277466], [0.4600861370563507, 0.13018816709518433, 0.24010874330997467]]], [[[-0.9459739327430725, -1.4901450872421265, -1.2912065982818604], [-1.3632147312164307, 0.25741106271743774, -0.5828534960746765], [-0.4581528306007385, -0.12222050130367279, -2.4922847747802734]], [[-1.7548049688339233, 0.3704071342945099, 0.5815418362617493], [0.7941456437110901, -1.8223180770874023, 0.21267573535442352], [0.4857843220233917, -0.5812183618545532, 0.5396185517311096]], [[-0.25614988803863525, -0.3998638391494751, -0.2282273769378662], [0.5632889866828918, -0.3788716793060303, -0.21393170952796936], [0.8435887694358826, -0.041354671120643616, 0.12860813736915588]]], [[[-1.0325747728347778, -0.02989925444126129, -0.532992422580719], [-2.08874773979187, 1.0038127899169922, -0.9460186958312988], [0.08701633661985397, -1.5974440574645996, -0.2237691432237625]], [[-0.7165865898132324, -0.493226021528244, -0.3751315176486969], [1.0428121089935303, -2.0014803409576416, -1.756333351135254], [0.429190456867218, 1.0030165910720825, -0.20858025550842285]], [[-0.04550789296627045, 0.0426236167550087, 0.8191683888435364], [-0.14031283557415009, -0.47829917073249817, 0.1748567372560501], [-0.14830872416496277, -0.22501002252101898, 0.2556822597980499]]], [[[-0.06413881480693817, -0.1184508204460144, -1.2951812744140625], [-0.7807139754295349, 0.02131788618862629, 0.6081934571266174], [-1.0574389696121216, -0.6478965282440186, -0.3514600396156311]], [[-0.3337944746017456, -0.14285944402217865, 0.4041663110256195], [-0.3512119650840759, 0.5366787910461426, 0.24390514194965363], [1.9618555307388306, 0.8179526329040527, -1.8886158466339111]], [[-0.171299010515213, 0.7109209895133972, -0.08262533694505692], [-0.6699476838111877, 0.32524406909942627, -0.1439322531223297], [-0.7623320817947388, -0.10148122161626816, -0.5687511563301086]]], [[[-0.26847535371780396, -0.41061753034591675, 0.1987726092338562], [0.9629217386245728, -0.035412780940532684, 0.12951141595840454], [-0.9154055118560791, 0.7940359711647034, 0.2807233929634094]], [[0.8800705671310425, 0.5618032217025757, 1.5095270872116089], [-1.4295315742492676, -0.9114838242530823, -1.5579235553741455], [0.3282272219657898, -0.19856852293014526, 0.572243869304657]], [[-0.7289185523986816, -0.2276497483253479, 0.09241382032632828], [0.4667099416255951, 0.2662276029586792, 0.846815288066864], [0.2910022735595703, -0.09888236969709396, 0.4759824275970459]]], [[[-0.33725032210350037, 0.18955372273921967, -0.021608224138617516], [-0.5558797121047974, 0.11895851790904999, 0.6769276261329651], [-0.34649044275283813, -0.4836738109588623, -0.2114151418209076]], [[1.8739122152328491, -0.051452431827783585, -0.12003563344478607], [0.7062240839004517, 0.35122713446617126, 0.009656374342739582], [-2.420529365539551, -0.3880477845668793, 0.5086794495582581]], [[-0.40672314167022705, 0.7228296399116516, -0.5356470942497253], [-0.5982112884521484, 0.5197529196739197, -0.7317506670951843], [-0.47484341263771057, 0.8257837891578674, -0.3881860077381134]]], [[[-0.31306692957878113, 0.02078378014266491, -0.3663054406642914], [0.05616036057472229, -1.2423499822616577, 0.2054293155670166], [-0.12261644750833511, 0.33775120973587036, -0.22527585923671722]], [[-2.1518714427948, -0.42908212542533875, 0.7255395650863647], [-0.573211133480072, 0.5641634464263916, -0.6321545243263245], [2.0867249965667725, -0.6615801453590393, 1.0502477884292603]], [[0.25104042887687683, 0.10471203178167343, 0.4775710105895996], [0.24331702291965485, -0.27495276927948, -0.06732534617185593], [-0.3709208071231842, -0.539696991443634, -0.6223931312561035]]], [[[0.2073899507522583, -0.07071912288665771, 0.5036725401878357], [-0.04737499728798866, -0.6809381246566772, -0.4681766629219055], [-0.07365984469652176, 0.41394132375717163, -0.006935344077646732]], [[-0.22891266644001007, 0.4712167978286743, -0.49391552805900574], [1.1539216041564941, 0.8929524421691895, 0.3851018249988556], [0.7157943844795227, 0.24097952246665955, 0.8406978845596313]], [[0.19907143712043762, 0.7981414794921875, -0.6665370464324951], [0.4621428847312927, 0.6385940313339233, -0.15227077901363373], [-0.696524977684021, -0.2631775736808777, -2.3379275798797607]]], [[[1.142454981803894, 0.5549911856651306, 1.701163411140442], [-0.4350643754005432, -0.1602974683046341, -0.16469989717006683], [-0.19842803478240967, -0.27570009231567383, -0.13662342727184296]], [[-1.3697057962417603, -2.394484758377075, -0.5105443000793457], [-0.22503691911697388, -0.1315947324037552, -0.09322384744882584], [-0.3833010196685791, -0.0038299516309052706, -0.11078091710805893]], [[-0.14155495166778564, 0.03367512300610542, -0.2750610411167145], [-0.2142036259174347, 0.3875124156475067, 0.26387810707092285], [0.6429802775382996, -0.29850926995277405, -0.1848611831665039]]], [[[0.9788333773612976, 0.48169705271720886, -0.3293939530849457], [-1.59687077999115, 0.36144906282424927, -0.5945810675621033], [0.3747291564941406, 0.027135752141475677, -0.8395583629608154]], [[1.0104238986968994, -0.04901920258998871, -0.5443456172943115], [1.276857852935791, 0.771659255027771, -0.5628300905227661], [1.326086163520813, 0.6401708722114563, 0.3080752193927765]], [[0.3427309989929199, -0.06019491329789162, 0.43374794721603394], [-0.5723429918289185, -0.2361152619123459, 0.6588425040245056], [-0.9354180693626404, -0.35069894790649414, 0.36660894751548767]]], [[[0.7587368488311768, 0.2600284516811371, 0.282489150762558], [-0.8497251868247986, 0.30980047583580017, -0.8175646066665649], [-1.02953040599823, -0.4680367112159729, 0.3345209062099457]], [[0.9516592025756836, 0.07475793361663818, 0.7786738872528076], [-0.1137545257806778, -1.4779609441757202, -0.26925843954086304], [-0.5363766551017761, 0.22221526503562927, -1.714499592781067]], [[-0.23193398118019104, -0.5087723731994629, -0.9950487613677979], [1.2109273672103882, 0.539358913898468, 0.6216495037078857], [-0.43976572155952454, -0.7569807767868042, -0.09775003045797348]]], [[[-0.24613195657730103, -0.016702868044376373, 1.4307206869125366], [-0.6416764259338379, 1.0312707424163818, -0.44589635729789734], [1.6757327318191528, -0.5260218977928162, -0.7026852965354919]], [[0.35454311966896057, 0.12908847630023956, -1.305883765220642], [0.11360524594783783, -0.938338577747345, -0.06656025350093842], [-0.3340938687324524, -0.27726075053215027, 0.20840564370155334]], [[-0.355265736579895, -0.4760098457336426, -0.6909913420677185], [-0.45428037643432617, 0.6860531568527222, 0.021330244839191437], [0.05592004582285881, 0.7558446526527405, 0.04437278211116791]]], [[[1.1755279302597046, 1.0410561561584473, 1.3456991910934448], [0.652438223361969, 0.7323442697525024, -0.21561217308044434], [1.1896604299545288, 0.8459475040435791, 1.3129247426986694]], [[-0.4287949502468109, 0.13414955139160156, -0.2942412495613098], [0.03406466543674469, -0.11867163330316544, -0.06432805955410004], [-0.5198025703430176, 0.02150004170835018, 0.020199883729219437]], [[0.24466416239738464, 0.5048776865005493, -0.5729554891586304], [0.5116425156593323, 0.7178660035133362, 0.032700974494218826], [0.07295157760381699, 0.46144813299179077, -0.4472629725933075]]], [[[1.1006712913513184, 0.6752937436103821, -0.20154020190238953], [-0.21637895703315735, -0.6921815872192383, -0.14934667944908142], [1.438106656074524, 0.4384194314479828, 0.9465697407722473]], [[-0.41242149472236633, 0.3425569534301758, -0.6138451099395752], [-2.171227216720581, -0.7238016128540039, -0.1895304024219513], [-0.35956430435180664, -0.5658383965492249, -0.34018316864967346]], [[0.2693006098270416, 0.42392584681510925, -0.6569074392318726], [0.1977098137140274, 0.3005189001560211, -0.2237517386674881], [-0.3441663682460785, -0.30676573514938354, -1.0412404537200928]]], [[[-1.0294750928878784, -1.122696876525879, -0.9208425879478455], [-1.0521905422210693, 0.9064010977745056, 1.085069179534912], [-1.196236491203308, 0.8253965377807617, 1.3990461826324463]], [[0.6520756483078003, -0.3174833655357361, -0.7936152219772339], [-0.30525779724121094, 0.40980035066604614, 0.02548668347299099], [0.01378087792545557, 0.3227140009403229, -0.3530130386352539]], [[0.6390509009361267, 0.12481698393821716, 0.06362412124872208], [-0.37244585156440735, 0.20108488202095032, 0.5646612644195557], [-0.16499818861484528, -0.027789941057562828, 0.4237298369407654]]], [[[1.0605311393737793, 0.43446165323257446, 0.2692532241344452], [-0.13674063980579376, 0.40302878618240356, 1.1195939779281616], [0.7943580746650696, -0.9999001622200012, 0.6611757278442383]], [[0.569661557674408, 0.00010001116606872529, 0.24990279972553253], [-0.1997711956501007, -0.33748501539230347, 0.8999776840209961], [1.3728644847869873, 0.4730393886566162, 0.725064754486084]], [[0.11496301740407944, 1.0554853677749634, 0.5777879357337952], [-0.718026876449585, 0.42304351925849915, 0.2593247890472412], [-0.7508365511894226, -0.591354489326477, -0.697478175163269]]], [[[1.4973654747009277, -1.1760369539260864, -0.6152117848396301], [1.207933783531189, 0.6274937987327576, -0.9201410412788391], [0.03549419343471527, -0.9211033582687378, -2.2035646438598633]], [[-0.3557288348674774, 0.28594422340393066, 0.9752238392829895], [-0.15258795022964478, -0.9481894969940186, 0.02434452995657921], [-0.20646348595619202, 0.17298968136310577, 0.18042691051959991]], [[0.29842132329940796, -0.020925991237163544, 0.04850224778056145], [0.3233112096786499, 0.012956206686794758, 0.03227456659078598], [0.5391561985015869, 0.04567358270287514, -0.24344992637634277]]], [[[1.467301845550537, 0.518677294254303, -1.1169623136520386], [0.28397801518440247, 0.7575849890708923, -0.518574595451355], [0.2968880832195282, 0.10818018764257431, 1.7479819059371948]], [[-0.8972405195236206, 0.024585822597146034, 0.11147670447826385], [0.006842975039035082, -2.0239510536193848, -0.5252099633216858], [0.46402281522750854, -0.16385476291179657, 0.03905791416764259]], [[0.2576150596141815, 0.6680701971054077, 0.08531006425619125], [0.02748875692486763, 0.3320969045162201, -0.2078389972448349], [0.20121265947818756, 0.28287747502326965, -0.1424403339624405]]], [[[-1.1612188816070557, -0.10069914907217026, 0.2857140898704529], [-0.03606989234685898, -1.8844881057739258, 0.034968726336956024], [-2.025352716445923, -1.2420998811721802, -0.7451379895210266]], [[-0.934794008731842, 0.8790802359580994, -1.25709068775177], [0.006423787213861942, -1.5369747877120972, -0.09233596175909042], [-1.032024621963501, 0.5400429368019104, 0.63737553358078]], [[-0.18932248651981354, -0.08933428674936295, 0.35680463910102844], [0.17978835105895996, -0.3343348801136017, 0.0443192720413208], [0.7434298992156982, 0.22883956134319305, 0.29923996329307556]]], [[[0.9421776533126831, 0.9824401140213013, -1.1142659187316895], [-0.7814109921455383, -0.28949955105781555, -0.13815966248512268], [-1.0948089361190796, -0.16231107711791992, 0.19951997697353363]], [[-0.8395945429801941, -0.1917349100112915, -1.4391192197799683], [0.7198255062103271, 1.00355863571167, -0.4921247959136963], [-1.9582005739212036, -1.5500153303146362, -1.0914469957351685]], [[0.10698499530553818, -0.026391809806227684, -0.7439976334571838], [-0.5392009019851685, 0.2682569622993469, -0.1246989294886589], [-0.42397695779800415, 0.07848992943763733, 0.5002180337905884]]], [[[-2.01064395904541, 0.6737839579582214, 1.7230929136276245], [-0.1218496784567833, -0.42922359704971313, -0.12647265195846558], [0.3199808895587921, -0.5160965919494629, -0.22829248011112213]], [[-1.848736047744751, -1.0717326402664185, -0.5355194807052612], [-0.4633028507232666, 0.048447273671627045, -0.1701052337884903], [0.5312932133674622, 0.3034296929836273, -1.015358567237854]], [[0.01442316547036171, -0.5101834535598755, -0.03811490908265114], [0.5155316591262817, 0.06814060360193253, -0.5734783411026001], [0.7117239236831665, 0.237172931432724, -0.4615001678466797]]], [[[0.5233604907989502, -0.03174794092774391, -1.9556293487548828], [-0.5028786659240723, -0.06540819257497787, 0.5307939052581787], [0.8001479506492615, 0.1385195106267929, 0.81243896484375]], [[1.317477822303772, -0.5584073662757874, -0.6590266823768616], [0.7372375726699829, 0.7445164322853088, -0.7447752952575684], [-1.6347565650939941, -0.6621780395507812, -1.4019358158111572]], [[0.17041105031967163, -0.27975842356681824, 0.1291409581899643], [0.5808827877044678, 0.057269349694252014, 0.4921368658542633], [0.39790353178977966, 0.008029472082853317, 0.11073751002550125]]], [[[0.3467004895210266, -1.6408257484436035, -0.6276085376739502], [0.8236595988273621, -2.0403497219085693, 0.45136481523513794], [0.4143733084201813, 0.6624065637588501, 0.3966311812400818]], [[-1.2298649549484253, 0.5545567274093628, 0.7092958688735962], [0.6485457420349121, -0.9649254679679871, -0.10489273071289062], [1.1971083879470825, 0.5644257068634033, -0.4497618079185486]], [[0.048688601702451706, 0.46027472615242004, 0.24609439074993134], [-0.46327146887779236, 0.13014766573905945, 0.3541872203350067], [-0.6505868434906006, 0.5033732652664185, 0.5768646001815796]]], [[[-0.427775114774704, -1.578931212425232, -0.33766716718673706], [0.10085832327604294, -1.8997399806976318, -0.6476081013679504], [0.3891468346118927, -0.8930929899215698, 0.15946665406227112]], [[0.17433111369609833, -2.18363094329834, -1.2399601936340332], [-0.8320959210395813, 0.34188178181648254, -0.4900539815425873], [-0.7726662158966064, 0.1782298982143402, 0.6118913888931274]], [[-0.5277082324028015, 0.7334198951721191, -0.5023029446601868], [-0.18543708324432373, 0.7354329824447632, -0.2921088933944702], [-0.016688471660017967, -0.21144410967826843, -0.9906063079833984]]], [[[1.4771589040756226, -0.39764514565467834, -0.27263104915618896], [0.5664896965026855, -0.6473218202590942, 0.11473400890827179], [1.4263359308242798, -0.7519286870956421, 0.32120567560195923]], [[-1.917529582977295, 0.3387892544269562, -0.09400452673435211], [-2.700615406036377, -0.04721593111753464, 0.1167348101735115], [-1.576777458190918, 0.07921715080738068, 0.2500242590904236]], [[0.03883953019976616, -0.12852545082569122, -0.33542540669441223], [0.05082443356513977, -0.15713146328926086, 0.06268701702356339], [0.36891278624534607, 0.15514762699604034, 0.3679862916469574]]], [[[-0.07622121274471283, 0.4878786504268646, -0.7094501852989197], [-2.055560827255249, 1.327375054359436, -0.17946268618106842], [0.9724631905555725, -1.3254990577697754, -0.713388204574585]], [[-0.891523540019989, 0.014639273285865784, 0.6596896648406982], [-1.3352810144424438, 0.8149170279502869, 0.6735647320747375], [-1.310576319694519, 0.019338836893439293, 0.09819220006465912]], [[0.18677952885627747, 0.26938989758491516, 0.2585647404193878], [-0.05131063237786293, 0.08314644545316696, 0.3722916841506958], [0.07009770721197128, 0.07087840139865875, 0.20910638570785522]]], [[[0.9945956468582153, 0.9872030019760132, -0.3223063051700592], [0.4639812409877777, 0.6118856072425842, 0.3365083932876587], [0.6106024980545044, 0.01274056639522314, -0.15518492460250854]], [[-0.915550172328949, -0.25533366203308105, -0.09977886825799942], [0.620891273021698, -0.4886801540851593, -0.8689843416213989], [0.5128000974655151, -0.5509207248687744, 0.378020316362381]], [[-1.309450626373291, 0.12431848049163818, -0.9035486578941345], [-0.0694160982966423, 1.2334399223327637, 0.1369125097990036], [-0.010178969241678715, 0.07148870080709457, -1.1781041622161865]]], [[[-0.5389183759689331, -0.22577868402004242, 0.24049338698387146], [-0.3953559994697571, -0.9778172373771667, 0.4759422540664673], [0.40887755155563354, 0.6145280599594116, 1.1923959255218506]], [[-1.3787693977355957, -0.0676625669002533, 1.40513277053833], [-0.29018154740333557, 0.8047579526901245, -0.25555911660194397], [-2.3982083797454834, -1.1185107231140137, 0.5274873971939087]], [[-0.35265058279037476, 0.41427579522132874, -0.3380715847015381], [0.08699603378772736, 0.7125372290611267, 0.17719486355781555], [-0.47761228680610657, -0.6007912158966064, -0.22198601067066193]]], [[[-0.11619974672794342, -1.6597901582717896, -1.3995702266693115], [-0.469453901052475, 0.6511242985725403, -0.5240335464477539], [1.2559115886688232, 0.7499077916145325, 0.7508904933929443]], [[0.8248459696769714, 0.39387914538383484, 1.189274787902832], [-0.44933488965034485, -0.5190867185592651, 0.5676157474517822], [-1.5151565074920654, -0.9491256475448608, -0.7913107872009277]], [[0.13775385916233063, -0.23727579414844513, -0.6415063142776489], [0.1074826568365097, 0.04112912714481354, -0.04843279346823692], [0.47984811663627625, 0.6035937666893005, 0.20580773055553436]]], [[[0.7171468138694763, -0.31454551219940186, 0.0034992548171430826], [-1.9676637649536133, -0.042799368500709534, -0.7069868445396423], [-1.4872993230819702, -0.5732836723327637, -0.3097781836986542]], [[1.3061274290084839, -0.43598687648773193, 0.16184255480766296], [1.1341699361801147, -0.7031485438346863, -0.06185267120599747], [1.1525588035583496, -0.7460660338401794, 0.7149681448936462]], [[-0.22472520172595978, -0.3579660952091217, 0.43185919523239136], [0.6763101816177368, 0.38702356815338135, 0.1168057918548584], [0.14191550016403198, 0.0603070892393589, 0.21347582340240479]]], [[[-1.5282342433929443, -0.5299144983291626, -0.14045478403568268], [-0.7418141961097717, -0.6325139999389648, 0.26644888520240784], [-1.2567445039749146, -0.2583159804344177, -0.05722324177622795]], [[1.2513550519943237, 0.2805865406990051, 0.2049931436777115], [0.42778486013412476, -0.16394971311092377, -0.2089194655418396], [1.7553550004959106, 0.05974559113383293, 1.206681728363037]], [[-0.5482668280601501, -0.8268507719039917, -0.5607236623764038], [-0.1304742842912674, 0.5931072235107422, 0.005644708406180143], [-0.26650774478912354, 0.2484925389289856, 0.20186668634414673]]], [[[-0.8416929841041565, -0.19052985310554504, -0.6580988764762878], [0.6344101428985596, 0.6642230153083801, 0.6594932675361633], [1.9565846920013428, 0.4514801502227783, -1.970992088317871]], [[-0.8436493873596191, 0.03284107521176338, -1.0252008438110352], [-0.3224289119243622, -0.7652043104171753, 0.17853054404258728], [0.24586647748947144, 0.8139747977256775, -0.22844143211841583]], [[0.15045098960399628, -0.5131371021270752, -0.2117949277162552], [0.3597153425216675, -0.471206396818161, 0.6107792258262634], [0.4549540579319, -0.4947373867034912, 0.32209035754203796]]], [[[0.5631105303764343, -0.057093191891908646, -2.0972251892089844], [-1.1526715755462646, 0.33749622106552124, 0.1281880885362625], [-0.5128258466720581, 0.054159678518772125, 1.2218002080917358]], [[-0.7234046459197998, -0.9800230860710144, -0.06585030257701874], [-0.6532678008079529, -1.57047438621521, -0.6883610486984253], [0.10040460526943207, 0.8704943060874939, 0.7998993396759033]], [[-0.3514244556427002, 0.32007890939712524, -0.15775702893733978], [-0.9116512537002563, 0.397754967212677, -0.05558435991406441], [-0.5270199179649353, 0.742254376411438, 0.3265649080276489]]], [[[0.5661765933036804, 0.09936155378818512, -0.19207771122455597], [0.3619380295276642, -1.1968650817871094, -0.16027593612670898], [-2.463473081588745, 0.0917196050286293, 0.13150621950626373]], [[0.2644631266593933, -0.08225708454847336, 2.223280429840088], [0.16181129217147827, 0.7492733597755432, -0.091452956199646], [0.4547860324382782, -0.41031402349472046, -0.03883063793182373]], [[0.7047460079193115, -0.04881392419338226, -0.4332529902458191], [0.660329282283783, 0.06748756021261215, -0.3646451234817505], [-0.040578633546829224, -0.2941063642501831, -0.48388949036598206]]], [[[-0.5747212171554565, -0.02936137653887272, -0.5151655673980713], [-0.34100541472435, 0.6875938177108765, -0.21700294315814972], [-0.5340127944946289, -0.2795122563838959, -0.21514065563678741]], [[-0.6927367448806763, -0.3561868667602539, -0.8682044148445129], [-0.6910410523414612, 1.6115632057189941, 1.2271671295166016], [0.06399831175804138, 0.7005241513252258, 0.8982909321784973]], [[0.11345367133617401, -0.20498338341712952, -0.9338582754135132], [0.8157408237457275, -0.09665302187204361, -0.3907179534435272], [0.8460432291030884, -0.37377506494522095, -0.38131746649742126]]], [[[0.6250855326652527, -0.6878750920295715, 0.24357281625270844], [-0.7591559886932373, -0.44057419896125793, -0.7593265175819397], [-1.6288000345230103, 0.07952960580587387, 0.4347435534000397]], [[1.5106381177902222, -0.07613971829414368, 0.4142528474330902], [-0.999381959438324, -0.2504550814628601, -0.5846434831619263], [1.3742750883102417, -0.7129610776901245, -2.179474353790283]], [[0.4629010558128357, 0.2740728259086609, 0.7745993733406067], [0.13963113725185394, -0.38483455777168274, -0.07338990271091461], [0.15537427365779877, -0.44121184945106506, 0.24859893321990967]]], [[[-0.35205602645874023, -1.2706197500228882, 1.447436809539795], [-1.6080292463302612, 0.9149972200393677, 0.028112750500440598], [-2.3940141201019287, 0.012906618416309357, -2.5462496280670166]], [[0.13816887140274048, 0.17667697370052338, -0.02801596373319626], [0.4084801971912384, -0.10739988833665848, -0.560544490814209], [-0.16166706383228302, 0.4778634309768677, 0.6566071510314941]], [[-0.5365372896194458, -0.34398597478866577, 0.7159572839736938], [0.5236051678657532, -0.11455278843641281, -0.4625445306301117], [0.11921191960573196, 0.23173117637634277, 0.08828109502792358]]], [[[-0.5599784255027771, -1.2629380226135254, -0.3410300314426422], [-0.8583036661148071, 0.9933407306671143, 0.5233076214790344], [-1.0409964323043823, 1.2630892992019653, 0.479030966758728]], [[-0.041853830218315125, 0.7515631318092346, 0.7080311179161072], [0.513717532157898, -0.2633584141731262, -0.6686692833900452], [0.09867414832115173, -0.3243570923805237, -0.7016531229019165]], [[-0.33796271681785583, -0.02182202786207199, -1.1112735271453857], [-0.08695610612630844, 0.8958101868629456, 0.27034202218055725], [-0.7917241454124451, -0.3178299069404602, 0.054687000811100006]]], [[[0.6708312630653381, -0.8372772336006165, 0.7864237427711487], [-0.327683687210083, 0.009630432352423668, -0.5285606980323792], [1.5759751796722412, 0.4968733489513397, 0.36247220635414124]], [[0.04557092487812042, -1.40276038646698, 0.01433113869279623], [-1.685077428817749, 0.4799831509590149, 0.3881227970123291], [0.21668896079063416, 1.291217565536499, 0.06291426718235016]], [[-0.1014224961400032, 0.8262208700180054, 0.8167370557785034], [-0.5260000228881836, 0.0734383687376976, 0.15187175571918488], [-0.5040678381919861, -0.08244065940380096, -0.28017252683639526]]], [[[-2.9566738605499268, 0.1834993064403534, -1.1282604932785034], [-0.2420082986354828, 0.434410035610199, 0.15711332857608795], [1.6482981443405151, -0.3572293519973755, 0.5244609713554382]], [[-0.8632380962371826, 0.2642822265625, 0.6101734042167664], [-2.223010540008545, -0.7212172150611877, 0.5092395544052124], [0.5189482569694519, 0.6384927034378052, -0.15248827636241913]], [[0.10549545288085938, 0.4993056058883667, -0.11619379371404648], [-0.20539389550685883, -0.1444891095161438, -0.12480811029672623], [0.28682366013526917, -0.04009348899126053, 0.020428063347935677]]], [[[-0.6918856501579285, 0.48177140951156616, 1.303662657737732], [-0.28648173809051514, -0.0008166209445334971, -1.1485710144042969], [-3.3343231678009033, 0.39469388127326965, 0.6777838468551636]], [[0.7793419361114502, 0.4956919550895691, -0.9693396687507629], [0.3320216238498688, 0.4284418225288391, 0.18208105862140656], [0.12698519229888916, -1.23427414894104, -0.6432494521141052]], [[0.3580409586429596, -0.5165613889694214, -0.31060370802879333], [0.22488175332546234, -0.16569550335407257, 0.15989388525485992], [0.4452013671398163, 0.22812727093696594, 0.5596680045127869]]], [[[-2.8256592750549316, 0.47215527296066284, -0.8981408476829529], [0.23663493990898132, 1.3912161588668823, 0.2554352283477783], [-0.36292940378189087, -1.2791147232055664, 0.9034876227378845]], [[0.4336431324481964, 0.7296238541603088, 0.2673705816268921], [0.5081454515457153, 0.26216110587120056, 0.717389702796936], [0.7591829895973206, -0.06998812407255173, -0.3796387016773224]], [[-0.23934674263000488, 0.516956627368927, 0.24322858452796936], [0.19942711293697357, 0.17683599889278412, 0.0007549001602455974], [0.05606669932603836, 0.05464128404855728, 0.6154382228851318]]], [[[-0.8783237338066101, -1.59181809425354, 0.36820077896118164], [-0.27072808146476746, -0.8658694624900818, -0.5213648676872253], [0.7185083627700806, -0.42419275641441345, 0.5521095395088196]], [[-0.4148101806640625, 0.4161878526210785, 0.2693272829055786], [0.6507405638694763, -1.4930039644241333, 0.8177623152732849], [-1.6011106967926025, -0.7822731137275696, 1.5158205032348633]], [[-0.16744527220726013, -0.01601608283817768, 0.737406313419342], [0.19549255073070526, -0.1492851972579956, -0.22205273807048798], [0.5100741386413574, 0.022855879738926888, -0.43139511346817017]]]], "conv1.bias": [0.5797474980354309, -0.33466657996177673, -0.5681919455528259, 0.4340367615222931, -1.0285141468048096, 0.04165564104914665, -1.072187900543213, -0.31281065940856934, 0.34688133001327515, 0.863534152507782, 0.5956465601921082, 0.49129757285118103, -0.3922765851020813, 0.6290252804756165, -0.08624313026666641, 0.5033870935440063, -0.366027295589447, -0.12113451957702637, -0.7939853668212891, -0.13754206895828247, -1.00636887550354, -0.2956289052963257, -0.22446775436401367, 0.9469628930091858, -0.5576208829879761, 0.667585551738739, -0.7438561916351318, 1.188805103302002, 1.1607683897018433, 0.44996213912963867, 0.546812117099762, -1.1985032558441162, -0.6042624115943909, 0.26442623138427734, -0.023769034072756767, -2.1198530197143555, 0.362932413816452, -0.23148885369300842, -1.2985644340515137, 0.11560522019863129, 0.5873674154281616, 0.5016232132911682, -1.1111862659454346, 0.4099138081073761, 0.5841986536979675, 0.01529126800596714, 0.0640890970826149, 0.6405847072601318, 1.281151294708252, -0.5256215333938599, 0.3420885503292084, 0.21476159989833832, 0.24592465162277222, 0.801060676574707, 0.2500363886356354, 0.6892775893211365, 1.360917091369629, -0.24009698629379272, -1.525400161743164, -1.508849859237671, -0.2867187261581421, -0.6560436487197876, 0.9439008831977844, 0.7966551780700684], "bn1.weight": [0.9873338937759399, 0.9349023103713989, 1.1998556852340698, 1.0948158502578735, 1.2930082082748413, 1.1085925102233887, 1.0907790660858154, 1.421628475189209, 0.7663806080818176, 1.1614208221435547, 1.3353259563446045, 1.0554184913635254, 1.0470695495605469, 1.4068560600280762, 1.237761378288269, 1.1270800828933716, 1.0832538604736328, 1.0826623439788818, 1.2956595420837402, 0.7615073323249817, 1.4396511316299438, 1.096900224685669, 1.1631183624267578, 1.0118457078933716, 1.0182380676269531, 1.034651279449463, 1.2383884191513062, 1.1291645765304565, 1.6895992755889893, 1.7576465606689453, 0.9387102127075195, 1.1096962690353394, 1.4393986463546753, 1.2369004487991333, 1.3320385217666626, 1.0738543272018433, 0.9130977392196655, 1.2112361192703247, 1.3395594358444214, 1.3765697479248047, 0.8242130875587463, 1.339439034461975, 1.0475023984909058, 1.1020658016204834, 0.9337067008018494, 1.5383144617080688, 1.1633038520812988, 1.2923890352249146, 1.202536702156067, 0.992805004119873, 1.1706733703613281, 1.1635775566101074, 0.806158721446991, 1.1890932321548462, 1.2332522869110107, 1.3507418632507324, 0.9530012011528015, 1.1160868406295776, 1.0334396362304688, 0.853512704372406, 1.0388329029083252, 1.181337594985962, 1.169730305671692, 1.0215165615081787], "bn1.bias": [-0.11980879306793213, -0.5411360263824463, -0.2505777180194855, -0.2385598123073578, -0.8953254222869873, -0.19125999510288239, -0.47843465209007263, -0.36899253726005554, -0.16368898749351501, -0.9804468154907227, -0.055982254445552826, -0.1451680213212967, -0.6248435974121094, -1.49456787109375, -0.35984477400779724, 0.1790703535079956, -0.45709675550460815, -0.6732746362686157, -1.0827453136444092, -0.004609300289303064, -0.569601833820343, -0.5315955281257629, 0.12515288591384888, -0.33279383182525635, -0.006770038045942783, -0.8830177783966064, -0.3009684681892395, -0.6841729879379272, -1.176472783088684, -1.4045681953430176, -0.7302761673927307, -0.25560566782951355, -0.9563872814178467, -1.7910065650939941, -0.470273494720459, -1.15888249874115, -0.6177612543106079, -1.1438956260681152, -1.4273658990859985, -0.782078206539154, 0.05494964122772217, -0.5549004077911377, -0.8857080340385437, -0.792030394077301, 0.2560277581214905, -1.061145305633545, -0.41774606704711914, -0.47040581703186035, -0.5235787630081177, -0.5177738666534424, -1.0911407470703125, -0.36326125264167786, -0.07815991342067719, -0.49099957942962646, -0.8401867747306824, -0.9930288195610046, -0.5150706768035889, -0.20947019755840302, -0.423872709274292, -0.5527345538139343, -0.49854323267936707, -0.7608823776245117, -1.0195577144622803, -0.6821885108947754], "conv2.weight": [[[[-0.5599865317344666, -0.7151568531990051, -0.5364799499511719], [0.1560734212398529, 1.0190454721450806, -0.3274960219860077], [0.124643974006176, 1.7956733703613281, 1.0793176889419556]], [[-0.3746170997619629, -0.05067039281129837, 0.4015905261039734], [0.07058937847614288, -0.13255131244659424, 0.39020389318466187], [0.014268849976360798, -0.25412237644195557, -0.4216368794441223]], [[-0.8470443487167358, -1.2848118543624878, -0.05794258415699005], [0.21767288446426392, 0.17664489150047302, -0.22976045310497284], [0.377060204744339, -0.1496933549642563, -0.8474481105804443]], [[0.04514496400952339, -1.2870866060256958, 0.7426212430000305], [0.4657949209213257, -0.9244248270988464, -2.164966106414795], [0.8106597065925598, -1.1368129253387451, 1.1773008108139038]], [[-0.5437899827957153, 0.24780894815921783, 0.4652068018913269], [0.0318969301879406, 0.3161606788635254, 0.708121657371521], [1.5180654525756836, -0.525382936000824, -0.7257080674171448]], [[0.711444079875946, -0.045679233968257904, -0.1759231835603714], [0.19147947430610657, 0.4674023389816284, 0.29230159521102905], [1.5863755941390991, 0.09822724759578705, -0.11048340797424316]], [[-0.6231684684753418, 1.4641295671463013, -0.2836196720600128], [0.1720133125782013, 0.18471617996692657, -0.4016880393028259], [0.4959138035774231, -1.0711915493011475, -0.9663134217262268]], [[-0.3065251111984253, 0.022821640595793724, -0.1960294395685196], [-0.18652324378490448, -0.027320196852087975, 0.6293480396270752], [1.5299909114837646, -0.5448317527770996, 0.20363137125968933]], [[-0.12222494930028915, -0.10742871463298798, 0.2707917392253876], [-1.0121729373931885, 0.3688052296638489, -0.29494020342826843], [0.2239598035812378, 0.18604011833667755, -0.29326194524765015]], [[0.4511916935443878, -1.2969388961791992, 0.10520267486572266], [-0.49304473400115967, 0.9676716327667236, 0.12636421620845795], [1.3249645233154297, 0.23347386717796326, -1.6186405420303345]], [[-1.7025220394134521, 0.09430142492055893, 0.045765381306409836], [0.4887760877609253, -0.49020594358444214, -0.3961436450481415], [-0.37000179290771484, 0.4308498203754425, 0.24077114462852478]], [[1.042967677116394, -0.9764885902404785, -0.808699369430542], [0.32118767499923706, -0.4939287006855011, 0.18013373017311096], [0.3157653212547302, 0.5476678609848022, -0.3450718820095062]], [[-0.09716569632291794, -0.9759754538536072, -0.3525342643260956], [-0.48276767134666443, -0.17483638226985931, 0.8475881814956665], [-1.8097184896469116, 0.2402563989162445, 0.4303784966468811]], [[-0.17864233255386353, 0.07107788324356079, -0.0912613645195961], [0.9722068905830383, -0.27634313702583313, -0.3495323657989502], [0.19486558437347412, -0.14814545214176178, -0.6541013717651367]], [[-0.7311943173408508, 0.23900119960308075, 0.060959748923778534], [-0.290317565202713, 0.7072008848190308, -1.003269076347351], [-0.10277242213487625, 0.013317094184458256, -0.1188657134771347]], [[-0.8637359738349915, 0.561543345451355, -0.4787840247154236], [-0.6259699463844299, 0.6911932229995728, 1.0503768920898438], [0.46987438201904297, -0.2745819091796875, 0.47128531336784363]], [[0.9482513070106506, -0.2858932614326477, 0.05233433097600937], [-0.7648162841796875, 0.5553370118141174, -1.0074950456619263], [-0.4492245018482208, 0.2822818458080292, 1.0512490272521973]], [[-0.2325979769229889, 0.04884500056505203, -0.2178911417722702], [-0.4709330201148987, -0.30093637108802795, -0.8070551156997681], [-0.32444408535957336, -0.09761890769004822, -0.652808666229248]], [[-1.2607866525650024, -0.09353633224964142, -0.4183363914489746], [-0.6467416882514954, 0.6563341617584229, -0.5549191236495972], [0.8121251463890076, -0.7930307984352112, -1.1779333353042603]], [[0.11756442487239838, 0.4332374632358551, 0.3737564980983734], [-0.588611364364624, -0.878020167350769, -0.25935930013656616], [1.2013049125671387, 1.0978590250015259, 0.011962550692260265]], [[-0.4203651547431946, 0.0953219085931778, 0.9454278945922852], [0.9637547135353088, 0.09256987273693085, -0.1960967630147934], [-0.5729736089706421, -0.21737688779830933, 0.25409135222435]], [[-0.02235804870724678, -0.8891228437423706, -0.7411988973617554], [0.44694262742996216, -1.0974235534667969, 0.008307461626827717], [-1.0740681886672974, -0.3392121195793152, 0.6979486346244812]], [[-0.16059479117393494, 0.30324628949165344, 0.6695802807807922], [-0.38934436440467834, 0.09983303397893906, -0.24846704304218292], [0.181251659989357, -0.02624789997935295, 0.5367483496665955]], [[0.4103105664253235, -0.2564969062805176, 0.9018315076828003], [-0.4213515520095825, -0.12091881781816483, -0.7081108689308167], [-0.1101527288556099, 0.5875136256217957, 0.1803390085697174]], [[0.023783870041370392, -0.4720499515533447, 0.5343942642211914], [0.1574822962284088, 0.7614424824714661, 0.9157498478889465], [0.9160227179527283, -0.389200359582901, 0.5715063810348511]], [[-1.2097123861312866, -0.76137375831604, 0.22365213930606842], [-0.07167969644069672, 0.4948142170906067, -0.4155246317386627], [-0.332574725151062, 0.8739113807678223, 0.941068172454834]], [[1.0698108673095703, 1.4994158744812012, -0.6879233121871948], [0.15703953802585602, -0.4710618853569031, -0.9288666248321533], [0.1217879131436348, 0.018217621371150017, 0.7632563710212708]], [[0.12920446693897247, -0.3200833201408386, -0.33106109499931335], [0.7721932530403137, 1.1531500816345215, -0.29451480507850647], [-0.6848748326301575, -0.9123416543006897, -0.32985934615135193]], [[-0.5600622892379761, -0.2077549546957016, -0.728054404258728], [0.14747178554534912, -0.3968881666660309, -0.007007685489952564], [0.5124415159225464, -0.5461908578872681, 1.2829124927520752]], [[0.41744908690452576, 1.0163131952285767, 1.4959602355957031], [0.7039932608604431, 0.5206343531608582, 0.05287183076143265], [0.0006853369413875043, -0.5713565349578857, 0.6686102747917175]], [[0.32656005024909973, -0.1289709508419037, 0.32247763872146606], [-0.8248282074928284, 0.168870747089386, -0.05989423766732216], [-0.17665836215019226, -0.4580356180667877, -1.2614861726760864]], [[0.592118501663208, 0.7189602851867676, 0.613495409488678], [1.4643641710281372, -0.4836546778678894, 0.645609438419342], [0.22200334072113037, 0.2585609555244446, -0.8826788067817688]], [[-0.6882349848747253, -0.37261098623275757, 0.2512761652469635], [0.5365289449691772, -0.2533224821090698, 0.12250283360481262], [1.7577729225158691, 0.5045109987258911, 0.1556273251771927]], [[-0.0016437348676845431, 0.7633750438690186, -0.6536116003990173], [-1.3123587369918823, 1.3187565803527832, 0.2688903212547302], [0.2557765245437622, -0.7266080975532532, -0.857462465763092]], [[-0.7232183218002319, 0.7475533485412598, 0.39696773886680603], [0.18053820729255676, -0.24608546495437622, 0.3835391700267792], [0.5778930187225342, 0.2853985130786896, -0.21806715428829193]], [[-0.16754150390625, -0.309656023979187, 0.06672244518995285], [0.7146614789962769, -0.3052132725715637, 1.2363611459732056], [-1.680773138999939, -2.719695568084717, -1.1093884706497192]], [[-0.9647206664085388, 0.6746092438697815, -0.8362385034561157], [-0.07604385167360306, 0.04872210696339607, -0.6372334361076355], [-0.5252313613891602, 0.41223108768463135, 0.674292266368866]], [[-1.9290149211883545, 0.0722862184047699, 0.22054417431354523], [-2.23203182220459, -0.30025890469551086, 0.20344430208206177], [-0.2700575590133667, 0.4593396782875061, 0.5910950899124146]], [[0.36824119091033936, 0.21337878704071045, -0.7516956925392151], [0.6902424693107605, 0.22037914395332336, 0.572320818901062], [0.9567921161651611, -0.15068723261356354, -0.796621561050415]], [[-0.42193448543548584, 1.447056770324707, 0.01015407219529152], [0.26839983463287354, -0.4548150599002838, 0.4718517065048218], [-0.09455589950084686, 0.1031104028224945, 0.06436406075954437]], [[0.9680944085121155, 0.5722728371620178, -1.6033879518508911], [0.479775607585907, -0.214059516787529, 0.4125222861766815], [0.254844069480896, -0.22950831055641174, -0.07038924098014832]], [[0.7866730093955994, -1.3152981996536255, 1.5996867418289185], [1.103258728981018, -0.045105721801519394, -0.6884369850158691], [0.5595144033432007, -0.2048300802707672, 0.2838709056377411]], [[-2.283674955368042, 1.0259240865707397, 0.9084321856498718], [0.7431126832962036, 0.7291498780250549, -0.029932282865047455], [-0.3716827929019928, 0.4099675416946411, 0.042678337544202805]], [[-0.2953069508075714, -0.522354006767273, -0.01434432715177536], [0.5971878170967102, 0.5345560312271118, -0.7822098135948181], [-1.1905101537704468, -0.3187001347541809, 0.6423783898353577]], [[-0.8842470645904541, 0.07159833610057831, 0.4829542934894562], [-0.6734417080879211, -0.24755635857582092, 0.7302224636077881], [0.16460752487182617, 0.36495327949523926, 0.3180863857269287]], [[-1.2883872985839844, 0.5118682384490967, -0.24600152671337128], [0.5274885296821594, 1.041947841644287, 0.247545063495636], [-0.4563744068145752, 0.02348087541759014, -0.43506842851638794]], [[-0.17352871596813202, -0.31926965713500977, 0.33750322461128235], [-2.422868251800537, 0.45600414276123047, -0.21524488925933838], [0.5653131604194641, -0.5559991598129272, 0.6763603687286377]], [[0.2997092008590698, 0.40914273262023926, -1.7534023523330688], [-0.074610136449337, 1.1408628225326538, -0.8112508654594421], [0.4373592138290405, -0.588671863079071, 1.043322205543518]], [[-0.654217541217804, -0.06334418058395386, 1.1929136514663696], [-0.09269213676452637, -0.4782531261444092, 0.9175315499305725], [-1.0164622068405151, -0.06365800648927689, -0.4412912130355835]], [[-0.3150348365306854, -0.1691914051771164, -0.1334540843963623], [-0.22799119353294373, 1.2184085845947266, 1.1359977722167969], [-0.2539921998977661, -1.778713583946228, 0.7306287884712219]], [[0.31418758630752563, 0.10297256708145142, -0.5646592974662781], [-0.07032543420791626, -0.6211630702018738, -0.11437775939702988], [-0.47814834117889404, -1.28689444065094, -0.5302936434745789]], [[0.18010291457176208, -0.4278704822063446, 0.4765620231628418], [-0.016190826892852783, 0.07857789844274521, 1.4909204244613647], [-0.8610812425613403, 0.5263078212738037, -0.12689363956451416]], [[-0.2678799629211426, -0.24305029213428497, -0.42099615931510925], [0.26988744735717773, 0.04356198012828827, -0.939034104347229], [0.34449392557144165, -0.38397905230522156, 0.7936543822288513]], [[0.3945141136646271, -0.03853018954396248, -0.3290407061576843], [0.3487261235713959, 0.22003236413002014, -0.2609023153781891], [-0.7010061740875244, 0.16024845838546753, -1.2581366300582886]], [[-0.27379298210144043, 0.5227496027946472, 1.1482365131378174], [0.1621258705854416, 1.182468295097351, -0.665324330329895], [0.7417793273925781, 0.08028942346572876, -0.04964733496308327]], [[-0.15416058897972107, -0.31139087677001953, 0.29254385828971863], [-0.045079439878463745, -1.0159265995025635, 0.3386581242084503], [-0.7832199931144714, 0.2335602194070816, 0.13598135113716125]], [[0.1164640262722969, 0.09070271253585815, -0.3644900918006897], [0.2413327991962433, -0.00046969394315965474, 0.8242058157920837], [-0.1674247533082962, -0.15145337581634521, -0.09708167612552643]], [[-0.24027587473392487, 0.807207465171814, -0.33865609765052795], [-0.36803510785102844, 0.3361770212650299, -0.8201948404312134], [0.07313163578510284, -0.7642183899879456, 1.094839334487915]], [[-0.0478968508541584, 0.16759426891803741, 0.1715875267982483], [-0.09331600368022919, 1.1637693643569946, 0.5052391886711121], [-1.7884869575500488, -1.1829991340637207, -0.5690208077430725]], [[-0.14317260682582855, -0.04811369255185127, 0.20074701309204102], [-0.1773311197757721, 0.16587843000888824, 0.2201070934534073], [0.45669227838516235, -0.7149710655212402, 1.9648126363754272]], [[0.5150341391563416, -1.9876389503479004, -1.4092782735824585], [-0.5844270586967468, -0.0007271048380061984, -0.4171227812767029], [0.8167721629142761, 0.23673474788665771, -0.4020710289478302]], [[-0.012202976271510124, -0.029197392985224724, 0.005739371292293072], [0.04232078045606613, -1.345931887626648, 0.49295923113822937], [-1.357744812965393, 0.5472702980041504, -1.0922049283981323]], [[0.5626769661903381, -0.6451238989830017, 0.15822364389896393], [-0.6746698021888733, 0.6966058611869812, 0.3047996461391449], [-0.2988053858280182, -0.027181372046470642, 0.8260009288787842]], [[0.6205453872680664, -0.4551194906234741, 0.46131783723831177], [-0.34237396717071533, 0.8014689683914185, -0.15296033024787903], [0.4570261240005493, 0.4008485674858093, -1.0048421621322632]]], [[[-0.3542126417160034, -0.40605872869491577, -0.3099195063114166], [-0.9584866166114807, 0.7663468718528748, -0.7611511945724487], [-0.028347749263048172, 0.47377926111221313, 0.2571423053741455]], [[-0.05794217437505722, -0.3249805271625519, 0.42954930663108826], [-0.8489425182342529, -0.16770462691783905, -1.27682363986969], [0.613268256187439, 0.795708179473877, -0.2411992996931076]], [[-0.17478124797344208, -0.29050180315971375, -0.26166650652885437], [-1.6562260389328003, 0.008066754788160324, -0.6697665452957153], [-1.944122552871704, -0.4942222535610199, 0.618566632270813]], [[-0.10654358565807343, -0.3648841977119446, 0.03250478580594063], [-0.3630996644496918, 0.19602632522583008, -1.5522561073303223], [0.4890621602535248, -0.3402082920074463, 0.24033643305301666]], [[0.31220346689224243, -0.24399004876613617, -1.3952616453170776], [-0.19128142297267914, -0.776321291923523, -0.346025675535202], [0.3838312029838562, -0.8647382259368896, -0.17505352199077606]], [[0.5848631858825684, 0.151693657040596, 1.902596354484558], [0.42788806557655334, -0.000569512601941824, -0.24107089638710022], [-0.1865268349647522, -0.3259771764278412, -0.11154469102621078]], [[0.6622976064682007, -0.124440036714077, -0.3164667785167694], [0.4940038025379181, -0.13396954536437988, 1.058184027671814], [1.026340365409851, 0.007036993745714426, -0.05793794244527817]], [[-0.16742117702960968, -0.12448515743017197, -0.33397024869918823], [-0.16599750518798828, -0.792741060256958, 0.5340540409088135], [-0.21268177032470703, -0.3149370551109314, 0.7708622813224792]], [[0.703414261341095, -0.5040600299835205, 0.4376438856124878], [-0.1765093058347702, 0.9085071086883545, 0.5372651219367981], [0.3969249129295349, -0.16447408497333527, -0.34592005610466003]], [[-0.052022531628608704, 0.37896203994750977, -0.21857167780399323], [-0.19512370228767395, -0.6531291007995605, -0.35429707169532776], [0.4977666735649109, 0.33165663480758667, 0.7943748235702515]], [[0.16544005274772644, -0.7444542050361633, 0.1610156148672104], [-0.8723148107528687, 0.39186733961105347, 0.3972695767879486], [0.49747562408447266, 0.047361791133880615, -0.7194502949714661]], [[0.6509066820144653, -0.610722541809082, 0.7051082253456116], [-0.3026335537433624, -2.4462177753448486, -0.32812920212745667], [0.4886794090270996, 0.49147582054138184, 0.20996570587158203]], [[1.0267223119735718, -0.24470844864845276, -0.14105895161628723], [-1.4415839910507202, -0.4184891879558563, 0.3563435971736908], [-1.620998501777649, -0.17849582433700562, 0.5932077169418335]], [[-0.32477355003356934, -0.19049237668514252, -0.1331731081008911], [0.34205493330955505, 0.07917707413434982, -0.4857577085494995], [-0.26348263025283813, 0.8135455846786499, -1.1230636835098267]], [[-0.6450362801551819, 0.08769090473651886, -0.8509960770606995], [0.11622153222560883, 0.55974280834198, -0.4560428559780121], [1.9689592123031616, -0.035797759890556335, -0.4172378182411194]], [[0.5232745409011841, 0.06309844553470612, -0.1298372596502304], [-0.09025181084871292, -0.324497252702713, 0.27504655718803406], [0.10689261555671692, 0.20443280041217804, -0.12360415607690811]], [[0.01966582052409649, -0.4362223446369171, 0.18634510040283203], [-0.35316476225852966, 0.2599666118621826, -0.15028177201747894], [1.267133355140686, -0.2895372807979584, 0.28020012378692627]], [[0.9181272983551025, 0.30401766300201416, -0.6845359802246094], [0.19962047040462494, -0.3487958610057831, 0.7835800647735596], [-1.1331875324249268, 0.5173486471176147, -0.5353735685348511]], [[1.1418994665145874, -0.017002496868371964, -0.3279518485069275], [1.1218193769454956, 1.561463713645935, 0.278073251247406], [-1.111700415611267, -0.28828296065330505, 0.6212655901908875]], [[0.5659608840942383, -0.8551978468894958, -2.2197203636169434], [-0.3381449580192566, -0.48885804414749146, 0.8440468311309814], [-0.41733798384666443, -0.08154486864805222, -0.15286004543304443]], [[-0.3793976902961731, -0.3594760298728943, 0.029665399342775345], [0.4301869571208954, -0.6726034283638, 0.959348738193512], [0.6722835302352905, 0.5432707071304321, 0.23920737206935883]], [[0.34672239422798157, 0.6103045344352722, 0.8034672141075134], [0.15101836621761322, -0.31389090418815613, 0.6929662823677063], [-1.6188849210739136, -0.2778893709182739, -1.0707790851593018]], [[-0.08683125674724579, 0.010991365648806095, -0.9544592499732971], [-0.3481080234050751, 0.2565349340438843, 0.24256782233715057], [0.7257591485977173, 0.6938355565071106, -0.35856932401657104]], [[0.4344554841518402, -0.2948399484157562, 0.3092716336250305], [-0.7487103343009949, 0.8442012667655945, -0.29745927453041077], [0.3313160240650177, -0.3537295162677765, 0.3754132390022278]], [[-0.39342188835144043, -0.19102445244789124, 0.5394316911697388], [-0.1035459041595459, -0.24320299923419952, -0.057778771966695786], [-2.7206854820251465, -0.14617718756198883, 0.2447577863931656]], [[-0.7674696445465088, 0.26746171712875366, -0.31776314973831177], [-0.4393792748451233, 0.41350212693214417, -1.018693447113037], [-0.8323044180870056, -0.19052369892597198, -0.07586871832609177]], [[0.7177332639694214, -0.04853807017207146, -0.7411506772041321], [0.22880925238132477, 0.175428107380867, 1.3930659294128418], [1.2119442224502563, 0.6926856637001038, -1.4064726829528809]], [[-1.2537715435028076, 0.133814737200737, 0.5033130049705505], [-0.8291902542114258, 1.4053866863250732, 0.309428870677948], [-3.5893051624298096, 0.3691954016685486, -0.5833496451377869]], [[0.06365060806274414, -0.14976438879966736, 0.8926616907119751], [-0.3022143840789795, -0.9065626859664917, 1.206483006477356], [0.018292199820280075, 0.10105469077825546, 0.7749780416488647]], [[-0.5926434397697449, 0.47309309244155884, 0.17595209181308746], [0.27792832255363464, -0.6779685616493225, 0.10787517577409744], [-0.6632822155952454, -0.7918925881385803, 0.846632719039917]], [[-0.09702038764953613, -0.19900298118591309, 0.255065381526947], [-0.14894333481788635, -0.040245819836854935, -0.04392347112298012], [0.24503947794437408, -0.6263255476951599, 0.24009470641613007]], [[-0.5352210402488708, -0.05731777474284172, -0.8469098806381226], [-0.3982943594455719, -0.38946783542633057, -0.9325628876686096], [-0.5017296075820923, 0.36103424429893494, -0.43306177854537964]], [[-0.008446760475635529, 0.02764965407550335, -0.2826395034790039], [0.06674607843160629, 0.3833827078342438, -0.16292257606983185], [1.4161429405212402, -0.3975134789943695, 0.45739272236824036]], [[0.36776936054229736, 0.42884889245033264, -0.2561236619949341], [0.22144508361816406, -0.4402162730693817, -0.49721023440361023], [1.6195642948150635, -1.0688413381576538, 0.29025986790657043]], [[0.667037844657898, 0.47747141122817993, 0.6066107153892517], [-0.10461404919624329, 0.5122607946395874, 0.2718205451965332], [-0.5895216464996338, 0.5357620716094971, 0.5033205151557922]], [[-0.13334007561206818, -0.6423301100730896, 0.07478351891040802], [-0.9285420179367065, 0.5675269961357117, 0.14041940867900848], [-0.185045525431633, -0.46136805415153503, 0.404533326625824]], [[0.5363373160362244, 0.8077719211578369, 1.0773998498916626], [0.40545782446861267, 0.1589907854795456, -0.7048945426940918], [-0.5449205636978149, 0.009915041737258434, 0.4635488986968994]], [[0.3690899908542633, -0.12158593535423279, -0.2531050741672516], [-0.5133060216903687, -0.13135012984275818, -0.21703459322452545], [0.8481346368789673, -1.3433548212051392, -0.03258874639868736]], [[-0.33803027868270874, -0.7264575958251953, 0.11152419447898865], [-0.0608486607670784, 0.6132621169090271, 0.08040768653154373], [0.55368971824646, -0.7078094482421875, -0.29838287830352783]], [[0.21436069905757904, -0.42643627524375916, -0.0182325579226017], [0.12933385372161865, 0.051787715405225754, 0.6960492730140686], [0.13205690681934357, -0.21534551680088043, 0.5776746869087219]], [[-0.2679412066936493, 0.2950604557991028, 0.9970255494117737], [-0.09135989099740982, 0.07448507845401764, 0.5494847297668457], [0.8245822191238403, 0.592653214931488, -0.2133994847536087]], [[-0.20106682181358337, 0.27152520418167114, 0.7479787468910217], [0.6764287352561951, -0.2800638973712921, -1.5277302265167236], [0.3671486973762512, -0.7818094491958618, -0.3120879530906677]], [[-0.19275453686714172, -0.6176525950431824, 0.3340872824192047], [-0.04475628584623337, 0.5882015228271484, -1.131378173828125], [-0.0784875899553299, -0.2941243350505829, -0.06468614190816879]], [[0.4849643111228943, -0.4687405526638031, -0.09135331958532333], [0.780616044998169, 0.650842547416687, 0.2996317744255066], [-1.6245287656784058, 0.7039972543716431, 0.161101296544075]], [[-0.3748393654823303, 0.11938973516225815, 1.2217470407485962], [-0.7947588562965393, 1.297467827796936, -0.9995021820068359], [-0.07262131571769714, -0.23734498023986816, 0.2941010594367981]], [[-0.31861934065818787, -0.520946741104126, -0.18111209571361542], [0.09729266166687012, -0.5493223071098328, 0.22325381636619568], [0.433538019657135, 0.028276512399315834, -0.7931904792785645]], [[0.11485209316015244, 0.21589380502700806, -0.9337897896766663], [-0.17849774658679962, -0.295796662569046, -0.7086937427520752], [0.7528759241104126, -0.6266748905181885, -0.34689515829086304]], [[0.0745934247970581, -0.39334166049957275, -0.3101901113986969], [-0.12939122319221497, 0.619018018245697, 0.7698244452476501], [-0.9857182502746582, -0.3416963219642639, 0.5143797993659973]], [[0.36493587493896484, -0.9401717185974121, -1.7761504650115967], [-0.6060925126075745, -0.699273407459259, -0.5773528218269348], [1.365918517112732, -0.4736669361591339, -0.00687394617125392]], [[0.09530512988567352, 0.04523179680109024, -0.5590181946754456], [-0.38193875551223755, 0.39214447140693665, 0.40743815898895264], [0.5618370771408081, -0.012363897636532784, 0.0892605111002922]], [[-0.018133495002985, 0.14649592339992523, 0.2421978861093521], [-0.4972335398197174, 0.2003057599067688, 0.5356563925743103], [-0.7880698442459106, -0.7498165965080261, 0.4628368616104126]], [[0.08438759297132492, -0.21628619730472565, 0.2626212239265442], [0.09215876460075378, -0.3449338376522064, 0.19390569627285004], [-1.2057461738586426, -0.3404480814933777, 0.8895348310470581]], [[0.3335155248641968, -0.35130470991134644, -0.15287652611732483], [-0.47561758756637573, 0.8634806871414185, 0.6821615695953369], [0.9436244368553162, -0.24938248097896576, 0.7063156962394714]], [[0.5746475458145142, 0.7015613913536072, 0.35572898387908936], [0.8127470016479492, -0.02883056551218033, -0.4969874620437622], [-0.8317509293556213, -0.36811962723731995, 0.07466475665569305]], [[0.7044731378555298, 0.8502867221832275, -4.466728687286377], [0.13640953600406647, 2.4882538318634033, -0.857176661491394], [-0.06053004413843155, 0.1617036908864975, -0.06341380625963211]], [[-0.2031857669353485, 0.43380942940711975, 1.0234870910644531], [-0.08287619054317474, 0.3512983024120331, -0.6301794648170471], [0.5041384696960449, 0.2871860861778259, -0.17728185653686523]], [[0.551353931427002, -0.7894638776779175, 0.4174633026123047], [-0.7567844986915588, 0.843001127243042, -0.7912652492523193], [-1.2798511981964111, -0.5966535806655884, 0.9462541341781616]], [[0.15800447762012482, -0.1125795915722847, 0.16368332505226135], [-0.13200946152210236, 0.5716264247894287, -0.051477693021297455], [-1.2079371213912964, 0.5280910730361938, 0.019022243097424507]], [[-0.31811490654945374, -0.6564710140228271, -0.5753821134567261], [-1.2058157920837402, 0.07691448926925659, -0.2478172332048416], [-1.3192520141601562, 0.6938028335571289, -0.2151201069355011]], [[-0.8590036034584045, 0.928895115852356, -0.3166992962360382], [-0.03692329302430153, 0.011079151183366776, -0.905956506729126], [0.7838242053985596, 0.43953603506088257, -0.25445353984832764]], [[-0.2755318284034729, -0.1056775227189064, 0.7178376317024231], [-0.0958351269364357, 0.9402801394462585, 1.1243226528167725], [0.20925742387771606, 0.6252432465553284, -0.22053103148937225]], [[0.21893911063671112, 0.18530645966529846, 1.6637194156646729], [1.1999505758285522, -0.385551393032074, -0.11123339831829071], [-0.27010735869407654, 0.5099698901176453, -0.07725434750318527]], [[0.12434114515781403, 0.9536628723144531, -0.09071685373783112], [-0.3296292722225189, 0.19910402595996857, -0.0413024015724659], [-0.20676076412200928, 0.24702522158622742, -0.07445588707923889]], [[1.102972149848938, 0.5522056221961975, -0.609125018119812], [0.118081234395504, -0.19544172286987305, -0.3141385316848755], [0.4397091269493103, -0.8091922998428345, -0.4692179560661316]]], [[[-0.6485847234725952, 0.2406938672065735, 0.37062662839889526], [-0.5461080074310303, 0.2144283950328827, -0.406063437461853], [-0.07530935853719711, -0.14164511859416962, -0.7899407148361206]], [[0.5151262283325195, -0.8379735946655273, -0.566532552242279], [0.260738343000412, 0.4285672605037689, 0.12062985450029373], [0.7114084959030151, -1.2305306196212769, -0.41111820936203003]], [[0.3874001204967499, -0.1613997220993042, -0.27142608165740967], [0.5216531157493591, 0.14752259850502014, 0.18764418363571167], [0.39478012919425964, -0.5382178425788879, -0.5929741263389587]], [[0.373491495847702, -0.26359647512435913, 0.08335208892822266], [0.798433244228363, -0.6052225828170776, -0.07739870995283127], [-0.8310635685920715, -0.21880657970905304, 0.07344254851341248]], [[-0.03491462394595146, -0.689027726650238, -0.785865306854248], [-0.2399269938468933, -1.8335884809494019, 0.4226311445236206], [0.5683680772781372, -0.4504986107349396, -0.08682584017515182]], [[0.2034134715795517, -0.2848277986049652, -0.5055907368659973], [0.49662038683891296, 0.04063984379172325, 0.2792656719684601], [-0.6923889517784119, 0.5765600800514221, 0.1695016324520111]], [[-0.03517116233706474, 0.7617197036743164, -0.24034437537193298], [-0.3176575005054474, 0.4553489685058594, -0.15884487330913544], [1.0026705265045166, 0.035778194665908813, -0.4173316955566406]], [[1.1943528652191162, 1.5400022268295288, 0.7812460064888], [0.549034059047699, -0.13692164421081543, 0.16402271389961243], [-0.1626683473587036, -0.34116214513778687, -0.11132583022117615]], [[-0.5476495623588562, 0.07584740221500397, 0.5657370686531067], [-0.3226524293422699, 1.6896902322769165, -0.009670230560004711], [-0.7385125160217285, -0.016092827543616295, 0.8241453170776367]], [[0.5222946405410767, 0.8169393539428711, 0.4853132367134094], [-0.6712295413017273, 0.27120429277420044, -0.24418498575687408], [0.598628044128418, -0.06931773573160172, 0.33672773838043213]], [[0.3395613431930542, 0.06998981535434723, 0.23412342369556427], [1.069251537322998, -0.583210825920105, -0.5651103854179382], [-0.4092823565006256, -0.28764107823371887, -0.12839825451374054]], [[0.06896007806062698, 0.9330583214759827, 0.18274159729480743], [-0.1325424313545227, 0.5352761745452881, -0.9027109146118164], [-0.312856525182724, -0.7213519215583801, -1.141724944114685]], [[-0.5541064143180847, 0.41621845960617065, -0.5337280035018921], [0.9432769417762756, 0.8286477327346802, 0.32669371366500854], [-1.4040508270263672, -0.10345055162906647, 0.23357757925987244]], [[0.08094387501478195, 0.3292210102081299, -0.17913274466991425], [-0.041739217936992645, -0.3164322078227997, 0.3436318337917328], [0.25435328483581543, -1.170885443687439, -0.9158015251159668]], [[-0.14411760866641998, -0.09677406400442123, 0.4553581774234772], [1.3395109176635742, 0.6216585040092468, 0.7848048210144043], [0.08304675668478012, -0.22950643301010132, 1.257644772529602]], [[-1.541469693183899, 0.596091628074646, -0.49741002917289734], [0.3467016816139221, 0.9116566181182861, -0.3636723458766937], [-0.21017588675022125, -1.5467978715896606, -0.371999591588974]], [[-0.528577446937561, 0.4778801500797272, 1.270560622215271], [0.251420795917511, -0.03552672639489174, -1.2475672960281372], [0.4381987154483795, -0.27924564480781555, 0.5350016951560974]], [[-0.38465631008148193, -0.45097166299819946, 0.43558797240257263], [-0.9130688905715942, -0.5900202393531799, 0.4788011610507965], [-1.0038563013076782, -0.051363833248615265, -1.3582992553710938]], [[-0.35739409923553467, -0.3749581277370453, 1.1235712766647339], [-0.9188802242279053, 0.9584184885025024, 0.004089734982699156], [0.5733834505081177, 0.20744766294956207, -0.03865900635719299]], [[0.277443528175354, 0.8212370276451111, 0.7898338437080383], [-0.2988697290420532, 0.7897301912307739, -0.02662077359855175], [-0.03296513855457306, -0.39786240458488464, -0.39621594548225403]], [[0.6045085787773132, 0.3079473674297333, -0.7355629205703735], [-1.141957402229309, -0.5951279997825623, -0.4819990396499634], [0.089217908680439, 0.9379087090492249, 0.04994678124785423]], [[-0.3995400071144104, -0.18041957914829254, -0.23337474465370178], [-0.9821422100067139, -0.4938419461250305, -0.31818586587905884], [-0.7461692690849304, 0.30119040608406067, 0.17409488558769226]], [[-0.35537612438201904, -0.6861871480941772, -1.0730103254318237], [0.5301801562309265, 0.5640945434570312, -0.7740708589553833], [0.05055000260472298, -0.48524871468544006, -0.9240747094154358]], [[-1.5025436878204346, -0.13712316751480103, 1.611731767654419], [-2.602975606918335, 0.21379463374614716, -0.04097055271267891], [-1.5661978721618652, -0.25126945972442627, 0.22156380116939545]], [[0.552987277507782, -0.1661977618932724, -0.2598000168800354], [0.31139323115348816, 0.18390695750713348, 0.28248459100723267], [-1.5190699100494385, -0.5668672919273376, -0.19069556891918182]], [[0.10156865417957306, 0.8688530325889587, 0.42441079020500183], [0.1572897881269455, 0.8573253154754639, -0.9006854891777039], [-0.9796329736709595, -0.6077592372894287, 0.019208082929253578]], [[-0.1337028443813324, -0.2802864611148834, -1.120253324508667], [-0.06482937186956406, -0.013578551821410656, 0.5938335657119751], [0.17765359580516815, -0.9913139939308167, -0.29339009523391724]], [[0.3769018054008484, 0.1805105358362198, -0.10817456245422363], [0.30243632197380066, -0.14892002940177917, -0.059846896678209305], [-0.08263293653726578, -1.145681381225586, 0.22571322321891785]], [[-0.7459439039230347, -0.04959600791335106, -0.35248512029647827], [-0.2660611569881439, -1.056510090827942, 0.2778451144695282], [-1.2672945261001587, -0.20290762186050415, 0.40546149015426636]], [[-0.9203342795372009, 0.29517000913619995, 0.5723440647125244], [-0.49383196234703064, 0.5061681270599365, -0.7524590492248535], [0.8158114552497864, -2.608977794647217, -0.21565014123916626]], [[-0.5631408095359802, -0.2107142060995102, 1.1692348718643188], [-0.14651887118816376, 0.3567313253879547, -0.3718837797641754], [0.1642354279756546, 1.2642853260040283, -0.41057416796684265]], [[0.1446325033903122, 0.379241943359375, 0.15919111669063568], [0.15744450688362122, -0.6512605547904968, -1.2901307344436646], [0.4571177065372467, 0.17827168107032776, 0.2648058235645294]], [[0.722805917263031, -0.1889764368534088, -0.10539063066244125], [0.004792113322764635, -0.7154386043548584, -0.36774271726608276], [1.0640301704406738, 0.6169243454933167, -0.026388730853796005]], [[0.5622139573097229, -0.38616350293159485, -0.1046929806470871], [0.589274525642395, 0.5170866250991821, -0.18304085731506348], [1.6349726915359497, -0.25867122411727905, -0.4460178017616272]], [[0.38431280851364136, -0.07485073059797287, -0.06363128125667572], [-0.6003199219703674, -0.8291532397270203, 0.31640756130218506], [-0.6934213638305664, 0.28824421763420105, -0.2621684968471527]], [[-0.10207240283489227, 0.23952019214630127, 0.3673066794872284], [-0.2227451652288437, 0.1956375539302826, 0.29177048802375793], [-0.19210216403007507, -1.022402286529541, 0.685573935508728]], [[-0.026293771341443062, -0.312593936920166, 0.2742284834384918], [0.3063477575778961, -0.8786358833312988, -0.6779800653457642], [1.1391332149505615, -0.4944002628326416, 0.9234252572059631]], [[-0.01585926115512848, 0.21018140017986298, -0.5029633641242981], [1.1471412181854248, 0.6856368780136108, 0.32277911901474], [-0.5911123156547546, 0.7355701327323914, 0.24514445662498474]], [[0.6592309474945068, -0.6617098450660706, -0.07817083597183228], [0.8649161458015442, 0.17151500284671783, -0.16997063159942627], [-0.2282331883907318, 0.45860448479652405, 0.6026830673217773]], [[-0.5987381935119629, 0.21781069040298462, 0.41644468903541565], [-0.6878189444541931, -0.2951986491680145, 0.4543263912200928], [-0.332441508769989, -0.4696595072746277, 0.5341479778289795]], [[1.9394052028656006, -0.2329055219888687, 0.2217334508895874], [0.3628358244895935, -0.2389635294675827, -0.5898094177246094], [0.6690183877944946, -0.4467865824699402, -1.7884360551834106]], [[0.650699257850647, -0.5301936268806458, -1.7800254821777344], [0.46122118830680847, 0.4485210180282593, -0.4000062644481659], [0.07665953785181046, -0.8523618578910828, -0.34768372774124146]], [[0.6729352474212646, -0.6343597173690796, -0.2205199897289276], [-0.45138201117515564, 0.20639128983020782, -0.7776395082473755], [-0.9142993092536926, 0.14773745834827423, 0.19876986742019653]], [[-0.6521754264831543, 2.0160510540008545, 0.46981099247932434], [-1.18940269947052, 0.5166377425193787, 1.2626557350158691], [-0.8441441655158997, -0.19298703968524933, -0.16462816298007965]], [[0.46265795826911926, 0.8735374808311462, 0.13412818312644958], [-0.09577380120754242, -0.1303100287914276, 0.3839218318462372], [-0.523155689239502, -0.6964352130889893, -1.2047929763793945]], [[-0.11707127839326859, -0.9283746480941772, -1.045999526977539], [0.05307859927415848, 0.7166442275047302, -0.16117075085639954], [-0.7757313847541809, -0.09021928906440735, 0.14573027193546295]], [[1.249918818473816, -0.952826201915741, -0.10625007003545761], [-0.532890260219574, -0.06825251877307892, -0.974806547164917], [1.3349634408950806, 0.35461777448654175, -1.0157862901687622]], [[0.7191151976585388, -0.8801782727241516, -0.5622715353965759], [0.2584736943244934, 0.7479026913642883, 0.5108163952827454], [-1.4579570293426514, 0.2630285322666168, -0.7420651912689209]], [[-0.1495938003063202, 0.14292976260185242, 0.7001900672912598], [-0.7633557319641113, 0.7103589773178101, -0.4819292724132538], [0.609408974647522, 1.2057822942733765, -0.44848841428756714]], [[-0.17913132905960083, -0.4845806360244751, -0.4901098906993866], [-0.16791707277297974, -0.014108248986303806, -1.5564152002334595], [0.42797979712486267, -0.5700595378875732, 0.40996691584587097]], [[0.4283323287963867, 0.5738186240196228, 0.7581973671913147], [-1.5782277584075928, -0.2932561933994293, 0.22158175706863403], [1.1246848106384277, 0.5642014145851135, 1.3800606727600098]], [[0.7189558744430542, -0.2819482982158661, 0.485089510679245], [-0.1547938734292984, -0.44819918274879456, -0.09934493154287338], [-0.8085666298866272, -1.137751579284668, -1.6232192516326904]], [[0.33781349658966064, -0.27341634035110474, 0.06517399847507477], [0.9045800566673279, -0.7067559361457825, -0.6095874905586243], [0.6401304602622986, -0.25274142622947693, -1.3156027793884277]], [[0.2600669860839844, -0.5260096788406372, -0.09421873092651367], [-1.173414945602417, -0.29640063643455505, 0.9882547855377197], [-0.5739821195602417, 0.5848730802536011, -0.3576967418193817]], [[0.13422666490077972, 0.4679042398929596, 1.3346022367477417], [0.8702453970909119, -0.2847643792629242, 0.21672329306602478], [0.060280147939920425, 0.3384752571582794, -0.36015790700912476]], [[-0.3369557559490204, -0.1877811849117279, 0.21426069736480713], [0.9504894018173218, 0.5828970670700073, 0.020205792039632797], [-1.4866058826446533, -1.894432544708252, -0.015741154551506042]], [[0.1748080551624298, -0.8016560673713684, 1.192535638809204], [-0.4870953857898712, -0.4979688227176666, -0.12796728312969208], [-0.9380548000335693, -0.00571830989792943, -0.1688193827867508]], [[-0.4442092180252075, 0.5615522861480713, 0.06477560102939606], [-0.6530243158340454, 0.3181997835636139, 0.9281637072563171], [-0.9345589280128479, -0.0921725183725357, -1.0425441265106201]], [[-0.4700516164302826, 0.39901888370513916, 0.1841897964477539], [-1.167170524597168, 0.6922850608825684, -0.5507866740226746], [-0.35282468795776367, 0.2988966107368469, -0.6644465923309326]], [[0.17731069028377533, -0.013684272766113281, -0.5061538815498352], [-1.345910668373108, 1.0517926216125488, -0.19322171807289124], [-1.012073278427124, -0.536832332611084, 0.7379035353660583]], [[0.31392011046409607, 0.04510265961289406, 1.0467146635055542], [0.7200444340705872, -0.04270384460687637, -0.7236494421958923], [0.09368395805358887, -0.4890330135822296, -0.16540659964084625]], [[-2.3843743801116943, 0.7445929050445557, 0.023620443418622017], [-0.6419321894645691, -0.18833737075328827, 0.07558068633079529], [0.5813745856285095, 0.48367851972579956, 1.0231318473815918]], [[-1.93205726146698, 0.3259693384170532, -0.009944794699549675], [1.648718237876892, 0.8273522257804871, -0.8545223474502563], [-0.7159247994422913, 0.4960322380065918, 0.38301101326942444]], [[0.407468318939209, 0.2674224078655243, -0.6004372239112854], [-0.5987206697463989, -1.0428619384765625, 0.36907222867012024], [-0.431081622838974, -0.07433071732521057, -1.3740298748016357]]], [[[0.12955136597156525, -0.2866155505180359, -0.29777953028678894], [0.07040040194988251, -0.2061823606491089, -0.2822120785713196], [-0.09904806315898895, 0.40386202931404114, -1.674285650253296]], [[0.2435716688632965, 0.876700758934021, -0.16411203145980835], [-0.6831165552139282, 0.5542758703231812, -1.1809693574905396], [-0.7897988557815552, -0.7169354557991028, -1.1644704341888428]], [[-0.5595482587814331, 0.4757280945777893, -0.31417280435562134], [-0.08351964503526688, -0.7575599551200867, 0.6476612687110901], [-2.8253092765808105, 0.13217665255069733, -0.5220871567726135]], [[-0.2132166624069214, 0.12075787782669067, 1.2861900329589844], [0.8365724682807922, 0.572137176990509, 0.7014889121055603], [0.8971891403198242, -1.4003139734268188, -0.23587679862976074]], [[0.29105451703071594, -0.650341272354126, -0.06461604684591293], [-0.9566792845726013, 0.09808418899774551, -1.6746851205825806], [-0.11201740056276321, -0.1405288279056549, 0.14035409688949585]], [[0.1644001007080078, 0.1674448698759079, 0.7786058187484741], [-0.7906692624092102, -1.1918365955352783, 0.24788011610507965], [0.24510352313518524, 0.21531043946743011, -1.5182667970657349]], [[-0.443660169839859, 0.3287698030471802, -0.7471773624420166], [-0.06598798930644989, 0.24774591624736786, 0.3612775504589081], [0.39521703124046326, 0.81007981300354, -1.0349740982055664]], [[-0.9512499570846558, 0.2385621815919876, 1.4563332796096802], [0.03839622810482979, 1.1414426565170288, 0.20228540897369385], [-0.26379165053367615, -0.103001169860363, 0.9878924489021301]], [[0.23026813566684723, -0.002274140017107129, 0.3751341700553894], [-0.6557776927947998, 0.2583314776420593, -1.1881186962127686], [-1.2176342010498047, -1.1941360235214233, -0.028731098398566246]], [[-0.7783949375152588, -0.7631307244300842, 0.415489137172699], [-0.40952450037002563, 0.10529103875160217, 1.7602713108062744], [0.10595864057540894, -0.8962225317955017, -0.15157632529735565]], [[0.07632341235876083, 0.8880606889724731, -0.5603370070457458], [0.7017543911933899, 1.2842203378677368, 0.3186856508255005], [-0.44171813130378723, -0.680746853351593, -0.6614683866500854]], [[-0.2153434306383133, -0.05585735663771629, -0.4973237216472626], [0.14280323684215546, 0.5703873038291931, -1.069848656654358], [-0.7514826655387878, 0.2297452688217163, -0.8646438121795654]], [[-1.3126498460769653, -0.48705554008483887, -0.5524870157241821], [0.21563854813575745, 0.23736897110939026, 0.17271818220615387], [0.05307796970009804, 0.44313541054725647, -1.137367606163025]], [[0.28833720088005066, -0.8630344271659851, -0.13409052789211273], [-0.898247241973877, -0.8860729336738586, -0.5714074969291687], [-0.1266833245754242, -0.6403816938400269, -0.7609838843345642]], [[0.2378736287355423, 0.34169337153434753, -0.09584387391805649], [-0.7590929269790649, -0.34193679690361023, -0.7761678695678711], [0.5446071028709412, 0.22902120649814606, -0.06965042650699615]], [[-0.15201275050640106, -0.2742566168308258, -0.7459706664085388], [0.2911008894443512, -0.6491913795471191, -0.7064610123634338], [-0.5637040734291077, -0.23879966139793396, -0.36684650182724]], [[-1.8611880540847778, -0.6340067982673645, -0.1261824667453766], [0.7885187864303589, -0.1921195685863495, 0.9140896797180176], [-1.023485541343689, 0.42028728127479553, 0.11338351666927338]], [[0.7811688184738159, 0.8559092283248901, -0.27552416920661926], [0.07551617175340652, 0.5628258585929871, 0.01242806576192379], [0.786084771156311, 0.23494453728199005, -1.225572943687439]], [[0.200652614235878, 0.6552324891090393, 0.28055116534233093], [0.3893722891807556, 0.44174709916114807, -0.0969914048910141], [-0.8757182359695435, -0.18687646090984344, -0.6398380398750305]], [[0.45503658056259155, -0.0727122575044632, 0.27968502044677734], [0.587239682674408, 0.5373081564903259, 0.5441056489944458], [0.182588130235672, -0.6350884437561035, -0.02791554294526577]], [[-0.35819897055625916, -0.428004652261734, 0.23459447920322418], [-0.7343312501907349, 0.24341699481010437, 0.35168325901031494], [-0.23346185684204102, -0.13425491750240326, 0.08866316825151443]], [[1.2091248035430908, -1.1410309076309204, 0.06488928943872452], [0.6755580306053162, 0.7529579401016235, 0.4436032474040985], [0.05503463000059128, -0.4668235182762146, 0.011319280602037907]], [[-0.35719215869903564, 0.6066977977752686, 0.23148506879806519], [-0.4445800483226776, -0.24030625820159912, 1.358418345451355], [0.3231391906738281, -0.28300681710243225, -1.453033208847046]], [[0.47127223014831543, -0.1649274230003357, 0.06486740708351135], [-0.12499763071537018, -0.6005242466926575, 0.5860561728477478], [0.01084426324814558, -1.1661943197250366, -1.4039504528045654]], [[1.0615290403366089, 1.282624363899231, -1.3067034482955933], [0.5816906094551086, -0.10334272682666779, 0.6072016358375549], [0.790578305721283, 0.06276600807905197, -0.7359679937362671]], [[-0.827655017375946, 0.17350587248802185, 0.19350332021713257], [-0.49312958121299744, 0.3815760016441345, 0.9359205365180969], [0.6682066917419434, 0.6126125454902649, 0.8651756644248962]], [[-0.37032702565193176, 0.29537349939346313, 0.9324337840080261], [1.0601859092712402, -0.017114393413066864, -0.045143477618694305], [-0.7479069828987122, 0.15736794471740723, -0.914821207523346]], [[0.29017940163612366, 0.3007626235485077, 0.59819096326828], [-0.587932825088501, 0.021101737394928932, 1.1460511684417725], [-0.8374577760696411, -0.18984489142894745, 0.6942237615585327]], [[-1.9701060056686401, -0.2543940842151642, -0.453601598739624], [-1.3211296796798706, -0.2191968709230423, -0.8221858739852905], [-0.2544911205768585, -0.1960897594690323, -1.2053003311157227]], [[0.8161916732788086, -0.34588131308555603, -0.054744064807891846], [-0.24422124028205872, -0.4934960901737213, -1.3597487211227417], [1.414493203163147, -0.5944874882698059, 0.09579721093177795]], [[-0.05477390065789223, 0.11195430904626846, -0.9210991859436035], [0.9759117960929871, -1.0125184059143066, -0.2108711302280426], [-0.17888030409812927, -0.3231540322303772, -0.7037585973739624]], [[-0.2914312183856964, 0.24976231157779694, -1.2326780557632446], [1.317899227142334, 0.5649959444999695, 0.6254892349243164], [-0.8770169615745544, 1.006777286529541, -0.8970919847488403]], [[0.1281624287366867, -0.2389734536409378, -1.122766375541687], [-0.23622895777225494, -0.7262223958969116, 0.0344996303319931], [-1.5424431562423706, 0.4447118937969208, 0.4928385615348816]], [[0.1560639888048172, -0.11791148781776428, -0.5794572830200195], [0.09017105400562286, 0.2254645824432373, 0.1295793354511261], [-1.365294337272644, 1.1860337257385254, 0.004185476806014776]], [[0.2679051160812378, 0.23758715391159058, 1.0267013311386108], [-0.5223129987716675, -0.3332151472568512, -0.5476263761520386], [0.8878315687179565, -0.14341531693935394, -0.41165775060653687]], [[-0.9915573000907898, 0.33283770084381104, -0.3623274862766266], [0.9259327054023743, 0.2484070211648941, -0.40584611892700195], [1.3436903953552246, 0.30584052205085754, 0.3014124631881714]], [[0.14856691658496857, 0.3635421395301819, 0.30706313252449036], [-0.1958373785018921, 0.24779872596263885, -0.20410743355751038], [1.8308522701263428, -0.17411452531814575, 0.8555112481117249]], [[-0.4318337142467499, 0.7201613783836365, 0.02667710930109024], [-1.2060542106628418, 0.2527814507484436, 1.006273627281189], [-1.1470614671707153, 0.22695092856884003, 0.5671387314796448]], [[0.8761533498764038, 0.30862683057785034, -0.8681545257568359], [-0.8776397109031677, 0.2979514002799988, -0.13550898432731628], [-0.17201001942157745, -0.08817620575428009, -0.16868072748184204]], [[0.38182172179222107, -0.7333508133888245, 0.6033353805541992], [0.1791972666978836, -0.783035397529602, -0.2911786735057831], [-0.3935147225856781, 1.0451685190200806, -0.21365204453468323]], [[-0.2826044261455536, -1.1716651916503906, 0.38076266646385193], [0.7786726355552673, 0.29790592193603516, 0.6006078720092773], [0.20138463377952576, 1.0027451515197754, -0.03800211474299431]], [[0.066743403673172, 0.1140008419752121, 0.42653024196624756], [-0.5934320688247681, 0.6205605864524841, -0.016063762828707695], [-1.0719337463378906, -0.7154495120048523, 0.312824547290802]], [[0.4887408912181854, 0.5488840937614441, -1.6818679571151733], [0.1939159333705902, 1.6315723657608032, -1.179574728012085], [1.134426474571228, -0.2714739143848419, -0.7039697766304016]], [[0.490507572889328, -0.6164202094078064, -0.9679883122444153], [-0.10754318535327911, -0.6307032108306885, 1.305737853050232], [0.039258841425180435, 0.5307238698005676, 0.9828372001647949]], [[-1.2800894975662231, -0.21360443532466888, -0.30239859223365784], [0.1377408355474472, -0.832787811756134, 0.05151064321398735], [0.16513855755329132, -0.8831831216812134, 0.25185051560401917]], [[0.1924455761909485, 0.24626407027244568, 0.5448612570762634], [-1.6619096994400024, 0.7914806604385376, 0.41467323899269104], [-0.3231765031814575, -0.55485999584198, -1.5631227493286133]], [[0.2268926054239273, 0.5322301387786865, 1.3481591939926147], [-0.06329689174890518, -0.2780289351940155, -0.2609444260597229], [0.9591818451881409, -0.6369063258171082, 0.4139595627784729]], [[-1.0532042980194092, -0.08984460681676865, 0.29309940338134766], [-1.1035741567611694, 0.6627896428108215, 0.37384477257728577], [-0.8032680749893188, -2.037764072418213, -0.5221666097640991]], [[-0.7531843185424805, -0.9086112380027771, 0.6915100812911987], [-0.06884942948818207, -0.7485007643699646, -0.4593554437160492], [-0.3230288326740265, -0.2496558427810669, -0.2678661644458771]], [[0.9686899781227112, -0.594021737575531, 0.625081479549408], [0.2905777096748352, -0.03463291749358177, -0.08078470081090927], [0.401003360748291, -0.9010335206985474, -0.5004534125328064]], [[-0.8490855097770691, 1.132431983947754, 0.05514828488230705], [-0.8166949152946472, 0.7124844789505005, 1.781638264656067], [-0.5987313389778137, 0.5168525576591492, 0.015794049948453903]], [[-0.1446870118379593, 0.7698938250541687, 0.044104043394327164], [0.38756418228149414, 0.08747810125350952, 0.5566465258598328], [0.5395335555076599, 0.03781118988990784, -0.1865057349205017]], [[0.4340572655200958, -0.2036224603652954, -0.621843695640564], [0.04786331206560135, 0.3228271007537842, -1.6414501667022705], [-1.3128892183303833, -0.2922952473163605, -1.2658787965774536]], [[-0.3173426687717438, -0.7846612334251404, 0.23959915339946747], [-0.31005963683128357, -0.904302716255188, 0.1939743012189865], [-0.42144325375556946, 0.036060865968465805, 0.6074838042259216]], [[-0.8472830653190613, 0.08743419498205185, 0.22776566445827484], [-0.7924896478652954, 0.09881483763456345, 1.5815510749816895], [0.09853700548410416, -0.3770712614059448, 0.3419524133205414]], [[0.1803099811077118, -0.26813772320747375, 0.8453842401504517], [0.048196543008089066, -1.0643630027770996, 0.5752468109130859], [-1.8339850902557373, -0.5291784405708313, 1.5486204624176025]], [[0.18956437706947327, 0.0709371417760849, -0.790780246257782], [1.0549898147583008, 0.08127304911613464, -0.48563483357429504], [0.20503756403923035, -0.6236753463745117, 0.44888293743133545]], [[0.20163892209529877, 0.6420182585716248, 0.6120929718017578], [0.39918896555900574, -0.1513572782278061, 0.02129075489938259], [0.20942997932434082, -0.6038757562637329, -1.2397364377975464]], [[0.25147730112075806, -0.5070376396179199, -0.0019071794813498855], [0.3430250287055969, -0.3523947596549988, -0.5613905787467957], [0.20844337344169617, 0.4936343729496002, 0.28552165627479553]], [[0.7998592257499695, 0.5881124138832092, -0.20364202558994293], [-0.040481533855199814, -0.7822399735450745, 0.6096956133842468], [0.04321528226137161, -0.09831354767084122, -0.5480483174324036]], [[0.8160070776939392, 0.8371574878692627, 0.6989299654960632], [-0.6905513405799866, 0.736422061920166, -0.05268096923828125], [1.026044487953186, -0.6126376986503601, 0.18825159966945648]], [[-0.3062990605831146, 0.14047014713287354, 0.3012409806251526], [0.4230647683143616, 0.579403281211853, 0.23488512635231018], [-0.24017541110515594, 0.3928646445274353, -1.37165105342865]], [[0.06794426590204239, -0.7962970733642578, 0.3418596386909485], [0.7039172053337097, -0.4669616222381592, -0.6439921259880066], [1.2937514781951904, 1.0962090492248535, 0.7981966733932495]], [[-1.5064377784729004, 0.44184795022010803, -0.30682337284088135], [0.8452444672584534, 0.06804269552230835, 1.0659339427947998], [-0.47000652551651, 0.6199910640716553, 0.5217349529266357]]], [[[-0.7433153986930847, 0.4881212115287781, 0.26947280764579773], [-0.6676416993141174, -0.01654813438653946, -0.5807522535324097], [0.21390974521636963, -0.5025715231895447, 0.1017594039440155]], [[0.4175339639186859, -0.6432280540466309, 0.23450244963169098], [-1.0326545238494873, -0.6403772830963135, 0.07471740245819092], [0.7663506269454956, 0.8827861547470093, -0.5245348215103149]], [[-0.9263831377029419, -0.42129236459732056, 0.058256883174180984], [0.03833732381463051, 0.5844345092773438, -0.20071707665920258], [-1.0972055196762085, 0.5796182155609131, -0.2647883892059326]], [[-1.282901644706726, 0.5163237452507019, -0.18617035448551178], [0.31796956062316895, -0.21652615070343018, -0.4652443826198578], [0.24774515628814697, 1.209287405014038, -0.26983800530433655]], [[-0.7202642560005188, -1.266709327697754, 0.09905186295509338], [0.3093668222427368, -0.02987823076546192, 0.8559585213661194], [0.9530835747718811, 0.052596427500247955, 0.7004656791687012]], [[1.870959997177124, -0.2327074408531189, -0.472680926322937], [0.7046633958816528, 0.8378667831420898, -0.6026933193206787], [-0.3473525643348694, -0.11385318636894226, 0.14174702763557434]], [[-1.0060839653015137, 0.0914142057299614, 0.43448254466056824], [0.6338966488838196, -0.6506869196891785, 0.19740423560142517], [0.07815707474946976, 0.22493252158164978, -0.5006294846534729]], [[-0.6122044920921326, 0.7109269499778748, -0.5366666316986084], [-0.5172696709632874, -0.9054076075553894, -0.605567216873169], [-0.5763053894042969, 0.6361871361732483, 0.45176026225090027]], [[0.1959192156791687, -0.030283227562904358, -0.34087032079696655], [0.11328556388616562, -1.2898104190826416, 0.15555909276008606], [-0.8695948719978333, -2.6670188903808594, -0.024823656305670738]], [[0.13737191259860992, 0.2732982039451599, -0.5847784876823425], [-0.3381872773170471, 0.055922504514455795, 0.9454197883605957], [1.5588407516479492, -0.43090611696243286, 0.37088608741760254]], [[-1.339537501335144, 0.11544279754161835, -1.685713529586792], [-0.8751723766326904, 0.38103002309799194, 0.5817213654518127], [0.453223317861557, -0.014001967385411263, -0.5618312954902649]], [[0.5008561015129089, -0.715575098991394, -0.6098129749298096], [-0.48549050092697144, -0.13552320003509521, -0.17632625997066498], [-0.7481611371040344, 0.33547431230545044, 0.5749213695526123]], [[-0.29754817485809326, -1.1563127040863037, 0.5567016005516052], [-0.3715575337409973, 0.24052587151527405, 0.3256760537624359], [-0.7008544206619263, -0.10949496924877167, 0.05420786514878273]], [[0.36934155225753784, 0.2116198092699051, -0.6813319325447083], [0.1107497364282608, -0.5219728946685791, -0.4772028625011444], [0.725095808506012, -0.5996641516685486, -0.051460716873407364]], [[0.5286526083946228, 0.468749076128006, 1.4347612857818604], [0.09772737324237823, 0.803591251373291, -1.304681420326233], [-0.2509533166885376, 0.09518831223249435, 0.18833652138710022]], [[-0.4393274784088135, -0.080189049243927, 0.6113907694816589], [-0.1719256192445755, 1.3935129642486572, 0.007968111895024776], [-0.23255960643291473, -0.4906497597694397, 0.12705951929092407]], [[-1.2114454507827759, -0.6160716414451599, 0.7867539525032043], [0.7558771967887878, 0.2481977939605713, 0.8256173729896545], [-0.06873521953821182, 0.35170286893844604, 0.7562727332115173]], [[-0.8557945489883423, 0.5879105925559998, 0.3356328308582306], [-0.8488960862159729, -0.773219108581543, 0.09306329488754272], [1.0135575532913208, -0.7997446656227112, 0.04266871511936188]], [[0.27079468965530396, 0.7963857650756836, 0.684150755405426], [-1.1190377473831177, -1.1016888618469238, -1.6199532747268677], [-1.2976800203323364, -1.0980758666992188, 0.5555210709571838]], [[0.17925676703453064, 0.2373661994934082, 0.17101915180683136], [0.7778117060661316, -0.2966475188732147, -0.5996403694152832], [-0.5989059805870056, 0.25749850273132324, 1.0201715230941772]], [[0.31538066267967224, 0.025415336713194847, -1.706974983215332], [-0.07629379630088806, -0.7052628397941589, -0.018266068771481514], [-0.5623325109481812, -0.23840776085853577, -0.44312119483947754]], [[0.8875479698181152, -0.15845033526420593, 0.733054518699646], [-0.9347624778747559, -0.3962881565093994, 0.228481262922287], [-0.343037486076355, 0.20889021456241608, -0.5456883311271667]], [[-0.6137853264808655, -0.1223328560590744, 0.025572454556822777], [-0.6662891507148743, 0.5334101319313049, -0.6020070910453796], [0.189391627907753, 1.0132732391357422, 0.9144405126571655]], [[-0.5671013593673706, 0.7464035153388977, 0.4656654894351959], [0.13863402605056763, 0.5293416976928711, -0.2775793969631195], [-0.7357893586158752, -0.2374470978975296, 0.6770753264427185]], [[0.25807082653045654, -0.16867734491825104, 0.25031131505966187], [0.6143599152565002, 0.43988755345344543, 0.522458016872406], [-0.27432096004486084, 0.007818040437996387, -0.06334446370601654]], [[-0.3730969727039337, 0.15613803267478943, 0.7697104811668396], [-0.06898922473192215, 0.18720227479934692, 0.46099939942359924], [-0.4797189235687256, -1.0354695320129395, -0.47412049770355225]], [[-0.2653088867664337, 0.5764837861061096, 0.12494552880525589], [-0.009397209621965885, 0.818064272403717, -0.23164962232112885], [0.319178968667984, -0.24223023653030396, 0.5719373226165771]], [[-0.3255328834056854, 0.7303075790405273, 0.07331029325723648], [-0.8496403694152832, -0.5816778540611267, 0.771245002746582], [0.42693522572517395, 0.10874766111373901, 0.4168320894241333]], [[-0.19900524616241455, -0.6457206606864929, -0.5959810018539429], [-0.9722655415534973, -0.27933043241500854, -0.6061975359916687], [-0.9160552024841309, -0.7402408719062805, -1.3032108545303345]], [[0.34110021591186523, -1.3213527202606201, -0.5992063283920288], [0.4833170473575592, -1.3588072061538696, 0.3920203149318695], [-0.5825306177139282, 0.4145672917366028, 1.3964636325836182]], [[-0.6789590120315552, -1.4917998313903809, -0.39205408096313477], [0.2197071611881256, -0.3632780909538269, -0.3530084192752838], [0.036233898252248764, 1.4143940210342407, -0.648307740688324]], [[0.07180957496166229, 0.44972172379493713, 0.006232889369130135], [-0.188353031873703, 0.7382511496543884, -0.8445805907249451], [-0.7200902104377747, 0.6393957138061523, -0.16561593115329742]], [[0.29010266065597534, -0.7101560235023499, 0.9533348083496094], [0.775687575340271, -0.5436174273490906, -0.5440670847892761], [0.11272715777158737, -0.23742258548736572, -0.007255344185978174]], [[-0.7986257672309875, -0.07895229756832123, -0.5658451318740845], [1.5141218900680542, -0.5354222655296326, -0.24343599379062653], [0.38367748260498047, -1.198312759399414, 0.32567059993743896]], [[-0.20957662165164948, -1.61724853515625, -1.0686423778533936], [0.29588815569877625, -1.1961156129837036, 0.6582452058792114], [-0.2584356665611267, -0.28977447748184204, 0.10439211130142212]], [[-0.8832690119743347, 0.3113476634025574, 0.8773786425590515], [-0.3602924942970276, 0.3047465682029724, 0.40609776973724365], [0.5795496106147766, 1.3161307573318481, 0.15221168100833893]], [[0.049548231065273285, -0.37714773416519165, -0.3747490346431732], [-0.01884688436985016, 0.40552017092704773, 0.451069176197052], [-0.4797753393650055, 0.40185049176216125, -0.31737372279167175]], [[-0.24605794250965118, 0.49170032143592834, -0.05718376860022545], [-0.203962042927742, 0.7456355094909668, 0.30361706018447876], [-1.5010892152786255, 1.125269889831543, -0.5365267992019653]], [[0.7171461582183838, -1.1682209968566895, -0.34074270725250244], [1.1349064111709595, -1.0570831298828125, 0.35798630118370056], [-1.4501852989196777, -0.2696247398853302, -0.4914884567260742]], [[1.0315700769424438, -1.2979552745819092, 0.40333303809165955], [-0.7351055145263672, -0.09368021041154861, -2.268296241760254], [2.2841923236846924, 0.6071021556854248, 0.3648947477340698]], [[-0.19872549176216125, -0.5226923227310181, 0.040196266025304794], [-0.5122084617614746, 0.13954633474349976, 0.19054359197616577], [-0.03709086775779724, 0.19148504734039307, 0.3998652696609497]], [[0.22524313628673553, -0.1358528584241867, -0.374360591173172], [-0.6309602856636047, -0.27989453077316284, -0.16954584419727325], [0.041003044694662094, 0.16221162676811218, 0.06829539686441422]], [[0.7407272458076477, -0.06270813196897507, -1.273756980895996], [1.424203634262085, -0.4020267426967621, 1.0448567867279053], [-1.6485518217086792, 1.0386418104171753, -0.3784673511981964]], 