{"conv1.weight": [[[[1.0223857164382935, -0.718695342540741, -1.429105520248413], [0.2549314498901367, 1.2701914310455322, -1.8143013715744019], [0.621527910232544, 0.096895232796669, -0.47526758909225464]], [[1.006965160369873, -3.0567984580993652, -0.22777220606803894], [0.41941317915916443, 0.16732890903949738, -0.5748580694198608], [-0.35601553320884705, 0.018437134101986885, 0.3444068133831024]], [[-0.6136770248413086, 0.7323803901672363, 0.2603003978729248], [-0.34975919127464294, 0.605867326259613, -0.1376318633556366], [-0.8339148163795471, -0.18899278342723846, -0.6472770571708679]]], [[[0.3270551562309265, 0.6645503044128418, 1.6116315126419067], [1.1265335083007812, 0.775414228439331, 0.3790190517902374], [1.073632001876831, 0.1444607973098755, -2.4082834720611572]], [[-2.100411891937256, 0.183090478181839, -0.9366700649261475], [-0.20361915230751038, -0.23979073762893677, -0.5881001949310303], [0.3040980398654938, -0.032463498413562775, 0.009927053935825825]], [[0.1547018438577652, 0.5039135813713074, 0.3306015133857727], [-0.09355944395065308, -0.11647503077983856, 0.19971077144145966], [0.4083807170391083, 0.3001495897769928, 0.9868168234825134]]], [[[-0.6358907222747803, 0.8774709701538086, -0.6226006150245667], [0.4071226418018341, 0.14144012331962585, 0.16622136533260345], [-0.21693368256092072, -1.5644328594207764, 0.39368733763694763]], [[1.195958137512207, -1.5779632329940796, 0.058529503643512726], [-0.6305602192878723, 0.5427618622779846, 0.0408482626080513], [1.3672832250595093, -0.4050790071487427, -3.0990331172943115]], [[-0.26196038722991943, -0.13173863291740417, -1.227347731590271], [0.12731558084487915, 0.23369532823562622, -0.45369860529899597], [0.5502091646194458, 0.6412428617477417, -0.6214116811752319]]], [[[-1.2657175064086914, 1.0634796619415283, -0.15082265436649323], [-1.1590245962142944, -2.2616934776306152, 0.5576603412628174], [0.08885245025157928, -1.1728273630142212, -0.25989124178886414]], [[-0.5915108323097229, -0.44357994198799133, -0.33787891268730164], [-2.414454936981201, -1.3590528964996338, 0.8351936340332031], [-0.9028205275535583, 0.5240448713302612, -0.40545281767845154]], [[-0.16428741812705994, -0.4485170543193817, -0.9686872363090515], [0.18900136649608612, 0.14447206258773804, 0.021657206118106842], [0.6088194847106934, 0.6713041663169861, -0.12523607909679413]]], [[[0.8077995181083679, -0.2080606371164322, 1.5845762491226196], [-0.3430679738521576, 0.5877298712730408, 0.19228820502758026], [1.0029374361038208, -0.40462052822113037, 1.8079090118408203]], [[-0.2978484332561493, -0.3567981421947479, -0.4792466461658478], [0.38656461238861084, -2.025254011154175, -0.10250144451856613], [-0.8279169201850891, 0.169916033744812, -0.9587906002998352]], [[0.8869441747665405, 0.13706396520137787, 0.20185014605522156], [0.14918158948421478, -0.6622447967529297, -0.43470773100852966], [0.27374300360679626, -0.17857708036899567, 0.18373200297355652]]], [[[-0.30386579036712646, -0.5757296681404114, -0.6759045720100403], [-0.7034927010536194, -0.3825360834598541, 0.518909215927124], [0.911411464214325, 0.3180343806743622, -1.214551329612732]], [[0.43429145216941833, 0.863706648349762, -1.1153013706207275], [-0.203880175948143, 1.419569969177246, -1.560391902923584], [0.8411982655525208, -0.018206361681222916, 0.4925055503845215]], [[-0.4948587417602539, 0.2362438142299652, 0.4904575049877167], [-0.5173718929290771, 0.4824625253677368, 0.5532658696174622], [-1.3163902759552002, -0.49302875995635986, -1.1088992357254028]]], [[[1.0619933605194092, -0.40910249948501587, 0.6785427331924438], [-1.3317010402679443, 0.18630746006965637, 0.32428526878356934], [0.5430555939674377, 0.6521664261817932, -3.8901591300964355]], [[0.7546236515045166, 0.003070392180234194, 0.1702180802822113], [1.0146965980529785, 0.6520070433616638, -0.4039632976055145], [-1.0776046514511108, -0.9614690542221069, 0.3947773277759552]], [[0.7386261224746704, 0.23853793740272522, 0.48443371057510376], [0.4674011468887329, -0.004408587235957384, 0.09706979990005493], [0.34117838740348816, -0.070137158036232, 0.17911596596240997]]], [[[-0.7868723273277283, 0.23926383256912231, -1.4689719676971436], [0.14625008404254913, -1.0401232242584229, -3.011901378631592], [-0.17608904838562012, -1.20626699924469, -0.9420375227928162]], [[0.4621818959712982, -0.8270404934883118, 1.0570220947265625], [-1.1991103887557983, -0.8091664910316467, 0.31417322158813477], [0.30919647216796875, -0.08584055304527283, 2.096482992172241]], [[-0.22029542922973633, 0.20999255776405334, 0.46156033873558044], [0.059777386486530304, -0.30236122012138367, -0.17462699115276337], [0.14791493117809296, -0.14756399393081665, -0.12107569724321365]]], [[[-2.151519298553467, -0.16600516438484192, -0.48383527994155884], [1.7235134840011597, 0.2861918807029724, -0.6535407304763794], [1.479235053062439, 0.4389629065990448, 0.5888320803642273]], [[-0.011559457518160343, -1.6259117126464844, 0.27540308237075806], [0.9960963726043701, 0.9627286791801453, -0.44032251834869385], [-0.35722488164901733, 0.14077039062976837, -1.6946773529052734]], [[0.0023809089325368404, 0.22380587458610535, 0.07286381721496582], [-0.01798805594444275, 0.5420455932617188, 0.29812949895858765], [-0.6533563733100891, 0.12833842635154724, 0.1068168357014656]]], [[[-3.1244115829467773, 0.4128163456916809, 1.3727670907974243], [0.4823545813560486, -0.8050330281257629, 0.15818573534488678], [1.1626237630844116, -0.17946960031986237, 0.25356659293174744]], [[0.7374980449676514, 0.32278674840927124, -0.5647491216659546], [-0.15173587203025818, 0.2853497266769409, 0.34440672397613525], [-1.0972511768341064, 0.5269983410835266, 1.660585641860962]], [[0.6828001737594604, 0.0779571533203125, -0.11594479531049728], [0.5064119696617126, -0.030222512781620026, -0.12300298362970352], [0.21857652068138123, -0.3191068172454834, -0.03171439841389656]]], [[[-1.9354630708694458, -0.284106969833374, -0.17535288631916046], [-0.2749619483947754, -2.0678458213806152, 0.015648143365979195], [0.3725598156452179, 0.1970173865556717, -1.1731754541397095]], [[1.6901164054870605, -0.21481120586395264, 0.6950533390045166], [-0.2693861126899719, 0.8249461054801941, 0.1315302848815918], [-1.5875462293624878, -0.42102426290512085, -3.1831607818603516]], [[0.45812028646469116, -0.008236771449446678, 0.10054497420787811], [0.10483790934085846, -0.3626989424228668, -0.2758624851703644], [-0.3874374032020569, -0.7653299570083618, 0.671556293964386]]], [[[-0.8518714308738708, 0.5507798790931702, 0.18498112261295319], [-1.0771170854568481, 0.7946860790252686, -0.10046525299549103], [-0.5902352929115295, 0.6388282179832458, 0.5587903261184692]], [[-1.3923051357269287, -1.8709560632705688, -1.6003795862197876], [-0.31631380319595337, -2.347571611404419, 0.25892311334609985], [0.9282981753349304, -2.6673076152801514, 1.0776938199996948]], [[0.10366044193506241, -0.06413908302783966, 0.2880074977874756], [0.0009355643414892256, -0.34441113471984863, 0.059823255985975266], [-0.2560402750968933, -0.22560420632362366, 0.29057323932647705]]], [[[-1.0786426067352295, -0.2669077515602112, 0.7832165956497192], [0.8531816005706787, 1.576157569885254, -0.8068094253540039], [-0.9745588302612305, -2.341871976852417, -0.06843846291303635]], [[0.8112085461616516, -1.3262104988098145, -1.8892580270767212], [-0.6286189556121826, -0.3321075141429901, -0.640748918056488], [-0.5770214796066284, 0.22965271770954132, -0.6983672380447388]], [[-0.4500855803489685, -0.2811557650566101, 0.07828479260206223], [0.24259617924690247, 0.3575173020362854, 0.09624678641557693], [0.17043952643871307, 0.45693057775497437, 0.6086626052856445]]], [[[0.3026913106441498, -0.3870019018650055, 0.5837293267250061], [-0.5322999954223633, -1.9877617359161377, 0.24588407576084137], [0.7290714383125305, -0.6987184882164001, 0.5604493618011475]], [[-0.16340428590774536, 0.8368154764175415, -0.19731274247169495], [0.470003604888916, 0.3932572901248932, 0.4979671537876129], [-0.2666667699813843, 1.2392114400863647, -0.5321643352508545]], [[-0.9323158860206604, 0.13889440894126892, -0.584485650062561], [0.12309835106134415, 1.179972767829895, -0.07063674181699753], [-0.26723501086235046, 0.15689675509929657, -1.5738580226898193]]], [[[0.513633131980896, -0.0542663149535656, -0.6249277591705322], [-0.4215211868286133, -0.11091525852680206, 0.38140174746513367], [0.10447893291711807, 0.23863309621810913, -0.6375855803489685]], [[-1.7542487382888794, -0.4700200855731964, 0.6596810221672058], [-0.05833658203482628, 1.5594779253005981, 0.05132390558719635], [-2.3907628059387207, 0.7258651256561279, -0.3801613450050354]], [[-0.823957622051239, -0.44489341974258423, -0.16796332597732544], [0.5925703644752502, 1.060240626335144, -0.32128193974494934], [-0.3202255964279175, 0.5486059784889221, -1.4627320766448975]]], [[[-2.9824864864349365, -0.5977107286453247, -0.2936840355396271], [-0.06930147111415863, 0.5102702975273132, -0.9330211281776428], [-1.1721038818359375, -0.2342214286327362, 1.4589784145355225]], [[-1.8510652780532837, -0.0423966720700264, -0.2990172207355499], [-0.19841980934143066, -2.4694480895996094, 0.07412894815206528], [-0.4195745289325714, 0.25930964946746826, -1.7025972604751587]], [[0.3676884174346924, -0.25902867317199707, 0.5353031754493713], [-0.2966700494289398, -0.47148698568344116, 0.02515256032347679], [0.29517078399658203, -0.12273293733596802, 0.6608404517173767]]], [[[-0.9581740498542786, 0.8625947833061218, 0.6136153936386108], [0.009088682942092419, 0.24625831842422485, 0.18286263942718506], [-1.355934977531433, 1.045100450515747, 0.24889831244945526]], [[0.05909106135368347, -0.9853296875953674, 0.6760553121566772], [-2.5763158798217773, 0.9679112434387207, -1.7129530906677246], [-0.5931746959686279, -0.18369220197200775, 0.4162067770957947]], [[-0.5179540514945984, -0.4785845875740051, -0.6938797235488892], [0.048754122108221054, 0.6109820604324341, 0.9986537098884583], [-0.3024832010269165, -0.740987241268158, -0.4864964485168457]]], [[[0.5370957851409912, 0.41142407059669495, -0.8210386037826538], [-0.9468846917152405, -0.9079954028129578, -0.5353142023086548], [0.20445382595062256, -0.13403697311878204, 1.101479411125183]], [[-0.7169419527053833, -0.8394995331764221, 0.5545542240142822], [1.5511481761932373, -0.390868604183197, 1.0389372110366821], [-0.3811657726764679, 0.48389384150505066, -0.8784918785095215]], [[-0.8637621402740479, -0.8555396199226379, -0.9762626886367798], [0.23521864414215088, 0.6825518608093262, 0.760845959186554], [-0.5500603318214417, -0.18411171436309814, -0.06938312947750092]]], [[[-0.2976892590522766, 0.37205955386161804, -0.2083074152469635], [0.22038845717906952, -0.965742290019989, -0.31595271825790405], [0.6397896409034729, 0.20622369647026062, -0.4841306805610657]], [[1.1840282678604126, 0.6828047037124634, 1.508296251296997], [0.08748898655176163, 0.5877525210380554, -0.22868488729000092], [0.5634638667106628, 0.287500262260437, 0.13175921142101288]], [[-1.3153536319732666, -0.10794927179813385, -1.1697653532028198], [-0.4389105439186096, 1.1787713766098022, -0.34420961141586304], [-0.3151171803474426, 1.2267515659332275, -0.0036659385077655315]]], [[[-0.7542116641998291, 0.30345985293388367, 0.23955154418945312], [0.8600444197654724, 0.22471536695957184, -0.37496089935302734], [-0.6509456634521484, -0.825598955154419, -0.5381894111633301]], [[-1.24244225025177, -0.4226033091545105, 0.7618215680122375], [2.1448729038238525, 0.17474119365215302, -1.5634300708770752], [-3.0413944721221924, 0.745978832244873, 0.48679545521736145]], [[-0.11812200397253036, 0.04828783869743347, -0.0251590758562088], [-0.5026920437812805, 0.49081307649612427, 0.1343996226787567], [-0.3224799335002899, 0.03279952332377434, 0.3558071553707123]]], [[[0.3264484405517578, -0.0018752978648990393, 0.9705032110214233], [1.0228097438812256, -0.4815192222595215, 1.1574912071228027], [-0.6367279887199402, 0.17522700130939484, 0.4956195056438446]], [[0.54246985912323, 0.10340826213359833, -0.6420670747756958], [0.5990307927131653, -0.1523403376340866, -0.5810282826423645], [-0.00521309906616807, 0.3566322922706604, -2.529324769973755]], [[-0.2673116624355316, -0.20713777840137482, -0.21437649428844452], [1.0537089109420776, 1.118129014968872, -0.2573610842227936], [-1.234490990638733, -0.6238771677017212, -1.4532884359359741]]], [[[1.1458905935287476, -1.0909024477005005, 0.6034775376319885], [-1.5482202768325806, 0.7752310037612915, 0.35802575945854187], [-3.289663076400757, 0.2654590904712677, 0.7100815176963806]], [[-1.2718756198883057, 0.4954117238521576, -0.008951013907790184], [-0.9399163126945496, -1.3264350891113281, 0.6861416101455688], [0.5094102025032043, -0.13644351065158844, -0.022111739963293076]], [[0.36580464243888855, -0.011984037235379219, 0.6032012104988098], [-0.3152867257595062, -0.5785499811172485, 0.2730008661746979], [0.502983570098877, 0.28889453411102295, 0.43095114827156067]]], [[[-1.0969282388687134, -1.675929069519043, -0.9615412354469299], [-1.3863962888717651, 0.23231425881385803, -0.5138617157936096], [-0.3854897916316986, 0.06594697386026382, -1.8669437170028687]], [[-2.6991007328033447, 0.5191424489021301, 1.0345956087112427], [1.1608527898788452, -1.6395119428634644, 0.6301438212394714], [0.2831973433494568, -1.0086522102355957, 0.4234713315963745]], [[-0.2228107452392578, -0.344303160905838, -0.2381415069103241], [0.4667568802833557, -0.5042713284492493, -0.23874887824058533], [0.8832701444625854, -0.03813895955681801, 0.1786799281835556]]], [[[-1.5141597986221313, -0.3937198519706726, -0.8424506783485413], [-2.5290071964263916, 1.1038124561309814, -1.5555096864700317], [0.19494961202144623, -1.2761372327804565, -0.03430519998073578]], [[-0.48940587043762207, 0.11200200766324997, -0.571599006652832], [1.0815821886062622, -2.2656655311584473, -1.8718088865280151], [0.4986189305782318, 1.1908291578292847, -0.12567205727100372]], [[0.09869293868541718, 0.13601528108119965, 0.6309753656387329], [-0.12300456315279007, -0.24855521321296692, 0.23515018820762634], [-0.32702529430389404, -0.12138257920742035, 0.1712832897901535]]], [[[0.16304418444633484, -0.25824275612831116, -1.0164940357208252], [-0.7454943656921387, 0.07188967615365982, 0.6697036623954773], [-0.7952321171760559, -0.6412713527679443, -0.5519963502883911]], [[-0.6487069725990295, -0.4459865391254425, 0.45452868938446045], [-0.5041344165802002, 0.6243419051170349, 0.2697097063064575], [2.1027884483337402, 0.9595129489898682, -2.197056770324707]], [[-0.0980839803814888, 0.8855219483375549, -0.013161657378077507], [-0.6969565153121948, 0.38862374424934387, -0.23266887664794922], [-0.8928442001342773, -0.12549981474876404, -0.5518544912338257]]], [[[-0.28623077273368835, -0.36395010352134705, 0.19175274670124054], [1.0404785871505737, 0.07405218482017517, -0.09035416692495346], [-0.6413224339485168, 0.7852262854576111, 0.5981447696685791]], [[1.1935229301452637, 0.8167188763618469, 1.5840388536453247], [-1.4568113088607788, -1.1177079677581787, -1.8927326202392578], [0.06332939118146896, -0.05308150500059128, 0.6789593696594238]], [[-0.6133252382278442, -0.2343551069498062, -0.027233975008130074], [0.7633296847343445, 0.350704550743103, 0.875065267086029], [0.43119359016418457, -0.2715764343738556, 0.2673158049583435]]], [[[-0.3131064474582672, 0.08372300863265991, -0.10331645607948303], [-0.954065203666687, 0.050201233476400375, 0.5625432729721069], [-0.10161040723323822, -0.46345746517181396, -0.41510358452796936]], [[2.0854108333587646, -0.23592667281627655, -0.024212384596467018], [0.8726697564125061, 0.28216439485549927, 0.2779756784439087], [-2.586456775665283, -0.21230027079582214, 0.6415680050849915]], [[-0.4059600234031677, 0.8744897842407227, -0.4198211431503296], [-0.5908301472663879, 0.6644999384880066, -0.7344803810119629], [-0.6287140846252441, 0.7823438048362732, -0.5576668977737427]]], [[[-0.3231634795665741, -0.3284725248813629, -0.9377686381340027], [0.4383355379104614, -1.3878421783447266, -0.06904896348714828], [-0.04182014986872673, 0.348570853471756, -0.1881716400384903]], [[-1.7736706733703613, -0.455013632774353, 1.1600768566131592], [-0.6085221171379089, 0.7556847333908081, -0.4722214937210083], [2.1162896156311035, -0.8582724928855896, 0.8907078504562378]], [[0.388128399848938, 0.2877829074859619, 0.5890460014343262], [0.3022446930408478, -0.17019130289554596, -0.11386977136135101], [-0.20175762474536896, -0.637024462223053, -0.900408923625946]]], [[[0.15270479023456573, -0.13724057376384735, 0.38758164644241333], [0.04462265595793724, -1.1341135501861572, -0.28931036591529846], [0.04945587366819382, 0.569658100605011, -0.07602793723344803]], [[-0.5977983474731445, 0.30184268951416016, -0.2248222976922989], [1.4247299432754517, 1.0067554712295532, 0.4552433490753174], [0.528989315032959, 0.2795543670654297, 0.8182200193405151]], [[0.23077178001403809, 0.7933533191680908, -0.8637664318084717], [0.5992741584777832, 0.7479768395423889, -0.23462188243865967], [-0.6928236484527588, -0.16509002447128296, -2.45123553276062]]], [[[1.3091548681259155, 0.6741214394569397, 1.856465220451355], [-0.5037428736686707, -0.21127940714359283, -0.20725752413272858], [-0.3342469036579132, -0.35337337851524353, 0.019561389461159706]], [[-1.2976051568984985, -2.552839994430542, -0.6874355673789978], [-0.15812915563583374, -0.17057020962238312, 0.0730782151222229], [-0.2588638961315155, -0.04402817040681839, -0.08229945600032806]], [[0.023644346743822098, -0.09502335637807846, -0.4589012861251831], [-0.026634084060788155, 0.29335081577301025, 0.15292368829250336], [0.8278846740722656, -0.3177643418312073, -0.1451713740825653]]], [[[1.2135827541351318, 0.3096478283405304, -0.5672423839569092], [-1.6093823909759521, 0.48625144362449646, -0.06799836456775665], [0.36193957924842834, -0.027049386873841286, -0.6540619730949402]], [[1.2557532787322998, -0.1127171665430069, -0.7269911766052246], [1.2372052669525146, 1.0884555578231812, -0.6847251057624817], [1.6584298610687256, 0.8322175741195679, 0.026999907568097115]], [[0.37638211250305176, -0.19588932394981384, 0.24188514053821564], [-0.5317651033401489, -0.1812988668680191, 0.6886869668960571], [-0.7896428108215332, -0.2696361243724823, 0.45648229122161865]]], [[[0.9012393355369568, -0.023150209337472916, 0.4618993401527405], [-1.2177823781967163, 0.3896474242210388, -0.9070114493370056], [-0.8133682608604431, -0.4868367910385132, -0.014259697869420052]], [[1.065885305404663, -0.3195178508758545, 0.7292582988739014], [-0.6373551487922668, -1.1552858352661133, -0.3204493224620819], [-0.9461386203765869, 0.21216188371181488, -1.422698736190796]], [[-0.3413083553314209, -0.6598873138427734, -1.0566219091415405], [1.3063712120056152, 0.5805903077125549, 0.7727482318878174], [-0.43302395939826965, -0.7826465368270874, 0.10183179378509521]]], [[[-0.30025479197502136, -0.055734358727931976, 1.687283992767334], [-0.42974817752838135, 1.0173064470291138, -0.6819531321525574], [1.6164870262145996, -0.3846871256828308, -0.8927738070487976]], [[0.48978686332702637, -0.09727847576141357, -1.6697615385055542], [0.1437292993068695, -1.1199716329574585, -0.26950603723526], [-0.42759111523628235, -0.20794954895973206, 0.3817592263221741]], [[-0.3409830331802368, -0.4836965799331665, -0.7606521844863892], [-0.5065680742263794, 0.73978590965271, -0.05842885747551918], [0.1233200803399086, 0.9430164098739624, 0.07875155657529831]]], [[[1.3395401239395142, 1.0123845338821411, 1.4664233922958374], [0.6065594553947449, 0.9608221650123596, -0.0020520915277302265], [1.4490748643875122, 0.8443746566772461, 1.2512784004211426]], [[-0.36294490098953247, -0.045436643064022064, -0.0780908390879631], [0.07699723541736603, 0.08346789330244064, -0.16859780251979828], [-0.1537611484527588, -0.09028864651918411, 0.033495448529720306]], [[0.34327197074890137, 0.6071600317955017, -0.7497015595436096], [0.647381067276001, 0.9065911173820496, -0.10877218842506409], [0.22593392431735992, 0.5860970616340637, -0.6074820756912231]]], [[[1.166680932044983, 0.5825952291488647, -0.08722592145204544], [-0.20779739320278168, -0.27576979994773865, -0.8638618588447571], [1.4534413814544678, 0.4598696231842041, 1.0411702394485474]], [[-0.45770585536956787, 0.31947576999664307, -0.3937011957168579], [-2.2332334518432617, -0.6498249769210815, -0.10075990110635757], [-0.31819605827331543, -0.24411043524742126, -0.06240583211183548]], [[0.4795904755592346, 0.6900851726531982, -0.74974524974823], [0.3329485058784485, 0.49534115195274353, -0.3426206111907959], [-0.46183234453201294, -0.3091861605644226, -1.4381881952285767]]], [[[-0.6776277422904968, -1.704584002494812, -1.3338779211044312], [-1.3320246934890747, 0.9084329605102539, 1.0613704919815063], [-1.3664767742156982, 0.8140350580215454, 1.2974731922149658]], [[0.9417299628257751, -0.5532788634300232, -0.7605771422386169], [-0.08542526513338089, 0.7395241260528564, 0.3386733829975128], [-0.050743646919727325, 0.47773557901382446, -0.4351997375488281]], [[0.5930097699165344, -0.03600374981760979, -0.07986675947904587], [-0.27455005049705505, 0.13199982047080994, 0.5025883913040161], [-0.009849848225712776, -0.04906194657087326, 0.39120692014694214]]], [[[1.0377811193466187, 0.43152132630348206, 0.49196216464042664], [-0.2828388810157776, 0.5383798480033875, 0.9361584186553955], [0.9369574189186096, -1.0576434135437012, 0.8772037029266357]], [[0.7774395942687988, 0.12126433104276657, 0.4217521846294403], [-0.13415934145450592, -0.7205490469932556, 1.011236548423767], [1.430681824684143, 0.5621389150619507, 0.9527637958526611]], [[0.28543880581855774, 1.219150185585022, 0.662720263004303], [-0.6964588165283203, 0.42545628547668457, 0.19640815258026123], [-0.6869068145751953, -0.6312143802642822, -0.8648959398269653]]], [[[1.6362725496292114, -1.2541853189468384, -0.5211963057518005], [1.202260971069336, 0.8149102926254272, -1.1786924600601196], [0.030651504173874855, -0.5326187014579773, -2.637075662612915]], [[-0.4295956492424011, 0.013306920416653156, 0.7250842452049255], [-0.4519698917865753, -1.4862258434295654, -0.05223965272307396], [-0.25378069281578064, 0.5161240100860596, -0.052123818546533585]], [[0.3320043981075287, -0.07610419392585754, 0.10907404869794846], [0.2235654890537262, -0.1993081420660019, 0.02358493022620678], [0.726121187210083, 0.1682630181312561, -0.0013828090159222484]]], [[[1.7263271808624268, 0.5103901624679565, -1.0156660079956055], [0.15064814686775208, 0.8253710865974426, -0.44184091687202454], [0.14917077124118805, 0.3650141954421997, 1.813085913658142]], [[-0.8572933673858643, -0.10833044350147247, -0.10667963325977325], [-0.20093850791454315, -2.3734748363494873, -0.11192864924669266], [0.0434076264500618, -0.42336657643318176, -0.15558919310569763]], [[0.332069993019104, 0.8591511249542236, 0.2837896943092346], [-0.06176310032606125, 0.2955951690673828, -0.28075796365737915], [0.0841028094291687, 0.21183758974075317, -0.3382338285446167]]], [[[-1.149167776107788, 0.2006041258573532, 0.35362282395362854], [0.14589901268482208, -1.3564245700836182, 0.42517802119255066], [-2.1728382110595703, -1.337705373764038, -0.8811042904853821]], [[-1.1834537982940674, 1.053323745727539, -1.610190749168396], [-0.07328380644321442, -1.6861982345581055, -0.5947519540786743], [-0.9385020732879639, 0.6118237376213074, 0.6434463262557983]], [[-0.31537869572639465, -0.0915890485048294, 0.5100677609443665], [0.009758563712239265, -0.47137531638145447, -0.03235593065619469], [0.7866545915603638, 0.3380395770072937, 0.4188515245914459]]], [[[0.5167898535728455, 0.8149222135543823, -1.8829147815704346], [-0.6675645112991333, -0.18990325927734375, -0.21087028086185455], [-1.2645686864852905, -0.3412409722805023, 0.5335158109664917]], [[-0.7144368886947632, -0.12316413968801498, -1.506669044494629], [0.724678099155426, 1.4826700687408447, -0.41525545716285706], [-1.6461803913116455, -2.045732259750366, -0.8294762372970581]], [[0.033066727221012115, -0.011640467680990696, -1.0148828029632568], [-0.41444018483161926, 0.3848685026168823, -0.1463955044746399], [-0.44134244322776794, 0.014141169376671314, 0.39955922961235046]]], [[[-2.309032678604126, 0.39880746603012085, 1.9382346868515015], [-0.14088036119937897, -0.8893730044364929, 0.03056802973151207], [0.2615959644317627, -0.258699506521225, 0.13528887927532196]], [[-2.0911691188812256, -1.4753649234771729, -0.7961915135383606], [-0.17796660959720612, 0.23429010808467865, -0.22522160410881042], [0.5065428018569946, 0.1252506524324417, -1.2029078006744385]], [[0.05119047313928604, -0.6982179880142212, -0.1548517644405365], [0.6257114410400391, -0.05677320435643196, -0.4048985242843628], [0.8776125907897949, 0.16732968389987946, -0.2917201817035675]]], [[[0.4644811451435089, 0.16441455483436584, -1.9335113763809204], [-0.47611796855926514, -0.09531787782907486, 0.6541846394538879], [0.9836503267288208, 0.21708525717258453, 1.3838790655136108]], [[1.0448329448699951, -0.5034464001655579, -0.9348084926605225], [0.7342192530632019, 0.7223697304725647, -0.738095223903656], [-2.2435359954833984, -1.3419286012649536, -0.9206714630126953]], [[0.3887198269367218, -0.24946492910385132, 0.11715251207351685], [0.6025367379188538, -0.09374148398637772, 0.3883829116821289], [0.4299769997596741, -0.11039814352989197, 0.01888248138129711]]], [[[0.15661686658859253, -1.6754177808761597, -0.819288969039917], [0.6058451533317566, -2.4005117416381836, 0.31723248958587646], [0.5546733140945435, 0.477314293384552, 0.42849451303482056]], [[-1.4582453966140747, 0.6284726858139038, 0.4503140151500702], [0.9020059108734131, -1.0687602758407593, 0.08412433415651321], [1.401146650314331, 0.4551824927330017, -0.7265524864196777]], [[0.10044679045677185, 0.5791230201721191, 0.3047974705696106], [-0.5513824820518494, 0.1858471781015396, 0.3182132840156555], [-0.6486034393310547, 0.7507650852203369, 0.7228073477745056]]], [[[-0.24104399979114532, -1.04036283493042, -0.22215157747268677], [0.2984025180339813, -2.384935140609741, -0.7409940958023071], [0.8174253702163696, -0.6087662577629089, -0.3565438389778137]], [[0.11187896132469177, -2.086591958999634, -1.2136890888214111], [-0.3353137969970703, 0.39140331745147705, -0.5779398083686829], [-0.7431923747062683, 0.5333042740821838, 0.7666516900062561]], [[-0.6565651297569275, 0.9464902281761169, -0.6046242117881775], [-0.36255761981010437, 0.8313339948654175, -0.42347851395606995], [-0.12054164707660675, -0.19123393297195435, -1.2172425985336304]]], [[[1.7096771001815796, -0.32098597288131714, -0.18747588992118835], [0.7353428602218628, -0.6314619183540344, 0.18019698560237885], [1.5706171989440918, -0.4863933026790619, 0.2184583991765976]], [[-2.2043590545654297, 0.08144896477460861, -0.07407815754413605], [-2.903879165649414, -0.09662332385778427, 0.09898246824741364], [-1.5807758569717407, 0.2208322286605835, 0.30772921442985535]], [[0.008298023603856564, -0.18470945954322815, -0.22684945166110992], [0.012126638554036617, -0.21534046530723572, 0.1522400975227356], [0.33192574977874756, 0.10747696459293365, 0.45737388730049133]]], [[[-0.13880926370620728, 0.7333554029464722, -0.5582266449928284], [-2.2939891815185547, 1.711082935333252, -0.2510620951652527], [0.9568823575973511, -1.3785969018936157, -0.30930474400520325]], [[-0.8249360918998718, 0.018175194039940834, 0.39029717445373535], [-1.4216318130493164, 0.7666336894035339, 0.7981190085411072], [-1.6866447925567627, -0.3597055971622467, -0.11822552978992462]], [[0.3137860596179962, 0.18818077445030212, 0.2285698652267456], [0.10654627531766891, -0.08370695263147354, 0.33279237151145935], [0.19036328792572021, -0.23692767322063446, 0.06386440247297287]]], [[[1.3100943565368652, 1.157835841178894, -1.3141653537750244], [0.47539904713630676, 0.6634902358055115, -0.03794223070144653], [0.38427644968032837, -0.050320520997047424, 0.031517524272203445]], [[-1.0222212076187134, -0.013619035482406616, 0.049481336027383804], [0.7587276697158813, -0.25172656774520874, -0.7481144666671753], [0.6517060995101929, -0.30435487627983093, 0.37063589692115784]], [[-1.5798283815383911, 0.13565678894519806, -0.828125536441803], [-0.026417134329676628, 1.240454077720642, 0.028690684586763382], [0.15948589146137238, 0.14939063787460327, -1.169339656829834]]], [[[-0.3910762369632721, -0.13538314402103424, 0.5655585527420044], [-0.016542308032512665, -1.1515922546386719, 0.13844232261180878], [0.2938995659351349, 0.5596488118171692, 0.8311102390289307]], [[-1.9215278625488281, -0.10439863801002502, 1.7501786947250366], [-0.6027117967605591, 0.9874343872070312, 0.19039149582386017], [-3.1336681842803955, -1.350982666015625, 0.6013863682746887]], [[-0.2509065270423889, 0.3859439492225647, -0.19493989646434784], [0.06956269592046738, 0.572111964225769, 0.23896050453186035], [-0.3271736800670624, -0.6899157166481018, -0.13027483224868774]]], [[[-0.08310035616159439, -2.2999961376190186, -1.2707403898239136], [-0.4016730487346649, 0.5717229843139648, -0.49883872270584106], [1.0378844738006592, 0.7881600856781006, 0.7236165404319763]], [[1.072121262550354, 0.4447626769542694, 1.4500166177749634], [-0.6346694231033325, -0.6038744449615479, 0.6684648990631104], [-1.3738137483596802, -1.015992522239685, -0.8521400690078735]], [[0.24490658938884735, -0.31217098236083984, -0.6479476690292358], [0.38950785994529724, 0.07852420955896378, -0.1468794047832489], [0.6563572883605957, 0.5627381205558777, -0.01202904898673296]]], [[[0.10481803864240646, -0.01283146720379591, -0.11191801726818085], [-1.9654778242111206, -0.13683941960334778, -0.2314513623714447], [-1.5315682888031006, -0.9455582499504089, -0.11786171793937683]], [[1.4753174781799316, -0.9393969774246216, 0.46558287739753723], [1.131593942642212, -1.1108345985412598, 0.05509334057569504], [1.3606171607971191, -0.966330885887146, 0.7985244393348694]], [[-0.10423624515533447, -0.4226907789707184, 0.5709141492843628], [0.7631528377532959, 0.213670015335083, 0.29873165488243103], [0.1111253872513771, -0.2152915745973587, 0.317032128572464]]], [[[-1.419999122619629, -0.5572595596313477, -0.41510987281799316], [-0.9359642267227173, -0.5809320211410522, 0.31498563289642334], [-1.0986337661743164, -0.2510063946247101, -0.23573458194732666]], [[1.438775897026062, 0.19737809896469116, 0.46575218439102173], [0.5865694880485535, -0.3810804486274719, 0.05955392122268677], [2.0316991806030273, 0.10184427350759506, 1.2199366092681885]], [[-0.4198356568813324, -0.8946862816810608, -0.6604498624801636], [-0.10021054744720459, 0.705353319644928, 0.11854695528745651], [-0.4305691123008728, 0.15551286935806274, 0.08632812649011612]]], [[[-0.7785466313362122, -0.1348389983177185, -0.752876877784729], [0.5475394129753113, 0.9911573529243469, 0.5494394898414612], [2.3249237537384033, 0.34078511595726013, -1.9668328762054443]], [[-0.794174313545227, 0.18436811864376068, -0.9993239641189575], [-0.6277552843093872, -0.7048608064651489, 0.3937586545944214], [0.2214343100786209, 0.5023020505905151, -0.01997547782957554]], [[0.3639799952507019, -0.5715469717979431, -0.30864471197128296], [0.5355772376060486, -0.4322783648967743, 0.7744244337081909], [0.44433358311653137, -0.672436535358429, 0.23703663051128387]]], [[[0.7470614314079285, -0.01782866008579731, -2.1161048412323], [-1.4805210828781128, 0.4677393138408661, 0.20724794268608093], [-0.8427547216415405, -0.3079128563404083, 1.4148657321929932]], [[-1.2817001342773438, -0.985221803188324, -0.19699440896511078], [-0.7150171399116516, -1.6295286417007446, -0.8742885589599609], [0.3332531154155731, 0.8856526613235474, 0.4423365592956543]], [[-0.45427295565605164, 0.33803537487983704, -0.13258065283298492], [-0.9423084259033203, 0.3812050521373749, -0.010247361846268177], [-0.5379678606987, 0.7664210796356201, 0.4262496829032898]]], [[[0.45220643281936646, -0.10956593602895737, -0.03731338679790497], [0.31495314836502075, -2.061488151550293, -0.07534143328666687], [-2.4224939346313477, -0.0527350977063179, 0.19125090539455414]], [[0.21952328085899353, -0.3484605848789215, 2.5567827224731445], [0.020359382033348083, 0.7980084419250488, 0.022120144218206406], [0.48901695013046265, -0.2453652024269104, 0.08355435729026794]], [[0.5471062064170837, -0.10035263746976852, -0.42631033062934875], [0.5572946667671204, 0.08461911231279373, -0.28900977969169617], [-0.06733755767345428, -0.1851578652858734, -0.2964554727077484]]], [[[-0.2832094132900238, -0.5762038230895996, -0.4540126323699951], [-0.43965083360671997, 0.607921302318573, -0.15436126291751862], [-0.22348377108573914, -0.2215384542942047, -0.057328954339027405]], [[-0.7007662653923035, -0.17572234570980072, -0.7919458746910095], [-0.9568407535552979, 1.8554095029830933, 1.4753538370132446], [0.13169598579406738, 0.5518326163291931, 1.0363537073135376]], [[0.2176225632429123, -0.14188610017299652, -1.0150752067565918], [0.8258156776428223, -0.11964823305606842, -0.4650159776210785], [0.9099617600440979, -0.3590836226940155, -0.4371112883090973]]], [[[0.6856428384780884, -0.9748669862747192, 0.42832398414611816], [-1.0158371925354004, -0.26507794857025146, -0.8289521932601929], [-1.4319307804107666, -0.17196384072303772, 0.726861834526062]], [[1.427335500717163, -0.08863715082406998, 0.22134292125701904], [-1.707342505455017, 0.11449408531188965, -0.784315824508667], [1.405907154083252, -0.6574666500091553, -2.187051773071289]], [[0.5740146636962891, 0.2721111476421356, 0.790805459022522], [0.07980405539274216, -0.5547102689743042, -0.18614749610424042], [-0.021804770454764366, -0.6396406292915344, 0.09349308162927628]]], [[[-0.06056034564971924, -1.289016604423523, 1.3822473287582397], [-2.001767635345459, 1.2313048839569092, 0.17279711365699768], [-2.7856862545013428, 0.05017739161849022, -2.878783941268921]], [[0.028441058471798897, 0.4636298716068268, -0.243842214345932], [0.15258334577083588, -0.23652026057243347, -0.7282595634460449], [-0.01869475096464157, 0.36885085701942444, 0.9519743919372559]], [[-0.6131536960601807, -0.2114703357219696, 0.7467007040977478], [0.46350523829460144, 0.02442367933690548, -0.548097550868988], [0.052922897040843964, 0.3051936626434326, -0.069815993309021]]], [[[-0.6194878220558167, -0.8234242796897888, -0.743416965007782], [-1.1611175537109375, 1.339136004447937, 0.49815165996551514], [-0.6903321146965027, 1.318527102470398, 0.8689342141151428]], [[-0.6072340607643127, 0.6088038086891174, 0.40663304924964905], [0.47851434350013733, -0.10178100317716599, -0.6435976028442383], [0.06649956107139587, -0.5131514072418213, -0.4345945119857788]], [[-0.2528814971446991, 0.20731224119663239, -1.1928693056106567], [-0.06136440485715866, 1.1987494230270386, 0.2276270091533661], [-0.9932525157928467, -0.17114083468914032, -0.14922238886356354]]], [[[0.7696624994277954, -0.801672637462616, 0.9485493898391724], [-0.2593807578086853, 0.009140216745436192, -0.7040174603462219], [1.642539620399475, 0.6839755177497864, 0.22473099827766418]], [[-0.0839180201292038, -1.8642510175704956, 0.2901943325996399], [-1.6799196004867554, 0.7256394028663635, 0.5817657113075256], [0.6143900156021118, 1.25234854221344, -0.13411317765712738]], [[-0.16005675494670868, 0.8773548603057861, 0.8583871126174927], [-0.5709764361381531, 0.04126865416765213, 0.051624324172735214], [-0.4156443178653717, 0.007828038185834885, -0.30863887071609497]]], [[[-2.9658219814300537, -0.18655242025852203, -1.3733625411987305], [-0.5132664442062378, 0.5283083915710449, 0.08901865780353546], [1.804922342300415, -0.3794628083705902, 0.519673228263855]], [[-1.180215835571289, 0.6070756316184998, 0.7896239161491394], [-2.0605881214141846, -0.6700356602668762, 0.4126567244529724], [0.5979292988777161, 0.8855035901069641, -0.0414888858795166]], [[0.09838487952947617, 0.5900107622146606, -0.18001072108745575], [-0.15923789143562317, -0.09955858439207077, -0.29475322365760803], [0.40538865327835083, 0.07866663485765457, -0.06590550392866135]]], [[[-0.6415077447891235, 0.648901641368866, 1.5209062099456787], [0.22253359854221344, 0.0224049873650074, -0.6922359466552734], [-3.3194711208343506, 0.6521461606025696, 0.8513031005859375]], [[1.0608916282653809, 0.610529899597168, -0.5680171847343445], [0.7814511656761169, 0.6037361025810242, 0.5337617993354797], [0.16009922325611115, -0.6410079002380371, -0.5941382646560669]], [[0.2657894790172577, -0.6035888195037842, -0.3266085684299469], [0.23145027458667755, -0.19633464515209198, 0.2262270748615265], [0.5893701910972595, 0.35645240545272827, 0.737761914730072]]], [[[-3.39483642578125, 0.7319760322570801, -0.8571260571479797], [0.26956313848495483, 1.2598299980163574, 0.6588761210441589], [-0.7550179362297058, -1.1193703413009644, 0.6405341625213623]], [[0.35466206073760986, 0.7559682726860046, 0.41888219118118286], [0.3036201298236847, 0.04239664599299431, 0.7083113193511963], [0.810382068157196, -0.0998568907380104, -1.1000550985336304]], [[-0.17610856890678406, 0.425797700881958, 0.3028884530067444], [0.5047183632850647, 0.10099940747022629, 0.10544601827859879], [0.17816582322120667, -0.10296796262264252, 0.6910545825958252]]], [[[-0.8144034743309021, -2.031684398651123, 0.2530701458454132], [-0.33853042125701904, -1.372774600982666, -0.1896897256374359], [0.6843475103378296, -0.46353238821029663, 0.4982790946960449]], [[-0.5568023324012756, 0.20466238260269165, 0.23427434265613556], [0.5958858132362366, -2.3039462566375732, 0.9072352051734924], [-1.033560037612915, -0.7524254322052002, 1.781908631324768]], [[-0.3923223614692688, -0.1299414187669754, 0.7194743752479553], [0.23544420301914215, 0.04252251982688904, -0.09227430075407028], [0.5031639337539673, 0.1806269735097885, -0.33965829014778137]]]], "conv1.bias": [0.6138865947723389, -0.4195416271686554, -0.7185869216918945, 0.3111039996147156, -1.1570799350738525, 0.14761079847812653, -1.1996541023254395, 0.6214470863342285, 0.0701926052570343, 0.6060002446174622, 0.5876787304878235, -0.09219983965158463, -0.7538219094276428, 0.5630759596824646, -0.14895640313625336, 0.43646302819252014, -0.7276925444602966, -0.5696693658828735, -0.37117719650268555, -0.35195738077163696, -0.8713728785514832, -0.06501565873622894, -0.45737579464912415, 1.1406598091125488, -0.6309215426445007, 0.5410399436950684, -0.9857701063156128, 1.0996458530426025, 1.0006049871444702, 0.6117604970932007, 0.026385627686977386, -1.2563799619674683, -0.49432095885276794, 0.5250627398490906, -0.019437819719314575, -2.065847158432007, 0.2683531641960144, 0.11024822294712067, -1.824806571006775, 0.15616972744464874, 0.47685134410858154, 0.6462604999542236, -1.3102691173553467, 0.513172447681427, 0.6880214810371399, 0.1835242658853531, -0.14118118584156036, 0.9669312238693237, 1.3324370384216309, -0.6543667316436768, 0.5156367421150208, 0.3998262286186218, 0.3609251379966736, 1.256447196006775, 0.13416080176830292, 0.9303759932518005, 1.341118574142456, -0.5861997604370117, -1.3461836576461792, -1.6557230949401855, -0.5398846864700317, -0.7649908661842346, 0.41187459230422974, 1.0733158588409424], "bn1.weight": [0.9860952496528625, 0.9671214818954468, 1.125606894493103, 1.2555466890335083, 1.2556893825531006, 1.153175950050354, 1.0146523714065552, 1.22617769241333, 0.8999478220939636, 1.2277480363845825, 1.2658584117889404, 0.9380837082862854, 1.0021458864212036, 1.5335944890975952, 1.2316523790359497, 1.27774977684021, 1.0763819217681885, 1.157403588294983, 1.4829468727111816, 0.9351131319999695, 1.497269868850708, 1.1787314414978027, 1.0575134754180908, 0.9742472767829895, 1.0955098867416382, 1.101009488105774, 1.295969843864441, 1.3578184843063354, 1.876638412475586, 1.943044662475586, 0.8893893361091614, 0.9993398189544678, 1.4334461688995361, 1.3266574144363403, 1.5362240076065063, 1.0872657299041748, 0.8716797232627869, 1.265527606010437, 1.5493558645248413, 1.3699759244918823, 0.9646046757698059, 1.431685447692871, 1.1134462356567383, 1.1838386058807373, 0.9279612898826599, 1.5156763792037964, 1.1415578126907349, 1.3429051637649536, 1.0758578777313232, 1.1181707382202148, 1.267189383506775, 1.1154682636260986, 0.7773290276527405, 1.2167296409606934, 1.4812952280044556, 1.4825509786605835, 1.0782651901245117, 0.9721398949623108, 1.250072956085205, 0.7778233885765076, 1.113840937614441, 1.1095014810562134, 1.2249003648757935, 0.9467777609825134], "bn1.bias": [-0.14869467914104462, -0.6801527738571167, -0.17767684161663055, -0.3621872067451477, -0.7670891284942627, -0.3150486350059509, -0.3130585551261902, -0.32775840163230896, -0.2691531181335449, -1.010027289390564, 0.07085014879703522, -0.04015791416168213, -0.6237448453903198, -1.4021937847137451, -0.35588526725769043, 0.19142016768455505, -0.43959710001945496, -0.8158738017082214, -1.2258907556533813, -0.01584828644990921, -0.7508443593978882, -0.44101783633232117, 0.1380019336938858, -0.2839732766151428, -0.10976548492908478, -1.0247725248336792, -0.04551549628376961, -0.7308300733566284, -1.3392332792282104, -1.7898000478744507, -0.8006227612495422, -0.2045811265707016, -0.9294037818908691, -1.90000319480896, -0.44829097390174866, -1.049586296081543, -0.5146480202674866, -0.8841506838798523, -1.7366863489151, -1.0639557838439941, -0.02810973860323429, -0.6326768398284912, -0.7422493100166321, -0.7875277996063232, 0.3809334337711334, -1.0967249870300293, -0.2868615686893463, -0.5816880464553833, -0.23340657353401184, -0.6675586700439453, -1.3123902082443237, -0.2396819293498993, 0.07866287976503372, -0.5384945869445801, -1.0778660774230957, -1.1321982145309448, -0.6063596606254578, 0.006197729613631964, -0.5889605283737183, -0.5245146155357361, -0.4937017261981964, -0.9358320832252502, -0.7737975716590881, -0.6401065587997437], "conv2.weight": [[[[-0.6857874393463135, -0.5434243083000183, -0.02887703664600849], [-0.43495234847068787, 1.2901874780654907, -0.1003168374300003], [-0.2605728507041931, 1.1284077167510986, 1.1176323890686035]], [[0.186532124876976, -0.1708948165178299, 0.9681243896484375], [-0.1698654741048813, -0.4756416380405426, 0.18918965756893158], [0.11855597794055939, -0.14328989386558533, -0.6550684571266174]], [[-0.4174056053161621, -0.9356940984725952, -0.4624819755554199], [0.2223115712404251, 0.17382948100566864, -0.31069839000701904], [0.4304961860179901, -0.5343038439750671, -0.5607768893241882]], [[0.42918381094932556, -0.478293240070343, 0.9884309768676758], [0.1650436818599701, -0.7943868637084961, -1.584783673286438], [0.5851998925209045, -1.4026957750320435, 1.5172429084777832]], [[-0.8341786861419678, 0.0881456807255745, 0.6392309069633484], [0.031871408224105835, 0.241721972823143, 0.029590677469968796], [1.396412968635559, -0.508262574672699, -0.6447598338127136]], [[1.2658045291900635, -0.5903638601303101, -0.1324528157711029], [0.19166018068790436, 0.5983009338378906, 0.2808675765991211], [1.6469968557357788, 0.40112772583961487, -0.07646051049232483]], [[-0.28774744272232056, 2.0035839080810547, -0.1618788093328476], [0.35569438338279724, 0.4536314904689789, -0.6945439577102661], [-0.27199143171310425, -0.9241177439689636, -1.3966854810714722]], [[0.06722857058048248, 0.005975954234600067, 0.6018560528755188], [-0.44503894448280334, 0.36481213569641113, 0.4610673487186432], [0.35119685530662537, -0.7658880949020386, 0.036289382725954056]], [[-0.08113855123519897, -0.16229034960269928, 0.10415496677160263], [-1.4967464208602905, 0.2877025306224823, -0.3495614230632782], [-0.7320481538772583, -0.1477721780538559, -0.47928187251091003]], [[0.34182193875312805, -1.3550673723220825, -0.5101642608642578], [-0.28423115611076355, 1.306283950805664, 0.36612141132354736], [1.0365997552871704, 0.5516129732131958, -1.935828685760498]], [[-1.0783178806304932, 0.005851615220308304, -0.31966090202331543], [0.6773582100868225, 0.015423908829689026, -0.4754025340080261], [-0.8539535403251648, 0.1795889437198639, 0.19600221514701843]], [[1.4325964450836182, -1.436342477798462, -0.43017303943634033], [0.3774169385433197, -0.4082339107990265, 0.36278292536735535], [0.34870827198028564, 0.5375765562057495, -0.6198539137840271]], [[0.012821123003959656, -1.2440749406814575, -0.6595345735549927], [-0.7068144083023071, -0.08262668550014496, 0.8855445384979248], [-1.5572919845581055, 0.02541535161435604, 0.41290783882141113]], [[-0.23527100682258606, 0.22984129190444946, 0.24540290236473083], [0.819680392742157, -0.23767994344234467, 0.058363430202007294], [0.8828468322753906, 0.044937580823898315, -0.5486814975738525]], [[-0.5177102088928223, 0.6340937614440918, 0.3579290211200714], [-0.24805544316768646, 0.474734365940094, -0.9481893181800842], [-0.5162113308906555, 0.04732700064778328, -0.0759342685341835]], [[-1.0646272897720337, 0.18699251115322113, -0.6672833561897278], [-0.3324826955795288, 0.7838258147239685, 1.1982917785644531], [0.7887488007545471, 0.018059486523270607, 0.0786178931593895]], [[1.619280219078064, -0.6378898024559021, 0.5386019349098206], [-0.6760232448577881, 0.4981076717376709, -0.5340862274169922], [-0.5169240832328796, 0.6061897873878479, 0.5925199389457703]], [[-0.2447095811367035, -0.014919512905180454, -0.9745792150497437], [-0.5315975546836853, -0.849601149559021, -0.7022956013679504], [-0.13305677473545074, 0.03318337723612785, 0.054402824491262436]], [[-1.133278727531433, -0.12059316039085388, -0.10957267135381699], [-0.5560717582702637, 0.7755738496780396, -1.6814498901367188], [2.0670158863067627, -1.2486790418624878, -0.4982151389122009]], [[-0.6037539839744568, 0.584132969379425, 0.4877156913280487], [-1.1191133260726929, -1.196024775505066, 0.0370195209980011], [0.5766043663024902, 0.6592041850090027, -0.3543655276298523]], [[-0.7407596111297607, 0.6318963766098022, 1.2649348974227905], [0.9845423698425293, 0.034594811499118805, 0.2995653450489044], [-0.18016470968723297, -0.20586614310741425, 0.5959724187850952]], [[0.10795696824789047, -0.7558125257492065, -0.9425969123840332], [0.11358555406332016, -1.3766224384307861, -0.32292506098747253], [-1.2047162055969238, -0.28669214248657227, 0.5800166130065918]], [[-0.5991102457046509, 0.537831723690033, 0.6473679542541504], [-0.4987935721874237, 0.295193076133728, -0.8495277166366577], [-0.10249803960323334, 0.39084503054618835, -0.2636762261390686]], [[-0.06265832483768463, 0.324273943901062, 0.7362856864929199], [-0.6132935285568237, 0.3216644823551178, -0.12400276213884354], [0.17995278537273407, 0.2667616605758667, -0.1650051772594452]], [[0.08909157663583755, -0.2099071890115738, 0.9794459342956543], [0.5291205048561096, 1.0955350399017334, 1.0532739162445068], [1.3907305002212524, -0.4610941708087921, -0.16447043418884277]], [[-0.7783453464508057, -0.9737138152122498, 0.06394997984170914], [-0.15859125554561615, 0.06371870636940002, -0.7073500752449036], [-0.7974940538406372, 1.6825122833251953, 1.272399663925171]], [[1.3542654514312744, 1.43583083152771, -0.5942622423171997], [-0.29585301876068115, -0.48054039478302, -1.3872781991958618], [0.3633660078048706, -0.19029010832309723, 1.3994842767715454]], [[-0.09613397717475891, -0.3104715645313263, -0.45201370120048523], [0.7447476387023926, 1.729966163635254, -0.6647812724113464], [-0.17132583260536194, -0.5895379781723022, -0.5738949179649353]], [[-0.2520308792591095, -0.41061490774154663, -0.45174285769462585], [0.35216692090034485, -0.16781683266162872, -0.18779724836349487], [0.40472108125686646, -0.5327560305595398, 1.8382740020751953]], [[0.40153294801712036, 1.2016137838363647, 1.6219987869262695], [0.3932415544986725, 0.47819048166275024, -0.03529932722449303], [0.174545019865036, -0.6716625094413757, 0.7624260783195496]], [[0.15462514758110046, -0.6389238238334656, 0.2159591168165207], [-0.9477763175964355, -0.08602739870548248, -0.14634190499782562], [0.1864374428987503, 0.18346814811229706, -1.2495847940444946]], [[0.7792534828186035, 1.5408951044082642, -0.18044202029705048], [0.8299786448478699, -0.8378940224647522, 0.10551724582910538], [0.2926136255264282, -0.3969170153141022, -1.1226354837417603]], [[-0.5418674945831299, -0.21492350101470947, 0.1606111377477646], [0.1864941567182541, -0.3841838538646698, 0.18487438559532166], [2.228665828704834, 0.29561564326286316, 0.17555274069309235]], [[0.029888881370425224, 0.8361642956733704, -0.2911387085914612], [-1.508400797843933, 1.3670099973678589, -0.7021726965904236], [0.2173566073179245, -0.5669554471969604, -1.053987979888916]], [[-0.6013065576553345, 1.2654789686203003, 0.3395874798297882], [0.5030062198638916, 0.0931847020983696, 0.1478981375694275], [1.0025954246520996, -0.030328508466482162, 0.20049074292182922]], [[-0.4272587299346924, -0.3254121243953705, -0.9089204668998718], [0.9874044060707092, -0.23931695520877838, 0.8517464995384216], [-1.4548954963684082, -3.897754192352295, -1.6201251745224]], [[-0.8413791656494141, 0.6872267127037048, -1.0193544626235962], [0.36381903290748596, -0.2596522569656372, -0.3907531797885895], [0.18162491917610168, 0.3835333585739136, 0.9669685363769531]], [[-2.723602771759033, 0.03096729889512062, 0.22459612786769867], [-2.3129422664642334, -0.14342784881591797, -0.5507060885429382], [-0.4513651132583618, 0.33300769329071045, 0.22543103992938995]], [[0.621792197227478, 0.37715622782707214, -1.2034035921096802], [0.6579576730728149, 0.3067338764667511, 0.6440345644950867], [0.9804781675338745, -0.19613566994667053, -0.9680041074752808]], [[-0.31072282791137695, 0.8485990762710571, 0.36249300837516785], [-0.04048996418714523, -0.8178213834762573, 0.1398736983537674], [0.08642058819532394, -0.05774018168449402, 0.09683303534984589]], [[1.091843843460083, 0.3679649829864502, -2.437405586242676], [0.7432591319084167, 0.026434224098920822, 0.3677668273448944], [-0.29385095834732056, -0.0005227062501944602, 0.3786444067955017]], [[0.26838418841362, -1.9029101133346558, 1.8260996341705322], [0.9020202159881592, -0.07325378805398941, -0.7218109965324402], [0.3291260898113251, 0.07611621916294098, 0.2328399270772934]], [[-2.241610288619995, 0.9985731840133667, 1.402327299118042], [0.3430677354335785, 0.547777533531189, 0.22384653985500336], [-1.022918939590454, -0.14609169960021973, 0.21108070015907288]], [[-0.24866996705532074, -1.0956921577453613, -0.070346400141716], [1.1177599430084229, 0.29227912425994873, -1.2376776933670044], [-0.35078614950180054, -0.5877103805541992, 0.29143112897872925]], [[-1.004274845123291, 0.5507878065109253, 0.3043312728404999], [-0.7001227736473083, 0.43367406725883484, 0.7777218818664551], [-0.15554580092430115, -0.18810710310935974, -0.01958756148815155]], [[-1.1984851360321045, 1.0633878707885742, -0.2515435516834259], [0.12367598712444305, 1.1385598182678223, -0.3478097915649414], [-0.570502519607544, 0.02192341908812523, -0.9940188527107239]], [[0.38299617171287537, -0.6845929622650146, 0.406637579202652], [-1.7017481327056885, 0.5253857970237732, -0.2697499394416809], [0.17121443152427673, -0.4600399434566498, 0.601609468460083]], [[0.13289465010166168, 0.7330314517021179, -1.7792117595672607], [0.10732438415288925, 1.203908920288086, -1.0274111032485962], [0.1155470758676529, -0.10745459794998169, 0.7518227696418762]], [[-0.5109719038009644, -0.3955482244491577, 1.0846863985061646], [0.16327576339244843, -0.43400025367736816, 0.5765174031257629], [-1.1952505111694336, -0.14448022842407227, -0.2080884873867035]], [[-0.03708250820636749, -0.5269037485122681, -0.27079394459724426], [-0.5950697064399719, 1.365590214729309, 0.4729117751121521], [-0.7300099730491638, -1.865027666091919, 0.16211402416229248]], [[0.3397615849971771, 0.5059599280357361, -1.5151764154434204], [-0.10686397552490234, -0.6909003257751465, -0.014256520196795464], [-0.17323681712150574, -1.3872888088226318, -1.3880971670150757]], [[0.5715792775154114, -0.7967085838317871, 1.0133064985275269], [0.03958920016884804, 0.2682531774044037, 0.8307849168777466], [-0.7892796993255615, 0.4992315471172333, -0.3784900903701782]], [[0.3101031482219696, -0.20651422441005707, -0.5072922110557556], [0.2079848200082779, 0.14067307114601135, -0.5767058730125427], [0.5630159378051758, -0.2791669964790344, 0.8226901292800903]], [[0.008185107260942459, 0.19786334037780762, -1.0003087520599365], [-0.0335494689643383, -0.29098522663116455, 0.37975582480430603], [-0.33562517166137695, -0.12959614396095276, -1.1037240028381348]], [[0.9362021088600159, 0.5795462727546692, 0.916875958442688], [0.35796067118644714, 1.2225209474563599, -1.021118402481079], [1.0299365520477295, 0.3729471266269684, -0.30978578329086304]], [[-0.4295540153980255, 0.026572637259960175, -0.27411532402038574], [-0.09677285701036453, -1.1080673933029175, 0.11980672925710678], [-0.6972565054893494, -0.3563014268875122, 0.7419907450675964]], [[0.63655024766922, 0.5290133953094482, -0.6635692715644836], [-0.49936750531196594, -0.7213649153709412, 0.6411262154579163], [0.6436092257499695, 0.11043188720941544, -0.5094524025917053]], [[-0.1587388813495636, 1.1094003915786743, -0.5203855037689209], [-0.6582582592964172, -0.052272360771894455, -0.9705892205238342], [0.18000997602939606, -0.8961586356163025, 0.9968475103378296]], [[-0.6449148654937744, 0.12674985826015472, 0.4569953978061676], [-0.40442413091659546, 0.9299121499061584, 0.3030582368373871], [-1.336869716644287, -1.0875883102416992, -0.38401713967323303]], [[-0.25787240266799927, -0.11078903824090958, 0.36919665336608887], [0.09601913392543793, -0.15346980094909668, -0.3055455982685089], [0.48629817366600037, -0.6647566556930542, 2.0745174884796143]], [[0.3645625710487366, -2.44732403755188, -1.075392246246338], [-0.8611610531806946, 0.05974237620830536, -0.48925191164016724], [1.2677801847457886, -0.01484660804271698, 0.3508129417896271]], [[0.2246767282485962, -0.07284657657146454, -0.17015808820724487], [-0.10129774361848831, -1.7917547225952148, 0.24661731719970703], [-1.1192134618759155, 0.6850863695144653, -0.6755839586257935]], [[0.7330125570297241, -1.3411771059036255, -0.8576610088348389], [-0.8355632424354553, 0.6787897348403931, 0.16414998471736908], [-0.06420518457889557, -0.027751384302973747, 0.20471832156181335]], [[1.0775115489959717, -0.5274546146392822, 0.12677103281021118], [0.0537460520863533, 1.2412410974502563, -0.01793079823255539], [-0.5500106811523438, 0.3412923216819763, -1.4807935953140259]]], [[[-0.06362853944301605, -0.50954669713974, 0.1697726845741272], [-1.079290509223938, 0.32053714990615845, -0.6044914722442627], [-0.265503466129303, 1.0124119520187378, 0.10854461789131165]], [[0.49027448892593384, -0.36352744698524475, 0.4482046067714691], [-0.6098423004150391, -0.7051677107810974, -0.9985660910606384], [0.5650174021720886, 0.49349498748779297, -0.8085394501686096]], [[0.11227945983409882, 0.24760103225708008, -0.5988047122955322], [-1.0909240245819092, 0.059942178428173065, -0.4940226674079895], [-2.173417329788208, -0.14091122150421143, 0.3547610938549042]], [[0.28125011920928955, 0.2490311712026596, 0.3634335398674011], [-0.03704092651605606, -0.27840346097946167, -1.5413950681686401], [0.6285449266433716, -0.48123255372047424, 0.9711564779281616]], [[0.3560738265514374, -0.34038493037223816, -1.6531810760498047], [-0.24872960150241852, -1.0879985094070435, -0.40058082342147827], [0.6538131237030029, -0.8070344924926758, -0.2661980986595154]], [[0.732917308807373, 0.47968026995658875, 1.4373500347137451], [0.09205924719572067, -0.1037469133734703, -0.08838111162185669], [-0.27118244767189026, 0.11856190115213394, -0.10696104168891907]], [[0.5819223523139954, 0.35963255167007446, -0.388215571641922], [0.5605348348617554, -0.2584327459335327, 1.1239495277404785], [1.0012788772583008, -0.11231706291437149, 0.11194948852062225]], [[-0.3370903432369232, 0.09387175738811493, -0.4147450923919678], [-0.16357380151748657, -1.0117803812026978, 1.2481733560562134], [-0.541712760925293, -0.9444354772567749, 0.585933268070221]], [[0.9589349627494812, -0.305420458316803, 0.38230276107788086], [-0.4962932765483856, 1.022268533706665, 0.6758913397789001], [0.7756686806678772, -0.437145859003067, -0.21795028448104858]], [[0.5050194263458252, 0.18427616357803345, 0.6702803373336792], [0.11710650473833084, -0.9338629245758057, 0.14657793939113617], [0.9249487519264221, -0.09682374447584152, 1.1363860368728638]], [[0.4296715557575226, 0.13121813535690308, -0.4549506604671478], [-0.3713485300540924, 0.1982903778553009, 0.12718048691749573], [0.46460020542144775, 0.164262056350708, -0.8407690525054932]], [[0.012503709644079208, 0.009170674718916416, 0.5623899102210999], [-0.2552083730697632, -2.2842323780059814, -0.6964148879051208], [0.7360323667526245, 0.33533215522766113, 0.6600295305252075]], [[0.9629429578781128, 0.04882756248116493, 0.11338869482278824], [-0.345172643661499, -0.17928069829940796, 0.07525677978992462], [-1.2036166191101074, -0.7970616221427917, 0.23027944564819336]], [[-0.14079280197620392, -0.3713102340698242, -0.0969194769859314], [0.20709998905658722, -0.17912344634532928, 0.017033200711011887], [-0.17865541577339172, 0.9197456240653992, -0.5945209860801697]], [[-0.4945039749145508, -0.5113315582275391, -1.2654151916503906], [-0.0797404944896698, 0.7401564717292786, -0.4008427560329437], [2.3701653480529785, -0.28323855996131897, -0.2214871644973755]], [[0.5982727408409119, 0.24488136172294617, -0.3062419891357422], [-0.14699362218379974, -0.15826822817325592, 0.12948602437973022], [0.26834923028945923, 0.5851643681526184, 0.11468914896249771]], [[-0.011750252917408943, 0.4591028392314911, -0.3332824409008026], [-0.7204253077507019, 0.13035807013511658, -0.4862304925918579], [1.5474599599838257, -0.8710496425628662, 0.6134020686149597]], [[0.713046669960022, 0.39255818724632263, -0.5909530520439148], [0.6274950504302979, -0.4384460151195526, 0.8468014001846313], [-0.859839916229248, 0.723540186882019, -0.28854596614837646]], [[0.8176714777946472, -0.21659991145133972, -0.4230038523674011], [0.4137096107006073, 1.818496823310852, -0.2852560877799988], [-0.7990366220474243, -0.6696292757987976, 0.36722975969314575]], [[0.19287241995334625, -0.4950929582118988, -2.508498430252075], [-0.2684478461742401, -0.1718313843011856, 0.801642119884491], [0.2106342613697052, -0.24373650550842285, -0.49668648838996887]], [[-0.4422139823436737, -0.6707890629768372, -0.07950650900602341], [0.47403550148010254, -0.7623355984687805, 0.9439972043037415], [0.09181728214025497, 0.28839340806007385, 0.1565636843442917]], [[-0.0018468557391315699, 0.8429756164550781, 0.1988796889781952], [0.39657410979270935, -0.13152751326560974, 0.8067701458930969], [-1.918977975845337, -0.12305570393800735, -0.8321396708488464]], [[-0.5872357487678528, 0.6249111294746399, -0.7813723683357239], [0.42015281319618225, -0.09961564093828201, 0.6955779194831848], [1.09061861038208, 0.5795167684555054, -0.17851871252059937]], [[0.43452730774879456, -0.605130672454834, 0.6142269968986511], [-0.6108828186988831, 0.8780312538146973, -0.36248335242271423], [0.2698018252849579, -0.3278968334197998, 0.5110570788383484]], [[-0.48061707615852356, -0.0815432146191597, 1.0302512645721436], [0.325092613697052, 0.25798091292381287, -0.0687408447265625], [-2.300891637802124, -0.4442023038864136, -0.014233622699975967]], [[-0.721450686454773, 0.9005205631256104, -0.14166679978370667], [-0.6635434031486511, -0.40472233295440674, -0.44696393609046936], [-0.5770866870880127, -0.21621450781822205, -0.017068274319171906]], [[0.8547449707984924, -0.0014612985542044044, -1.1299607753753662], [-0.5852603316307068, 0.4736555814743042, 1.763467788696289], [1.2031720876693726, 0.5809119343757629, -1.3865243196487427]], [[-1.2384108304977417, -0.184712752699852, 0.5891634821891785], [-0.6689471006393433, 1.5621870756149292, 0.5954899787902832], [-4.650908946990967, 0.9973398447036743, -1.0847899913787842]], [[0.07678128778934479, -0.11446995288133621, 0.8362832069396973], [-0.29205775260925293, -0.9916632771492004, 0.8096606731414795], [-0.1644529551267624, -0.28611859679222107, 0.9902990460395813]], [[-0.030954355373978615, 0.46764999628067017, 0.16529850661754608], [0.1937142312526703, -1.244909644126892, 0.008793690241873264], [-0.38858339190483093, -0.8697351217269897, 0.32557785511016846]], [[-0.13767027854919434, -0.22752122581005096, 0.23956795036792755], [-0.09817250818014145, 0.05971322953701019, 0.29391908645629883], [0.08684827387332916, -1.1654431819915771, -0.14155778288841248]], [[-0.8699466586112976, -0.4052262008190155, 0.10917021334171295], [-0.4251388907432556, -0.6887648105621338, -0.750969648361206], [-0.8011304140090942, 0.3109632730484009, 0.16572898626327515]], [[0.18622122704982758, 0.021498864516615868, 0.32384783029556274], [0.22198541462421417, -0.3389929533004761, -0.08025478571653366], [1.8203074932098389, -0.10869566351175308, 0.36198604106903076]], [[0.09151110053062439, 0.5941029787063599, 0.3231513202190399], [0.581709086894989, -0.4122512936592102, -0.7271195650100708], [1.8502418994903564, -1.276031255722046, 0.6369041204452515]], [[0.4537411630153656, -0.08438286185264587, 0.36035430431365967], [-0.5568316578865051, 0.33770671486854553, 0.04121435806155205], [-0.04964115843176842, 0.40250158309936523, -0.17077605426311493]], [[0.00341957644559443, -0.4005977511405945, -0.4456133544445038], [-0.37682458758354187, 0.9013079404830933, -0.7680918574333191], [-0.5261489748954773, 0.13681229948997498, 0.1319497674703598]], [[0.2982761263847351, 1.0836646556854248, 0.4085504412651062], [0.7565873265266418, 0.2888906002044678, -0.9619746804237366], [-0.14931419491767883, 0.28071391582489014, 0.10187657177448273]], [[0.01351623609662056, -0.07946684211492538, -0.6853164434432983], [-0.23178814351558685, -0.020492490381002426, 0.057037103921175], [0.8936887383460999, -1.677790641784668, 0.3100738525390625]], [[-0.32693350315093994, -0.9276902675628662, -0.26466912031173706], [0.010199113748967648, 0.8426244258880615, -0.14594554901123047], [-0.08519531786441803, -0.7064523100852966, -0.2843756079673767]], [[0.5144597887992859, -1.1270142793655396, 0.3248935043811798], [-0.15537044405937195, 0.21371982991695404, 0.7563254237174988], [0.9580724835395813, 0.019245324656367302, 0.759082019329071]], [[-0.0520484633743763, 0.8079262375831604, 1.387620449066162], [-0.1974346935749054, 0.05740264803171158, 0.39393967390060425], [1.7116482257843018, 0.9876954555511475, -0.4033665955066681]], [[0.10661159455776215, 0.1823609173297882, 0.2785379886627197], [0.42561471462249756, -0.08670154213905334, -1.1834313869476318], [0.6095307469367981, -1.0727804899215698, -0.5669707655906677]], [[-0.45415496826171875, -0.8442520499229431, -0.4889552593231201], [-0.11249706149101257, 0.8310830593109131, -0.5896530747413635], [0.28634679317474365, -0.29242923855781555, -0.13950499892234802]], [[0.5263690948486328, -0.3020739257335663, -0.4577382802963257], [1.064133882522583, 0.4976547956466675, 1.2875477075576782], [-1.3159171342849731, 0.7856961488723755, -0.569251298904419]], [[0.12448111176490784, 0.2595488727092743, 1.5192625522613525], [-0.3879895508289337, 0.9564832448959351, -0.16861996054649353], [-0.18174946308135986, 0.004207737743854523, 0.5406095385551453]], [[-0.030151186510920525, -0.42163681983947754, 0.269034743309021], [-0.016333745792508125, -0.9244619607925415, 0.12421363592147827], [-0.07103127986192703, -0.2864694893360138, -1.4970892667770386]], [[0.25790640711784363, 0.25000062584877014, -0.8254954218864441], [-0.19933782517910004, -0.07477789372205734, -0.6302316784858704], [0.505456805229187, -0.34155595302581787, 0.053794167935848236]], [[-0.28341513872146606, -0.425576776266098, -0.5613960027694702], [0.040398575365543365, 0.3907543420791626, 0.3687485158443451], [-0.5520258545875549, -0.7508810758590698, 0.32087504863739014]], [[0.7992574572563171, -1.4434821605682373, -1.5335646867752075], [-0.5577592253684998, -0.46487072110176086, -0.8162301182746887], [1.462915062904358, -0.598475992679596, 0.2593427896499634]], [[0.33087387681007385, 0.8490737676620483, -1.541226863861084], [-0.14319398999214172, 0.5866041779518127, 0.11452172696590424], [0.6618567705154419, 0.21428003907203674, -0.5801917314529419]], [[-0.41887810826301575, -0.6776720881462097, 0.7070235013961792], [-0.3140007257461548, 0.037778474390506744, 0.8140453100204468], [-0.9453324675559998, -0.4437023401260376, 0.1952279806137085]], [[0.539435088634491, -0.3678167164325714, 0.3181723356246948], [0.7699676156044006, -0.4476424753665924, -0.04965254291892052], [-2.2076900005340576, 0.3094030022621155, 0.6080833673477173]], [[0.6504610180854797, -0.49356400966644287, -0.09121033549308777], [-0.3569352626800537, 0.5908269882202148, 0.5451607704162598], [1.3350898027420044, -0.0916457548737526, 0.003991913516074419]], [[1.3276485204696655, 0.593478798866272, 0.5043155550956726], [0.3416416645050049, 0.2007933259010315, -0.6087007522583008], [-0.2965373396873474, 0.2758500874042511, 0.06940107047557831]], [[0.6888437867164612, 0.3108169138431549, -5.288822174072266], [0.0873209685087204, 3.1905410289764404, -0.5647828578948975], [-0.3414057493209839, 0.051090940833091736, -0.17400126159191132]], [[0.12075754255056381, 0.5197824239730835, 1.6583510637283325], [-0.4572347402572632, 0.3422597050666809, -0.8765898942947388], [0.8241174817085266, 0.36215898394584656, 0.2735900282859802]], [[-0.1485518217086792, -0.1760038137435913, 0.7846139669418335], [0.030116572976112366, 0.5902712345123291, 0.053807880729436874], [-2.1265408992767334, 0.3965984582901001, 0.3711278736591339]], [[0.5942890048027039, 0.2878357172012329, -0.3957657814025879], [0.23532171547412872, 0.05428026244044304, -0.04279514029622078], [-1.748429536819458, 0.6091247797012329, 0.24043498933315277]], [[-0.36663734912872314, -0.21713829040527344, -0.6282134652137756], [-1.3226561546325684, -0.49958908557891846, 0.5720829367637634], [-0.9078641533851624, 0.22719807922840118, 0.07775819301605225]], [[-0.4831395447254181, 0.5466766357421875, -0.07465488463640213], [-0.14408084750175476, 0.08709042519330978, -0.14593474566936493], [0.48932984471321106, 0.1801508218050003, -0.394484281539917]], [[-0.30794063210487366, 0.102504663169384, 0.07449360936880112], [-0.3828466534614563, 0.9020478129386902, 1.2413396835327148], [0.40978607535362244, 0.7995932102203369, -0.07084028422832489]], [[0.4970344603061676, -0.47208309173583984, 1.4244078397750854], [1.3320499658584595, 0.1669272780418396, -0.06277308613061905], [-0.7962230443954468, 0.985473096370697, -0.2924604117870331]], [[0.13907752931118011, 0.9980687499046326, -0.3961995840072632], [-0.2944854199886322, 0.40916889905929565, -0.19464778900146484], [-0.06922857463359833, 0.9243360161781311, -0.059262219816446304]], [[0.6364134550094604, 0.24023734033107758, -0.724521815776825], [0.08463409543037415, -0.3165830969810486, 0.5562920570373535], [0.2635839879512787, -1.1341761350631714, -0.2264871597290039]]], [[[-0.9662737250328064, 0.6474000811576843, 0.28214940428733826], [-0.23415398597717285, 0.0994361937046051, 0.15074585378170013], [-0.7188011407852173, -0.33670756220817566, -0.6705793142318726]], [[0.030849166214466095, -0.7008422017097473, -0.5561426281929016], [0.06661569327116013, 0.4124707877635956, 0.4303613603115082], [1.0576157569885254, -0.9983281493186951, -0.6753349900245667]], [[0.6004167795181274, 0.4779032766819, -0.5156689882278442], [0.5495381355285645, -0.03283661603927612, 0.3028172254562378], [0.9676390886306763, -0.6831781268119812, -0.22411656379699707]], [[0.047472670674324036, 0.2865529954433441, -0.18304607272148132], [0.2515392303466797, -0.20616114139556885, 0.056918710470199585], [-0.44083142280578613, -0.5384960770606995, -0.6011619567871094]], [[0.050625063478946686, -0.5743034482002258, -0.7520865797996521], [0.2525433599948883, -1.8541409969329834, 1.082708716392517], [1.0508569478988647, -0.15370817482471466, -0.05188770592212677]], [[-0.6942480802536011, 0.5022594928741455, -0.8519164323806763], [0.46352508664131165, 0.41695457696914673, 0.7668001651763916], [-0.42934149503707886, 0.48935467004776, 0.310605525970459]], [[-0.015572750940918922, 0.703490674495697, -0.6559900641441345], [-0.7433273792266846, 0.4594425559043884, -0.44629794359207153], [0.9378868937492371, -0.23432989418506622, -0.32370099425315857]], [[0.3483005166053772, 1.1573718786239624, 0.03225143998861313], [0.23065629601478577, -1.0045690536499023, 0.4730236828327179], [-0.1780979186296463, -0.21545135974884033, 0.3081667721271515]], [[-1.1790684461593628, 0.7711073756217957, 0.5892794728279114], [-0.1178293228149414, 2.079197883605957, -0.03924525901675224], [-1.6599669456481934, -0.5381993651390076, 0.7247229218482971]], [[1.0773594379425049, 0.7194011211395264, 0.7023542523384094], [-0.39335349202156067, 0.3382214605808258, -0.5935096144676208], [-0.14258462190628052, 0.1792782098054886, 0.2743052840232849]], [[-0.4346570670604706, 0.5676554441452026, 0.4213079810142517], [0.9315387010574341, -0.3678864538669586, -0.14748497307300568], [-0.656994104385376, -0.26871031522750854, -0.24334795773029327]], [[-0.29003438353538513, 0.6879814267158508, 0.4970153272151947], [0.08181669563055038, 0.14515450596809387, -0.8299660086631775], [0.19575288891792297, -0.7074480652809143, -0.4087914228439331]], [[0.2941189408302307, 0.10122057050466537, -1.0635133981704712], [1.3047199249267578, 0.9478462338447571, -0.061257604509592056], [-0.8620629906654358, 0.4868066906929016, -0.11111589521169662]], [[-0.42212143540382385, 0.7492578625679016, -0.3321211338043213], [-0.31786981225013733, -0.2878837585449219, 0.7056768536567688], [-0.21134786307811737, -1.013594388961792, -0.9582479596138]], [[0.49471279978752136, -0.08931197971105576, -0.26745790243148804], [1.8082371950149536, 0.3936856687068939, 0.21552260220050812], [-0.07948721945285797, -0.5447003245353699, 1.1477383375167847]], [[-1.8259092569351196, 0.8544727563858032, -0.04454610496759415], [0.6319436430931091, 1.159544825553894, 0.27124711871147156], [-0.5585528612136841, -1.2597347497940063, -0.588235080242157]], [[-0.2753799259662628, 0.4936865270137787, 1.0123401880264282], [-0.08918415755033493, 0.4446801543235779, -1.030892014503479], [0.3755497634410858, 0.1604100465774536, 0.7523963451385498]], [[0.08381698280572891, -0.381534606218338, 0.44051116704940796], [-1.8145332336425781, -0.4282459318637848, 0.6988995671272278], [-1.2298862934112549, -1.3571375608444214, -1.285808801651001]], [[-0.6212119460105896, 0.011442286893725395, 0.9960533380508423], [-0.3100201189517975, 0.6520419120788574, 0.10782328993082047], [0.5740742087364197, 0.18360881507396698, -0.12704983353614807]], [[0.2502724528312683, 0.5279378890991211, 0.43229302763938904], [0.15346300601959229, 0.4969140887260437, 0.4657544791698456], [-0.3138408660888672, -0.6002123951911926, -0.13758248090744019]], [[1.1477692127227783, -0.0012218276970088482, -0.19044101238250732], [-0.9608969688415527, -0.7363309860229492, -0.22532926499843597], [-0.27323076128959656, 0.9898578524589539, 0.7877618670463562]], [[-0.9575258493423462, -0.4915023446083069, 0.23208969831466675], [-0.869611918926239, -0.334150105714798, 0.25622838735580444], [-0.517244279384613, 0.2943473756313324, -0.2364293336868286]], [[-0.2755155861377716, -0.9276219606399536, -1.3636561632156372], [0.6877976655960083, 0.6318550109863281, -0.28004956245422363], [0.5771276354789734, -0.8925219178199768, -0.4944410026073456]], [[-1.7264833450317383, -0.4665069878101349, 1.4642413854599], [-3.543185234069824, 0.3661240041255951, -0.07188116759061813], [-0.5151609182357788, -0.33214065432548523, 0.9024541974067688]], [[0.8194989562034607, -0.46052253246307373, -0.93967205286026], [0.1025613397359848, -0.06955105066299438, -0.1374034732580185], [-1.2160784006118774, -1.2947827577590942, -0.03151168301701546]], [[0.31958767771720886, 0.8958663940429688, 0.4366474151611328], [0.5389716029167175, 0.9648523330688477, -1.4629099369049072], [-1.4811313152313232, 0.11858486384153366, 0.44423556327819824]], [[-0.06044584512710571, -0.7792381644248962, -1.3902472257614136], [0.15281814336776733, 0.1984291672706604, 0.326778382062912], [0.21422353386878967, -0.8966832160949707, -0.672508180141449]], [[0.18816643953323364, -0.5207529664039612, -0.5381160378456116], [0.221953883767128, -0.4251008629798889, -0.24714742600917816], [0.7921754121780396, -0.8127380609512329, 0.7223501205444336]], [[-0.41685906052589417, -0.05190210044384003, -0.7058988809585571], [-0.2609347105026245, -0.7212415337562561, -0.13072997331619263], [-1.6193029880523682, 0.0952443927526474, 0.16501672565937042]], [[-0.6404220461845398, 0.25705286860466003, 0.796613872051239], [0.5183979868888855, 0.6412366628646851, -0.43587854504585266], [1.0525614023208618, -3.674107074737549, -0.27702173590660095]], [[0.1893800050020218, 0.022902827709913254, 1.0894370079040527], [0.2563563883304596, 0.7052826285362244, -0.21632343530654907], [0.31999504566192627, 0.8252962827682495, -0.5785789489746094]], [[0.08617653697729111, 0.01930517889559269, 0.5893617868423462], [0.6254010200500488, -0.702641487121582, -0.6333773732185364], [0.9335809946060181, 0.015709616243839264, 0.4666453003883362]], [[0.8886451125144958, -0.5251070857048035, -0.3685351312160492], [-0.503071665763855, -0.81488037109375, -0.420818954706192], [1.789096713066101, -0.3911052346229553, -0.3417902886867523]], [[1.3549400568008423, -0.2818257808685303, 0.3115232288837433], [0.31517356634140015, 1.0553538799285889, -0.2682127356529236], [2.565542697906494, 0.2713575065135956, 0.3661642372608185]], [[0.43614786863327026, 0.45182743668556213, 0.1953534036874771], [-0.7416102290153503, -0.79758220911026, 0.10199180245399475], [-0.5244721174240112, 0.30243515968322754, -0.3453800082206726]], [[-0.2665378153324127, -0.3525013029575348, -0.1341685950756073], [-0.8629173040390015, 0.09091407805681229, 0.11325106769800186], [-0.8484830260276794, -1.168029546737671, 0.8467798233032227]], [[0.7040768265724182, -0.45903536677360535, 0.9777469038963318], [0.149439737200737, -0.6706156134605408, -0.4164230227470398], [0.8450242877006531, 0.24145416915416718, 1.011329174041748]], [[-0.464816153049469, -0.8041994571685791, 0.28428947925567627], [1.2329579591751099, 0.8669370412826538, -0.3205796182155609], [-0.3632567822933197, 0.5744938850402832, 0.34460893273353577]], [[0.31771671772003174, -0.6343632340431213, 0.38242900371551514], [0.9331148862838745, 0.37839531898498535, 0.22264450788497925], [0.40501856803894043, 0.154393270611763, 0.8637723326683044]], [[-0.4742448031902313, 0.30142471194267273, 0.4564632773399353], [-0.4284949004650116, -0.827653169631958, 0.5442371368408203], [-0.6161752939224243, -0.5891310572624207, 0.808899998664856]], [[1.7358096837997437, -0.7457790970802307, 0.3239392638206482], [0.9049165844917297, 0.21272388100624084, -0.6671714782714844], [0.6046171188354492, -0.4956158697605133, -1.4332215785980225]], [[0.0911819115281105, -0.07293681800365448, -2.055236339569092], [0.7789493203163147, 0.883043110370636, 0.028450101613998413], [-0.04753493517637253, -0.9104207754135132, 0.11555181443691254]], [[1.134981632232666, -0.9070745706558228, -1.1130836009979248], [-1.0922445058822632, 0.8444328904151917, -0.7689877152442932], [-0.6995521187782288, 0.20225493609905243, -0.5146235227584839]], [[-0.7780896425247192, 2.035757541656494, 0.11017167568206787], [-1.696506142616272, 0.5438767075538635, 0.6240813732147217], [-0.6484631299972534, -0.2746868133544922, -0.6272035837173462]], [[0.439156174659729, 0.8100448846817017, 0.5696732401847839], [-0.167015939950943, -0.39437243342399597, 0.6571036577224731], [-0.8791288733482361, -0.601338803768158, -1.3062602281570435]], [[-0.30275198817253113, -0.7786248326301575, -1.3883092403411865], [0.04879514500498772, 1.0135611295700073, -0.5858765840530396], [-0.23254336416721344, -0.21841657161712646, 0.28411972522735596]], [[0.889998197555542, -0.5680657625198364, 0.018258044496178627], [-0.42577800154685974, 0.03152105584740639, -1.141886591911316], [1.097233533859253, -0.29755768179893494, -0.26922160387039185]], [[1.0713297128677368, -0.41314759850502014, -0.21328730881214142], [-0.2433280348777771, 0.45175808668136597, 1.0503727197647095], [-1.3157942295074463, 0.1575322151184082, -0.6077713966369629]], [[-0.05724405497312546, -0.08496442437171936, 0.6631132960319519], [-0.9373289346694946, 0.8465669751167297, -0.4634324610233307], [0.47289806604385376, 1.4443345069885254, -0.2546207904815674]], [[0.18136093020439148, -0.8600555062294006, -0.5487815737724304], [0.30944696068763733, -0.30182313919067383, -1.8115179538726807], [-0.18094243109226227, -1.6688284873962402, 0.1844514161348343]], [[1.397664189338684, 0.38918963074684143, 1.3030043840408325], [-0.8599660396575928, 0.07170087099075317, 0.14454300701618195], [1.005031704902649, 0.6756686568260193, 1.37051522731781]], [[0.5921899676322937, -0.35596632957458496, 0.4137483537197113], [0.17473427951335907, -0.813356876373291, -0.29877302050590515], [-0.5682803392410278, -1.0803852081298828, -1.4422366619110107]], [[0.6397321224212646, 0.7550675868988037, 0.4198133945465088], [0.9831940531730652, -0.5568385124206543, 0.0008453276241198182], [0.391760915517807, -1.2568012475967407, -1.0766403675079346]], [[0.22631920874118805, -0.8560095429420471, 0.27231669425964355], [-2.215421199798584, -0.18151575326919556, 1.3263546228408813], [-0.695838987827301, 0.5887247323989868, -0.16828322410583496]], [[-0.10213692486286163, 0.6429709792137146, 0.682853102684021], [0.23412631452083588, -0.43787723779678345, 0.07698782533407211], [0.0859537124633789, 0.3440379798412323, -0.23060043156147003]], [[-0.2983119487762451, 0.10864056646823883, -0.05470876395702362], [0.878876268863678, 0.555008053779602, -0.31178587675094604], [-2.6823906898498535, -2.497588634490967, -0.35248950123786926]], [[0.2982906997203827, -1.0791761875152588, 0.45270952582359314], [-0.42489176988601685, -1.2598661184310913, -0.47821366786956787], [-0.8227731585502625, 0.05985196307301521, 0.05771811306476593]], [[-0.0756106749176979, 0.6320049166679382, 0.43599480390548706], [-0.5030566453933716, 0.24521522223949432, 0.8658561706542969], [-0.8473398089408875, -0.06442778557538986, -1.2922104597091675]], [[-0.2307085543870926, -0.21971294283866882, 0.4074963629245758], [-1.2136057615280151, 0.7146531939506531, -0.5493725538253784], [-0.726142942905426, 0.3191952407360077, -0.6526124477386475]], [[-0.3606005907058716, -0.40412718057632446, 0.03113439492881298], [-1.0367876291275024, 0.6864364743232727, 0.04478349909186363], [-0.7126702070236206, -0.5270758867263794, 0.4381476044654846]], [[0.0738738626241684, 0.5600599050521851, 0.8990561366081238], [0.37078213691711426, 0.04793974384665489, -1.246581792831421], [1.0481882095336914, -1.1857415437698364, 0.46014517545700073]], [[-2.208742141723633, -0.01087951846420765, -0.14026978611946106], [-0.5645996928215027, 0.09815651923418045, 0.4626283347606659], [0.7449779510498047, 0.6438391208648682, 0.9482190012931824]], [[-1.371145248413086, -0.425031840801239, 0.07132325321435928], [1.5914430618286133, 0.3485989272594452, -0.5833910703659058], [-0.6329293847084045, 0.2716027796268463, 0.25587013363838196]], [[0.6742141842842102, 0.2038603276014328, -0.4535315930843353], [-1.358446478843689, -0.7502521276473999, 0.16791614890098572], [0.4689862132072449, 0.11460062116384506, -1.7305742502212524]]], [[[0.6805655360221863, -0.2874278128147125, -0.47472187876701355], [-0.14591507613658905, 0.029724135994911194, 0.21259155869483948], [-0.46863043308258057, 0.20575450360774994, -1.5149437189102173]], [[0.1716109961271286, 0.5768073201179504, -0.4381283223628998], [-0.740628719329834, 0.44874149560928345, -0.9295124411582947], [-1.1753181219100952, -0.5544759035110474, -1.3195463418960571]], [[-0.2976517081260681, 0.517332136631012, -0.5073904991149902], [0.5149286985397339, -0.5207586884498596, 0.4327490031719208], [-2.793588161468506, -0.2643628418445587, -0.0663999542593956]], [[-0.5490511655807495, -0.25947481393814087, 0.37980717420578003], [1.148301124572754, 0.463050901889801, 0.2971350848674774], [1.0439729690551758, -2.114774703979492, 0.14806225895881653]], [[0.026451820507645607, -0.8015275001525879, -0.59723961353302], [-1.355048418045044, -0.44411182403564453, -1.529442310333252], [-0.32829591631889343, -0.3142124116420746, -0.6616005301475525]], [[0.17195259034633636, -0.02745477855205536, 0.83161860704422], [-1.330115556716919, -0.6803926825523376, 0.8899173140525818], [-0.36248892545700073, 0.1241702288389206, -1.9377886056900024]], [[-0.9106971621513367, 0.33129680156707764, -0.7317770719528198], [0.05141974240541458, 0.14843983948230743, 0.15555749833583832], [0.4405333399772644, 0.8642672300338745, -1.0151042938232422]], [[-0.74345862865448, 0.4954202473163605, 1.6319411993026733], [-0.43966349959373474, 1.0822243690490723, 0.30323439836502075], [0.05041539669036865, 0.4323517382144928, 1.3760586977005005]], [[0.03093147650361061, 0.310171514749527, 0.04488895460963249], [-0.956536054611206, 1.0124708414077759, -0.8627997636795044], [-1.5494517087936401, -1.4367231130599976, -0.5040886402130127]], [[-0.8621968626976013, -1.472395420074463, 0.4470493495464325], [-0.8945382833480835, 0.10292094945907593, 1.2998379468917847], [-0.18018975853919983, -0.6464771032333374, -0.10690242052078247]], [[0.03747600317001343, 1.0709761381149292, -0.41527682542800903], [0.6032090187072754, 1.488264560699463, 0.4912392795085907], [-0.6175037622451782, -1.1871461868286133, -1.147057056427002]], [[0.04084646329283714, 0.12522545456886292, -0.9049566388130188], [-0.30243733525276184, 0.3355603516101837, -1.0418012142181396], [-1.55619215965271, 0.4262067973613739, -0.45144593715667725]], [[-0.9943096041679382, -0.8371831178665161, -1.1875660419464111], [0.2513136565685272, 0.07399988919496536, -0.4757908284664154], [-0.25912854075431824, 0.1266748309135437, -1.488148808479309]], [[-0.2637154459953308, -1.5324956178665161, -0.3600405752658844], [-1.0270956754684448, -0.38007083535194397, -0.47658199071884155], [0.34307509660720825, -0.8517163991928101, -0.494265079498291]], [[0.10524432361125946, 0.09794457256793976, 0.02536572329699993], [-1.266253113746643, -0.13939519226551056, -0.7647477388381958], [0.8116118311882019, 0.488503634929657, -0.028150061145424843]], [[-0.26536867022514343, -0.3548104763031006, -0.4998757541179657], [0.1880825161933899, -1.0088505744934082, -1.9820975065231323], [-0.8757738471031189, 0.17830915749073029, -1.0919245481491089]], [[-1.5491937398910522, -0.5524742603302002, -0.14775539934635162], [0.9112221002578735, -0.14995451271533966, 0.42694714665412903], [-1.299371361732483, 0.3867456912994385, -0.049660325050354004]], [[0.7402068376541138, 0.5112863183021545, -0.35064494609832764], [-0.6286361813545227, 0.31571969389915466, 0.05612752586603165], [0.9592218995094299, 0.42592862248420715, -0.5990051627159119]], [[-0.031767018139362335, 0.2516566514968872, -0.033308129757642746], [0.21043674647808075, 0.824882984161377, -0.22123689949512482], [-1.0051040649414062, 0.34982529282569885, -0.6685882210731506]], [[0.4804876148700714, 0.23175987601280212, 0.6455980539321899], [0.6270563006401062, 0.7385680079460144, 0.9438750147819519], [0.5895891189575195, -0.0558713898062706, 0.7737327218055725]], [[-0.1761014759540558, -1.1885912418365479, 0.45408669114112854], [-0.8420314788818359, 0.3232079744338989, -0.001632197992876172], [-0.18948787450790405, -0.0044415853917598724, -0.4084564745426178]], [[0.9940710067749023, -1.4708213806152344, -0.4742572605609894], [0.9209941029548645, 1.1706342697143555, 0.7602132558822632], [0.22129490971565247, -0.6133369207382202, 0.09434536844491959]], [[-0.37973490357398987, 0.4962978959083557, 0.28754833340644836], [0.10922154039144516, 0.09058418869972229, 1.4284344911575317], [0.25657913088798523, -0.34168481826782227, -0.956706166267395]], [[0.4212248921394348, -0.21331347525119781, 0.35316550731658936], [0.43185338377952576, -0.40207773447036743, 1.0252399444580078], [-0.2766338288784027, -1.5398402214050293, -1.2504315376281738]], [[0.8847354650497437, 0.6454936265945435, -1.7735469341278076], [0.6022105813026428, 0.07927495986223221, 0.2839047908782959], [0.4609782099723816, 0.45197737216949463, -1.2288812398910522]], [[-1.815881609916687, 0.4254330098628998, 1.08254873752594], [-0.6483474373817444, 0.3704415559768677, 1.2252402305603027], [0.6263247132301331, 0.8123242855072021, 1.4011989831924438]], [[-0.2883378267288208, 0.6940736770629883, 0.8219850659370422], [1.0770403146743774, -0.20858550071716309, 0.17328640818595886], [-1.052517056465149, -0.337755024433136, -0.6953040361404419]], [[1.0838181972503662, 0.2344675064086914, 0.4609450399875641], [-0.5395658612251282, 0.15912607312202454, 0.8784665465354919], [-0.12598773837089539, 0.026903847232460976, 0.4011377990245819]], [[-2.039780378341675, -0.17925696074962616, -0.5081172585487366], [-1.6258125305175781, -0.39611130952835083, -0.43087729811668396], [-0.5049321055412292, -0.01983734965324402, -1.4101568460464478]], [[0.5811941027641296, -0.8095968961715698, 0.05958813801407814], [-0.34160128235816956, -0.42290541529655457, -2.4354512691497803], [1.1329278945922852, -0.29097285866737366, 0.4156622886657715]], [[-0.12996989488601685, -0.046351052820682526, -0.46151262521743774], [1.074854850769043, -1.1300127506256104, 0.11783649772405624], [0.07600279152393341, 0.19739724695682526, -0.5782991647720337]], [[-0.3493550717830658, -0.5662835836410522, -1.7057498693466187], [0.9195656776428223, 0.49395906925201416, 0.2622954547405243], [-0.22271651029586792, 0.34867942333221436, -0.9709072113037109]], [[0.44333508610725403, -0.13383430242538452, -1.1482012271881104], [0.10774920135736465, -0.7704768776893616, 0.13006052374839783], [-1.7620577812194824, 0.315504789352417, 0.6957207322120667]], [[0.22292746603488922, -0.31388095021247864, -0.6977660059928894], [0.23867224156856537, 0.5689371228218079, 0.6277526617050171], [-1.4207221269607544, 0.38425493240356445, 0.12920056283473969]], [[0.19105938076972961, -0.08825548738241196, 0.5454142093658447], [-0.3475615084171295, -0.5554771423339844, -0.9990331530570984], [1.4540841579437256, -0.21111918985843658, -0.3266058564186096]], [[-0.6857051849365234, 0.684249222278595, -1.3160516023635864], [0.7147055864334106, -0.35331881046295166, -0.32292240858078003], [1.3450679779052734, 0.15802668035030365, -0.08574672043323517]], [[0.18168160319328308, 0.350844144821167, -0.03168855234980583], [-0.5074277520179749, 0.5219393372535706, -0.030526045709848404], [1.2501862049102783, 0.0259197186678648, 0.42747241258621216]], [[-0.3053158223628998, 0.6184953451156616, 0.7466458082199097], [-1.2449837923049927, -0.16484478116035461, 0.6092901229858398], [-1.02714204788208, 0.2853941321372986, 0.38767072558403015]], [[0.09694842249155045, -0.2520332932472229, -1.2716313600540161], [-0.8013539910316467, 0.3608154356479645, 0.06394551694393158], [-0.0035448723938316107, -0.5784214735031128, -0.6982877254486084]], [[0.20878374576568604, -0.23735001683235168, -0.31652936339378357], [0.07761090993881226, -0.6538690328598022, 0.10157574713230133], [-0.3551122546195984, 1.0298634767532349, 0.8222056031227112]], [[-0.6416026949882507, -1.0271209478378296, 0.28222060203552246], [0.034212760627269745, 0.4237981140613556, 0.6296876072883606], [-0.09280918538570404, 0.670788049697876, -0.43941807746887207]], [[-0.30068495869636536, 0.1880541443824768, 0.299268901348114], [-0.7298274040222168, 1.0388450622558594, -0.7235132455825806], [-0.9447934627532959, -0.3240823447704315, 0.372134804725647]], [[-0.029007546603679657, 0.6534587740898132, -1.4342488050460815], [-0.22898618876934052, 1.2811856269836426, -1.0958653688430786], [1.3556631803512573, -0.47942686080932617, -0.45660465955734253]], [[0.49207794666290283, -1.0644835233688354, -0.602409839630127], [0.21637830138206482, -0.5715799331665039, 1.1849234104156494], [-0.3281250298023224, 0.9712918996810913, 0.4243280291557312]], [[-1.1612712144851685, -0.30156758427619934, 0.014474990777671337], [-0.663334310054779, -0.7991831302642822, 0.24895204603672028], [-0.12498941272497177, -1.5891883373260498, -0.0007682940340600908]], [[0.7747254967689514, 0.07118021696805954, 0.6002342700958252], [-1.891340732574463, 0.8318835496902466, 0.4289574921131134], [-0.9378782510757446, -1.0024385452270508, -1.4052757024765015]], [[0.1883212924003601, 0.4725724160671234, 0.8927501440048218], [-0.18416652083396912, -0.01976448856294155, -0.44174784421920776], [1.5111463069915771, -1.184985876083374, 0.3852376639842987]], [[-1.4548734426498413, -0.10223617404699326, -0.055516354739665985], [-0.6066927313804626, 0.8411004543304443, 0.1998925656080246], [-0.7857349514961243, -1.9930953979492188, -0.31570249795913696]], [[-0.7533641457557678, -0.732768714427948, 0.6601665616035461], [-0.38014286756515503, -0.9193226099014282, -0.9645166993141174], [-0.5239141583442688, -0.2781132161617279, -0.3627840280532837]], [[1.0640382766723633, -0.19669345021247864, 1.1305229663848877], [0.07044121623039246, 0.13556991517543793, -0.4054822325706482], [0.4697180390357971, -0.8409874439239502, -0.4063078463077545]], [[-1.038943886756897, 1.2311935424804688, 0.04753125458955765], [-1.0514458417892456, 1.24058997631073, 2.18766188621521], [-0.4235142767429352, 1.104044795036316, 0.9563822746276855]], [[0.055790308862924576, 0.22469276189804077, -0.04044818505644798], [0.7760505676269531, 0.2232722043991089, 1.1187878847122192], [0.6660761833190918, -0.2890380620956421, -0.01184089109301567]], [[0.4456841051578522, -0.3324096202850342, -0.7933995723724365], [0.23134303092956543, 0.5156642198562622, -1.9316462278366089], [-1.9488385915756226, -0.28743165731430054, -1.244147777557373]], [[-0.27492421865463257, -0.8038424849510193, -0.34143921732902527], [-0.3764697313308716, -0.4719146192073822, 0.5893114805221558], [-0.7737530469894409, 0.4190167188644409, 0.20267362892627716]], [[-0.23462583124637604, 0.6247650980949402, 0.46123385429382324], [-0.37783530354499817, 0.6268993616104126, 1.5963213443756104], [-0.27884337306022644, 0.05078359320759773, 0.20675528049468994]], [[0.10080453008413315, 0.2274674028158188, 0.9989910125732422], [0.08468671888113022, -0.962496280670166, 1.0372254848480225], [-0.8743150234222412, -0.4827147126197815, 1.3668712377548218]], [[0.694299042224884, 0.3135170638561249, -0.8946704864501953], [0.36555129289627075, -0.06029609218239784, 0.012426369823515415], [-0.39608290791511536, -0.5364376306533813, 0.7531665563583374]], [[0.6719212532043457, 0.9529091119766235, 0.5630483627319336], [0.5772178173065186, -0.6959672570228577, 0.48120880126953125], [0.6541324853897095, -0.2336345911026001, -1.0669183731079102]], [[0.6318535804748535, 0.11950033158063889, 0.1585523635149002], [0.13489662110805511, -0.5185907483100891, -0.3620433211326599], [-0.5974570512771606, 0.1134069561958313, 0.47901400923728943]], [[0.4751509428024292, 0.44250646233558655, -0.38848185539245605], [-0.2804953157901764, -0.9635982513427734, 0.19055263698101044], [-0.29602503776550293, -0.39472493529319763, -0.43394362926483154]], [[0.3880259394645691, 0.8520045876502991, 1.0201025009155273], [-0.8017480969429016, 0.3359740674495697, -0.6414155960083008], [1.4353210926055908, -0.8148379325866699, 0.025621896609663963]], [[-0.38184693455696106, 0.29692116379737854, 0.6853781342506409], [0.37515392899513245, 0.009903722442686558, 0.15058478713035583], [-0.01294897310435772, 0.4221511483192444, -1.5162582397460938]], [[0.16403035819530487, -0.20923025906085968, 0.9437870979309082], [0.03230338916182518, -0.59703129529953, -0.9897895455360413], [1.298413634300232, 1.0824388265609741, 0.4205542802810669]], [[-1.2438960075378418, 0.05137531831860542, -0.7454426288604736], [0.7143192887306213, -0.29796138405799866, 0.5681021809577942], [-0.9287699460983276, 0.9590771198272705, 0.6705023050308228]]], [[[-0.5881449580192566, -0.21569989621639252, 0.5138680338859558], [-0.6631951332092285, -0.1820809543132782, -0.346049427986145], [0.4797041416168213, -0.31066691875457764, -0.8174023628234863]], [[0.5302639603614807, -1.2052640914916992, 0.7247101068496704], [-0.8538098931312561, -0.6179150938987732, -0.16330602765083313], [0.6374261379241943, 0.6813344359397888, -0.5064918994903564]], [[-1.3051424026489258, 0.13597483932971954, 0.6971395015716553], [0.021172305569052696, 0.7355396151542664, -0.15397340059280396], [-0.7980259656906128, 0.7183490991592407, -0.6653371453285217]], [[-2.041037082672119, 0.005774245131760836, -0.5293148159980774], [0.7675589323043823, -0.6658560633659363, 0.012947002425789833], [-0.48204663395881653, 1.2702827453613281, 0.260604590177536]], [[-0.5508159399032593, -1.6554741859436035, -0.03603716939687729], [0.4876466691493988, -1.0378570556640625, 0.7383016347885132], [0.2777065634727478, -0.2335192710161209, 0.5397965908050537]], [[0.8842612504959106, 0.12273772805929184, -1.0689208507537842], [0.11242453753948212, 1.056425929069519, -0.4536842703819275], [-0.00679121445864439, -0.05713052302598953, -0.14667515456676483]], [[-0.4118058383464813, 0.6222744584083557, 0.3904695510864258], [0.1556887924671173, -0.8004361987113953, 0.0897914245724678], [0.87126225233078, 0.20431998372077942, -0.38462862372398376]], [[-0.18168067932128906, 0.850464403629303, 0.001781657338142395], [-0.2245033234357834, -1.0802838802337646, -0.28408166766166687], [-0.5803917050361633, 1.108906626701355, 0.6722322702407837]], [[-0.014408955350518227, -0.7040119171142578, -0.3342599868774414], [0.6533951759338379, -1.4109898805618286, -0.29583966732025146], [-0.48364388942718506, -2.2605624198913574, -0.5128224492073059]], [[0.9683347344398499, -0.032363176345825195, -0.2989097535610199], [-0.7274861335754395, -0.02304784581065178, 1.1520637273788452], [1.2205857038497925, -0.16458533704280853, 0.8083110451698303]], [[-1.0917056798934937, 0.013761808164417744, -1.559319257736206], [-0.40743955969810486, 0.4845433831214905, -0.21066083014011383], [1.2962205410003662, 0.730207085609436, -0.23477479815483093]], [[0.7385119795799255, -0.3689137101173401, -0.7981276512145996], [-0.24353308975696564, -0.41849973797798157, -0.06229649856686592], [-0.399505078792572, 0.7992734313011169, 0.7238084077835083]], [[-0.9068198204040527, -0.7122752666473389, 0.767428457736969], [-0.2729262411594391, 0.4861812889575958, 1.3151425123214722], [-0.26764678955078125, -0.546532392501831, -0.64615398645401]], [[0.5166487097740173, 0.5099125504493713, -0.5292000770568848], [-0.021610325202345848, -0.1932578831911087, -0.26524975895881653], [-0.350882887840271, -0.38857805728912354, -0.01141139306128025]], [[0.7626936435699463, -0.07928088307380676, 1.5246211290359497], [-0.3487991392612457, 0.9995824098587036, -1.6662297248840332], [-0.4787057042121887, -0.22241897881031036, 0.23653678596019745]], [[-0.8735456466674805, -0.5590328574180603, 0.8523648381233215], [-0.06514358520507812, 1.1821776628494263, -0.44670233130455017], [0.1631437987089157, -0.716623842716217, 0.1862328052520752]], [[-0.43226107954978943, -0.9708317518234253, 1.1126965284347534], [0.5165477395057678, -0.17739471793174744, -0.16170530021190643], [-0.08419596403837204, 0.6590010523796082, 0.8756733536720276]], [[-1.8560938835144043, 0.5229460000991821, 0.39410164952278137], [-0.2800632417201996, -0.9656346440315247, 0.011480136774480343], [0.3947954773902893, -1.6665148735046387, 0.44651132822036743]], [[0.15905088186264038, 0.46749430894851685, 0.8230609893798828], [-1.4097079038619995, -1.3135690689086914, -1.721044659614563], [-1.074881911277771, -0.48271873593330383, 0.7873879671096802]], [[0.31992438435554504, 0.12116297334432602, 0.14382222294807434], [0.6959083080291748, -0.5700976848602295, -0.8218775391578674], [-0.05166960135102272, 0.7446936964988708, 1.0070942640304565]], [[0.8817722797393799, 0.37445998191833496, -1.4789304733276367], [-0.11864690482616425, -0.35068202018737793, -0.4301639795303345], [-0.657984733581543, -0.4529225826263428, -0.47169503569602966]], [[1.3331995010375977, -0.16820265352725983, 1.1813549995422363], [-0.943015992641449, -0.5090068578720093, 0.2519046664237976], [-0.551863968372345, -0.012204424478113651, 0.30401119589805603]], [[-1.3695785999298096, 0.1208878755569458, -0.21258310973644257], [-0.5464168787002563, 0.7171891927719116, -0.9448739290237427], [0.2113642543554306, 0.9217962622642517, 1.2740143537521362]], [[-0.08065886795520782, 0.5215898752212524, 1.4543812274932861], [-0.2678997218608856, 0.18430881202220917, -0.34134578704833984], [-0.7202778458595276, -0.5136606097221375, 0.3466074466705322]], [[-0.09563343971967697, -0.40189671516418457, 0.3516691029071808], [0.7187852263450623, 1.1532164812088013, 0.6697807312011719], [-0.7206452488899231, -0.021306032314896584, 0.30824655294418335]], [[-0.8462467789649963, -0.08433322608470917, 0.31944364309310913], [-0.39476996660232544, 0.43055084347724915, 0.5782375931739807], [-0.9713126420974731, -0.8012818694114685, -0.6854103207588196]], [[-0.560006856918335, 0.3542824685573578, 0.016685305163264275], [-0.1839459091424942, 1.3092551231384277, -0.06472385674715042], [0.136366069316864, -0.2125803530216217, 0.8567842245101929]], [[0.18535079061985016, 0.6470924615859985, 0.08083448559045792], [-0.7797388434410095, -0.5340514779090881, 1.3711687326431274], [0.21943174302577972, -0.4974018633365631, 0.8126612901687622]], [[-0.3610924780368805, -0.17205068469047546, -1.0096211433410645], [-1.1867598295211792, -0.1317588835954666, -0.9475540518760681], [-0.45861589908599854, -0.9024235606193542, -1.455957293510437]], [[0.3391697406768799, -1.4254790544509888, -0.968573808670044], [0.0010376160498708487, -1.4002336263656616, 0.7290701866149902], [-0.4843237102031708, 0.431610643863678, 0.7703413367271423]], [[-1.373759150505066, -1.1199015378952026, -0.7396742105484009], [0.021001160144805908, -0.6671369075775146, -0.5282398462295532], [-0.09004373103380203, 1.1333345174789429, -0.3120467960834503]], [[-0.22028806805610657, 0.14609701931476593, -0.29971393942832947], [-0.046417709439992905, 0.5020771622657776, -0.624556303024292], [-1.0490694046020508, 0.7872524261474609, -0.32397618889808655]], [[0.13182148337364197, -0.44682425260543823, 0.740623950958252], [0.3261227309703827, -0.7445497512817383, -0.43338677287101746], [0.8138560056686401, -0.1534924954175949, 0.005772966425865889]], [[-0.4163738191127777, -0.3499561548233032, -0.4964851140975952], [1.9024380445480347, -0.7014625072479248, 0.08217400312423706], [-0.43309444189071655, -2.016718864440918, -0.5970739126205444]], [[-0.6913855075836182, -1.7951678037643433, -1.380690574645996], [0.39300984144210815, -1.432525873184204, 0.42836740612983704], [-0.508830189704895, -0.7081615328788757, -0.6492066979408264]], [[-0.6722337603569031, 0.07898973673582077, 0.5167898535728455], [0.4040449261665344, 0.4729682505130768, 0.6891096234321594], [0.3632037341594696, 1.8530099391937256, 0.23944316804409027]], [[0.04485546424984932, 0.17337940633296967, 0.2918182611465454], [-0.4824782907962799, 0.507066547870636, 0.7380184531211853], [-0.4808238446712494, -0.39012598991394043, 0.01617872714996338]], [[-0.5022789239883423, 0.979974091053009, -1.034512996673584], [-0.24786479771137238, 0.7775231003761292, 0.02877051755785942], [-0.9797409176826477, 1.560908555984497, -0.38758188486099243]], [[1.2983777523040771, -0.6167619228363037, -0.12196974456310272], [1.0414748191833496, -0.545123279094696, 0.5478074550628662], [-1.1303284168243408, 0.08777263015508652, -0.5610779523849487]], [[0.9487015604972839, -1.9291185140609741, 1.3847733736038208], [-0.38615408539772034, -0.011464402079582214, -2.7521026134490967], [2.006261110305786, -0.19130182266235352, 0.8165358901023865]], [[-0.7201762199401855, -0.11979477852582932, -0.26691240072250366], [-0.909445583820343, 0.2433258593082428, 0.19112923741340637], [-0.09981896728277206, 0.6726436018943787, 1.0115501880645752]], [[0.4320090711116791, 0.4977554678916931, -0.8597244024276733], [-0.15203505754470825, -0.054332103580236435, 0.28152573108673096], [-0.08346127718687057, 0.8140534162521362, -0.12002318352460861]], [[0.9531052112579346, 0.39890509843826294, -1.2124003171920776], [1.2862976789474487, -0.5866454839706421, 1.1617722511291504], [-2.662152051925659, 0.7438884973526001, -0.6343756318092346]], [[-0.863247811794281, -2.251889944076538, 0.14946694672107697], 