{"conv1.weight": [[[[0.7577667832374573, -0.8840439915657043, -1.1308984756469727], [0.14327165484428406, 1.1082890033721924, -1.4303466081619263], [0.37623751163482666, 0.5189974308013916, -0.6778885722160339]], [[1.0412194728851318, -3.175220251083374, -0.4227200448513031], [0.25018349289894104, 0.2686731219291687, -0.7201491594314575], [-0.37121447920799255, -0.1339501142501831, 0.08156746625900269]], [[-0.6483424305915833, 0.5961163640022278, 0.14679253101348877], [-0.33170437812805176, 0.5392925143241882, -0.16264621913433075], [-0.5875027179718018, -0.09435288608074188, -0.5304863452911377]]], [[[0.22432145476341248, 0.7846789956092834, 1.3245131969451904], [0.8923903107643127, 0.7065779566764832, 0.36324092745780945], [0.9985941052436829, 0.20741578936576843, -2.1044845581054688]], [[-1.95256769657135, 0.3834191858768463, -1.1745729446411133], [-0.5113392472267151, -0.47362637519836426, -0.3386351764202118], [-0.07054361701011658, -0.3607417345046997, 0.10940243303775787]], [[0.2749972641468048, 0.6543614864349365, 0.46117115020751953], [-0.1588529646396637, -0.1509982943534851, 0.23106585443019867], [0.0076005104929208755, -0.07269605249166489, 0.6528779864311218]]], [[[-0.8923471570014954, 0.7042213082313538, -0.7071481943130493], [0.28605133295059204, 0.11697328090667725, -0.11911972612142563], [-0.2873871922492981, -1.333191990852356, 0.7766928672790527]], [[0.9403294324874878, -0.5595688819885254, -0.06712912768125534], [-0.6923170685768127, 0.44656333327293396, 0.28806763887405396], [1.2748818397521973, -0.16335555911064148, -3.0430045127868652]], [[-0.253787100315094, -0.15613527595996857, -1.2165021896362305], [0.1687614470720291, 0.10335099697113037, -0.5361087322235107], [0.530559778213501, 0.45792198181152344, -0.7199783325195312]]], [[[-0.9488154053688049, 0.8382725119590759, -0.07293123006820679], [-1.4147136211395264, -2.129270315170288, 0.7207236289978027], [0.21317735314369202, -0.47355759143829346, -0.13003797829151154]], [[-0.26825347542762756, -0.4732142686843872, -0.06546208262443542], [-1.7441730499267578, -0.7623293399810791, 1.0279202461242676], [-1.1971157789230347, 0.37653112411499023, 0.21505722403526306]], [[-0.24214144051074982, -0.5247905254364014, -1.0102916955947876], [0.2834039032459259, 0.14796993136405945, -0.018188580870628357], [0.6705489158630371, 0.6141201257705688, -0.11000818014144897]]], [[[0.8226582407951355, -0.3194188177585602, 1.3640373945236206], [-0.3148084878921509, 0.6983337998390198, 0.22284092009067535], [0.801885724067688, -0.2983314096927643, 1.5949268341064453]], [[-0.32437068223953247, -0.15407107770442963, -0.34202906489372253], [0.44993576407432556, -2.090804100036621, -0.3230608105659485], [-0.9043030142784119, 0.010755503550171852, -0.5613415241241455]], [[0.8626094460487366, 0.21222835779190063, 0.14171196520328522], [0.11999185383319855, -0.5255759358406067, -0.4146571755409241], [0.15598566830158234, -0.1672666221857071, 0.15718653798103333]]], [[[-0.4598512351512909, -0.4453381597995758, -0.8345947265625], [-0.9503362774848938, -0.42457056045532227, 0.5050807595252991], [0.9683334231376648, 0.2045547068119049, -1.0402498245239258]], [[0.564553439617157, 0.98036128282547, -1.1678556203842163], [-0.3242836892604828, 1.158945083618164, -1.7832890748977661], [0.6899415254592896, 0.09033428132534027, 0.5716372728347778]], [[-0.2926199734210968, 0.23842446506023407, 0.381819486618042], [-0.4848202168941498, 0.3153769373893738, 0.3856806457042694], [-1.0326616764068604, -0.3773770034313202, -0.7822402715682983]]], [[[0.7081664800643921, -0.114791139960289, 0.49430379271507263], [-1.516100525856018, 0.16412925720214844, 0.3450278341770172], [0.4577837586402893, 0.8752177953720093, -3.3195602893829346]], [[0.9711859822273254, -0.1307152509689331, 0.22032155096530914], [0.8599399924278259, 0.40556755661964417, -0.3187548518180847], [-1.0749328136444092, -0.8634040355682373, 0.5151193141937256]], [[0.7321795225143433, 0.16612474620342255, 0.31258881092071533], [0.3787356913089752, -0.12231238931417465, -0.09786871075630188], [0.3651755750179291, -0.06619690358638763, 0.05720020830631256]]], [[[-0.8945850133895874, 0.15544651448726654, -1.6773505210876465], [0.3385488986968994, -0.7730308771133423, -2.5136847496032715], [-0.3276671767234802, -0.9278122782707214, -0.6721959710121155]], [[0.37419161200523376, -1.013175129890442, 1.0748647451400757], [-0.809704065322876, -0.7648493051528931, 0.10584937036037445], [-0.039575785398483276, -0.30990070104599, 1.9450629949569702]], [[-0.3360588550567627, 0.22518928349018097, 0.47474804520606995], [0.04382304102182388, -0.2046482264995575, -0.08821641653776169], [0.08435288816690445, -0.07402502745389938, -0.07233535498380661]]], [[[-1.9628618955612183, -0.22319360077381134, -0.4494408965110779], [1.5634315013885498, 0.2975497543811798, -0.5667489171028137], [1.2997556924819946, 0.18573282659053802, 0.6097694635391235]], [[-0.10884420573711395, -1.5927300453186035, 0.26695090532302856], [0.8267176747322083, 0.7576985359191895, -0.6758168339729309], [-0.4438033103942871, 0.18470482528209686, -1.745580792427063]], [[-0.09995664656162262, -0.028573693707585335, 0.12327892333269119], [0.12237183749675751, 0.46742355823516846, 0.4164625108242035], [-0.5474235415458679, 0.008736222982406616, 0.23341104388237]]], [[[-2.8448596000671387, 0.3058875501155853, 1.50735342502594], [0.5643585920333862, -0.6667999029159546, 0.04486396908760071], [1.1068097352981567, -0.45815908908843994, 0.4583539664745331]], [[0.6861240863800049, 0.0975966602563858, -0.650913417339325], [-0.6424554586410522, 0.19515229761600494, 0.11164824664592743], [-0.5823548436164856, 0.49679186940193176, 1.2110592126846313]], [[0.7539594173431396, 0.21041050553321838, -0.06304679065942764], [0.4378962516784668, -0.02001245878636837, -0.13889794051647186], [0.12853918969631195, -0.33967626094818115, 0.006333637982606888]]], [[[-1.4252959489822388, -0.04077926278114319, -0.16518409550189972], [-0.4122689366340637, -1.9772917032241821, -0.2605092525482178], [0.6364630460739136, 0.02773795835673809, -1.1191397905349731]], [[1.3541944026947021, -0.0924227386713028, 0.7018648386001587], [-0.19625212252140045, 0.8841611742973328, 0.08974578976631165], [-1.5461684465408325, -0.43734845519065857, -2.729951858520508]], [[0.47552454471588135, -0.05613252893090248, -0.07787765562534332], [0.2048746645450592, -0.2643015384674072, -0.29349958896636963], [-0.38247624039649963, -0.7830719351768494, 0.5841791033744812]]], [[[-0.6706776022911072, 0.6098640561103821, 0.5165165066719055], [-0.9394503831863403, 0.7340142130851746, -0.0020571392960846424], [-0.4513877332210541, 0.8007033467292786, 0.6532933115959167]], [[-0.9584953188896179, -1.6928839683532715, -1.2700306177139282], [-0.6686263680458069, -2.207777976989746, 0.3933388888835907], [0.6626147627830505, -2.256821870803833, 1.061918020248413]], [[0.26107075810432434, 0.07354499399662018, 0.2518664598464966], [0.017024442553520203, -0.2907024919986725, -0.1361534744501114], [-0.17845097184181213, -0.20561380684375763, -0.0011147267650812864]]], [[[-0.9000041484832764, -0.404920369386673, 0.7712185382843018], [1.1557128429412842, 1.3350565433502197, -0.7401948571205139], [-0.8820275664329529, -1.9549332857131958, -0.37171125411987305]], [[0.8887057900428772, -0.7430963516235352, -1.8414708375930786], [-0.41252782940864563, -0.22445710003376007, -0.31978875398635864], [-0.5292697548866272, 0.29719507694244385, -0.9595313668251038]], [[-0.16453364491462708, -0.3122014105319977, 0.053760796785354614], [0.2178005576133728, 0.13089992105960846, 0.11149132996797562], [0.26406076550483704, 0.31152066588401794, 0.6426453590393066]]], [[[0.17930035293102264, -0.4661807715892792, 0.32914236187934875], [-0.540624737739563, -1.6628469228744507, 0.3509414494037628], [0.8317431807518005, -0.6371258497238159, 0.7542020678520203]], [[-0.159132719039917, 0.746501088142395, -0.45501136779785156], [0.6823237538337708, 0.4171086549758911, 0.34941908717155457], [-0.10578923672437668, 1.096970796585083, -0.051121219992637634]], [[-0.901726484298706, 0.1720675379037857, -0.43309924006462097], [0.030722811818122864, 1.0947054624557495, -0.11014234274625778], [-0.3298482596874237, 0.19811435043811798, -1.3342421054840088]]], [[[0.47927576303482056, -0.027588719502091408, -0.4630183279514313], [-0.4888612926006317, -0.03453274816274643, 0.1354859173297882], [-0.043409183621406555, 0.26491811871528625, -0.17034341394901276]], [[-1.4799394607543945, -0.41786351799964905, 0.5347633957862854], [-0.08594399690628052, 1.435124397277832, 0.1467834860086441], [-2.345837354660034, 0.5137388110160828, -0.22032804787158966]], [[-0.7922141551971436, -0.26310572028160095, -0.12730348110198975], [0.4479144215583801, 1.078521966934204, -0.35329392552375793], [-0.41250208020210266, 0.45486751198768616, -1.462003469467163]]], [[[-2.5953075885772705, -0.44218942523002625, -0.11654190719127655], [0.2968771457672119, 0.5366250276565552, -0.7327516078948975], [-0.7007996439933777, -0.37335899472236633, 1.3153949975967407]], [[-2.0115604400634766, 0.012490957975387573, -0.07640599459409714], [-0.1892690360546112, -2.1373355388641357, 0.1559056043624878], [-0.7476808428764343, -0.250569224357605, -1.6794618368148804]], [[0.3139352798461914, -0.24904775619506836, 0.511690616607666], [-0.31077831983566284, -0.3539358675479889, -0.017977867275476456], [0.28456228971481323, -0.015003724955022335, 0.5751644968986511]]], [[[-0.7553327679634094, 0.9475763440132141, 0.2959297299385071], [-0.0407651849091053, 0.052291255444288254, 0.32638975977897644], [-1.3868012428283691, 0.9843624234199524, 0.06530563533306122]], [[-0.04979947209358215, -1.2604987621307373, 0.6734476685523987], [-2.555333137512207, 0.726029098033905, -1.5565953254699707], [-0.6580942869186401, -0.04971545189619064, 0.20945905148983002]], [[-0.4377404749393463, -0.42377305030822754, -0.6061215400695801], [-0.061458341777324677, 0.48333099484443665, 0.9226845502853394], [-0.14927054941654205, -0.6359646916389465, -0.32412922382354736]]], [[[0.3424556255340576, 0.5751856565475464, -0.8477153778076172], [-0.49442508816719055, -0.9246577024459839, -0.9227575063705444], [0.16359001398086548, 0.2665657103061676, 1.0964006185531616]], [[-0.16721369326114655, -0.6776857972145081, 0.25583016872406006], [1.2580167055130005, -0.12827089428901672, 0.7791440486907959], [-0.1685781180858612, 0.8555021286010742, -0.9347087144851685]], [[-0.9678836464881897, -0.5799047946929932, -0.7048003077507019], [0.1395552009344101, 0.7278274893760681, 0.8661656975746155], [-0.7170968651771545, -0.13500766456127167, 0.05051930248737335]]], [[[-0.33224549889564514, 0.4916881322860718, 0.021707789972424507], [0.43646928668022156, -1.1141114234924316, -0.49905964732170105], [0.416938841342926, 0.04994029179215431, -0.31121331453323364]], [[1.033679485321045, 0.4457780718803406, 1.4329197406768799], [0.16058363020420074, 0.47278261184692383, -0.33955076336860657], [0.6384839415550232, 0.06883423775434494, 0.31885677576065063]], [[-1.286642074584961, -0.05767744034528732, -1.0241806507110596], [-0.3509451746940613, 0.9871453642845154, -0.36991244554519653], [-0.1678289771080017, 1.0903162956237793, 0.00458109425380826]]], [[[-0.3309534192085266, 0.1492961049079895, 0.2616380453109741], [0.7712633013725281, 0.34556540846824646, -0.11380511522293091], [-1.0905787944793701, -0.6030174493789673, -0.5918755531311035]], [[-0.940548300743103, -0.5241208672523499, 0.47960615158081055], [2.009868860244751, 0.4013701379299164, -1.290149450302124], [-2.929476737976074, 0.7093827128410339, 0.6725977659225464]], [[-0.16181686520576477, -0.05832092463970184, -0.07943815737962723], [-0.3034965395927429, 0.45294496417045593, 0.048917803913354874], [-0.27768614888191223, -0.10780388116836548, 0.21919576823711395]]], [[[0.3580586910247803, -0.17728696763515472, 0.7683311700820923], [1.026979923248291, -0.5985444784164429, 1.0280512571334839], [-0.3498857319355011, -0.03639628365635872, 0.5465704798698425]], [[0.45851337909698486, 0.013784772716462612, -0.4227353632450104], [0.2633574306964874, -0.28835931420326233, -0.25390464067459106], [0.1576283723115921, 0.5184677243232727, -2.3793234825134277]], [[-0.28194114565849304, -0.24739351868629456, -0.04083690419793129], [0.9418283700942993, 0.9748900532722473, -0.0704486072063446], [-1.3863980770111084, -0.6605121493339539, -1.3008793592453003]]], [[[1.131582260131836, -0.7429940104484558, 0.6598394513130188], [-1.3654847145080566, 0.6938333511352539, 0.3260917067527771], [-2.970853567123413, 0.4559139907360077, 0.43469318747520447]], [[-1.3429210186004639, 0.5999178886413574, -0.10999561846256256], [-0.8009536862373352, -1.1717379093170166, 0.6910322308540344], [0.28044748306274414, -0.19875366985797882, -0.0853332132101059]], [[0.36295583844184875, -0.04340369626879692, 0.60313880443573], [-0.2094302624464035, -0.678304135799408, 0.17962054908275604], [0.5152879357337952, 0.15710067749023438, 0.32638105750083923]]], [[[-1.043358325958252, -1.4414812326431274, -1.1541860103607178], [-1.4225122928619385, 0.2297893762588501, -0.5906237363815308], [-0.5407665967941284, -0.06424247473478317, -2.4678823947906494]], [[-1.5992567539215088, 0.4517909288406372, 0.6632175445556641], [0.8689819574356079, -2.0685830116271973, 0.25566527247428894], [0.4738541841506958, -0.6072226166725159, 0.5134753584861755]], [[-0.28005608916282654, -0.41293928027153015, -0.19761349260807037], [0.5306454300880432, -0.39221468567848206, -0.1713925302028656], [0.8274053931236267, -0.04271114617586136, 0.1339675337076187]]], [[[-1.2479770183563232, -0.05612555891275406, -0.8076268434524536], [-2.3060648441314697, 0.9726034998893738, -1.116270899772644], [0.03920920193195343, -1.3804738521575928, -0.15230879187583923]], [[-0.6688611507415771, -0.4225318133831024, -0.27604368329048157], [0.9216891527175903, -2.033853054046631, -1.6894922256469727], [0.35813212394714355, 1.097980260848999, -0.23394939303398132]], [[0.01846357248723507, 0.06395642459392548, 0.8004244565963745], [-0.11428560316562653, -0.46226218342781067, 0.18113164603710175], [-0.20559068024158478, -0.248064324259758, 0.2305913269519806]]], [[[0.09215995669364929, -0.15242372453212738, -1.2477155923843384], [-0.7366467714309692, 0.029882876202464104, 0.5395026206970215], [-1.065913438796997, -0.7118691802024841, -0.39572009444236755]], [[-0.28921377658843994, -0.2995770573616028, 0.4537765085697174], [-0.30861932039260864, 0.3940117061138153, 0.37789952754974365], [2.011141061782837, 0.8716837167739868, -1.8156206607818604]], [[-0.1777503341436386, 0.7704882621765137, -0.06024758517742157], [-0.6623031497001648, 0.3581680655479431, -0.13441674411296844], [-0.7661545872688293, -0.07651501893997192, -0.5625356435775757]]], [[[-0.28261423110961914, -0.4225154519081116, 0.24417774379253387], [0.8847230076789856, -0.12390578538179398, -0.08981525152921677], [-0.6553797721862793, 0.7955939769744873, 0.1953374594449997]], [[0.8202107548713684, 0.649964451789856, 1.5779902935028076], [-1.363919973373413, -0.9939637184143066, -1.7560497522354126], [0.15572500228881836, -0.09837663173675537, 0.7221949696540833]], [[-0.6734961867332458, -0.2661654055118561, 0.03125804662704468], [0.5809575915336609, 0.26519250869750977, 0.8295937776565552], [0.3801373243331909, -0.09921697527170181, 0.463784396648407]]], [[[-0.2032964527606964, 0.12120305001735687, -0.11179620027542114], [-0.6231778860092163, 0.04514634981751442, 0.6547501683235168], [-0.3195214867591858, -0.35110175609588623, -0.056982167065143585]], [[1.8308182954788208, -0.08192452043294907, -0.2311019003391266], [0.7847792506217957, 0.39440444111824036, -0.03018924780189991], [-2.498687267303467, -0.4035930931568146, 0.5927583575248718]], [[-0.45484480261802673, 0.7456598877906799, -0.4952673614025116], [-0.6199057698249817, 0.552897036075592, -0.7246508002281189], [-0.5209112167358398, 0.8257557153701782, -0.4370773732662201]]], [[[-0.2711053490638733, 0.03495705872774124, -0.4904460310935974], [0.14309684932231903, -1.1678974628448486, 0.3516767621040344], [-0.04784387722611427, 0.3028560280799866, -0.221182718873024]], [[-2.2183876037597656, -0.39617228507995605, 0.725229024887085], [-0.48641517758369446, 0.5429597496986389, -0.5705537796020508], [2.0774877071380615, -0.5610755681991577, 1.044098973274231]], [[0.33988702297210693, 0.16233283281326294, 0.5314896106719971], [0.3398292064666748, -0.216014102101326, -0.021748561412096024], [-0.33909350633621216, -0.6166024208068848, -0.6863257884979248]]], [[[0.20395082235336304, -0.029102448374032974, 0.536264181137085], [-0.11493091285228729, -0.6933203935623169, -0.3964972198009491], [-0.09178103506565094, 0.4782961308956146, -0.06297791004180908]], [[-0.2870219051837921, 0.5317366123199463, -0.5322134494781494], [1.1641952991485596, 0.8994770646095276, 0.46595728397369385], [0.6653295755386353, 0.17605186998844147, 0.8505013585090637]], [[0.19517481327056885, 0.7729716300964355, -0.7063467502593994], [0.4800972640514374, 0.63686203956604, -0.16201536357402802], [-0.6619217991828918, -0.21828825771808624, -2.38327956199646]]], [[[1.136051893234253, 0.5395351648330688, 1.8269442319869995], [-0.3678674101829529, -0.2187391072511673, -0.1948806494474411], [-0.34854504466056824, -0.31129738688468933, -0.1429097056388855]], [[-1.2500619888305664, -2.38826584815979, -0.4690151810646057], [-0.06707923114299774, -0.14535970985889435, -0.027152376249432564], [-0.2692372798919678, -0.018386628478765488, -0.0651276484131813]], [[-0.16846436262130737, 0.036636341363191605, -0.3275113105773926], [-0.22618378698825836, 0.4094996750354767, 0.22160086035728455], [0.6355766654014587, -0.258544921875, -0.1951814591884613]]], [[[1.0559247732162476, 0.5095728039741516, -0.6119619607925415], [-1.5301035642623901, 0.3787902891635895, -0.4072878062725067], [0.4529315233230591, -0.11205088347196579, -0.9629909992218018]], [[1.073007345199585, -0.008240723982453346, -0.6869073510169983], [1.2768710851669312, 0.8815717101097107, -0.5349634885787964], [1.2821675539016724, 0.5905280113220215, 0.25134512782096863]], [[0.4673849642276764, -0.08717692643404007, 0.38182002305984497], [-0.4773033857345581, -0.23421351611614227, 0.6405563354492188], [-0.8736892342567444, -0.3860316276550293, 0.32388290762901306]]], [[[0.8554280996322632, 0.36875855922698975, 0.25041455030441284], [-1.0224707126617432, 0.378106951713562, -0.7605556845664978], [-0.7808346748352051, -0.45215368270874023, 0.19583247601985931]], [[0.791885256767273, 0.012795623391866684, 0.870918869972229], [-0.09336338192224503, -1.517141342163086, -0.22240006923675537], [-0.6153287291526794, 0.3834182024002075, -1.7491487264633179]], [[-0.2344314604997635, -0.5273705720901489, -1.0048696994781494], [1.2542192935943604, 0.5596064329147339, 0.6121416687965393], [-0.38163989782333374, -0.7227597236633301, -0.07868260890245438]]], [[[-0.19486552476882935, -0.15058861672878265, 1.5150775909423828], [-0.5546894073486328, 0.9784067869186401, -0.5385617613792419], [1.7323083877563477, -0.40051716566085815, -0.8127941489219666]], [[0.44540664553642273, 0.06131872162222862, -1.1850110292434692], [0.19946150481700897, -0.8216313123703003, -0.10511228442192078], [-0.3876167833805084, -0.2464798390865326, 0.17851759493350983]], [[-0.38812288641929626, -0.46196484565734863, -0.6618698835372925], [-0.47715291380882263, 0.6997676491737366, 0.05991918593645096], [0.025343796238303185, 0.7563149333000183, 0.07481078058481216]]], [[[1.1596604585647583, 1.0004162788391113, 1.3870680332183838], [0.7199205160140991, 0.7192426323890686, -0.15941143035888672], [1.3274786472320557, 0.8761830925941467, 1.1594666242599487]], [[-0.34027546644210815, 0.11719806492328644, -0.21055498719215393], [-0.05460219830274582, -0.14657196402549744, -0.1013430505990982], [-0.48546868562698364, -0.07855308800935745, -0.10365226864814758]], [[0.3619840741157532, 0.5427985787391663, -0.6435976028442383], [0.572562038898468, 0.7050078511238098, -0.09970816969871521], [0.0892552062869072, 0.3758853077888489, -0.6107277274131775]]], [[[1.147620439529419, 0.6848207116127014, -0.040360912680625916], [-0.25274795293807983, -0.49167755246162415, -0.2717856466770172], [1.432297706604004, 0.4731041193008423, 1.0204765796661377]], [[-0.533282458782196, 0.3661240339279175, -0.5050382018089294], [-2.1588048934936523, -0.8022558093070984, -0.22722403705120087], [-0.4318600296974182, -0.3678644299507141, -0.325924277305603]], [[0.3340786099433899, 0.475509375333786, -0.6419464349746704], [0.21018190681934357, 0.30319932103157043, -0.2131377011537552], [-0.34201177954673767, -0.2914206087589264, -1.0658382177352905]]], [[[-0.9060609340667725, -1.0603442192077637, -0.8752142786979675], [-1.1904857158660889, 0.8918667435646057, 1.0224945545196533], [-1.2434443235397339, 0.9264886975288391, 1.4502140283584595]], [[0.7463341951370239, -0.5177904963493347, -0.6820316314697266], [-0.24969518184661865, 0.5387637615203857, 0.17088328301906586], [-0.04795675724744797, 0.2788940370082855, -0.2785007357597351]], [[0.6641458868980408, 0.020375709980726242, -0.07959730923175812], [-0.29826727509498596, 0.21730558574199677, 0.5351074934005737], [-0.14555756747722626, -0.05901291221380234, 0.35570651292800903]]], [[[1.0425915718078613, 0.3916435241699219, 0.3538915514945984], [-0.3353988528251648, 0.4363635778427124, 1.0564117431640625], [0.7400569319725037, -1.1300731897354126, 0.8117291927337646]], [[0.4572264552116394, 0.028047854080796242, 0.33625489473342896], [-0.2488289177417755, -0.27552178502082825, 0.9827163815498352], [1.406162142753601, 0.3369525074958801, 0.8476107120513916]], [[0.07953493297100067, 1.048246145248413, 0.557277262210846], [-0.7094266414642334, 0.4135810434818268, 0.2322010099887848], [-0.7066969275474548, -0.5971248745918274, -0.7293000817298889]]], [[[1.5237617492675781, -1.2792315483093262, -0.8083852529525757], [1.1304579973220825, 0.6912184953689575, -0.7824133634567261], [0.11468466371297836, -0.7343301177024841, -2.2782552242279053]], [[-0.32052576541900635, 0.20252780616283417, 0.9790372252464294], [-0.21621772646903992, -1.2279231548309326, -0.20009233057498932], [-0.270942360162735, 0.15053193271160126, 0.20829883217811584]], [[0.282302588224411, -0.001313040847890079, 0.1209259182214737], [0.26946455240249634, -0.0031623700633645058, 0.08130120486021042], [0.43856149911880493, -0.018658630549907684, -0.236419677734375]]], [[[1.557692050933838, 0.5550472140312195, -1.1578150987625122], [0.3811802566051483, 0.7274576425552368, -0.40615618228912354], [0.3300347328186035, 0.15109364688396454, 1.7157336473464966]], [[-0.9642243981361389, -0.08445172011852264, 0.15589161217212677], [-0.07752800732851028, -2.0160441398620605, -0.5127937197685242], [0.3642953634262085, -0.2348984181880951, 0.04339393228292465]], [[0.27411946654319763, 0.6551935076713562, 0.06951290369033813], [0.10437022149562836, 0.3632579445838928, -0.1832355111837387], [0.2850587069988251, 0.31922563910484314, -0.12097372859716415]]], [[[-1.0709725618362427, -0.15625561773777008, 0.10662421584129333], [0.0601959191262722, -1.9105629920959473, 0.24256744980812073], [-2.108299970626831, -1.137278437614441, -0.6792550086975098]], [[-1.012553095817566, 1.060624122619629, -1.2599908113479614], [-0.13365711271762848, -1.5446357727050781, -0.2652968466281891], [-0.9250650405883789, 0.5958648324012756, 0.5184523463249207]], [[-0.2419649362564087, -0.09704647213220596, 0.35560792684555054], [0.16074149310588837, -0.2749878168106079, 0.05429286137223244], [0.7287589907646179, 0.2788270115852356, 0.305013507604599]]], [[[0.7148147821426392, 0.9153669476509094, -1.1902775764465332], [-0.7527955174446106, -0.3858623206615448, -0.3315499722957611], [-1.3075718879699707, -0.14211441576480865, 0.2945507764816284]], [[-0.8667705059051514, -0.27288922667503357, -1.617795467376709], [0.7084490060806274, 1.0120563507080078, -0.40692847967147827], [-1.8702919483184814, -1.6622889041900635, -0.9320115447044373]], [[0.12159690260887146, -0.011341920122504234, -0.824827253818512], [-0.5063431859016418, 0.28798907995224, -0.10434696823358536], [-0.4403004050254822, 0.05097680911421776, 0.48415613174438477]]], [[[-2.079307794570923, 0.6476229429244995, 1.7830984592437744], [-0.16080939769744873, -0.40760111808776855, -0.13350436091423035], [0.31991273164749146, -0.44954633712768555, -0.19576093554496765]], [[-1.7546290159225464, -1.1529295444488525, -0.5351049900054932], [-0.48316746950149536, 0.15593309700489044, -0.1843685805797577], [0.5805431008338928, 0.3379421830177307, -1.1612828969955444]], [[0.012372774071991444, -0.5099724531173706, -0.0046248300932347775], [0.5021808743476868, 0.058636199682950974, -0.5068351030349731], [0.7285079956054688, 0.23324516415596008, -0.39431875944137573]]], [[[0.5932053923606873, -0.04017956182360649, -1.9331952333450317], [-0.5090442299842834, -0.1396132856607437, 0.591677725315094], [0.8118191957473755, -0.007525807712227106, 0.892781674861908]], [[1.3046821355819702, -0.6421642899513245, -0.6797873973846436], [0.8196824193000793, 0.6030721664428711, -0.7453397512435913], [-1.8129807710647583, -0.7165462970733643, -1.2963253259658813]], [[0.1740671843290329, -0.31732600927352905, 0.13215000927448273], [0.5067018866539001, -0.05657660588622093, 0.45808953046798706], [0.34988704323768616, -0.0738009363412857, 0.06058312952518463]]], [[[0.29375943541526794, -1.484229326248169, -0.6412444114685059], [0.9003146290779114, -2.1082160472869873, 0.3420533537864685], [0.44649747014045715, 0.5476449131965637, 0.512893557548523]], [[-0.950157105922699, 0.7330785393714905, 0.7055209279060364], [0.7155670523643494, -0.9798226356506348, 0.020430319011211395], [1.2555983066558838, 0.38283294439315796, -0.5532096028327942]], [[0.022424079477787018, 0.46049460768699646, 0.22825099527835846], [-0.5107944011688232, 0.18239183723926544, 0.39139536023139954], [-0.6190455555915833, 0.6354413628578186, 0.6932756304740906]]], [[[-0.3707074224948883, -1.3996936082839966, -0.2528437077999115], [0.1437089443206787, -1.9162123203277588, -0.43781113624572754], [0.5628005862236023, -1.016250729560852, 0.2789793014526367]], [[0.23207060992717743, -2.1703639030456543, -1.0762869119644165], [-0.8245255351066589, 0.44435444474220276, -0.6058908700942993], [-0.8853317499160767, 0.35840800404548645, 0.7294197082519531]], [[-0.5251279473304749, 0.8014551401138306, -0.43808096647262573], [-0.23671768605709076, 0.7532560229301453, -0.2590603232383728], [-0.0521550290286541, -0.2155454307794571, -0.986873984336853]]], [[[1.5599901676177979, -0.31627795100212097, -0.1460709273815155], [0.6066224575042725, -0.51649409532547, 0.07404693961143494], [1.3992512226104736, -0.7787426114082336, 0.14471593499183655]], [[-2.049288034439087, 0.32175177335739136, -0.15632909536361694], [-2.7610299587249756, -0.04272482916712761, 0.16133816540241241], [-1.3657314777374268, 0.1328820437192917, 0.22366592288017273]], [[0.038336124271154404, -0.13462385535240173, -0.28108909726142883], [0.047654226422309875, -0.16680993139743805, 0.11237136274576187], [0.38577213883399963, 0.16895745694637299, 0.4359089732170105]]], [[[-0.048648651689291, 0.5694408416748047, -0.7339767217636108], [-1.988823652267456, 1.4582306146621704, -0.15941199660301208], [0.912975549697876, -1.2494934797286987, -0.6784180402755737]], [[-0.7096678614616394, 0.022685155272483826, 0.5552600622177124], [-1.574030876159668, 0.7784743309020996, 0.634921669960022], [-1.3769224882125854, -0.01812104694545269, 0.13754798471927643]], [[0.19315925240516663, 0.26413172483444214, 0.2875059247016907], [-0.11886578798294067, -0.049659330397844315, 0.299811989068985], [0.0819224864244461, 0.05621972307562828, 0.2425212562084198]]], [[[1.1345893144607544, 1.0207655429840088, -0.5077650547027588], [0.44392791390419006, 0.6344590783119202, 0.24435411393642426], [0.6788932681083679, 0.015597285702824593, -0.03661550581455231]], [[-1.1172378063201904, -0.2032894790172577, -0.19253651797771454], [0.5281591415405273, -0.44432491064071655, -0.8815906643867493], [0.5166398286819458, -0.45396217703819275, 0.3096928000450134]], [[-1.407850742340088, 0.12167955189943314, -0.8675742149353027], [-0.11541913449764252, 1.1838996410369873, 0.15452608466148376], [0.056801360100507736, 0.1157660260796547, -1.0945097208023071]]], [[[-0.30728715658187866, -0.09013088792562485, 0.31400153040885925], [-0.51519775390625, -0.8696621060371399, 0.3707898259162903], [0.30303385853767395, 0.5497114658355713, 1.1603001356124878]], [[-1.5685527324676514, -0.16389700770378113, 1.4580625295639038], [-0.18372906744480133, 0.8175784945487976, -0.2707218825817108], [-2.529303550720215, -1.2554000616073608, 0.6165816783905029]], [[-0.32534125447273254, 0.4481733739376068, -0.2892196476459503], [0.11313321441411972, 0.7214720845222473, 0.194858118891716], [-0.4732871353626251, -0.5883506536483765, -0.22275786101818085]]], [[[-0.14368288218975067, -1.7974604368209839, -1.3438408374786377], [-0.6663532853126526, 0.6080057621002197, -0.6047057509422302], [1.3044283390045166, 0.808097243309021, 0.7820944786071777]], [[0.9024087190628052, 0.2433674931526184, 1.0711041688919067], [-0.4233071208000183, -0.3917349576950073, 0.6276532411575317], [-1.4511146545410156, -0.8614733219146729, -0.8183903098106384]], [[0.15689952671527863, -0.26603496074676514, -0.6405290365219116], [0.15611259639263153, 0.0009967823280021548, -0.0744568407535553], [0.5511896014213562, 0.5966429710388184, 0.20041541755199432]]], [[[0.5181882977485657, -0.22916951775550842, -0.021126998588442802], [-1.796268343925476, -0.02048347145318985, -0.6779705882072449], [-1.4373689889907837, -0.6776700019836426, -0.257081001996994]], [[1.2747803926467896, -0.5240310430526733, 0.38477063179016113], [1.2249553203582764, -0.9133750200271606, 0.018363313749432564], [1.247019648551941, -0.7555882334709167, 0.7957256436347961]], [[-0.06294012069702148, -0.2827111482620239, 0.5680508613586426], [0.6879833936691284, 0.2762939929962158, 0.13774606585502625], [0.14033369719982147, -0.05828055366873741, 0.2397570013999939]]], [[[-1.4576817750930786, -0.4849082827568054, -0.02445570006966591], [-0.8245330452919006, -0.6376596689224243, 0.300398051738739], [-1.34900963306427, -0.25076475739479065, 0.025716664269566536]], [[1.269439935684204, 0.2603675425052643, 0.2733861207962036], [0.6234105229377747, -0.2093338817358017, -0.30211910605430603], [1.7458176612854004, 0.04686989262700081, 1.2174609899520874]], [[-0.5380356311798096, -0.8172694444656372, -0.5548794269561768], [-0.18723660707473755, 0.5780372619628906, 0.010787831619381905], [-0.336716890335083, 0.22578248381614685, 0.19393225014209747]]], [[[-0.8103488683700562, -0.2775454819202423, -0.6982035040855408], [0.5786097645759583, 0.7860667705535889, 0.6593824028968811], [1.967447280883789, 0.3518582880496979, -2.078244924545288]], [[-0.6961314678192139, 0.14502249658107758, -0.943892776966095], [-0.4030226469039917, -0.776770830154419, 0.30529895424842834], [0.17297612130641937, 0.740683913230896, -0.2564593255519867]], [[0.19293290376663208, -0.567757785320282, -0.25911855697631836], [0.3542505204677582, -0.5410538911819458, 0.5495613813400269], [0.5262355208396912, -0.49200594425201416, 0.3315962851047516]]], [[[0.6346901059150696, -0.025811532512307167, -2.166928768157959], [-1.3576821088790894, 0.4067717492580414, 0.16401061415672302], [-0.5994166135787964, -0.011948706582188606, 1.181701421737671]], [[-0.6947636008262634, -0.7415775656700134, -0.12429586052894592], [-0.7767093181610107, -1.4471126794815063, -0.7285679578781128], [0.2599870264530182, 0.7555381059646606, 0.7933142781257629]], [[-0.41101202368736267, 0.40021979808807373, -0.08254655450582504], [-0.9780223965644836, 0.38409823179244995, -0.07036689668893814], [-0.5964482426643372, 0.7364180088043213, 0.32025811076164246]]], [[[0.4301435649394989, 0.07884076237678528, -0.02533550187945366], [0.3511423170566559, -1.3012970685958862, -0.14998458325862885], [-2.4581754207611084, 0.06083062291145325, 0.12336580455303192]], [[0.32793712615966797, -0.06932585686445236, 2.2568960189819336], [0.2754063904285431, 0.7740417122840881, 0.027813376858830452], [0.5121282339096069, -0.6282857656478882, -0.18833141028881073]], [[0.7165253162384033, 0.029912564903497696, -0.4172414541244507], [0.6420823335647583, 0.11459437012672424, -0.3626214861869812], [-0.006930167321115732, -0.20080110430717468, -0.44706711173057556]]], [[[-0.5439545512199402, -0.0935741662979126, -0.4247121810913086], [-0.43053901195526123, 0.603909432888031, -0.1618119776248932], [-0.5646990537643433, -0.38681119680404663, -0.21898378431797028]], [[-0.5772150158882141, -0.31669655442237854, -1.0942716598510742], [-0.8215001821517944, 1.714176058769226, 1.1903743743896484], [0.011328388005495071, 0.5141250491142273, 0.9356104135513306]], [[0.10682084411382675, -0.22796538472175598, -0.9503543972969055], [0.8254075646400452, -0.10676462203264236, -0.3558114469051361], [0.8238216042518616, -0.4159198999404907, -0.3836577236652374]]], [[[0.668281614780426, -0.6295501589775085, 0.28905120491981506], [-0.8834503889083862, -0.4879307746887207, -0.6791820526123047], [-1.3454986810684204, 0.0939529687166214, 0.4200330972671509]], [[1.4444892406463623, -0.008176613599061966, 0.3710085451602936], [-1.1958495378494263, -0.25024211406707764, -0.778653085231781], [1.3739101886749268, -0.7924680709838867, -2.2119994163513184]], [[0.50831538438797, 0.22325089573860168, 0.7828478813171387], [0.21836453676223755, -0.3979469835758209, -0.018775872886180878], [0.10923725366592407, -0.5495821237564087, 0.18429428339004517]]], [[[-0.3054092824459076, -1.3935319185256958, 1.4646400213241577], [-1.678953766822815, 1.0550470352172852, 0.01866350881755352], [-2.477543354034424, 0.022363219410181046, -2.3816473484039307]], [[0.14713767170906067, 0.12592867016792297, -0.08520852029323578], [0.2758350372314453, -0.07026045024394989, -0.6276941299438477], [-0.1362733542919159, 0.3851190507411957, 0.5828974843025208]], [[-0.5716136693954468, -0.34107092022895813, 0.7688938975334167], [0.482621431350708, -0.11726813018321991, -0.4229280650615692], [0.0841907188296318, 0.2224147617816925, 0.1184089407324791]]], [[[-0.6049233078956604, -1.2233331203460693, -0.4302149713039398], [-0.8409850597381592, 1.0507805347442627, 0.5386444330215454], [-0.9950048327445984, 1.2333511114120483, 0.5058043003082275]], [[-0.156048983335495, 0.689038097858429, 0.742450475692749], [0.5169172286987305, -0.3007484972476959, -0.6134757995605469], [-0.037871506065130234, -0.18065232038497925, -0.6725894212722778]], [[-0.32150352001190186, -0.011062397621572018, -1.0913923978805542], [-0.13917191326618195, 0.9618877172470093, 0.3591434955596924], [-0.8938007950782776, -0.26987898349761963, 0.08015956729650497]]], [[[0.6572893261909485, -0.8410715460777283, 0.7534090280532837], [-0.22142426669597626, 0.03976912796497345, -0.6597375869750977], [1.7405598163604736, 0.32493001222610474, 0.3860110938549042]], [[-0.024540100246667862, -1.4101972579956055, 0.18046197295188904], [-1.441190242767334, 0.5537627339363098, 0.3888636529445648], [0.26642128825187683, 1.3241324424743652, 0.165060892701149]], [[-0.015137678012251854, 0.841842532157898, 0.8576951622962952], [-0.46743065118789673, 0.07176358997821808, 0.1620827168226242], [-0.4913433790206909, -0.09984500706195831, -0.290794312953949]]], [[[-2.788839817047119, 0.1649756282567978, -1.1768972873687744], [-0.24189123511314392, 0.5402061343193054, 0.1329624354839325], [1.7969391345977783, -0.3882574737071991, 0.5183905363082886]], [[-0.9095492959022522, 0.30426228046417236, 0.5977022051811218], [-2.025554656982422, -0.8831248879432678, 0.4865244925022125], [0.4411780834197998, 0.7283233404159546, -0.0632130578160286]], [[0.06539735943078995, 0.5480864644050598, -0.17854350805282593], [-0.19551849365234375, -0.06858760863542557, -0.1863763928413391], [0.3091171979904175, 0.06086151674389839, -0.009044492617249489]]], [[[-0.6420052647590637, 0.4710357189178467, 1.3465113639831543], [-0.3277159631252289, -0.06515740603208542, -1.2089300155639648], [-3.3758628368377686, 0.45448318123817444, 0.6345593333244324]], [[0.8546612858772278, 0.44208797812461853, -0.9487850666046143], [0.4470186233520508, 0.3551621437072754, 0.11698062717914581], [0.13659623265266418, -1.0489521026611328, -0.5124595165252686]], [[0.37170514464378357, -0.5413172841072083, -0.29990172386169434], [0.24240684509277344, -0.17785093188285828, 0.16037262976169586], [0.512933611869812, 0.267757773399353, 0.6181905269622803]]], [[[-3.0249812602996826, 0.5253695845603943, -0.8061127662658691], [0.2799338400363922, 1.3513084650039673, 0.2948693037033081], [-0.544053852558136, -1.2056875228881836, 0.8577629923820496]], [[0.4383593797683716, 0.7192568778991699, 0.45258933305740356], [0.5329676270484924, 0.15910091996192932, 0.5400667786598206], [0.7742218375205994, -0.2867121994495392, -0.4644114375114441]], [[-0.21216773986816406, 0.48428964614868164, 0.23246809840202332], [0.20064066350460052, 0.11415962874889374, -0.02924802154302597], [0.09880884736776352, 0.02990967035293579, 0.6317551732063293]]], [[[-0.7934223413467407, -1.7074335813522339, 0.31529420614242554], [-0.20097199082374573, -0.8706408739089966, -0.5335649251937866], [0.6201252341270447, -0.39602240920066833, 0.7139543294906616]], [[-0.5055686831474304, 0.39578571915626526, 0.29908305406570435], [0.5144418478012085, -1.6063369512557983, 0.8634743094444275], [-1.5060213804244995, -0.6160570979118347, 1.626418113708496]], [[-0.26014629006385803, -0.11880070716142654, 0.6335831880569458], [0.19836854934692383, -0.12740427255630493, -0.2652699649333954], [0.5967134237289429, 0.13283921778202057, -0.39174607396125793]]]], "conv1.bias": [0.36716020107269287, -0.40562090277671814, -0.5732789039611816, 0.4415777325630188, -1.1732509136199951, 0.04663790017366409, -1.0932353734970093, -0.24080988764762878, 0.3907354772090912, 0.9143558740615845, 0.5057998895645142, 0.43701818585395813, -0.32327476143836975, 0.4021763801574707, -0.09201134741306305, 0.4557875096797943, -0.39537131786346436, -0.10463562607765198, -0.5473918318748474, -0.168691486120224, -1.0107358694076538, -0.15790818631649017, -0.30723047256469727, 1.091130256652832, -0.4992229640483856, 0.5874262452125549, -0.7501388788223267, 1.1838576793670654, 1.1987295150756836, 0.6514628529548645, 0.6624932885169983, -1.1245180368423462, -0.5763767957687378, 0.41988077759742737, -0.023040812462568283, -1.992364764213562, 0.34825703501701355, -0.123420350253582, -1.3237112760543823, 0.10866356641054153, 0.7031325697898865, 0.5100373029708862, -1.1934497356414795, 0.42001840472221375, 0.48209214210510254, 0.04211161285638809, -0.07216358184814453, 0.7003697156906128, 1.1911429166793823, -0.5591943860054016, 0.3604898750782013, 0.2241864800453186, 0.22944484651088715, 0.6718832850456238, 0.3282243013381958, 0.592462420463562, 1.274269461631775, -0.39101627469062805, -1.4864916801452637, -1.5253567695617676, -0.46946921944618225, -0.7419224977493286, 0.8865593671798706, 0.8862060904502869], "bn1.weight": [0.9711102843284607, 0.9505355954170227, 1.118391513824463, 1.0991170406341553, 1.2458455562591553, 1.0710488557815552, 1.084921956062317, 1.4590855836868286, 0.7942138910293579, 1.169919490814209, 1.3676475286483765, 1.084301471710205, 1.0574923753738403, 1.4503977298736572, 1.230850338935852, 1.1514620780944824, 0.9954284429550171, 1.0453208684921265, 1.3552970886230469, 0.8106539249420166, 1.47175133228302, 1.1431952714920044, 1.1759320497512817, 1.0045685768127441, 1.0278695821762085, 1.0788129568099976, 1.2319109439849854, 1.1774563789367676, 1.732593059539795, 1.8013144731521606, 0.8971083164215088, 1.0376652479171753, 1.4795376062393188, 1.2128095626831055, 1.3652846813201904, 1.0586169958114624, 0.9690669775009155, 1.2568861246109009, 1.3695862293243408, 1.3499782085418701, 0.8611413836479187, 1.322946310043335, 1.0695221424102783, 1.0817760229110718, 0.9251337647438049, 1.4862852096557617, 1.1888538599014282, 1.2758618593215942, 1.2783983945846558, 1.0091850757598877, 1.1236188411712646, 1.2508360147476196, 0.7779883146286011, 1.1783407926559448, 1.2240235805511475, 1.4071956872940063, 0.9240968823432922, 1.079068660736084, 1.0453929901123047, 0.8747252225875854, 1.0819212198257446, 1.1539252996444702, 1.1640959978103638, 1.0076780319213867], "bn1.bias": [-0.10401169955730438, -0.5643112063407898, -0.2396751493215561, -0.20168723165988922, -0.9021239876747131, -0.22273680567741394, -0.41076046228408813, -0.3266318142414093, -0.20551984012126923, -0.9967772364616394, -0.012296409346163273, -0.15375955402851105, -0.6647314429283142, -1.45003342628479, -0.3086116313934326, 0.2328881323337555, -0.3828200101852417, -0.7353675961494446, -1.1230441331863403, 0.0038086450658738613, -0.6286641955375671, -0.49934953451156616, 0.15421229600906372, -0.2806442379951477, -0.05436311289668083, -0.7911504507064819, -0.27176496386528015, -0.6374450325965881, -1.1851325035095215, -1.3975071907043457, -0.8316107988357544, -0.2925286889076233, -0.9616034030914307, -1.8267687559127808, -0.5064979791641235, -1.1340328454971313, -0.6536704897880554, -1.120345115661621, -1.4528965950012207, -0.8160640597343445, 0.018350699916481972, -0.58470618724823, -0.9166121482849121, -0.7612769603729248, 0.2726951539516449, -1.0540772676467896, -0.34230971336364746, -0.43631279468536377, -0.4954364597797394, -0.5334323048591614, -1.1537656784057617, -0.3508867025375366, 0.05954727530479431, -0.5218461155891418, -0.8135441541671753, -0.9458521604537964, -0.5851817727088928, -0.20629391074180603, -0.5259629487991333, -0.5631406903266907, -0.601700484752655, -0.7810516357421875, -0.9477691054344177, -0.6653908491134644], "conv2.weight": [[[[-0.5928224921226501, -0.6895597577095032, -0.6361323595046997], [0.10315955430269241, 1.0802600383758545, -0.358957976102829], [0.07449712604284286, 1.759909749031067, 1.2453769445419312]], [[-0.36404475569725037, -0.10671103000640869, 0.5111823678016663], [0.07555743306875229, -0.08955224603414536, 0.3395335376262665], [0.15496298670768738, -0.2762063145637512, -0.2793918550014496]], [[-0.7063149809837341, -1.206484079360962, -0.1907891035079956], [0.19186528027057648, 0.21528130769729614, -0.23637144267559052], [0.616533637046814, -0.14404726028442383, -0.9156414866447449]], [[0.10646029561758041, -1.1364753246307373, 0.7462563514709473], [0.09249590337276459, -0.9178602695465088, -2.2372536659240723], [0.7959445118904114, -1.1351860761642456, 1.3184202909469604]], [[-0.3961305618286133, 0.4147372245788574, 0.318774551153183], [-0.016487590968608856, 0.18800736963748932, 0.7100621461868286], [1.5179495811462402, -0.8466322422027588, -0.39542001485824585]], [[0.8565083146095276, 0.14941631257534027, -0.2876477837562561], [0.04621928185224533, 0.4860401153564453, 0.3496863842010498], [1.4898139238357544, 0.1640574187040329, -0.16711661219596863]], [[-0.6497353315353394, 1.5169832706451416, -0.3096271753311157], [0.22166979312896729, 0.1452094167470932, -0.6751658320426941], [0.36953383684158325, -0.851239800453186, -1.0640405416488647]], [[-0.436885267496109, -0.011561736464500427, -0.22096973657608032], [-0.18538276851177216, -0.01872582919895649, 0.4929113984107971], [1.2025600671768188, -0.8099838495254517, 0.4836581349372864]], [[0.043813034892082214, -0.25638219714164734, 0.3140173852443695], [-0.9074906706809998, 0.48761987686157227, -0.29575270414352417], [0.03564964979887009, 0.021654561161994934, -0.025698866695165634]], [[0.44314369559288025, -1.4801273345947266, 0.21415536105632782], [-0.5078933835029602, 1.172277569770813, 0.09037962555885315], [1.2118028402328491, 0.28084707260131836, -1.7117087841033936]], [[-1.540110468864441, 0.14176097512245178, -0.11023369431495667], [0.7135728001594543, -0.37576526403427124, -0.37090569734573364], [-0.48863598704338074, 0.38386785984039307, 0.048925209790468216]], [[0.9962773323059082, -1.0387054681777954, -1.0100044012069702], [0.3206464648246765, -0.4747822880744934, -0.020238608121871948], [0.5063270926475525, 0.5720980763435364, -0.3706631362438202]], [[-0.2697469890117645, -1.286882758140564, -0.47633233666419983], [-0.6106236577033997, -0.10744644701480865, 0.8767575025558472], [-1.8333009481430054, 0.17897887527942657, 0.400018572807312]], [[-0.29587721824645996, -0.14288108050823212, -0.31168171763420105], [1.0157939195632935, -0.2706471383571625, -0.1272542029619217], [0.5568107962608337, -0.15064187347888947, -0.7989229559898376]], [[-0.5915544033050537, 0.27321070432662964, 0.27450957894325256], [-0.3515537679195404, 0.5223370790481567, -1.1510475873947144], [-0.13221506774425507, 0.12384568899869919, -0.24356025457382202]], [[-0.7291685342788696, 0.42300957441329956, -0.6915546655654907], [-0.5832885503768921, 0.9393866658210754, 1.0167286396026611], [0.5291934013366699, -0.21193517744541168, 0.5679848194122314]], [[0.9975280165672302, -0.13138702511787415, 0.30085262656211853], [-0.7060219645500183, 0.4747302532196045, -0.9758127927780151], [-0.5160396695137024, 0.39796826243400574, 0.7334409356117249]], [[-0.2178545594215393, -0.2389264553785324, -0.04771038144826889], [-0.553383469581604, -0.38973528146743774, -0.8459475040435791], [-0.27072182297706604, -0.0359901525080204, -0.458650678396225]], [[-1.0462579727172852, -0.4424726366996765, -0.13950636982917786], [-0.44975799322128296, 0.6122826337814331, -0.637658417224884], [1.0000468492507935, -1.103625774383545, -1.429473876953125]], [[-0.1033439040184021, 0.3072971701622009, 0.6607645153999329], [-0.6141777038574219, -0.8323045969009399, -0.5552590489387512], [1.0299960374832153, 1.0111963748931885, 0.17798911035060883]], [[-0.3012655973434448, -0.019126836210489273, 0.938432514667511], [1.0618032217025757, 0.08016717433929443, -0.12887713313102722], [-0.517937421798706, -0.2827143371105194, 0.13352741301059723]], [[-0.21630309522151947, -0.8988189697265625, -0.7464889883995056], [0.6412848234176636, -1.2885210514068604, -0.0023051626048982143], [-1.1846482753753662, -0.1884462535381317, 0.6224373579025269]], [[-0.3989896774291992, 0.49643561244010925, 0.7417081594467163], [-0.2850377559661865, 0.18907314538955688, -0.6199847459793091], [0.01869805157184601, -0.010258286260068417, 0.30144602060317993]], [[0.30893832445144653, -0.12437108904123306, 0.8696646094322205], [-0.5255352258682251, -0.046815186738967896, -0.5909512042999268], [-0.19976945221424103, 0.4517727196216583, 0.08760811388492584]], [[-0.03759348392486572, -0.3147927224636078, 0.5689243674278259], [0.22270184755325317, 0.6971758008003235, 0.9717963933944702], [1.0740180015563965, -0.21276940405368805, 0.17307741940021515]], [[-1.3695976734161377, -0.8825827836990356, 0.08878620713949203], [0.016537999734282494, 0.39273369312286377, -0.4231640696525574], [-0.49384981393814087, 1.0206018686294556, 1.1099143028259277]], [[1.2277222871780396, 1.4751695394515991, -0.6052764058113098], [0.023285740986466408, -0.5567512512207031, -1.0056990385055542], [0.08579803258180618, 0.03045622818171978, 0.9043506383895874]], [[0.003295025322586298, -0.3390204906463623, -0.18940436840057373], [0.745075523853302, 1.2629601955413818, -0.5119993090629578], [-0.7630309462547302, -0.955197811126709, -0.3606857359409332]], [[-0.7944424748420715, -0.2410198301076889, -0.7625553011894226], [0.27833855152130127, -0.37058544158935547, -0.03228791430592537], [0.6051892638206482, -0.6538640260696411, 1.34581458568573]], [[0.26778435707092285, 1.1875169277191162, 1.4434319734573364], [0.47904983162879944, 0.22731003165245056, 0.22718948125839233], [0.18646258115768433, -0.5771933197975159, 0.5294050574302673]], [[0.3387364149093628, -0.14881059527397156, 0.07751744240522385], [-0.9691163301467896, 0.11176330596208572, -0.07131562381982803], [-0.11964784562587738, -0.35695186257362366, -1.1022955179214478]], [[0.45211780071258545, 1.036123514175415, 0.2837025225162506], [1.1503052711486816, -0.49040526151657104, 0.7870151400566101], [0.09558284282684326, -0.13712286949157715, -0.9823880195617676]], [[-0.36368465423583984, -0.3821951448917389, 0.22372998297214508], [0.4854646921157837, -0.4576152563095093, 0.062471650540828705], [1.7978520393371582, 0.5649948716163635, 0.2120916098356247]], [[-0.1372624784708023, 0.7452050447463989, -0.7357251644134521], [-1.493485689163208, 1.280571460723877, 0.12104051560163498], [0.34307876229286194, -0.8978614211082458, -0.7585301399230957]], [[-0.6689749956130981, 0.5904456973075867, 0.14186012744903564], [0.2638508379459381, -0.14902600646018982, 0.386213481426239], [0.7886362075805664, 0.3252542316913605, -0.2384086400270462]], [[0.02706628479063511, -0.18262165784835815, -0.3991636633872986], [0.8112319707870483, -0.27134349942207336, 1.3808878660202026], [-1.7178202867507935, -2.766848087310791, -0.9936522245407104]], [[-0.9817546606063843, 0.5642836093902588, -1.0023452043533325], [0.1765477955341339, 0.13789652287960052, -0.6170682907104492], [-0.45254284143447876, 0.4505203664302826, 0.5224109292030334]], [[-2.0000011920928955, 0.2270667850971222, 0.005226194858551025], [-1.9558777809143066, -0.38654768466949463, 0.1785602569580078], [-0.2753143310546875, 0.5234089493751526, 0.5654706954956055]], [[0.38720762729644775, 0.33583834767341614, -1.0202051401138306], [0.6518717408180237, 0.11086644977331161, 0.5394759774208069], [1.0363378524780273, -0.10488440841436386, -0.8918947577476501]], [[-0.2171868234872818, 1.054795742034912, 0.057264916598796844], [-0.09356759488582611, -0.5013408660888672, 0.31894755363464355], [-0.009056134149432182, 0.10004179179668427, 0.14865688979625702]], [[1.0773355960845947, 0.7242584228515625, -1.4850757122039795], [0.4918845593929291, -0.39853376150131226, 0.3026461601257324], [0.33011916279792786, -0.15659460425376892, -0.12088923156261444]], [[0.5459167957305908, -1.528119683265686, 1.448609709739685], [0.9784839153289795, -0.14852799475193024, -0.7220622301101685], [0.7305238246917725, -0.2728363275527954, 0.4233054220676422]], [[-2.0221869945526123, 0.9753443002700806, 0.7349843382835388], [0.7729899883270264, 0.6043534278869629, 0.0814247876405716], [-0.3638889789581299, 0.29105180501937866, 0.27379539608955383]], [[-0.29651913046836853, -0.4977070093154907, -0.029171261936426163], [0.6184844374656677, 0.6722490191459656, -0.6712738871574402], [-0.9602358937263489, -0.3445000946521759, 0.5861852765083313]], [[-0.9635329842567444, 0.15029188990592957, 0.4429771304130554], [-0.7024586200714111, -0.19378787279129028, 0.8380383253097534], [0.03726565092802048, 0.17849090695381165, 0.30295225977897644]], [[-1.3242356777191162, 0.5504310131072998, -0.41620326042175293], [0.2996939718723297, 1.0554155111312866, 0.1843966543674469], [-0.5624685883522034, 0.05280687287449837, -0.5111536383628845]], [[-0.17129835486412048, -0.5063537359237671, 0.21039161086082458], [-2.4369583129882812, 0.38802844285964966, -0.36504217982292175], [0.43760332465171814, -0.4790714979171753, 0.7497097253799438]], [[0.27177128195762634, 0.3297727406024933, -1.641148328781128], [0.09549766033887863, 1.0359458923339844, -0.8646290898323059], [0.444109708070755, -0.42681020498275757, 0.9715408086776733]], [[-0.6758991479873657, -0.2549515664577484, 1.3012546300888062], [-0.06131557375192642, -0.4766550064086914, 0.8790259957313538], [-1.1259868144989014, -0.1470097452402115, -0.44834205508232117]], [[-0.17560803890228271, -0.12746594846248627, -0.20887668430805206], [-0.11529690772294998, 1.1952484846115112, 1.1471880674362183], [-0.38173919916152954, -1.8315765857696533, 1.015292763710022]], [[0.19644220173358917, 0.2371922880411148, -0.5712701678276062], [-0.06300124526023865, -0.6619881987571716, -0.1754898875951767], [-0.4894278049468994, -1.281876564025879, -0.8897644877433777]], [[0.27110451459884644, -0.3518218994140625, 0.5801557898521423], [-0.2112155258655548, 0.17031359672546387, 1.460660696029663], [-0.7763679027557373, 0.3513912558555603, -0.10052362829446793]], [[0.0705905631184578, -0.30066025257110596, -0.4027688205242157], [0.32157963514328003, 0.06747226417064667, -0.8343875408172607], [0.39029818773269653, -0.4412609934806824, 0.8537110686302185]], [[0.07273034006357193, 0.04088396579027176, -0.4218803942203522], [0.09067106246948242, 0.26833590865135193, -0.13713747262954712], [-0.8013335466384888, 0.10763296484947205, -0.8856973052024841]], [[-0.44100648164749146, 0.6290329098701477, 1.1281896829605103], [0.4566422402858734, 1.2586668729782104, -0.7161726951599121], [0.6463368535041809, 0.1146404892206192, -0.011763647198677063]], [[-0.20982752740383148, -0.2105427384376526, 0.55748450756073], [-0.3749427795410156, -1.4171717166900635, -0.008585821837186813], [-0.8666276335716248, 0.20801009237766266, 0.2593388855457306]], [[0.15964575111865997, 0.25292491912841797, -0.5058143734931946], [0.3984578251838684, -0.1731385737657547, 0.9163453578948975], [-0.06539101153612137, -0.17870868742465973, -0.2921214699745178]], [[-0.46448639035224915, 0.9123790860176086, -0.3194687068462372], [-0.326406329870224, 0.3100171983242035, -0.9450244903564453], [-0.1073087751865387, -0.861764669418335, 1.0312881469726562]], [[-0.30271482467651367, 0.41773656010627747, 0.2467622011899948], [-0.2297835797071457, 1.136306881904602, 0.6513490676879883], [-1.714242935180664, -1.1918023824691772, -0.3601588010787964]], [[-0.3474871516227722, -0.1328192800283432, 0.3069113790988922], [-0.22535739839076996, 0.16780178248882294, 0.27219700813293457], [0.2204633206129074, -0.7509686350822449, 1.8436676263809204]], [[0.5832955837249756, -2.2812583446502686, -1.2934565544128418], [-0.4392643868923187, 0.05977756902575493, -0.5122988820075989], [0.8113391995429993, 0.12984049320220947, -0.355292946100235]], [[0.035945042967796326, 0.08299273997545242, -0.1184244155883789], [-0.2745853066444397, -1.5089545249938965, 0.5971382260322571], [-1.4309436082839966, 0.6120200753211975, -1.0199731588363647]], [[0.536281406879425, -0.9028159379959106, -0.06281882524490356], [-0.7071841955184937, 0.7790328860282898, 0.4139329493045807], [-0.26790791749954224, -0.1089572161436081, 0.6975426077842712]], [[0.6827034950256348, -0.5289638042449951, 0.34574323892593384], [-0.2153559923171997, 0.7249671220779419, -0.2490568906068802], [0.42023319005966187, 0.3531164824962616, -0.9550825357437134]]], [[[-0.1588718742132187, -0.2438461035490036, -0.3040086627006531], [-0.8922176361083984, 0.7996701598167419, -0.7925955653190613], [0.003831958631053567, 0.34069517254829407, 0.10266265273094177]], [[0.1455080509185791, -0.5160892605781555, 0.5126084685325623], [-0.8287129402160645, -0.2582889795303345, -1.3788249492645264], [0.7215006947517395, 0.7213063836097717, -0.2366398125886917]], [[-0.11393733322620392, -0.18909314274787903, -0.4821912944316864], [-1.4251042604446411, -0.08455747365951538, -0.6203256845474243], [-1.9018064737319946, -0.6100754141807556, 0.9604560732841492]], [[-0.25802507996559143, -0.3021492063999176, 0.21240049600601196], [-0.375119686126709, 0.052189894020557404, -1.4014878273010254], [0.49531880021095276, -0.33426082134246826, 0.06176960840821266]], [[0.5703827738761902, -0.3918899893760681, -1.4462462663650513], [-0.07364895194768906, -0.690514326095581, -0.1502184122800827], [0.45647555589675903, -0.8537470102310181, -0.02593507058918476]], [[0.7717328667640686, 0.23150616884231567, 1.78589928150177], [0.3316410779953003, -0.17939968407154083, -0.4061500132083893], [-0.20721693336963654, -0.12858375906944275, -0.07004167139530182]], [[0.6533997654914856, -0.09110775589942932, -0.18742018938064575], [0.6975104212760925, -0.11524322628974915, 1.0226432085037231], [0.9366170763969421, -0.10537887364625931, -0.15374702215194702]], [[-0.12469727545976639, -0.21977202594280243, -0.26473405957221985], [-0.2075585573911667, -0.8007680177688599, 0.6214668154716492], [-0.08457986265420914, -0.44349169731140137, 0.624952495098114]], [[0.8584558367729187, -0.6916753649711609, 0.348824679851532], [0.10867585986852646, 0.973699152469635, 0.4982219636440277], [0.512281060218811, 0.00726854894310236, -0.17602244019508362]], [[-0.16747474670410156, 0.37048834562301636, -0.2612658441066742], [-0.021091220900416374, -0.6444932222366333, -0.5120293498039246], [0.8117846846580505, 0.3926931321620941, 0.8969128131866455]], [[0.17121365666389465, -0.7834178805351257, -0.011381233111023903], [-0.9405850768089294, 0.37811657786369324, 0.2595575451850891], [0.6290139555931091, 0.11676103621721268, -0.7620768547058105]], [[0.4966978132724762, -0.40752318501472473, 0.6309053897857666], [-0.2596853971481323, -2.392183303833008, -0.16590610146522522], [0.44797080755233765, 0.44797345995903015, 0.2205301970243454]], [[1.1739321947097778, -0.3598549962043762, -0.2391739934682846], [-1.5531997680664062, -0.39243456721305847, 0.39888590574264526], [-1.2313374280929565, 0.06703224778175354, 0.5014232397079468]], [[-0.29666101932525635, -0.026818571612238884, -0.38273128867149353], [0.2807941734790802, 0.11995676159858704, -0.3115033805370331], [-0.006394172087311745, 0.7168885469436646, -0.8209652900695801]], [[-0.548615038394928, 0.19593308866024017, -1.0383297204971313], [0.033935461193323135, 0.6458080410957336, -0.44476354122161865], [1.8344953060150146, 0.010950420051813126, -0.1558872014284134]], [[0.5952643752098083, 0.0652039423584938, -0.0016101760556921363], [-0.20034761726856232, -0.3099499046802521, 0.37933558225631714], [0.12325920164585114, 0.23116198182106018, 0.19725213944911957]], [[-0.183956116437912, -0.41815459728240967, 0.18339936435222626], [-0.3066027760505676, 0.47145265340805054, -0.002260661218315363], [1.3722459077835083, -0.3492574691772461, 0.45524710416793823]], [[0.83637535572052, 0.3898402154445648, -0.5430470705032349], [0.26542067527770996, -0.5548050999641418, 0.9477260708808899], [-1.2035415172576904, 0.4864368438720703, -0.3629158139228821]], [[0.8369499444961548, 0.10077198594808578, -0.4387684762477875], [0.9165709018707275, 1.6314947605133057, 0.2960311770439148], [-0.8895874619483948, -0.21399840712547302, 0.6218233108520508]], [[0.5287126302719116, -0.8770843148231506, -2.3852450847625732], [-0.15351110696792603, -0.6003997921943665, 0.8032311797142029], [-0.2445371150970459, 0.02973848395049572, -0.20809249579906464]], [[-0.7704910635948181, -0.4444812536239624, -0.14809660613536835], [0.29399174451828003, -0.43991929292678833, 0.9808818101882935], [0.6272759437561035, 0.6377226114273071, 0.2671973407268524]], [[0.4583660364151001, 0.47856056690216064, 0.7603959441184998], [-0.042132243514060974, -0.2719285488128662, 0.5338597297668457], [-1.5986138582229614, -0.13612277805805206, -0.8741863965988159]], [[0.05943973734974861, 0.10108007490634918, -1.2146509885787964], [-0.07389889657497406, 0.3677551746368408, 0.3221573829650879], [0.814237654209137, 0.7208916544914246, -0.17997033894062042]], [[0.6483781337738037, -0.2535410523414612, 0.27188414335250854], [-0.697012722492218, 1.0044666528701782, -0.2987956404685974], [0.3492818772792816, -0.24475857615470886, 0.22108802199363708]], [[-0.39081111550331116, -0.20415948331356049, 0.4964028298854828], [-0.02811949886381626, -0.2422800362110138, -0.040372394025325775], [-2.8304550647735596, -0.14434115588665009, 0.6796621084213257]], [[-0.7830954790115356, 0.4094357192516327, -0.3261755704879761], [-0.5880557298660278, 0.3934250771999359, -1.0673809051513672], [-0.7000421285629272, 0.0752573236823082, -0.0006309687159955502]], [[0.5631787180900574, -0.1867886483669281, -0.9278431534767151], [0.11429745703935623, 0.23396515846252441, 1.4688557386398315], [1.455118179321289, 0.7300958037376404, -1.5883309841156006]], [[-1.1462070941925049, 0.2555023431777954, 0.5011770725250244], [-0.9779821634292603, 1.5367523431777954, 0.3012906610965729], [-3.865391969680786, 0.580780029296875, -0.6936309933662415]], [[0.2793125510215759, -0.02635892853140831, 0.8891485333442688], [-0.36469021439552307, -0.9507215023040771, 1.2238783836364746], [-0.075757697224617, 0.09724419564008713, 0.7764928340911865]], [[-0.7827295064926147, 0.5385445356369019, 0.22240042686462402], [0.04814840853214264, -0.7090197801589966, 0.24354316294193268], [-0.7012902498245239, -0.6889649629592896, 0.6541704535484314]], [[0.08125105500221252, -0.0561395138502121, 0.5505272150039673], [-0.19577836990356445, -0.08856849372386932, 0.03395986557006836], [0.11065143346786499, -0.4792752265930176, 0.36024096608161926]], [[-0.6443395614624023, -0.40781351923942566, -0.5453023314476013], [-0.44619154930114746, -0.627388596534729, -1.0346910953521729], [-0.553031861782074, 0.3087414801120758, -0.3058069944381714]], [[0.04362238943576813, -0.18654827773571014, -0.055867768824100494], [0.14589352905750275, 0.4189172685146332, 0.12415150552988052], [1.3743786811828613, -0.26815420389175415, 0.3132910132408142]], [[0.41059431433677673, 0.3590833842754364, -0.3047473430633545], [0.13700135052204132, -0.45326536893844604, -0.5447980165481567], [1.5925922393798828, -1.285193681716919, 0.3759233355522156]], [[0.8102544546127319, 0.4149690866470337, 0.7788538336753845], [-0.27112293243408203, 0.5555344223976135, 0.31088027358055115], [-0.5040633678436279, 0.46284449100494385, 0.3073034882545471]], [[-0.42495885491371155, -0.6384544372558594, 0.1678885668516159], [-0.7923324108123779, 0.31790804862976074, -0.11849255114793777], [-0.3084888458251953, -0.36682137846946716, 0.4056830108165741]], [[0.5422689914703369, 1.119566798210144, 1.1390693187713623], [0.37044984102249146, 0.18150341510772705, -0.7826427817344666], [-0.4937545955181122, -0.008972950279712677, 0.6070772409439087]], [[0.4287375211715698, -0.2536548972129822, -0.16148033738136292], [-0.598376452922821, 0.016569366678595543, -0.22199051082134247], [0.8023436069488525, -1.3517160415649414, 0.040430083870887756]], [[-0.43679535388946533, -0.8689895868301392, 0.017824776470661163], [-0.03084556758403778, 0.5568634867668152, -0.04140623286366463], [0.3341914117336273, -0.7061730027198792, -0.17507275938987732]], [[0.44260627031326294, -0.1879129260778427, -0.03572319447994232], [-0.08748114109039307, 0.18006740510463715, 0.7478027939796448], [0.2388448715209961, -0.2097923904657364, 0.719740092754364]], [[-0.30979087948799133, 0.3964376747608185, 1.2539206743240356], [-0.2705264389514923, 0.09971164911985397, 0.5334154963493347], [0.959952712059021, 0.46826162934303284, -0.006548749282956123]], [[-0.40604448318481445, 0.26685383915901184, 0.7931793332099915], [0.6176931262016296, -0.44594305753707886, -1.4041452407836914], [0.48541486263275146, -0.6369538903236389, -0.553797721862793]], [[-0.4171433746814728, -0.7551724314689636, 0.3554484248161316], [0.021667594090104103, 0.5548621416091919, -0.9734311699867249], [-0.002147387946024537, -0.30208081007003784, -0.24278517067432404]], [[0.6187052726745605, -0.4579486846923828, -0.09237527847290039], [0.7433187961578369, 0.9313030242919922, 0.3538239002227783], [-1.60109543800354, 0.7414023876190186, 0.1368713229894638]], [[-0.20759017765522003, -0.03269493579864502, 1.3536972999572754], [-0.5992858409881592, 1.2948647737503052, -0.8963010907173157], [-0.054244037717580795, -0.29726269841194153, 0.44467079639434814]], [[-0.3689848482608795, -0.687592625617981, -0.009223902598023415], [-0.10692945122718811, -0.5452835559844971, 0.017245065420866013], [0.5242384076118469, 0.039164893329143524, -1.079807996749878]], [[0.04119769483804703, 0.47060006856918335, -0.8635395765304565], [-0.22994165122509003, -0.23953716456890106, -0.5832329988479614], [0.7251409888267517, -0.40768882632255554, -0.5720185041427612]], [[0.310457319021225, -0.4099922180175781, -0.4480923116207123], [-0.32041436433792114, 0.5259141325950623, 0.8453859090805054], [-0.7756398320198059, -0.37075427174568176, 0.7645682692527771]], [[0.44954991340637207, -1.1157971620559692, -1.8000925779342651], [-0.6332389712333679, -0.7120690941810608, -0.7739306688308716], [1.3115859031677246, -0.5271552801132202, -0.08897246420383453]], [[0.04502744972705841, -0.029193324968218803, -0.6193620562553406], [-0.2328844666481018, 0.4291107654571533, 0.4457947611808777], [0.45416581630706787, 0.08026409149169922, 0.08575239032506943]], [[-0.1643105149269104, 0.03634147718548775, 0.34026840329170227], [-0.35743454098701477, 0.2596360146999359, 0.5361508131027222], [-0.5928571224212646, -0.6649114489555359, 0.3785909414291382]], [[0.06233672425150871, -0.3659090995788574, 0.19669918715953827], [0.36706358194351196, -0.3508707284927368, 0.1177900955080986], [-1.1667951345443726, -0.19954374432563782, 0.7354483008384705]], [[0.24485960602760315, -0.4191886782646179, -0.07421741634607315], [-0.28659823536872864, 0.9282854199409485, 0.7229734063148499], [0.8311493396759033, -0.10643470287322998, 0.7406536340713501]], [[0.8269150257110596, 0.740344226360321, 0.49482861161231995], [0.5992633700370789, -0.08765649795532227, -0.5398159623146057], [-0.8260253071784973, -0.31891530752182007, 0.15506015717983246]], [[0.3095532953739166, 0.8915241956710815, -4.27455997467041], [0.190614715218544, 2.4271154403686523, -0.8858130574226379], [-0.04427574202418327, 0.170675128698349, -0.034873828291893005]], [[-0.3194485902786255, 0.4003975987434387, 0.980302631855011], [-0.12219298630952835, 0.41014865040779114, -0.6444844007492065], [0.5703268051147461, 0.40972673892974854, -0.4350176751613617]], [[0.427664190530777, -0.48077020049095154, 0.48788881301879883], [-0.7036570310592651, 0.6676291227340698, -0.731276273727417], [-1.4933992624282837, -0.2471112161874771, 1.1211965084075928]], [[0.1886460781097412, -0.0008491179323755205, 0.28106510639190674], [-0.07063623517751694, 0.4937956631183624, -0.21152618527412415], [-1.1140588521957397, 0.5884537100791931, -0.10132710635662079]], [[-0.5734883546829224, -0.5215787291526794, -0.582934558391571], [-1.1389658451080322, -0.011788412928581238, -0.41213399171829224], [-1.129047155380249, 0.6366989612579346, -0.356819212436676]], [[-0.7510694861412048, 0.9028712511062622, -0.0749833956360817], [0.06301403790712357, -0.036157213151454926, -0.7175398468971252], [0.9593968987464905, 0.6236903667449951, -0.35254165530204773]], [[-0.36962753534317017, -0.14238564670085907, 0.8196714520454407], [-0.34908023476600647, 1.0037420988082886, 1.2099080085754395], [0.36009514331817627, 0.5921933054924011, -0.2647789418697357]], [[0.40503746271133423, 0.19015176594257355, 1.4934824705123901], [1.3216995000839233, -0.23135408759117126, -0.20425637066364288], [-0.2961089611053467, 0.4675988256931305, -0.29297134280204773]], [[0.050784431397914886, 0.7792824506759644, 0.03630425035953522], [-0.2458624392747879, 0.29774609208106995, -0.014596207067370415], [-0.16097252070903778, 0.27620744705200195, -0.05541139468550682]], [[0.9925881028175354, 0.3506508767604828, -0.6100112795829773], [0.3679946959018707, -0.3079431653022766, -0.2346600592136383], [0.25599658489227295, -0.9949164390563965, -0.8015596270561218]]], [[[-0.5978511571884155, 0.25597140192985535, 0.30719080567359924], [-0.5546020865440369, 0.1298031508922577, -0.39015960693359375], [-0.16020023822784424, 0.011574420146644115, -0.8914906978607178]], [[0.598220705986023, -0.8945248126983643, -0.5549083352088928], [0.30891552567481995, 0.7495297193527222, -0.005597251933068037], [0.8307068347930908, -0.959012508392334, -0.4724029004573822]], [[0.24440142512321472, 0.03560982644557953, -0.18495342135429382], [0.46142685413360596, 0.11129143089056015, -0.040921106934547424], [0.4431520700454712, -0.5435162782669067, -0.4952807128429413]], [[0.594673752784729, -0.013409801758825779, 0.33913716673851013], [0.8782767653465271, -0.726047933101654, 0.01566138118505478], [-1.037794828414917, -0.20978419482707977, 0.21075880527496338]], [[-0.07752721011638641, -0.6836525797843933, -0.7052603960037231], [-0.35059383511543274, -1.9081134796142578, 0.6585386395454407], [0.5581491589546204, -0.4390293061733246, 0.13525770604610443]], [[0.26082080602645874, -0.2762155830860138, -0.6859757304191589], [0.5232211947441101, -0.028851913288235664, 0.1743476390838623], [-0.7748492956161499, 0.5438932180404663, 0.22942370176315308]], [[-0.1401001363992691, 0.8245590925216675, -0.2907489836215973], [-0.349849134683609, 0.5162463784217834, -0.18094266951084137], [0.7469961047172546, -0.01010475866496563, -0.4967767894268036]], [[1.0963741540908813, 1.385651707649231, 0.5474924445152283], [0.3405424952507019, -0.5267505049705505, 0.25543349981307983], [-0.11249548941850662, -0.1440102607011795, -0.1163337230682373]], [[-0.6138858199119568, 0.2494162917137146, 0.536638081073761], [-0.34590044617652893, 1.900284767150879, -0.052023887634277344], [-0.7928030490875244, -0.10201868414878845, 0.9970675110816956]], [[0.6155030131340027, 0.6770270466804504, 0.5137909650802612], [-0.7682432532310486, 0.3826703727245331, -0.12313506752252579], [0.6075541377067566, -0.10007183998823166, 0.46644729375839233]], [[0.0641738772392273, 0.19397415220737457, 0.23336459696292877], [0.9048620462417603, -0.5824894309043884, -0.5485867261886597], [-0.7573920488357544, -0.41830721497535706, -0.049196165055036545]], [[0.053660716861486435, 1.066298246383667, 0.033505603671073914], [-0.12562857568264008, 0.3508138656616211, -0.948592483997345], [-0.48615896701812744, -0.6639021635055542, -1.08578360080719]], [[-0.6297779083251953, 0.3907443881034851, -0.5189429521560669], [0.9004406332969666, 0.863250732421875, 0.266160249710083], [-1.372897744178772, 0.08553794771432877, 0.061211712658405304]], [[0.1550305187702179, 0.39476293325424194, -0.23492629826068878], [-0.14849381148815155, -0.11700375378131866, 0.34045520424842834], [0.1441715657711029, -1.084726095199585, -1.0009571313858032]], [[0.007611293811351061, -0.06159912794828415, 0.42574915289878845], [1.2728246450424194, 0.6947304606437683, 0.8069891929626465], [-0.11264892667531967, -0.40235212445259094, 1.0516247749328613]], [[-1.7198354005813599, 0.4275438189506531, -0.47988757491111755], [0.3190397322177887, 1.2299996614456177, -0.22412435710430145], [-0.3503420352935791, -1.647850513458252, -0.15724116563796997]], [[-0.4971773326396942, 0.4285128116607666, 1.2271682024002075], [-0.13070964813232422, 0.02688562124967575, -1.0629069805145264], [0.3778112828731537, -0.25822630524635315, 0.4336725175380707]], [[-0.3127697706222534, -0.2573012411594391, 0.5863025188446045], [-0.9804710149765015, -0.6213395595550537, 0.37215209007263184], [-0.9819173812866211, -0.3562494218349457, -1.3808645009994507]], [[-0.243255615234375, -0.22330492734909058, 1.2161396741867065], [-1.064216136932373, 1.0705573558807373, -0.18562795221805573], [0.6595608592033386, 0.3302469849586487, 0.006624758243560791]], [[0.3498113453388214, 0.877740204334259, 0.574520468711853], [-0.37418484687805176, 0.828444242477417, 0.13683389127254486], [-0.23405452072620392, -0.49004536867141724, -0.45150426030158997]], [[0.547219455242157, 0.31200921535491943, -0.6217254996299744], [-1.2114864587783813, -0.6486778855323792, -0.397350549697876], [0.03450753912329674, 1.05656099319458, 0.20232625305652618]], [[-0.35270875692367554, -0.18721000850200653, -0.12328825145959854], [-1.1636087894439697, -0.3834737539291382, -0.2373688668012619], [-0.7784283757209778, 0.2713565230369568, 0.2723097801208496]], [[-0.44520461559295654, -0.5201815962791443, -1.0166305303573608], [0.5654265284538269, 0.6762017607688904, -0.5576515197753906], [0.16150304675102234, -0.5104792714118958, -0.9315613508224487]], [[-1.712884783744812, -0.20187823474407196, 1.5532289743423462], [-2.8701629638671875, 0.37275800108909607, -0.019484655931591988], [-1.3565043210983276, -0.18663017451763153, 0.13855813443660736]], [[0.49661365151405334, -0.10752440243959427, -0.3737565279006958], [0.3437329828739166, 0.29659968614578247, 0.007330369669944048], [-1.4370276927947998, -0.48176464438438416, -0.08049209415912628]], [[0.3077242970466614, 0.9103810787200928, 0.6513652205467224], [0.1275751292705536, 0.949367105960846, -0.575080394744873], [-1.1411556005477905, -0.21318461000919342, 0.2300364375114441]], [[-0.02861277014017105, -0.3671334981918335, -1.1882106065750122], [-0.11957977712154388, 0.12690123915672302, 0.6000684499740601], [0.1158125177025795, -0.9800703525543213, -0.24535402655601501]], [[0.5460733771324158, -0.03968927636742592, -0.15841950476169586], [-0.017359036952257156, -0.2945605218410492, -0.25190845131874084], [0.16769005358219147, -0.8734135031700134, 0.38286030292510986]], [[-0.63539719581604, -0.17640483379364014, -0.24983888864517212], [-0.16126325726509094, -0.8665123581886292, 0.18957962095737457], [-1.2581150531768799, 0.023324009031057358, 0.3408224582672119]], [[-0.7184186577796936, 0.23275749385356903, 0.5897181630134583], [-0.6165164709091187, 0.532882034778595, -0.6776906251907349], [0.8237552046775818, -2.907212018966675, -0.025871647521853447]], [[-0.7352269887924194, -0.23333704471588135, 1.2234652042388916], [-0.2641147971153259, 0.32522207498550415, -0.13650594651699066], [0.15287911891937256, 1.2187931537628174, -0.06682395935058594]], [[0.18751782178878784, 0.5955395102500916, 0.1725766956806183], [-0.19874286651611328, -0.5987526178359985, -1.2388042211532593], [0.7531958222389221, -0.0036690612323582172, 0.33844396471977234]], [[0.8048856854438782, -0.07676491141319275, -0.3361581861972809], [-0.03940034657716751, -0.8798441290855408, -0.317739874124527], [1.1596076488494873, 0.4495774507522583, 0.010536957532167435]], [[0.6876052021980286, -0.35638415813446045, 0.16214096546173096], [0.9234939813613892, 0.7776651978492737, -0.06963898241519928], [1.7758841514587402, -0.15188513696193695, -0.36557191610336304]], [[0.6731012463569641, -0.16348975896835327, -0.14272771775722504], [-0.46462497115135193, -1.060066819190979, 0.2864592373371124], [-0.7105659246444702, 0.1845383197069168, -0.24769097566604614]], [[-0.0854695737361908, 0.23089000582695007, 0.021412115544080734], [-0.2731799781322479, 0.046967584639787674, 0.37664297223091125], [-0.2687986493110657, -1.372691035270691, 0.725721001625061]], [[0.21363791823387146, -0.2902545928955078, 0.4912479519844055], [0.39929112792015076, -0.7948358654975891, -0.49313390254974365], [1.261885404586792, -0.5490249991416931, 1.2072504758834839]], [[-0.26669374108314514, 0.10404861718416214, -0.39146843552589417], [1.0645524263381958, 0.5620142221450806, 0.31838271021842957], [-0.6268406510353088, 0.6900449991226196, 0.27082619071006775]], [[0.555230438709259, -0.7896128296852112, -0.0813477486371994], [0.797410786151886, 0.026707887649536133, 0.006879421416670084], [-0.03776560723781586, 0.418106347322464, 0.5193272233009338]], [[-0.7193486094474792, 0.02284524030983448, 0.23292887210845947], [-0.5911446809768677, -0.3778812289237976, 0.5906724333763123], [-0.46403202414512634, -0.46026286482810974, 0.5783695578575134]], [[1.7940274477005005, -0.1795164793729782, 0.3948157727718353], [0.5603203773498535, -0.048730745911598206, -0.5733664631843567], [0.46230077743530273, -0.6547393202781677, -1.9118566513061523]], [[0.9727272391319275, -0.2274458408355713, -1.6618454456329346], [0.28834348917007446, 0.3118588626384735, -0.5620798468589783], [0.07257049530744553, -0.9496654868125916, -0.20634837448596954]], [[0.6191191673278809, -0.6689984798431396, -0.18236178159713745], [-0.5149804949760437, 0.31885308027267456, -0.43986111879348755], [-1.0793794393539429, 0.1984330117702484, 0.35608601570129395]], [[-0.6461026668548584, 1.7169297933578491, 0.5990905165672302], [-1.2836307287216187, 0.4063304364681244, 1.2429611682891846], [-0.7934606075286865, -0.04581259563565254, -0.18105252087116241]], [[0.5173664689064026, 0.8954664468765259, 0.2731328308582306], [-0.031546659767627716, -0.27929753065109253, 0.3556562066078186], [-0.545259952545166, -0.6607798337936401, -1.1011136770248413]], [[0.025301003828644753, -0.8059436082839966, -1.080237627029419], [-0.02272346243262291, 0.8672564029693604, -0.39959806203842163], [-0.7524405717849731, -0.043984007090330124, 0.205226868391037]], [[1.297577142715454, -0.7486177086830139, -0.03470714017748833], [-0.6354265809059143, 0.0936930701136589, -1.0238784551620483], [1.394248366355896, 0.21796561777591705, -0.9299980998039246]], [[0.8219539523124695, -0.6638777852058411, -0.5829975008964539], [0.11011713743209839, 0.5418977737426758, 0.47167980670928955], [-1.508854866027832, 0.0759095847606659, -0.7017619609832764]], [[-0.14685262739658356, -0.034871842712163925, 0.9282661080360413], [-0.6378300189971924, 0.8148912787437439, -0.2989996671676636], [0.50840163230896, 1.2561098337173462, -0.39523786306381226]], [[-0.006738211493939161, -0.5946309566497803, -0.36722394824028015], [-0.2067364901304245, 0.04608185216784477, -1.5021960735321045], [0.356076717376709, -0.925338625907898, 0.3790720999240875]], [[0.8008950352668762, 0.5997258424758911, 0.8304186463356018], [-1.5225443840026855, -0.42883381247520447, 0.2921596169471741], [1.0962752103805542, 0.3665059208869934, 1.2723451852798462]], [[1.0075644254684448, -0.16202320158481598, 0.5319339036941528], [-0.3208799362182617, -0.5553467273712158, 0.007810565177351236], [-0.6462701559066772, -0.950163722038269, -1.4757002592086792]], [[0.35048583149909973, -0.1562313586473465, 0.18379348516464233], [0.8968839049339294, -0.6428228616714478, -0.6594809889793396], [0.7508876323699951, -0.6001613736152649, -1.3020679950714111]], [[0.1877760887145996, -0.32570430636405945, 0.022772235795855522], [-1.3841246366500854, -0.31888195872306824, 1.030893325805664], [-0.5882169604301453, 0.66618812084198, -0.3755298852920532]], [[-0.06148885563015938, 0.484351247549057, 1.3777614831924438], [0.6960848569869995, -0.29751914739608765, 0.3325542211532593], [0.23244690895080566, 0.23660607635974884, -0.25983163714408875]], [[-0.39207661151885986, -0.3284102976322174, 0.15074434876441956], [1.0886298418045044, 0.5226573348045349, -0.059285055845975876], [-1.7574495077133179, -2.1570518016815186, -0.4358106553554535]], [[0.0737115740776062, -0.951938271522522, 1.0361073017120361], [-0.7478067874908447, -0.5754254460334778, -0.0663595199584961], [-0.8885986804962158, 0.05129507556557655, -0.1870029866695404]], [[-0.46882307529449463, 0.5513976812362671, 0.06596127152442932], [-0.6733017563819885, 0.24664053320884705, 0.7939703464508057], [-0.925872266292572, -0.07530413568019867, -0.9900774955749512]], [[-0.455299973487854, 0.14489975571632385, 0.2859894037246704], [-1.255813479423523, 0.7705768942832947, -0.49610435962677], [-0.41896528005599976, 0.29102006554603577, -0.9537554383277893]], [[0.34565088152885437, -0.06638135761022568, -0.31178686022758484], [-1.1922329664230347, 1.0730443000793457, -0.3432239592075348], [-0.8043511509895325, -0.6885600686073303, 0.8191028833389282]], [[0.3060125410556793, 0.07071572542190552, 0.8087985515594482], [0.6192598342895508, 0.07189343124628067, -0.8303284049034119], [0.161490797996521, -0.662767767906189, -0.10558679699897766]], [[-2.451066255569458, 0.5786846876144409, 0.09820704162120819], [-0.7590795755386353, -0.44002342224121094, 0.014045476913452148], [0.5896281003952026, 0.6140989661216736, 0.946826696395874]], [[-1.7810646295547485, 0.2617162764072418, -0.004692957736551762], [1.532602071762085, 0.8954691290855408, -0.7531746625900269], [-0.6774507164955139, 0.45129281282424927, 0.5448088645935059]], [[0.26481443643569946, 0.044028956443071365, -0.7316826581954956], [-0.7119734883308411, -1.1555395126342773, 0.5544514060020447], [-0.4955328106880188, 0.004570086486637592, -1.2379724979400635]]], [[[0.2295144647359848, -0.357421875, 0.04545057937502861], [-0.1456489861011505, -0.05696266144514084, -0.233277827501297], [-0.23591576516628265, 0.3616997301578522, -1.6094918251037598]], [[0.33483555912971497, 0.809062659740448, -0.20554803311824799], [-0.5968738794326782, 0.6267157793045044, -1.1825292110443115], [-0.910370409488678, -0.8381011486053467, -1.1841955184936523]], [[-0.5673774480819702, 0.6948020458221436, -0.09978703409433365], [-0.06997574120759964, -0.7806210517883301, 0.8110172152519226], [-2.9265663623809814, 0.21518711745738983, -0.21035930514335632]], [[-0.4040144085884094, 0.026413582265377045, 1.2062932252883911], [0.8221648335456848, 0.277884304523468, 0.6061351299285889], [0.8406270742416382, -1.4488122463226318, -0.4276806116104126]], [[-0.0020896350033581257, -0.8120316863059998, -0.14057913422584534], [-0.9832797646522522, -0.027842050418257713, -1.9437787532806396], [-0.1039036437869072, -0.1274436116218567, 0.2470458596944809]], [[0.08292312920093536, 0.06094536930322647, 1.0430153608322144], [-0.6694069504737854, -1.2685377597808838, 0.34375983476638794], [0.10425182431936264, 0.1599767804145813, -1.491432785987854]], [[-0.5787209272384644, 0.36109963059425354, -0.9354660511016846], [-0.039965081959962845, 0.31216615438461304, 0.4253355860710144], [0.38526231050491333, 0.924128532409668, -1.0490466356277466]], [[-1.0568116903305054, 0.08662360161542892, 1.2993178367614746], [2.462722477503121e-05, 1.2441558837890625, 0.33471620082855225], [-0.15468254685401917, -0.14601220190525055, 1.2984851598739624]], [[0.3814997971057892, 0.1600906252861023, 0.38351818919181824], [-0.873842179775238, 0.30595576763153076, -1.1667288541793823], [-1.1926298141479492, -1.1114493608474731, -0.27858656644821167]], [[-0.6127712726593018, -0.9736936688423157, 0.2859140932559967], [-0.45230919122695923, 0.09328547865152359, 1.7339274883270264], [-0.08740842342376709, -0.9137399196624756, -0.24608823657035828]], [[0.024952150881290436, 0.8761771321296692, -0.4438736140727997], [0.6153441667556763, 1.3216273784637451, 0.3645475506782532], [-0.5162515640258789, -0.6890336275100708, -0.8525484204292297]], [[-0.055780064314603806, 0.1864132136106491, -0.5414175987243652], [0.22564148902893066, 0.6444385647773743, -1.2938405275344849], [-0.9500013589859009, 0.3292000889778137, -0.621326744556427]], [[-0.9362542033195496, -0.4235125184059143, -0.38521984219551086], [0.023929061368107796, 0.21169276535511017, 0.06930749863386154], [0.024875149130821228, 0.4701445996761322, -0.860476016998291]], [[0.08214564621448517, -1.0519216060638428, -0.2177257537841797], [-1.0384236574172974, -0.9179584980010986, -0.4679749011993408], [0.06630878150463104, -0.5849930644035339, -0.5983041524887085]], [[0.22710277140140533, 0.5552581548690796, -0.04664289206266403], [-0.7657879590988159, -0.09929011017084122, -0.9443072080612183], [0.39256399869918823, 0.1922847181558609, 0.11859790980815887]], [[-0.0980047807097435, -0.09980008006095886, -0.6805239319801331], [0.18699665367603302, -0.8700030446052551, -1.0068801641464233], [-0.5399596095085144, -0.17091383039951324, -0.2739773988723755]], [[-1.8128751516342163, -0.6305435299873352, -0.0426936000585556], [0.6401817202568054, -0.26429590582847595, 0.7640424370765686], [-0.9885972142219543, 0.709893524646759, 0.1300753504037857]], [[0.6859702467918396, 0.8318223357200623, -0.30037060379981995], [-0.10880504548549652, 0.5730416774749756, -0.009746089577674866], [0.9292618036270142, 0.07430422306060791, -1.1365984678268433]], [[0.10874385386705399, 0.5764490365982056, 0.10657146573066711], [0.48336806893348694, 0.5038663148880005, -0.22808508574962616], [-0.9686295986175537, -0.14230205118656158, -0.9506826996803284]], [[0.551443874835968, 0.10439544171094894, 0.29087159037590027], [0.6559786796569824, 0.6821737289428711, 0.48233312368392944], [0.40903812646865845, -0.40801170468330383, 0.13734477758407593]], [[-0.27611252665519714, -0.4722491204738617, 0.3032401502132416], [-0.7089488506317139, 0.17760026454925537, 0.3060872256755829], [-0.041403889656066895, -0.23516212403774261, -0.1002802923321724]], [[1.0709182024002075, -1.4089741706848145, 0.09727296233177185], [0.7687301635742188, 0.9733763933181763, 0.3688119053840637], [0.09311533719301224, -0.61378014087677, -0.05744536221027374]], [[-0.5000094175338745, 0.6164774298667908, 0.18622100353240967], [-0.5091947317123413, -0.4032325744628906, 1.5040897130966187], [0.20011962950229645, -0.10221697390079498, -1.4557934999465942]], [[0.40775105357170105, -0.24446825683116913, 0.44672709703445435], [0.10431799292564392, -0.5549523234367371, 0.6683551073074341], [-0.10547766834497452, -1.0412211418151855, -1.4698477983474731]], [[1.0265964269638062, 1.2393136024475098, -1.298111915588379], [0.6378852725028992, -0.04361444339156151, 0.6158294081687927], [0.6466823220252991, 0.11563587933778763, -0.6727731823921204]], [[-1.1821194887161255, 0.1463252753019333, 0.046612825244665146], [-0.4714067280292511, 0.3443945348262787, 0.700210690498352], [0.6263677477836609, 0.5261485576629639, 0.7399982213973999]], [[-0.3294769525527954, 0.35216060280799866, 0.8935112357139587], [1.1374061107635498, 0.1081104502081871, 0.04004678130149841], [-0.6777897477149963, 0.057501692324876785, -0.8609514236450195]], [[0.3048812448978424, 0.19246463477611542, 0.5906348824501038], [-0.5875939726829529, 0.06795161217451096, 1.1289945840835571], [-0.7009471654891968, -0.36442533135414124, 0.6085675954818726]], [[-1.849249243736267, -0.06899634003639221, -0.45068231225013733], [-1.2179934978485107, -0.3010105788707733, -0.8288931846618652], [-0.24284492433071136, -0.3091185390949249, -1.2695645093917847]], [[0.9644690752029419, -0.3584200441837311, -0.023897189646959305], [-0.052309710532426834, -0.520503580570221, -1.4656904935836792], [1.365767478942871, -0.6392329335212708, -0.10804165154695511]], [[-0.4036213755607605, 0.12504619359970093, -0.4771485924720764], [1.0378868579864502, -1.1458275318145752, -0.20385977625846863], [-0.05495307967066765, -0.22538410127162933, -0.5765351057052612]], [[-0.47645869851112366, -0.007340776734054089, -1.5102163553237915], [1.200696587562561, 0.6242314577102661, 0.5049842596054077], [-0.8248583674430847, 0.9268336892127991, -0.889690101146698]], [[0.17604394257068634, -0.23437979817390442, -1.2206127643585205], [-0.2365574985742569, -0.7099656462669373, -0.008211249485611916], [-1.8155527114868164, 0.3061085045337677, 0.4585185945034027]], [[0.3052521347999573, -0.23995022475719452, -0.647549569606781], [0.16417035460472107, 0.21978604793548584, 0.13946691155433655], [-1.2802008390426636, 1.119407296180725, -0.004259711597114801]], [[0.18352966010570526, 0.08947715163230896, 1.1061553955078125], [-0.29614803194999695, -0.09284648299217224, -0.4759424924850464], [0.9604007601737976, 0.0725640282034874, -0.23672571778297424]], [[-0.7280208468437195, 0.23558011651039124, -0.42708495259284973], [0.869148850440979, 0.11191219091415405, -0.8265520930290222], [1.3987414836883545, 0.16466717422008514, 0.2017081379890442]], [[0.1775793880224228, 0.32146593928337097, 0.2732827961444855], [-0.11643943190574646, 0.13560809195041656, -0.43424296379089355], [1.8003406524658203, -0.09033051878213882, 0.6552263498306274]], [[-0.4640873372554779, 0.6728557348251343, 0.056219276040792465], [-1.1658552885055542, 0.11661744862794876, 0.9609505534172058], [-1.0018188953399658, 0.17925742268562317, 0.5108664035797119]], [[0.4971681237220764, 0.11571547389030457, -0.9961611032485962], [-0.6782009601593018, 0.2051921784877777, -0.37484243512153625], [-0.17396394908428192, -0.04500848054885864, -0.3485454320907593]], [[0.20512054860591888, -0.5282949805259705, 0.45920315384864807], [0.11993143707513809, -0.9507609605789185, -0.20622985064983368], [-0.628132164478302, 1.2276328802108765, 0.06329669803380966]], [[-0.21183651685714722, -1.249774694442749, 0.4772411584854126], [0.8797486424446106, 0.4241780638694763, 0.6337035894393921], [0.3529370129108429, 0.8236725330352783, -0.04845239222049713]], [[-0.032714203000068665, 0.23263099789619446, 0.595309317111969], [-0.44428685307502747, 0.5479441285133362, -0.014635445550084114], [-1.0686434507369995, -0.7608798146247864, 0.29184690117836]], [[0.24729785323143005, 0.5291011929512024, -1.9676827192306519], [-0.013010906986892223, 1.472450613975525, -1.034237265586853], [1.1241580247879028, -0.18763823807239532, -0.8119832277297974]], [[0.3883623480796814, -0.6086904406547546, -1.0385823249816895], [0.007704220712184906, -0.6242877840995789, 1.2885487079620361], [0.13582436740398407, 0.5643987655639648, 0.8506761193275452]], [[-1.1572991609573364, -0.2660294771194458, -0.2184050977230072], [0.0468037910759449, -0.7711024880409241, 0.0917130783200264], [0.19068285822868347, -0.9378111362457275, 0.5067205429077148]], [[0.2506762444972992, 0.13588625192642212, 0.4314999580383301], [-1.2719086408615112, 0.7744836211204529, 0.3189578652381897], [-0.4355297386646271, -0.6368462443351746, -1.6604843139648438]], [[0.33435747027397156, 0.6901769638061523, 1.2533146142959595], [0.12429331243038177, -0.3736669719219208, -0.3910272419452667], [1.1478294134140015, -0.6269775629043579, 0.38143283128738403]], [[-1.224570631980896, -0.10479935258626938, 0.4551262855529785], [-0.8391345143318176, 0.6091195344924927, 0.3519923985004425], [-0.5294333696365356, -1.9772268533706665, -0.46902623772621155]], [[-0.6229659914970398, -0.8615363240242004, 0.5585153698921204], [-0.010451137088239193, -0.7477283477783203, -0.6102813482284546], [-0.29342514276504517, -0.3092799186706543, -0.22072282433509827]], [[0.8067435622215271, -0.6042715311050415, 0.5774539113044739], [0.42115679383277893, -0.022843042388558388, -0.22992128133773804], [0.3906283676624298, -0.9662504196166992, -0.2453388124704361]], [[-0.9167398810386658, 1.1753673553466797, -0.03434395045042038], [-0.931538462638855, 0.94073885679245, 1.8545438051223755], [-0.7282049059867859, 0.540546178817749, 0.295119047164917]], [[-0.2983119785785675, 0.6350974440574646, -0.1818414330482483], [0.4045979976654053, 0.04244730994105339, 0.5295786261558533], [0.7390388250350952, 0.09393375366926193, -0.004189464263617992]], [[0.46620917320251465, -0.11833386868238449, -0.5659686326980591], [0.06458290666341782, 0.4018046259880066, -1.6907718181610107], [-1.3384605646133423, -0.20566526055335999, -1.104836344718933]], [[-0.32358309626579285, -0.8986077308654785, 0.42557671666145325], [-0.20038779079914093, -0.9610033631324768, 0.1747901737689972], [-0.38399988412857056, 0.014896604232490063, 0.6412214636802673]], [[-0.9461765885353088, 0.21474798023700714, 0.019807342439889908], [-0.6557322144508362, 0.33423393964767456, 1.5736421346664429], [0.1423172950744629, -0.33721959590911865, 0.2914905846118927]], [[0.18178041279315948, 0.025989320129156113, 0.7653639912605286], [-0.13497012853622437, -1.1445671319961548, 0.5689229369163513], [-1.5405235290527344, -0.4640634059906006, 1.6304444074630737]], [[0.13750432431697845, -0.06668912619352341, -0.842501163482666], [1.0919201374053955, 0.324537456035614, -0.5140600800514221], [-0.06990328431129456, -0.6955059766769409, 0.7211102247238159]], [[0.38306981325149536, 0.7648797631263733, 0.5559941530227661], [0.4988766014575958, -0.25292155146598816, 0.0850808173418045], [0.1553356647491455, -0.5611029267311096, -1.2943675518035889]], [[0.4766857624053955, -0.6154078245162964, -0.008193664252758026], [0.33685529232025146, -0.5345453023910522, -0.6058768033981323], [0.20377470552921295, 0.6552190780639648, 0.24010838568210602]], [[0.9335909485816956, 0.5732800960540771, -0.14325135946273804], [-0.040873851627111435, -0.8402750492095947, 0.5213592648506165], [-0.1619446575641632, -0.35215678811073303, -0.6450424790382385]], [[0.6292750239372253, 0.9219655990600586, 0.5999882221221924], [-0.5460342764854431, 0.6545675992965698, -0.12816590070724487], [1.1682465076446533, -0.7616578340530396, 0.12240797281265259]], [[-0.36193475127220154, -0.03886234387755394, 0.38449063897132874], [0.2574719786643982, 0.5868537425994873, 0.30113276839256287], [-0.3635227084159851, 0.24127350747585297, -1.3034402132034302]], [[0.10384586453437805, -0.7495777606964111, 0.3011914789676666], [0.5922829508781433, -0.3226524293422699, -0.5783872604370117], [1.2070364952087402, 1.0451973676681519, 0.725677490234375]], [[-1.7773759365081787, 0.37376320362091064, -0.3586972951889038], [0.8119203448295593, -0.04447092115879059, 0.9721443057060242], [-0.5971508026123047, 0.8195436000823975, 0.6663788557052612]]], [[[-0.9594181180000305, 0.42166414856910706, 0.21034763753414154], [-0.6125785112380981, -0.21923081576824188, -0.49773842096328735], [0.11841589212417603, -0.3841969966888428, 0.18342234194278717]], [[0.3947058916091919, -0.9610258340835571, 0.27299726009368896], [-1.0815417766571045, -0.6531001925468445, 0.018530046567320824], [0.7112970352172852, 1.0044021606445312, -0.4526669383049011]], [[-0.8880876302719116, -0.2744654417037964, 0.15293525159358978], [0.1424325704574585, 0.6125400066375732, -0.36275944113731384], [-0.9941646456718445, 0.5590934157371521, 0.0051162876188755035]], [[-1.0465835332870483, 0.5297249555587769, -0.25683265924453735], [0.3269653618335724, -0.21837112307548523, -0.35155677795410156], [0.04306809976696968, 1.2614829540252686, -0.054920583963394165]], [[-0.7616548538208008, -1.3148993253707886, -0.016960235312581062], [0.4889558255672455, -0.11992639303207397, 0.7333583235740662], [0.8280704021453857, 0.041350364685058594, 0.6590567827224731]], [[1.7137378454208374, -0.08248358219861984, -0.6087005138397217], [0.4798256754875183, 1.154585361480713, -0.649463951587677], [-0.24166151881217957, 0.09166824072599411, 0.12430077791213989]], [[-1.0706214904785156, 0.2807941138744354, 0.46278172731399536], [0.5475279688835144, -0.8167968392372131, 0.2503562867641449], [0.3610970079898834, 0.349092960357666, -0.6649796366691589]], [[-0.7168135046958923, 0.7582014799118042, -0.5736826062202454], [-0.3953086733818054, -0.7621521353721619, -0.6568061709403992], [-0.6012455224990845, 0.7659023404121399, 0.5267789959907532]], [[0.24418288469314575, -0.12660112977027893, -0.33309778571128845], [0.0543900765478611, -1.0868521928787231, -0.023138461634516716], [-0.8125429749488831, -2.5653343200683594, -0.17357516288757324]], [[-0.03600060194730759, 0.21303345263004303, -0.6453568935394287], [-0.5396178364753723, 0.14538639783859253, 1.0770437717437744], [1.5096898078918457, -0.45042064785957336, 0.2459755390882492]], [[-1.5119401216506958, 0.22691263258457184, -1.6587681770324707], [-0.6571195721626282, 0.5251476764678955, 0.45173490047454834], [0.415030300617218, 0.19910523295402527, -0.44456252455711365]], [[0.5377606749534607, -0.6489960551261902, -0.6201140284538269], [-0.47974178194999695, -0.10921802371740341, -0.4693393409252167], [-0.6949721574783325, 0.15014614164829254, 0.6740805506706238]], [[-0.4452260434627533, -1.120880126953125, 0.5661999583244324], [-0.40573838353157043, 0.30071476101875305, 0.5082466006278992], [-0.5058100819587708, -0.3144083023071289, -0.12884408235549927]], [[0.22302795946598053, 0.4458408057689667, -0.5818628668785095], [0.025850612670183182, -0.2921721637248993, -0.419414758682251], [0.5171336531639099, -0.4940792918205261, -0.1473512053489685]], [[0.43497708439826965, 0.5170801281929016, 1.5613954067230225], [0.17057698965072632, 0.9701154232025146, -1.2390879392623901], [-0.3290141224861145, 0.10424495488405228, 0.3140243887901306]], [[-0.5867081880569458, -0.22376854717731476, 0.6527052521705627], [-0.18123476207256317, 1.2298953533172607, -0.34505695104599], [0.06296316534280777, -0.5597440004348755, 0.02050919272005558]], [[-1.0711318254470825, -0.6915567517280579, 0.7627997994422913], [0.7725297808647156, 0.016983944922685623, 0.5964043140411377], [-0.04521050304174423, 0.3248176574707031, 0.7371014952659607]], [[-0.9686516523361206, 0.6700571179389954, 0.203981414437294], [-0.8015341758728027, -0.7650668025016785, 0.08374789357185364], [0.9439795613288879, -0.9473581910133362, 0.19113679230213165]], [[0.18795113265514374, 0.7666205763816833, 0.6637043952941895], [-1.1402217149734497, -1.0493922233581543, -1.672170639038086], [-1.2730588912963867, -0.8763434886932373, 0.7731689810752869]], [[0.21165136992931366, 0.023720962926745415, 0.16410332918167114], [0.5907183289527893, -0.4268124997615814, -0.25145429372787476], [-0.37808728218078613, 0.34407150745391846, 0.7724286913871765]], [[0.47760653495788574, 0.13185636699199677, -1.7267259359359741], [-0.3032485544681549, -0.8548892736434937, -0.29896780848503113], [-0.6426084637641907, -0.16605938971042633, -0.5160790681838989]], [[1.0743753910064697, -0.10041134059429169, 0.8248305320739746], [-1.0134990215301514, -0.486802339553833, 0.2591618001461029], [-0.2990996241569519, -0.008217393420636654, -0.4100932776927948]], [[-0.817030131816864, -0.05514141172170639, -0.08176214247941971], [-0.7966906428337097, 0.748916745185852, -0.4663202464580536], [0.3766384720802307, 1.079964280128479, 0.9366467595100403]], [[-0.6669690608978271, 0.8998676538467407, 0.5467373132705688], [0.08501265943050385, 0.36286425590515137, -0.3955342173576355], [-0.762107253074646, -0.1640416383743286, 0.5773938298225403]], [[0.2574247717857361, -0.0015560961328446865, 0.12419591099023819], [0.518670916557312, 0.5023434162139893, 0.4252335727214813], [-0.275312215089798, 0.25380343198776245, 0.025152845308184624]], [[-0.32402387261390686, -0.1360694169998169, 0.709923267364502], [-0.10137084871530533, 0.2709929645061493, 0.5434475541114807], [-0.5390178561210632, -1.0293532609939575, -0.4784066379070282]], [[-0.21243637800216675, 0.5664452910423279, 0.19767525792121887], [-0.10410654544830322, 0.9874582886695862, -0.0041213021613657475], [0.3143031597137451, -0.13314823806285858, 0.6627317070960999]], [[-0.22984758019447327, 1.0182147026062012, 0.23363828659057617], [-0.9224843978881836, -0.4875469505786896, 0.7455925941467285], [0.5473644733428955, 0.1373203992843628, 0.7555922865867615]], [[-0.2409062534570694, -0.3296615481376648, -0.5269448161125183], [-0.910800039768219, -0.17022982239723206, -0.6358233094215393], [-0.9283336997032166, -0.5018073916435242, -1.3462086915969849]], [[0.16028785705566406, -1.0338958501815796, -0.9777413010597229], [0.5409533381462097, -1.5354691743850708, 0.4928610026836395], [-0.7381243705749512, 0.18057216703891754, 1.4463313817977905]], [[-0.6214101314544678, -1.5535926818847656, -0.29953473806381226], [0.19096916913986206, -0.40777865052223206, -0.5275465250015259], [-0.02653033286333084, 1.3161998987197876, -0.5955680012702942]], [[-0.04684368148446083, 0.5281789898872375, -0.2199925035238266], [-0.11289259791374207, 0.4894595146179199, -0.7197758555412292], [-0.7739177942276001, 0.700778603553772, -0.0016241399571299553]], [[0.2219940572977066, -0.6572446227073669, 0.9964378476142883], [0.8547238707542419, -0.5144482851028442, -0.7214038968086243], [-0.05928301438689232, -0.41843923926353455, 0.17007821798324585]], [[-0.7322600483894348, -0.11972221732139587, -0.4602509140968323], [1.5954718589782715, -0.5242515802383423, -0.08419855684041977], [0.2233613282442093, -1.4255998134613037, 0.1493842601776123]], [[-0.3749132752418518, -1.8018885850906372, -1.3783444166183472], [0.42632630467414856, -1.132111668586731, 0.7190665602684021], [-0.45992863178253174, -0.4815637469291687, -0.027578849345445633]], [[-0.8492987155914307, 0.49540993571281433, 0.648245096206665], [-0.3349919617176056, 0.40849921107292175, 0.549971342086792], [0.580836832523346, 1.264077067375183, -0.06083996593952179]], [[0.03485177829861641, -0.49127891659736633, -0.36885324120521545], [-0.38924440741539, 0.5089947581291199, 0.3285026252269745], [-0.3120960295200348, 0.49248528480529785, -0.2240823209285736]], [[-0.24766604602336884, 0.3904404640197754, -0.37928688526153564], [-0.27130377292633057, 0.6693142652511597, 0.5470665693283081], [-1.5112295150756836, 1.2102311849594116, -0.4922083616256714]], [[1.025316834449768, -1.0384654998779297, -0.26150062680244446], [1.0501302480697632, -0.9831863045692444, 0.3796517550945282], [-1.4503002166748047, -0.36580827832221985, -0.29061809182167053]], [[1.0054864883422852, -1.5219587087631226, 0.3181218206882477], [-0.6367319226264954, -0.1901712715625763, -2.094536781311035], [1.9424161911010742, 0.7255790829658508, 0.21907955408096313]], [[-0.20392754673957825, -0.6519778966903687, -0.04587360844016075], [-0.617231011390686, 0.37355563044548035, 0.050938189029693604], [0.07154230773448944, -0.005170165095478296, 0.5357557535171509]], [[0.03555887192487717, -0.07001414895057678, -0.43743905425071716], [-0.4294908940792084, -0.261881023645401, -0.02571411058306694], [-0.13546670973300934, 0.3148479759693146, 0.2468116134405136]], 