{"conv1.weight": [[[[-0.5450636148452759, 0.04523260518908501, 0.5175469517707825], [0.4051903188228607, 0.12936429679393768, 0.5264465808868408], [-0.9021608829498291, 0.2515529990196228, -0.5044156312942505]], [[0.42191964387893677, 0.1360926777124405, -0.430576890707016], [0.1699875146150589, -0.2936764061450958, -0.0798536092042923], [-0.8117675185203552, -0.7176106572151184, 0.12151686102151871]]], [[[0.03446396440267563, -0.8128939867019653, 0.46879300475120544], [0.18446065485477448, 0.33231136202812195, -0.4267602860927582], [-0.6383049488067627, -0.21161219477653503, -0.13778875768184662]], [[-0.747566819190979, -0.22587205469608307, -0.4840819835662842], [0.21406787633895874, -0.7445358633995056, -0.5049347877502441], [0.1683187484741211, -0.5657942295074463, 0.457734614610672]]], [[[0.4091205894947052, 0.35792773962020874, 0.36921900510787964], [0.12001149356365204, -0.4604969024658203, -0.40309590101242065], [0.30165207386016846, -0.5141342878341675, 0.25997939705848694]], [[0.11363819986581802, 0.2927097678184509, -0.18329423666000366], [-0.6746649146080017, -0.7998819351196289, -0.912815272808075], [-0.45753616094589233, 0.21797452867031097, -0.6511211395263672]]], [[[0.22348932921886444, -0.5485735535621643, -0.5690866708755493], [0.2918185591697693, -0.26744580268859863, 0.2398473024368286], [-0.17177602648735046, -0.3319073021411896, -0.27281826734542847]], [[0.15704071521759033, -0.29002538323402405, 0.2872040569782257], [0.6905960440635681, 0.4271291494369507, 0.6330218315124512], [0.5510516166687012, -0.2453741878271103, -0.1312430500984192]]], [[[-0.587332010269165, 0.3066301941871643, -0.6086583137512207], [-0.6102887392044067, 0.029927946627140045, -0.38613420724868774], [0.17111115157604218, 0.4963122010231018, -0.49343156814575195]], [[-0.43632349371910095, -0.5279185175895691, -0.4173758625984192], [-0.3939191699028015, 0.3368672728538513, 0.18672047555446625], [-0.42605507373809814, -0.2698324918746948, 0.45178842544555664]]], [[[-0.2472655475139618, -0.6593593955039978, -0.7746698260307312], [-0.3714514970779419, 0.19610923528671265, 0.09547684341669083], [0.3090408146381378, 0.281774640083313, -0.624772846698761]], [[-0.9097805619239807, -0.030451031401753426, 0.34917259216308594], [-0.31993070244789124, -0.5691344141960144, 0.178994819521904], [0.572403609752655, 0.4851817190647125, 0.36180776357650757]]], [[[-0.37344175577163696, -0.19603268802165985, 0.1249176487326622], [-0.5731736421585083, -0.4641522169113159, 0.26099321246147156], [-0.5524001121520996, -0.1626495122909546, 0.27677392959594727]], [[-0.6359249353408813, 0.3052593171596527, 0.49054738879203796], [-0.5212855339050293, -0.7065168023109436, 0.35781458020210266], [-0.013238446786999702, -0.5313259363174438, 0.4790351688861847]]], [[[-0.9324160218238831, -0.24360311031341553, -0.030337363481521606], [-0.27981340885162354, 0.4816153645515442, -0.264348566532135], [-0.6057343482971191, -0.502074122428894, 0.526400625705719]], [[0.2136891782283783, -0.13880617916584015, 0.16413050889968872], [0.47970151901245117, 0.40139538049697876, 0.2757226526737213], [-0.20042525231838226, 0.5208250880241394, -0.02642674744129181]]], [[[-0.6697403788566589, 0.1550995260477066, 0.3871881663799286], [-0.22070609033107758, -0.37471288442611694, -0.17104074358940125], [-0.4104108214378357, 0.5027890801429749, -0.30841249227523804]], [[-0.7838910222053528, -0.17642627656459808, 0.45443201065063477], [-0.03931986913084984, -0.40891608595848083, -0.5648953318595886], [-0.6959205269813538, 0.48209723830223083, -0.2624800205230713]]], [[[-0.12550553679466248, 0.4610077142715454, -0.3716464340686798], [-0.21756033599376678, 0.3925500512123108, 0.04063469544053078], [0.5260953903198242, -0.5818403959274292, -0.6217169165611267]], [[-0.576229453086853, 0.4812251627445221, -0.6191665530204773], [0.01822660118341446, 0.05171031504869461, 0.43847036361694336], [0.01695176586508751, -0.7854136228561401, -0.5144357085227966]]], [[[-0.6327899694442749, -0.5054540634155273, -0.8861324787139893], [0.29548537731170654, -0.2438671588897705, -0.6394810676574707], [0.4199305772781372, 0.16683164238929749, -0.4315909743309021]], [[0.16858172416687012, -0.45998188853263855, 0.530512273311615], [0.44314470887184143, -0.15863600373268127, 0.26836034655570984], [-0.5352635383605957, -0.46940624713897705, 0.29957515001296997]]], [[[-0.25845596194267273, 0.1706443428993225, 0.1309397667646408], [0.2601030766963959, -0.28550368547439575, 0.47595903277397156], [0.5713604688644409, -0.8799747824668884, 0.33349093794822693]], [[-0.3859592080116272, -0.35725322365760803, 0.3675239384174347], [-0.29761484265327454, -0.182316392660141, 0.06930147856473923], [0.6384145021438599, -0.6965968012809753, 0.158893421292305]]], [[[0.5372291207313538, 0.4062250852584839, 0.05079832300543785], [0.39672401547431946, 0.027879122644662857, 0.20579157769680023], [0.035214997828006744, 0.47266435623168945, -0.32385507225990295]], [[0.40683653950691223, -0.9507396221160889, 0.28178027272224426], [0.37359461188316345, -0.6587748527526855, -0.27715399861335754], [0.4570677578449249, -0.19574376940727234, 0.44628772139549255]]], [[[0.3061497211456299, 0.25824078917503357, -0.5106085538864136], [-0.6189646124839783, 0.08564814925193787, -0.12276554852724075], [0.49449583888053894, -0.1843191683292389, 0.03370147570967674]], [[-0.29230156540870667, -0.5640594959259033, 0.4077085554599762], [-0.7731937170028687, -0.1380435675382614, -0.1159343421459198], [0.6757116317749023, -0.1666988581418991, -0.9185549020767212]]], [[[-0.27186310291290283, -0.6417480707168579, 0.20332708954811096], [-0.4980231523513794, 0.45088449120521545, 0.3279620409011841], [-0.6360712051391602, 0.4199097156524658, -0.881024181842804]], [[-0.5688909292221069, -0.1149260550737381, 0.24905721843242645], [-0.02465498261153698, 0.33767542243003845, -0.6049451231956482], [-0.10017184168100357, -0.2730675935745239, -0.6580092906951904]]], [[[0.5703470706939697, 0.07346340268850327, -0.6583937406539917], [-0.2509205639362335, -0.5432648658752441, 0.06183106452226639], [-0.6312940716743469, -0.007118880283087492, -0.6890430450439453]], [[0.5100233554840088, -0.06732720136642456, -0.005647821817547083], [-0.43463751673698425, -0.011696130968630314, 0.37040629982948303], [-0.167642280459404, 0.37225717306137085, 0.5821365714073181]]], [[[0.5274724364280701, -0.41342639923095703, -0.6941020488739014], [0.09875565022230148, -0.7089826464653015, 0.4531429409980774], [-0.08032280206680298, -0.0955706313252449, -1.1195635795593262]], [[-0.43345963954925537, 0.32176244258880615, 0.3448668122291565], [0.26549237966537476, -0.13178734481334686, -0.4752037227153778], [0.2209804505109787, -0.09828578680753708, -0.5903707146644592]]], [[[-0.3391784727573395, 0.3794250786304474, -0.7846857309341431], [0.3468124568462372, 0.3477693200111389, -0.6301138401031494], [0.4423997402191162, -0.7887431383132935, -0.5978912115097046]], [[0.23362703621387482, 0.10989932715892792, 0.36389848589897156], [-0.563858687877655, 0.44674500823020935, -0.1166188046336174], [0.5397860407829285, 0.21225693821907043, -0.0022394314873963594]]], [[[0.010157927870750427, -0.5347306728363037, 0.2072991281747818], [0.5322688221931458, -0.048108477145433426, -0.1131262555718422], [0.15039655566215515, 0.2935025691986084, 0.5355443954467773]], [[-0.7194952368736267, -0.05147760733962059, -0.7134727239608765], [0.3093229830265045, 0.23667649924755096, -0.8750502467155457], [0.3475727140903473, -0.8960227370262146, -0.3973523676395416]]], [[[0.2623435854911804, 0.023057060316205025, 0.5276555418968201], [0.3418547213077545, -0.1813524216413498, -0.40379202365875244], [0.2850682735443115, -0.5849511027336121, 0.44192659854888916]], [[-0.6120269894599915, -0.6061493754386902, 0.44002556800842285], [-0.2636089324951172, 0.1275019347667694, -0.1761176437139511], [-0.8574261665344238, -0.6118390560150146, -0.37142080068588257]]], [[[-0.7198300957679749, -0.1912267804145813, -0.3750247657299042], [-0.8287404179573059, 0.20694716274738312, 0.48974332213401794], [-0.48454317450523376, 0.12185867130756378, 0.1482452005147934]], [[-0.762449324131012, 0.29574447870254517, -0.4656839370727539], [0.3719368875026703, 0.1823662966489792, -0.43640193343162537], [-0.23034274578094482, -0.48190802335739136, 0.5202445983886719]]], [[[0.28563421964645386, 0.315504252910614, 0.45132938027381897], [-0.6392541527748108, -0.4943559765815735, 0.020435048267245293], [0.2824101448059082, -0.3212622106075287, 0.3402361571788788]], [[-0.32868704199790955, 0.4274519979953766, 0.5487682819366455], [0.06747432798147202, 0.37121936678886414, 0.5525498390197754], [-0.6132619380950928, 0.4735264778137207, -0.5884665250778198]]], [[[-0.8223264217376709, 0.02886057458817959, 0.36166176199913025], [0.19411718845367432, -0.07426855713129044, -0.059238310903310776], [-0.6030237674713135, -0.2711540162563324, -0.6692488193511963]], [[0.4605949819087982, 0.21151630580425262, 0.49736666679382324], [0.1026143729686737, 0.5097212791442871, 0.25218772888183594], [0.31352999806404114, -0.5699803233146667, -1.0339224338531494]]], [[[0.25171536207199097, 0.4907234311103821, -0.5432261228561401], [0.440433531999588, 0.02437412738800049, -0.29472020268440247], [-0.40057021379470825, 0.36275365948677063, -1.0954645872116089]], [[-0.46708396077156067, 0.17208494246006012, -0.0019398874137550592], [-0.1262788325548172, 0.48079806566238403, 0.3667960464954376], [0.05948062986135483, 0.1575884222984314, -0.7235243916511536]]], [[[-0.7245307564735413, 0.16094858944416046, 0.48683446645736694], [0.24907061457633972, -0.477159708738327, -0.9152880907058716], [-0.09949994087219238, 0.5467750430107117, 0.6505140662193298]], [[0.18707843124866486, -0.0671929195523262, 0.4497632384300232], [-0.39042407274246216, 0.04548267647624016, -0.37960535287857056], [0.14614395797252655, 0.1834290474653244, 0.1267440766096115]]], [[[-0.6958472728729248, 0.3097875416278839, 0.004247300326824188], [0.5116308331489563, -0.09932158142328262, 0.31802132725715637], [-0.9868189692497253, -0.2705388367176056, -0.4620312452316284]], [[-0.5166676640510559, -0.43211233615875244, 0.5079129934310913], [0.42705509066581726, 0.15756310522556305, 0.010475927032530308], [-0.5729147791862488, -0.32421794533729553, 0.2853649854660034]]], [[[0.4660051465034485, -0.8271371722221375, -0.32234084606170654], [-0.4229533076286316, 0.23780642449855804, 0.03576449677348137], [0.593532383441925, -0.8372442722320557, 0.10344579815864563]], [[0.2192973792552948, -0.24607829749584198, -0.682252049446106], [-0.05569880083203316, -0.2592114508152008, -0.24473004043102264], [-0.6255850195884705, -0.035436905920505524, -0.6710615158081055]]], [[[0.20135286450386047, -0.05515049025416374, -0.40938976407051086], [0.4358018934726715, -0.5916787385940552, -0.6849483251571655], [0.37790998816490173, -0.4354815185070038, -0.7040364742279053]], [[-0.5849232077598572, -0.29229822754859924, -0.030298786237835884], [-0.5619118213653564, -0.6829365491867065, 0.1261361837387085], [0.12636223435401917, 0.18102174997329712, -0.8291226029396057]]], [[[-0.05727604404091835, 0.33756062388420105, -0.8400986790657043], [0.5121857523918152, 0.3950025141239166, 0.19420892000198364], [0.31029242277145386, 0.4144190549850464, -0.4407704174518585]], [[-0.8377429842948914, 0.2874501943588257, -0.12598466873168945], [-0.5136918425559998, -0.09703280031681061, -0.6510688066482544], [-0.5768438577651978, -0.031659092754125595, -0.5480285882949829]]], [[[-0.6163274645805359, 0.35893452167510986, 0.3910175561904907], [0.2006612867116928, -0.3618219494819641, 0.5522644519805908], [0.3367674946784973, -0.11935984343290329, 0.6337272524833679]], [[0.3314465582370758, -0.6689150333404541, -0.5769919157028198], [-0.18097847700119019, 0.38341593742370605, 0.3462570607662201], [-0.26980262994766235, -0.38136783242225647, -0.5316652059555054]]], [[[-0.6552964448928833, -0.1746627539396286, -0.6460686922073364], [0.34915852546691895, 0.19648684561252594, 0.19175244867801666], [-0.0556064248085022, 0.24762041866779327, -0.0697077289223671]], [[0.49673891067504883, 0.5781943798065186, -0.5634075999259949], [0.4111476540565491, -0.737570583820343, -0.3927687704563141], [-0.4401826858520508, 0.4911959171295166, 0.20001277327537537]]], [[[0.30340585112571716, -0.43367597460746765, -0.4982515573501587], [-0.5150076746940613, 0.3366970121860504, -0.40816909074783325], [-0.9353905916213989, -0.6384353041648865, -0.3460043966770172]], [[-0.480914831161499, 0.219129279255867, 0.3120266795158386], [-0.22970180213451385, 0.49574244022369385, 0.19634884595870972], [-0.29358404874801636, 0.25767573714256287, -0.6396681666374207]]], [[[-0.7462201714515686, -0.7578553557395935, 0.4632474184036255], [-0.16994640231132507, 0.14732655882835388, 0.30775952339172363], [-0.42196014523506165, -0.8384495377540588, -0.6307985782623291]], [[0.4603295624256134, -0.03450455889105797, 0.6049500703811646], [0.024204209446907043, -0.2737525403499603, 0.17964571714401245], [0.2520793080329895, 0.26240241527557373, 0.22595058381557465]]], [[[0.65206378698349, 0.38048410415649414, 0.44688355922698975], [-0.2839149832725525, 0.4813825190067291, -0.7229981422424316], [-0.09140963107347488, -0.5866727232933044, 0.39453136920928955]], [[0.26474303007125854, -0.4485534727573395, -0.5195112228393555], [0.3151065707206726, -0.13947191834449768, 0.05009154975414276], [0.1834726780653, -0.14565803110599518, -0.6150988936424255]]], [[[-0.19688621163368225, -0.2585621476173401, -0.8440359830856323], [-0.4686001241207123, 0.2792842984199524, -0.46649590134620667], [-0.6022835969924927, -0.46384692192077637, -0.0008646683418191969]], [[0.5690780282020569, 0.0996517688035965, 0.5459555387496948], [-0.112423375248909, 0.20433436334133148, 0.08637899160385132], [-0.1427025943994522, -0.663720428943634, 0.5829599499702454]]], [[[0.6977938413619995, 0.16086164116859436, 0.4021539092063904], [0.316934198141098, -0.9250118732452393, -0.0045167626813054085], [0.1272478997707367, 0.0029669306240975857, -0.3911239504814148]], [[0.3749418556690216, -0.12163985520601273, -0.5486564636230469], [-0.12902681529521942, -0.306733638048172, -0.2922138273715973], [0.1873694360256195, -0.7257208228111267, -0.9029645323753357]]], [[[-0.846520185470581, -0.31750455498695374, -0.9085051417350769], [-0.5468588471412659, -0.4876997172832489, -0.145768940448761], [0.550873339176178, 0.10497885197401047, 0.45035800337791443]], [[0.19621029496192932, 0.16024842858314514, -0.36375465989112854], [0.17336338758468628, 0.15306051075458527, -0.31035441160202026], [0.6329784989356995, 0.29983600974082947, -0.16268913447856903]]], [[[0.434559166431427, 0.02239460125565529, -0.8616083264350891], [-0.5158031582832336, 0.16906501352787018, 0.013837981969118118], [-0.08956582844257355, 0.3589034676551819, 0.30588144063949585]], [[0.7113955616950989, 0.28280118107795715, 0.3039407432079315], [-0.4144465923309326, -0.17504027485847473, -0.23165129125118256], [0.2911665141582489, 0.5995351076126099, -0.6972119808197021]]], [[[0.4937722980976105, 0.5862133502960205, -0.5443717837333679], [-0.2275702953338623, 0.4846299886703491, 0.22251379489898682], [-0.4314432740211487, 0.3996146321296692, 0.6234005093574524]], [[-0.07114873826503754, 0.22276657819747925, -0.39291834831237793], [-0.3045229911804199, -0.47632014751434326, -0.5926424264907837], [-0.0036515435203909874, -0.23019443452358246, 0.2148350030183792]]], [[[-0.24629811942577362, -0.20903825759887695, -0.010178778320550919], [0.39382171630859375, -0.43554094433784485, 0.6780025362968445], [-0.3871781826019287, 0.5107018947601318, 0.39556291699409485]], [[-0.7130181193351746, -0.13626593351364136, -0.2712441086769104], [-0.24425020813941956, -0.1006864458322525, 0.5065574645996094], [0.4129280745983124, 0.29206013679504395, -0.05601274222135544]]], [[[-0.2685728967189789, 0.09318648278713226, -0.6157826781272888], [-0.7327965497970581, -0.3283456861972809, -0.374452143907547], [0.10738534480333328, -0.7278865575790405, 0.2810302972793579]], [[-1.1380057334899902, -0.5128380656242371, -0.513462245464325], [0.3770519495010376, -0.6107138991355896, 0.0005450620083138347], [0.0036568008363246918, 0.2474212646484375, 0.5271504521369934]]], [[[-0.6860092282295227, 0.0984625294804573, 0.32415324449539185], [0.460625559091568, -0.6130570769309998, -0.7782748341560364], [0.5510080456733704, -0.318954199552536, 0.1558116227388382]], [[-0.5103054046630859, 0.3300841152667999, -0.7461891770362854], [-0.090609110891819, 0.23974069952964783, 0.22610034048557281], [0.4871636927127838, -0.5526847243309021, -0.003373723477125168]]], [[[-0.12404412031173706, -0.662255585193634, -0.3118601441383362], [-0.2786324620246887, -0.16815781593322754, -0.053950585424900055], [0.38623061776161194, -0.027692468836903572, -0.5967153310775757]], [[-0.9570283889770508, 0.4318775236606598, -0.5786867737770081], [-0.6277279853820801, 0.38359534740448, -0.33698228001594543], [0.5450230240821838, 0.01275518350303173, -0.7400044798851013]]], [[[-0.47189292311668396, 0.47508323192596436, -0.2561339735984802], [0.3281707763671875, 0.5262740850448608, -0.3013018071651459], [0.5130742192268372, 0.5404031872749329, 0.5220137238502502]], [[0.007434734143316746, 0.6322373151779175, 0.4496227502822876], [0.006244547665119171, 0.17766447365283966, 0.35959967970848083], [-0.033801741898059845, -0.5352916717529297, 0.07262495160102844]]], [[[-0.8212894201278687, 0.11228344589471817, 0.13165679574012756], [-0.2736985385417938, -0.5653411149978638, -0.0016345744952559471], [0.43980106711387634, 0.21424128115177155, -0.7508202195167542]], [[0.6505001187324524, -0.33488526940345764, 0.41054433584213257], [0.41002967953681946, 0.10856897383928299, 0.1717001497745514], [-0.5650761127471924, 0.45802414417266846, 0.3600839376449585]]], [[[-0.6480363607406616, 0.029058534651994705, -0.16524872183799744], [-1.1662691831588745, 0.168137326836586, 0.055875264108181], [-0.47951140999794006, 0.22358308732509613, -0.2120862603187561]], [[0.42429423332214355, -0.5755090117454529, 0.09067899733781815], [0.37043994665145874, -0.5999636650085449, -0.5352723598480225], [0.6158469915390015, -0.20286084711551666, -0.45278865098953247]]], [[[-0.5585669279098511, 0.3024066984653473, 0.4175238013267517], [-0.6675665378570557, 0.07197414338588715, -0.46471714973449707], [-0.48357272148132324, -0.655707836151123, -0.4543389081954956]], [[-0.5670115947723389, 0.5434814691543579, 0.3071179986000061], [0.2527259290218353, -0.5510642528533936, -0.20361515879631042], [-0.15600956976413727, -0.16723226010799408, -0.15396572649478912]]], [[[-0.6954567432403564, 0.22080010175704956, 0.0005992920487187803], [0.03682355582714081, -0.7000755071640015, -0.39177632331848145], [-0.26436296105384827, -0.6094558238983154, 0.2689664363861084]], [[0.5324915647506714, 0.4621790647506714, -0.5430822372436523], [0.18478809297084808, -0.592763364315033, 0.41464969515800476], [-0.48851466178894043, 0.24715416133403778, -0.5848836302757263]]], [[[-0.038820408284664154, 0.07966835796833038, 0.4138452410697937], [-0.20871789753437042, -0.573782742023468, -0.6022369861602783], [-0.9065068364143372, -0.4681289792060852, -0.5545418858528137]], [[-0.11272601038217545, -0.30004802346229553, -0.11257211863994598], [0.3483786880970001, -0.7416480183601379, 0.3054840862751007], [-0.3164297342300415, 0.22710496187210083, -0.9538995623588562]]], [[[0.5881051421165466, 0.19316214323043823, 0.5552886724472046], [0.29814547300338745, 0.26560258865356445, -0.4799869656562805], [-1.0139399766921997, -0.42046573758125305, -0.9324637055397034]], [[-0.482343465089798, 0.30844396352767944, 0.0121624069288373], [-0.16099916398525238, 0.3901316821575165, 0.18274949491024017], [0.2061237245798111, -0.09991803020238876, 0.2805074155330658]]], [[[0.3596683442592621, -0.026598898693919182, 0.7370401620864868], [0.36789122223854065, 0.4602735638618469, 0.07960782945156097], [0.3657481372356415, -0.5682677030563354, -0.3139835596084595]], [[0.2817530333995819, 0.08069483935832977, -0.23877203464508057], [-0.3610346019268036, -0.18100473284721375, -0.39304324984550476], [-1.0848640203475952, 0.07477559894323349, 0.30336883664131165]]], [[[-0.7086952328681946, 0.23853178322315216, -0.3662745952606201], [0.35765811800956726, -0.46523603796958923, 0.07614663988351822], [-0.07668724656105042, 0.4038001000881195, -0.02678009122610092]], [[0.10882896184921265, -0.5449589490890503, -0.9157822728157043], [-0.5694942474365234, -0.7948403358459473, 0.4240848124027252], [-0.22554023563861847, -0.3213498592376709, 0.5292791128158569]]], [[[-0.8777370452880859, 0.377003014087677, -0.9372218251228333], [0.037181589752435684, -0.1685904860496521, -0.29612359404563904], [-0.07816135138273239, -0.34258511662483215, 0.5386396050453186]], [[0.0025017315056174994, -0.04135119542479515, -0.6821349263191223], [-0.2761056423187256, 0.1409924179315567, -0.31750136613845825], [-0.8960849046707153, -0.7133792638778687, -0.5654305219650269]]], [[[-0.5347633361816406, 0.12389463186264038, 0.12543822824954987], [0.17858009040355682, 0.30238959193229675, 0.37655892968177795], [-0.6058681011199951, -0.9744924306869507, 0.0850282683968544]], [[-0.27021798491477966, -0.49422407150268555, -1.0465805530548096], [-0.896694004535675, 0.024059822782874107, -0.910414457321167], [0.47831442952156067, 0.1021123006939888, 0.22517183423042297]]], [[[0.48029640316963196, -0.0329161137342453, 0.5640817284584045], [-0.42827099561691284, -0.2047009915113449, 0.5281398296356201], [0.6589571833610535, 0.410830557346344, -0.1483784317970276]], [[0.4709612727165222, -0.032640133053064346, 0.24297544360160828], [-0.5765507817268372, -0.06594400107860565, 0.36835557222366333], [0.5173934102058411, -0.17057746648788452, 0.2220780849456787]]], [[[0.42325079441070557, 0.10755091160535812, -0.09344172477722168], [0.18061061203479767, 0.39053279161453247, -0.30647900700569153], [0.34263885021209717, -0.4356287121772766, 0.09714843332767487]], [[0.7241001129150391, 0.30490994453430176, -0.8652265071868896], [-0.11573979258537292, 0.5233380794525146, -0.3580479025840759], [0.5478011965751648, -0.5144113302230835, 0.22693443298339844]]], [[[-0.269029825925827, 0.3220222592353821, -0.4365764260292053], [-0.39825111627578735, 0.5634474158287048, 0.535475492477417], [-1.0056935548782349, 0.21556183695793152, 0.3353791832923889]], [[0.35114187002182007, -0.5940695405006409, -0.20990702509880066], [-0.3280482590198517, 0.08918464183807373, 0.4119860529899597], [0.2840079665184021, -0.08136791735887527, 0.35576531291007996]]], [[[-0.5735933184623718, 0.30590665340423584, -0.043223440647125244], [-0.569715678691864, 0.2819448411464691, -0.1475926637649536], [-0.49212974309921265, -0.5285007357597351, 0.45586031675338745]], [[-0.8884365558624268, 0.15151701867580414, -0.46054917573928833], [-0.37435218691825867, 0.3260040581226349, -0.419110506772995], [0.4485107362270355, -0.47068217396736145, 0.4763701260089874]]], [[[-0.5509787797927856, -0.5451712608337402, -0.12872104346752167], [-0.3860412836074829, -0.718913197517395, 0.41104045510292053], [0.20782575011253357, -0.27667054533958435, -0.6453360915184021]], [[0.46008655428886414, -0.22665292024612427, -0.9296784996986389], [-0.41220882534980774, -0.3647139370441437, -0.45132046937942505], [-0.17175963521003723, 0.0903189554810524, -0.0899418443441391]]], [[[0.2588711977005005, -0.43748533725738525, 0.42983484268188477], [-0.6689249277114868, -0.49066200852394104, -0.6192722916603088], [0.14597734808921814, -0.5122513175010681, -0.6861075758934021]], [[-0.8365228176116943, -0.10688936710357666, -0.4282548129558563], [0.03562840446829796, 0.20938551425933838, 0.46291622519493103], [-0.5891860127449036, 0.22277964651584625, 0.406404972076416]]], [[[0.5052005052566528, 0.3952024281024933, -0.5939485430717468], [0.346778929233551, -0.15269134938716888, -0.6550713181495667], [0.5027870535850525, 0.3741770386695862, -0.7618259191513062]], [[0.42429614067077637, -0.11229736357927322, 0.03159583732485771], [0.053879525512456894, -0.38437142968177795, -0.594025731086731], [-0.6817242503166199, -0.07953285425901413, -0.36497652530670166]]], [[[-0.3677853047847748, -0.21747153997421265, 0.5560788512229919], [-0.2144818902015686, 0.3902830183506012, 0.4393911063671112], [0.576891303062439, 0.46839621663093567, 0.4350276589393616]], [[-0.8214761018753052, -0.19792522490024567, -0.49801915884017944], [-0.270511656999588, -0.48275017738342285, 0.130941703915596], [-0.032352693378925323, 0.000824864546302706, -0.4263420104980469]]], [[[0.5364732146263123, -0.35515597462654114, 0.27097874879837036], [-0.522834837436676, -0.20939993858337402, 0.0870661586523056], [-0.23095379769802094, 0.4368050694465637, -0.6916958093643188]], [[0.180863618850708, -0.24380673468112946, -0.6567996740341187], [0.22882097959518433, 0.4008927643299103, -0.5719940066337585], [-0.2419368475675583, 0.6562477946281433, 0.35960718989372253]]], [[[0.18044862151145935, 0.47947508096694946, -0.6988598108291626], [-0.8170589804649353, 0.018976086750626564, 0.5236554145812988], [-0.12043121457099915, -0.1122017428278923, -0.7046710252761841]], [[-0.4904755651950836, 0.18743585050106049, -0.1667889952659607], [0.32926756143569946, -0.6404335498809814, -0.2312154769897461], [-0.5889153480529785, 0.36463770270347595, -0.3199281692504883]]]], "conv1.bias": [0.3407880961894989, 0.05985371023416519, 0.2757830023765564, 0.28049322962760925, 0.39492493867874146, 0.5494729280471802, -0.22110910713672638, -0.21755830943584442, 0.49939292669296265, -0.2092570960521698, -0.0011607498163357377, 0.020714692771434784, -0.14056649804115295, 0.7424563765525818, -0.25758305191993713, -0.07884129136800766, -0.16676458716392517, -0.5242360830307007, 0.30451732873916626, 0.07379943132400513, 0.14874519407749176, 0.9974048137664795, 0.5247181057929993, 0.401623398065567, -0.29273489117622375, -0.894550621509552, -0.1504136025905609, 0.8581916093826294, -0.4848231375217438, -0.09020043164491653, 0.618008017539978, 0.33691346645355225, 0.48242732882499695, 0.40306007862091064, 0.3575557470321655, -0.185332790017128, -0.09799127280712128, -0.3030140697956085, 0.13206297159194946, 0.6252363324165344, -0.41046419739723206, -0.19858607649803162, 0.6606158018112183, -0.20561255514621735, 0.045167792588472366, -0.371452659368515, -0.32122236490249634, 0.14825411140918732, -0.10075856000185013, -0.22817043960094452, -0.13254955410957336, -0.42237699031829834, 0.22181837260723114, -0.39576488733291626, -0.023406531661748886, -0.022098908200860023, 0.42855948209762573, -0.46596187353134155, 1.0021995306015015, -0.12497405707836151, 0.7109355330467224, -0.38733604550361633, -0.17941689491271973, -0.25056132674217224], "bn1.weight": [1.1821327209472656, 1.2974839210510254, 0.9915246367454529, 1.0378164052963257, 1.1349263191223145, 1.0131815671920776, 1.0272893905639648, 0.9648548364639282, 1.058571696281433, 1.1762654781341553, 1.1230559349060059, 0.9670887589454651, 0.89671790599823, 0.9427089691162109, 1.038114309310913, 0.9989638924598694, 1.0583099126815796, 0.9750205278396606, 0.9855223298072815, 1.068662405014038, 1.142690658569336, 0.9453917741775513, 0.99836665391922, 0.9723460078239441, 1.0486769676208496, 1.0136945247650146, 1.1592907905578613, 1.1561229228973389, 0.9528075456619263, 1.0251020193099976, 0.8828625082969666, 1.2175031900405884, 0.9823638200759888, 1.0609432458877563, 1.051670789718628, 1.134830355644226, 1.1051177978515625, 0.9106948971748352, 1.035889983177185, 0.8449571132659912, 1.149854302406311, 0.9993932843208313, 1.1105819940567017, 0.8529384136199951, 0.9717708230018616, 1.204724907875061, 1.177687168121338, 1.1084345579147339, 1.1382185220718384, 1.1476341485977173, 1.1170709133148193, 1.129193663597107, 1.2666842937469482, 1.0969197750091553, 0.8054029941558838, 0.935104250907898, 0.9518865346908569, 1.0564930438995361, 1.1283482313156128, 1.1653600931167603, 0.9995127320289612, 1.1229270696640015, 0.9206304550170898, 1.0103737115859985], "bn1.bias": [-0.6177207827568054, -0.4643232226371765, -0.4327928423881531, -0.6678488254547119, -0.3642752766609192, -0.2877035439014435, -0.16572020947933197, -0.6241965293884277, -0.29033204913139343, -0.4917146861553192, -0.3949601948261261, -0.5313296914100647, -0.6004255414009094, -0.17013296484947205, -0.2072102278470993, -0.48711180686950684, -0.387407124042511, -0.5012034773826599, -0.3509010672569275, -0.15508727729320526, -0.45380091667175293, -0.6802836656570435, -0.367545485496521, -0.7774442434310913, -0.629734992980957, -0.48808592557907104, -0.19423767924308777, -0.19246993958950043, -0.2596718370914459, -0.669511079788208, -0.43374744057655334, -0.39156976342201233, -0.44694897532463074, -0.748484194278717, -0.4279552102088928, -0.4312840700149536, -0.358386367559433, -0.5490433573722839, -0.5071045160293579, -0.5781229734420776, -0.1514221429824829, -0.3655105233192444, -0.32441049814224243, -0.44372621178627014, -0.6996133327484131, -0.33843159675598145, -0.3356981873512268, -0.4888049364089966, -0.27228879928588867, -0.6363932490348816, -0.7672998309135437, -0.38207295536994934, -0.1887158900499344, -0.2480352222919464, -0.5326183438301086, -0.48579540848731995, -0.6229559779167175, -0.5151269435882568, -0.17631621658802032, -0.4102366864681244, -0.3670922815799713, -0.5791831612586975, -0.4260195791721344, -0.25206345319747925], "conv2.weight": [[[[0.3713410496711731, -0.3441123962402344, 0.1478710174560547], [0.11333461105823517, -0.004620836582034826, 0.21250687539577484], [-0.7027034759521484, 0.07389912754297256, -0.13864794373512268]], [[-0.16772238910198212, 0.04928953945636749, -0.02460944838821888], [0.6272167563438416, 0.6099116206169128, 0.09770087897777557], [0.11395775526762009, -0.5256462097167969, 0.21646973490715027]], [[0.1793294996023178, 0.09277847409248352, 0.41036805510520935], [-0.26807254552841187, -0.33307456970214844, -0.304137259721756], [0.2777516841888428, -0.3610377609729767, 0.42055195569992065]], [[0.03427158668637276, -0.06927162408828735, -0.18617285788059235], [-0.2918177843093872, 0.276811808347702, 0.07754798233509064], [-0.04553365707397461, -0.614207923412323, 0.16632746160030365]], [[-0.4921066164970398, 0.12417924404144287, -0.06596983969211578], [0.12023244798183441, 0.115847148001194, 0.01616024225950241], [0.39020809531211853, 0.22291861474514008, -0.047727346420288086]], [[0.3384537994861603, -0.1409597396850586, -0.3136301040649414], [-0.5767471790313721, 0.025102606043219566, -0.09835056215524673], [0.14571617543697357, 0.014258178882300854, -0.3244791030883789]], [[-0.6181871891021729, -0.20146602392196655, -0.6072258353233337], [-0.47222885489463806, -0.2667875289916992, -0.23813405632972717], [0.25422000885009766, 0.16380411386489868, 0.24092362821102142]], [[-0.3442300856113434, 0.555629551410675, 0.46234795451164246], [0.18391595780849457, 0.7015515565872192, 0.049127206206321716], [-0.49718794226646423, 0.05268406122922897, -0.7412895560264587]], [[-0.7464938759803772, -0.5920575261116028, 0.27330639958381653], [-0.05431152135133743, -0.18510229885578156, -0.3205318748950958], [-0.2449885606765747, 0.09700922667980194, 0.18998171389102936]], [[0.37804073095321655, -0.07435747236013412, 0.14922769367694855], [-0.15950636565685272, 0.12209902703762054, 0.19480781257152557], [-0.056667204946279526, 0.18445084989070892, -0.3399903178215027]], [[-0.07196582853794098, -0.2344643473625183, -0.5202835202217102], [-0.218236044049263, 0.12813407182693481, 0.20692972838878632], [-0.16026663780212402, 0.046038273721933365, -0.9732573628425598]], [[-0.10529716312885284, -0.6594535112380981, -0.01953212171792984], [0.003176312893629074, -0.21452172100543976, 0.07895621657371521], [-0.2780742049217224, 0.20317435264587402, 0.25406351685523987]], [[-0.1387605369091034, 0.5896642804145813, 0.9313526153564453], [-0.19127978384494781, -0.2061963528394699, 0.185556560754776], [-0.3535539209842682, -0.06994529068470001, 0.5270592570304871]], [[-0.46625280380249023, -0.16547490656375885, -0.26611119508743286], [-0.8341934680938721, -0.24498850107192993, -0.4778304994106293], [0.20859768986701965, -0.10083575546741486, 0.06109975650906563]], [[0.3933459222316742, 0.48408952355384827, 0.47777947783470154], [0.3190406262874603, 0.16937503218650818, 0.42857232689857483], [-0.5403206944465637, -0.500847339630127, -0.4636802077293396]], [[0.3108513355255127, -0.48282018303871155, -0.4366039037704468], [-0.5320215821266174, 0.18405970931053162, -0.09124310314655304], [-0.060279592871665955, 0.3198970854282379, 0.371296226978302]], [[-0.10854566097259521, -0.27468186616897583, -1.4651546478271484], [-0.16005563735961914, -0.26976507902145386, -0.014915132895112038], [-0.4420396387577057, -0.13298265635967255, 0.871536135673523]], [[-0.1473960429430008, -1.1273754835128784, -0.1488601118326187], [-0.3464442193508148, 0.3293840289115906, 0.43152984976768494], [0.2959994077682495, 0.25990402698516846, 0.6106587052345276]], [[0.14996342360973358, 0.11196648329496384, 0.6214998960494995], [0.05057065933942795, -0.03914382681250572, 0.17075400054454803], [0.5030457377433777, -0.07817066460847855, -0.04299323633313179]], [[-0.7297488451004028, -0.364134281873703, -0.14754118025302887], [-0.10878733545541763, 0.3392268419265747, 0.352577269077301], [-0.21547116339206696, 0.16255426406860352, -0.03563249856233597]], [[-0.014004986733198166, -0.17840449512004852, -0.16009818017482758], [-0.06616168469190598, 0.25317680835723877, 0.5668747425079346], [-0.28614941239356995, 0.38871076703071594, 0.8778956532478333]], [[0.14813576638698578, 0.15825390815734863, -0.3535380959510803], [-0.8608008623123169, -0.057159483432769775, 0.6425232887268066], [0.12594056129455566, 0.021523484960198402, -0.10074345767498016]], [[0.8154937028884888, -0.36266598105430603, 0.06944678723812103], [0.18688540160655975, 0.3486524522304535, -0.23486122488975525], [0.3543556332588196, -0.3941381573677063, -0.2216021716594696]], [[0.36273425817489624, -0.8692936301231384, 0.6139061450958252], [-0.05197411775588989, 0.07808002829551697, 0.5453200340270996], [-0.0347273088991642, 0.3271828591823578, -0.7796337604522705]], [[-0.2916510999202728, -0.19375230371952057, 0.1549932062625885], [0.6826463937759399, -0.4306808412075043, -0.31335005164146423], [-1.1505005359649658, -0.32405245304107666, 0.05148652568459511]], [[-1.10783851146698, -0.6469863653182983, -0.6851255297660828], [0.020473916083574295, 0.21768490970134735, 0.443838894367218], [0.11952051520347595, -0.32716819643974304, 0.5242086052894592]], [[0.4112322926521301, 0.2890228033065796, 0.6095067262649536], [-0.14651256799697876, 0.07644166052341461, -0.33035749197006226], [0.05164913088083267, -0.6553685069084167, 0.6351343989372253]], [[1.1087605953216553, -0.27620548009872437, -0.47952666878700256], [0.19437210261821747, 0.24194109439849854, 0.08549999445676804], [-0.15424059331417084, 0.18676024675369263, 0.4151546061038971]], [[0.023221557959914207, 0.3099361062049866, -0.5073175430297852], [0.6069447994232178, 0.02607950195670128, -0.1928045004606247], [-0.8713557124137878, 0.4059702455997467, -0.2776917517185211]], [[0.26830822229385376, -0.21153731644153595, 0.09910285472869873], [0.4958430826663971, -0.11677897721529007, 0.1388508826494217], [0.10352379828691483, -0.16669544577598572, -0.02652919478714466]], [[-0.14420107007026672, -0.39045238494873047, -0.4778364300727844], [0.23562568426132202, -0.14725150167942047, -0.20971380174160004], [-0.13462169468402863, -0.2122003138065338, -0.03434448689222336]], [[0.07606932520866394, -0.7775412201881409, 0.12617751955986023], [0.25188925862312317, -0.19400274753570557, 0.07493007928133011], [0.23030881583690643, 0.35557109117507935, -0.6022144556045532]], [[0.17906314134597778, 0.10441044718027115, -0.3382224440574646], [0.01933143101632595, -0.28840240836143494, 0.13896267116069794], [-0.37570199370384216, -0.33856454491615295, 0.37862250208854675]], [[-0.221236452460289, 0.5173170566558838, 0.10053844749927521], [0.22827206552028656, 0.4948298931121826, 0.1310916393995285], [0.6591500639915466, 0.9094151854515076, 0.23261705040931702]], [[-0.17648562788963318, -0.847203254699707, -0.3388561010360718], [0.3563573956489563, 0.2139182984828949, 0.30269116163253784], [0.36873751878738403, -0.17209415137767792, 0.1934536099433899]], [[0.2834576964378357, -0.6253513097763062, 0.39790216088294983], [0.013495969586074352, -0.47637495398521423, 0.50753253698349], [0.2244744747877121, -0.19974356889724731, 0.4613300561904907]], [[0.1922333538532257, -0.04284057766199112, 0.15052954852581024], [-0.7078383564949036, -1.04977548122406, -0.14224568009376526], [-0.7529986500740051, 0.546069860458374, 0.19680915772914886]], [[0.06144137680530548, -0.2335961014032364, 0.1315622180700302], [-0.08838391304016113, -0.43254441022872925, -0.400992751121521], [-0.2662941813468933, 0.39648935198783875, -0.061070866882801056]], [[-0.41718560457229614, 0.07871976494789124, 0.19817841053009033], [-0.08806009590625763, -0.32777872681617737, -0.15395712852478027], [0.7406001687049866, 0.3909769058227539, -0.4038828909397125]], [[0.015398995019495487, 0.0897863581776619, -0.42913687229156494], [-0.03113674372434616, -0.030626168474555016, 0.33359530568122864], [-0.7943249940872192, -0.35041680932044983, 0.10740461200475693]], [[0.23166675865650177, -0.04651590809226036, 0.4353148639202118], [-0.2131081372499466, -0.7410900592803955, 0.3048824071884155], [0.7326444387435913, -0.0320887565612793, -0.4802249073982239]], [[0.5763828754425049, -0.1434834599494934, -0.22176244854927063], [-0.48676979541778564, -0.35464438796043396, 0.5251153707504272], [-0.2548474371433258, -0.10593239963054657, 0.3291422426700592]], [[0.1477193832397461, -0.2894097864627838, 0.03631310537457466], [-0.29863259196281433, 0.11608759313821793, 0.028366027399897575], [-0.09426172077655792, 0.14884530007839203, -0.4240092933177948]], [[0.29040631651878357, -0.6653227210044861, -0.2081780880689621], [-0.01965090073645115, 0.9035462141036987, -0.08642140030860901], [-0.21362246572971344, 0.7399283647537231, 0.17624244093894958]], [[0.4512900114059448, 0.2897334694862366, -0.2912949025630951], [-0.19522543251514435, 0.2228602021932602, -0.0382491871714592], [0.5586966872215271, -0.8819866180419922, 0.33316877484321594]], [[0.41298696398735046, 0.055663250386714935, 0.4173293709754944], [-0.6469665765762329, -0.5322011709213257, 0.496907114982605], [0.3215996026992798, 0.21973580121994019, 0.3675784468650818]], [[-0.07532797008752823, 0.2847966253757477, -0.7058389782905579], [0.49776044487953186, 0.18177251517772675, -1.024840235710144], [0.4304050803184509, -0.14494942128658295, 0.3489444851875305]], [[-0.24602000415325165, 0.7666986584663391, 0.27087077498435974], [-0.38894668221473694, -0.3607963025569916, 0.36924076080322266], [-0.5429404973983765, -0.2422666847705841, 0.41130828857421875]], [[-0.16657806932926178, -0.0877961665391922, 0.5325281620025635], [0.01080450788140297, -0.26265978813171387, 0.46623119711875916], [-0.3038085103034973, -0.8258827924728394, 0.08171515166759491]], [[0.34335461258888245, -0.18201132118701935, -0.3382154703140259], [0.09562726318836212, 0.5721373558044434, -0.16449441015720367], [-0.2095339298248291, 0.191736102104187, 0.0728379487991333]], [[0.3652607500553131, -0.04339722916483879, -0.4225032925605774], [-0.20217281579971313, 0.33379438519477844, -0.7366155982017517], [-0.20893119275569916, -0.16155113279819489, 0.29866713285446167]], [[-0.7317948341369629, 0.0942206010222435, 0.28929850459098816], [-0.4571065604686737, -0.3740433156490326, 0.14276576042175293], [0.38994553685188293, -0.1786147803068161, 0.0599302276968956]], [[-0.24379897117614746, -0.04849480092525482, 0.34205377101898193], [-0.023433689028024673, -0.041689835488796234, 0.5123375058174133], [0.3325680196285248, -0.056980885565280914, 0.24379350244998932]], [[0.033419929444789886, -0.5710753202438354, 0.06876260042190552], [0.10875315219163895, -0.26039159297943115, 0.3982398211956024], [-0.38908642530441284, -0.516276478767395, -0.03157558664679527]], [[-0.5641388893127441, -0.07800755649805069, -0.09970200806856155], [-0.6858090758323669, -0.33066242933273315, 0.22291497886180878], [-0.7007400989532471, 0.0629037618637085, 0.6682397723197937]], [[-0.6073421239852905, -0.13552866876125336, 0.5284526348114014], [-0.5389631986618042, -0.29541653394699097, 0.2366887778043747], [-0.7114937901496887, -0.30612507462501526, 0.940565824508667]], [[-0.1992623209953308, 0.005541316233575344, 0.009671504609286785], [-0.09649427235126495, 0.6873714327812195, -0.28773558139801025], [0.47601571679115295, -0.13642820715904236, 0.13439364731311798]], [[-0.21227863430976868, -0.4760705530643463, -0.44635817408561707], [-0.5194190740585327, 0.09125372022390366, 0.3120620846748352], [0.4466004967689514, 0.40492454171180725, 0.1619538962841034]], [[0.3157053291797638, 0.14920774102210999, 0.19370676577091217], [-0.04567094147205353, -0.005150609649717808, 0.16693419218063354], [0.2678092122077942, -0.1424192488193512, -0.12583526968955994]], [[-0.39657726883888245, 0.17653897404670715, -0.6004428267478943], [0.1426732987165451, -0.12430626153945923, -0.1807335466146469], [-0.002558504929766059, -0.3904327154159546, 0.025045212358236313]], [[0.5355533957481384, -0.47152820229530334, -0.3123910427093506], [-0.09655997902154922, -0.25415000319480896, -0.4666309654712677], [-0.8298107981681824, -0.006937542464584112, -0.2403656393289566]], [[-0.13214196264743805, -0.026089617982506752, -0.10153725743293762], [-0.4097968339920044, -0.26389262080192566, -0.1274494230747223], [-0.09224206954240799, 0.02232942543923855, -0.4653984010219574]], [[-0.1138695478439331, -0.2242181897163391, -0.5072357654571533], [-0.4415842592716217, 0.10771937668323517, 0.06097109615802765], [-0.1340322047472, 0.36045217514038086, 0.16056691110134125]], [[-0.4622555375099182, -0.428236722946167, -0.013928149826824665], [-0.8593174815177917, -0.5255247950553894, 0.08554049581289291], [0.035554178059101105, -0.14595739543437958, 0.3519272208213806]]], [[[0.396210253238678, 0.4656127691268921, 1.0139245986938477], [0.1139713004231453, -0.21726952493190765, 0.09961077570915222], [-0.2748922109603882, 0.2409035563468933, -0.846633791923523]], [[0.44422316551208496, 0.3048242926597595, 0.5946075916290283], [0.0701286643743515, -0.20677544176578522, 0.512319803237915], [0.34852391481399536, 0.04498814791440964, -0.19144712388515472]], [[0.19824348390102386, 0.17008936405181885, -0.13391362130641937], [0.006636420730501413, -0.2865719497203827, 0.37788519263267517], [-0.06654944270849228, 0.7031537890434265, 0.07764992862939835]], [[-0.5192692279815674, -0.02192971110343933, 0.26073917746543884], [-0.3246179521083832, -0.149604931473732, 0.3416955769062042], [0.991109311580658, 0.3423311412334442, 0.06750379502773285]], [[-0.6034154891967773, -0.032063718885183334, 0.03684098646044731], [0.47551360726356506, 0.00487279100343585, 0.055387016385793686], [-0.39372313022613525, 0.15787068009376526, 0.08590427041053772]], [[-0.11898761987686157, 0.5355156660079956, -0.04952573776245117], [-0.3486887216567993, 0.02864585630595684, -0.1458684206008911], [0.06812547147274017, 0.37252312898635864, -0.3886764645576477]], [[0.4105567932128906, 0.1654970943927765, -0.21378718316555023], [0.2138872742652893, -0.10776592791080475, 0.2762327790260315], [-0.4589897096157074, 0.6558036208152771, -0.13251982629299164]], [[-0.03715183585882187, -0.21526533365249634, 0.42629027366638184], [-0.07631130516529083, -0.36528781056404114, 0.48660966753959656], [0.2824258506298065, -0.015873027965426445, 0.6269378662109375]], [[0.25783610343933105, -0.11064227670431137, -0.25674039125442505], [-0.11249475926160812, 0.05595790222287178, -0.10681161284446716], [0.07420473545789719, -0.04284001141786575, 0.3648509681224823]], [[-0.1980818510055542, -0.23549804091453552, -0.34921830892562866], [-0.5238630771636963, 0.057468682527542114, -0.14282384514808655], [0.02634766884148121, 0.3688085675239563, -0.4314303398132324]], [[-0.9080193042755127, -0.10148701816797256, -0.14254844188690186], [-0.08668377250432968, 0.15894144773483276, -0.7489168047904968], [0.10706578195095062, -0.32933202385902405, 0.004816215019673109]], [[0.6077243089675903, -0.04424434155225754, -0.45345738530158997], [-0.11252912133932114, 0.4369782507419586, 0.2743021249771118], [-0.6864326000213623, -0.24401146173477173, -0.04589952155947685]], [[0.6820294857025146, -0.24533167481422424, -0.059931203722953796], [-0.05029946193099022, -0.6233314871788025, 0.378865122795105], [-0.25114375352859497, -0.2509704530239105, 0.2963699996471405]], [[0.10718686133623123, 0.3024861514568329, -0.09918943047523499], [0.2396821230649948, 0.005490192677825689, 0.30105462670326233], [0.020347656682133675, -0.10176610201597214, -0.139304518699646]], [[-0.4443837106227875, -0.6428982615470886, -0.1193469762802124], [-0.06079847365617752, 0.243389293551445, 0.06919756531715393], [-0.39151614904403687, 0.07085218280553818, -0.6789862513542175]], [[-0.32882386445999146, -0.20169557631015778, -0.0812448263168335], [0.46990862488746643, -0.364401251077652, 0.2536718547344208], [0.0092841237783432, 0.1355077624320984, -0.09596097469329834]], [[0.4790981709957123, -0.06705605983734131, 0.19966018199920654], [-0.46820974349975586, 0.007936886511743069, 0.7066337466239929], [0.06581795960664749, 0.024378057569265366, -0.785503625869751]], [[-0.036215025931596756, 0.2802719175815582, -0.43661725521087646], [0.5512356758117676, 0.6270106434822083, 0.15985310077667236], [0.22600297629833221, -0.12881898880004883, -0.3954160213470459]], [[1.0185757875442505, -0.02780650183558464, 0.13391566276550293], [-0.15136310458183289, 0.6377472281455994, -0.627535343170166], [0.09564146399497986, -0.2941613793373108, 0.20207379758358002]], [[0.30512529611587524, -0.2240637093782425, 0.2485581636428833], [-0.6088403463363647, 0.4914275109767914, -0.42365819215774536], [-0.8051503896713257, -0.3106893301010132, -0.23850436508655548]], [[-0.26016685366630554, -0.6257050633430481, -0.7234995365142822], [0.08610065281391144, 0.07664678245782852, -0.1441861242055893], [0.1183692067861557, 0.7516880631446838, -0.527486264705658]], [[-0.24965769052505493, -0.21818490326404572, 0.44728946685791016], [0.2246672511100769, 0.0801105871796608, -0.09299187362194061], [0.13827385008335114, -0.30253395438194275, -0.24797062575817108]], [[-0.2064395397901535, 0.05131189525127411, 0.21790450811386108], [0.3407667279243469, -0.23994851112365723, 0.0168729480355978], [-0.12936438620090485, -0.18028239905834198, -0.11737453937530518]], [[0.7678003907203674, -0.01808440126478672, 0.25945916771888733], [0.39366501569747925, -0.06783968955278397, -0.24246440827846527], [0.23421742022037506, 0.10926996171474457, 0.19816406071186066]], [[0.8928183317184448, 0.2291896790266037, 0.5341823101043701], [-0.29291394352912903, -0.3499819338321686, 0.6359914541244507], [-0.1927773356437683, 0.6980340480804443, -0.1122012659907341]], [[-0.08900082856416702, -0.18939809501171112, 0.4689173102378845], [0.5980908274650574, 0.58637535572052, -0.26048043370246887], [0.34274911880493164, 0.5496769547462463, -0.5101653337478638]], [[-0.07089968025684357, -0.7129641771316528, -0.1080729216337204], [0.14557908475399017, -0.12482945621013641, 0.4484547972679138], [0.16791623830795288, 0.034888628870248795, -0.29805606603622437]], [[0.6982885599136353, 0.27167490124702454, 0.3631631135940552], [-0.002470477018505335, -0.4360136389732361, -0.340373694896698], [0.09565357118844986, -0.25809308886528015, 0.509581983089447]], [[-0.08522295951843262, 0.108978770673275, 0.18951916694641113], [-0.2295706868171692, -0.8385792374610901, 0.04264174774289131], [-0.23362575471401215, 0.1326010525226593, 0.27215006947517395]], [[0.02951991744339466, 0.709989607334137, 0.3961954414844513], [0.09975399076938629, 0.2159361094236374, -0.025772947818040848], [-0.42122477293014526, -0.2435511350631714, -0.7428687810897827]], [[0.8610427379608154, -0.2551058828830719, -0.13443920016288757], [-0.10539603233337402, -0.4498123526573181, -0.580112636089325], [0.23590461909770966, 0.3254741132259369, 0.2324659526348114]], [[-0.044802818447351456, 0.04859931021928787, -0.5497562885284424], [-0.09761984646320343, 0.3878439664840698, 0.13684803247451782], [-0.44319796562194824, -0.1906909942626953, -0.11858871579170227]], [[-0.29862692952156067, 0.11782635003328323, 0.706646740436554], [-0.4322400987148285, 0.28611770272254944, 0.09703173488378525], [0.21365706622600555, 0.4922963082790375, -0.866179883480072]], [[0.8300538063049316, -0.8856176137924194, 0.8336820602416992], [0.19574467837810516, 0.23127934336662292, 0.3456096649169922], [0.7851983904838562, 0.7107928991317749, 0.39952924847602844]], [[-0.41725194454193115, 0.11412564665079117, -0.04250502213835716], [0.04607214406132698, -0.23959527909755707, 0.6523723602294922], [-0.0536649115383625, 0.40759772062301636, -0.7537515163421631]], [[0.2400762289762497, -0.08279452472925186, 0.19938898086547852], [-0.46851053833961487, -0.5576617121696472, -0.3562013506889343], [-0.12464750558137894, 0.11702898144721985, 0.39877137541770935]], [[-0.0975618064403534, 0.5741310119628906, -0.6751349568367004], [-0.0029320346657186747, 0.09293156862258911, -0.2603763937950134], [0.43257978558540344, -0.01880214363336563, 0.8299384117126465]], [[0.6249992847442627, 0.45863020420074463, -0.04220202565193176], [0.6114153861999512, -0.5097494125366211, -0.7732009291648865], [0.5102159976959229, -0.15300095081329346, 0.6508806943893433]], [[0.41118043661117554, 0.31717365980148315, -0.0489787720143795], [0.6171871423721313, -0.1744076907634735, -0.4022989869117737], [-0.09959986805915833, 0.0650886818766594, 0.839491605758667]], [[0.22862766683101654, -0.39772409200668335, -0.677973210811615], [0.2217143476009369, 0.05608779564499855, 0.09555687755346298], [0.23332276940345764, 0.03583189472556114, 0.40031665563583374]], [[-0.27707481384277344, -0.670639157295227, -0.38993650674819946], [0.17548924684524536, -0.2306588739156723, -0.001835683360695839], [-0.004884680733084679, -0.17529608309268951, 0.35185354948043823]], [[-0.6576917171478271, -0.37687718868255615, 0.043441127985715866], [-0.010258480906486511, 0.3203582465648651, -0.4631198048591614], [-0.04765743389725685, 0.372629851102829, -0.7029341459274292]], [[0.41233742237091064, -0.17314308881759644, 0.3059554398059845], [0.2195364236831665, 0.1866566687822342, -0.5870829224586487], [-0.03240768611431122, -0.03738449513912201, 0.34196293354034424]], [[0.5109060406684875, 0.020304810255765915, -0.07588876038789749], [-0.1472611278295517, -0.39535415172576904, -0.23956750333309174], [0.037561219185590744, 0.0958123579621315, 0.4692610204219818]], [[-0.09687884896993637, 0.31456074118614197, 0.4184449017047882], [0.26936963200569153, -0.17402245104312897, 0.5522006154060364], [0.3856565058231354, 0.12587854266166687, 0.05396360531449318]], [[-0.1445315033197403, -0.011487999930977821, 0.33054280281066895], [0.057009704411029816, -0.175040602684021, 0.5467042326927185], [0.06753979623317719, 0.3773389160633087, 0.6615774631500244]], [[0.25687816739082336, -0.013189435005187988, 0.1152721717953682], [-0.10199062526226044, 0.26738396286964417, 0.5973225831985474], [-0.1364775151014328, 0.5191860795021057, -0.13174249231815338]], [[0.14044980704784393, -0.7321442365646362, -0.08099373430013657], [0.10225731134414673, -0.7248247861862183, -0.04621114209294319], [-0.08341336250305176, 0.033408962190151215, 0.34440428018569946]], [[0.03238939866423607, -0.08079259097576141, 0.4485076367855072], [0.2808484137058258, -0.525138795375824, 0.16862308979034424], [0.7380593419075012, -0.1707337349653244, 0.42553505301475525]], [[-0.13176319003105164, 0.2826673984527588, -0.23544882237911224], [-0.20658300817012787, 0.04539264738559723, -0.2703913450241089], [-0.11148007959127426, -0.5792267918586731, -0.8821141719818115]], [[-0.5753188133239746, -0.4374983310699463, -0.027787072584033012], [-0.7114675045013428, 0.29214155673980713, 0.6913529634475708], [-0.093605637550354, -0.5443956851959229, -0.8045481443405151]], [[0.2459777146577835, 0.19350944459438324, 0.25060081481933594], [-0.4383724629878998, -0.3245781362056732, 0.07685653865337372], [-0.13144147396087646, 0.2553466856479645, 0.02673439122736454]], [[0.23152104020118713, -0.03504522889852524, -0.39947110414505005], [0.19722764194011688, -0.061029769480228424, 0.07560908049345016], [0.17720738053321838, 0.054185546934604645, 0.0016581175150349736]], [[0.08649419248104095, -0.12087169289588928, 0.14483857154846191], [0.7454014420509338, -0.0008435548515990376, -0.2532534897327423], [0.0489560142159462, 0.10955149680376053, 0.02306303009390831]], [[-0.13857226073741913, -0.06992844492197037, 0.025719499215483665], [0.209695503115654, -0.07589403539896011, 0.4421537220478058], [-0.45481500029563904, -0.4096011817455292, -0.4245489835739136]], [[-0.06987536698579788, 0.14974071085453033, -0.6372960805892944], [0.5833560228347778, 0.2866279184818268, -0.2166193723678589], [0.6012073159217834, 0.4299691915512085, 0.18615956604480743]], [[0.33353233337402344, 0.027679767459630966, 0.17250189185142517], [-0.030982915312051773, -0.47159066796302795, 0.8697987198829651], [-0.06933236122131348, 0.6649134755134583, -0.34141817688941956]], [[0.3669455945491791, -0.16831915080547333, 0.11025286465883255], [-0.04667194187641144, -0.4015789330005646, -0.37667760252952576], [-0.017388969659805298, 0.6453763246536255, 0.5490407943725586]], [[0.607463002204895, -0.44119614362716675, -0.1310751587152481], [-1.0174612998962402, -0.14721061289310455, -0.47632986307144165], [0.23734848201274872, 0.15587261319160461, 0.018700329586863518]], [[-0.2551352381706238, 0.16987936198711395, 0.038149382919073105], [-0.23535677790641785, -0.5474151372909546, -1.09722900390625], [0.12832874059677124, -0.38269323110580444, 0.25875502824783325]], [[0.662878692150116, 0.02057832106947899, 0.18325863778591156], [-0.004810604266822338, -0.350256085395813, 0.03527602180838585], [-0.2054787129163742, 0.41168054938316345, -0.2365146428346634]], [[0.7195054888725281, -0.11384084075689316, -0.16273367404937744], [0.17691831290721893, 0.04896404594182968, -0.040108878165483475], [-0.19815273582935333, -0.5575863122940063, 0.24170877039432526]], [[-0.6230698823928833, -0.49192023277282715, -0.602444052696228], [0.17075984179973602, -0.11670852452516556, 0.36179718375205994], [0.003627500496804714, -0.15368494391441345, -0.5852943658828735]], [[0.11651594191789627, 0.23223824799060822, 0.38807931542396545], [-0.44949671626091003, -0.4583953320980072, 0.06397110223770142], [0.14122582972049713, 0.7338685393333435, -0.2835741937160492]]], [[[0.12813526391983032, -0.17514242231845856, 0.11656983196735382], [-0.04191652312874794, -0.534855306148529, -0.043038561940193176], [-0.3021714389324188, 0.38106000423431396, -0.1538950800895691]], [[0.5476564764976501, 0.39178574085235596, 0.40329763293266296], [-0.1735112965106964, -0.0020848384592682123, 0.30157357454299927], [-1.3833222389221191, -0.46469205617904663, -0.1302008330821991]], [[0.15217143297195435, 0.06844572722911835, -0.22084900736808777], [0.39080578088760376, 0.2454189658164978, -0.35529810190200806], [-0.16884048283100128, 0.2744140625, -0.34397244453430176]], [[0.08338014781475067, 0.3498440682888031, -0.3157312273979187], [0.44322913885116577, 0.33178576827049255, 0.37296125292778015], [-0.48949483036994934, 0.47416678071022034, 0.15670587122440338]], [[-0.7043135166168213, 0.5701799988746643, 0.0009258217760361731], [-1.0345497131347656, 0.7330645322799683, -0.2859790623188019], [0.22313006222248077, 0.26626190543174744, -0.23238405585289001]], [[0.1439538300037384, 0.3991430103778839, -0.2684352993965149], [-0.4850635528564453, 0.5199304819107056, -0.13308590650558472], [0.26057615876197815, 0.38418740034103394, 0.1364879161119461]], [[0.12286045402288437, 0.03517761081457138, -0.3317418694496155], [-0.37675783038139343, -0.7015748023986816, -0.10069068521261215], [0.23658494651317596, 0.04252832010388374, 0.05936867371201515]], [[0.09924734383821487, 0.0644708201289177, 0.009165643714368343], [0.2547019422054291, 0.2921612858772278, 0.4232015907764435], [-0.2750101089477539, 0.05625816062092781, 0.29831430315971375]], [[0.01886674575507641, 0.6672569513320923, 0.0023781394120305777], [-0.07567449659109116, -0.9495147466659546, 0.632725179195404], [0.6512283086776733, -0.7190985083580017, 0.058759719133377075]], [[0.36478638648986816, -0.5209651589393616, 0.1819675713777542], [0.16387571394443512, -0.19722868502140045, 0.4468676447868347], [0.3150971829891205, 0.22300130128860474, -0.750339925289154]], [[0.9335685968399048, 0.5749958753585815, 0.7318295836448669], [-0.13443320989608765, 0.3099186420440674, -0.6950830817222595], [-0.43347224593162537, 0.08044151961803436, -0.22252316772937775]], [[-0.5371389389038086, 0.13700850307941437, 0.12938319146633148], [-0.4242947995662689, 0.09018436819314957, -0.3162553310394287], [0.08134224265813828, 0.5595796704292297, -0.26641198992729187]], [[-0.03555884212255478, -0.2812221050262451, 0.32222819328308105], [0.13595087826251984, 0.24365995824337006, -0.04895630106329918], [0.168958842754364, 0.07271293550729752, 0.059825628995895386]], [[0.3851436972618103, 0.291826456785202, 0.5541946291923523], [0.10227763652801514, -0.1752856969833374, -0.3089793026447296], [-0.009721765294671059, 0.5742701292037964, -0.6957631707191467]], [[-0.04872694984078407, 0.5360052585601807, -0.17833705246448517], [-0.1802561730146408, -0.004170624539256096, -0.3050123155117035], [-0.22584520280361176, 0.27897024154663086, 0.22704477608203888]], [[0.5325754880905151, 0.08268598467111588, 0.45035895705223083], [-0.28456705808639526, -0.07199674099683762, -0.3071596622467041], [-0.4562847912311554, 0.023014189675450325, -0.06108873337507248]], [[0.5323986411094666, -0.6355594396591187, 0.26274940371513367], [-0.4447685480117798, -0.044995542615652084, -0.28140273690223694], [-0.6186532378196716, -0.406704843044281, -0.19516253471374512]], [[-0.2057725489139557, -0.6420242786407471, -0.18883050978183746], [0.39646226167678833, -0.01962682604789734, -0.18002332746982574], [0.1574360728263855, 0.5483400225639343, 0.6467803120613098]], [[0.06701192259788513, 0.41221076250076294, -0.14814965426921844], [-0.31914427876472473, 0.038414984941482544, 0.366110235452652], [0.535706639289856, -0.14760161936283112, -0.22374609112739563]], [[-0.01270856149494648, -0.1458292007446289, 0.10971996933221817], [-0.5911652445793152, -0.30910661816596985, 0.4371318817138672], [-0.15585371851921082, 0.045675378292798996, 0.022398078814148903]], [[0.26544812321662903, -0.4552163779735565, 0.27044063806533813], [-0.1935175508260727, -0.043021153658628464, 0.28645244240760803], [-0.15503530204296112, 0.38993024826049805, 0.4545859396457672]], [[-0.06459023058414459, -0.08901602774858475, -0.24266256392002106], [0.32942917943000793, 0.3825126588344574, -0.6729090213775635], [-0.35783612728118896, -0.12774871289730072, 0.12674084305763245]], [[-0.6177606582641602, -0.27590808272361755, -0.3566608130931854], [-0.46065059304237366, -0.02859961800277233, 0.46460315585136414], [-0.27065351605415344, -0.09852467477321625, -0.12816904485225677]], [[-0.07794724404811859, 0.37093427777290344, -0.5698539018630981], [0.36027371883392334, 0.05415298044681549, -0.27942851185798645], [0.7707047462463379, 0.30249786376953125, 0.2762848138809204]], [[-0.27013859152793884, 0.2676965892314911, 0.20967011153697968], [0.5098339319229126, -0.006851916201412678, 0.028395645320415497], [-0.18874117732048035, 0.37602564692497253, 0.6300060749053955]], [[-0.09637686610221863, 0.275074303150177, -0.6796385049819946], [-0.17167633771896362, -0.34698858857154846, 0.18722905218601227], [-0.2464243769645691, 0.911099910736084, 0.06365473568439484]], [[-0.015471252612769604, 0.49435552954673767, 0.3554726243019104], [0.39830878376960754, 0.04802989214658737, -0.47085827589035034], [0.1704743653535843, -0.07343419641256332, -0.41228148341178894]], [[-0.8479182124137878, 0.023080650717020035, 0.9810298681259155], [0.3073297441005707, -0.40552276372909546, 0.42004844546318054], [-0.3673359155654907, -0.39488810300827026, 0.042440515011548996]], [[0.025236517190933228, -0.23889601230621338, -0.20310138165950775], [-0.031212562695145607, -0.3719446659088135, 0.5451505184173584], [0.14849083125591278, -0.19834792613983154, -0.4636264443397522]], [[-0.422088623046875, -0.04992597550153732, -0.0969976857304573], [-0.4568156898021698, -0.5774480104446411, -0.7429302930831909], [0.2082560807466507, -0.4558962881565094, -0.5677911043167114]], [[0.359920859336853, 0.13405275344848633, -0.4411410689353943], [-0.4285741150379181, 0.19059011340141296, 0.5001816749572754], [-0.9543226361274719, -0.3356727957725525, 0.059284888207912445]], [[-0.17624685168266296, -0.07596594840288162, -0.4425600469112396], [0.4625885486602783, -0.3684854209423065, -0.38067179918289185], [0.19714178144931793, -0.2960875630378723, 0.05522984266281128]], [[0.6177034378051758, 0.09059761464595795, 0.17997899651527405], [0.34288662672042847, -0.04931674897670746, 0.3142940402030945], [-0.25387710332870483, -0.6587061882019043, 0.05506905913352966]], [[0.23686665296554565, -0.5662602782249451, 0.3240223526954651], [0.39746570587158203, 0.3202880322933197, 0.12951074540615082], [-0.5006561875343323, -0.16802121698856354, -0.30588072538375854]], [[0.3828619718551636, 0.005003560334444046, -1.209575891494751], [0.4184195101261139, -0.4097125828266144, -0.2142687290906906], [-0.09270605444908142, 0.8332934975624084, -0.4142317473888397]], [[0.2551385164260864, 0.4350574016571045, 0.1734521985054016], [-0.3172672390937805, 0.40308716893196106, 0.10273295640945435], [-0.9839176535606384, 0.13691134750843048, -0.410731703042984]], [[-0.612697184085846, -0.30433130264282227, 0.2762020230293274], [0.4087550938129425, -0.2742077112197876, 0.04573958367109299], [0.36648282408714294, 0.5547484159469604, 0.06289254873991013]], [[-0.1531575322151184, 0.02035871520638466, -0.8723174333572388], [-0.18129608035087585, -0.15887326002120972, -0.01106217410415411], [-0.10121670365333557, -0.5311266183853149, 0.22093111276626587]], [[-0.25198838114738464, -0.0884915441274643, -0.02406434714794159], [-0.3464541733264923, 0.21772724390029907, -0.3396751880645752], [0.32281428575515747, -0.21178095042705536, -0.04399649426341057]], [[-0.7024447321891785, 0.01249033585190773, 0.021633170545101166], [-0.643125593662262, 0.28080272674560547, 0.09653478860855103], [0.6218738555908203, 0.21460579335689545, -0.03130562976002693]], [[0.3392582833766937, 0.3644576668739319, -0.20927941799163818], [-0.2010786235332489, 0.28286516666412354, -0.08345058560371399], [0.8756663203239441, -0.07785890996456146, 0.39700835943222046]], [[-0.3540301024913788, 0.2128026783466339, -0.28393080830574036], [-0.46189385652542114, 0.023023296147584915, 0.17137305438518524], [0.7531030178070068, 0.4182577133178711, 0.5286744832992554]], [[-0.545691192150116, -0.08480368554592133, 0.5457300543785095], [0.08314884454011917, -0.3741408586502075, 0.6314591765403748], [0.3251458406448364, 0.10109509527683258, -0.09972117096185684]], [[-1.1777114868164062, -0.441267728805542, -0.14243517816066742], [-0.04590268060564995, 0.5109303593635559, 0.3664132356643677], [-0.07107291370630264, 0.5308510065078735, -0.5200493335723877]], [[0.02203349582850933, 1.0362565517425537, -0.09545975923538208], [-0.12417203187942505, 0.2434069663286209, 0.17808525264263153], [0.021212400868535042, 0.31499114632606506, 0.4690089523792267]], [[-0.28641170263290405, 0.7768588662147522, 0.02174028754234314], [-0.04383624717593193, 0.009968613274395466, -0.4360373914241791], [0.40145519375801086, -0.06799878180027008, -0.21009714901447296]], [[0.1749533861875534, -0.19532424211502075, 0.5248262286186218], [0.4563925266265869, -0.6118021607398987, 0.10540744662284851], [-0.6503217220306396, 0.7553849220275879, -0.02129627764225006]], [[0.38492485880851746, 0.14357233047485352, -0.3690987229347229], [0.31877899169921875, 0.24053913354873657, -0.5796006917953491], [-0.34892022609710693, -0.20932736992835999, 0.10907945781946182]], [[-0.08851654082536697, -0.7577372193336487, 0.03767475485801697], [-0.06156425178050995, 0.21437081694602966, -0.12782388925552368], [-0.8867046236991882, -0.34142759442329407, 0.3537733852863312]], [[-0.628119170665741, -0.8190091848373413, -0.21597237884998322], [0.13788001239299774, -0.42696553468704224, -0.09242743253707886], [-0.4670468270778656, 0.2068435251712799, 0.18918441236019135]], [[0.11270114779472351, -1.1733133792877197, -0.04164498671889305], [-0.42092758417129517, -0.117855504155159, 0.09972482919692993], [-0.562111496925354, 0.6726198196411133, 0.25112223625183105]], [[0.38105663657188416, -0.24327388405799866, 0.07903982698917389], [-0.4854346811771393, -0.37967783212661743, 0.46464407444000244], [-0.10937335342168808, -0.7599011063575745, 0.41059473156929016]], [[-0.2902835011482239, 0.1420363038778305, 0.21338285505771637], [-0.44534116983413696, 0.35428085923194885, 0.36083683371543884], [-0.33762019872665405, -0.029118821024894714, -0.36616021394729614]], [[0.2710144817829132, 0.2707502245903015, -0.4327051341533661], [0.2947281301021576, 0.29408571124076843, -0.19253255426883698], [0.07486409693956375, -0.045758046209812164, 0.019505087286233902]], [[0.15063685178756714, 0.1730988472700119, 0.2395871877670288], [-0.5917852520942688, 0.014013984240591526, 0.02757592685520649], [0.5738240480422974, -0.18685303628444672, -0.32473382353782654]], [[-0.3160839378833771, -0.6009766459465027, 0.5281828045845032], [-0.049347370862960815, 0.26867949962615967, 0.2671745717525482], [0.13922347128391266, -0.3118363916873932, 0.1918661892414093]], [[0.20796744525432587, -0.05761895701289177, -0.07466132938861847], [-0.0742066502571106, 0.28567394614219666, 0.5460985898971558], [-0.7493939995765686, -0.12619298696517944, 0.046835873275995255]], [[-0.1715497374534607, -0.3174537122249603, -0.14712131023406982], [0.4527676999568939, -0.3875496983528137, 0.08003345131874084], [0.2651021182537079, 0.22675250470638275, -0.04973340779542923]], [[-0.11981432884931564, 0.10142920911312103, 0.6812868714332581], [-0.10259445756673813, -0.0019380258163437247, 0.31931936740875244], [0.08073697984218597, -0.12562961876392365, 0.005812518764287233]], [[0.09390050172805786, -0.07203610241413116, 0.4986979067325592], [-0.14900138974189758, -0.35229334235191345, 0.2580575942993164], [-0.24547025561332703, 0.3929581940174103, 0.02462623082101345]], [[0.16721853613853455, -0.7139109969139099, 0.13462933897972107], [0.15771238505840302, 0.08251091837882996, -0.06597638130187988], [-0.25683608651161194, -0.6089431643486023, 0.2831360697746277]], [[0.0009874742245301604, -0.29876649379730225, 0.622401237487793], [-0.35944220423698425, -0.4911656975746155, 0.7483634948730469], [-0.2023451328277588, 0.2878868281841278, -0.32333871722221375]], [[0.19577349722385406, 0.33440279960632324, 0.5326424837112427], [-0.06513369083404541, 0.4093739092350006, -0.16503304243087769], [0.5639101266860962, -0.5370460748672485, -0.1500864326953888]], [[0.11409373581409454, 0.005579461809247732, -0.13145609200000763], [-0.15145261585712433, 0.21325170993804932, 0.019591882824897766], [-0.4434170424938202, 0.6705798506736755, 0.6095695495605469]]], [[[-0.2037249207496643, -0.6920889616012573, -0.22037267684936523], [-0.25405633449554443, -0.28352996706962585, -0.09671774506568909], [0.3451196551322937, -0.00478003965690732, -0.008234142325818539]], [[-0.27932387590408325, -0.18397749960422516, -0.3601096272468567], [0.2876931428909302, -0.15422014892101288, -0.7561500072479248], [-0.3415907621383667, 0.04771324619650841, -0.5545929670333862]], [[-0.10947490483522415, -0.7190672755241394, -0.9224003553390503], [-0.056085117161273956, -0.6327860355377197, 0.4984341263771057], [-0.3006012439727783, -0.11023876816034317, -0.2940749526023865]], [[0.20571815967559814, -0.09716105461120605, 0.5413591265678406], [0.05126729607582092, -0.5781183838844299, 0.41248852014541626], [0.7359333038330078, 0.47471264004707336, -0.5390631556510925]], [[-0.16450873017311096, 0.011296979151666164, -0.5026236772537231], [-0.21866072714328766, 0.30982697010040283, 0.18346667289733887], [0.12160371989011765, -0.05658617988228798, 0.1156146377325058]], [[0.14125004410743713, -0.13824979960918427, 0.03222370892763138], [0.47265681624412537, 0.9845471382141113, 0.6414567232131958], [0.4469757676124573, 0.5016109943389893, -0.16808825731277466]], [[-0.45338866114616394, 0.15220636129379272, 0.3018520474433899], [-0.36925143003463745, -0.6848072409629822, -0.1813088059425354], [-0.6899436712265015, 0.31433454155921936, 0.43742114305496216]], [[0.14968203008174896, 0.26934921741485596, -0.18964360654354095], [-0.6632899641990662, 0.13723795115947723, 0.37021130323410034], [0.3925173580646515, 0.32558876276016235, -0.5560298562049866]], [[0.20807652175426483, 0.14620454609394073, 0.1911705583333969], [-0.1705811768770218, 0.3994576036930084, 0.3605421185493469], [0.02509995922446251, 0.1265854388475418, 0.5680723190307617]], [[-0.6572825908660889, 0.004888222087174654, 0.47784602642059326], [0.9001103043556213, 0.3976946771144867, -0.2784220278263092], [-0.154174342751503, 0.030529117211699486, 0.2736014723777771]], [[0.4763250946998596, 0.22504262626171112, -0.3764384686946869], [0.3767704963684082, 0.6380281448364258, 0.4118315577507019], [0.1003791093826294, -0.07367140054702759, -0.2186543047428131]], [[0.14151722192764282, -0.13191944360733032, -0.09036312997341156], [0.4145342707633972, -0.3458426296710968, -0.12781165540218353], [-0.18942178785800934, 0.49614542722702026, -0.5748491883277893]], [[0.5564426779747009, -0.33450064063072205, -0.26593005657196045], [0.028179634362459183, 0.18041107058525085, -0.12570779025554657], [0.20067860186100006, 0.20991501212120056, 0.30644574761390686]], [[-0.0486099049448967, 0.0714321881532669, -0.06344866007566452], [0.4018263518810272, -0.277871698141098, 0.034635432064533234], [-0.7576978802680969, 0.31722187995910645, 0.02350527048110962]], [[-0.018652696162462234, -0.2836918532848358, 0.31957828998565674], [-0.4006792902946472, -0.15914462506771088, -0.29116231203079224], [-0.5280371308326721, -0.5150248408317566, 0.39228084683418274]], [[0.5303405523300171, 0.28676268458366394, 0.9515418410301208], [-0.12833502888679504, 0.2284759283065796, 0.023344576358795166], [0.052133865654468536, -0.013075382448732853, 0.5770530700683594]], [[0.7063804268836975, 0.36784255504608154, -0.025484470650553703], [-0.06282270699739456, -0.4090934097766876, 0.424942284822464], [-1.186044454574585, 0.1590893715620041, -0.6079933047294617]], [[-0.06573198735713959, -0.4579310417175293, -0.5612428188323975], [0.02692405879497528, 0.9072567820549011, 0.06651171296834946], [0.5754731297492981, 0.4382498264312744, -0.2529487907886505]], [[0.39382776618003845, 0.20349453389644623, -0.1347104012966156], [-0.21936920285224915, 0.3823002576828003, -0.11192121356725693], [-0.10318167507648468, -0.25865620374679565, -0.09345228970050812]], [[0.4640139639377594, 0.3618435263633728, -0.4249538779258728], [-0.18530507385730743, 0.4394308030605316, -0.3881209194660187], [-0.7680703401565552, 0.2303561121225357, -0.33297309279441833]], [[-0.5443568825721741, -0.03529942035675049, 0.09789613634347916], [-0.6303166151046753, -0.6154212951660156, 0.9639154672622681], [0.009777960367500782, -0.45061030983924866, -0.5912007689476013]], [[0.2631930708885193, 0.09617595374584198, 0.4333503246307373], [-0.4518910348415375, 0.16361457109451294, -0.11106131225824356], [0.40902119874954224, 0.6491126418113708, 0.2188025414943695]], [[0.022323204204440117, 0.26782336831092834, 0.1382957547903061], [0.200420543551445, -0.4359489977359772, 0.20154038071632385], [0.017841963097453117, 0.2383815050125122, 0.0390596017241478]], [[0.10315714031457901, 0.5835081338882446, -0.47052571177482605], [-0.013228435069322586, -0.6069745421409607, -0.6943146586418152], [0.3201344907283783, -0.6196956634521484, 0.9955384731292725]], [[0.23281897604465485, -0.0648922324180603, -0.29413294792175293], [0.07462750375270844, 0.012784096412360668, -0.03312905877828598], [0.061241451650857925, -0.23751071095466614, 0.5659124851226807]], [[-0.15793292224407196, 0.569120466709137, 0.45561787486076355], [0.005706953350454569, -0.44847482442855835, 0.3466686010360718], [0.1712142676115036, 0.3966068625450134, -0.7876149415969849]], [[-0.2003117799758911, 0.07525777816772461, -0.5253013372421265], [-0.13342086970806122, 0.2911161780357361, -0.5073152780532837], [0.1256045550107956, -0.05052204802632332, -0.030839426442980766]], [[-0.3811441659927368, -0.6110382676124573, -0.5550603270530701], [-0.4423385560512543, -0.17268604040145874, 0.4568351209163666], [-0.12871778011322021, 0.4483034908771515, -0.38770344853401184]], [[0.4879034161567688, -0.3887418210506439, -0.3442735970020294], [-0.7159924507141113, -0.24767033755779266, 0.12648822367191315], [0.526038408279419, 0.14722679555416107, -0.29052814841270447]], [[0.08155376464128494, 0.38581451773643494, -0.47926226258277893], [-0.9692865610122681, 0.14087408781051636, 0.11195393651723862], [-0.10723700374364853, -0.26834923028945923, -0.17901083827018738]], [[-0.012373918667435646, 0.36573734879493713, -0.733386218547821], [0.23587384819984436, -0.21816778182983398, 0.30345043540000916], [0.28079870343208313, 0.28036439418792725, 0.1390177607536316]], [[-0.030699793249368668, -0.5108423233032227, 0.3766253888607025], [-0.44490596652030945, -0.18262088298797607, -0.26257482171058655], [-0.38267043232917786, 0.0034192916937172413, 0.7223235964775085]], [[0.21218526363372803, 0.14927156269550323, -0.22139237821102142], [0.619290828704834, 0.5115997195243835, -0.315647155046463], [-0.16575603187084198, 0.6424466371536255, 0.4288996458053589]], [[-0.5212437510490417, 0.16130533814430237, -0.5728947520256042], [0.3974931240081787, 0.41132545471191406, 0.8202252388000488], [-0.43364468216896057, -0.054827142506837845, -0.2865881621837616]], [[0.1357894390821457, 0.12631748616695404, 0.06716039031744003], [0.19379664957523346, 0.5647706985473633, -0.27916085720062256], [0.28122714161872864, 0.614705502986908, -0.00992678850889206]], [[-0.2988600432872772, -0.4799026548862457, -0.8579697012901306], [-0.2536573112010956, 0.14697502553462982, -0.090109683573246], [-1.2097996473312378, 0.4273186922073364, -0.2760597765445709]], [[-0.010542968288064003, 0.29574573040008545, 0.08393783122301102], [0.07459535449743271, -0.1920599788427353, -0.1379685252904892], [0.5328105092048645, 0.2907060980796814, -0.028300175443291664]], [[0.31771039962768555, -0.07774034142494202, 0.08629051595926285], [0.255036860704422, -0.010959419421851635, 0.0035145324654877186], [-0.010864900425076485, 0.39108526706695557, -0.37279212474823]], [[0.18305489420890808, -0.5361019968986511, 0.0002513015060685575], [0.6948849558830261, -0.17241476476192474, -0.12149883806705475], [-0.49346262216567993, 0.5254107117652893, 0.2016650140285492]], [[0.031184837222099304, 0.3096732795238495, 0.1163419634103775], [0.14266367256641388, -0.30874601006507874, -0.0548260360956192], [0.4604923129081726, -0.4842907190322876, -0.00762262474745512]], [[-0.28844937682151794, -0.4419163167476654, -0.4410155415534973], [0.5184326767921448, -0.11944527924060822, -0.04118841513991356], [0.14004918932914734, -0.09591201692819595, -0.05375520512461662]], [[0.016401976346969604, -0.05476061627268791, -0.2124994993209839], [0.23667258024215698, 0.06689535826444626, -0.21370886266231537], [0.15361762046813965, -0.2839738428592682, -0.6847047209739685]], [[-0.30491119623184204, 0.07795161008834839, 0.03441706299781799], [0.1017661988735199, 0.1193787083029747, -0.20393657684326172], [0.21308007836341858, -0.4720703959465027, -0.33134162425994873]], [[-0.21001304686069489, 0.8395094275474548, 0.5044181942939758], [-0.23990359902381897, 0.2360498458147049, 0.01635015569627285], [-0.561026930809021, 0.23099488019943237, -0.05663175508379936]], [[-0.3203739821910858, -0.17794300615787506, 0.16299781203269958], [0.3971145451068878, 0.2520330548286438, 0.1685018539428711], [-0.32334938645362854, 0.1230570375919342, 0.1808961182832718]], [[0.195620596408844, -0.08795700967311859, -0.0983375683426857], [-0.14038881659507751, -0.2871568202972412, 0.32975342869758606], [-0.036955326795578, 0.4324839115142822, -0.49627435207366943]], [[0.12906138598918915, 0.05308148264884949, 0.5086934566497803], [-0.3170912265777588, -0.27733656764030457, -0.24788665771484375], [-0.0352591797709465, 0.2701859176158905, -0.09096162021160126]], [[-0.9368569850921631, -0.2207697480916977, 0.4079601466655731], [0.16543450951576233, -0.49014830589294434, -0.0938127264380455], [0.22634314000606537, -0.052647512406110764, -0.17935332655906677]], [[-0.5341065526008606, -0.2395550161600113, 0.13736549019813538], [0.1413346529006958, -0.0961156114935875, -0.11643082648515701], [0.5709381103515625, 0.46834102272987366, -0.3156112730503082]], [[0.45378050208091736, -0.5439924597740173, 0.022337593138217926], [0.36414578557014465, 0.4491528868675232, -0.3185996115207672], [-0.06921443343162537, -0.03298547491431236, 0.28956255316734314]], [[-0.4498709440231323, -0.5586644411087036, -0.7057419419288635], [-0.04133116453886032, -0.3939869999885559, -0.4927241802215576], [0.31887227296829224, 0.08468146622180939, 0.4513043463230133]], [[-0.1207435205578804, -0.02462065778672695, 0.1135445386171341], [-0.7540586590766907, -0.30756983160972595, -0.5580446720123291], [-0.038933396339416504, -0.043914828449487686, -0.2825334072113037]], [[-0.4839233160018921, 0.382452130317688, 0.3531545102596283], [-0.6305018663406372, 0.5331771969795227, -0.2285202145576477], [-0.5947226881980896, -0.19330595433712006, -0.7640458941459656]], [[0.10866982489824295, -0.2208934724330902, 0.03538687899708748], [0.45181870460510254, -0.33322522044181824, 0.4139229655265808], [-0.19516314566135406, 0.5452792644500732, 0.3140205144882202]], [[-0.018742186948657036, 0.09860701113939285, 0.23360641300678253], [-0.06363080441951752, 0.8273046612739563, -0.48239344358444214], [-0.687310516834259, -0.16220900416374207, 0.26152315735816956]], [[0.004702778998762369, -0.0450720377266407, 0.2835346758365631], [-0.06471733748912811, 0.2953498661518097, -0.2348748743534088], [-0.6403220295906067, -0.1456054300069809, 0.0907028540968895]], [[-0.6514896154403687, 0.06832537800073624, -0.3290056884288788], [-0.16750559210777283, 0.27127042412757874, -0.39353981614112854], [0.01800464279949665, 0.6543259620666504, 0.1260639876127243]], [[0.14550291001796722, -0.852232038974762, -0.2637067437171936], [-0.4173371493816376, -0.4766221046447754, 0.4301132261753082], [-0.4286756217479706, 0.5765612125396729, 0.19102393090724945]], [[-0.9426722526550293, 0.485556036233902, -0.7196796536445618], [-0.396018922328949, -0.07627665996551514, -0.3697914183139801], [-0.31652894616127014, 0.22833062708377838, -0.13657966256141663]], [[0.2200339436531067, -0.016530562192201614, -0.03433522209525108], [0.17539852857589722, -0.13896219432353973, -0.10832501202821732], [0.39541321992874146, 0.4732986092567444, 0.5168823003768921]], [[-0.16996924579143524, -0.8356683254241943, -0.7189648747444153], [0.1198410913348198, 0.16321425139904022, 0.15124423801898956], [-0.909069299697876, -0.6149712800979614, -0.47427821159362793]], [[0.6105837821960449, -0.04424039274454117, 0.29510849714279175], [-0.04185229167342186, -0.018168160691857338, 0.20911158621311188], [-0.3047970235347748, -0.1058252677321434, -0.2670534551143646]], [[-0.3102421164512634, 0.1428375244140625, -0.17828680574893951], [-0.2778163552284241, -0.08208003640174866, -0.30795183777809143], [0.3615145981311798, -0.2952069640159607, 0.5251117944717407]], [[-0.4514453113079071, 0.1357477307319641, -0.3577357530593872], [-0.010008512996137142, -0.24435819685459137, 0.5824668407440186], [0.17270790040493011, -0.07474534958600998, -0.16538166999816895]]], [[[0.007896630093455315, 0.5559484958648682, 0.04943724721670151], [-0.4767161011695862, 0.06162210926413536, -0.08310415595769882], [0.029197875410318375, -0.2589185833930969, -0.5260330438613892]], [[0.3489822447299957, -0.2565686106681824, -0.09609955549240112], [-0.08521997183561325, -0.08817721158266068, -0.6282350420951843], [0.09135769307613373, -0.27993473410606384, -0.4772810637950897]], [[-0.6188190579414368, -0.9232414960861206, 0.3121930956840515], [-0.21221406757831573, -0.015441523864865303, 0.936374843120575], [-0.2307320237159729, 0.08560031652450562, 0.0785318985581398]], [[0.21539250016212463, 0.04481101781129837, 0.185592919588089], [0.8428701758384705, 0.14095233380794525, 0.39164721965789795], [0.28192761540412903, 0.5198037028312683, -0.11106136441230774]], [[0.3202579915523529, -1.0690809488296509, 0.010886249132454395], [-0.7113837599754333, 0.4282352328300476, 0.2817492187023163], [-0.2342824786901474, 0.07726934552192688, 0.3167352080345154]], [[0.0819920003414154, -0.7446995377540588, 0.2830352187156677], [-0.15469422936439514, -0.13104404509067535, 0.29391252994537354], [0.14814120531082153, 0.5314340591430664, -0.4365393817424774]], [[0.47842371463775635, -0.2802828848361969, 0.1536376178264618], [-0.14451086521148682, -0.20705777406692505, 0.1291377693414688], [-0.21504344046115875, -0.9581341743469238, 0.19458724558353424]], [[0.10990459471940994, 0.07648895680904388, 0.24832217395305634], [0.17076514661312103, 0.04590745270252228, -0.06452193111181259], [-0.12310875952243805, -0.328843355178833, 0.49459874629974365]], [[-0.36830928921699524, -0.2955538034439087, -0.801081657409668], [0.009411598555743694, 0.4979049563407898, 0.5700156688690186], [-0.8029338717460632, -0.5743669867515564, 0.2706582844257355]], [[-0.10364948958158493, 0.10661962628364563, 0.18007849156856537], [0.25773748755455017, 0.3470514416694641, 0.1650870144367218], [-0.5373149514198303, -0.5625526309013367, -0.1928597241640091]], [[-0.4876869320869446, -0.3355155885219574, 0.48817211389541626], [-0.18082420527935028, -0.3627028167247772, 0.10391515493392944], [0.44965627789497375, -0.6521825194358826, 0.16730402410030365]], [[0.23829348385334015, -0.08866079151630402, 0.05522466450929642], [-0.11099335551261902, -0.43999210000038147, -0.39589208364486694], [-0.061883844435214996, 0.018021313473582268, 0.015889618545770645]], [[0.38246026635169983, -0.1100507453083992, 0.3898439109325409], [0.5000637173652649, 0.6273571252822876, -0.10028586536645889], [-0.10347867012023926, -0.07997680455446243, 0.23902015388011932]], [[0.040518779307603836, -0.4876355528831482, -0.22754810750484467], [0.15282215178012848, 0.3129272758960724, -0.11467117071151733], [-0.2057541459798813, -0.5550414323806763, 0.0017816575709730387]], [[-0.014042984694242477, -0.07739422470331192, -0.30066731572151184], [-0.45870739221572876, 0.3192274570465088, 0.053066037595272064], [-0.07219050824642181, 0.4396761953830719, 0.19003626704216003]], [[0.7338549494743347, 0.34968334436416626, 0.3261314630508423], [-0.05736005678772926, -0.08451063930988312, -0.609495997428894], [0.1273754984140396, 0.2656787037849426, 0.21380114555358887]], [[0.31076908111572266, 0.37415459752082825, 0.4373568594455719], [-0.48010528087615967, 0.21784789860248566, 0.421600878238678], [-0.13501599431037903, -0.25954684615135193, 0.15014038980007172]], [[0.5054441094398499, 0.5768909454345703, 0.26037463545799255], [-0.0470154732465744, -0.09726475924253464, -0.08445516228675842], [-0.3280964195728302, 0.24182608723640442, -0.23202496767044067]], [[-0.3770632743835449, 0.3527531027793884, -1.049941897392273], [0.03380785137414932, -0.13018223643302917, -0.2727747857570648], [0.3744443953037262, -0.6486261487007141, -1.184399962425232]], [[0.2661181390285492, -0.26071566343307495, 0.6644458174705505], [0.8265135884284973, 0.06664186716079712, -0.2752572000026703], [-0.23451390862464905, 0.13210630416870117, 0.2293315976858139]], [[-0.11369986087083817, 0.1733854115009308, -0.12012156844139099], [-0.02747436985373497, 0.24703152477741241, 0.14760738611221313], [0.08794543892145157, 0.04548300802707672, 0.49824896454811096]], [[-0.0015312694013118744, 0.12281472980976105, -0.3735288679599762], [0.48311540484428406, 0.7524161338806152, 0.27538856863975525], [-0.26731395721435547, 0.25824692845344543, -0.18887092173099518]], [[0.06170113757252693, 0.17926567792892456, -0.52713942527771], [-0.523010790348053, 0.4510400593280792, 0.01772318407893181], [0.10679928958415985, -0.15071025490760803, -0.034330904483795166]], [[-0.023880591616034508, -0.13103321194648743, 0.2066071629524231], [0.6613882780075073, 0.585756242275238, -0.11488015949726105], [0.28299224376678467, -0.0021043922752141953, -0.4092153012752533]], [[-0.6125922799110413, -0.09883023798465729, 0.07708077132701874], [0.24203190207481384, 0.3487986922264099, 0.41124844551086426], [0.010019333101809025, -0.36096709966659546, 0.059218499809503555]], [[-0.5002177953720093, 0.42706167697906494, 0.31902235746383667], [0.0765562579035759, 0.20245754718780518, 0.19051727652549744], [0.24877983331680298, -0.2464754730463028, -0.25459909439086914]], [[-0.3132753372192383, -0.33107617497444153, -0.5963704586029053], [-0.391537606716156, -0.25458553433418274, -0.09029079228639603], [-0.046413604170084, -0.40861812233924866, -0.2508379817008972]], [[-0.29571110010147095, 0.20186389982700348, 0.18965017795562744], [0.5986171364784241, -0.22993022203445435, 0.0795091837644577], [0.49745476245880127, 0.3795528709888458, 0.4668577313423157]], [[-0.21003061532974243, -0.02632972225546837, 0.03593358397483826], [-0.49727582931518555, -0.04349232465028763, 0.43655848503112793], [0.9459775686264038, 0.10380670428276062, -1.0188014507293701]], [[-0.3645438551902771, -0.06873390823602676, -0.13568246364593506], [0.2525644600391388, -0.41045328974723816, 0.33666911721229553], [-0.2759600877761841, 0.158333420753479, -0.28001776337623596]], [[0.09217418730258942, -0.113153375685215, -0.10449676215648651], [0.667982816696167, 0.6033565402030945, -0.49911361932754517], [0.013727505691349506, 0.7100996375083923, -0.25004446506500244]], [[-0.36650505661964417, 0.5581598281860352, -0.07505541294813156], [0.2650696039199829, 0.28191113471984863, -0.8623432517051697], [-0.43615272641181946, -0.037073396146297455, 0.6701726913452148]], [[0.9910800457000732, -0.7886276245117188, 0.021840063855051994], [-0.5268883109092712, 0.15860892832279205, 0.27641722559928894], [0.15771044790744781, -0.16991108655929565, 0.7744860053062439]], [[-0.08139048516750336, 0.1161142885684967, -0.531321108341217], [0.7086807489395142, 0.37133318185806274, -0.6240624189376831], [-0.3707998991012573, -0.13872912526130676, 0.5983129739761353]], [[0.8989797830581665, -0.500892698764801, 0.7081838846206665], [-0.15902791917324066, 0.2059960663318634, -0.015452234074473381], [-0.18517817556858063, 0.08622681349515915, 0.28589707612991333]], [[-0.2942151725292206, -0.6932604312896729, 0.44139552116394043], [-0.3752869665622711, 0.23834040760993958, 0.05406024307012558], [0.031069274991750717, -1.0403567552566528, -0.08076377958059311]], [[0.03799571096897125, -0.10677690804004669, -0.10211829841136932], [-0.04102021083235741, -0.18720337748527527, -0.09472598880529404], [0.7289071679115295, -0.22110386192798615, -0.292936772108078]], [[-0.11090108752250671, 0.28559672832489014, 0.009740712121129036], [0.02506137825548649, 0.3085673749446869, -0.08977939933538437], [0.09455586969852448, 0.15947473049163818, -0.2841886281967163]], [[-0.44338127970695496, -0.07842713594436646, 0.30153733491897583], [0.2029879093170166, -0.08954843133687973, 0.10370858758687973], [0.29327401518821716, -0.6667125821113586, -0.43821579217910767]], [[-0.35474082827568054, 0.4496402144432068, 0.21092155575752258], [0.24305403232574463, 0.0521673783659935, -0.024986792355775833], [0.3865467607975006, 0.008614265359938145, -0.8412463665008545]], [[-0.3948681652545929, -0.27872347831726074, 0.015168747864663601], [-0.05278625711798668, -0.14753815531730652, -0.517684817314148], [0.0318208783864975, -0.015658263117074966, 0.45210543274879456]], [[-0.3650652766227722, 0.23465022444725037, -0.21041035652160645], [0.24447233974933624, 0.27049902081489563, 0.727822482585907], [0.09367433935403824, -0.4754173159599304, 0.3790286183357239]], [[-0.5883780717849731, 0.1677107810974121, 0.005176073871552944], [-0.00683800270780921, 0.4654734432697296, 0.23162269592285156], [-0.3208833336830139, 0.2907326817512512, -0.7943398356437683]], [[-0.037382371723651886, 0.05860016122460365, 0.10492149740457535], [0.07393910735845566, 0.1796143800020218, -0.45252975821495056], [-0.32393184304237366, -0.06827666610479355, 0.48885378241539]], [[-0.4035898447036743, 0.04157886654138565, 1.068182349205017], [0.7765358090400696, -0.03799571841955185, -0.4917522072792053], [0.1341848224401474, 0.17053182423114777, 0.560335636138916]], [[0.09306412190198898, 0.558376133441925, 0.44883501529693604], [-0.41337043046951294, 0.4863151013851166, 0.22962339222431183], [0.5831770300865173, 0.6829527020454407, 0.01492943987250328]], [[-0.6910663843154907, 1.0224876403808594, -1.036866307258606], [-0.28986477851867676, 0.32201701402664185, -0.2612930238246918], [-0.165693461894989, 0.047644954174757004, 0.504499077796936]], [[-0.17675597965717316, 0.01109861209988594, 0.042702604085206985], [-0.07974375039339066, -0.17950156331062317, 0.31784772872924805], [-0.08774086087942123, 0.05480660870671272, -0.03598998486995697]], [[-0.10006751120090485, 0.2081344872713089, -0.20735836029052734], [0.03620242699980736, -0.06336503475904465, 0.07462422549724579], [0.3616158366203308, 0.25212109088897705, 0.37101468443870544]], [[0.09806245565414429, -0.13563355803489685, -0.2679571211338043], [-0.14718975126743317, 0.14051510393619537, -0.35651880502700806], [0.16099515557289124, -0.17466628551483154, 0.2120290845632553]], [[-0.3133547306060791, 0.010308771394193172, 0.4350619614124298], [0.4601283371448517, 0.10765180736780167, 0.4810984432697296], [-0.6242853999137878, 0.16296686232089996, -0.26925456523895264]], [[-0.26888734102249146, 0.3888457119464874, -0.14306190609931946], [-0.4256170392036438, 0.10745518654584885, 0.29382261633872986], [0.1587357372045517, -0.7139493227005005, -0.49072274565696716]], [[-0.13269318640232086, -0.09035583585500717, -0.5484731197357178], [-0.4643854796886444, -0.4895589351654053, -0.1507539302110672], [-0.0037554593291133642, 0.012038933113217354, -0.2920105457305908]], [[0.2662029564380646, 0.2954326570034027, -0.33247852325439453], [-0.07779622077941895, -0.06029112637042999, 0.57138592004776], [-0.21480627357959747, 0.09456772357225418, -0.05461852625012398]], [[0.14339317381381989, -0.634312629699707, 0.3723773658275604], [0.34802839159965515, 0.10357820242643356, 0.21037301421165466], [0.19251012802124023, -0.07136502861976624, 0.960007905960083]], [[0.5296093821525574, 0.34000441431999207, -0.29027995467185974], [0.40723803639411926, 0.6639812588691711, -0.3943619132041931], [0.056879665702581406, -0.27323487401008606, 0.23740951716899872]], [[0.035467229783535004, 0.40063905715942383, -0.24176858365535736], [0.15927276015281677, 0.1635468602180481, 0.178643137216568], [0.3077358901500702, 0.4955613315105438, -0.2775670886039734]], [[-0.2465488314628601, 0.2777870297431946, -0.5241525769233704], [-0.04507354646921158, 0.023174356669187546, -0.06446747481822968], [-0.1447497010231018, -0.12140818685293198, 0.5013041496276855]], [[0.7899494767189026, -0.15264961123466492, 0.04015552997589111], [0.5451939105987549, -0.35458695888519287, -0.493434876203537], [-0.4965813159942627, 0.08719386160373688, -0.24409528076648712]], [[-0.2890181541442871, -0.08234783262014389, -0.08956585079431534], [0.056249942630529404, -0.08191289007663727, 0.10417871177196503], [-0.17113494873046875, 0.8432902693748474, -0.7804380655288696]], [[-0.4521593749523163, 0.2172321230173111, 0.42634445428848267], [0.08380928635597229, -0.3381263315677643, -0.13586130738258362], [0.018561650067567825, 0.09729914367198944, 0.05294647440314293]], [[-0.4018746018409729, -0.07472000271081924, -0.30705511569976807], [0.3405818045139313, -0.6572523713111877, -0.8030732870101929], [0.5921651721000671, 0.27565884590148926, 0.6105309128761292]], [[0.5616143345832825, 0.6431670188903809, 0.2992648780345917], [-0.035202812403440475, -0.38837623596191406, -0.2346295863389969], [0.14135149121284485, 0.9676722288131714, -0.12352112680673599]], [[-0.8405852913856506, 0.09860653430223465, -0.24862778186798096], [0.08646833896636963, 0.08846712857484818, -0.12549591064453125], [0.3594975471496582, -0.04957551881670952, -0.3266792595386505]]], [[[-0.1418454796075821, -0.49896737933158875, -0.6716700196266174], [-0.02373678609728813, 0.5585367679595947, -0.25093910098075867], [-0.19011688232421875, 0.07675042003393173, 0.36249253153800964]], [[0.08361931145191193, 0.047503162175416946, -0.10945449024438858], [-0.01681627333164215, -0.061923861503601074, -0.09330980479717255], [0.05186127871274948, -0.42582258582115173, 0.6690697073936462]], [[-0.26102665066719055, 0.49936914443969727, 0.1750178337097168], [0.47063323855400085, -0.05468202382326126, 0.2971685528755188], [0.05816131830215454, -0.4284190833568573, 0.4890863597393036]], [[-0.30987292528152466, 0.05644925683736801, 0.28659358620643616], [-0.2844401001930237, 0.3616698086261749, -0.3015270531177521], [0.29406294226646423, -0.487236887216568, 0.3864111006259918]], [[-0.289926141500473, 0.048349346965551376, 0.009536469355225563], [-0.12983329594135284, 0.009796702302992344, 0.33181247115135193], [0.007777396123856306, -0.19254110753536224, 0.396388977766037]], [[-0.04740763083100319, 0.040942154824733734, 0.3847482204437256], [0.009220694191753864, -0.6788573861122131, 0.6745944023132324], [0.7470608949661255, 0.37808099389076233, -0.6293461322784424]], [[0.14119158685207367, -0.10337495058774948, -0.45348095893859863], [-0.07961035519838333, -0.2816685438156128, 0.059700679033994675], [0.21366633474826813, 0.23591312766075134, -0.4661688804626465]], [[-0.008674265816807747, -0.3034532070159912, 0.27576056122779846], [-0.02793365716934204, -0.3980777859687805, 0.22039207816123962], [-0.7460437417030334, -0.28262990713119507, 0.24885761737823486]], [[0.8327566385269165, -0.06058310344815254, 0.27991369366645813], [-0.3393818736076355, -0.10312767326831818, -0.06889493018388748], [0.17508837580680847, -0.4242316782474518, -1.275935411453247]], [[0.7945826649665833, -0.411408007144928, -0.1688409447669983], [0.9552673101425171, -0.4855232238769531, -0.24547551572322845], [0.7118706107139587, -0.09114793688058853, 0.26140251755714417]], [[0.0009069056250154972, 0.17669351398944855, -0.17610490322113037], [0.5933169722557068, -0.13649684190750122, -0.7411160469055176], [0.06334110349416733, -0.070306695997715, 0.25194767117500305]], [[-0.34425637125968933, -0.2285604327917099, 0.17979589104652405], [0.4750441908836365, 0.4037991464138031, -0.005248088389635086], [0.16848357021808624, -0.02807868830859661, -0.4365319013595581]], [[0.14470174908638, -0.05498712509870529, 0.1474120020866394], [0.46608200669288635, 0.2913285493850708, 0.06795687228441238], [0.32026776671409607, -0.3388720750808716, 0.32650455832481384]], [[0.21965236961841583, -0.149046391248703, 0.10708519071340561], [0.519271969795227, 0.5551937222480774, 0.5632290244102478], [0.3535900413990021, -0.8168401122093201, -1.0708534717559814]], [[-0.09229542315006256, 0.3203373849391937, -0.229243203997612], [0.12080322206020355, -0.13892331719398499, 1.0673003196716309], [0.46205607056617737, 0.24545647203922272, 0.6827272176742554]], [[0.006821307819336653, -0.025936145335435867, 0.18932929635047913], [-0.13134662806987762, -0.3345614969730377, 0.43187567591667175], [-0.41032877564430237, -0.0585116483271122, 0.1455223560333252]], [[0.01515757106244564, -0.5321529507637024, 0.3649757504463196], [-0.35675153136253357, -0.2304902970790863, 0.30110371112823486], [0.16661043465137482, 0.13074439764022827, 0.5831167697906494]], [[-0.2518691122531891, 0.12565213441848755, -0.5355895757675171], [0.1775495558977127, -0.10801780223846436, -0.38473382592201233], [0.05398467928171158, 0.3901790380477905, 0.09011510759592056]], [[-0.3446712791919708, -0.5955776572227478, -0.2891739308834076], [0.010350811295211315, -0.007868926040828228, 0.21334347128868103], [-0.0225419532507658, 0.05509427562355995, -0.4516028165817261]], [[0.3550236225128174, -0.42056792974472046, 0.7968274354934692], [0.4404681324958801, -0.13738857209682465, 0.22914975881576538], [0.9670349359512329, 0.1251813769340515, -0.7506413459777832]], [[0.04648006707429886, 0.056932736188173294, -0.13563457131385803], [-0.5798942446708679, 0.15253931283950806, -0.5957360863685608], [0.5377606749534607, 0.3059174418449402, 0.4396047592163086]], [[-0.09522057324647903, 0.686804473400116, 0.012428139336407185], [-0.24352361261844635, 0.0425085574388504, -0.17573478817939758], [0.045600906014442444, -0.08894509822130203, 0.32311275601387024]], [[-0.08012982457876205, 0.7849137187004089, 0.38047996163368225], [0.25643858313560486, -0.046200454235076904, -0.49078842997550964], [0.25635167956352234, -0.38077303767204285, -0.020391641184687614]], [[-0.22621864080429077, 0.18066196143627167, -0.21992824971675873], [-0.32299870252609253, -0.7563604712486267, -1.3285348415374756], [0.00439474219456315, -0.07402069121599197, 0.3893117904663086]], [[0.5863295793533325, -0.5621417760848999, -0.5255009531974792], [0.15766265988349915, 0.005116065498441458, -0.004765410907566547], [0.2547082304954529, -0.13308340311050415, -0.3325475752353668]], [[0.1663280576467514, -0.14845755696296692, -0.01784329116344452], [0.20844857394695282, -0.0285764392465353, -0.0849231407046318], [-0.6741248965263367, -0.6470168828964233, 0.245634526014328]], [[0.212312251329422, 0.0726599395275116, -0.24933531880378723], [0.626445472240448, 0.16411739587783813, -0.3476085960865021], [0.7592280507087708, -0.6287342309951782, 0.2224975824356079]], [[-0.32281455397605896, 0.07339614629745483, 0.3378537595272064], [-0.16987179219722748, 0.5365901589393616, -0.3562067449092865], [0.2054293304681778, 0.2855287492275238, -0.24793285131454468]], [[0.12281490862369537, 0.28300586342811584, 0.19058991968631744], [0.3314613401889801, 0.26343443989753723, 0.24693995714187622], [0.20554177463054657, 0.23641425371170044, 0.31737253069877625]], [[0.5745004415512085, 0.05309324711561203, 0.22486640512943268], [0.426178902387619, -0.015236452221870422, 0.03243584930896759], [-0.06431587040424347, 0.2582071125507355, 0.35162538290023804]], [[0.7275292277336121, -0.04732417315244675, 0.018649494275450706], [0.13845808804035187, -0.15098212659358978, 0.4430323541164398], [0.2855832576751709, -0.13384376466274261, 0.5459966659545898]], [[0.07918921113014221, -0.6583960652351379, 0.36306098103523254], [0.06597716361284256, -0.08012565225362778, 0.31966277956962585], [-0.4290257394313812, -0.48710891604423523, 0.5394375920295715]], [[-0.34081998467445374, 0.2030756026506424, -0.25263869762420654], [-0.8548880219459534, -0.11835640668869019, 0.17776933312416077], [0.011552047915756702, 0.301045686006546, -0.4335987865924835]], [[0.07525115460157394, -0.24007312953472137, 0.567512571811676], [0.1614404320716858, 0.26693981885910034, -0.15678150951862335], [0.08839888125658035, -0.12464478611946106, 0.054393913596868515]], [[-0.5306136012077332, -0.19555385410785675, -0.09066019207239151], [0.08203224837779999, 0.18589527904987335, -0.3664395809173584], [0.14795462787151337, -0.40221890807151794, 0.4365786015987396]], [[-1.4128409624099731, 0.08018291741609573, 0.4134875237941742], [0.14478828012943268, -0.1334969848394394, -0.8485599160194397], [0.1444804072380066, -0.04263864457607269, 0.2665596604347229]], [[0.3311069905757904, 0.11604652553796768, 0.07718663662672043], [-0.33536189794540405, 0.15291711688041687, -0.030326442793011665], [0.16473433375358582, -0.6911327242851257, -0.3711055815219879]], [[-0.1396164447069168, 0.13941502571105957, -0.00900218915194273], 