{"conv1.weight": [[[[0.0024191178381443024, -0.19278369843959808, -0.9506150484085083], [0.23625428974628448, 0.6971150040626526, -0.8571951389312744], [0.4899040758609772, 0.21133723855018616, -0.6449034214019775]], [[0.6133366227149963, -1.7925015687942505, -0.2434834986925125], [0.26246318221092224, 0.2130771279335022, -0.7622237205505371], [-1.3233309984207153, 0.43968096375465393, 0.4031127691268921]], [[-0.24408315122127533, 0.37660452723503113, 0.2187432050704956], [-0.05565831437706947, 0.216696634888649, -0.04410736262798309], [-0.2545439600944519, -0.471671998500824, -0.3836566209793091]]], [[[0.5098956227302551, 0.578950047492981, 0.852874219417572], [0.48252561688423157, 0.4357094466686249, 0.64533931016922], [0.7492765784263611, 0.39026013016700745, -0.7899389266967773]], [[-0.8351077437400818, 0.20250405371189117, -0.9612278342247009], [-0.9398102760314941, 0.10012086480855942, -0.18914057314395905], [0.039319030940532684, -0.36237162351608276, 0.18072843551635742]], [[0.07768545299768448, 0.6120970845222473, -0.23686014115810394], [0.013365545310080051, 0.3617577850818634, 0.039823055267333984], [0.09810586273670197, 0.26488369703292847, 0.3548170030117035]]], [[[-0.7387073040008545, 0.5038451552391052, -0.9032268524169922], [0.042795274406671524, -0.020588602870702744, 0.1750432252883911], [-0.3854849338531494, -0.9544011354446411, 0.5914002060890198]], [[0.6420400738716125, -0.5546126961708069, 0.18477016687393188], [-0.07929740101099014, 0.3659316301345825, -0.016918251290917397], [0.7062880396842957, -0.6267148852348328, -1.3977513313293457]], [[-0.2969805896282196, -0.35945892333984375, -0.7542153000831604], [0.13657787442207336, -0.10097507387399673, -0.23193451762199402], [0.6163556575775146, 0.40070420503616333, -0.26318687200546265]]], [[[-0.8596209287643433, 0.7145878076553345, -0.19320979714393616], [-0.26102718710899353, -1.008380651473999, 0.6349232196807861], [0.18283790349960327, -0.9987186789512634, -0.6191791892051697]], [[-0.5842481851577759, 0.1499868482351303, 0.12262024730443954], [-1.248107671737671, -0.22505298256874084, 0.5498747229576111], [-0.560887336730957, 0.2735430598258972, 0.23210641741752625]], [[-0.12982194125652313, -0.4514005780220032, -0.7574688792228699], [0.10032039135694504, 0.07356947660446167, 0.040875647217035294], [0.45518821477890015, 0.5366461277008057, -0.02129633165895939]]], [[[0.5015951991081238, -0.8058229684829712, 0.9366855621337891], [-0.4047853648662567, 0.6696702241897583, -0.18146613240242004], [0.7096453309059143, -0.4619412422180176, 0.9506379961967468]], [[-0.1828790307044983, -0.1174718365073204, -0.11105846613645554], [0.3433559834957123, -1.1604418754577637, -0.36490538716316223], [-0.6129074096679688, 0.16213230788707733, -0.531533420085907]], [[0.5709012150764465, 0.1451740562915802, 0.03277585655450821], [0.26169154047966003, -0.11440742015838623, -0.055963125079870224], [0.14086005091667175, 0.07596514374017715, 0.10445462167263031]]], [[[-0.46250590682029724, -0.7134629487991333, -0.6664648056030273], [-0.8100478649139404, -0.4135341942310333, 0.46184849739074707], [0.397860586643219, -0.2319895476102829, -0.5888887047767639]], [[0.400900274515152, 0.4143444895744324, -1.3376694917678833], [-0.3366239666938782, 0.654375433921814, -1.2738882303237915], [0.18517547845840454, 0.14141328632831573, 0.234809011220932]], [[-0.37512126564979553, 0.1709098070859909, 0.3487071990966797], [-0.4263240694999695, 0.17037369310855865, 0.2994259297847748], [-0.599312424659729, -0.08048335462808609, -0.4513978660106659]]], [[[0.6417598724365234, 0.06326606124639511, 0.7158739566802979], [-1.0079717636108398, 0.45096734166145325, 0.225790336728096], [0.15874376893043518, 0.6802396774291992, -1.3475748300552368]], [[0.18788929283618927, -0.4079165458679199, 0.49883756041526794], [0.39658331871032715, 0.29942843317985535, -0.10741353780031204], [-0.7541178464889526, -0.7196272015571594, 0.3862161338329315]], [[0.4237439036369324, 0.09191267192363739, 0.11946413666009903], [0.2543894052505493, -0.11659567058086395, -0.3219735622406006], [0.5704017281532288, 0.33903178572654724, 0.08772046118974686]]], [[[-0.8683605790138245, 0.14436347782611847, -0.8575524687767029], [0.32162705063819885, -0.5660842061042786, -1.712377667427063], [-0.4814121127128601, -0.34538567066192627, -0.44623470306396484]], [[0.11622188985347748, -0.6725742220878601, 0.7349863052368164], [-0.8756796717643738, -0.2541233003139496, 0.10810831934213638], [-0.2718341648578644, -0.08379711955785751, 1.2903838157653809]], [[-0.22690165042877197, 0.22988395392894745, 0.3956708610057831], [0.09377504140138626, -0.18802955746650696, -0.04570402950048447], [0.08624905347824097, -0.20656274259090424, -0.15957197546958923]]], [[[-1.1351720094680786, 0.08071719110012054, -0.7775273323059082], [0.8810836672782898, 0.5548179745674133, -0.31411707401275635], [0.7345508933067322, 0.1271844357252121, 0.6321746110916138]], [[-0.22464711964130402, -0.7160077691078186, 0.06608224660158157], [0.7189695239067078, 0.26145139336586, -0.48822352290153503], [0.03828456625342369, -0.017471155151724815, -0.9052873253822327]], [[-0.06055451184511185, -0.11667972803115845, 0.2392977923154831], [0.11584780365228653, 0.2754935622215271, 0.5253468751907349], [-0.57541424036026, -0.2865932881832123, 0.33577534556388855]]], [[[-1.4200282096862793, 0.3010362684726715, 0.7647837400436401], [0.11831212043762207, -0.6415987014770508, 0.1947103887796402], [0.7565682530403137, -1.0477153062820435, 0.40032315254211426]], [[0.6304242014884949, 0.4207620918750763, -0.6347060799598694], [-0.20839104056358337, -0.007792812306433916, 0.15215376019477844], [-0.9795588254928589, -0.05685075372457504, 0.8271480798721313]], [[0.4698870778083801, 0.05951811373233795, -0.2503550946712494], [0.5006514191627502, 0.22696751356124878, -0.00906948372721672], [0.009285777807235718, -0.3064817488193512, -0.03473660722374916]]], [[[-0.5605639815330505, -0.13229836523532867, 0.05623992532491684], [-0.6369333863258362, -0.7133790850639343, -0.26301929354667664], [0.5000880360603333, 0.08438568562269211, -0.6723164916038513]], [[0.9351235032081604, -0.26092782616615295, 0.5877431035041809], [0.019464382901787758, 0.6821727156639099, -0.27323299646377563], [-1.1665526628494263, -0.48789259791374207, -1.6938140392303467]], [[0.33839961886405945, 0.15399684011936188, -0.10943837463855743], [0.03050197847187519, -0.030805233865976334, -0.248539000749588], [-0.4481528699398041, -0.5462794303894043, 0.4214542508125305]]], [[[-0.4840467572212219, 0.35131335258483887, 0.6048639416694641], [-0.6396092772483826, 0.640188455581665, 0.30514222383499146], [-0.20775024592876434, 0.401811808347702, 0.6321893334388733]], [[-0.4285537600517273, -1.054066777229309, -1.1393381357192993], [-0.06952305883169174, -1.1208062171936035, 0.1009192243218422], [0.4801773130893707, -1.3803339004516602, 0.5756192207336426]], [[0.31546342372894287, -0.016667434945702553, 0.21838858723640442], [0.06190354749560356, -0.3046756684780121, -0.08024144917726517], [-0.05924350768327713, -0.16824597120285034, -0.0116089703515172]]], [[[-0.2455124706029892, -0.34831422567367554, 0.35138431191444397], [0.6980164647102356, 0.838798999786377, -0.590857744216919], [-1.0572144985198975, -1.738694667816162, 0.18204928934574127]], [[0.48174765706062317, -0.44543665647506714, -0.6099512577056885], [-0.39538225531578064, 0.056481167674064636, -0.2578617036342621], [-0.6309535503387451, 0.293516606092453, -0.5448639392852783]], [[-0.2925473749637604, -0.09793250262737274, 0.15960924327373505], [0.22005590796470642, 0.18137964606285095, -0.11920622736215591], [0.3398224413394928, 0.3286297619342804, 0.4822026193141937]]], [[[0.0029421288054436445, -0.5053335428237915, 0.3137359917163849], [-0.5091089606285095, -0.8382879495620728, 0.18646253645420074], [0.37563925981521606, -0.7997856736183167, 0.6764797568321228]], [[-0.09889230877161026, 0.5865858793258667, -0.41435956954956055], [0.336090624332428, 0.2947988212108612, 0.21365046501159668], [-0.3433939814567566, 0.645194411277771, -0.4094248414039612]], [[-0.5398098826408386, 0.33129262924194336, -0.10842935740947723], [-0.08384353667497635, 0.6149301528930664, -0.3361060619354248], [-0.23114585876464844, 0.11372462660074234, -0.9494197368621826]]], [[[0.3856728672981262, -0.6081719398498535, -0.22414042055606842], [-0.2205241173505783, -0.2945607602596283, 0.26372435688972473], [-0.07539316266775131, 0.13672925531864166, -0.49593979120254517]], [[-0.9997134804725647, -0.1242779791355133, 0.6000767946243286], [0.3387852907180786, 0.7330459356307983, 0.3839230239391327], [-1.4101816415786743, 0.38536056876182556, -0.1857035607099533]], [[-0.31605586409568787, -0.2561980187892914, -0.1402372270822525], [0.41830283403396606, 0.665666937828064, -0.4213857650756836], [-0.26435762643814087, 0.12862657010555267, -0.9699390530586243]]], [[[-2.013613224029541, -0.6032515168190002, 0.2992556095123291], [0.3941909372806549, 0.25955724716186523, -0.2474185973405838], [-0.428798109292984, -0.08160704374313354, 1.0062170028686523]], [[-1.0297112464904785, -0.21595938503742218, -0.18499352037906647], [-0.572563886642456, -0.7873878479003906, 0.06711582094430923], [-0.5555030703544617, 0.0069706980139017105, -0.9186286926269531]], [[0.24655136466026306, -0.3216223418712616, 0.5473027229309082], [-0.265779048204422, -0.16382884979248047, 0.07376842200756073], [0.10621636360883713, -0.05959654226899147, 0.37397152185440063]]], [[[-0.4594903886318207, 0.5804702639579773, 0.47508910298347473], [-0.23320169746875763, 0.294179230928421, -0.01657412014901638], [-0.5251601934432983, 0.3548470735549927, -0.2320905476808548]], [[-0.023939024657011032, -1.2148925065994263, 0.3799075782299042], [-1.3078880310058594, 0.4689997136592865, -0.5336304306983948], [-0.854617714881897, -0.34835633635520935, -0.3008153736591339]], [[-0.22180838882923126, -0.498958557844162, -0.46564286947250366], [-0.04638722166419029, 0.22901391983032227, 0.655375063419342], [-0.16267094016075134, -0.5907659530639648, -0.4010505974292755]]], [[[0.048336878418922424, 0.650123655796051, -0.9003711342811584], [0.017233673483133316, -0.24356482923030853, -0.8761367201805115], [0.1937447339296341, 0.5805034637451172, 0.6565144062042236]], [[-0.6094030141830444, -0.5966054797172546, 0.6576133370399475], [0.4151131212711334, -0.2139909267425537, 0.3176937997341156], [0.1651918739080429, 0.5378612875938416, -0.8063632845878601]], [[-0.5975863337516785, -0.2689235210418701, -0.2492370903491974], [-0.034666795283555984, 0.2532615661621094, 0.681221604347229], [-0.6044718623161316, -0.27358269691467285, 0.18730488419532776]]], [[[0.18074224889278412, 0.3767475187778473, -0.042675651609897614], [0.06445542722940445, -0.38622552156448364, -0.21419253945350647], [0.41525956988334656, 0.11607101559638977, -0.10548028349876404]], [[0.739537239074707, 0.7145767211914062, 0.7673377394676208], [0.2683165669441223, 0.3708256185054779, -0.41862455010414124], [0.5737119317054749, 0.12545327842235565, 0.05225101113319397]], [[-0.8437763452529907, 0.08952140808105469, -0.7615566849708557], [-0.1918254792690277, 0.6655128598213196, -0.2814357280731201], [0.05925452336668968, 0.799897313117981, 0.08486448973417282]]], [[[-0.3989000618457794, 0.04069757089018822, 0.4070848524570465], [0.6165407299995422, 0.508066713809967, -0.06661759316921234], [-0.5323485732078552, -0.5535404086112976, -0.5279793739318848]], [[-0.8152411580085754, -0.13138268887996674, 0.483064740896225], [0.9849939346313477, 0.0841052234172821, -0.8885940909385681], [-1.7465497255325317, 0.5538479685783386, 0.4848213791847229]], [[-0.45258641242980957, -0.30525314807891846, -0.04690119996666908], [-0.2264978289604187, 0.2652353048324585, 0.17787057161331177], [-0.11963404715061188, -0.21437326073646545, 0.36892709136009216]]], [[[0.3299766182899475, 0.2569907605648041, 0.5405823588371277], [0.5740107297897339, -0.4870670735836029, 0.49689385294914246], [-0.5585158467292786, -0.04375167936086655, 0.2512493133544922]], [[0.29258325695991516, -0.10092056542634964, -0.9523434042930603], [0.44939830899238586, 0.022930743172764778, -0.32299473881721497], [0.28214746713638306, 0.2942262291908264, -1.7323166131973267]], [[-0.20607662200927734, -0.1566091775894165, 0.15551766753196716], [0.5317268371582031, 0.5922568440437317, -0.16500736773014069], [-0.9559250473976135, -0.41775766015052795, -0.8609438538551331]]], [[[0.522665798664093, -0.5775432586669922, 0.48578712344169617], [-1.3177217245101929, 0.45821142196655273, -0.022377202287316322], [-1.9016997814178467, 0.31272757053375244, 0.4641968011856079]], [[-0.7489787340164185, 0.5421637892723083, -0.11800229549407959], [-0.36205944418907166, -0.6907909512519836, 0.5201690793037415], [0.1916811466217041, -0.7222046852111816, 0.05012529715895653]], [[0.47271862626075745, -0.0028939656913280487, 0.4754934012889862], [0.06685804575681686, -0.3639208972454071, 0.24820546805858612], [0.37769633531570435, -0.10125544667243958, -0.10074210911989212]]], [[[-0.9617533683776855, -0.881091833114624, -1.1821544170379639], [-0.3538484573364258, 0.4897633194923401, -0.30419424176216125], [-0.3724265992641449, -0.3468933403491974, -0.8157570958137512]], [[-1.5468074083328247, 0.17816726863384247, 0.6400821208953857], [0.3591679632663727, -0.6356339454650879, 0.2459748536348343], [0.45974043011665344, -0.7108939290046692, 0.29436585307121277]], [[-0.1682751178741455, -0.316655695438385, -0.1936107724905014], [0.4068235456943512, -0.3833077847957611, -0.2807329595088959], [0.6684715747833252, -0.07415503263473511, -0.04646511375904083]]], [[[-0.8070752620697021, -0.27226096391677856, 0.26414087414741516], [-1.1867890357971191, 0.12036306411027908, -1.2798315286636353], [0.037536926567554474, -0.3763706684112549, -0.19212746620178223]], [[-0.542074978351593, -0.40294018387794495, 0.09224662184715271], [0.8850458264350891, -1.3532605171203613, -0.35227230191230774], [0.39727044105529785, 0.7647606134414673, -0.13195331394672394]], [[-0.04013272747397423, -0.09412045776844025, 0.6929143667221069], [0.009550655260682106, -0.24308395385742188, 0.4234331548213959], [-0.06012070178985596, -0.413618266582489, 0.12619610130786896]]], [[[-0.17508834600448608, -0.026865802705287933, -0.3897714912891388], [-0.18682609498500824, -0.14982827007770538, 0.041730958968400955], [-0.7310417294502258, -0.5679442286491394, -0.31910082697868347]], [[-0.4759795367717743, 0.25944963097572327, 0.5442023277282715], [-0.31962040066719055, 0.29082193970680237, 0.13560518622398376], [1.254830241203308, 0.5236049890518188, -1.6063141822814941]], [[-0.2432785928249359, 0.502812385559082, -0.08051332831382751], [-0.5500963926315308, 0.2898603081703186, 0.060464099049568176], [-0.5597435832023621, 0.06021929159760475, -0.5837211608886719]]], [[[0.0678519457578659, 0.16307951509952545, -0.25721636414527893], [0.5704719424247742, 0.13433583080768585, -0.08993131667375565], [-0.4053507149219513, 0.6750643253326416, 0.2076144516468048]], [[0.8382778763771057, 0.47604021430015564, 0.800558865070343], [-0.9859705567359924, -0.9688686728477478, -0.9265252351760864], [0.2668364644050598, -0.15632544457912445, 0.3974217474460602]], [[-0.5955721139907837, -0.31944194436073303, 0.15200039744377136], [0.2099456936120987, -0.0507952980697155, 0.5290961861610413], [0.43510523438453674, -0.13507553935050964, 0.36415788531303406]]], [[[-0.5000158548355103, 0.23044200241565704, -0.09627119451761246], [-0.43470117449760437, 0.0743270143866539, 0.08903954178094864], [-0.3286304771900177, -0.10651221871376038, -0.005386224016547203]], [[1.0108349323272705, -0.061526309698820114, -0.17389759421348572], [0.6254377961158752, 0.32225850224494934, -0.09275564551353455], [-1.5260398387908936, -0.3400856852531433, 0.5942248106002808]], [[-0.4001195430755615, 0.493193656206131, -0.48842865228652954], [-0.44337305426597595, 0.34808430075645447, -0.6052207946777344], [-0.32464855909347534, 0.6481209397315979, -0.3315734565258026]]], [[[-0.28919312357902527, -0.2883591949939728, 0.2632727324962616], [0.05142584443092346, -0.11623318493366241, 0.2287665754556656], [0.0807594284415245, 0.12596403062343597, -0.40501508116722107]], [[-1.1281394958496094, -0.3124528229236603, 0.5965632796287537], [-0.7670800685882568, 0.4436895251274109, -0.6062837839126587], [1.075513482093811, -1.3617584705352783, 0.6621639132499695]], [[0.20382235944271088, 0.029937662184238434, 0.558371365070343], [0.23633426427841187, -0.3269745707511902, 0.11098524928092957], [-0.45647183060646057, -0.5195562839508057, -0.2987087368965149]]], [[[0.3014255464076996, -0.26026442646980286, 0.08354604244232178], [-0.15169815719127655, -0.6050483584403992, -0.44176438450813293], [0.04510607197880745, 0.38922712206840515, -0.09104041755199432]], [[-0.5012611150741577, 0.19474409520626068, -0.38611268997192383], [0.8837459087371826, 0.32474052906036377, 0.39536815881729126], [0.4688397943973541, 0.02842363342642784, 0.6883901953697205]], [[0.09413061290979385, 0.5709846019744873, -0.4495666027069092], [0.35184329748153687, 0.37799882888793945, -0.20647726953029633], [-0.5369240045547485, -0.3054620623588562, -1.3747791051864624]]], [[[0.803920567035675, 0.37502050399780273, 1.1587493419647217], [-0.5994365215301514, -0.09520167857408524, 0.057586416602134705], [-0.10625992715358734, -0.22951143980026245, -0.08025684952735901]], [[-1.0978341102600098, -1.1134897470474243, -0.10288030654191971], [-0.27946195006370544, -0.14439508318901062, -0.33583876490592957], [-0.07340733706951141, -0.1760665625333786, -0.3234322965145111]], [[-0.12719759345054626, 0.25823816657066345, -0.3398919403553009], [-0.23668882250785828, 0.5603587627410889, 0.30071261525154114], [0.4335278868675232, -0.36777791380882263, -0.40866318345069885]]], [[[0.2810457646846771, 0.3780277967453003, -0.38095590472221375], [-1.1610026359558105, 0.4155220687389374, -0.5278347730636597], [0.35278376936912537, -0.41800251603126526, -0.12186817824840546]], [[0.4715481698513031, 0.08081219345331192, -0.6938973069190979], [0.7454943656921387, 0.4536185562610626, -0.5890868902206421], [0.7804364562034607, 0.6329890489578247, 0.36527371406555176]], [[0.37942150235176086, -0.20539481937885284, 0.35203394293785095], [-0.2939455509185791, -0.37741249799728394, 0.5248659253120422], [-0.6667969226837158, -0.31430619955062866, 0.31769537925720215]]], [[[0.36256951093673706, -0.21264633536338806, 0.4045608937740326], [-0.7182156443595886, 0.47179117798805237, -0.2720853090286255], [-0.4861597716808319, -0.5367017388343811, 0.1802038997411728]], [[0.7082627415657043, -0.13440833985805511, 0.5216435790061951], [-0.18251606822013855, -0.9486978650093079, 0.07504304498434067], [-0.5205687880516052, 0.45874327421188354, -1.0855090618133545]], [[-0.041551243513822556, -0.36165881156921387, -0.6708360314369202], [0.8708487749099731, 0.3213852047920227, 0.35877466201782227], [-0.18572872877120972, -0.37397146224975586, -0.19431106746196747]]], [[[0.026019923388957977, -0.14623957872390747, 0.8448057174682617], [-0.4850134253501892, 0.5670343041419983, -0.30952897667884827], [1.1649595499038696, 0.05251205712556839, -0.895492434501648]], [[0.6763250231742859, 0.14365075528621674, -0.5531824827194214], [0.3336615264415741, -0.3451223075389862, -0.09584575146436691], [-0.14229713380336761, -0.29306498169898987, 0.16316069662570953]], [[-0.3814150094985962, -0.24058324098587036, -0.4460110366344452], [-0.4181957542896271, 0.5535256862640381, -0.07175298780202866], [0.08638128638267517, 0.6726890802383423, -0.019613219425082207]]], [[[0.9436439275741577, 0.6009700894355774, 0.5759816765785217], [0.6833779215812683, -0.07150141149759293, 0.14802417159080505], [0.7730138301849365, 0.6594896912574768, 0.7656881809234619]], [[-0.03800804540514946, 0.1410713791847229, -0.3634887635707855], [0.23369204998016357, -0.4630691707134247, -0.09079194068908691], [-0.9115614295005798, -0.10764893144369125, -0.1517924666404724]], [[0.11675341427326202, 0.06835582107305527, -0.36401814222335815], [0.589024543762207, 0.39313191175460815, 0.4912940561771393], [0.0639544352889061, 0.17894020676612854, -0.27103275060653687]]], [[[0.6402091383934021, 0.37236469984054565, 0.003199176397174597], [0.09136220812797546, -0.7524005174636841, -0.4561556577682495], [0.9390192031860352, -0.07210396975278854, 0.9283639788627625]], [[-0.5682952404022217, 0.3214130401611328, -0.4216286540031433], [-0.829815685749054, -0.43874597549438477, -0.0651465356349945], [-0.4332914650440216, -0.5485676527023315, -0.3414691984653473]], [[0.2555496096611023, 0.29269328713417053, -0.47958940267562866], [0.13675138354301453, 0.07936747372150421, -0.061717718839645386], [-0.15402157604694366, -0.3431205153465271, -0.7122912406921387]]], [[[-1.048412561416626, -0.3411073088645935, -0.699394941329956], [-0.7600395083427429, 0.00422750785946846, 0.8784071803092957], [-0.979493260383606, 0.17723074555397034, 0.9868776202201843]], [[0.455290824174881, -0.24777069687843323, -0.3632756769657135], [0.03671332821249962, 0.37698525190353394, 0.1718086451292038], [-0.01551765762269497, 0.3884604573249817, -0.07283852994441986]], [[0.39223140478134155, -0.09894756972789764, -0.450905978679657], [-0.19803793728351593, 0.4820604622364044, 0.4815531373023987], [-0.05981432646512985, 0.31030675768852234, 0.3744264543056488]]], [[[0.8511051535606384, 0.5337054133415222, -0.10010750591754913], [-0.25405481457710266, 0.2122623175382614, 0.5728767514228821], [0.6500130295753479, -0.6973881125450134, 0.552246630191803]], [[0.20530889928340912, 0.22664470970630646, 0.6130998730659485], [-0.19890259206295013, -0.4507758617401123, 0.7508604526519775], [0.9182871580123901, 0.458301842212677, 0.2799229621887207]], [[0.15912802517414093, 0.5265568494796753, 0.30117931962013245], [-0.4360221028327942, 0.3126926124095917, 0.3734893798828125], [-0.3471573293209076, -0.35909634828567505, -0.3381173610687256]]], [[[0.9137465953826904, -0.79916912317276, 0.20362579822540283], [0.6137529611587524, 0.36077865958213806, -0.1831061989068985], [0.4408843517303467, -0.7248323559761047, -1.815355896949768]], [[-0.1236286610364914, 0.20063714683055878, 1.0186134576797485], [-0.3277314603328705, -0.2414599508047104, -0.30830368399620056], [-0.6153004765510559, -0.25735747814178467, 0.00117122835945338]], [[0.07452315837144852, -0.04564979299902916, -0.006776956841349602], [0.21090459823608398, 0.14137330651283264, 0.27152276039123535], [0.455496221780777, 0.18159185349941254, 0.001429088064469397]]], [[[0.7520923018455505, 0.4943599998950958, -1.274875521659851], [-0.010665472596883774, 0.45707038044929504, -0.18391671776771545], [0.5539242029190063, 0.6907547116279602, 1.2308322191238403]], [[-0.4666955769062042, -0.2708386182785034, -0.11080384254455566], [0.06251628696918488, -0.7498170137405396, -0.10560116171836853], [0.0884891003370285, -0.501613438129425, 0.6252143979072571]], [[0.15470485389232635, 0.35581132769584656, -0.09502612799406052], [0.2436487078666687, 0.28577595949172974, -0.05048241838812828], [0.26218050718307495, 0.18873810768127441, -0.055321741849184036]]], [[[-0.5553891658782959, 0.035608965903520584, 0.06161676347255707], [-0.06625771522521973, -1.5440702438354492, 0.3957585096359253], [-1.3236007690429688, -1.1331614255905151, -0.7984739542007446]], [[-0.2480545938014984, 0.5334385633468628, -0.777527391910553], [-0.08802249282598495, -0.6247764229774475, 0.2330510914325714], [-0.8519209623336792, 0.4471265375614166, 0.06904865056276321]], [[-0.4913654625415802, 0.02572719007730484, 0.4315127730369568], [0.03611742705106735, 0.22404691576957703, 0.2817215025424957], [0.24315756559371948, 0.18862147629261017, 0.035585738718509674]]], [[[0.4990406930446625, 0.6877318024635315, -0.7225443124771118], [-0.5195654630661011, 0.0030309727881103754, 0.17174379527568817], [-0.5828425884246826, 0.00011911270848941058, 0.11146897077560425]], [[-0.6959437727928162, 0.0564073882997036, -1.1455172300338745], [0.27410319447517395, 0.6505476832389832, -0.41318759322166443], [-2.1120362281799316, -0.7126771807670593, -0.7131358981132507]], [[0.2798134684562683, -0.22205683588981628, -0.582634449005127], [-0.21827206015586853, 0.21807752549648285, -0.08897514641284943], [-0.07406198978424072, -0.04749872535467148, 0.313172847032547]]], [[[-1.4272196292877197, 0.3706686496734619, 1.083871603012085], [0.1598512828350067, -0.31426185369491577, -0.02585178054869175], [0.6401535868644714, -0.1597055196762085, 0.18799914419651031]], [[-1.0984841585159302, -0.6500976085662842, -0.6760191917419434], [-0.26958876848220825, 0.14250116050243378, -0.20620910823345184], [0.3096141517162323, 0.15786786377429962, -0.5642420053482056]], [[-0.18118411302566528, -0.37035003304481506, 0.2774936258792877], [0.1264207810163498, 0.009821115992963314, -0.5253303647041321], [0.5661795735359192, 0.43954816460609436, -0.23748858273029327]]], [[[0.22604826092720032, 0.2140340656042099, -1.3280222415924072], [-0.5000677108764648, -0.47620251774787903, 0.1305265873670578], [0.5966832041740417, 0.5380240082740784, 0.2443419098854065]], [[0.8640233874320984, -0.9928853511810303, -0.6699968576431274], [0.31763869524002075, 0.27990469336509705, -0.4333491623401642], [-1.2016699314117432, -0.0858762189745903, -1.0553128719329834]], [[0.17692498862743378, -0.17409180104732513, 0.25528255105018616], [0.3971608877182007, 0.07458726316690445, 0.477253794670105], [0.16380061209201813, -0.14368708431720734, 0.0694427341222763]]], [[[-0.10921944677829742, -1.8300532102584839, -0.6835309267044067], [0.47644907236099243, -1.2473691701889038, 0.4735676050186157], [-0.24492357671260834, 0.6131397485733032, 0.3600573241710663]], [[-0.5187280774116516, 0.19839255511760712, 0.6416612267494202], [0.5133504271507263, -0.27193841338157654, -0.36151543259620667], [0.7146002054214478, 0.13968555629253387, -0.5279110670089722]], [[0.08887337893247604, 0.3429245352745056, 0.014125560410320759], [-0.3130280673503876, 0.205536350607872, 0.22379963099956512], [-0.2583499848842621, 0.4258432686328888, 0.32338276505470276]]], [[[0.24440528452396393, -0.965053141117096, -0.38576823472976685], [0.21327321231365204, -0.9495193958282471, -0.31984710693359375], [0.6803131103515625, -0.6021124720573425, 0.49236181378364563]], [[-0.15460653603076935, -1.3352375030517578, -0.6599453091621399], [-0.48104357719421387, 0.34642478823661804, 0.04014647752046585], [-0.5611352324485779, -0.8586763739585876, 0.240524560213089]], [[-0.2965160608291626, 0.3685745894908905, -0.3499794900417328], [-0.11209700256586075, 0.4781224727630615, -0.27255725860595703], [0.09218986332416534, -0.14788895845413208, -0.6926279067993164]]], [[[0.8124765753746033, -0.7591434121131897, -0.06531303375959396], [0.5897014737129211, -0.2538004517555237, 0.5377260446548462], [0.7809047102928162, -0.7319493293762207, 0.39098140597343445]], [[-1.6094986200332642, -0.1301163285970688, -0.2022378295660019], [-1.8170244693756104, 0.0456475205719471, -0.08651366084814072], [-0.5434814691543579, -0.08417491614818573, 0.4468728005886078]], [[0.020090259611606598, 0.011115836910903454, -0.42671310901641846], [-0.08687330782413483, 0.023001672700047493, 0.040339771658182144], [0.2904540002346039, 0.4008951783180237, 0.31221815943717957]]], [[[0.18906062841415405, 0.6250814199447632, -0.4275608956813812], [-0.7805446982383728, 0.9620041251182556, -0.017984503880143166], [0.385112464427948, -1.403629183769226, -0.017463378608226776]], [[-0.8900494575500488, -0.09840548038482666, 0.267162561416626], [-0.9374832510948181, 0.696677029132843, 0.2936769723892212], [-0.923558235168457, 0.008237643167376518, 0.15008598566055298]], [[0.1466355174779892, 0.43002617359161377, 0.25903990864753723], [-0.07110525667667389, -0.09790938347578049, 0.07584159821271896], [0.024482421576976776, 0.27860748767852783, 0.19238193333148956]]], [[[0.5652270317077637, 0.7322760224342346, -0.8968421816825867], [0.37822699546813965, 0.5297167897224426, 0.23591484129428864], [0.4271661937236786, 0.026392148807644844, -0.44289177656173706]], [[-0.41354331374168396, 0.17746540904045105, 0.0036092735826969147], [0.3505461513996124, -0.2466358095407486, -0.7139967083930969], [0.6690414547920227, -0.5702372193336487, 0.25406256318092346]], [[-0.564477801322937, -0.049940142780542374, -0.5815842747688293], [-0.12949657440185547, 0.8330184817314148, 0.3521060049533844], [-0.3528711795806885, -0.13338488340377808, -0.5553207397460938]]], [[[-0.24410219490528107, -0.15321862697601318, 0.2072765827178955], [-0.6387078762054443, -0.18792366981506348, 0.4578935503959656], [0.4849647581577301, 0.21304698288440704, 0.8019054532051086]], [[-0.9391177296638489, 0.1732567697763443, 0.9719259142875671], [-0.49204009771347046, 0.49964675307273865, -0.01675521582365036], [-1.1363919973373413, -0.8399448394775391, 0.34083110094070435]], [[-0.3618551194667816, 0.23444189131259918, -0.4047558605670929], [-0.06817110627889633, 0.6907371282577515, 0.1519809067249298], [-0.43816474080085754, -0.36772218346595764, -0.09562519937753677]]], [[[-0.42820119857788086, -1.1323128938674927, -0.7188620567321777], [-0.15265987813472748, 0.595737636089325, -0.49276039004325867], [0.9325385689735413, 0.28996461629867554, 0.5890141725540161]], [[0.4790933132171631, 0.5683595538139343, 0.32824569940567017], [-0.8019425272941589, -0.31478530168533325, 0.24835970997810364], [-0.7898465991020203, -1.0094791650772095, -0.7274351119995117]], [[-0.004010970704257488, -0.31033721566200256, -0.3764375150203705], [0.12708410620689392, -0.16278202831745148, -0.10670088231563568], [0.4230128228664398, 0.3745708763599396, 0.14326581358909607]]], [[[0.8717782497406006, 0.15785691142082214, 0.10259237885475159], [-1.1370102167129517, -0.09593960642814636, -0.5653320550918579], [-1.0260119438171387, -0.847744882106781, -0.11445831507444382]], [[0.6900798678398132, -0.24508288502693176, 0.28559672832489014], [0.8044657707214355, -0.42717692255973816, 0.6052952408790588], [0.6696339249610901, 0.12337547540664673, 0.3384958505630493]], [[-0.09822957217693329, -0.35601183772087097, 0.1245957762002945], [0.4662216901779175, 0.2862657904624939, 0.3547798991203308], [0.0234698373824358, 0.06850242614746094, 0.2919541299343109]]], [[[-0.9990164637565613, -0.14770285785198212, 0.09856127202510834], [-0.6702862977981567, -0.40860652923583984, 0.3820759654045105], [-0.9390199184417725, -0.24037334322929382, 0.10452518612146378]], [[0.8729520440101624, -0.01038743183016777, -0.023652171716094017], [0.35207226872444153, -0.1966913938522339, 0.006451768800616264], [1.2616468667984009, 0.15365378558635712, 0.5777446627616882]], [[-0.3569590747356415, -0.5739153027534485, -0.4520396292209625], [-0.09700249135494232, 0.4790430963039398, -0.09504584968090057], [-0.22412453591823578, 0.20280981063842773, 0.021428849548101425]]], [[[-0.2270672768354416, 0.263592928647995, -0.49777600169181824], [0.2762957513332367, 0.6809136271476746, 0.4277620315551758], [0.8445971012115479, 0.5736270546913147, -1.7217689752578735]], [[-0.6724657416343689, 0.24170739948749542, -0.33819353580474854], [-0.508638322353363, -0.37339115142822266, 0.20962485671043396], [0.10958880186080933, 0.8839757442474365, -0.27740687131881714]], [[-0.09551148861646652, -0.25972798466682434, -0.06578797101974487], [0.039397936314344406, -0.46466895937919617, 0.4268331527709961], [0.30891522765159607, -0.2536235749721527, 0.38108307123184204]]], [[[0.38814523816108704, -0.008150664158165455, -0.9074391722679138], [-0.8657037019729614, 0.15701064467430115, 0.290029913187027], [-0.6503276824951172, 0.004173921886831522, 0.8997290134429932]], [[-0.611670732498169, -0.8032442927360535, -0.18245409429073334], [-0.2584777772426605, -0.6531888842582703, -0.45024794340133667], [-0.567541241645813, 0.8373926281929016, 0.5076027512550354]], [[-0.23612642288208008, 0.2461211383342743, -0.138204425573349], [-0.6051402688026428, 0.2547522187232971, -0.18494060635566711], [-0.316533625125885, 0.6220195293426514, 0.20697656273841858]]], [[[0.9032217860221863, -0.017001274973154068, 0.15935862064361572], [0.6387062072753906, -0.11521688103675842, -0.07352092862129211], [-1.356943964958191, -0.14180748164653778, -0.11088337004184723]], [[0.20304641127586365, -0.002756211906671524, 1.4022985696792603], [0.2833232879638672, 0.48074954748153687, 0.29065701365470886], [0.1234888955950737, -0.10658832639455795, 0.2737751603126526]], [[0.503640353679657, 0.01670873910188675, -0.2040746957063675], [0.41356906294822693, 0.10503850132226944, -0.31021007895469666], [-0.24599798023700714, -0.3036699593067169, -0.4415209889411926]]], [[[-0.3521098792552948, -0.21366523206233978, 0.06941398233175278], [-0.15898397564888, 0.3997306823730469, -0.38194364309310913], [-0.4906594753265381, 0.17088328301906586, -0.23873236775398254]], [[-0.12245607376098633, -0.7030738592147827, -0.15186847746372223], [-0.5699862241744995, 1.06105637550354, 0.6233423948287964], [0.22152356803417206, 0.7439556121826172, 0.6209592223167419]], [[0.07255960255861282, -0.30429065227508545, -0.5462943315505981], [0.6950629949569702, 0.0098743150010705, 0.3072980046272278], [0.2739349603652954, -0.67143714427948, -0.28756868839263916]]], [[[0.6238197684288025, -1.527280330657959, -0.2109939157962799], [-0.5975263714790344, -0.6324472427368164, -0.5376327037811279], [-0.5590474009513855, 0.15189184248447418, 0.5024750828742981]], [[1.0200520753860474, 0.30919012427330017, 0.06075174733996391], [-0.5721393823623657, -0.29457393288612366, -0.38867637515068054], [0.6360571384429932, -0.2734004259109497, -0.6704034209251404]], [[0.1808561086654663, 0.08559200167655945, 0.5578343272209167], [0.07058577239513397, -0.3389308452606201, -0.0351516455411911], [0.06507986038923264, -0.5818037986755371, 0.0690680593252182]]], [[[-0.2914744019508362, -0.70073401927948, 0.8634663224220276], [-0.8874472379684448, 0.819216787815094, 0.08326378464698792], [-1.404564380645752, 0.06788667291402817, -1.3781332969665527]], [[0.16516119241714478, -0.04325857013463974, -0.06158510223031044], [0.07083591818809509, -0.00337756285443902, -0.6045113801956177], [-0.4472333788871765, 0.27382412552833557, 0.15700729191303253]], [[-0.5075466632843018, -0.1806069314479828, 0.8204981088638306], [0.3380281627178192, 0.03438051789999008, -0.21635699272155762], [-0.02384236827492714, 0.17801393568515778, 0.09414218366146088]]], [[[-0.4785706698894501, -0.750524640083313, -0.8482710123062134], [-0.8997694849967957, 0.6181934475898743, 0.062189847230911255], [-1.1647119522094727, 1.0319933891296387, 0.28103435039520264]], [[0.33860713243484497, 0.4040977358818054, 0.6490254402160645], [0.4692603647708893, 0.12439366430044174, -0.4652506411075592], [-0.16052642464637756, -0.25417110323905945, -0.016558855772018433]], [[-0.2348722517490387, -0.03389750048518181, -0.4841291308403015], [-0.03271138295531273, 0.31653091311454773, 0.25803202390670776], [-0.24511292576789856, -0.27200305461883545, -0.025267494842410088]]], [[[0.7177515625953674, -1.0524314641952515, 0.6875908970832825], [0.029762864112854004, 0.2588587701320648, -0.38621628284454346], [0.9402636885643005, 0.5025079846382141, 0.4440191090106964]], [[0.12282863259315491, -0.8355910778045654, -0.18281666934490204], [-0.5042592883110046, 0.37608933448791504, 0.38027557730674744], [0.26082929968833923, 0.7453625798225403, -0.05258812755346298]], [[0.009096642956137657, 0.5530638694763184, 0.5208331942558289], [-0.490579754114151, -0.09944505244493484, -0.0009351376793347299], [-0.08192754536867142, 0.27005720138549805, 0.09182310849428177]]], [[[-1.49747633934021, -0.04938700422644615, -1.054958462715149], [0.46075087785720825, 0.10348903387784958, -0.08526960760354996], [1.0945618152618408, -0.17403872311115265, 0.6429062485694885]], [[-1.1201995611190796, -0.08630190789699554, 0.20059771835803986], [-1.0782562494277954, -0.2141329050064087, 0.27052226662635803], [0.7085368037223816, 0.3506651818752289, 0.31864017248153687]], [[-0.10573368519544601, 0.5822964310646057, 0.03736034035682678], [-0.3488740921020508, 0.04590928927063942, -0.0799284428358078], [0.08844545483589172, 0.05715128406882286, -0.010098258964717388]]], [[[-0.2658160328865051, 0.21565164625644684, 0.9730385541915894], [-0.09581130743026733, -0.4601598083972931, -0.67303067445755], [-2.4336509704589844, 0.42556479573249817, 0.3211436867713928]], [[0.5022269487380981, 0.4224037528038025, -0.4333041310310364], [0.3413310945034027, 0.28165650367736816, 0.250118613243103], [-0.13662497699260712, -0.6686281561851501, -0.7061607241630554]], [[0.3844216465950012, -0.30993524193763733, -0.36050623655319214], [0.3378187119960785, 0.10574354231357574, 0.13224981725215912], [0.31276801228523254, 0.13042467832565308, 0.15831764042377472]]], [[[-1.9701390266418457, 0.46014121174812317, -1.0762830972671509], [0.028659144416451454, 0.7131263017654419, -0.438836932182312], [-0.7001068592071533, -0.7113127708435059, 0.6172123551368713]], [[0.3203350901603699, 0.3584252893924713, 0.4122686982154846], [0.275418758392334, 0.1557363122701645, 0.3883679509162903], [0.2727294862270355, 0.09287268668413162, -0.2174890637397766]], [[-0.05824720859527588, 0.48002758622169495, 0.201985701918602], [0.32055097818374634, 0.07330432534217834, -0.1429515779018402], [-0.15669456124305725, -0.1556141972541809, 0.3861984312534332]]], [[[-0.37605610489845276, -0.6347321271896362, -0.095236636698246], [-0.36299771070480347, -0.9102316498756409, -0.13136433064937592], [0.5930138230323792, -0.12122001498937607, 0.6515325903892517]], [[-0.2747957110404968, -0.2352747768163681, -0.09448983520269394], [0.6797041893005371, -1.2278897762298584, 0.4093790054321289], [-1.0082712173461914, -0.7155773639678955, 0.7895504832267761]], [[-0.3931678831577301, -0.180022194981575, 0.7363439798355103], [0.08195368200540543, -0.05158289894461632, -0.011196045204997063], [0.09760795533657074, 0.06638135761022568, -0.2708260118961334]]]], "conv1.bias": [0.5233084559440613, -0.33472713828086853, -0.4099699854850769, 0.5228654146194458, -0.8469767570495605, 0.027454374358057976, -0.9622690677642822, 0.20563462376594543, -0.054478563368320465, 0.9073696136474609, -0.0818043202161789, 0.1999022215604782, 0.09289468079805374, 0.1178455725312233, -0.2817482650279999, 0.42955881357192993, -0.19825251400470734, -0.2815289795398712, -0.6616964340209961, 0.4585382640361786, -0.322685569524765, -0.17020396888256073, -0.8123714327812195, -0.2691522538661957, -0.44023534655570984, 0.11978304386138916, -0.3004259169101715, 0.5195820331573486, 0.3896711468696594, -0.18781264126300812, 0.41011008620262146, -0.07363194972276688, -0.3779827356338501, 0.4850081205368042, -0.2910025417804718, -0.6997212171554565, -0.325510174036026, -0.18783517181873322, -0.9155487418174744, 0.04464628919959068, -0.25893479585647583, 0.11921710520982742, -0.45470544695854187, 0.5506973266601562, -0.040405284613370895, -0.05538330599665642, 0.25070950388908386, 0.44748759269714355, 0.8220013380050659, 0.2385655641555786, 1.0509675741195679, 0.02036803588271141, -0.10458642244338989, 0.0739668682217598, 0.24067313969135284, 0.4949844181537628, 1.1504374742507935, -0.32848626375198364, -1.1579556465148926, -0.06321132928133011, 0.30688005685806274, -0.8963227272033691, 0.05866800621151924, 0.04732409119606018], "bn1.weight": [0.9483919143676758, 0.95974200963974, 1.1702617406845093, 1.1672958135604858, 1.1367708444595337, 1.0880694389343262, 0.827577531337738, 1.2394936084747314, 0.8655868768692017, 1.0804405212402344, 1.1656908988952637, 0.8153394460678101, 1.051774501800537, 1.0393282175064087, 1.274705171585083, 1.011976718902588, 1.1426914930343628, 0.9304741024971008, 1.0199477672576904, 0.8070366978645325, 1.25800359249115, 1.1034437417984009, 1.2752246856689453, 0.9814940094947815, 1.2220098972320557, 0.93523108959198, 1.2002933025360107, 1.1004177331924438, 1.4346823692321777, 1.2699501514434814, 0.859147310256958, 1.1524901390075684, 1.0615886449813843, 1.077596664428711, 1.002282738685608, 1.1114095449447632, 0.7545231580734253, 1.0651421546936035, 1.2158937454223633, 1.3066208362579346, 0.9186010360717773, 1.1591030359268188, 1.0266386270523071, 1.0881845951080322, 0.8375076055526733, 1.1044656038284302, 1.0646159648895264, 0.9653530120849609, 0.9557620882987976, 0.9465817809104919, 1.0777599811553955, 1.1392765045166016, 0.7653838396072388, 1.0791256427764893, 0.9166746735572815, 1.038181185722351, 0.942793071269989, 1.0119216442108154, 0.9173583984375, 0.8272470235824585, 0.8256552815437317, 1.1071738004684448, 1.2843241691589355, 0.9982156157493591], "bn1.bias": [-0.13467930257320404, -0.7455003261566162, -0.41638633608818054, -0.256844162940979, -0.8674631714820862, -0.12945900857448578, -0.5223852396011353, -0.26279908418655396, -0.42092588543891907, -0.6581932902336121, -0.18843811750411987, -0.18405647575855255, -0.7581052184104919, -0.7619189620018005, -0.41708850860595703, 0.11917054653167725, -0.4488185942173004, -0.3412973880767822, -0.7024481296539307, 0.05856500566005707, -0.6889336109161377, -0.4857683479785919, 0.1440877616405487, -0.14638805389404297, -0.08334613591432571, -0.6786258220672607, -0.33212733268737793, -0.5187343955039978, -0.7985355854034424, -0.673085629940033, -0.46305736899375916, -0.382173091173172, -0.6518488526344299, -1.4081940650939941, -0.16180525720119476, -0.95501708984375, -0.4701724946498871, -0.7413949966430664, -0.9943273067474365, -0.669800341129303, -0.04534132033586502, -0.3939226567745209, -0.7500495910644531, -0.674362301826477, 0.037157826125621796, -0.7256945371627808, -0.8134856820106506, -0.4158477187156677, -0.37173107266426086, -0.3273199498653412, -0.8185070753097534, -0.2867700457572937, -0.22096598148345947, -0.6043969988822937, -0.7971442341804504, -0.5780200362205505, -0.4285789728164673, -0.450473427772522, -0.5241764783859253, -0.6223245859146118, -0.26003605127334595, -0.5038299560546875, -0.8181846737861633, -0.5932319760322571], "conv2.weight": [[[[-0.20617946982383728, -0.3868916928768158, -0.691845178604126], [0.05036124959588051, 1.0515010356903076, -0.3960285484790802], [1.037779688835144, 0.264454185962677, -0.08006493747234344]], [[-0.2162097990512848, 0.0905151516199112, 0.3778499960899353], [-0.564708948135376, -0.2482355237007141, 0.4872346818447113], [0.08996650576591492, 0.0001226166496053338, 0.08475033193826675]], [[-0.3892294466495514, -1.002597451210022, 0.9814179539680481], [-0.01746549643576145, -0.22909022867679596, -0.5055530071258545], [-0.4970143437385559, -0.08338049799203873, -0.44872787594795227]], [[-0.9427152872085571, -0.9413795471191406, 0.665732741355896], [-0.1347353607416153, -0.8321554660797119, -0.018194658681750298], [0.415507048368454, -0.5372781157493591, 0.7019926905632019]], [[0.2691572606563568, 0.07392745465040207, 0.5314263105392456], [-0.17042185366153717, 0.790876030921936, 0.272779643535614], [1.6089839935302734, 0.2620244026184082, -0.009207536466419697]], [[0.15283919870853424, -1.121392011642456, 0.17317141592502594], [0.20153018832206726, 0.4545508325099945, -0.3711921274662018], [0.8131201267242432, 0.290557324886322, 0.025879520922899246]], [[-0.22665607929229736, 1.0257536172866821, 0.17695753276348114], [0.5795273780822754, 0.5713348388671875, -0.34765008091926575], [0.06958291679620743, -0.7197475433349609, -0.8737820982933044]], [[0.2514941394329071, -0.6624035239219666, -0.24920102953910828], [-0.6996259093284607, -0.1385425180196762, 0.3778316080570221], [1.0719910860061646, -0.5369436740875244, 0.23479659855365753]], [[-0.09380258619785309, -0.13961616158485413, -0.2718248963356018], [-1.1595209836959839, -0.06915771961212158, -0.047482315450906754], [0.8245684504508972, 0.3863450288772583, 0.2312801629304886]], [[0.28757444024086, -1.1805534362792969, 0.16886006295681], [-0.17978037893772125, 0.47726818919181824, -0.2358243614435196], [0.3850318491458893, 0.38008013367652893, -0.3836364448070526]], [[-0.7778769135475159, -0.2765538692474365, 0.5650535225868225], [0.009534714743494987, -0.2605661153793335, 0.39577922224998474], [0.07294358313083649, -0.1468648761510849, 0.3993564546108246]], [[0.8149723410606384, -0.41655582189559937, 0.49767640233039856], [0.3227640688419342, 0.08605799078941345, 0.2504633665084839], [0.191227525472641, -0.10888857394456863, -0.20429621636867523]], [[-0.050131380558013916, -0.7309811115264893, -0.3048270046710968], [-0.6648520827293396, -1.0141972303390503, 0.031304992735385895], [-1.1933610439300537, -0.07159048318862915, 0.024233227595686913]], [[-0.39742106199264526, 0.20889683067798615, 0.4132605791091919], [0.5951202511787415, -0.5102252960205078, 0.1368594616651535], [0.4162556827068329, 0.2681482434272766, -0.6430957317352295]], [[-0.6914018392562866, 0.02980438433587551, 0.038244444876909256], [0.25810959935188293, 0.7620899677276611, -0.49093562364578247], [0.7556500434875488, -0.27962955832481384, 0.5045811533927917]], [[-0.25249579548835754, 0.05717991665005684, 0.16067664325237274], [0.21924754977226257, 0.4779024124145508, 0.34392350912094116], [0.48996028304100037, -0.37426847219467163, 0.08140552043914795]], [[-0.3976385295391083, 0.5874047875404358, -0.011476828716695309], [-0.34619003534317017, 0.4699971377849579, -0.7752023935317993], [0.2221822589635849, -0.7428027987480164, 0.6806861162185669]], [[-0.716633677482605, -0.1786094754934311, 0.12920434772968292], [0.19778336584568024, -0.4843873381614685, -0.24744471907615662], [-0.16773101687431335, 0.3319808542728424, 0.19071516394615173]], [[-0.18965637683868408, -0.013438662514090538, 0.13791459798812866], [0.4895857274532318, 0.5678929686546326, -0.037408649921417236], [0.22252514958381653, -0.040288884192705154, -0.24404658377170563]], [[-0.10484219342470169, 0.5070221424102783, 0.16784228384494781], [-0.5452804565429688, 0.09680194407701492, -0.6231136322021484], [0.6327442526817322, 0.740757167339325, 0.16941706836223602]], [[0.06701191514730453, -0.16337785124778748, 0.7174659967422485], [0.7035621404647827, -0.18327251076698303, 0.0879325345158577], [-0.7167481184005737, 0.27840378880500793, 0.18559697270393372]], [[-0.37992188334465027, -0.3422011435031891, 0.0672793909907341], [-0.04776512458920479, -0.49612024426460266, 0.03726739436388016], [-0.6614095568656921, -0.7994130849838257, 0.02705560438334942]], [[-0.13127973675727844, -0.20614652335643768, 0.3224475383758545], [-0.08138829469680786, -0.2768542468547821, -0.7108137011528015], [0.17578324675559998, 0.3982280492782593, 0.04232320562005043]], [[0.11366740614175797, -0.5454090237617493, 0.7505940198898315], [-0.03438239172101021, -0.3315243124961853, -0.2564161419868469], [0.5967965722084045, 0.2763836085796356, 0.28506720066070557]], [[-0.020601246505975723, 0.049043089151382446, -0.1466774046421051], [-0.23426823318004608, 0.4599837064743042, 0.9019873142242432], [0.46747222542762756, -0.03958576172590256, -0.16603489220142365]], [[-0.8094455003738403, -0.6414008140563965, 0.1776515245437622], [0.07320831716060638, -0.23018606007099152, 0.17572477459907532], [-0.44773560762405396, 0.4848536550998688, -0.2947063148021698]], [[0.8816502094268799, 0.6934104561805725, -0.21052926778793335], [-0.5167803764343262, -0.6726469397544861, -0.531888484954834], [-0.16830302774906158, -0.11993082612752914, 0.21355842053890228]], [[0.2984408736228943, 0.341281533241272, 0.02606849931180477], [0.07299613952636719, 0.8329083323478699, -0.2400650978088379], [0.19326111674308777, -0.10559660196304321, 0.020245671272277832]], [[-0.7251233458518982, -0.7349626421928406, 0.08437514305114746], [0.20475953817367554, -0.13422758877277374, -0.25633180141448975], [0.031906891614198685, -0.270455926656723, -0.05538487061858177]], [[0.24109064042568207, 0.481799840927124, 0.7354815602302551], [-0.3118738532066345, 0.1865788698196411, -0.23387707769870758], [0.46184560656547546, -0.3272267282009125, 0.22272099554538727]], [[0.37918999791145325, 0.17654921114444733, -0.13978950679302216], [0.04634222388267517, 0.39597535133361816, 0.2042984664440155], [0.21751263737678528, -0.31924450397491455, -0.8463912010192871]], [[0.3051728904247284, 0.7830797433853149, 0.5393373370170593], [0.05637557432055473, -0.8265043497085571, 0.361417293548584], [0.1630707085132599, 0.457091361284256, -0.44548824429512024]], [[-0.25876104831695557, -0.2970796227455139, 0.15400293469429016], [-0.1354677528142929, -0.45264124870300293, 0.6221001744270325], [1.2408909797668457, 0.30168017745018005, -0.7482765316963196]], [[-0.18077510595321655, 0.4291713535785675, -0.6805732250213623], [-1.4113532304763794, 1.1179059743881226, 0.7627204060554504], [0.14384251832962036, 0.2529747784137726, -0.6181461215019226]], [[-0.040692564100027084, 0.8301665782928467, 0.2611112892627716], [-0.2800902724266052, 0.0904037281870842, -0.22730639576911926], [0.5143093466758728, 0.06315654516220093, -0.5839303731918335]], [[-0.009092392399907112, 0.19895853102207184, 0.056851666420698166], [0.5437985062599182, -0.18772685527801514, 0.165695458650589], [-0.8901286721229553, -0.5202999711036682, 0.3178956210613251]], [[0.2546463906764984, 0.17161618173122406, 0.2879104018211365], [0.21122612059116364, -0.03372548520565033, -0.5216453075408936], [-0.1314975768327713, -0.02368498407304287, 0.18069243431091309]], [[-0.5891260504722595, 0.6073938012123108, 0.27078256011009216], [-1.2960823774337769, -0.14882154762744904, -0.8558105826377869], [0.41211777925491333, 0.5861877202987671, 0.12459928542375565]], [[0.3626076877117157, 0.08386015146970749, -1.286489725112915], [-0.4836713969707489, 0.22214940190315247, 0.868301272392273], [0.6426664590835571, -0.18858365714550018, -0.42509159445762634]], [[0.5109128355979919, 0.7939779758453369, -0.10029622167348862], [0.3030605912208557, -0.5844032168388367, -0.07326267659664154], [-0.4386691451072693, -0.6080216765403748, -0.10737898200750351]], [[0.03640497475862503, 0.2695969045162201, -0.31263676285743713], [0.06383378058671951, 0.17272692918777466, 0.10316523164510727], [0.24830752611160278, -0.6476277112960815, 0.10303445160388947]], [[0.0505923293530941, -1.2444428205490112, 1.0397427082061768], [0.22711367905139923, 0.10101204365491867, -0.037227705121040344], [0.3776238262653351, -0.38790836930274963, -0.11615462601184845]], [[-0.7789549231529236, 0.7225762009620667, 0.09853944182395935], [0.1635497510433197, 0.21000860631465912, 0.12264466285705566], [-0.2904970645904541, -0.04660748317837715, 0.4812752604484558]], [[-0.02450105920433998, 0.190948024392128, -0.5172492265701294], [0.12389010936021805, 0.29337969422340393, -0.8180561065673828], [-0.7454418540000916, 0.2851981222629547, 0.59065181016922]], [[0.07199902832508087, 0.1534082293510437, 0.05798204988241196], [-0.42477288842201233, -0.12391117215156555, 0.12963175773620605], [0.34900400042533875, -0.16618317365646362, 0.19919945299625397]], [[-0.806692361831665, 0.6539216041564941, -0.4171261489391327], [-0.447162389755249, 0.9163050651550293, -0.5229882001876831], [-0.37471139430999756, 0.3465275764465332, 0.09118862450122833]], [[0.5029201507568359, 0.07136039435863495, 0.31580910086631775], [-1.5076451301574707, 0.40888941287994385, 0.013152426108717918], [0.4856099784374237, -0.7546375393867493, 0.1675376296043396]], [[0.7038283348083496, -0.2543545663356781, -0.790697455406189], [0.2950059175491333, 0.8329784870147705, -0.05774065852165222], [0.09629299491643906, 0.07372145354747772, 0.39083433151245117]], [[-0.42682337760925293, -0.681766152381897, 0.23413383960723877], [-0.5236818194389343, -0.2630588114261627, 0.5103237628936768], [-0.8155898451805115, 0.30974677205085754, -0.48888567090034485]], [[-0.1771511733531952, 0.776157557964325, 0.6319551467895508], [-0.4256620705127716, 0.8867472410202026, 0.10127561539411545], [-0.2627677917480469, -0.15064172446727753, -0.24015110731124878]], [[0.19330427050590515, 0.30241382122039795, 0.06734148412942886], [-0.2446030080318451, -0.6142896413803101, 0.2046155482530594], [-0.961586594581604, -1.092481255531311, -0.5423756837844849]], [[0.38917282223701477, -0.4289644956588745, 0.058370646089315414], [-0.36776262521743774, -0.2910137176513672, 0.2036440223455429], [0.1816750466823578, -0.023670006543397903, -0.01792546734213829]], [[-0.581920862197876, -0.35233619809150696, 0.22728994488716125], [0.13235381245613098, -0.12593285739421844, -0.13576576113700867], [0.5939887166023254, -0.34088826179504395, -0.13714437186717987]], [[-0.5192609429359436, -0.04141716659069061, -0.27874669432640076], [0.32330429553985596, -0.0060560391284525394, -0.11545255035161972], [-0.4790075421333313, 0.3943197727203369, -0.2952880263328552]], [[0.11744791269302368, 0.1476525515317917, 0.0910743996500969], [-0.01251386757940054, 0.44455623626708984, 0.002049703849479556], [0.7407213449478149, 0.1190357357263565, 0.01278205867856741]], [[0.09291739016771317, 0.09564778953790665, 0.035013578832149506], [-0.0892813578248024, 0.027142086997628212, 0.10902334749698639], [-1.1398122310638428, -0.42514538764953613, -0.5367458462715149]], [[-0.11455278098583221, 0.3674590289592743, 0.44641241431236267], [-0.32607147097587585, -0.32401782274246216, 0.08626971393823624], [0.19263780117034912, 0.2640898525714874, 0.1511908769607544]], [[-0.09390244632959366, 0.5335575938224792, 0.6334931254386902], [-0.1486954391002655, 0.12777069211006165, -0.9529145956039429], [-0.3418353199958801, -0.3583654463291168, 0.6131021976470947]], [[-0.31395772099494934, 0.9147663712501526, -0.014192354865372181], [0.03066224418580532, 0.8613395690917969, 0.17476454377174377], [-0.48645296692848206, -0.5461171269416809, -0.3544490337371826]], [[0.45689985156059265, 0.0075475494377315044, 0.6282256245613098], [0.22420519590377808, 0.19327224791049957, 0.18233804404735565], [0.2878240942955017, 0.327483206987381, 1.1109790802001953]], [[0.7507173418998718, -0.5199499130249023, -1.0430161952972412], [0.5194131135940552, -0.2787091135978699, 0.16742748022079468], [0.16687864065170288, -0.3152332603931427, 0.18886974453926086]], [[0.20429261028766632, 0.23311637341976166, 0.19922879338264465], [-0.2782127261161804, -0.9059672355651855, -0.23264580965042114], [-0.37649598717689514, -0.3526327908039093, -0.3195999264717102]], [[-0.022294649854302406, -0.39667463302612305, 0.34293967485427856], [-1.0272489786148071, 0.4620418846607208, 0.22294539213180542], [-0.3730408251285553, 0.597639799118042, 0.521127462387085]], [[-0.21320056915283203, -0.5514364838600159, 0.2576673924922943], [-0.5458924174308777, 0.5804661512374878, -0.144991934299469], [0.2547965347766876, -0.10905294120311737, -0.3164243698120117]]], [[[0.4339648485183716, -0.7763461470603943, -0.581229031085968], [-0.5311093330383301, -0.08845625817775726, -0.3288579285144806], [0.48974916338920593, 0.5262265205383301, 0.058584295213222504]], [[0.1299293041229248, -0.30711448192596436, 0.1375724822282791], [-0.4742400050163269, 0.105320505797863, -0.8540533185005188], [1.0871520042419434, 0.7625028491020203, 0.10174234956502914]], [[-0.12904125452041626, 0.19429358839988708, -0.631576657295227], [-0.8404542803764343, -0.1133698970079422, -0.22215396165847778], [-1.0487078428268433, -0.3337199091911316, 0.865606427192688]], [[-0.42055654525756836, 0.563228189945221, -0.20618607103824615], [-0.47532784938812256, 0.3649130165576935, -0.5999364852905273], [0.03182775154709816, 0.42720475792884827, 0.5331171751022339]], [[0.5824882984161377, -0.19429461658000946, -1.1044600009918213], [-0.5822657942771912, -0.12774230539798737, -0.31251034140586853], [0.6635183691978455, -0.17460688948631287, -0.4086185693740845]], [[0.13310037553310394, -0.08511770516633987, 1.67019784450531], [0.1314864307641983, 0.08688395470380783, -0.5901264548301697], [0.30457258224487305, 0.33226242661476135, -0.5464162230491638]], [[0.3514156937599182, -0.11611668020486832, -0.37205708026885986], [0.38114994764328003, -0.2029663473367691, 0.6528289318084717], [0.6011538505554199, -0.14669641852378845, -0.45046138763427734]], [[-0.2302088737487793, -0.12861590087413788, -0.1962529718875885], [0.011176101863384247, -0.3502637445926666, -0.012522689998149872], [0.042868472635746, 0.3001260459423065, 0.015258981846272945]], [[0.09622197598218918, -0.42147427797317505, 0.723688006401062], [0.1920689046382904, 0.7900978326797485, 0.28198543190956116], [0.6923509240150452, -0.11548877507448196, -0.40263453125953674]], [[-0.008439784869551659, 0.3622835576534271, -0.06197889894247055], [0.2626042664051056, -0.12352274358272552, -0.24626412987709045], [0.36043688654899597, -0.06927662342786789, 0.7838177680969238]], [[0.48228365182876587, -0.6031705141067505, -0.2884628474712372], [-0.6562698483467102, 0.19838665425777435, -0.12488886713981628], [0.0336754135787487, -0.39154165983200073, -0.16304941475391388]], [[0.19724874198436737, 0.19420193135738373, 0.4450990855693817], [-0.11624913662672043, -1.1889933347702026, 0.10877760499715805], [0.21217939257621765, 0.05418971925973892, 0.5551106333732605]], [[0.7083942294120789, 0.12991459667682648, -0.13540051877498627], [-0.1989458054304123, 0.32047587633132935, 0.1316119134426117], [-0.4866914451122284, 0.30727618932724, 0.21248342096805573]], [[0.3479151129722595, 0.2690419554710388, 0.2976810038089752], [0.13090196251869202, -0.6803308725357056, 0.1210004985332489], [-0.4608648419380188, 0.8785873651504517, -0.3403858244419098]], [[-0.04019128903746605, 0.07057832926511765, -0.2109786868095398], [0.12251163274049759, -0.015606836415827274, 0.22365914285182953], [0.9451023936271667, 0.1397295594215393, -0.14333561062812805]], [[0.19175805151462555, -0.050840482115745544, 0.4030936360359192], [0.10772120207548141, 0.1858207881450653, -0.19782526791095734], [0.30170100927352905, -0.057917382568120956, -0.42881152033805847]], [[0.013149326667189598, -0.5314904451370239, 0.5239382386207581], [-0.7242657542228699, 0.0322117879986763, -0.3496031165122986], [0.5894039869308472, -0.4744245707988739, 0.021049341186881065]], [[0.1789008378982544, 0.21468989551067352, 0.14835885167121887], [0.6219923496246338, -0.04615316167473793, 0.47251084446907043], [-0.7833885550498962, 0.2351842075586319, -0.17251159250736237]], [[0.27153149247169495, -0.16438139975070953, 0.05824989825487137], [-0.26153433322906494, 1.576067328453064, 0.31871873140335083], [-1.1106857061386108, 0.24570052325725555, 0.5435619354248047]], [[0.0016133711906149983, -0.578406035900116, -1.7243939638137817], [-0.36479082703590393, -0.026315052062273026, -0.09363197535276413], [-0.2132387012243271, -0.08880088478326797, -0.6463608741760254]], [[-0.07866073399782181, 0.2298506498336792, 0.5051627159118652], [0.11779770255088806, -0.5249112844467163, 0.13538981974124908], [-0.30144158005714417, 0.4739472270011902, 0.37574395537376404]], [[-0.4462607800960541, 0.25546520948410034, 1.5942866802215576], [0.8297457098960876, -0.30484774708747864, 0.45541757345199585], [-0.449245810508728, 0.2934087812900543, -0.7412511706352234]], [[-0.2800118923187256, 0.3155604898929596, -0.8448919057846069], [-0.1597328931093216, 0.2349352091550827, 0.29293930530548096], [-0.055479247123003006, 0.38949474692344666, -0.7301508188247681]], [[0.4471483528614044, 0.1756668984889984, 0.25436919927597046], [-0.13113398849964142, 0.4744589030742645, 0.048157043755054474], [0.13757753372192383, 0.3065350353717804, 0.596431314945221]], [[-0.15439946949481964, 0.3841008245944977, -0.07018105685710907], [-0.39860448241233826, -0.1674383580684662, 0.2514589726924896], [-1.7725566625595093, -0.12384169548749924, -0.17096325755119324]], [[-0.03292126581072807, 0.22920005023479462, 0.3833402693271637], [-0.3915274441242218, 0.11487371474504471, -0.7805608510971069], [0.14145667850971222, -0.6025290489196777, -0.08986440300941467]], [[0.5404253005981445, 0.0464339405298233, -0.768112301826477], [0.5604568123817444, 0.13745562732219696, 1.1532601118087769], [0.9225925803184509, 0.8559598326683044, -1.2413722276687622]], [[-0.1505502462387085, 0.22680899500846863, 0.2027495801448822], [-0.443992018699646, 0.46363863348960876, 0.023163752630352974], [-0.9202851057052612, 0.5173986554145813, -0.3285295367240906]], [[-0.13794203102588654, -0.324746310710907, 0.49010035395622253], [0.05807158723473549, -0.6874063611030579, 0.9024161100387573], [-0.1452607363462448, 0.10980494320392609, 0.39581984281539917]], [[-0.43303412199020386, -0.38699832558631897, -0.27324536442756653], [-0.16224314272403717, -0.5062515139579773, -0.05235855281352997], [-0.48434460163116455, -1.157430648803711, 0.26975536346435547]], [[0.298541784286499, 0.19047190248966217, 0.589608371257782], [0.19271986186504364, 0.5680660605430603, -0.05011281743645668], [0.003259130287915468, -0.4913276731967926, 0.5559470057487488]], [[-0.265909343957901, 0.3448319435119629, -0.6550785303115845], [-0.3860607147216797, -0.8567647337913513, -0.7772790193557739], [-0.5983095765113831, 0.017429344356060028, -0.303840309381485]], [[0.19694636762142181, -0.2706741988658905, -0.2635430097579956], [0.41272199153900146, 0.3752514123916626, 0.13752451539039612], [0.48834431171417236, -0.11025557667016983, -0.10132572799921036]], [[0.4557723104953766, -1.2814428806304932, -0.0015516647836193442], [-0.09930051118135452, -0.7035059928894043, -0.47351494431495667], [0.4850095212459564, -0.5830969214439392, 0.14716273546218872]], [[0.1651500016450882, 0.08687057346105576, 0.2532098591327667], [-0.1283077448606491, 0.6098073720932007, 0.008871665224432945], [0.07375863939523697, -0.14213016629219055, 0.1326056718826294]], [[-0.28958338499069214, -0.20663650333881378, -0.3057899475097656], [-0.5080291628837585, 0.21079865097999573, -0.08961830288171768], [0.23965857923030853, -0.10713580250740051, -0.1825748085975647]], [[0.5195503234863281, 0.5029071569442749, 0.2473311871290207], [-0.20080004632472992, 0.09574752300977707, -0.4523582458496094], [0.13831734657287598, 0.2503446936607361, 0.7264077663421631]], [[0.44098854064941406, -0.11453322321176529, 0.3550644814968109], [-0.24633806943893433, 0.061873551458120346, 0.42086729407310486], [0.38502034544944763, -0.3117796778678894, 0.4505048096179962]], [[-0.3051997423171997, -0.016125043854117393, -0.7152506709098816], [-0.11584602296352386, 0.6174103617668152, 0.26846936345100403], [-0.35104021430015564, 0.3436649739742279, -0.14180652797222137]], [[0.5433589816093445, 0.1879710555076599, -0.05026748403906822], [0.22806520760059357, 0.1645803153514862, -0.4698362648487091], [0.628216028213501, -0.39573556184768677, 0.46908995509147644]], [[0.011861306615173817, -0.04023261368274689, 1.110548973083496], [-0.12641920149326324, 0.4937423765659332, -0.03103405423462391], [1.1166919469833374, -0.8719797730445862, -0.5049182772636414]], [[-0.07693660259246826, 0.29595720767974854, 0.5002974271774292], [-0.0038108292501419783, 0.33554506301879883, -0.5783776044845581], [-0.21890389919281006, -0.807379961013794, -0.5051214098930359]], [[0.011543390341103077, -0.8036119937896729, -0.19689056277275085], [0.22095997631549835, 0.48978057503700256, -0.6544567346572876], [0.022667281329631805, 0.06316320598125458, 0.16227537393569946]], [[-0.03691832348704338, 0.02317938394844532, -0.2347203493118286], [0.44221827387809753, 0.326474130153656, 0.3784700036048889], [-0.9009125232696533, -0.10594707727432251, 0.3548223376274109]], [[0.00019122002413496375, -0.19672180712223053, 0.5262271165847778], [-0.11919842660427094, 0.17476922273635864, -0.9954938888549805], [0.3065270781517029, 0.02697005309164524, -0.07758991420269012]], [[-0.7030943632125854, -0.4474523365497589, 0.005093784537166357], [-0.38305532932281494, -0.6121339797973633, 0.2892913520336151], [0.24698065221309662, 0.2102293074131012, -1.2189761400222778]], [[0.027854008600115776, -0.11755359917879105, -0.514042317867279], [-0.4001963138580322, -0.06359916925430298, -0.4801195561885834], [0.5351806282997131, -0.35057544708251953, -0.1930924952030182]], [[0.1223885715007782, 0.1857493668794632, 0.09458828717470169], [0.012907969765365124, 0.6745848655700684, 0.534328043460846], [-0.5391177535057068, -0.2598018944263458, 0.2836051285266876]], [[0.1395903378725052, -0.5786121487617493, -0.6447404026985168], [-0.859938383102417, -0.3406407833099365, -0.41573160886764526], [0.6319270730018616, -0.10737159848213196, -0.10990215092897415]], [[0.7454748153686523, 0.15456052124500275, -0.2978660762310028], [-0.2428082972764969, 0.0935300812125206, 0.09219032526016235], [-0.4072378873825073, -0.2694360017776489, 0.23535127937793732]], [[-0.14792339503765106, 0.1491222232580185, -0.1741774082183838], [-0.37311437726020813, 0.16687069833278656, 0.2276902198791504], [-1.0105563402175903, 0.027183085680007935, -0.26405298709869385]], [[0.3315480053424835, -0.4203689694404602, 0.17153841257095337], [0.6336232423782349, -0.17717526853084564, 0.11137306690216064], [-0.7627559900283813, -0.06122557818889618, 0.48991990089416504]], [[-0.2238788604736328, -0.06388033926486969, -0.46147415041923523], [0.3971981406211853, -0.035443734377622604, -0.2614988684654236], [0.3325248658657074, -0.1644252985715866, 0.34670591354370117]], [[-0.3033965826034546, 0.4324330985546112, 0.7165467143058777], [0.4446417987346649, 0.6928216218948364, 0.29384398460388184], [0.10353326797485352, -0.43623390793800354, 1.0252443552017212]], [[0.24141229689121246, 0.6550779342651367, -1.8715448379516602], [-0.1577455699443817, 1.0200786590576172, 0.5354069471359253], [0.39124590158462524, -0.10999386757612228, 0.3678588271141052]], [[0.156285360455513, 0.39354628324508667, 0.5194844007492065], [0.12248118966817856, -0.09309375286102295, 0.013344399631023407], [0.08496499806642532, 0.9339486956596375, 0.0762595385313034]], [[0.9456856846809387, 0.7271521091461182, -0.15106986463069916], [-1.0675311088562012, -0.06819029152393341, -0.1122056096792221], [-0.5425066947937012, -0.023565884679555893, 0.5050714015960693]], [[0.04571681097149849, 0.1251302808523178, 0.227437362074852], [0.37764737010002136, 0.5612586140632629, -0.4261082708835602], [0.018432099372148514, 0.25798818469047546, -0.36281558871269226]], [[0.1900220662355423, 0.11781760305166245, -0.09504609555006027], [-0.7196555137634277, 0.12754976749420166, -0.3267633020877838], [-0.09182628989219666, -0.006468259729444981, 0.7475845217704773]], [[-0.35270875692367554, 0.22591638565063477, 0.8241745829582214], [0.2811630964279175, 0.14767399430274963, -0.3511718809604645], [0.6235553026199341, -0.39637061953544617, 0.3064195513725281]], [[-0.0955919548869133, -0.18090003728866577, 0.13730652630329132], [-0.42468878626823425, 0.5012598633766174, 0.4742812514305115], [-0.3316301107406616, -0.10113238543272018, -0.810862123966217]], [[-0.2820311486721039, -0.10564296692609787, 0.5833225846290588], [-0.06544697284698486, 0.10150321573019028, -0.3199155926704407], [0.28142064809799194, 0.0454881489276886, 0.009632592089474201]], [[0.260938435792923, 0.02074575610458851, -0.3940971791744232], [-0.47415414452552795, 0.3484501242637634, -0.07768788188695908], [-0.23996061086654663, -0.0017942540580406785, -0.5372272729873657]], [[0.7461413145065308, 0.22996903955936432, -0.6249968409538269], [0.6143436431884766, 0.4696779251098633, -0.1551818698644638], [-0.2703516185283661, -0.171889066696167, -0.6607486605644226]]], [[[-1.374653935432434, -0.0538150854408741, 0.33644917607307434], [-0.147877037525177, 0.527464747428894, 0.30350643396377563], [0.6499530673027039, 0.16252438724040985, 0.11815028637647629]], [[-0.2403782457113266, -0.14189419150352478, -0.26493796706199646], [0.17990443110466003, 0.6286348700523376, -0.7211386561393738], [-0.12815512716770172, -0.13294543325901031, 0.03282450512051582]], [[0.08392004668712616, 0.36186549067497253, 0.03698958456516266], [-0.3455166518688202, -0.6447385549545288, -0.152555912733078], [0.6982947587966919, -0.34689217805862427, -0.5144087076187134]], [[0.6692103743553162, -0.45756325125694275, 0.20708763599395752], [0.02811157889664173, -0.8041496276855469, 0.5757681727409363], [-0.7338170409202576, 0.015524698421359062, -0.04186569154262543]], [[0.31403017044067383, 0.0475495345890522, 0.13329826295375824], [0.08739318698644638, -0.37203192710876465, 0.4244617819786072], [0.5577212572097778, -0.737634003162384, 0.04051867499947548]], [[-0.5176170468330383, -0.14283394813537598, 0.030602991580963135], [-0.09770402312278748, -0.523106575012207, 0.0695369690656662], [-0.20481792092323303, -0.10131990909576416, -0.01667366921901703]], [[0.16327647864818573, 0.0403086356818676, -0.6890048980712891], [0.27245238423347473, 0.038247108459472656, 0.07657257467508316], [0.4589237868785858, -0.7602986693382263, 0.11333752423524857]], [[0.7120051980018616, 0.2925634980201721, 0.26619961857795715], [0.04926774278283119, 0.012416690587997437, -0.5607407093048096], [-0.03558675944805145, -0.09395042061805725, -0.22232916951179504]], [[-0.5202524065971375, 0.17074114084243774, -0.1380791962146759], [0.15700657665729523, 1.0215569734573364, 0.19948071241378784], [-0.6638142466545105, 0.4087638258934021, 0.11586225777864456]], [[-0.07384370267391205, 0.6124707460403442, -0.1785188764333725], [0.3652905523777008, -0.1261858195066452, 0.3754355311393738], [0.2447570413351059, -0.44075945019721985, 0.34167808294296265]], [[0.403115451335907, 0.0360705740749836, 0.035980790853500366], [0.8425130248069763, -0.9584167003631592, -1.1160672903060913], [-0.04281245917081833, 0.44677576422691345, 0.14457014203071594]], [[-0.15342456102371216, 0.2299983948469162, 0.3144453167915344], [-0.005759331397712231, 0.9419816136360168, -0.24501273036003113], [0.08049643784761429, -0.8403083086013794, -0.47416558861732483]], [[0.48073631525039673, 0.4399486184120178, -0.6129839420318604], [0.16428029537200928, 0.5116153359413147, 0.8599050045013428], [-0.37482959032058716, -0.23096279799938202, 0.42910170555114746]], [[0.15010897815227509, -0.6110960245132446, 0.5744206309318542], [0.12806124985218048, -0.12461955845355988, -0.4726991355419159], [-0.16639013588428497, -0.2021542489528656, 0.561288595199585]], [[0.20175662636756897, 0.016515715047717094, 0.1007610410451889], [-0.027300547808408737, -0.06098863109946251, -0.03027181699872017], [-0.45878973603248596, -0.28278952836990356, 0.6164454221725464]], [[-0.7695865631103516, 0.6262207627296448, -0.048382505774497986], [0.18804596364498138, 0.7535789012908936, -0.42828747630119324], [-0.16941286623477936, -1.237778902053833, -0.04009793698787689]], [[0.16273002326488495, 0.54642653465271, 0.6586094498634338], [-0.07708802819252014, 0.7660643458366394, -0.26817750930786133], [0.24387933313846588, -0.29958391189575195, -0.031103970482945442]], [[-0.2241990864276886, -0.31706172227859497, 0.0584556981921196], [-0.4798625111579895, -0.23488694429397583, 0.2749716639518738], [-0.24344895780086517, 0.18705730140209198, -0.36218202114105225]], [[-0.5771615505218506, 0.40268024802207947, 0.9328697323799133], [-1.4244879484176636, -0.33403050899505615, 0.555487334728241], [0.7401856184005737, 0.4748872220516205, 0.1594838947057724]], [[0.5192311406135559, -0.14508302509784698, 0.5814085006713867], [-0.4691074788570404, 0.14693601429462433, -0.02816983126103878], [0.3987974524497986, -0.5814892053604126, -0.7910550832748413]], [[0.8842763900756836, -0.0945177674293518, -0.08482489734888077], [-0.6746480464935303, 0.011416749097406864, 0.6249246597290039], [-0.8848984241485596, 0.19740112125873566, -0.5281569957733154]], [[-0.44694679975509644, -0.3050616383552551, -0.744201123714447], [0.25214526057243347, -0.3709200918674469, 0.14298520982265472], [-0.550386369228363, 0.4788181185722351, 0.5611809492111206]], [[-0.1943841129541397, -0.27511927485466003, -0.1519743800163269], [0.40675121545791626, 0.28779128193855286, -0.7319799065589905], [0.2032177448272705, -0.3022371530532837, -0.43028008937835693]], [[-0.6350261569023132, 0.13385120034217834, 0.3486412763595581], [-0.3707207441329956, -0.0012971691321581602, 0.12764838337898254], [0.06700702756643295, 0.13798274099826813, -0.7060558199882507]], [[0.691490888595581, 0.2030816227197647, -0.39122670888900757], [0.09944017976522446, 0.16304606199264526, -0.4053129553794861], [-0.6583343744277954, 0.14316987991333008, 0.2710864543914795]], [[0.21070267260074615, 0.6106363534927368, 0.11700770258903503], [-0.2083791196346283, 0.46798431873321533, -0.6330604553222656], [0.32838600873947144, 0.398585706949234, 0.19112657010555267]], [[-0.44888487458229065, 0.3146609663963318, -0.36963868141174316], [-0.15154437720775604, 0.39506274461746216, 0.2203519344329834], [-0.12995731830596924, -0.4326786398887634, -0.23915913701057434]], [[0.6905343532562256, -0.048307519406080246, 0.008044453337788582], [-0.33395522832870483, 0.23337103426456451, -0.32233336567878723], [0.02150099165737629, -0.4076084494590759, 0.08697216957807541]], [[-0.6269684433937073, 0.21705760061740875, -0.046342696994543076], [-0.39020538330078125, -1.399950385093689, -0.2743099629878998], [0.052804943174123764, 0.6782649755477905, 0.5550302863121033]], [[0.05243845283985138, 0.2662442922592163, 0.43261584639549255], [-0.6172712445259094, 0.3083394467830658, -0.20654429495334625], [0.2925460636615753, -0.22083745896816254, -0.20551666617393494]], [[0.1844320446252823, -0.3672330379486084, 0.7307929992675781], [-0.29644811153411865, -0.16190598905086517, -0.37444430589675903], [-0.06181974336504936, 0.5647850036621094, -0.0708373486995697]], [[0.12572307884693146, -0.5125887393951416, 0.062415990978479385], [0.06194203346967697, 0.7012337446212769, -1.1950021982192993], [-0.01034057792276144, -0.25137409567832947, 0.017667053267359734]], [[0.09867315739393234, -0.24841393530368805, -0.3995327353477478], [0.07983019948005676, -0.2585577666759491, -0.31042924523353577], [0.7808744311332703, 0.4746389389038086, 0.2717592418193817]], [[0.06429409980773926, -0.16638445854187012, -0.5621110796928406], [-0.3073825240135193, -0.11593253910541534, 0.11118712276220322], [1.0016183853149414, -0.23487220704555511, -0.5044260621070862]], [[0.695014476776123, 0.10827493667602539, 0.20826013386249542], [-0.10512542724609375, -0.8810834884643555, -0.45325347781181335], [0.03017204999923706, 0.024075785651803017, -0.1776527762413025]], [[0.22048088908195496, -0.20375536382198334, 0.018914885818958282], [-0.8887239098548889, 0.1266455352306366, 0.0079294228926301], [-0.62442547082901, -0.8218369483947754, -0.30197349190711975]], [[-0.35997116565704346, -0.11050345748662949, -0.24519076943397522], [-0.04307543858885765, -0.7132775187492371, -0.34174615144729614], [1.2180835008621216, -0.12115279585123062, 0.36236733198165894]], [[-0.19450365006923676, 0.5970358848571777, -0.5303812623023987], [0.12137266248464584, 0.03504648432135582, -0.3310490846633911], [-0.9348294734954834, 0.8528532385826111, 0.155885249376297]], [[0.21161659061908722, -0.2323373705148697, 0.21198883652687073], [0.5860641598701477, 0.18363842368125916, 0.03810671344399452], [0.3724325895309448, 0.6835519671440125, 0.588792085647583]], [[-0.3910806477069855, -0.7099583148956299, 0.5790270566940308], [0.19846932590007782, -0.41842764616012573, 0.26873093843460083], [0.10437899082899094, -0.1021343246102333, 0.4084046483039856]], [[1.0051695108413696, 0.0792822390794754, 0.060210324823856354], [-0.007088419049978256, 0.4315681755542755, -0.5880604982376099], [0.1359390765428543, 0.40450260043144226, -0.21882884204387665]], [[0.6692821383476257, -0.262927383184433, -1.4185972213745117], [0.6134247779846191, 0.06399628520011902, -0.6669211983680725], [0.44376248121261597, -0.4559134542942047, -0.9568588733673096]], [[0.4752032458782196, -0.45008838176727295, 0.9519898891448975], [-0.7069584727287292, 0.6215574145317078, 0.1312277615070343], [-0.5545782446861267, 0.36993008852005005, 0.8574767708778381]], [[-0.06750955432653427, 1.2375134229660034, 0.3462783992290497], [-0.5308641195297241, 0.40559840202331543, 0.680444061756134], [-0.29685962200164795, -0.12641924619674683, -0.39234617352485657]], [[-0.20758622884750366, 0.3890313506126404, -0.11633307486772537], [-0.40097251534461975, -0.17727692425251007, 0.6284882426261902], [-0.05038824304938316, -0.4732862114906311, -0.158926859498024]], [[-0.11986599862575531, -0.5370527505874634, -0.6359501481056213], [-0.818846583366394, 0.04090617224574089, -0.23072509467601776], [-1.2412147521972656, -0.45870962738990784, 0.16714239120483398]], [[-0.0018678982742130756, -0.48364555835723877, -0.7251152992248535], [-0.008437249809503555, 0.012075730599462986, -0.5285431146621704], [0.7058510780334473, 0.13567085564136505, -0.732705295085907]], [[0.44599995017051697, -0.5842452049255371, 0.10784048587083817], [-0.0630217045545578, -0.20944665372371674, 0.37127524614334106], [-1.0849528312683105, 0.09013023972511292, -0.20947915315628052]], [[0.5317890644073486, -0.0074677849188447, 0.22320860624313354], [-0.8203590512275696, 0.4245604872703552, -1.0587501525878906], [0.06071505695581436, 0.48191317915916443, -0.3414337635040283]], [[-0.3428070843219757, -0.337032288312912, -0.1658269166946411], [-0.3707873821258545, -0.07154952734708786, -0.8758924007415771], [0.334798663854599, 0.35910874605178833, -0.13606439530849457]], [[0.3085401952266693, 0.42133814096450806, 0.1443357914686203], [-1.0488044023513794, 0.3420800268650055, -0.3954681158065796], [0.6873900890350342, 0.30818742513656616, 0.7348266839981079]], [[-0.14474312961101532, -0.14800797402858734, 0.07455834001302719], [-0.3695647120475769, 0.0019630237948149443, -0.3846336901187897], [0.133102685213089, -0.38349226117134094, -0.9746081829071045]], [[-0.32177361845970154, -0.3812936246395111, -0.11220680922269821], [0.5296759009361267, -0.2004265934228897, -0.5752094984054565], [0.08105418086051941, -0.16295453906059265, -0.9058693647384644]], [[0.13556751608848572, -0.13619370758533478, 0.21213464438915253], [-0.7777770161628723, 0.04115869477391243, 0.2809782028198242], [-0.003617151640355587, 0.39173710346221924, -0.5205077528953552]], [[-0.04327200725674629, 0.38415780663490295, 0.2129470258951187], [0.09492279589176178, -0.31049609184265137, 0.24147672951221466], [-0.6207531094551086, 0.18371525406837463, 0.02480025589466095]], [[-0.17863324284553528, -0.06798791885375977, 0.7882673144340515], [0.35445958375930786, 0.2752704620361328, -0.14053241908550262], [0.27487266063690186, -1.2985862493515015, -0.34796780347824097]], [[0.3523350954055786, -0.15195052325725555, 0.6089390516281128], [-0.9500755667686462, -0.5460493564605713, -0.4179425835609436], [-1.20381760597229, 0.7905957102775574, 0.24866314232349396]], [[0.5264648795127869, -0.22045844793319702, -0.7957404851913452], [0.07204203307628632, 0.2714688777923584, 0.4317452311515808], [-1.0037527084350586, 0.5493415594100952, -0.15301816165447235]], [[0.2912294268608093, 0.14626020193099976, 0.2806362211704254], [-0.44314032793045044, 0.06660175323486328, -0.4701473116874695], [0.11376061290502548, -0.099565789103508, -1.2004519701004028]], [[0.30875685811042786, -0.006348454859107733, -0.7058447599411011], [-0.4729215204715729, 0.46438685059547424, -0.14957991242408752], [-0.3129763901233673, -0.546373188495636, 0.28075411915779114]], [[-0.5751088261604309, 0.16324180364608765, 0.2457139492034912], [0.509525716304779, 0.09423121064901352, -0.6030781865119934], [-0.39351052045822144, -0.3789308965206146, -0.19588685035705566]], [[-1.324304223060608, -0.3679778277873993, 0.488249808549881], [-0.21781063079833984, 0.39188992977142334, -0.37942302227020264], [0.07679340988397598, -0.06220769137144089, 0.3653038740158081]], [[-0.24266234040260315, 0.7124402523040771, 0.246210977435112], [0.9043664336204529, -0.2292565256357193, -0.4758510887622833], [-0.27814722061157227, 0.6705624461174011, 0.47323957085609436]], [[-0.9637905955314636, 0.0071266996674239635, 0.25323358178138733], [-0.7888098359107971, 0.06037040427327156, -0.2948654890060425], [-0.6836261749267578, -0.28618112206459045, -0.6978173851966858]]], [[[0.18574582040309906, 0.25779736042022705, -0.4647403061389923], [-0.08180564641952515, 0.7926908135414124, 0.13133327662944794], [-0.31377899646759033, 0.2048773616552353, -0.9837020635604858]], [[-0.1082758828997612, 0.24678100645542145, -0.06734229624271393], [-0.35153496265411377, 1.1221665143966675, -0.5055187940597534], [-0.22877630591392517, -0.45005670189857483, -0.17301639914512634]], [[-0.5659546852111816, 0.6149796843528748, 0.09375807642936707], [-0.5268796682357788, -0.21888823807239532, 0.8391973972320557], [-1.94288170337677, -0.17654486000537872, -0.5730982422828674]], [[0.2112969309091568, 0.3419167697429657, 0.3993808925151825], [0.06365667283535004, 0.4482811987400055, 0.6963664889335632], [0.6418564915657043, -0.47084683179855347, -0.2555713653564453]], [[0.24144354462623596, -0.2795238792896271, -0.1435796171426773], [-0.6740007400512695, -0.08508694171905518, -0.8568658232688904], [0.4882258176803589, 0.03667914494872093, -0.35550931096076965]], [[0.07911665737628937, -0.7729492783546448, -0.2386096566915512], [0.29266077280044556, -0.2286100536584854, -0.5679923892021179], [-0.49197956919670105, -0.2835029363632202, -0.2809610068798065]], [[0.014276131987571716, 0.39635583758354187, -0.29064488410949707], [-0.01026194915175438, 0.2151036560535431, 0.017759716138243675], [0.8434092998504639, 0.43765756487846375, -0.7009421586990356]], [[-0.8054741621017456, 0.7860745787620544, 0.8710911273956299], [0.1468690037727356, 0.20390133559703827, 0.10563251376152039], [-0.16784437000751495, -0.2859548032283783, 0.46148183941841125]], [[0.4465627670288086, -0.42417111992836, 0.1106249988079071], [-0.1912485808134079, 0.18297605216503143, -0.7126023173332214], [-0.55072420835495, 0.252615362405777, 0.7767128348350525]], [[0.22636523842811584, -0.024679429829120636, 0.39274847507476807], [-0.4170955717563629, -0.14759622514247894, 0.7263826727867126], [0.13771864771842957, 0.2049298733472824, -0.48772042989730835]], [[0.36554938554763794, 0.3818703889846802, -0.20014788210391998], [0.6584657430648804, 0.6826523542404175, 0.2737436890602112], [-0.49502289295196533, 0.0854717418551445, -0.4644065499305725]], [[0.11633908003568649, -0.11484504491090775, 0.33764955401420593], [-0.44735783338546753, -0.19966351985931396, -0.65415358543396], [-0.9875985383987427, -0.8297969102859497, -0.4194923937320709]], [[-0.5955182909965515, 0.4332199990749359, 0.13534733653068542], [-0.031286101788282394, 0.44576406478881836, 0.37261679768562317], [0.07087509334087372, 0.4692568778991699, -0.8609297871589661]], [[-0.20196564495563507, -0.0928475633263588, -0.08183903992176056], [0.06032402068376541, 0.640837550163269, -0.39158403873443604], [-0.9552172422409058, -0.1539275050163269, 0.30106955766677856]], [[-0.1393284648656845, 0.676030695438385, -0.07008007168769836], [-0.7861056327819824, -0.5402001142501831, -0.2763575315475464], [0.12056145817041397, -0.23912794888019562, -0.29888731241226196]], [[-0.04738617688417435, -0.30261027812957764, -0.2032989114522934], [0.03887877240777016, -0.011465917341411114, -0.2994198501110077], [-0.11322606354951859, 0.07113928347826004, 0.4127214550971985]], [[-0.5618331432342529, -0.3600766956806183, -0.13383980095386505], [0.20717959105968475, -0.1328173577785492, 0.5612942576408386], [-0.18604664504528046, -0.3381114602088928, -0.3526453375816345]], [[0.5743169188499451, 0.592308521270752, -0.681904137134552], [0.311169296503067, 0.12961699068546295, 0.010082641616463661], [0.6864778399467468, 0.26857492327690125, -0.2318844199180603]], [[0.08181505650281906, -0.42106422781944275, 0.3471611440181732], [-0.14061219990253448, -0.27557167410850525, -0.18897391855716705], [-0.3938673436641693, -0.060739774256944656, -0.46599727869033813]], [[-0.2344498485326767, 0.3948785662651062, -0.0962940901517868], [0.3451606333255768, 0.32533547282218933, 0.1413169503211975], [0.3321523666381836, 0.12240658700466156, -0.562431275844574]], [[0.015894155949354172, -0.19150559604167938, -0.39461490511894226], [-0.7967696189880371, 0.6347953677177429, 0.06757553666830063], [-0.34131234884262085, 0.046907342970371246, 0.11867715418338776]], [[0.9554311037063599, -0.7695913910865784, -0.24167539179325104], [0.3663821518421173, 0.1290750801563263, 0.4507242739200592], [0.10708276927471161, -0.187205508351326, 0.22207225859165192]], [[0.4692060649394989, 0.09095727652311325, -0.09343748539686203], [-0.0009371742489747703, 0.22853440046310425, 0.8932248950004578], [0.7468279004096985, -0.0052154348231852055, -0.2621539235115051]], [[0.47035151720046997, 0.14850130677223206, 0.45101213455200195], [0.44461899995803833, -0.12222474068403244, 0.5178508162498474], [-0.18412329256534576, -0.7959903478622437, -1.5703673362731934]], [[0.28640034794807434, 0.6045946478843689, -0.440738320350647], [0.4969823360443115, -0.4292728900909424, 0.5294407606124878], [0.3297980725765228, 0.5383551120758057, -0.40210482478141785]], [[-0.07826484739780426, -0.14150047302246094, 0.17594490945339203], [-0.25158074498176575, 0.04316415265202522, 0.10005626082420349], [-0.4428626298904419, -0.19324727356433868, 0.41905394196510315]], [[0.11437980830669403, 0.4449823200702667, -0.011029854416847229], [0.21578152477741241, -0.3340250253677368, 0.4348207116127014], [-0.4270893633365631, 0.3090516924858093, -0.28497040271759033]], [[-0.05547486990690231, 0.7101401686668396, 0.039900895208120346], [0.19140413403511047, -0.010937731713056564, 0.009376837871968746], [-0.478237122297287, -0.18190139532089233, -0.08373862504959106]], [[-0.6324668526649475, 0.18523730337619781, -0.31161755323410034], [-0.7547279000282288, -0.5107530355453491, -0.3183104395866394], [-0.0472981296479702, -0.45670050382614136, -0.2236645370721817]], [[0.8878539204597473, -0.6059542894363403, -0.324940025806427], [-0.3283538222312927, -0.7703943252563477, -0.6992114186286926], [0.7797818779945374, 0.23028913140296936, 0.13216501474380493]], [[0.6992055773735046, -0.5490269064903259, -0.44420626759529114], [0.12278063595294952, -0.32363253831863403, 0.12861710786819458], [-0.4735450744628906, -0.009654683992266655, 0.5396538376808167]], [[0.29471826553344727, 0.09858004748821259, -0.8215286135673523], [0.5043946504592896, 0.41947996616363525, 0.45675185322761536], [0.17415142059326172, 0.6769310235977173, -0.22865436971187592]], [[-0.18553532660007477, 0.0928395465016365, -0.0398896299302578], [-0.2675012946128845, -0.3766915202140808, -0.5082785487174988], [-0.4349975287914276, -0.7869638204574585, 0.4299367666244507]], [[0.8209866881370544, 0.2464810311794281, -1.0648707151412964], [-0.5611141920089722, -0.14479927718639374, 0.33641889691352844], [-0.29275697469711304, 0.7959733605384827, -0.15340283513069153]], [[-0.5122816562652588, 0.5888782143592834, 0.4204804599285126], [-0.48842254281044006, 0.38551536202430725, 0.09732402861118317], [-0.03400145843625069, -0.6529124975204468, 0.39903631806373596]], [[-0.3825274705886841, 0.33682382106781006, -0.16323907673358917], [0.5283392667770386, -0.07518966495990753, -0.05447229743003845], [0.7808904051780701, -0.7823137044906616, -0.12376666069030762]], [[0.0392756350338459, -0.10502897202968597, 0.13718244433403015], [-0.4451701045036316, 0.31186217069625854, -0.3896305561065674], [0.8174236416816711, 0.05584610626101494, 0.34708452224731445]], [[-0.9842645525932312, 0.25768038630485535, -0.35467907786369324], [-0.5980335474014282, -0.07455257326364517, -0.12998276948928833], [-0.7930971384048462, -0.009820612147450447, 0.7031580209732056]], [[-0.1707673817873001, -0.12441050261259079, -0.09027518332004547], [-0.5496140122413635, -0.12799547612667084, 0.12258786708116531], [-0.23136278986930847, 0.36187809705734253, -0.37645602226257324]], [[0.6641595363616943, -0.23544923961162567, 0.1736549735069275], [-0.29826071858406067, -0.35666754841804504, -0.383334755897522], [-0.2872331440448761, 1.0451617240905762, 0.43315422534942627]], [[-1.0638036727905273, -0.6914565563201904, 0.4381124973297119], [0.3951573073863983, -0.004172773100435734, 0.6276288032531738], [0.3952453136444092, -0.07680550217628479, 0.05350513383746147]], [[-0.20477831363677979, 0.26470673084259033, 0.5883769989013672], [-0.39233094453811646, -0.5941281318664551, -0.16505883634090424], [-1.2211534976959229, 0.19100511074066162, 0.31274935603141785]], [[0.12129954248666763, 0.3836890161037445, -0.8549997210502625], [0.40633076429367065, 0.7827144265174866, -0.7265859246253967], [0.8053752779960632, 0.02745698019862175, -1.0404103994369507]], [[0.08322831243276596, -0.12098245322704315, -0.6423232555389404], [0.22205956280231476, -0.7270750999450684, 0.20915155112743378], [0.2044500857591629, 0.4437338709831238, 0.2849237322807312]], [[-0.6410775184631348, 0.2835773825645447, 0.09540609270334244], [0.39163029193878174, -0.3588894009590149, 0.1474430412054062], [-0.8612903356552124, -0.3130168914794922, 0.6472482085227966]], [[0.48566725850105286, 0.22413691878318787, 0.2700382173061371], [-0.16861726343631744, 0.5576602816581726, 0.504732608795166], [-0.9478258490562439, -0.6093709468841553, -0.7940045595169067]], [[-0.13987410068511963, -0.22819405794143677, 0.24757792055606842], [-0.3013259768486023, -0.37264305353164673, -0.17149749398231506], [0.793659508228302, -0.2595767378807068, 0.3084028959274292]], [[-0.01760583184659481, -0.09758757799863815, 1.0078436136245728], [-0.9606391191482544, 0.6088971495628357, -0.5792496204376221], [-0.6477068662643433, -1.111379623413086, 0.1596972495317459]], [[0.3546626567840576, -0.48130732774734497, 0.21253490447998047], [-0.8781899809837341, 0.0666208416223526, -0.5681752562522888], [-0.6383972764015198, -0.3153587579727173, -0.06505388021469116]], [[0.6774740815162659, -0.8319294452667236, -0.44407618045806885], [-0.6427227258682251, 0.08131559938192368, 0.45895031094551086], [0.5939256548881531, -0.2668015658855438, -0.6248024106025696]], [[0.10869486629962921, 0.3127422630786896, -0.0371713861823082], [-0.190513476729393, 0.43836402893066406, 0.9047949910163879], [-0.6462615132331848, 0.5663595199584961, 0.47078239917755127]], [[0.15358349680900574, 0.2547036111354828, 0.5189409852027893], [-0.038676660507917404, 0.09799189865589142, 0.47820475697517395], [-0.01826523430645466, -0.0700007900595665, 0.7283340692520142]], [[0.1022065058350563, -0.34470808506011963, -0.4208129048347473], [0.2952965795993805, 0.38858503103256226, -1.099045753479004], [-0.8552244901657104, 0.051898643374443054, -0.052490632981061935]], [[-0.31118085980415344, -0.1878882646560669, 0.4828830361366272], [-0.8297666907310486, -1.2200874090194702, -0.41095882654190063], [0.054621752351522446, 0.25120818614959717, 0.6333479881286621]], [[-0.45225659012794495, -0.08780063688755035, -0.4001046419143677], [-0.42490240931510925, -0.02229163609445095, 0.8264429569244385], [0.03594597056508064, 0.13200931251049042, 0.47620806097984314]], [[0.5162355303764343, -0.3131016194820404, 0.7755944132804871], [0.02811436541378498, -1.2266584634780884, -0.21930351853370667], [-1.1002354621887207, -1.051820158958435, -0.18015238642692566]], [[0.15168344974517822, 0.38383087515830994, -0.5392009019851685], [1.1227394342422485, -0.34596216678619385, -0.5135411024093628], [-0.9844209551811218, 0.003316148417070508, -0.36538276076316833]], [[0.16149365901947021, -0.1851268708705902, -0.15120461583137512], [0.6418365836143494, -0.09665859490633011, -0.3523598909378052], [0.38556015491485596, -0.3096395432949066, -0.40789785981178284]], [[-0.04787084460258484, -0.8152772188186646, 0.037014398723840714], [0.05699600279331207, -0.1471911370754242, -0.21808123588562012], [-0.18665838241577148, 0.5937947034835815, 0.3718155026435852]], [[0.7615400552749634, 0.9058103561401367, 0.4917527437210083], [-0.04658913612365723, -0.5184380412101746, 0.24267084896564484], [0.5113130807876587, -0.10877145826816559, -0.3380647599697113]], [[0.3690463900566101, -0.04658951610326767, 0.9047403335571289], [-0.2915754020214081, 0.2720242142677307, 0.4405340850353241], [0.0564061738550663, -0.07031058520078659, 0.3018559515476227]], [[0.2664685547351837, 0.09149344265460968, 0.587145209312439], [0.08875177055597305, 0.10464069247245789, 0.1091756746172905], [0.5124582052230835, 0.24397297203540802, -0.513805091381073]], [[0.3184483051300049, -0.8167341351509094, 0.6232468485832214], [0.18081142008304596, 0.15310068428516388, 0.18425963819026947], [-0.1283828616142273, 0.8491992950439453, -0.08078186959028244]], [[0.0757860392332077, 0.06905113905668259, 0.21521605551242828], [0.6041269898414612, 0.028553755953907967, 0.7911766171455383], [-0.3893316090106964, -0.026944393292069435, 0.6865097284317017]]], [[[-0.01905793882906437, 0.38425320386886597, 0.7070862650871277], [0.3363417088985443, -0.3567131459712982, 0.013731449842453003], [-0.4053027033805847, 0.02658054046332836, -0.3512105345726013]], [[0.37504780292510986, -0.340038925409317, -0.08447049558162689], [-1.702333927154541, 0.07165875285863876, 0.43153345584869385], [-0.5068013668060303, 0.8593379259109497, -0.8825274705886841]], [[-0.4686829149723053, -0.19596154987812042, -0.11714477837085724], [-0.8798596858978271, 0.6214362978935242, 0.07498134672641754], [-0.4426861107349396, 0.07317965477705002, -1.2058136463165283]], [[-0.2219620645046234, -0.10811974853277206, 0.10798972845077515], [-0.35015639662742615, -0.08033762127161026, -0.01252067182213068], [0.38610202074050903, 0.3531780242919922, 0.3063691258430481]], [[-0.07226962596178055, -0.5691322088241577, -0.17652514576911926], [0.4811338186264038, 0.06606656312942505, 0.5188228487968445], [0.6500827074050903, 0.04472339153289795, 0.03507168963551521]], [[0.8650797009468079, 0.27996760606765747, -0.5859114527702332], [0.42039135098457336, 0.6059359908103943, -0.2623516321182251], [-0.667388916015625, -0.37525978684425354, 0.32945218682289124]], [[-0.15859441459178925, -0.2693306803703308, -0.35993820428848267], [0.0964246615767479, -0.13503658771514893, 0.21600264310836792], [-0.06536684930324554, -0.15626160800457, 0.014243705198168755]], [[-0.9597958922386169, 0.5400505065917969, -0.3693441152572632], [0.336311012506485, -0.7249950766563416, -0.2908540964126587], [-0.12164856493473053, 0.10506193339824677, 0.5200850367546082]], [[0.2655450701713562, -0.4256901741027832, 0.17106544971466064], [-0.11971465498209, -0.4641711413860321, 0.23657457530498505], [-1.0079796314239502, -1.4992611408233643, 0.40828460454940796]], [[0.25638607144355774, -1.0619001388549805, -0.7894579768180847], [0.18577158451080322, -0.21372097730636597, 0.23100042343139648], [0.8836030960083008, -0.4802437424659729, 0.20854529738426208]], [[0.09218122065067291, -0.04991447553038597, -0.24113377928733826], [-0.38364413380622864, -0.5039775371551514, 0.41647201776504517], [0.1249796450138092, 0.22289183735847473, -0.7574262022972107]], [[0.8709758520126343, 0.058736104518175125, 0.4725193977355957], [-0.12302651256322861, 0.3589298725128174, 0.43714556097984314], [0.19893686473369598, 0.3920908272266388, 0.2721872925758362]], [[-0.10213696211576462, -0.9476121664047241, -0.20472343266010284], [-0.18342195451259613, 0.01675689034163952, -0.02039818838238716], [-0.1681167483329773, 0.0961633175611496, 0.01620437763631344]], [[0.9967637658119202, 0.06095147505402565, -0.8831840753555298], [-0.5675970911979675, 0.01633341796696186, -0.3359695374965668], [-0.4920434057712555, 0.7631147503852844, 0.3920413851737976]], [[0.521267294883728, -0.120555080473423, -0.004147576168179512], [0.1568327248096466, 0.16713543236255646, -0.7194828391075134], [-0.4601499140262604, 0.2899443209171295, -0.04864458739757538]], [[0.09637508541345596, -0.12792903184890747, -0.04827161878347397], [-0.05772995948791504, 0.8714635968208313, 0.4146995544433594], [-0.36973217129707336, -0.1205802783370018, -0.5925164818763733]], [[-0.45300745964050293, -0.7425389289855957, 0.504591166973114], [0.664512038230896, 0.047901663929224014, 0.339130699634552], [-0.2600700259208679, 0.34207794070243835, -0.025787808001041412]], [[-0.06523534655570984, -0.011041730642318726, 0.4480740427970886], [-0.14408332109451294, 0.45357319712638855, -0.20188501477241516], [1.095777153968811, 0.3153034448623657, -0.3216957151889801]], [[0.2656947076320648, -0.30947357416152954, 0.2959427833557129], [-0.2754509747028351, -0.6631085872650146, -0.8121017813682556], [-0.45722368359565735, -0.5317307114601135, 0.6209542155265808]], [[-0.11522825807332993, 0.13448482751846313, -0.21983212232589722], [0.5762069821357727, -0.524835467338562, -0.47511279582977295], [-1.005454659461975, 0.7635617852210999, 0.09387911856174469]], [[-0.056548457592725754, -1.0555142164230347, -0.9532363414764404], [-0.26357173919677734, -0.03683362901210785, 0.40599799156188965], [-0.21267887949943542, -0.21848799288272858, -0.020247604697942734]], [[0.5387684106826782, 0.48950040340423584, 0.2101241946220398], [-0.6980273723602295, -0.0014528166502714157, 0.23648662865161896], [-0.3200826644897461, -0.0008991492795757949, 0.14304186403751373]], [[-0.23102399706840515, -0.4301642179489136, 0.5917850136756897], [0.20385681092739105, -0.0720428079366684, -1.0055114030838013], [-0.02248285710811615, 0.2659114897251129, 0.014675876125693321]], [[-0.2099115401506424, 0.6252003312110901, -0.0388980433344841], [0.5490526556968689, 0.20500586926937103, -0.16813482344150543], [-0.08775176852941513, 0.40112924575805664, -0.3140272796154022]], [[0.5951189994812012, -0.45795655250549316, -0.636475145816803], [0.5786663889884949, 0.21687310934066772, 0.1521066427230835], [-0.8585615754127502, 0.2928153872489929, -0.07928316295146942]], [[-1.1265666484832764, -0.40432822704315186, 0.49279507994651794], [-0.028742142021656036, -0.4261194169521332, 0.6981444954872131], [-0.5426722764968872, -0.5695611238479614, -0.5207849740982056]], [[-0.39015334844589233, -0.12375646829605103, 0.4732629060745239], [0.4441724419593811, 0.1611776351928711, -0.07434240728616714], [0.0575406439602375, -0.5969820022583008, -0.10949093848466873]], [[0.4568980932235718, -0.16694457828998566, -0.5775388479232788], [-0.29608067870140076, -0.1124395802617073, 0.35005027055740356], [0.25906801223754883, -0.082237608730793, 0.2435092329978943]], [[-0.00849852804094553, -0.4330337345600128, -0.32367998361587524], [-0.7016023993492126, 0.47982585430145264, -0.627269983291626], [-0.12284167855978012, -0.6108949780464172, -0.2648276090621948]], [[-0.1851724237203598, -0.15688523650169373, -0.7750488519668579], [0.24224747717380524, -0.4859098792076111, 0.36469557881355286], [-0.5491746664047241, -0.18365474045276642, 0.906335175037384]], [[0.17911775410175323, -0.5043113827705383, -0.4028049409389496], [0.3204834461212158, -0.11267143487930298, -0.2522749900817871], [0.005263440310955048, 1.0431408882141113, -0.39779821038246155]], [[0.00701259495690465, -0.6693233251571655, -0.29385894536972046], [-0.1755182296037674, 0.09850601851940155, -0.9348990321159363], [0.48911982774734497, 0.5043264627456665, -0.599372923374176]], [[-0.10115905106067657, -0.28782230615615845, 0.5489026308059692], [0.09596343338489532, -0.727640688419342, -0.25712597370147705], [0.31269752979278564, -0.20303227007389069, -0.13188529014587402]], [[-0.08690237253904343, 0.08930790424346924, 0.08724996447563171], [0.39342576265335083, -0.36419641971588135, -0.02621474675834179], [-0.040553588420152664, -0.8858765959739685, 0.5732152462005615]], [[0.6638737320899963, -1.402733325958252, -0.5932400226593018], [0.46606066823005676, -0.14847825467586517, 0.3518117368221283], [0.09220721572637558, -0.08142619580030441, 0.35726311802864075]], [[0.03185426816344261, 0.34726300835609436, 1.1511588096618652], [0.005726152565330267, 0.1814408004283905, 0.14579573273658752], [0.34201911091804504, 0.07233816385269165, 0.3456228971481323]], [[0.5479456186294556, -0.1461535394191742, -0.19626972079277039], [0.5027507543563843, 0.4594046473503113, 0.06375034898519516], [-0.5327932238578796, 0.52198725938797, 0.020990433171391487]], [[-0.411294162273407, 0.07558855414390564, -0.050805140286684036], [-0.06260541826486588, 0.28309664130210876, -0.13652744889259338], [0.2021769881248474, 0.5403352975845337, 0.21520742774009705]], [[0.24645262956619263, -0.06673066318035126, 0.4382234215736389], [0.6713841557502747, -0.7951536774635315, 0.4422742426395416], [0.02901321090757847, 0.14669741690158844, -0.25441229343414307]], [[0.6830531358718872, -0.4321393668651581, 0.08654315024614334], [-0.3332436680793762, 