{"conv1.weight": [[[[-0.037821754813194275, -0.15695849061012268, -0.8880763053894043], [0.20805823802947998, 0.6492754817008972, -0.7603994011878967], [0.48281529545783997, 0.24385352432727814, -0.7249163389205933]], [[0.5873699188232422, -1.6977099180221558, -0.18797710537910461], [0.29538601636886597, 0.19579796493053436, -0.9231497645378113], [-1.3918557167053223, 0.4841265380382538, 0.3958190381526947]], [[-0.27649128437042236, 0.37921449542045593, 0.17372463643550873], [-0.08259640634059906, 0.23745328187942505, -0.06613809615373611], [-0.24667689204216003, -0.43309465050697327, -0.3717205226421356]]], [[[0.5791707038879395, 0.5587106347084045, 0.8585935235023499], [0.4200100600719452, 0.44800204038619995, 0.5570740699768066], [0.7425069212913513, 0.3619546592235565, -0.8166559934616089]], [[-0.8469612002372742, 0.1834799200296402, -0.8560617566108704], [-0.9207841753959656, 0.09000951796770096, -0.15968067944049835], [0.08233781903982162, -0.41092148423194885, 0.2753503918647766]], [[0.04581034556031227, 0.5898506045341492, -0.3063996434211731], [0.0008393345051445067, 0.37333157658576965, -0.007031395100057125], [0.1067071333527565, 0.29590994119644165, 0.34504762291908264]]], [[[-0.7575786113739014, 0.5357139706611633, -0.8286001682281494], [0.09620567411184311, 0.10187724977731705, 0.21017500758171082], [-0.4949541985988617, -1.045258641242981, 0.5529049634933472]], [[0.6072937250137329, -0.6049280166625977, 0.18024291098117828], [-0.07533926516771317, 0.33214184641838074, -0.038166679441928864], [0.6839422583580017, -0.5806413292884827, -1.4075257778167725]], [[-0.26332467794418335, -0.3456336557865143, -0.77558833360672], [0.11439415067434311, -0.12995673716068268, -0.23243781924247742], [0.5826727151870728, 0.3608589768409729, -0.2660270035266876]]], [[[-0.7632561326026917, 0.7378294467926025, -0.2714517116546631], [-0.24537959694862366, -1.0788522958755493, 0.5898497700691223], [0.14740733802318573, -0.9522465467453003, -0.5771214365959167]], [[-0.5785319805145264, 0.08420798182487488, 0.10599479079246521], [-1.2970750331878662, -0.21693380177021027, 0.5232877731323242], [-0.5783880949020386, 0.23135580122470856, 0.18872036039829254]], [[-0.1344064325094223, -0.45989561080932617, -0.742161750793457], [0.12889789044857025, 0.06313464790582657, 0.02433258295059204], [0.4756516218185425, 0.5153999924659729, -0.04529142379760742]]], [[[0.5136053562164307, -0.7701290249824524, 0.9187354445457458], [-0.3749005198478699, 0.6911818385124207, -0.2281300574541092], [0.7531543374061584, -0.43599680066108704, 0.9155369997024536]], [[-0.18314041197299957, -0.12516069412231445, -0.149837464094162], [0.31283077597618103, -1.1366008520126343, -0.3897639811038971], [-0.5974493622779846, 0.18196621537208557, -0.4957265257835388]], [[0.564681351184845, 0.12740544974803925, -0.014180606231093407], [0.2800501883029938, -0.10897944867610931, -0.0735672265291214], [0.15521720051765442, 0.08354006707668304, 0.08023684471845627]]], [[[-0.5063963532447815, -0.7271314859390259, -0.6545410752296448], [-0.7566722631454468, -0.47748032212257385, 0.5018911957740784], [0.3977183997631073, -0.25596585869789124, -0.549860417842865]], [[0.31720221042633057, 0.4208061397075653, -1.3020621538162231], [-0.3432815670967102, 0.6591876745223999, -1.195591926574707], [0.11110905557870865, 0.10171349346637726, 0.2863045334815979]], [[-0.3342803716659546, 0.17659999430179596, 0.3639775514602661], [-0.41439345479011536, 0.1491955667734146, 0.29592055082321167], [-0.5924245119094849, -0.12652885913848877, -0.45912495255470276]]], [[[0.6009093523025513, 0.06489081680774689, 0.6835886240005493], [-1.0792263746261597, 0.4262578785419464, 0.37021398544311523], [0.19980500638484955, 0.6662304401397705, -1.2865324020385742]], [[0.2242428958415985, -0.45639339089393616, 0.5360910892486572], [0.34568196535110474, 0.3180086612701416, -0.18661707639694214], [-0.7301475405693054, -0.6289784908294678, 0.3384585976600647]], [[0.41759538650512695, 0.0891934186220169, 0.11718402802944183], [0.20836736261844635, -0.16465523838996887, -0.3395947813987732], [0.544296383857727, 0.31405144929885864, 0.0835285559296608]]], [[[-0.8165698051452637, 0.1742129772901535, -0.8032442331314087], [0.3372463881969452, -0.5100576877593994, -1.7264596223831177], [-0.4712405502796173, -0.31669867038726807, -0.4593874216079712]], [[0.11674003303050995, -0.6560690402984619, 0.7361507415771484], [-0.9936541318893433, -0.24429817497730255, 0.06159834563732147], [-0.2388375699520111, -0.12143907696008682, 1.267686367034912]], [[-0.276836097240448, 0.19387812912464142, 0.3886752724647522], [0.06426183134317398, -0.21025724709033966, -0.02851947583258152], [0.06206466630101204, -0.20880433917045593, -0.12864772975444794]]], [[[-1.0579860210418701, 0.09330856800079346, -0.6718996167182922], [0.878585696220398, 0.5977112650871277, -0.30854764580726624], [0.7238329648971558, 0.12614132463932037, 0.6187542080879211]], [[-0.2682303786277771, -0.7138310074806213, 0.15188099443912506], [0.7104648947715759, 0.25652092695236206, -0.5719240307807922], [0.09635911136865616, -0.0751183032989502, -0.8775721192359924]], [[-0.014217332005500793, -0.08687150478363037, 0.23535914719104767], [0.1102563813328743, 0.26132866740226746, 0.4786834716796875], [-0.5847633481025696, -0.3105887472629547, 0.29565882682800293]]], [[[-1.3686021566390991, 0.298584520816803, 0.6967730522155762], [0.08038939535617828, -0.65078204870224, 0.16754071414470673], [0.7810821533203125, -1.096684217453003, 0.45126694440841675]], [[0.6290266513824463, 0.4137495458126068, -0.6262428760528564], [-0.1966768205165863, 0.025420045480132103, 0.1464800089597702], [-1.0721710920333862, 0.013509408570826054, 0.8339709639549255]], [[0.4674971401691437, 0.053583115339279175, -0.24030233919620514], [0.46314921975135803, 0.18527716398239136, -0.027352264150977135], [0.017787767574191093, -0.29258137941360474, -0.0030707011464983225]]], [[[-0.5538774728775024, -0.1019233763217926, 0.08038762956857681], [-0.6242791414260864, -0.7179852724075317, -0.34141191840171814], [0.4698341488838196, 0.08885763585567474, -0.6536170840263367]], [[0.8935871124267578, -0.2156766653060913, 0.6334270238876343], [0.07526108622550964, 0.6531449556350708, -0.29717713594436646], [-1.0806262493133545, -0.3420816957950592, -1.758892297744751]], [[0.34788885712623596, 0.1679856777191162, -0.13582535088062286], [0.03641552850604057, -0.01656247116625309, -0.2736093997955322], [-0.4634363353252411, -0.5728104710578918, 0.38424575328826904]]], [[[-0.4294981360435486, 0.3504062592983246, 0.6964491009712219], [-0.5852710008621216, 0.6088884472846985, 0.32941898703575134], [-0.21214072406291962, 0.34272465109825134, 0.5303243398666382]], [[-0.5652915835380554, -1.008607268333435, -1.1609416007995605], [-0.034287188202142715, -1.0040661096572876, 0.014328235760331154], [0.5218918323516846, -1.4053168296813965, 0.5541806817054749]], [[0.3094080090522766, 0.007454591803252697, 0.22847501933574677], [0.046421363949775696, -0.2979786992073059, -0.07640478014945984], [-0.09909624606370926, -0.17223450541496277, -0.006332768592983484]]], [[[-0.2560325860977173, -0.27772727608680725, 0.35164499282836914], [0.6733362674713135, 0.8212640881538391, -0.5387423038482666], [-1.122563362121582, -1.7436745166778564, 0.2666538655757904]], [[0.538101851940155, -0.4636692404747009, -0.6113858819007874], [-0.34629565477371216, 0.06267529726028442, -0.2793954312801361], [-0.5675469040870667, 0.23526644706726074, -0.46806299686431885]], [[-0.30952125787734985, -0.07431550323963165, 0.14353331923484802], [0.21589741110801697, 0.2172250747680664, -0.12903659045696259], [0.33353155851364136, 0.3522125482559204, 0.46043291687965393]]], [[[0.04488121718168259, -0.4521033465862274, 0.32209086418151855], [-0.5202756524085999, -0.8775163292884827, 0.19775669276714325], [0.3295753002166748, -0.7975295186042786, 0.6993974447250366]], [[-0.09486009180545807, 0.5464287400245667, -0.4417848289012909], [0.3614735007286072, 0.3468039929866791, 0.2145881950855255], [-0.2400009036064148, 0.6536749005317688, -0.2843383252620697]], [[-0.5217280983924866, 0.3299633264541626, -0.10292886942625046], [-0.08056466281414032, 0.5998747944831848, -0.3587767481803894], [-0.19479471445083618, 0.1384602189064026, -0.9315550923347473]]], [[[0.3677581250667572, -0.5779408812522888, -0.1251857727766037], [-0.19254860281944275, -0.2388790398836136, 0.24557724595069885], [-0.044296734035015106, 0.12435925006866455, -0.4860726296901703]], [[-1.009072184562683, -0.20081067085266113, 0.6021373271942139], [0.3807103633880615, 0.741551399230957, 0.3793066143989563], [-1.3290950059890747, 0.40501415729522705, -0.21538780629634857]], [[-0.30529651045799255, -0.24657785892486572, -0.18939638137817383], [0.4157103896141052, 0.6563071608543396, -0.4159127175807953], [-0.25787100195884705, 0.10315733402967453, -0.9723668694496155]]], [[[-1.9858371019363403, -0.6117308139801025, 0.2874816060066223], [0.38969483971595764, 0.25400403141975403, -0.2196585237979889], [-0.41337478160858154, -0.02828255668282509, 0.9289636611938477]], [[-1.0845046043395996, -0.2126765102148056, -0.17037875950336456], [-0.539044201374054, -0.8347043991088867, 0.08977063745260239], [-0.5134470462799072, 0.0027469561900943518, -0.9842904806137085]], [[0.2512061595916748, -0.32178762555122375, 0.5432512164115906], [-0.2577449381351471, -0.13429109752178192, 0.08761536329984665], [0.1144300028681755, -0.04333193972706795, 0.3824681043624878]]], [[[-0.5686039924621582, 0.5210791230201721, 0.4978780150413513], [-0.2066626399755478, 0.2998758852481842, 0.09714017808437347], [-0.5222179889678955, 0.24893571436405182, -0.23462533950805664]], [[0.05093001574277878, -1.1866241693496704, 0.36588773131370544], [-1.2095437049865723, 0.5491091012954712, -0.6170223951339722], [-0.7803156971931458, -0.3174433708190918, -0.2960527241230011]], [[-0.20711538195610046, -0.49693989753723145, -0.45757603645324707], [-0.07844322174787521, 0.23212729394435883, 0.6648207902908325], [-0.16938327252864838, -0.5675047039985657, -0.3704296350479126]]], [[[0.06854262948036194, 0.6600562930107117, -0.7477008104324341], [-0.011325191706418991, -0.1994718313217163, -0.9305576682090759], [0.17792202532291412, 0.6449155211448669, 0.6480860114097595]], [[-0.7027763724327087, -0.5192610621452332, 0.6341950297355652], [0.4358620047569275, -0.254488468170166, 0.2949535548686981], [0.17978107929229736, 0.5736290216445923, -0.839523196220398]], [[-0.5465017557144165, -0.2941111624240875, -0.26811692118644714], [0.010891706682741642, 0.2086651474237442, 0.642351508140564], [-0.5572383403778076, -0.28067007660865784, 0.184487447142601]]], [[[0.09323180466890335, 0.3667149245738983, -0.11839251965284348], [0.03374960646033287, -0.3857983350753784, -0.19694523513317108], [0.4777202010154724, 0.058963023126125336, -0.07182741910219193]], [[0.7398019433021545, 0.622743546962738, 0.7493358850479126], [0.2509119510650635, 0.3847390115261078, -0.4514981806278229], [0.5792431831359863, 0.13386410474777222, 0.02912702038884163]], [[-0.8566176295280457, 0.10145662724971771, -0.7509590983390808], [-0.23966266214847565, 0.663217306137085, -0.28061822056770325], [0.016577186062932014, 0.7931774854660034, 0.07436840236186981]]], [[[-0.39396023750305176, 0.07093993574380875, 0.3579137921333313], [0.5771101713180542, 0.4775907099246979, -0.06935593485832214], [-0.5297433733940125, -0.572145938873291, -0.4813128113746643]], [[-0.8444478511810303, -0.06695186346769333, 0.4674530327320099], [0.9848679304122925, 0.013862142339348793, -0.9485389590263367], [-1.6829944849014282, 0.5132375955581665, 0.5356096029281616]], [[-0.43353503942489624, -0.3312029242515564, -0.06418456882238388], [-0.16528399288654327, 0.3096402883529663, 0.20768500864505768], [-0.10931418091058731, -0.22116489708423615, 0.3544501066207886]]], [[[0.3201802968978882, 0.2884804606437683, 0.5083160400390625], [0.6116297245025635, -0.5183305740356445, 0.5452426671981812], [-0.49343550205230713, -0.1663697212934494, 0.21965041756629944]], [[0.32650572061538696, -0.08055602759122849, -0.8749969601631165], [0.4505611062049866, 0.015310632064938545, -0.2669088840484619], [0.2518863379955292, 0.3099607825279236, -1.6646360158920288]], [[-0.1991618424654007, -0.13953980803489685, 0.1695953607559204], [0.538396418094635, 0.6083865165710449, -0.14688295125961304], [-0.9133989810943604, -0.41001567244529724, -0.8688961267471313]]], [[[0.5329132676124573, -0.6285496354103088, 0.35094961524009705], [-1.404163122177124, 0.4387827217578888, 0.0351373516023159], [-1.9187326431274414, 0.36196866631507874, 0.4270477890968323]], [[-0.7157793045043945, 0.5562303066253662, -0.12889575958251953], [-0.325480580329895, -0.665544867515564, 0.48965319991111755], [0.16187143325805664, -0.5903077125549316, 0.11756774038076401]], [[0.47560444474220276, -0.0012881612638011575, 0.49076810479164124], [0.058659136295318604, -0.3813706338405609, 0.2437945455312729], [0.3810463845729828, -0.11872266978025436, -0.1046367958188057]]], [[[-0.9845797419548035, -0.8374271392822266, -1.1557844877243042], [-0.35014328360557556, 0.49061933159828186, -0.32088422775268555], [-0.3364051282405853, -0.3404763340950012, -0.8057519793510437]], [[-1.556594729423523, 0.155133917927742, 0.652743399143219], [0.3676789104938507, -0.5864812135696411, 0.26605746150016785], [0.47184792160987854, -0.6497954726219177, 0.3361329436302185]], [[-0.15594951808452606, -0.3334724009037018, -0.18532244861125946], [0.40987080335617065, -0.37544968724250793, -0.26051801443099976], [0.6595689058303833, -0.06587065011262894, -0.04610274359583855]]], [[[-0.7990537881851196, -0.2871573865413666, 0.34416162967681885], [-1.1425235271453857, 0.14242444932460785, -1.164469599723816], [-0.031209005042910576, -0.33929941058158875, -0.1871778815984726]], [[-0.5172995924949646, -0.4048892855644226, 0.05227237567305565], [0.8646876215934753, -1.2897586822509766, -0.24165788292884827], [0.3470503091812134, 0.8021955490112305, -0.24426910281181335]], [[-0.02691658027470112, -0.0912005677819252, 0.7154010534286499], [0.018766991794109344, -0.2550753355026245, 0.41558995842933655], [-0.0928463265299797, -0.46924030780792236, 0.07704583555459976]]], [[[-0.13281719386577606, -0.04246894642710686, -0.4131380021572113], [-0.17430096864700317, -0.22097617387771606, 0.029758840799331665], [-0.7190679311752319, -0.5179079174995422, -0.3302284777164459]], [[-0.5647008419036865, 0.2988523840904236, 0.5229474306106567], [-0.3190169930458069, 0.2932538688182831, 0.14049485325813293], [1.212470531463623, 0.4725716710090637, -1.6758060455322266]], [[-0.24533991515636444, 0.5039515495300293, -0.10726184397935867], [-0.5177710056304932, 0.3213750720024109, 0.08317215740680695], [-0.5488824844360352, 0.07967320829629898, -0.5591840744018555]]], [[[0.00033788286964409053, 0.219681516289711, -0.3135303258895874], [0.5636624097824097, 0.20106768608093262, -0.15977655351161957], [-0.36309435963630676, 0.6550220251083374, 0.24607273936271667]], [[0.8928784132003784, 0.4973364770412445, 0.7552064657211304], [-0.8500698208808899, -0.9151894450187683, -0.8824626207351685], [0.2648342549800873, -0.15616829693317413, 0.38146236538887024]], [[-0.6174142956733704, -0.31634387373924255, 0.146329864859581], [0.17742253839969635, -0.04431181773543358, 0.5313603281974792], [0.4383324980735779, -0.1333433985710144, 0.3590441346168518]]], [[[-0.44587451219558716, 0.2435886561870575, -0.13873521983623505], [-0.42005616426467896, 0.09320243448019028, 0.09669636934995651], [-0.36831799149513245, -0.12224984914064407, -0.04906930774450302]], [[0.9781466722488403, -0.026401560753583908, -0.18795162439346313], [0.6554968953132629, 0.30385684967041016, -0.03628109022974968], [-1.5693827867507935, -0.3850250244140625, 0.6041417121887207]], [[-0.3840973377227783, 0.5024190545082092, -0.4748656451702118], [-0.42521220445632935, 0.33812186121940613, -0.5798747539520264], [-0.3163110911846161, 0.632885754108429, -0.3268493711948395]]], [[[-0.26133033633232117, -0.2686881422996521, 0.3318808376789093], [-0.06739236414432526, -0.21806149184703827, 0.20700053870677948], [0.009438264183700085, 0.10646860301494598, -0.40719595551490784]], [[-1.204526424407959, -0.4086032211780548, 0.6051692962646484], [-0.7434465885162354, 0.4003917872905731, -0.6164584755897522], [1.0786397457122803, -1.289737582206726, 0.6418701410293579]], [[0.20098361372947693, 0.013532252982258797, 0.5382339358329773], [0.2391003966331482, -0.33886095881462097, 0.0931726023554802], [-0.4310322105884552, -0.4944387972354889, -0.2713519334793091]]], [[[0.2737065851688385, -0.30922913551330566, 0.09849552065134048], [-0.1196431815624237, -0.6218292117118835, -0.3745087683200836], [0.0023072315379977226, 0.42661434412002563, -0.06269219517707825]], [[-0.5391918420791626, 0.1573779284954071, -0.30879542231559753], [0.860653817653656, 0.307369589805603, 0.4150506556034088], [0.4784289002418518, 0.06397386640310287, 0.6363810300827026]], [[0.07464777678251266, 0.5596996545791626, -0.40797415375709534], [0.33981701731681824, 0.3720896542072296, -0.17874789237976074], [-0.5616308450698853, -0.33941367268562317, -1.3962419033050537]]], [[[0.7948153018951416, 0.4036068320274353, 1.159828782081604], [-0.5659294128417969, -0.0782768726348877, 0.01292897667735815], [-0.1723991334438324, -0.23005755245685577, -0.13902327418327332]], [[-1.0858724117279053, -1.0201871395111084, -0.039308447390794754], [-0.32722407579421997, -0.10809257626533508, -0.3577365577220917], [-0.052537981420755386, -0.22171875834465027, -0.4099644422531128]], [[-0.12016221880912781, 0.26620081067085266, -0.368783175945282], [-0.2532414495944977, 0.5435473918914795, 0.2691178619861603], [0.4143601655960083, -0.3356562852859497, -0.40392524003982544]]], [[[0.2635299563407898, 0.37916848063468933, -0.3859669268131256], [-1.2383344173431396, 0.3981762230396271, -0.5302823185920715], [0.33302122354507446, -0.5257449746131897, -0.0704483613371849]], [[0.4878929555416107, 0.1275055706501007, -0.6468110680580139], [0.685428261756897, 0.37858593463897705, -0.5978745222091675], [0.8102843761444092, 0.6567798256874084, 0.33622339367866516]], [[0.3611088693141937, -0.1916913241147995, 0.3498794436454773], [-0.315127432346344, -0.3714613914489746, 0.5112559795379639], [-0.6411294341087341, -0.3181975185871124, 0.2930532693862915]]], [[[0.35417914390563965, -0.21437698602676392, 0.4557807743549347], [-0.6960787177085876, 0.4208284914493561, -0.26942360401153564], [-0.5297269821166992, -0.3235665559768677, 0.15804558992385864]], [[0.6712145805358887, -0.12641659379005432, 0.5760015249252319], [-0.17998960614204407, -0.9113478064537048, 0.04619671776890755], [-0.5935265421867371, 0.48929834365844727, -1.0727094411849976]], [[-0.07970546185970306, -0.36373835802078247, -0.6889190077781677], [0.8391217589378357, 0.3391125500202179, 0.33313366770744324], [-0.18552027642726898, -0.3388737738132477, -0.23052869737148285]]], [[[-0.1306096762418747, -0.26792028546333313, 0.8478175401687622], [-0.4873405992984772, 0.5120603442192078, -0.3300398588180542], [1.1505566835403442, 0.014312244020402431, -0.882021427154541]], [[0.6505742073059082, 0.12844698131084442, -0.6915386319160461], [0.3678218424320221, -0.3189534842967987, -0.04485590383410454], [-0.16588224470615387, -0.2922419309616089, 0.12309092283248901]], [[-0.3648405075073242, -0.2516114413738251, -0.42948031425476074], [-0.3809767961502075, 0.5485783815383911, -0.06922441720962524], [0.11696905642747879, 0.6596157550811768, -0.026686014607548714]]], [[[0.9494958519935608, 0.6682612895965576, 0.5574517846107483], [0.6410638093948364, 0.001555882510729134, 0.16044020652770996], [0.7385016083717346, 0.5652170181274414, 0.8261026740074158]], [[-0.11187262833118439, 0.19558189809322357, -0.40381261706352234], [0.18577980995178223, -0.44338735938072205, -0.10068108141422272], [-0.8474470973014832, -0.06700378656387329, -0.14458362758159637]], [[0.14230583608150482, 0.07721519470214844, -0.30794867873191833], [0.5946767330169678, 0.38609638810157776, 0.5298154354095459], [0.07329262048006058, 0.17800046503543854, -0.2229474037885666]]], [[[0.6189610362052917, 0.3671913743019104, 0.0283809881657362], [0.09589238464832306, -0.7755337357521057, -0.4834234416484833], [0.8928477764129639, -0.07164139300584793, 0.9536166191101074]], [[-0.47083526849746704, 0.3759479224681854, -0.4360397458076477], [-0.8090425729751587, -0.4164499342441559, -0.06894828379154205], [-0.40256524085998535, -0.4577530324459076, -0.3522687256336212]], [[0.2842289209365845, 0.28217753767967224, -0.48653748631477356], [0.15627184510231018, 0.053449247032403946, -0.08949195593595505], [-0.14147987961769104, -0.3502609431743622, -0.7129502296447754]]], [[[-0.9009718298912048, -0.3199460804462433, -0.6988446712493896], [-0.8050907850265503, 0.02968662790954113, 0.8613056540489197], [-1.0574798583984375, 0.23961549997329712, 0.9518111348152161]], [[0.4637990891933441, -0.16543065011501312, -0.348554402589798], [0.09022030979394913, 0.40294063091278076, 0.1539296805858612], [-0.044576287269592285, 0.40969616174697876, -0.07299954444169998]], [[0.37448471784591675, -0.13053901493549347, -0.44706854224205017], [-0.18659532070159912, 0.47133171558380127, 0.5265781283378601], [-0.06962968409061432, 0.27198418974876404, 0.3904241919517517]]], [[[0.8153166174888611, 0.5467135310173035, -0.049760084599256516], [-0.2962264120578766, 0.27177494764328003, 0.5934296250343323], [0.6155654191970825, -0.6149161458015442, 0.5234795212745667]], [[0.22360540926456451, 0.23077178001403809, 0.6671308875083923], [-0.19965636730194092, -0.45545029640197754, 0.726832389831543], [0.934898316860199, 0.4130787253379822, 0.21368134021759033]], [[0.1641751080751419, 0.5255895256996155, 0.3138689696788788], [-0.44022804498672485, 0.27217987179756165, 0.3459017276763916], [-0.37168970704078674, -0.3630528151988983, -0.3341131806373596]]], [[[0.8971589207649231, -0.8560802936553955, 0.20502355694770813], [0.5262947082519531, 0.3562341630458832, -0.19836772978305817], [0.35958272218704224, -0.7464606761932373, -1.783153772354126]], [[-0.19708698987960815, 0.16359640657901764, 1.0653839111328125], [-0.2987152934074402, -0.3013093173503876, -0.2529556453227997], [-0.5121511220932007, -0.3103601634502411, 0.06731560081243515]], [[0.09007588028907776, -0.021588411182165146, -0.0007922284421510994], [0.2235712856054306, 0.15759210288524628, 0.2511292099952698], [0.46460413932800293, 0.17930534482002258, -0.03690779581665993]]], [[[0.775141716003418, 0.4967523515224457, -1.2697043418884277], [-0.02271447144448757, 0.42581674456596375, -0.19905667006969452], [0.5069910883903503, 0.6267282366752625, 1.2370636463165283]], [[-0.48838794231414795, -0.27382755279541016, -0.061909712851047516], [0.14812591671943665, -0.7687835097312927, -0.09803614765405655], [0.0134663637727499, -0.5118286609649658, 0.6302239894866943]], [[0.14549608528614044, 0.2915395498275757, -0.0990058183670044], [0.22780872881412506, 0.2598087191581726, -0.03421551361680031], [0.2663397192955017, 0.18715828657150269, -0.04010047763586044]]], [[[-0.5090482234954834, -0.015531456097960472, 0.01842702366411686], [-0.019837049767374992, -1.4587644338607788, 0.4504674971103668], [-1.253779411315918, -1.081222414970398, -0.8472121953964233]], [[-0.2416001707315445, 0.5805807709693909, -0.7855564951896667], [-0.031064527109265327, -0.6247797012329102, 0.21376396715641022], [-0.8239263892173767, 0.4963373839855194, 0.09441396594047546]], [[-0.4740622937679291, 0.026097888126969337, 0.393837034702301], [0.031225860118865967, 0.20410652458667755, 0.2741491496562958], [0.2361517995595932, 0.18779133260250092, 0.04252203553915024]]], [[[0.5118110775947571, 0.710260808467865, -0.6156085133552551], [-0.4960504174232483, -0.047392792999744415, 0.14892008900642395], [-0.4788770377635956, -0.05143844708800316, 0.0829412192106247]], [[-0.7073936462402344, 0.06280394643545151, -1.1676260232925415], [0.24187786877155304, 0.6326645016670227, -0.3736034035682678], [-2.1209285259246826, -0.6797460317611694, -0.844182014465332]], [[0.30125749111175537, -0.20843759179115295, -0.5614491701126099], [-0.2336658090353012, 0.2149946242570877, -0.08044791221618652], [-0.09932764619588852, -0.07295398414134979, 0.2965829372406006]]], [[[-1.4336271286010742, 0.3810027241706848, 1.0462369918823242], [0.16122741997241974, -0.33818769454956055, -0.03120717592537403], [0.6087483167648315, -0.17512129247188568, 0.11565403640270233]], [[-1.04970383644104, -0.6872930526733398, -0.777097225189209], [-0.22676101326942444, 0.07527212053537369, -0.20252861082553864], [0.3960496485233307, 0.12859158217906952, -0.5116780996322632]], [[-0.17758189141750336, -0.4010891318321228, 0.253279447555542], [0.14631840586662292, -0.009161719121038914, -0.5044699907302856], [0.5967864990234375, 0.4416704475879669, -0.20101121068000793]]], [[[0.22947753965854645, 0.2484445571899414, -1.2820383310317993], [-0.5116730332374573, -0.5367392897605896, 0.17017798125743866], [0.6377254724502563, 0.5330908298492432, 0.20571520924568176]], [[0.9015395641326904, -0.967949390411377, -0.7005441188812256], [0.3016190230846405, 0.2576114535331726, -0.42935216426849365], [-1.0180116891860962, -0.15818974375724792, -1.0358346700668335]], [[0.2487935572862625, -0.09918400645256042, 0.23536913096904755], [0.4095209538936615, 0.08344405144453049, 0.38008466362953186], [0.1996183842420578, -0.112010158598423, 0.03435194492340088]]], [[[-0.09317757934331894, -1.8003716468811035, -0.6111478209495544], [0.5044463872909546, -1.2215766906738281, 0.3816673159599304], [-0.12511837482452393, 0.6493099927902222, 0.3309226334095001]], [[-0.5452965497970581, 0.20420706272125244, 0.651524007320404], [0.4631846249103546, -0.21647575497627258, -0.4543292224407196], [0.7413659691810608, 0.13024993240833282, -0.5409044027328491]], [[0.09147811681032181, 0.3099474310874939, -0.00576013745740056], [-0.2770538330078125, 0.2381463348865509, 0.26231884956359863], [-0.23849135637283325, 0.44700315594673157, 0.35428309440612793]]], [[[0.19084307551383972, -1.0391730070114136, -0.3177758753299713], [0.24608787894248962, -0.8043774962425232, -0.35435163974761963], [0.7088737487792969, -0.5727335214614868, 0.4421704411506653]], [[-0.14222335815429688, -1.3878206014633179, -0.6972989439964294], [-0.4351951777935028, 0.31403642892837524, -0.019752904772758484], [-0.6027633547782898, -0.8739463686943054, 0.2356506735086441]], [[-0.2759556472301483, 0.3880549371242523, -0.3407570719718933], [-0.11775700002908707, 0.4627280533313751, -0.29543668031692505], [0.07991428673267365, -0.1502494364976883, -0.6652501821517944]]], [[[0.805647075176239, -0.73445725440979, -0.09305083751678467], [0.5092294812202454, -0.26298901438713074, 0.5329568982124329], [0.758986234664917, -0.8115573525428772, 0.43421193957328796]], [[-1.6409019231796265, -0.14985409379005432, -0.1688675731420517], [-1.842645525932312, -0.08535638451576233, -0.0911388099193573], [-0.5746131539344788, -0.06971153616905212, 0.36047807335853577]], [[0.0714259147644043, 0.03849148005247116, -0.40627560019493103], [-0.069603331387043, 0.01682877168059349, -0.0060432590544223785], [0.3145281970500946, 0.40378788113594055, 0.2735610902309418]]], [[[0.25206682085990906, 0.656332790851593, -0.42442330718040466], [-0.8306161165237427, 0.9845386743545532, -0.0910549908876419], [0.36717239022254944, -1.280365228652954, -0.1162746474146843]], [[-0.9037187695503235, -0.1253453940153122, 0.22996610403060913], [-0.8349105715751648, 0.6793873310089111, 0.2950644791126251], [-0.8999114036560059, 0.021239250898361206, 0.16486243903636932]], [[0.15607787668704987, 0.42805057764053345, 0.27006644010543823], [-0.022794470191001892, -0.06048774719238281, 0.12061059474945068], [0.012242893688380718, 0.263945996761322, 0.1912720799446106]]], [[[0.5807998180389404, 0.6988460421562195, -0.9097223281860352], [0.3676814138889313, 0.5425844788551331, 0.247531458735466], [0.4518393576145172, 0.0036346260458230972, -0.3590361475944519]], [[-0.37360119819641113, 0.10802534967660904, -0.08852585405111313], [0.4154966473579407, -0.2760375440120697, -0.6900455355644226], [0.6843496561050415, -0.48276880383491516, 0.2124268263578415]], [[-0.5724783539772034, -0.04803621768951416, -0.5602189898490906], [-0.14726653695106506, 0.8084091544151306, 0.34304293990135193], [-0.3397918939590454, -0.13756375014781952, -0.5748317241668701]]], [[[-0.26161742210388184, -0.20045799016952515, 0.1877298504114151], [-0.6048920750617981, -0.17893613874912262, 0.4726702868938446], [0.49384525418281555, 0.2698051333427429, 0.7351127862930298]], [[-0.847848117351532, 0.23073038458824158, 0.9405549168586731], [-0.4105170965194702, 0.5114148855209351, 0.006779171992093325], [-1.1443830728530884, -0.8529533743858337, 0.3055444061756134]], [[-0.3845667243003845, 0.2532930374145508, -0.42753854393959045], [-0.07319527119398117, 0.7141506671905518, 0.13372863829135895], [-0.4666065573692322, -0.3601773977279663, -0.09314987808465958]]], [[[-0.36424383521080017, -1.0976674556732178, -0.6753107905387878], [-0.14308486878871918, 0.5779271125793457, -0.4799412190914154], [0.926805317401886, 0.3041319251060486, 0.529209315776825]], [[0.4773174226284027, 0.6395450234413147, 0.2879233658313751], [-0.8023895025253296, -0.3437129557132721, 0.27568429708480835], [-0.712752103805542, -1.0584450960159302, -0.7264600396156311]], [[0.03847208246588707, -0.2699145972728729, -0.36053267121315], [0.10714764893054962, -0.17263862490653992, -0.1338597536087036], [0.4271351397037506, 0.38605639338493347, 0.13028927147388458]]], [[[0.8655453324317932, 0.19526948034763336, 0.12915903329849243], [-1.1371186971664429, -0.06208021566271782, -0.5352319478988647], [-1.0225625038146973, -0.9236615300178528, -0.029593275859951973]], [[0.6984884738922119, -0.24614331126213074, 0.3269212543964386], [0.7530616521835327, -0.3746524751186371, 0.6248257756233215], [0.6624723672866821, 0.11931727081537247, 0.35770922899246216]], [[-0.04934078827500343, -0.313824325799942, 0.10873188078403473], [0.5020557045936584, 0.2959881126880646, 0.28537195920944214], [0.051998697221279144, 0.07493585348129272, 0.23105253279209137]]], [[[-0.9830661416053772, -0.09990041702985764, 0.10155846178531647], [-0.6276769042015076, -0.4271775782108307, 0.3362388610839844], [-0.9782219529151917, -0.25408512353897095, 0.07687905430793762]], [[0.8669798374176025, -0.010843174532055855, 0.04285720735788345], [0.30354058742523193, -0.1791013926267624, 0.035119760781526566], [1.2217849493026733, 0.15975050628185272, 0.5997866988182068]], [[-0.40991029143333435, -0.6051367521286011, -0.4265877306461334], [-0.10525911301374435, 0.47575893998146057, -0.06790135055780411], [-0.2270190268754959, 0.20465636253356934, 0.04531879723072052]]], [[[-0.2649347186088562, 0.2636823058128357, -0.501369297504425], [0.31145837903022766, 0.5891963839530945, 0.39719972014427185], [0.9070717096328735, 0.5356462001800537, -1.7412172555923462]], [[-0.6025704145431519, 0.24157960712909698, -0.3501374125480652], [-0.377493679523468, -0.32153019309043884, 0.1949343979358673], [0.07016296684741974, 0.879280686378479, -0.2899447977542877]], [[-0.13993065059185028, -0.28809085488319397, -0.07945610582828522], [0.04758920520544052, -0.4490543305873871, 0.4610685408115387], [0.32284146547317505, -0.22729475796222687, 0.424083411693573]]], [[[0.42670896649360657, -0.06093527376651764, -0.8304070234298706], [-0.8225893974304199, 0.14429114758968353, 0.3209138512611389], [-0.6024420857429504, -0.003347375662997365, 0.8933205008506775]], [[-0.6460319757461548, -0.856255829334259, -0.18399788439273834], [-0.23759342730045319, -0.6710397005081177, -0.4951685965061188], [-0.5925328731536865, 0.8129723072052002, 0.5577366948127747]], [[-0.17392964661121368, 0.2811756432056427, -0.0751301571726799], [-0.5864663124084473, 0.22814728319644928, -0.1859412044286728], [-0.29325032234191895, 0.5792467594146729, 0.19016510248184204]]], [[[0.8616931438446045, 0.07564476132392883, 0.15763218700885773], [0.686394453048706, -0.10883822292089462, -0.048627424985170364], [-1.3298327922821045, -0.08686987310647964, -0.14254441857337952]], [[0.10278522223234177, 0.02977519854903221, 1.3681830167770386], [0.2712613642215729, 0.43456894159317017, 0.23645071685314178], [0.1444159746170044, -0.20824502408504486, 0.2797125279903412]], [[0.5189370512962341, 0.01741833984851837, -0.24040035903453827], [0.4194791615009308, 0.09886949509382248, -0.3377026617527008], [-0.25948795676231384, -0.30960381031036377, -0.4597693681716919]]], [[[-0.3495755195617676, -0.24789945781230927, 0.024283932521939278], [-0.14557772874832153, 0.4056181311607361, -0.3438776433467865], [-0.5349924564361572, 0.10635888576507568, -0.09809049963951111]], [[-0.17486289143562317, -0.7962618470191956, -0.24248753488063812], [-0.5615025162696838, 1.0120598077774048, 0.6303473114967346], [0.19822809100151062, 0.7009832262992859, 0.579544723033905]], [[0.049969643354415894, -0.3048703074455261, -0.5426409244537354], [0.7165838479995728, 0.039477795362472534, 0.3280915319919586], [0.27880755066871643, -0.6747817993164062, -0.30805715918540955]]], [[[0.5916224718093872, -1.4988102912902832, -0.2416246086359024], [-0.5886152386665344, -0.5974233746528625, -0.6291779279708862], [-0.39909985661506653, 0.22964607179164886, 0.545021116733551]], [[1.0115208625793457, 0.2986651360988617, 0.10624875873327255], [-0.5268861651420593, -0.3031705915927887, -0.3529762625694275], [0.607178807258606, -0.3259298503398895, -0.7649028301239014]], [[0.2368522435426712, 0.11735712736845016, 0.5470278859138489], [0.1348455846309662, -0.2984630763530731, -0.03973010182380676], [0.07448040693998337, -0.5806671380996704, 0.043591249734163284]]], [[[-0.2567659616470337, -0.7417774200439453, 0.8796996474266052], [-0.8413929343223572, 0.8071322441101074, 0.07454010099172592], [-1.397819995880127, 0.057941727340221405, -1.296859860420227]], [[0.1359623819589615, -0.09700968116521835, -0.053593769669532776], [0.09754758328199387, -0.05253367871046066, -0.5859452486038208], [-0.4127606153488159, 0.3013516664505005, 0.1265445351600647]], [[-0.4742676317691803, -0.18517477810382843, 0.8297412395477295], [0.3485565185546875, 0.01654754765331745, -0.2398005574941635], [0.0036895456723868847, 0.15638107061386108, 0.06709972023963928]]], [[[-0.37900546193122864, -0.7815906405448914, -0.9098958373069763], [-0.908085286617279, 0.5867634415626526, 0.1424521654844284], [-1.0413495302200317, 0.9858874678611755, 0.17286808788776398]], [[0.38055703043937683, 0.4450424909591675, 0.6969468593597412], [0.4565869867801666, 0.13430927693843842, -0.5247299671173096], [-0.13773079216480255, -0.27881506085395813, 0.036977238953113556]], [[-0.34680721163749695, -0.06348370760679245, -0.46731775999069214], [-0.0863974466919899, 0.3070136606693268, 0.2660468816757202], [-0.23847424983978271, -0.21230195462703705, 0.007277836557477713]]], [[[0.7155811190605164, -1.018310308456421, 0.7033880352973938], [0.07063532620668411, 0.2793769836425781, -0.4110410213470459], [0.9148533344268799, 0.5333954691886902, 0.48242780566215515]], [[0.13047559559345245, -0.7866243124008179, -0.14289359748363495], [-0.5905247926712036, 0.36142003536224365, 0.3582746386528015], [0.20383425056934357, 0.7277144193649292, 0.015341361984610558]], [[-0.02548171766102314, 0.5070487260818481, 0.506142795085907], [-0.4996645450592041, -0.10713353753089905, 0.022408034652471542], [-0.08821377158164978, 0.28289341926574707, 0.13398940861225128]]], [[[-1.4452579021453857, -0.028081299737095833, -1.011014699935913], [0.41860342025756836, 0.07894736528396606, -0.09239708632230759], [1.1041994094848633, -0.10530904680490494, 0.6107852458953857]], [[-1.0878572463989258, -0.1089518740773201, 0.188577339053154], [-1.1705715656280518, -0.2468162178993225, 0.2311580628156662], [0.7175425887107849, 0.343618243932724, 0.3463374078273773]], [[-0.10414016246795654, 0.5715456008911133, 0.037436723709106445], [-0.35218721628189087, 0.032477036118507385, -0.07145863771438599], [0.09002853184938431, 0.045741237699985504, -0.0026700934395194054]]], [[[-0.2230445295572281, 0.2859641909599304, 0.9754363894462585], [-0.07707520574331284, -0.4096885621547699, -0.7566722631454468], [-2.362938404083252, 0.41257622838020325, 0.36775466799736023]], [[0.4537990689277649, 0.41475287079811096, -0.36975622177124023], [0.24669858813285828, 0.32497966289520264, 0.18981775641441345], [-0.14218243956565857, -0.7255546450614929, -0.7880669236183167]], [[0.40156519412994385, -0.2874656319618225, -0.35642239451408386], [0.339321494102478, 0.09923368692398071, 0.10433854907751083], [0.3234790563583374, 0.13143016397953033, 0.13305114209651947]]], [[[-1.9548457860946655, 0.46768444776535034, -0.9853770732879639], [0.0026424641255289316, 0.6969811320304871, -0.4305453598499298], [-0.6975672841072083, -0.7072719931602478, 0.6441246867179871]], [[0.30946847796440125, 0.34859299659729004, 0.43911290168762207], [0.25672152638435364, 0.13638828694820404, 0.36852017045021057], [0.29963767528533936, 0.125501349568367, -0.38843604922294617]], [[-0.04599642753601074, 0.43737560510635376, 0.19394706189632416], [0.3255252242088318, -0.013559775426983833, -0.18618720769882202], [-0.07673925906419754, -0.12725915014743805, 0.4315895736217499]]], [[[-0.3412235677242279, -0.6361076831817627, -0.04939528554677963], [-0.3209545910358429, -0.9110053777694702, -0.08176416158676147], [0.554287850856781, -0.18216390907764435, 0.5870532989501953]], [[-0.23594292998313904, -0.25313645601272583, -0.15842311084270477], [0.6204500198364258, -1.226312518119812, 0.3767726719379425], [-1.0576024055480957, -0.6485775709152222, 0.8585730195045471]], [[-0.3601062595844269, -0.15145473182201385, 0.7903060913085938], [0.08233774453401566, -0.057510603219270706, 0.0016042774077504873], [0.0817689597606659, 0.0649895966053009, -0.25390511751174927]]]], "conv1.bias": [0.497038871049881, -0.36501359939575195, -0.3541225790977478, 0.34935465455055237, -0.8845682740211487, 0.04419258236885071, -1.0326581001281738, 0.13787759840488434, -0.0013279765844345093, 0.8674819469451904, 0.05019102245569229, 0.13622556626796722, 0.006550449877977371, 0.12046575546264648, -0.23836879432201385, 0.435465008020401, -0.16602271795272827, -0.33396390080451965, -0.7199221253395081, 0.44315123558044434, -0.3167734444141388, -0.12820713222026825, -0.8682382106781006, -0.26352041959762573, -0.3909299075603485, 0.14398077130317688, -0.27329206466674805, 0.4374000132083893, 0.4405735731124878, -0.16408446431159973, 0.48659563064575195, 0.01956571266055107, -0.4215833246707916, 0.5025632381439209, -0.22895462810993195, -0.8097143173217773, -0.2991271913051605, -0.12502054870128632, -0.9825924634933472, 0.08325476944446564, -0.24317362904548645, 0.08701729029417038, -0.5199866890907288, 0.599092423915863, -0.03484716638922691, -0.12040350586175919, 0.3303275406360626, 0.44575995206832886, 0.8670557737350464, 0.28720584511756897, 1.061329960823059, 0.01391344889998436, -0.082706019282341, -0.0001393085258314386, 0.3215806782245636, 0.5681368708610535, 1.0744343996047974, -0.40624380111694336, -1.189487338066101, 0.0586717315018177, 0.333919882774353, -0.9233063459396362, 0.02697814255952835, 0.0628848448395729], "bn1.weight": [0.9121047854423523, 0.9584549069404602, 1.178155779838562, 1.1789432764053345, 1.1397041082382202, 1.065063714981079, 0.8357213139533997, 1.1715420484542847, 0.8845357894897461, 1.0654175281524658, 1.1593329906463623, 0.7829775214195251, 1.0473850965499878, 1.0155268907546997, 1.2443245649337769, 1.0527151823043823, 1.1716047525405884, 0.9064929485321045, 1.0434699058532715, 0.8002853989601135, 1.260352611541748, 1.086510181427002, 1.264564871788025, 0.9990167021751404, 1.1884710788726807, 0.9070997834205627, 1.1685971021652222, 1.1145176887512207, 1.4024618864059448, 1.2555806636810303, 0.890225887298584, 1.1376523971557617, 1.0558552742004395, 1.1023651361465454, 0.9849969744682312, 1.1420187950134277, 0.7651811242103577, 1.0832923650741577, 1.209089756011963, 1.2897287607192993, 0.9233915209770203, 1.137040615081787, 1.0279864072799683, 1.099414587020874, 0.8387160897254944, 1.095403790473938, 1.1080514192581177, 0.9595912098884583, 1.0049164295196533, 0.9627447724342346, 1.0800437927246094, 1.155397653579712, 0.7335627675056458, 1.0652596950531006, 0.9243635535240173, 1.0502784252166748, 0.939174234867096, 1.0067659616470337, 0.9223322868347168, 0.8123763203620911, 0.8054725527763367, 1.11009681224823, 1.2846561670303345, 1.0403283834457397], "bn1.bias": [-0.16185037791728973, -0.7069597244262695, -0.3953428268432617, -0.27094313502311707, -0.8565652966499329, -0.13349881768226624, -0.5123509168624878, -0.23368914425373077, -0.45043253898620605, -0.6711443066596985, -0.218891441822052, -0.14821720123291016, -0.7087242603302002, -0.7514711022377014, -0.3552086651325226, 0.08051174879074097, -0.47047746181488037, -0.3777064383029938, -0.644355297088623, 0.05612825229763985, -0.6802675724029541, -0.4479365050792694, 0.08959481865167618, -0.17078840732574463, -0.09916041046380997, -0.6961761116981506, -0.3443286716938019, -0.515325665473938, -0.7888292670249939, -0.6657293438911438, -0.4833327829837799, -0.46665725111961365, -0.7009831666946411, -1.4154891967773438, -0.19739924371242523, -0.9185689687728882, -0.46214377880096436, -0.6708962917327881, -0.9938505291938782, -0.7242043614387512, -0.030311686918139458, -0.37917211651802063, -0.7550184726715088, -0.671215832233429, 0.05212172120809555, -0.6835570931434631, -0.7982516288757324, -0.3969610631465912, -0.36827537417411804, -0.3493616580963135, -0.8011345267295837, -0.2918366491794586, -0.1766161322593689, -0.6047999858856201, -0.8108740448951721, -0.5749565958976746, -0.436568945646286, -0.43673548102378845, -0.5369710326194763, -0.6149923801422119, -0.2270675003528595, -0.5018888711929321, -0.8121849894523621, -0.579218864440918], "conv2.weight": [[[[-0.2756490707397461, -0.3795696496963501, -0.7365295886993408], [-0.11968109011650085, 0.9746650457382202, -0.287934809923172], [1.0375313758850098, 0.2788107097148895, -0.08949406445026398]], [[-0.2921021282672882, 0.0744638666510582, 0.424220472574234], [-0.4981955885887146, -0.21996112167835236, 0.5816224813461304], [0.1120578721165657, 0.1247892752289772, -0.03925609216094017]], [[-0.43938499689102173, -1.0113651752471924, 1.0154643058776855], [0.03398311883211136, -0.20975692570209503, -0.562944769859314], [-0.5796419382095337, -0.14994290471076965, -0.300979346036911]], [[-0.9855306148529053, -0.9012553095817566, 0.646357536315918], [-0.08927596360445023, -0.8634092807769775, -0.11657121777534485], [0.24749933183193207, -0.3541242480278015, 0.8055482506752014]], [[0.22784081101417542, 0.10721902549266815, 0.43273746967315674], [-0.22794599831104279, 0.7965385913848877, 0.3365459144115448], [1.6409670114517212, 0.26302579045295715, -0.04611805081367493]], [[0.20896609127521515, -1.0400019884109497, 0.22883883118629456], [0.20432619750499725, 0.4388017952442169, -0.4460158050060272], [0.8241254687309265, 0.37225866317749023, 0.008674051612615585]], [[-0.3017365336418152, 0.9901854991912842, 0.1606067270040512], [0.5777683258056641, 0.5727222561836243, -0.4204319417476654], [0.05720100924372673, -0.6216369271278381, -0.7487382888793945]], [[0.3798941969871521, -0.657866895198822, -0.31852835416793823], [-0.6937499046325684, -0.28965261578559875, 0.4518607258796692], [1.0515280961990356, -0.528827965259552, 0.2031538337469101]], [[-0.09255344420671463, -0.12081749737262726, -0.17486931383609772], [-1.2857035398483276, 0.004241670947521925, 0.032604098320007324], [0.7761812210083008, 0.3673531711101532, 0.2178066223859787]], [[0.15242765843868256, -1.2504345178604126, 0.08635035902261734], [-0.11537085473537445, 0.43529143929481506, -0.19194187223911285], [0.34309855103492737, 0.27486684918403625, -0.3018617331981659]], [[-0.8898209929466248, -0.415132999420166, 0.5386412739753723], [0.0014153898227959871, -0.3373986482620239, 0.4583549201488495], [0.09584905207157135, -0.12998344004154205, 0.32171401381492615]], [[0.7521392703056335, -0.42363545298576355, 0.3737982511520386], [0.342873215675354, -0.010049143806099892, 0.3001995086669922], [0.1942521184682846, -0.13496623933315277, -0.23458799719810486]], [[-0.04673529043793678, -0.705512523651123, -0.3283861577510834], [-0.6284477710723877, -1.1852450370788574, -0.007382324431091547], [-1.108219027519226, -0.025616882368922234, 0.11119291186332703]], [[-0.24306035041809082, 0.2050556242465973, 0.43063732981681824], [0.6907677054405212, -0.5074321627616882, 0.09288722276687622], [0.28162598609924316, 0.14489935338497162, -0.6093906760215759]], [[-0.7288509011268616, 0.05724415183067322, 0.1437845379114151], [0.1854560822248459, 0.6524427533149719, -0.48702046275138855], [0.7273461818695068, -0.31847119331359863, 0.4587326645851135]], [[-0.16406868398189545, 0.03410590812563896, 0.09637640416622162], [0.13532020151615143, 0.37915921211242676, 0.25781455636024475], [0.5696167349815369, -0.3841879069805145, 0.001874114153906703]], [[-0.4189629554748535, 0.47724518179893494, -0.0737413540482521], [-0.20869608223438263, 0.4076710343360901, -0.7468969821929932], [0.2833656966686249, -0.7386265397071838, 0.6086330413818359]], [[-0.7174279689788818, -0.16166648268699646, 0.11425239592790604], [0.18721936643123627, -0.4950176477432251, -0.12042810022830963], [-0.07092618197202682, 0.4098707139492035, 0.15735724568367004]], [[-0.2522422969341278, 0.02740579843521118, 0.21477769315242767], [0.48566263914108276, 0.533755898475647, -0.1199650838971138], [0.32790639996528625, 0.06287684291601181, -0.19446149468421936]], [[-0.08731790632009506, 0.4423597753047943, 0.2062343955039978], [-0.5017994046211243, 0.047822676599025726, -0.5425430536270142], [0.6595657467842102, 0.7377459406852722, 0.09590468555688858]], [[-0.05665156617760658, -0.19828101992607117, 0.6795498728752136], [0.6347379088401794, -0.1607658863067627, 0.15637359023094177], [-0.8460564017295837, 0.10045426338911057, 0.2100629210472107]], [[-0.491985559463501, -0.30694010853767395, 0.006745717953890562], [-0.13129203021526337, -0.5571140646934509, 0.11130724847316742], [-0.6385012865066528, -0.7420699000358582, -0.00735154002904892]], [[-0.04120896756649017, -0.07833688706159592, 0.289066880941391], [0.0017440110677853227, -0.3445609509944916, -0.7222627997398376], [0.1502770036458969, 0.4950025677680969, 0.041360821574926376]], [[0.09696188569068909, -0.5390044450759888, 0.6644690632820129], [0.0030343267135322094, -0.2743716835975647, -0.20971457660198212], [0.567244827747345, 0.3665822148323059, 0.26993802189826965]], [[0.09473509341478348, 0.08003061264753342, -0.16329792141914368], [-0.11075160652399063, 0.4904116094112396, 0.7867875695228577], [0.4272348880767822, -0.10329224914312363, -0.1564052700996399]], [[-0.8143419623374939, -0.6383969187736511, 0.1546260267496109], [0.15570278465747833, -0.2364288568496704, 0.1445908099412918], [-0.5180858969688416, 0.41522789001464844, -0.35124361515045166]], [[0.8012803196907043, 0.7974656820297241, -0.14988502860069275], [-0.42998844385147095, -0.6659647822380066, -0.3894443213939667], [-0.1484360247850418, -0.1854398250579834, 0.18182459473609924]], [[0.3212117552757263, 0.4376976191997528, -0.0453314483165741], [0.034962620586156845, 0.7640135288238525, -0.28523051738739014], [0.17789578437805176, -0.1391357183456421, -0.00317180878482759]], [[-0.7020218968391418, -0.6777384877204895, -0.05305039882659912], [0.19480381906032562, -0.176931694149971, -0.24668307602405548], [0.060275573283433914, -0.2909034788608551, -0.020852869376540184]], [[0.20331496000289917, 0.4806506633758545, 0.7622233629226685], [-0.23111094534397125, 0.256639689207077, -0.15310722589492798], [0.405994713306427, -0.26680633425712585, 0.24583841860294342]], [[0.47853749990463257, 0.21340805292129517, -0.15705527365207672], [-0.14188888669013977, 0.4003046452999115, 0.07501804828643799], [0.17420129477977753, -0.3517574965953827, -0.7581154108047485]], [[0.32141488790512085, 0.6995471119880676, 0.5928605794906616], [-0.04216615483164787, -0.8801192045211792, 0.3662175238132477], [0.02672691084444523, 0.43372097611427307, -0.3973163664340973]], [[-0.4289821684360504, -0.3515155613422394, 0.12622274458408356], [-0.10892626643180847, -0.5083043575286865, 0.6488874554634094], [1.2200396060943604, 0.5061806440353394, -0.7598521709442139]], [[-0.19817735254764557, 0.391560822725296, -0.5606154203414917], [-1.4220839738845825, 0.9814602136611938, 0.6332768201828003], [0.0078023080714046955, 0.21983972191810608, -0.6721828579902649]], [[-0.1322772055864334, 0.719175398349762, 0.21393826603889465], [-0.31934690475463867, 0.089598648250103, -0.255858838558197], [0.4963735044002533, 0.06939765065908432, -0.564780056476593]], [[-0.029245777055621147, 0.08955483138561249, 0.09427433460950851], [0.48896604776382446, -0.1302913874387741, 0.20690736174583435], [-0.7978866100311279, -0.5237914323806763, 0.3590347468852997]], [[0.2917502820491791, 0.10453718900680542, 0.15194520354270935], [0.1995629072189331, -0.01624125801026821, -0.6122108697891235], [-0.08197417855262756, -0.10618842393159866, 0.2296721637248993]], [[-0.6166542768478394, 0.6116019487380981, 0.2590849697589874], [-1.2427384853363037, -0.10470930486917496, -0.8143109679222107], [0.3454751670360565, 0.5472561717033386, 0.047142475843429565]], [[0.34850379824638367, 0.09761549532413483, -1.3058849573135376], [-0.3973991870880127, 0.1644090861082077, 0.8495391607284546], [0.6332250833511353, -0.2029958814382553, -0.2591869831085205]], [[0.5141483545303345, 0.7731526494026184, -0.1288163810968399], [0.22829683125019073, -0.5110207200050354, -0.05279653146862984], [-0.3629032075405121, -0.5332358479499817, 0.022737354040145874]], [[0.10276906192302704, 0.2822909355163574, -0.43860846757888794], [0.11140462756156921, 0.22536440193653107, 0.11249617487192154], [0.2458401322364807, -0.6188012957572937, 0.12847477197647095]], [[0.15621300041675568, -1.2394847869873047, 1.1002103090286255], [0.23326092958450317, 0.10649634152650833, -0.11813308298587799], [0.2964291572570801, -0.4065025746822357, -0.13033026456832886]], [[-0.8083098530769348, 0.5831591486930847, 0.08364760130643845], [-0.02184494584798813, 0.2343253791332245, 0.0034925714135169983], [-0.2672185003757477, 0.06441111862659454, 0.4459262788295746]], [[-0.09897087514400482, 0.24508608877658844, -0.4860730469226837], [0.15174807608127594, 0.3704717755317688, -0.8446954488754272], [-0.7402002811431885, 0.20476698875427246, 0.4818998873233795]], [[0.1231020912528038, 0.07030858099460602, 0.08722419291734695], [-0.48289158940315247, -0.062201935797929764, 0.17464002966880798], [0.37838470935821533, -0.09664257615804672, 0.24291081726551056]], [[-0.7521795630455017, 0.6469788551330566, -0.35196566581726074], [-0.5263633131980896, 0.9446853995323181, -0.5019040703773499], [-0.41425585746765137, 0.4305272698402405, 0.08202237635850906]], [[0.4811505377292633, 0.10087655484676361, 0.30038610100746155], [-1.4620386362075806, 0.4698167145252228, 0.013783816248178482], [0.6034753918647766, -0.8454386591911316, 0.1437816172838211]], [[0.6420552134513855, -0.32308289408683777, -0.7984431982040405], [0.23214727640151978, 0.8289748430252075, -0.18558545410633087], [0.053563591092824936, 0.12075168639421463, 0.4117501378059387]], [[-0.5800008177757263, -0.643795371055603, 0.16847380995750427], [-0.5333200693130493, -0.21833452582359314, 0.4959363639354706], [-0.7790668606758118, 0.2421700358390808, -0.3649607300758362]], [[-0.26234695315361023, 0.7477896809577942, 0.7127261757850647], [-0.44870278239250183, 0.9258307218551636, -0.005120960064232349], [-0.3737444281578064, -0.2305452674627304, -0.22638371586799622]], [[0.07794809341430664, 0.2847651541233063, -0.004279507324099541], [-0.24975202977657318, -0.7030717134475708, 0.23353466391563416], [-0.8995174169540405, -1.1080645322799683, -0.44405853748321533]], [[0.24728450179100037, -0.20628409087657928, 0.06477738171815872], [-0.22653700411319733, -0.27707183361053467, 0.12840338051319122], [0.27464160323143005, -0.040876369923353195, -0.010674802586436272]], [[-0.5008819699287415, -0.5290375351905823, 0.2591131329536438], [0.1030380129814148, -0.1561744213104248, -0.1449854075908661], [0.6176518797874451, -0.21431754529476166, -0.20881712436676025]], [[-0.46683207154273987, -0.015573492273688316, -0.4558676481246948], [0.3416045904159546, 0.01547164935618639, -0.08943141251802444], [-0.5189676880836487, 0.34405753016471863, -0.33472779393196106]], [[0.12875020503997803, 0.14754116535186768, 0.06522837281227112], [0.09122153371572495, 0.3421882688999176, 0.0034351700451225042], [0.7530025243759155, 0.040808361023664474, -0.17328302562236786]], [[0.05797937512397766, 0.2095019519329071, -0.05795854330062866], [-0.021785324439406395, -0.02597009390592575, 0.031453896313905716], [-1.0819591283798218, -0.31561097502708435, -0.48235422372817993]], [[-0.28181007504463196, 0.4121089577674866, 0.4958321154117584], [-0.448851078748703, -0.303272545337677, 0.08132501691579819], [0.21076242625713348, 0.3267112672328949, 0.1738385260105133]], [[-0.15284021198749542, 0.4121547043323517, 0.6069440841674805], [-0.03857678920030594, 0.1540316790342331, -0.9313787221908569], [-0.4395447075366974, -0.3124193847179413, 0.6834883689880371]], [[-0.3083762526512146, 0.8730676174163818, -0.08113839477300644], [-0.027551429346203804, 0.9636143445968628, 0.25065022706985474], [-0.4048529863357544, -0.6722585558891296, -0.4265238046646118]], [[0.5184515714645386, 0.0573938824236393, 0.5701335072517395], [0.31030571460723877, 0.19815629720687866, 0.1471538096666336], [0.3035120964050293, 0.2795256972312927, 1.1265209913253784]], [[0.8414242267608643, -0.5484386086463928, -1.0746325254440308], [0.5817492604255676, -0.17433464527130127, 0.16508698463439941], [0.12093904614448547, -0.17310425639152527, 0.2259252369403839]], [[0.027613040059804916, 0.16478173434734344, 0.34105098247528076], [-0.35791367292404175, -0.9113590121269226, -0.24361780285835266], [-0.3743688762187958, -0.25650686025619507, -0.22743894159793854]], [[-0.09506399184465408, -0.4797513484954834, 0.2593018412590027], [-0.8351359367370605, 0.5433436036109924, 0.1086566299200058], [-0.3674882650375366, 0.6127068400382996, 0.4844409227371216]], [[-0.3330807089805603, -0.6388252377510071, 0.044962864369153976], [-0.4673977792263031, 0.536421537399292, -0.15391837060451508], [0.31068068742752075, -0.04592694714665413, -0.13003307580947876]]], [[[0.3844747543334961, -0.823472797870636, -0.5538333654403687], [-0.5272327065467834, -0.04142322018742561, -0.27938738465309143], [0.4916003346443176, 0.5449808239936829, 0.060082778334617615]], [[0.22874715924263, -0.27256983518600464, 0.1484115719795227], [-0.49200239777565, 0.15279774367809296, -0.7599766254425049], [1.1386733055114746, 0.661163330078125, -0.021467695012688637]], [[-0.021458856761455536, 0.23400725424289703, -0.4988839328289032], [-0.7292346358299255, -0.11983256042003632, -0.2520735263824463], [-0.9329039454460144, -0.2601635754108429, 0.7565466165542603]], [[-0.38743454217910767, 0.49293768405914307, -0.19962839782238007], [-0.46457016468048096, 0.4766717553138733, -0.6095816493034363], [0.055928003042936325, 0.43686264753341675, 0.48204928636550903]], [[0.6201532483100891, -0.22442474961280823, -1.161602258682251], [-0.5609788298606873, -0.2578561007976532, -0.3015476167201996], [0.6728810667991638, -0.04525918886065483, -0.42109358310699463]], [[0.02758028544485569, -0.1450803428888321, 1.5981874465942383], [0.28355178236961365, 0.1332554817199707, -0.5641599893569946], [0.3113017678260803, 0.30025121569633484, -0.5337185263633728]], [[0.38572099804878235, -0.1253133863210678, -0.3672071397304535], [0.45753830671310425, -0.12439646571874619, 0.6378974318504333], [0.6645761728286743, -0.08751367032527924, -0.46488678455352783]], [[-0.31392863392829895, -0.07240155339241028, -0.12097527086734772], [-0.14889024198055267, -0.2742757499217987, 0.033632002770900726], [0.05981561541557312, 0.2397116869688034, 0.0027817131485790014]], [[0.05268798768520355, -0.4697592854499817, 0.7930535674095154], [0.26103514432907104, 0.6674244999885559, 0.21291758120059967], [0.6508064866065979, -0.13210177421569824, -0.3600471615791321]], [[0.04625915363430977, 0.4636554419994354, 0.057655006647109985], [0.2989603877067566, -0.14151909947395325, -0.2640232741832733], [0.5054869651794434, -0.06197822839021683, 0.7843422889709473]], [[0.45781561732292175, -0.6164550185203552, -0.2201802283525467], [-0.6955421566963196, 0.22762534022331238, -0.09265218675136566], [-0.041403017938137054, -0.37168630957603455, -0.2002631574869156]], [[0.26848822832107544, 0.1495276838541031, 0.45424753427505493], [-0.15119236707687378, -1.2903985977172852, 0.07790066301822662], [0.27057749032974243, -0.050010308623313904, 0.6038671731948853]], [[0.7156811952590942, 0.2551339268684387, -0.1529303342103958], [-0.1058528795838356, 0.4221697151660919, 0.04314381256699562], [-0.3263327181339264, 0.39815351366996765, 0.19996580481529236]], [[0.3510054647922516, 0.28140655159950256, 0.21485000848770142], [0.19592443108558655, -0.6466442942619324, 0.18395040929317474], [-0.48802071809768677, 0.81477290391922, -0.2609959542751312]], [[0.0014362914953380823, 0.04886738210916519, -0.2033442258834839], [0.21572266519069672, 0.04996250197291374, 0.1911476105451584], [0.9060636162757874, 0.1558457911014557, -0.08542279899120331]], [[0.1007421612739563, -0.09398090094327927, 0.3983253240585327], [0.17852462828159332, 0.11873254925012589, -0.27142196893692017], [0.3152288496494293, 0.033959608525037766, -0.4145403504371643]], [[0.09716349095106125, -0.6360710859298706, 0.4937247931957245], [-0.8724242448806763, 0.07993106544017792, -0.5145806074142456], [0.545950710773468, -0.4372332692146301, 0.02722315676510334]], [[0.1380375176668167, 0.12062940746545792, 0.13047845661640167], [0.6390640735626221, -0.020802199840545654, 0.4812106490135193], [-0.8435850739479065, 0.3255555331707001, -0.20470376312732697]], [[0.2437029331922531, -0.1399444043636322, 0.035553883761167526], [-0.1996404230594635, 1.5057158470153809, 0.3709614872932434], [-1.1485190391540527, 0.13979469239711761, 0.5579710006713867]], [[-0.044798292219638824, -0.6103862524032593, -1.5586633682250977], [-0.4286361336708069, 0.07444038987159729, -0.046652667224407196], [-0.20606771111488342, -0.036738164722919464, -0.6429510712623596]], [[-0.11428925395011902, 0.28194794058799744, 0.556020975112915], [0.18433336913585663, -0.40982723236083984, 0.1633433699607849], [-0.3291773200035095, 0.5255338549613953, 0.4118381440639496]], [[-0.4558945298194885, 0.19913649559020996, 1.6121913194656372], [0.823687732219696, -0.2953850030899048, 0.3609752655029297], [-0.4032289683818817, 0.26275551319122314, -0.7312150001525879]], [[-0.20993497967720032, 0.2638927102088928, -0.8014586567878723], [-0.09173385798931122, 0.22941237688064575, 0.2617449164390564], [-0.11079785972833633, 0.2959385812282562, -0.6134623289108276]], [[0.45489758253097534, 0.19686535000801086, 0.20834819972515106], [-0.1926834136247635, 0.42249858379364014, 0.10005868971347809], [0.11885198950767517, 0.3290167450904846, 0.6496034860610962]], [[-0.055739548057317734, 0.41911476850509644, -0.0087998416274786], [-0.3172494173049927, -0.15941070020198822, 0.22629402577877045], [-1.8178561925888062, -0.10862364619970322, -0.2559881806373596]], [[-0.12340628355741501, 0.25654852390289307, 0.36038321256637573], [-0.2786816358566284, 0.039377931505441666, -0.8431040644645691], [0.1395341008901596, -0.7212937474250793, -0.10428325831890106]], [[0.41291287541389465, 0.005015991628170013, -0.6696966290473938], [0.5138884782791138, 0.1029183641076088, 1.1408607959747314], [0.8990318179130554, 0.811870813369751, -1.2608420848846436]], [[-0.20398612320423126, 0.23709185421466827, 0.13716387748718262], [-0.531825840473175, 0.47376227378845215, -0.03597753122448921], [-0.8480373620986938, 0.3507840931415558, -0.2735329270362854]], [[-0.13623152673244476, -0.3328043520450592, 0.4850647747516632], [0.12817086279392242, -0.6450156569480896, 0.8864412903785706], [-0.21597926318645477, 0.14908163249492645, 0.3877708613872528]], [[-0.5084994435310364, -0.4419100284576416, -0.23814289271831512], [-0.23377764225006104, -0.642146110534668, -0.0993664413690567], [-0.35718509554862976, -1.2808692455291748, 0.27111756801605225]], [[0.3937053680419922, 0.25341182947158813, 0.5652227401733398], [0.26206326484680176, 0.6322491765022278, -0.034920450299978256], [-0.07336146384477615, -0.4775536060333252, 0.5819706916809082]], [[-0.4352746903896332, 0.47153446078300476, -0.6918116807937622], [-0.5180900692939758, -0.8054425716400146, -0.7052047848701477], [-0.6424195170402527, 0.10916071385145187, -0.27637144923210144]], [[0.0911654382944107, -0.36488252878189087, -0.3545931577682495], [0.34257376194000244, 0.41215580701828003, 0.22988012433052063], [0.5354939103126526, -0.02055101841688156, -0.0653105303645134]], [[0.5028481483459473, -1.2775282859802246, -0.16314801573753357], [0.005622602999210358, -0.5594024658203125, -0.3675951659679413], [0.4231507480144501, -0.55632483959198, 0.16377757489681244]], [[0.11552207171916962, -0.01682775467634201, 0.21519453823566437], [-0.1731097400188446, 0.5286940932273865, 0.039206188172101974], [-0.034633930772542953, -0.2657608389854431, 0.2771635353565216]], [[-0.29465505480766296, -0.18345682322978973, -0.35474565625190735], [-0.6225280165672302, 0.2006487101316452, -0.039270855486392975], [0.22650910913944244, -0.18372991681098938, -0.2183452695608139]], [[0.4425537586212158, 0.48664727807044983, 0.14421583712100983], [-0.24329781532287598, 0.15119707584381104, -0.46800678968429565], [0.04010123759508133, 0.26661887764930725, 0.7054023742675781]], [[0.42184120416641235, -0.032948534935712814, 0.5044980049133301], [-0.17995816469192505, 0.05766906216740608, 0.35742178559303284], [0.3591092824935913, -0.15414480865001678, 0.4729999005794525]], [[-0.25122392177581787, -0.004480763338506222, -0.7930447459220886], [-0.08948985487222672, 0.6588732004165649, 0.11379154771566391], [-0.26570314168930054, 0.39961129426956177, -0.24026690423488617]], [[0.6044965386390686, 0.15982989966869354, 0.08427397161722183], [0.24427515268325806, 0.32644954323768616, -0.35171207785606384], [0.6280888319015503, -0.350190132856369, 0.38777247071266174]], [[0.11923772841691971, -0.1111241802573204, 1.009368896484375], [-0.1494591385126114, 0.4497517943382263, 0.04058941453695297], [1.179936170578003, -0.9311245083808899, -0.3774782419204712]], [[0.0351824015378952, 0.4769217371940613, 0.4916880428791046], [-0.08443666994571686, 0.20867812633514404, -0.6786405444145203], [-0.0991947129368782, -0.6981035470962524, -0.38261476159095764]], [[0.051492683589458466, -0.6465930938720703, -0.17918723821640015], [0.18656598031520844, 0.5444827079772949, -0.5599070191383362], [0.060783904045820236, 0.11940203607082367, 0.15414583683013916]], [[-0.07967858016490936, 0.127987340092659, -0.17095127701759338], [0.42389780282974243, 0.19787776470184326, 0.2774333953857422], [-0.9326602220535278, -0.15753735601902008, 0.4655056297779083]], [[-0.11801186949014664, -0.2504836320877075, 0.5033388137817383], [-0.05511759594082832, 0.07165873050689697, -1.0188368558883667], [0.28789517283439636, -0.006100303027778864, 0.007864664308726788]], [[-0.732282817363739, -0.38384443521499634, 0.053546201437711716], [-0.48199301958084106, -0.573090136051178, 0.31331586837768555], [0.252078115940094, 0.17348872125148773, -1.2725443840026855]], [[0.11654406785964966, -0.12101493030786514, -0.5327925682067871], [-0.3651200830936432, -0.03849968686699867, -0.3462410271167755], [0.5672845244407654, -0.271785706281662, -0.2541483938694]], [[0.14823448657989502, 0.10251516848802567, 0.1764339655637741], [0.055716414004564285, 0.614330530166626, 0.5172427296638489], [-0.5123827457427979, -0.2440139502286911, 0.16944150626659393]], [[0.13429827988147736, -0.5616310238838196, -0.6910303235054016], [-0.8726885318756104, -0.21398235857486725, -0.5937438011169434], [0.6430310606956482, -0.07553896307945251, 0.011402387171983719]], [[0.6415425539016724, 0.10281262546777725, -0.3040297031402588], [-0.3667184114456177, 0.09709011018276215, -0.020215647295117378], [-0.28766268491744995, -0.2926648259162903, 0.12966902554035187]], [[-0.20163550972938538, 0.13935166597366333, -0.1616864800453186], [-0.361781507730484, 0.15612751245498657, 0.2945329248905182], [-1.076324462890625, 0.016887448728084564, -0.29456377029418945]], [[0.26448336243629456, -0.3495542109012604, 0.07771378755569458], [0.6264570951461792, -0.12473899871110916, 0.09517160803079605], [-0.8599453568458557, -0.09924855828285217, 0.46356475353240967]], [[-0.03266580030322075, -0.06615404784679413, -0.4086127281188965], [0.40588757395744324, -0.04004201665520668, -0.21319836378097534], [0.3394639492034912, -0.22018803656101227, 0.14533531665802002]], [[-0.3995000720024109, 0.4255547821521759, 0.6100556254386902], [0.3587368130683899, 0.7021480798721313, 0.21771572530269623], [0.18504184484481812, -0.4899995028972626, 0.8946817517280579]], [[0.2605159878730774, 0.6968750953674316, -1.8331491947174072], [-0.03595903143286705, 0.9495384693145752, 0.4355468153953552], [0.3866005837917328, -0.04617759957909584, 0.4014240801334381]], [[0.3110750913619995, 0.45075738430023193, 0.38998374342918396], [0.09624440222978592, -0.15137919783592224, 0.0957268700003624], [0.12229744344949722, 0.8131370544433594, 0.1818448305130005]], [[0.8130824565887451, 0.656006932258606, -0.09265127778053284], [-1.0897504091262817, -0.08666631579399109, -0.17885911464691162], [-0.46903154253959656, 0.05387135595083237, 0.5260936617851257]], [[0.14316530525684357, 0.08695202320814133, 0.3015119731426239], [0.2913091480731964, 0.5706278681755066, -0.38488054275512695], [0.06716208904981613, 0.2024746835231781, -0.32981637120246887]], [[0.14915087819099426, 0.21836857497692108, -0.023619575425982475], [-0.7381833791732788, 0.17655745148658752, -0.2846929728984833], [-0.10535044968128204, -0.08296749740839005, 0.7200178503990173]], [[-0.3285418450832367, 0.37420374155044556, 0.7725930213928223], [0.21750570833683014, 0.13308894634246826, -0.41763824224472046], [0.5533602237701416, -0.29622283577919006, 0.36851921677589417]], [[-0.12308026105165482, -0.28845176100730896, 0.08829552680253983], [-0.4512917697429657, 0.4705955684185028, 0.3997293710708618], [-0.40615466237068176, -0.12853595614433289, -0.9100688695907593]], [[-0.4190785884857178, -0.10346337407827377, 0.5547060370445251], [-0.02006121352314949, 0.15517520904541016, -0.2894284427165985], [0.34679919481277466, -0.030154453590512276, -0.02290019765496254]], [[0.26089492440223694, 0.10664207488298416, -0.3784460425376892], [-0.34172651171684265, 0.25927025079727173, -0.0909489095211029], [-0.25662630796432495, -0.10265562683343887, -0.4026053547859192]], [[0.6821690797805786, 0.17187874019145966, -0.616237461566925], [0.6334313750267029, 0.495626837015152, -0.36195671558380127], [-0.2835182249546051, -0.1728605479001999, -0.7501593232154846]]], [[[-1.3851450681686401, -0.024212699383497238, 0.1826612651348114], [-0.08461958914995193, 0.5770523548126221, 0.3636826276779175], [0.656700074672699, 0.07382699847221375, 0.12152982503175735]], [[-0.2025669515132904, -0.10949574410915375, -0.3413867652416229], [0.2816177010536194, 0.5754309296607971, -0.658304750919342], [-0.10944435000419617, -0.211400106549263, 0.012681614607572556]], [[0.11972059309482574, 0.32615840435028076, 0.03648369014263153], [-0.3132140338420868, -0.5638108849525452, -0.20673464238643646], [0.7030484676361084, -0.37403354048728943, -0.46909353137016296]], [[0.6642060875892639, -0.5317060351371765, 0.2190473973751068], [0.10279835760593414, -0.8554863333702087, 0.5004150867462158], [-0.6878477334976196, -0.10329855233430862, 0.02546836994588375]], [[0.19051280617713928, 0.04088061675429344, -0.00547933392226696], [0.15604645013809204, -0.3322577178478241, 0.3908027708530426], [0.5624561905860901, -0.729361891746521, 0.040050312876701355]], [[-0.5415101051330566, -0.12020090222358704, 0.1678425818681717], [-0.11400378495454788, -0.4674677550792694, -0.018773477524518967], [-0.24572588503360748, -0.18622827529907227, 0.19849903881549835]], [[0.22975941002368927, 0.05101657286286354, -0.7373682856559753], [0.3410666286945343, 0.0001346716016996652, -0.04404759407043457], [0.5046682357788086, -0.7035458087921143, 0.1661645919084549]], [[0.7401393055915833, 0.3222295045852661, 0.19205909967422485], [0.05979809910058975, 0.03043697588145733, -0.6330623030662537], [-0.0996621772646904, -0.049847204238176346, -0.18723024427890778]], [[-0.542222797870636, 0.1368718296289444, -0.07556603103876114], [0.12569215893745422, 1.0602257251739502, 0.2024277299642563], [-0.6312083601951599, 0.5186905860900879, 0.09125586599111557]], [[-0.06218162551522255, 0.597251832485199, -0.231835275888443], [0.3827191889286041, 0.015155838802456856, 0.3203326165676117], [0.21809394657611847, -0.37763383984565735, 0.39258652925491333]], [[0.3737120032310486, -0.0019565436523407698, 0.06602176278829575], [0.8550646305084229, -0.9436724185943604, -1.0812784433364868], [-0.03522549569606781, 0.3287277817726135, 0.13047990202903748]], [[-0.1525229811668396, 0.07556045055389404, 0.3000935912132263], [0.03986464813351631, 0.907727837562561, -0.055226296186447144], [0.016376134008169174, -0.7211392521858215, -0.7558013200759888]], [[0.4320197105407715, 0.30962151288986206, -0.6264243125915527], [-0.0025212957989424467, 0.40998372435569763, 0.9069676995277405], [-0.2721610963344574, -0.10498921573162079, 0.386265367269516]], [[0.12359191477298737, -0.45781657099723816, 0.49186521768569946], [0.19436317682266235, -0.09310704469680786, -0.523793637752533], [-0.19523218274116516, -0.15978766977787018, 0.5012571811676025]], [[0.2225407361984253, 0.06885169446468353, 0.09713554382324219], [-0.10627830773591995, -0.025244899094104767, 0.005187935195863247], [-0.34567344188690186, -0.3484228849411011, 0.566768229007721]], [[-0.5755751729011536, 0.5775057673454285, 0.0691055878996849], [0.16755974292755127, 0.8112744092941284, -0.373492568731308], [-0.1614941656589508, -1.2964495420455933, -0.24030543863773346]], [[0.19008341431617737, 0.6144315004348755, 0.6081380248069763], [-0.03834616020321846, 0.7255581021308899, -0.221835196018219], [0.23321111500263214, -0.27202048897743225, -0.046075452119112015]], [[-0.26963040232658386, -0.2511983811855316, 0.06211656704545021], [-0.5072987675666809, -0.1770123392343521, 0.266437292098999], [-0.21139129996299744, 0.15836043655872345, -0.14131243526935577]], [[-0.6225308179855347, 0.4353908598423004, 1.0050694942474365], [-1.274863362312317, -0.32309025526046753, 0.5264944434165955], [0.6659932732582092, 0.5668432712554932, 0.09396320581436157]], [[0.5302687287330627, -0.16201967000961304, 0.665283739566803], [-0.4773676097393036, 0.19054603576660156, -0.00018318858928978443], [0.4283905029296875, -0.5685162544250488, -0.6761646270751953]], [[0.8621085286140442, -0.025131352245807648, -0.0968879908323288], [-0.6122649312019348, 0.12542220950126648, 0.5402650833129883], [-0.8180187344551086, 0.1308795064687729, -0.5411838293075562]], [[-0.4697338044643402, -0.2597586512565613, -0.7568262219429016], [0.25958096981048584, -0.40912601351737976, 0.035327646881341934], [-0.41779178380966187, 0.40076032280921936, 0.42060014605522156]], [[-0.14145183563232422, -0.09583000093698502, -0.0676102340221405], [0.30993717908859253, 0.17539723217487335, -0.6045736074447632], [0.15447047352790833, -0.4642196297645569, -0.4787134826183319]], [[-0.5564842224121094, 0.16357679665088654, 0.395028293132782], [-0.3811264932155609, 0.050074148923158646, 0.1586211621761322], [-0.03298255801200867, 0.02466179057955742, -0.651345431804657]], [[0.6861058473587036, 0.24176152050495148, -0.3202938139438629], [0.041472818702459335, 0.25344642996788025, -0.4126226305961609], [-0.6957966685295105, 0.19186818599700928, 0.3435320556163788]], [[0.2402624934911728, 0.7224623560905457, 0.13025020062923431], [-0.13735371828079224, 0.3858237564563751, -0.6780614852905273], [0.25398826599121094, 0.4213801920413971, 0.06146274879574776]], [[-0.4027371406555176, 0.3943239152431488, -0.33738231658935547], [-0.05052800476551056, 0.4535121023654938, 0.20790870487689972], [-0.25343039631843567, -0.4352160692214966, -0.21272538602352142]], [[0.7439590096473694, 0.01859436184167862, -0.04777222126722336], [-0.19047343730926514, 0.28174665570259094, -0.2594878673553467], [-0.06403565406799316, -0.3615705668926239, 0.18102261424064636]], [[-0.6631728410720825, 0.17485705018043518, -0.014586624689400196], [-0.31830132007598877, -1.4547728300094604, -0.20398107171058655], [0.005807675886899233, 0.6449849605560303, 0.5502207279205322]], [[-0.08225131779909134, 0.23818650841712952, 0.3140600621700287], [-0.6049252152442932, 0.22348558902740479, -0.06662601232528687], [0.24957752227783203, -0.13849800825119019, -0.33817389607429504]], [[0.08475954085588455, -0.27438849210739136, 0.7329515218734741], [-0.27452918887138367, -0.07637190818786621, -0.39002808928489685], [-0.15980012714862823, 0.6007172465324402, 0.018465671688318253]], [[0.16972005367279053, -0.4534437656402588, -0.07583261281251907], [-0.0011070073815062642, 0.6807863116264343, -1.2593424320220947], [0.09596908837556839, -0.25412845611572266, 0.03675302118062973]], [[-0.08921472728252411, -0.3313010334968567, -0.4682377576828003], [0.12592504918575287, -0.19147895276546478, -0.46613603830337524], [0.8441781997680664, 0.5807839632034302, 0.2845410108566284]], [[-0.007507210597395897, -0.10741439461708069, -0.6458979845046997], [-0.3125629425048828, -0.027526363730430603, 0.1834631860256195], [0.9089398384094238, -0.28359556198120117, -0.4465813636779785]], [[0.6312215328216553, 0.16127577424049377, 0.1373433917760849], [-0.0790247917175293, -0.9077534675598145, -0.48524999618530273], [0.08804668486118317, -0.08757215738296509, -0.23137322068214417]], [[0.25684234499931335, -0.3166593313217163, -0.06148152053356171], [-0.8186690807342529, 0.12461995333433151, 0.07934907078742981], [-0.6600744724273682, -0.6668623089790344, -0.377934992313385]], [[-0.48285359144210815, -0.14487580955028534, -0.17038948833942413], [-0.09519901871681213, -0.7097087502479553, -0.3772910237312317], [1.1258947849273682, -0.006789811886847019, 0.3477134704589844]], [[-0.21342304348945618, 0.7050634622573853, -0.36147263646125793], [0.05130610242486, 0.04145964980125427, -0.38930994272232056], [-0.9047645926475525, 0.8633830547332764, 0.1111232340335846]], [[0.12373319268226624, -0.1510312408208847, 0.09330839663743973], [0.602890133857727, 0.31000521779060364, 0.0843234658241272], [0.39577949047088623, 0.7471457719802856, 0.5968579649925232]], [[-0.4194785952568054, -0.6850716471672058, 0.65510493516922], [0.1265554577112198, -0.49698540568351746, 0.20415067672729492], [0.12110123038291931, -0.1082974523305893, 0.4605138897895813]], [[1.0791772603988647, 0.1486896127462387, -0.07271561771631241], [0.011534358374774456, 0.39093542098999023, -0.6138267517089844], [0.17954270541667938, 0.33105212450027466, -0.1982697695493698]], [[0.5791731476783752, -0.3381631374359131, -1.4325101375579834], [0.5331078767776489, 0.07403528690338135, -0.6546533107757568], [0.46922674775123596, -0.4061596989631653, -0.9808213710784912]], [[0.5409126281738281, -0.4557131826877594, 0.8921974897384644], [-0.606177031993866, 0.7244814038276672, 0.10065805166959763], [-0.6096198558807373, 0.4463387429714203, 0.827456533908844]], [[0.017231561243534088, 1.2648972272872925, 0.3315293788909912], [-0.4646955728530884, 0.28515738248825073, 0.7690390944480896], [-0.3689328134059906, -0.09136566519737244, -0.5115982294082642]], [[-0.15153220295906067, 0.43604815006256104, -0.17512087523937225], [-0.33440467715263367, -0.13822433352470398, 0.6936722993850708], [-0.10649034380912781, -0.6190860271453857, -0.2811509072780609]], [[-0.25689542293548584, -0.5150569677352905, -0.6331608891487122], [-0.6766428351402283, 0.02922668121755123, -0.2222375124692917], [-1.2842954397201538, -0.524346113204956, 0.2514648735523224]], [[-0.07304365187883377, -0.542299211025238, -0.7067784667015076], [-0.005928467959165573, 0.034831468015909195, -0.5835303068161011], [0.7753192782402039, 0.1649811863899231, -0.6103687882423401]], [[0.48594823479652405, -0.48161718249320984, 0.10053621232509613], [-0.002507074037566781, -0.17415034770965576, 0.3515327572822571], [-1.03269362449646, 0.02506357431411743, -0.09716983139514923]], [[0.46509963274002075, -0.00818153191357851, 0.34687766432762146], [-0.8026030659675598, 0.431100457906723, -1.0977191925048828], [0.0822218731045723, 0.528886616230011, -0.32781675457954407]], [[-0.455012708902359, -0.2556239664554596, -0.1719374805688858], [-0.29530999064445496, -0.20200049877166748, -0.968339741230011], [0.42696821689605713, 0.2882537841796875, -0.2193957418203354]], [[0.19360549747943878, 0.4219432473182678, 0.17987950146198273], [-1.0414305925369263, 0.33081719279289246, -0.454385370016098], [0.6477243304252625, 0.2719683349132538, 0.7465528845787048]], [[-0.12972217798233032, -0.1677044779062271, 0.08207766711711884], [-0.3312216103076935, 0.05417098104953766, -0.3420014977455139], [0.1251685619354248, -0.2995140552520752, -0.9715927243232727]], [[-0.3267228901386261, -0.32248619198799133, -0.11515788733959198], [0.5589736104011536, -0.11958912014961243, -0.5171309113502502], [0.20345930755138397, -0.17825935781002045, -0.7208819389343262]], [[0.16173261404037476, -0.03744347020983696, 0.1334834098815918], [-0.7981570363044739, 0.022767309099435806, 0.24638701975345612], [-0.08436572551727295, 0.30757686495780945, -0.3746717870235443]], [[0.06790434569120407, 0.35730648040771484, 0.10252316296100616], [-0.036495257169008255, -0.42740949988365173, 0.18275848031044006], [-0.7821303606033325, 0.30922073125839233, 0.1637587994337082]], [[-0.13319987058639526, -0.1192757785320282, 0.7192204594612122], [0.4070907235145569, 0.2324908822774887, -0.06923312693834305], [0.2955080270767212, -1.1861313581466675, -0.21296337246894836]], [[0.28232890367507935, -0.03775397688150406, 0.7006284594535828], [-0.7943265438079834, -0.5612472295761108, -0.3739556670188904], [-1.2659908533096313, 0.6985604166984558, 0.2501365542411804]], [[0.4807499945163727, -0.2862888276576996, -0.8227431178092957], [0.08459854125976562, 0.28377145528793335, 0.37777701020240784], [-0.8856542110443115, 0.48568832874298096, -0.08873572200536728]], [[0.2450796365737915, 0.21030472218990326, 0.29582005739212036], [-0.5884393453598022, 0.14326965808868408, -0.48005151748657227], [0.021538516506552696, -0.0538477823138237, -1.0852597951889038]], [[0.18932707607746124, 0.012894430197775364, -0.7524694204330444], [-0.5367416143417358, 0.46036460995674133, -0.0495203398168087], [-0.30290326476097107, -0.4647690951824188, 0.31824183464050293]], [[-0.4895766079425812, 0.11438800394535065, 0.249627023935318], [0.5071518421173096, 0.204640731215477, -0.5949752926826477], [-0.4653477966785431, -0.2628728747367859, -0.16227787733078003]], [[-1.2660045623779297, -0.49589961767196655, 0.49309664964675903], [-0.16600169241428375, 0.3672579824924469, -0.45312798023223877], [0.16037660837173462, -0.05432293936610222, 0.2510825991630554]], [[-0.08945686370134354, 0.650054395198822, 0.2235630303621292], [0.795905351638794, -0.3233679234981537, -0.4641904830932617], [-0.2641143798828125, 0.7450855374336243, 0.2766825258731842]], [[-1.1379258632659912, 0.027638273313641548, 0.25001558661460876], [-0.8272314071655273, 0.057808879762887955, -0.2801426947116852], [-0.80805504322052, -0.20204506814479828, -0.6352910995483398]]], [[[0.2250993698835373, 0.3166457712650299, -0.44408804178237915], [-0.08114439249038696, 0.7582269906997681, 0.08675508946180344], [-0.23480598628520966, 0.1860063225030899, -0.9015421867370605]], [[-0.11339396983385086, 0.29423701763153076, -0.08845629543066025], [-0.435748428106308, 1.1019923686981201, -0.5047009587287903], [-0.2222101092338562, -0.532133162021637, -0.1243923231959343]], [[-0.521946132183075, 0.642196536064148, -0.003114203456789255], [-0.4580973982810974, -0.2146778553724289, 0.7531673312187195], [-1.866051435470581, -0.22298982739448547, -0.5915086269378662]], [[0.19594278931617737, 0.3059898614883423, 0.3551880717277527], [0.133318692445755, 0.47505900263786316, 0.7300673127174377], [0.6146445870399475, -0.49658066034317017, -0.27087703347206116]], [[0.23690134286880493, -0.28936073184013367, -0.1407969743013382], [-0.6337199211120605, -0.07250652462244034, -0.7977629899978638], [0.6012157201766968, 0.07253238558769226, -0.3821069300174713]], [[0.09683874249458313, -0.7646011114120483, -0.2727208733558655], [0.2705291211605072, -0.1407603770494461, -0.5339018106460571], [-0.5575161576271057, -0.37821054458618164, -0.26118403673171997]], [[-0.0230778269469738, 0.42453938722610474, -0.4292444884777069], [0.01252415869385004, 0.22550827264785767, -0.03477440029382706], [0.8462235331535339, 0.4233357012271881, -0.7674624919891357]], [[-0.7633953094482422, 0.6767547130584717, 0.9363012313842773], [0.20187553763389587, 0.11705400049686432, 0.04015219956636429], [-0.1399054080247879, -0.43877729773521423, 0.5450316667556763]], [[0.43392667174339294, -0.3645634055137634, 0.1733960062265396], [-0.1624900847673416, 0.14496417343616486, -0.6289885640144348], [-0.5952075123786926, 0.13317649066448212, 0.6937245726585388]], [[0.24889038503170013, 0.02388235554099083, 0.39420285820961], [-0.46615147590637207, -0.16537277400493622, 0.6060006618499756], [0.1709195226430893, 0.20237360894680023, -0.4971034824848175]], [[0.3601469397544861, 0.38619109988212585, -0.07429178804159164], [0.5932338833808899, 0.6983795762062073, 0.09303345531225204], [-0.49725332856178284, 0.04862402379512787, -0.4606530964374542]], [[0.2303093522787094, -0.11338614672422409, 0.3986071050167084], [-0.35687336325645447, -0.1124488040804863, -0.6629341244697571], [-1.0498493909835815, -0.7201334834098816, -0.3480624854564667]], [[-0.7218761444091797, 0.4665423035621643, 0.06825391948223114], [-0.05085690692067146, 0.28901076316833496, 0.3607298731803894], [0.028522679582238197, 0.5095638632774353, -0.6779465675354004]], [[-0.21600428223609924, -0.07197126001119614, -0.045422863215208054], [-0.11292227357625961, 0.6102567911148071, -0.363333135843277], [-0.90910404920578, -0.2416556030511856, 0.2274637371301651]], [[-0.1773332804441452, 0.7062472701072693, -0.131317138671875], [-0.8997942209243774, -0.4957106411457062, -0.27486756443977356], [0.17827880382537842, -0.22367051243782043, -0.22299648821353912]], [[0.012811019085347652, -0.21431460976600647, -0.13610924780368805], [-0.010782360099256039, 0.009569836780428886, -0.24901172518730164], [-0.10535847395658493, -0.051776137202978134, 0.3940121531486511]], [[-0.6222849488258362, -0.41711822152137756, -0.14545081555843353], [0.2096327394247055, -7.749674841761589e-05, 0.5623448491096497], [-0.14239802956581116, -0.19379720091819763, -0.2952161133289337]], [[0.5191938877105713, 0.5851871967315674, -0.7364747524261475], [0.36862489581108093, 0.14620406925678253, 0.054204441606998444], [0.5179083347320557, 0.26929357647895813, -0.24760569632053375]], [[0.021580275148153305, -0.43600940704345703, 0.3144107460975647], [-0.0856543704867363, -0.21814216673374176, -0.2370012402534485], [-0.3770776093006134, -0.03435119241476059, -0.45973658561706543]], [[-0.27175015211105347, 0.4368727505207062, -0.06555623561143875], [0.46584397554397583, 0.3381097614765167, 0.2139277309179306], [0.3264748752117157, 0.1194978877902031, -0.3930200934410095]], [[-0.11657855659723282, -0.2695592939853668, -0.4804820418357849], [-0.7382941842079163, 0.5618883967399597, 0.1340569704771042], [-0.3123508393764496, -0.09045490622520447, 0.14698849618434906]], [[0.9559434652328491, -0.8396463990211487, -0.3568292558193207], [0.3294367790222168, 0.056674350053071976, 0.3986785411834717], [-0.03002563677728176, -0.16010886430740356, 0.18706822395324707]], [[0.43788933753967285, 0.13020670413970947, -0.03830524906516075], [-0.05299818515777588, 0.2675366699695587, 0.8556016683578491], [0.6255363821983337, -0.023648623377084732, -0.2539605498313904]], [[0.4557022750377655, 0.06886187195777893, 0.3792915940284729], [0.3518258333206177, -0.12165091186761856, 0.587233304977417], [-0.18206587433815002, -0.8068305850028992, -1.5507454872131348]], [[0.23642170429229736, 0.5790619850158691, -0.39867523312568665], [0.5263081192970276, -0.4209006428718567, 0.5224590301513672], [0.1994958072900772, 0.5075868368148804, -0.3325605094432831]], [[-0.15820179879665375, -0.08189558982849121, 0.2653464376926422], [-0.24917590618133545, -0.025055360049009323, 0.12593412399291992], [-0.39568740129470825, -0.250837504863739, 0.4302954375743866]], [[0.19562900066375732, 0.4707997739315033, -0.11073719710111618], [0.24350537359714508, -0.35651659965515137, 0.3974522650241852], [-0.3594474494457245, 0.23943714797496796, -0.2971835732460022]], [[-0.1258060336112976, 0.568834125995636, 0.06268821656703949], [0.14381448924541473, -0.011241179890930653, -0.041493695229291916], [-0.4758647382259369, -0.0591089092195034, 0.028236715123057365]], [[-0.6116607189178467, 0.29551562666893005, -0.3131752610206604], [-0.8645897507667542, -0.502072274684906, -0.3359849750995636], [-0.07010713964700699, -0.5090197920799255, -0.2649577558040619]], [[0.7580180168151855, -0.5902318358421326, -0.3418431282043457], [-0.29717522859573364, -0.7540302276611328, -0.8159608244895935], [0.8743686079978943, 0.24553006887435913, 0.1696515530347824]], [[0.679122269153595, -0.5150447487831116, -0.3059444725513458], [0.11909189075231552, -0.3502054512500763, 0.20701384544372559], [-0.4457032382488251, -0.07732097059488297, 0.47884249687194824]], [[0.32030510902404785, 0.06152420490980148, -0.7506723999977112], [0.4156690835952759, 0.41751864552497864, 0.43066298961639404], [0.370782732963562, 0.6423599123954773, -0.3153000473976135]], [[-0.18752485513687134, 0.16117826104164124, -0.004812925588339567], [-0.40012672543525696, -0.46465277671813965, -0.5019696950912476], [-0.31448450684547424, -0.8319798707962036, 0.4274448752403259]], [[0.7663643956184387, 0.2200334519147873, -1.020311713218689], [-0.589333176612854, -0.21498459577560425, 0.29758894443511963], [-0.2495294213294983, 0.774193286895752, -0.23175528645515442]], [[-0.5225754976272583, 0.521571695804596, 0.38963064551353455], [-0.4453282654285431, 0.38600850105285645, 0.07740616053342819], [-0.05766671150922775, -0.5665231347084045, 0.3806934952735901]], [[-0.369168758392334, 0.3033013343811035, -0.14763692021369934], [0.5328029990196228, -0.0530552938580513, 0.016799086704850197], [0.6934786438941956, -0.6751804351806641, 0.0052108317613601685]], [[-0.03830942139029503, -0.1042221188545227, 0.029106438159942627], [-0.4731407165527344, 0.3077748417854309, -0.3661506175994873], [0.6929354071617126, 0.09094345569610596, 0.35831284523010254]], [[-0.9360712170600891, 0.2971012592315674, -0.4232994318008423], [-0.5207497477531433, -0.09205544739961624, -0.18776312470436096], [-0.640251100063324, -0.13591313362121582, 0.6155560612678528]], [[-0.13270112872123718, -0.15082046389579773, -0.09823513776063919], [-0.6218754649162292, -0.09078748524188995, 0.1341201812028885], [-0.2742694914340973, 0.2578675448894501, -0.4129236042499542]], [[0.5790488719940186, -0.3148217499256134, 0.08323178440332413], [-0.31836727261543274, -0.35176974534988403, -0.3391820788383484], [-0.17142000794410706, 1.1364598274230957, 0.4059217870235443]], [[-1.0519510507583618, -0.6383495926856995, 0.36939266324043274], [0.4661080539226532, 0.0022958656772971153, 0.6192127466201782], [0.4258121848106384, -0.04832758381962776, 0.068447045981884]], [[-0.21369080245494843, 0.16688376665115356, 0.5423334240913391], [-0.3366658687591553, -0.6387763619422913, -0.2246299684047699], [-1.1834003925323486, 0.08069340139627457, 0.3661251664161682]], [[0.1661302000284195, 0.3598277270793915, -0.7312303781509399], [0.4036899209022522, 0.6720582842826843, -0.6941525936126709], [0.8306868672370911, 0.044698070734739304, -1.0098168849945068]], [[0.11622512340545654, -0.1787777692079544, -0.5455071330070496], [0.09774833917617798, -0.6436477303504944, 0.27064239978790283], [0.21381676197052002, 0.5348207354545593, 0.24732790887355804]], [[-0.6205271482467651, 0.30507105588912964, 0.09270559251308441], [0.4553985595703125, -0.31304988265037537, 0.07039180397987366], [-0.8863441348075867, -0.36988794803619385, 0.6124277710914612]], [[0.4596412777900696, 0.11806042492389679, 0.24285584688186646], [0.01780892349779606, 0.4694100022315979, 0.4124753177165985], [-0.8669086694717407, -0.6958712935447693, -0.7718733549118042]], [[-0.17680998146533966, -0.2976636588573456, 0.27464956045150757], [-0.2410028874874115, -0.2876443564891815, -0.23341919481754303], [0.8494285345077515, -0.30964359641075134, 0.23710356652736664]], [[-0.0665845200419426, -0.17521686851978302, 1.018430233001709], [-0.9205639958381653, 0.671241283416748, -0.6609578132629395], [-0.6759778261184692, -1.1513419151306152, 0.13505201041698456]], [[0.3228590786457062, -0.5600925087928772, 0.25233185291290283], [-0.8525007367134094, 0.21497906744480133, -0.5864663124084473], [-0.5394241809844971, -0.25144341588020325, -0.0657067596912384]], [[0.7197993397712708, -0.8549816012382507, -0.3295937180519104], [-0.5468565821647644, 0.03771886229515076, 0.4105863571166992], [0.5911527872085571, -0.32289284467697144, -0.6301302313804626]], [[0.112896628677845, 0.24506841599941254, -0.05557452142238617], [-0.25455328822135925, 0.4769241213798523, 0.9380336403846741], [-0.7715615034103394, 0.6514123678207397, 0.49562349915504456]], [[0.17465615272521973, 0.26439303159713745, 0.5450320839881897], [-0.04442188888788223, 0.18088789284229279, 0.5072634220123291], [-0.16989602148532867, -0.05798149108886719, 0.7103338837623596]], [[0.0949106514453888, -0.35191860795021057, -0.40917423367500305], [0.24563546478748322, 0.3662472367286682, -1.0264841318130493], [-0.8075360059738159, 0.0543447881937027, -0.03307874873280525]], [[-0.33295589685440063, -0.18560922145843506, 0.44597432017326355], [-0.8549718856811523, -1.2352840900421143, -0.23852193355560303], [0.04905030131340027, 0.14521509408950806, 0.7718380093574524]], [[-0.5531728863716125, -0.04843289032578468, -0.5025742053985596], [-0.5564453601837158, 0.00962535198777914, 0.8690735697746277], [-0.08325526863336563, 0.15928825736045837, 0.5681275129318237]], [[0.3702714741230011, -0.37136033177375793, 0.7788276076316833], [-0.020744340494275093, -1.215705156326294, -0.13542698323726654], [-1.151621699333191, -1.0298573970794678, -0.0600845143198967]], [[0.1618722826242447, 0.2287605255842209, -0.5450175404548645], [1.139966607093811, -0.39541348814964294, -0.5192970037460327], [-1.0131219625473022, -0.014182275161147118, -0.3315337002277374]], [[0.03238934278488159, -0.24498967826366425, -0.3655436635017395], [0.6364397406578064, -0.09780212491750717, -0.24170632660388947], [0.35239744186401367, -0.19334588944911957, -0.37242528796195984]], [[-0.03819791227579117, -0.6820181012153625, 0.1523955762386322], [0.06775525212287903, -0.11000926792621613, -0.14499004185199738], [-0.1928204745054245, 0.7025880813598633, 0.36395278573036194]], [[0.696340799331665, 0.9896692633628845, 0.5708668231964111], [-0.14594526588916779, -0.5032438039779663, 0.15101416409015656], [0.6267618536949158, -0.015638576820492744, -0.38347432017326355]], [[0.341372013092041, -0.13095970451831818, 0.9646118879318237], [-0.34816282987594604, 0.23477350175380707, 0.4742186367511749], [0.14367927610874176, -0.050079166889190674, 0.4822589159011841]], [[0.2107807695865631, 0.044936198741197586, 0.4978349804878235], [0.011407188139855862, 0.027907956391572952, 0.03156493231654167], [0.46589624881744385, 0.20817789435386658, -0.38473227620124817]], [[0.29526466131210327, -0.9054732322692871, 0.7454792857170105], [0.11595422029495239, 0.18490059673786163, 0.10332285612821579], [-0.2225576937198639, 0.836454451084137, -0.1180037185549736]], [[0.08649700880050659, -0.0007014900329522789, 0.1582033634185791], [0.661432683467865, 0.029564812779426575, 0.8542723059654236], [-0.3055715262889862, -0.1255035102367401, 0.752623438835144]]], [[[-0.08448758721351624, 0.2646197974681854, 0.7128872275352478], [0.40233632922172546, -0.3015317916870117, -0.12598833441734314], [-0.4690873324871063, 0.05001378804445267, -0.4413079619407654]], [[0.37977907061576843, -0.26412463188171387, -0.07944300770759583], [-1.8345247507095337, 0.049629393965005875, 0.4056564271450043], [-0.46486273407936096, 0.8196260929107666, -0.8527393341064453]], [[-0.49102678894996643, -0.19393040239810944, -0.1043466180562973], [-0.876156210899353, 0.6482990384101868, 0.05807118117809296], [-0.5348284244537354, 0.12280218303203583, -1.1989940404891968]], [[-0.22790533304214478, 0.03684210032224655, 0.14911659061908722], [-0.28407755494117737, -0.022675251588225365, -0.03292778134346008], [0.4633250832557678, 0.3067266345024109, 0.34330564737319946]], [[-0.04577336460351944, -0.5901972651481628, -0.2644136846065521], [0.4766142666339874, 0.002053716918453574, 0.6154868602752686], [0.8556605577468872, -0.06750660389661789, -0.0688900575041771]], [[0.822015106678009, 0.2339179813861847, -0.40869396924972534], [0.43348228931427, 0.6433141827583313, -0.19648054242134094], [-0.635276734828949, -0.4056113064289093, 0.30997005105018616]], [[-0.1841215342283249, -0.17573922872543335, -0.4582344591617584], [-0.005094372201710939, -0.049847256392240524, 0.24239780008792877], [-0.01664922945201397, -0.13399337232112885, -0.014209571294486523]], [[-1.0522581338882446, 0.49527454376220703, -0.37697848677635193], [0.44415420293807983, -0.6634382009506226, -0.3693777322769165], [-0.03193535655736923, 0.12151258438825607, 0.5501149892807007]], [[0.3138670325279236, -0.46112900972366333, 0.24906988441944122], [-0.09200143069028854, -0.5110414028167725, 0.23958609998226166], [-0.9779185652732849, -1.5849676132202148, 0.2985250949859619]], [[0.1892392933368683, -0.9748612642288208, -0.7212235927581787], [0.23209446668624878, -0.29213830828666687, 0.3261500298976898], [0.9196577072143555, -0.5500011444091797, 0.24242140352725983]], [[-0.07114782184362411, -0.009039271622896194, -0.27549001574516296], [-0.470167875289917, -0.4598487913608551, 0.37155768275260925], [0.03240472078323364, 0.13776765763759613, -0.801963746547699]], [[0.8082787990570068, 0.06187284365296364, 0.38026630878448486], [-0.20165306329727173, 0.2910594940185547, 0.343902051448822], [0.2554730474948883, 0.48642051219940186, 0.2165708988904953]], [[-0.11393071711063385, -0.8947257995605469, -0.234053373336792], [-0.12388262152671814, -0.04889028146862984, 0.031828053295612335], [-0.14726309478282928, 0.09838856756687164, 0.11090879142284393]], [[0.9554604291915894, -0.0415889248251915, -1.0514568090438843], [-0.5561926364898682, 0.2229679375886917, -0.32174909114837646], [-0.42756980657577515, 0.7348008155822754, 0.27583640813827515]], [[0.48257628083229065, -0.1072624921798706, -0.10723605006933212], [0.13098037242889404, 0.308527410030365, -0.8095385432243347], [-0.448252409696579, 0.2408389002084732, -0.09134121239185333]], [[0.18998894095420837, -0.0018836141098290682, 0.02322140894830227], [-0.02492416650056839, 0.7851229310035706, 0.48721691966056824], [-0.4428488612174988, -0.1913745254278183, -0.6198750138282776]], [[-0.4427586495876312, -0.6834259629249573, 0.5772539377212524], [0.5796940922737122, 0.009876536205410957, 0.23356887698173523], [-0.3129911422729492, 0.33544614911079407, -0.06782791763544083]], [[-0.0011062294943258166, 0.04610346630215645, 0.4182053208351135], [-0.19627496600151062, 0.3814046084880829, -0.06776870042085648], [1.047728180885315, 0.25081637501716614, -0.39311033487319946]], [[0.2835913300514221, -0.19428423047065735, 0.31361913681030273], [-0.21479329466819763, -0.6020631790161133, -0.7705773711204529], [-0.33835265040397644, -0.5236493945121765, 0.5131663680076599]], [[-0.044159896671772, 0.14169882237911224, -0.23552905023097992], [0.6110609173774719, -0.5718408226966858, -0.46118706464767456], [-0.8901660442352295, 0.6752607226371765, 0.09204753488302231]], [[-0.1965639889240265, -0.9960170388221741, -0.9354785084724426], [-0.2161310762166977, -0.07859738916158676, 0.3748062252998352], [-0.1428658664226532, -0.32007864117622375, 0.011911929585039616]], [[0.5557483434677124, 0.40960806608200073, 0.20667964220046997], [-0.6028658747673035, -0.04884503036737442, 0.25250086188316345], [-0.32586830854415894, -0.01343697588890791, 0.12472579628229141]], [[-0.11317908018827438, -0.2937410771846771, 0.6019910573959351], [0.16881266236305237, -0.14405854046344757, -0.9821065664291382], [-0.004569003824144602, 0.3303578495979309, 0.04832494258880615]], [[-0.155769944190979, 0.6274979114532471, 0.019405024126172066], [0.4781855344772339, 0.10441341251134872, -0.11579889804124832], [-0.06044652685523033, 0.385170042514801, -0.32449182868003845]], [[0.6321280598640442, -0.3649193346500397, -0.671505868434906], [0.5270947813987732, 0.12887969613075256, 0.1556052267551422], [-0.708008885383606, 0.37724727392196655, -0.06855281442403793]], [[-1.183672308921814, -0.25667932629585266, 0.44358429312705994], [0.0368749275803566, -0.3212151825428009, 0.546062707901001], [-0.4836218059062958, -0.531320333480835, -0.5801428556442261]], [[-0.6079918742179871, -0.1489926129579544, 0.5312015414237976], [0.4636235535144806, 0.2222948670387268, -0.09103723615407944], [0.11991957575082779, -0.5817030668258667, -0.08220159262418747]], [[0.39647215604782104, -0.15898841619491577, -0.5859768986701965], [-0.28974971175193787, -0.11774937808513641, 0.2848414480686188], [0.22565200924873352, -0.11929280310869217, 0.3041021525859833]], [[-0.14229430258274078, -0.3631167411804199, -0.30806341767311096], [-0.7155469059944153, 0.5225790143013, -0.6291638612747192], [-0.14556840062141418, -0.5509946346282959, -0.23413972556591034]], [[-0.27924665808677673, -0.1936325579881668, -0.8240227103233337], [0.23215261101722717, -0.3733071982860565, 0.31836655735969543], [-0.49024173617362976, -0.2217400074005127, 0.9309420585632324]], [[0.17982211709022522, -0.44974586367607117, -0.26316192746162415], [0.28024938702583313, -0.17170237004756927, -0.15062451362609863], [0.09708566218614578, 1.0683892965316772, -0.38678213953971863]], [[-0.008150564506649971, -0.7042222023010254, -0.2274419665336609], [-0.20617415010929108, 0.16774240136146545, -0.9449281096458435], [0.45473894476890564, 0.5243300795555115, -0.5677003860473633]], [[-0.036783210933208466, -0.248646080493927, 0.577165961265564], [-0.025046881288290024, -0.6557065844535828, -0.2850330173969269], [0.2603018879890442, -0.3650345504283905, -0.1261596381664276]], [[-0.11920429766178131, -0.009755965322256088, 0.05372966080904007], [0.31976747512817383, -0.29084742069244385, -0.023422488942742348], [0.07079732418060303, -0.9127753376960754, 0.4751056730747223]], [[0.7274175882339478, -1.4669725894927979, -0.6303029656410217], [0.4951590597629547, -0.1282053291797638, 0.279188334941864], [0.1462038904428482, -0.17767389118671417, 0.35372093319892883]], [[-0.015476497821509838, 0.26314452290534973, 1.1579031944274902], [0.06854384392499924, 0.06566675752401352, 0.19203224778175354], [0.2912934124469757, 0.012922151014208794, 0.35690101981163025]], [[0.5454266667366028, -0.16682983934879303, -0.040110740810632706], [0.46085524559020996, 0.4587555527687073, 0.007135177031159401], [-0.4857202470302582, 0.611108124256134, -0.012319662608206272]], [[-0.3720310926437378, 0.11892478168010712, -0.08068805187940598], [-0.11362263560295105, 0.28496360778808594, -0.0958850085735321], [0.19881422817707062, 0.6340944170951843, 0.22068777680397034]], [[0.24641121923923492, -0.1787375956773758, 0.45815369486808777], [0.6322047114372253, -0.7991979122161865, 0.44491341710090637], [0.1438845992088318, 0.19236353039741516, -0.3732902705669403]], [[0.7299351096153259, -0.48400580883026123, 