{"conv1.weight": [[[[0.38301241397857666, -0.30058473348617554, -0.9642302989959717], [0.39038121700286865, 0.9649634957313538, -1.3589727878570557], [0.5379592180252075, 0.24693728983402252, -0.9273392558097839]], [[0.6789856553077698, -2.0973615646362305, -0.16148556768894196], [0.215474933385849, 0.1942191869020462, -0.9628797769546509], [-0.6707374453544617, 0.16308212280273438, 0.3402808904647827]], [[-0.32048338651657104, 0.49053409695625305, 0.36089232563972473], [-0.21536843478679657, 0.24162252247333527, -0.07239437848329544], [-0.3975776135921478, -0.3207539916038513, -0.4344136714935303]]], [[[0.5046535730361938, 0.7816518545150757, 0.8811078667640686], [0.30223122239112854, 0.6899334788322449, 0.2520473599433899], [0.9860860109329224, 0.47356998920440674, -1.2573673725128174]], [[-1.249150276184082, 0.12196862697601318, -1.121336579322815], [-0.931020975112915, -0.0350312776863575, -0.19295725226402283], [0.34933093190193176, -0.28592002391815186, -0.05611813813447952]], [[0.2385992407798767, 0.695443332195282, 0.09044595062732697], [-0.07740183919668198, 0.1393071413040161, 0.11563070863485336], [0.08697700500488281, 0.0044469814747571945, 0.3588980734348297]]], [[[-0.846158504486084, 0.6483484506607056, -0.9145596623420715], [0.20184704661369324, -0.03280989080667496, 0.17607761919498444], [-0.5830106735229492, -1.1182053089141846, 0.7293183207511902]], [[0.8366128206253052, -0.2767185568809509, 0.049797721207141876], [-0.2499133050441742, 0.13643968105316162, -0.04722142964601517], [0.9435626864433289, -0.49825212359428406, -2.033395767211914]], [[-0.22345885634422302, -0.2508338391780853, -0.952818751335144], [0.12985189259052277, -0.08417760580778122, -0.32429757714271545], [0.5499289035797119, 0.3470171391963959, -0.3934837281703949]]], [[[-0.7588270902633667, 0.7387176156044006, -0.6003848314285278], [-0.5946563482284546, -1.5159589052200317, 0.876721203327179], [0.054077811539173126, -0.6736446619033813, -0.33904242515563965]], [[-0.45670098066329956, 0.09738066792488098, 0.0796520859003067], [-1.1684802770614624, -0.13451005518436432, 0.8702310919761658], [-0.6558460593223572, 0.41341736912727356, 0.37967297434806824]], [[-0.20257805287837982, -0.471157044172287, -0.8860861659049988], [0.09135571122169495, 0.017499160021543503, -0.041717447340488434], [0.48092979192733765, 0.5016527771949768, -0.09873425215482712]]], [[[0.5405610203742981, -0.635316789150238, 1.1324046850204468], [-0.43618232011795044, 0.5325464010238647, 0.2542514204978943], [0.81402587890625, -0.2527254819869995, 1.2017772197723389]], [[-0.49126896262168884, -0.28166520595550537, -0.32985591888427734], [-0.036260850727558136, -1.5864982604980469, -0.49473750591278076], [-0.3381960391998291, 0.0805714949965477, -0.2988379895687103]], [[0.7337382435798645, 0.17546896636486053, 0.13515083491802216], [0.22366510331630707, -0.2806318402290344, -0.14284484088420868], [0.13762864470481873, -0.13013137876987457, 0.1987486034631729]]], [[[-0.4664278030395508, -0.9114981293678284, -0.8180198669433594], [-0.43259724974632263, -0.4114254117012024, 0.2969445288181305], [0.4338308274745941, -0.21124978363513947, -0.654764711856842]], [[0.3130206763744354, 0.6053095459938049, -1.3829760551452637], [-0.3905469477176666, 0.9162907004356384, -1.6599955558776855], [0.16923779249191284, 0.194495290517807, 0.4051930606365204]], [[-0.46579885482788086, 0.05925672873854637, 0.23456630110740662], [-0.3745315372943878, 0.3581347167491913, 0.5086188316345215], [-0.7658289670944214, -0.14489789307117462, -0.5568445324897766]]], [[[0.5916227698326111, -0.1716754287481308, 0.6910451054573059], [-1.208646535873413, 0.21269410848617554, 0.29387393593788147], [0.34638652205467224, 0.8548166751861572, -2.100337028503418]], [[0.49259355664253235, -0.4959307909011841, 0.45983344316482544], [0.5410169363021851, 0.2611086964607239, -0.42004624009132385], [-0.7806819677352905, -0.46817710995674133, 0.47406184673309326]], [[0.6144202351570129, 0.07442615926265717, 0.17649151384830475], [0.4129246473312378, -0.06342162936925888, -0.19729049503803253], [0.5575481653213501, 0.1723301112651825, -0.02225053869187832]]], [[[-0.7993643283843994, 0.1636459231376648, -0.9182139039039612], [0.3159933090209961, -0.8054006695747375, -1.9232571125030518], [-0.6901643872261047, -0.7735452055931091, -0.1533978134393692]], [[0.14873123168945312, -0.990447998046875, 0.7973477244377136], [-0.9531477093696594, -0.5280832648277283, 0.20197835564613342], [-0.36400821805000305, -0.25156864523887634, 1.4709365367889404]], [[-0.2096090167760849, 0.30636563897132874, 0.33618995547294617], [0.05308089777827263, -0.2660630941390991, -0.1945682168006897], [0.09050779044628143, -0.07124637812376022, -0.07747923582792282]]], [[[-1.6314178705215454, -0.06339294463396072, -0.6889669299125671], [1.0944712162017822, 0.41801223158836365, -0.6573871970176697], [0.7762454152107239, 0.23301677405834198, 0.7233825325965881]], [[-0.16590040922164917, -0.9415378570556641, -0.02877715229988098], [0.827843189239502, 0.41763046383857727, -0.5653253197669983], [-0.013986877165734768, 0.014181599952280521, -0.9933868050575256]], [[-0.14857856929302216, 0.02900279499590397, 0.28769832849502563], [-0.02328917756676674, 0.28660494089126587, 0.41402387619018555], [-0.6864669322967529, -0.1617671698331833, 0.33354780077934265]]], [[[-1.9463802576065063, 0.3218732476234436, 1.0623681545257568], [0.3819306790828705, -0.5258924961090088, 0.09115314483642578], [0.8437641859054565, -0.7863014340400696, 0.4657328724861145]], [[0.5592504739761353, 0.3738906979560852, -0.12537072598934174], [-0.186208114027977, 0.0870392769575119, 0.2982729971408844], [-0.7722630500793457, 0.32026925683021545, 1.210227370262146]], [[0.5136783123016357, 0.2561715245246887, -0.16270685195922852], [0.47741222381591797, 0.3404657542705536, -0.014806021936237812], [-0.08705746382474899, -0.3060782849788666, -0.028920775279402733]]], [[[-0.8473144173622131, -0.23205378651618958, -0.05349045619368553], [-0.4880909025669098, -1.1283646821975708, -0.43173080682754517], [0.5054876804351807, 0.021553711965680122, -0.6201766729354858]], [[1.0586886405944824, -0.18029561638832092, 0.6788086891174316], [0.04278859868645668, 0.7507279515266418, -0.15354079008102417], [-1.4090709686279297, -0.46218574047088623, -2.0504395961761475]], [[0.4071638882160187, 0.11130700260400772, -0.2510356605052948], [0.09978894889354706, -0.11685479432344437, -0.4223226010799408], [-0.37005800008773804, -0.6005547046661377, 0.48686984181404114]]], [[[-0.5708121061325073, 0.4075588583946228, 0.5387919545173645], [-1.0087907314300537, 0.7006643414497375, 0.12063030153512955], [-0.3084701895713806, 0.6145434975624084, 0.5453231334686279]], [[-0.41659069061279297, -1.2965857982635498, -0.9641227722167969], [-0.4083450436592102, -1.9045560359954834, 0.2593710720539093], [0.62359619140625, -1.3955844640731812, 0.45503556728363037]], [[0.3493162989616394, 0.029398208484053612, 0.2335817664861679], [0.0697203129529953, -0.2982900142669678, -0.1091347262263298], [-0.1281363070011139, -0.23738180100917816, -0.05237284675240517]]], [[[0.08142543584108353, -0.2424526959657669, 0.5161467790603638], [0.6160903573036194, 1.0022468566894531, -0.6420164108276367], [-0.9874113202095032, -1.7893186807632446, -0.058872953057289124]], [[0.834166944026947, -1.0296597480773926, -0.6575976014137268], [-0.11575793474912643, -0.10607248544692993, -0.21241967380046844], [-0.8599353432655334, 0.13426391780376434, -0.7158179879188538]], [[-0.46138516068458557, -0.18747667968273163, 0.17835178971290588], [0.05009544640779495, 0.21787308156490326, 0.04375239834189415], [0.09656451642513275, 0.3348750174045563, 0.5935159921646118]]], [[[-0.07453595846891403, -0.514000415802002, 0.30819955468177795], [-0.5036125779151917, -1.0101861953735352, 0.2623926103115082], [0.6624084115028381, -0.5456104278564453, 0.5594019889831543]], [[0.059026747941970825, 0.41144075989723206, -0.07808883488178253], [0.5314297676086426, 0.47093087434768677, 0.12611079216003418], [0.15531238913536072, 1.0808861255645752, -0.4113175570964813]], [[-0.8021150827407837, 0.2765643000602722, -0.18273313343524933], [-0.08540690690279007, 0.7496889233589172, -0.25901246070861816], [-0.19714395701885223, 0.2367745190858841, -1.01291823387146]]], [[[0.5114169716835022, -0.5610423684120178, -0.4293196201324463], [-0.38412967324256897, -0.2663462460041046, 0.4390716552734375], [-0.0010320092551410198, 0.03296244889497757, -0.5703276991844177]], [[-1.4375158548355103, -0.2680162489414215, 0.6345430612564087], [0.14702430367469788, 0.9890791177749634, 0.07962305098772049], [-1.6000906229019165, 0.3043184280395508, -0.16209754347801208]], [[-0.48056545853614807, -0.2696095108985901, -0.0892237052321434], [0.36543625593185425, 0.775155246257782, -0.3383753001689911], [-0.23886635899543762, 0.30252593755722046, -1.136690378189087]]], [[[-2.363342523574829, -0.9186173677444458, 0.24682240188121796], [0.22032003104686737, 0.42598721385002136, -0.38056081533432007], [-0.5565943121910095, -0.16673891246318817, 1.215951919555664]], [[-1.0468573570251465, -0.1506824940443039, -0.3971445858478546], [-0.48893752694129944, -1.0229839086532593, -0.04247818514704704], [-0.3225032091140747, -0.0006664457614533603, -1.1820518970489502]], [[0.245910182595253, -0.41468545794487, 0.5322623252868652], [-0.24498291313648224, -0.19092226028442383, 0.06862754374742508], [0.16699448227882385, -0.005203309468924999, 0.45938757061958313]]], [[[-0.3743998408317566, 0.6447620987892151, 0.5228558778762817], [-0.2702426612377167, -0.04187316447496414, 0.3760017156600952], [-0.5463199615478516, 0.36191460490226746, -0.19076040387153625]], [[0.11127498000860214, -1.4267675876617432, 0.3018844723701477], [-2.0718564987182617, 0.4679725766181946, -0.8113265037536621], [-0.6679249405860901, -0.6694117784500122, -0.3263542652130127]], [[-0.24040983617305756, -0.4124169945716858, -0.624671459197998], [0.046767715364694595, 0.36737939715385437, 0.7489140033721924], [0.11865582317113876, -0.6044437289237976, -0.4170975685119629]]], [[[0.21632759273052216, 0.5366668701171875, -0.7511286735534668], [-0.21305519342422485, -0.40301114320755005, -1.068372130393982], [-0.04274095594882965, 0.6158838868141174, 0.7684529423713684]], [[-0.7090982794761658, -0.5933939218521118, 0.5305705070495605], [0.7655338644981384, -0.20850329101085663, 0.5339326858520508], [0.14960674941539764, 0.6935352683067322, -1.1245490312576294]], [[-0.7662633657455444, -0.3552236557006836, -0.3765600919723511], [0.10749077796936035, 0.448398232460022, 0.783149242401123], [-0.49666592478752136, -0.328451007604599, 0.04926234483718872]]], [[[0.09927716106176376, 0.45704197883605957, 0.08376485854387283], [0.06025160849094391, -0.6780396699905396, -0.11203562468290329], [0.5044179558753967, 0.044252727180719376, -0.27153852581977844]], [[0.7960023283958435, 0.7189413905143738, 1.1007938385009766], [0.22331483662128448, 0.2693555951118469, -0.20146343111991882], [0.6082670092582703, -0.005311515182256699, 0.16468515992164612]], [[-0.7769783735275269, 0.027238506823778152, -0.9186015725135803], [-0.1878269612789154, 0.8512272834777832, -0.41473686695098877], [0.007048542145639658, 0.9326488375663757, -0.07730335742235184]]], [[[-0.6647694706916809, 0.060410965234041214, 0.31208837032318115], [0.5939168334007263, 0.22926943004131317, -0.09662402421236038], [-0.481545627117157, -0.949105978012085, -0.6553380489349365]], [[-0.7565062046051025, -0.3120929002761841, 0.5901656150817871], [1.338805913925171, 0.13903310894966125, -1.0255731344223022], [-2.2652382850646973, 0.5482359528541565, 0.7200613617897034]], [[-0.11494898796081543, -0.16123904287815094, -0.09146267920732498], [-0.2029104232788086, 0.34730300307273865, 0.031031575053930283], [-0.18484893441200256, -0.14183765649795532, 0.2592472732067108]]], [[[0.35783910751342773, 0.02248697355389595, 0.7259110808372498], [0.6351333260536194, -0.11799409985542297, 0.7556218504905701], [-0.5027885437011719, -0.23504096269607544, 0.4811106324195862]], [[0.5734548568725586, 0.3023589551448822, -1.1042330265045166], [0.2609167695045471, -0.10553914308547974, -0.3212752640247345], [0.23227474093437195, 0.40336644649505615, -1.9566103219985962]], [[-0.12159987539052963, -0.21235810220241547, 0.06938402354717255], [0.7007724046707153, 0.6335263252258301, -0.23503726720809937], [-0.9034802317619324, -0.5128604769706726, -1.017002820968628]]], [[[0.754788339138031, -0.6829420924186707, 0.6817337274551392], [-1.077576994895935, 0.458919495344162, 0.0600988008081913], [-2.5017478466033936, 0.2830984890460968, 0.5672156810760498]], [[-1.2034802436828613, 0.6642025709152222, -0.16311171650886536], [-0.45869484543800354, -0.7611533999443054, 0.5495853424072266], [0.1434861421585083, -0.1301715224981308, 0.16707944869995117]], [[0.30789974331855774, -0.14091549813747406, 0.44893088936805725], [0.04272160679101944, -0.3934943675994873, 0.34613126516342163], [0.46080565452575684, 0.04035108909010887, 0.10657771676778793]]], [[[-0.6379840970039368, -1.2652541399002075, -1.2586488723754883], [-0.5459505915641785, 0.25022178888320923, -0.42308759689331055], [-0.4379304051399231, -0.036547161638736725, -1.1292204856872559]], [[-1.781295895576477, 0.12000579386949539, 0.839478075504303], [0.6184340119361877, -1.1998264789581299, 0.14382237195968628], [0.5798431038856506, -0.894631028175354, 0.3479410707950592]], [[-0.32768434286117554, -0.3902871906757355, -0.14456824958324432], [0.4979809820652008, -0.25635749101638794, -0.053613170981407166], [0.6971491575241089, -0.04833148419857025, 0.04167543351650238]]], [[[-0.9252687692642212, -0.3827407658100128, 0.17159266769886017], [-1.5770423412322998, 0.3628569543361664, -0.9645545482635498], [0.047302987426519394, -0.685766875743866, 0.3188634514808655]], [[-0.5436158180236816, -0.3508337736129761, -0.2542235255241394], [1.0207796096801758, -1.6270211935043335, -0.9257271885871887], [0.20706972479820251, 0.9052338004112244, -0.6277120113372803]], [[-0.2453247457742691, -0.107518270611763, 0.670140266418457], [-0.0804026797413826, -0.2732362449169159, 0.4047759175300598], [-0.05041727423667908, -0.3035689890384674, 0.20825918018817902]]], [[[-0.004579219501465559, 0.021490145474672318, -0.5452479124069214], [-0.1525544822216034, -0.31140998005867004, 0.23801295459270477], [-0.49139583110809326, -0.5616074800491333, -0.3709813356399536]], [[-0.735248863697052, 0.1897546797990799, 0.5449244976043701], [-0.3627881109714508, 0.4822780191898346, 0.13050919771194458], [1.5521939992904663, 0.6370595097541809, -1.9219493865966797]], [[-0.2020423263311386, 0.580572247505188, -0.01961660571396351], [-0.7043322324752808, 0.195040762424469, -0.0709836483001709], [-0.5483251214027405, 0.09118286520242691, -0.5066288709640503]]], [[[0.1176849827170372, 0.002263397676870227, 0.019369058310985565], [0.6983279585838318, 0.15421392023563385, -0.2903439998626709], [-0.2044135332107544, 0.7336320877075195, 0.05991959571838379]], [[0.9093271493911743, 0.5177068710327148, 1.132728099822998], [-1.254156231880188, -1.057502031326294, -1.1140731573104858], [0.27290138602256775, -0.31317394971847534, 0.5345696806907654]], [[-0.647770345211029, -0.22765372693538666, 0.1708345115184784], [0.22113649547100067, 0.055641546845436096, 0.4909963011741638], [0.40965574979782104, 0.05400356277823448, 0.43120276927948]]], [[[-0.5580013394355774, 0.10267255455255508, 0.006662582512944937], [-0.3484977185726166, -0.062048859894275665, 0.2815188765525818], [-0.3855922520160675, -0.045303039252758026, -0.08241810649633408]], [[1.2499182224273682, 0.052304498851299286, -0.06336745619773865], [0.6706033945083618, 0.25401753187179565, 0.06884820014238358], [-1.8574217557907104, -0.33274900913238525, 0.4812543988227844]], [[-0.49710750579833984, 0.5750573873519897, -0.5735675096511841], [-0.5496894121170044, 0.5290006399154663, -0.6325465440750122], [-0.41702309250831604, 0.7961112260818481, -0.3164559006690979]]], [[[-0.19536693394184113, -0.2931056618690491, -0.04304517060518265], [0.18207785487174988, -0.9179309010505676, 0.37878158688545227], [-0.2181730419397354, 0.14535506069660187, -0.28221964836120605]], [[-1.765568733215332, -0.3643205761909485, 0.7640857100486755], [-0.7908315062522888, 0.47357097268104553, -1.0660654306411743], [1.2602866888046265, -0.5840797424316406, 0.7700920701026917]], [[0.2355838119983673, -0.10042807459831238, 0.5405412316322327], [0.28003039956092834, -0.4241819977760315, 0.09732640534639359], [-0.33938127756118774, -0.5587507486343384, -0.33108922839164734]]], [[[0.2504146993160248, -0.19549547135829926, 0.249635249376297], [0.1673213243484497, -0.5589425563812256, -0.24139732122421265], [-0.06424742192029953, 0.3300139307975769, 0.03717353567481041]], [[-0.549730122089386, 0.11331524699926376, -0.4125661849975586], [0.9943351745605469, 0.4521666169166565, 0.3280617594718933], [0.5831596851348877, 0.29057422280311584, 0.7086415886878967]], [[0.2434275597333908, 0.6830361485481262, -0.6088417768478394], [0.42418697476387024, 0.4306906461715698, -0.2264871597290039], [-0.7314448952674866, -0.3980506956577301, -1.644600749015808]]], [[[0.9012669920921326, 0.34034478664398193, 1.334836483001709], [-0.6345403790473938, 0.03541059046983719, 0.08497846126556396], [-0.2728201448917389, -0.36550256609916687, -0.18397177755832672]], [[-0.9989500641822815, -1.8689714670181274, -0.14809396862983704], [-0.21426381170749664, -0.10741323232650757, -0.21192538738250732], [-0.1737000197172165, -0.09788505733013153, -0.10884883254766464]], [[-0.11945166438817978, 0.17088790237903595, -0.23602309823036194], [-0.14753784239292145, 0.5560359358787537, 0.35429611802101135], [0.5067541003227234, -0.3491387665271759, -0.3991055488586426]]], [[[0.5257126092910767, 0.3344641923904419, -0.5631067752838135], [-1.489842414855957, 0.3753208518028259, -0.834525465965271], [0.4775872826576233, -0.3934038579463959, -0.1439266800880432]], [[0.7763898372650146, -0.1202043816447258, -0.5798609852790833], [0.7312966585159302, 0.5318757891654968, -0.4763961732387543], [1.0613751411437988, 0.6186061501502991, 0.536348283290863]], [[0.31863170862197876, -0.19274933636188507, 0.39235976338386536], [-0.35369205474853516, -0.35289350152015686, 0.5970186591148376], [-0.6455840468406677, -0.28068462014198303, 0.42196884751319885]]], [[[0.6464453339576721, 0.19557006657123566, 0.27800044417381287], [-0.7467417120933533, 0.4912797808647156, -0.3617996573448181], [-0.4164624512195587, -0.36761415004730225, 0.17556828260421753]], [[0.7301096320152283, -0.2587321102619171, 0.39619502425193787], [-0.2542355954647064, -1.3220081329345703, 0.08593076467514038], [-0.37639036774635315, 0.3595934212207794, -1.5278786420822144]], [[0.0077567556872963905, -0.39346766471862793, -0.9364595413208008], [1.0728274583816528, 0.35363438725471497, 0.37699660658836365], [-0.20568729937076569, -0.5164295434951782, -0.06471709907054901]]], [[[-0.09984373301267624, -0.060730885714292526, 1.0874954462051392], [-0.43656644225120544, 0.7220355868339539, -0.22280780971050262], [1.4826217889785767, -0.22404639422893524, -0.7670220136642456]], [[0.44009703397750854, 0.1774987429380417, -0.7740488052368164], [0.2970900237560272, -0.557373046875, -0.21902675926685333], [-0.49782517552375793, -0.0492723286151886, 0.1668030172586441]], [[-0.3912343978881836, -0.275071382522583, -0.5257881879806519], [-0.43905720114707947, 0.5941752195358276, -0.006117223761975765], [0.09069269895553589, 0.6587689518928528, -0.008648231625556946]]], [[[1.0346448421478271, 0.7407189011573792, 0.9901924729347229], [0.6981414556503296, 0.393977552652359, 0.0954316034913063], [0.9667753577232361, 0.5784671306610107, 1.01606023311615]], [[-0.40552595257759094, 0.28552567958831787, -0.06863460689783096], [0.02003241330385208, -0.11280877888202667, -0.05431840196251869], [-0.7057303786277771, -0.14029917120933533, -0.02433609776198864]], [[0.1480703502893448, 0.21042224764823914, -0.4361974596977234], [0.5902305841445923, 0.5388720035552979, 0.29713937640190125], [0.042327698320150375, 0.2865408658981323, -0.4601256549358368]]], [[[0.8853238224983215, 0.2998039424419403, -0.11228316277265549], [-0.08393716812133789, -0.7948689460754395, -0.3953966200351715], [1.1944630146026611, 0.1634443998336792, 0.7823363542556763]], [[-0.7135542035102844, 0.2934129536151886, -0.4324100613594055], [-1.4935201406478882, -0.5843529105186462, -0.024186016991734505], [-0.3548017144203186, -0.5536057949066162, -0.0754014253616333]], [[0.3530168831348419, 0.30724334716796875, -0.5535039305686951], [0.2055719941854477, 0.08033710718154907, -0.13394907116889954], [-0.19622920453548431, -0.32442474365234375, -0.7734378576278687]]], [[[-1.18858802318573, -0.5928803086280823, -0.7434009909629822], [-1.1048153638839722, 0.10447067022323608, 1.0808801651000977], [-0.9318897128105164, 0.43571972846984863, 1.0148217678070068]], [[0.6283729076385498, -0.0968729630112648, -0.30723801255226135], [-0.29537931084632874, 0.3406016230583191, 0.24991655349731445], [-0.10750463604927063, 0.44700583815574646, 0.117551289498806]], [[0.4138839840888977, -0.2229236513376236, -0.4589711129665375], [-0.2913825213909149, 0.43319517374038696, 0.6044367551803589], [-0.12109493464231491, 0.19185668230056763, 0.4138169288635254]]], [[[0.7104734182357788, 0.3708239793777466, 0.21517351269721985], [-0.1546742469072342, 0.40680721402168274, 0.8946244120597839], [0.5800855755805969, -0.6310609579086304, 0.5453222393989563]], [[0.32772722840309143, 0.0941479429602623, 0.5525473356246948], [-0.3466821312904358, -0.34298866987228394, 0.9081434011459351], [1.3497298955917358, 0.4628608524799347, 0.5461890697479248]], [[0.3559626042842865, 0.6581219434738159, 0.445186585187912], [-0.4085313379764557, 0.209018275141716, 0.29310885071754456], [-0.4810202419757843, -0.4503360688686371, -0.40122294425964355]]], [[[0.948808491230011, -1.3237664699554443, -0.21759511530399323], [0.8558371663093567, 0.7159556150436401, -0.29272037744522095], [0.272943377494812, -0.657193124294281, -1.9946393966674805]], [[-0.3898162841796875, 0.24188454449176788, 0.9127561450004578], [-0.31710758805274963, -0.5310899615287781, -0.04910693317651749], [-0.6140739321708679, -0.26850003004074097, -0.10188526660203934]], [[0.08345013111829758, -0.14372383058071136, -0.15629775822162628], [0.30926576256752014, 0.22872883081436157, 0.14711764454841614], [0.4746670424938202, 0.18282616138458252, -0.1677592247724533]]], [[[1.076107382774353, 0.4272057116031647, -1.2844148874282837], [0.0042094760574400425, 0.3565410375595093, -0.07305488735437393], [0.3822939693927765, 0.3553028702735901, 1.5316721200942993]], [[-0.6267667412757874, 0.21142946183681488, 0.2454415261745453], [0.06698478758335114, -1.2404755353927612, -0.05058957636356354], [0.28132590651512146, -0.5796571373939514, 0.45357319712638855]], [[-0.04788917303085327, 0.38804495334625244, -0.12800559401512146], [0.2322636991739273, 0.5174302458763123, 0.056965626776218414], [0.052895352244377136, 0.1836312860250473, -0.15875177085399628]]], [[[-0.8582726716995239, -0.20676273107528687, -0.13664601743221283], [-0.13289980590343475, -1.4466118812561035, 0.22826144099235535], [-1.2237350940704346, -1.264292597770691, -0.8379001021385193]], [[-0.5367094874382019, 0.8525204062461853, -0.6506006121635437], [-0.08280788362026215, -0.8846539258956909, 0.09050631523132324], [-1.2623913288116455, 0.6863809823989868, 0.2044064700603485]], [[-0.37994080781936646, 0.03872184455394745, 0.30813339352607727], [0.019100883975625038, 0.17170530557632446, 0.177092045545578], [0.4742911756038666, 0.3515312075614929, 0.09819084405899048]]], [[[0.6781486868858337, 0.5743442177772522, -1.008374810218811], [-0.6294985413551331, 0.026570694521069527, 0.02279502898454666], [-0.8849494457244873, 0.11115574091672897, 0.1309465765953064]], [[-0.8870951533317566, -0.32838675379753113, -1.1360032558441162], [0.6404569149017334, 0.8195679783821106, -0.31734684109687805], [-2.1687779426574707, -0.9978370666503906, -0.6528161764144897]], [[0.04007372632622719, -0.24238795042037964, -0.47030648589134216], [-0.3339793086051941, 0.3170973062515259, 0.11604292690753937], [-0.3060281276702881, -0.0226394385099411, 0.4702780842781067]]], [[[-1.7489601373672485, 0.3801047205924988, 1.3284986019134521], [0.005488783586770296, -0.3794233798980713, -0.1849294751882553], [0.6009208559989929, -0.23915474116802216, -0.059350479394197464]], [[-1.19154953956604, -1.0203994512557983, -1.182611346244812], [-0.375836044549942, 0.14609739184379578, -0.2989208400249481], [0.2295469492673874, 0.21416257321834564, -0.4688619077205658]], [[-0.035722941160202026, -0.42811858654022217, 0.059451498091220856], [0.32674640417099, -0.00660295644775033, -0.606928825378418], [0.6285165548324585, 0.3004891872406006, -0.3889802098274231]]], [[[0.16376250982284546, -0.05624738708138466, -1.077379584312439], [-0.4788069427013397, -0.4235225319862366, 0.181963711977005], [0.6809645295143127, 0.5969183444976807, 0.37909722328186035]], [[1.1592211723327637, -0.8230413794517517, -0.754229724407196], [0.43012022972106934, 0.31200483441352844, -0.8184842467308044], [-1.2080527544021606, -0.4706350862979889, -1.4113997220993042]], [[0.3033945858478546, -0.22170613706111908, 0.2916567921638489], [0.468229204416275, -0.05044606328010559, 0.5378461480140686], [0.1014525517821312, -0.2724050283432007, 0.003461377462372184]]], [[[0.08205291628837585, -1.3442784547805786, -0.5970682501792908], [0.8535885810852051, -1.6731513738632202, 0.268634557723999], [-0.10626935213804245, 0.5478408336639404, 0.31493279337882996]], [[-0.6259834170341492, 0.3642870783805847, 0.9203075170516968], [0.7259573936462402, -0.5580105185508728, -0.2236085683107376], [1.0866689682006836, 0.285692036151886, -0.089671790599823]], [[0.18576517701148987, 0.4843226969242096, 0.05834725871682167], [-0.33559074997901917, 0.1624034345149994, 0.13535676896572113], [-0.2547731399536133, 0.44603827595710754, 0.29965147376060486]]], [[[-0.14814992249011993, -1.2599676847457886, -0.3851292133331299], [0.2734873294830322, -1.4422061443328857, -0.5881369113922119], [0.42247048020362854, -1.1623421907424927, 0.4118492007255554]], [[-0.09408653527498245, -1.6086124181747437, -1.461548089981079], [-0.6208999156951904, 0.2931459844112396, -0.3986484408378601], [-0.4552551507949829, -0.1644398272037506, 0.36913177371025085]], [[-0.44988569617271423, 0.3091392517089844, -0.4403039515018463], [-0.028098832815885544, 0.5870699286460876, -0.13909512758255005], [0.19442954659461975, -0.13064183294773102, -0.7307236194610596]]], [[[1.196029782295227, -0.5521674156188965, -0.2589074671268463], [0.5007470846176147, -0.6903924345970154, 0.33529773354530334], [0.9583175778388977, -0.6160075664520264, 0.23664213716983795]], [[-1.6331614255905151, 0.1718844175338745, -0.14526310563087463], [-2.2359778881073, -0.08397017419338226, 0.04542175680398941], [-0.7658035755157471, -0.12612015008926392, 0.17853841185569763]], [[-0.001895342255011201, -0.11375867575407028, -0.42632368206977844], [0.015030734241008759, 0.0038011721335351467, 0.0758916512131691], [0.3916013836860657, 0.37867453694343567, 0.3653116822242737]]], [[[0.3658042848110199, 0.5608298182487488, -0.6613954901695251], [-0.8996808528900146, 1.0539405345916748, 0.016374660655856133], [0.7225873470306396, -1.1666678190231323, -0.34645161032676697]], [[-0.6000716090202332, 0.018247613683342934, 0.6244286894798279], [-1.1969844102859497, 0.8785462379455566, 0.40211421251296997], [-1.2449687719345093, 0.0928511843085289, 0.06447715312242508]], [[0.14088833332061768, 0.43052834272384644, 0.15521174669265747], [0.031807202845811844, 0.16698090732097626, 0.21378193795681], [-0.03068462200462818, 0.14926035702228546, 0.17562519013881683]]], [[[0.6602270603179932, 0.7237520217895508, -0.7183653116226196], [0.41846710443496704, 0.42096346616744995, 0.2688472270965576], [0.5592244267463684, -0.053510572761297226, -0.057957399636507034]], [[-0.4834844470024109, -0.2545579969882965, -0.15749339759349823], [0.6941333413124084, -0.14291001856327057, -0.9143552184104919], [0.7037652134895325, -0.5053359270095825, 0.3101849853992462]], [[-0.8315384387969971, 0.02494732476770878, -0.8678282499313354], [-0.006973194889724255, 0.9893389940261841, 0.29460081458091736], [-0.20894508063793182, -0.1322176605463028, -0.7920210957527161]]], [[[-0.3870859742164612, -0.04907030239701271, 0.10552138835191727], [-0.6231275200843811, -0.48616355657577515, 0.3568285405635834], [0.43807119131088257, 0.30910828709602356, 0.821252703666687]], [[-0.8186608552932739, 0.18366631865501404, 1.1721380949020386], [-0.3899080157279968, 0.6956570148468018, -0.06651367247104645], [-1.5335315465927124, -0.9014158844947815, 0.6214509010314941]], [[-0.18642713129520416, 0.35646700859069824, -0.4273071587085724], [-0.06823057681322098, 0.7106772065162659, 0.0959223061800003], [-0.6623413562774658, -0.5017156600952148, -0.2305644005537033]]], [[[-0.28390225768089294, -0.9981149435043335, -1.4308847188949585], [-0.35308870673179626, 0.761410653591156, -0.3474768400192261], [0.8968875408172607, 0.4201560914516449, 0.7289783358573914]], [[0.6497592926025391, 0.6644089221954346, 0.5375039577484131], [-0.4888269603252411, -0.3266647756099701, 0.41660138964653015], [-1.4132481813430786, -0.9124755859375, -1.0779948234558105]], [[0.11644815653562546, -0.11867588013410568, -0.36065971851348877], [0.00037462645559571683, -0.011591187678277493, -0.13355667889118195], [0.32343360781669617, 0.5233654975891113, 0.13926145434379578]]], [[[0.7977287769317627, -0.1547149121761322, 0.19542722404003143], [-1.3068617582321167, -0.05132971704006195, -0.6386839747428894], [-1.2554675340652466, -0.6339032649993896, -0.22845546901226044]], [[0.9794929027557373, -0.14914235472679138, 0.4501144289970398], [0.9403761625289917, -0.4926666021347046, 0.4751923680305481], [0.8427969217300415, -0.25886592268943787, 0.6816312074661255]], [[-0.1327880173921585, -0.3170696794986725, 0.17961393296718597], [0.6197625398635864, 0.31045714020729065, 0.22495760023593903], [0.18966776132583618, 0.09326844662427902, 0.19482919573783875]]], [[[-1.3441563844680786, -0.2749706506729126, 0.008503849618136883], [-0.4611673057079315, -0.3006761074066162, 0.16350102424621582], [-1.3124864101409912, -0.27901363372802734, 0.05688982084393501]], [[1.2722625732421875, 0.05198417603969574, 0.038908764719963074], [0.312843918800354, -0.3501206636428833, -0.20355257391929626], [1.3169025182724, 0.24621759355068207, 0.7861042618751526]], [[-0.30261310935020447, -0.5849876999855042, -0.49999165534973145], [0.014452813193202019, 0.5694935917854309, -0.12661239504814148], [-0.20479841530323029, 0.17303748428821564, -0.04072773456573486]]], [[[-0.46158427000045776, 0.1772097647190094, -0.3985348641872406], [0.3063589036464691, 0.7089857459068298, 0.7153887152671814], [1.2549617290496826, 0.7072957158088684, -1.7186626195907593]], [[-0.5637493133544922, 0.039872463792562485, -0.43259191513061523], [-0.39391255378723145, -0.6421917080879211, 0.2630942165851593], [0.3116627633571625, 0.8914828896522522, -0.26895347237586975]], [[0.021698953583836555, -0.3807724118232727, -0.17952056229114532], [0.20149379968643188, -0.426067978143692, 0.5440815091133118], [0.2945443391799927, -0.4160025119781494, 0.298303484916687]]], [[[0.42451682686805725, -0.10009932518005371, -1.7666674852371216], [-0.7629327774047852, -0.006961571518331766, 0.3836827278137207], [-0.5468803644180298, 0.17115601897239685, 1.065717101097107]], [[-0.7218061089515686, -0.5962092280387878, -0.2110413908958435], [-0.3577166199684143, -1.1766678094863892, -0.5769193768501282], [-0.0660230740904808, 0.6520310640335083, 0.5977076292037964]], [[-0.1065967008471489, 0.3333253264427185, -0.03343361243605614], [-0.7531158328056335, 0.3109064996242523, -0.11307104676961899], [-0.4585932195186615, 0.6196836829185486, 0.24752406775951385]]], [[[0.8336210250854492, 0.04758293554186821, 0.08198148757219315], [0.6161777973175049, -0.5399921536445618, -0.023807844147086143], [-1.9022136926651, -0.22642368078231812, 0.2517679035663605]], [[0.282248318195343, 0.10651300847530365, 1.6843068599700928], [0.15117962658405304, 0.456952840089798, 0.027414238080382347], [0.2757856547832489, -0.02430190145969391, 0.11209425330162048]], [[0.5679565668106079, -0.06444371491670609, -0.28756630420684814], [0.5009037852287292, 0.034901101142168045, -0.35855457186698914], [-0.1273457556962967, -0.3887842297554016, -0.5058379769325256]]], [[[-0.35690003633499146, -0.31637391448020935, 0.08993233740329742], [-0.11833206564188004, 0.505005419254303, -0.18404807150363922], [-0.43239277601242065, -0.050972383469343185, -0.24860768020153046]], [[-0.2910253703594208, -0.27105018496513367, -0.7620298266410828], [-0.5099413990974426, 1.2527471780776978, 0.825433611869812], [0.09740767627954483, 0.737599790096283, 0.8044707179069519]], [[0.044881511479616165, -0.29153576493263245, -0.8816456198692322], [0.8159202337265015, 0.06631752848625183, -0.016687555238604546], [0.46100932359695435, -0.5729039907455444, -0.3487304747104645]]], [[[0.6934964060783386, -0.9532107710838318, -0.40324264764785767], [-0.8313195705413818, -0.5520087480545044, -0.2981458902359009], [-1.1038626432418823, 0.3506584167480469, 0.5966760516166687]], [[1.0619678497314453, 0.30876412987709045, 0.06283938139677048], [-1.07759428024292, -0.2072037011384964, -0.36005333065986633], [0.9895514249801636, -0.20043671131134033, -1.499406337738037]], [[0.2814141809940338, 0.21416054666042328, 0.5656498670578003], [0.10569547861814499, -0.2763443887233734, -0.11212809383869171], [0.05267596244812012, -0.557090699672699, 0.02500922419130802]]], [[[-0.24322952330112457, -0.8251886963844299, 0.9382407069206238], [-1.3459417819976807, 0.9323347210884094, 0.3104555010795593], [-1.813814401626587, 0.45009222626686096, -1.6612355709075928]], [[0.026157645508646965, 0.08607495576143265, 0.13215014338493347], [0.07136069983243942, -0.1328209936618805, -0.8316531181335449], [-0.4102632999420166, 0.11875947564840317, 0.4389694035053253]], [[-0.4216470718383789, -0.21934610605239868, 0.7361423969268799], [0.5397342443466187, -0.016046831384301186, -0.25301823019981384], [0.01612052507698536, 0.09726137667894363, 0.07972858846187592]]], [[[-0.4992747902870178, -0.9434918761253357, -0.4458368122577667], [-0.8731728792190552, 1.0103861093521118, 0.17347703874111176], [-1.1072754859924316, 1.0758224725723267, 0.3346235454082489]], [[0.059838321059942245, 0.5133917331695557, 0.5059922933578491], [0.6937353014945984, 0.20624661445617676, -0.8828116655349731], [-0.09949669986963272, -0.5129361748695374, -0.046066880226135254]], [[-0.03332364559173584, -0.06022591143846512, -0.5598814487457275], [0.015563642606139183, 0.3920363485813141, 0.35703396797180176], [-0.3835315406322479, -0.4282744228839874, -0.057652462273836136]]], [[[0.6925380825996399, -1.0278252363204956, 0.7636646032333374], [-0.04826580360531807, 0.2658134996891022, -0.47795549035072327], [1.215417504310608, 0.7147388458251953, 0.6524562239646912]], [[0.06465920060873032, -1.0066794157028198, -0.09429338574409485], [-0.7291518449783325, 0.5946649312973022, 0.3444375991821289], [0.08053931593894958, 0.8296770453453064, -0.039294663816690445]], [[0.043016452342271805, 0.6802977919578552, 0.4951857328414917], [-0.4182126522064209, -0.01861000433564186, -0.10758119076490402], [-0.05222127214074135, 0.24822846055030823, -0.11808032542467117]]], [[[-2.055039405822754, -0.22593988478183746, -1.1900770664215088], [0.17196449637413025, 0.07425416260957718, 0.0957171842455864], [1.5661126375198364, -0.030901147052645683, 0.5877350568771362]], [[-0.9235756397247314, 0.27368128299713135, 0.19226467609405518], [-1.4837411642074585, -0.5034866333007812, 0.19129833579063416], [0.4612428545951843, 0.3494391441345215, -0.3170778453350067]], [[-0.0715235248208046, 0.5081827640533447, -0.10615112632513046], [-0.3479801118373871, 0.006281150504946709, -0.1669216901063919], [0.16992568969726562, 0.0638655349612236, -0.037519671022892]]], [[[-0.579675555229187, 0.15596862137317657, 0.9835739135742188], [-0.19564005732536316, -0.5192039012908936, -0.8172928690910339], [-2.861921787261963, 0.2779405415058136, 0.44394803047180176]], [[0.4875234365463257, 0.30295565724372864, -0.7157930731773376], [0.38300007581710815, 0.3541458249092102, 0.33657991886138916], [-0.3350186347961426, -0.6965022087097168, -0.5027567148208618]], [[0.38539665937423706, -0.4747055172920227, -0.2673312723636627], [0.3416014015674591, -0.07154316455125809, 0.2473931908607483], [0.4102672338485718, 0.12881331145763397, 0.4516984522342682]]], [[[-2.5121870040893555, 0.507358729839325, -0.8715770840644836], [0.05578016862273216, 0.8877992630004883, -0.18357118964195251], [-0.37885209918022156, -1.033223271369934, 0.8454681038856506]], [[0.1831471025943756, 0.3867965340614319, 0.40305331349372864], [0.0698530301451683, -0.05615990236401558, 0.5529008507728577], [0.42731213569641113, 0.1794905662536621, -0.14224585890769958]], [[-0.10705959051847458, 0.5942981839179993, 0.316792756319046], [0.20583409070968628, 0.028755614534020424, -0.1392199546098709], [-0.15302306413650513, -0.21598197519779205, 0.4136756658554077]]], [[[-0.28456825017929077, -0.7804321646690369, 0.23944836854934692], [-0.21109971404075623, -1.015261173248291, -0.44688042998313904], [0.4155668318271637, -0.20209483802318573, 0.6942277550697327]], [[-0.32908347249031067, -0.2274516075849533, 0.04536692798137665], [0.974311351776123, -1.4542955160140991, 0.5175679326057434], [-1.000691294670105, -0.5535922646522522, 0.9944915175437927]], [[-0.3337365388870239, 0.05062391608953476, 0.8649758696556091], [0.09237004816532135, -0.015402542427182198, -0.02581893280148506], [0.23612536489963531, -0.019155120477080345, -0.3810318410396576]]]], "conv1.bias": [0.5607062578201294, -0.5652580261230469, -0.4322730004787445, 0.5148780941963196, -0.7328894138336182, -0.32275402545928955, -0.5194647312164307, 0.11423206329345703, 0.06967370212078094, 0.9696957468986511, 0.6589736938476562, 0.5704162120819092, -0.4370303452014923, 0.4645499885082245, -0.4158664643764496, 0.3582536280155182, -0.4598086178302765, -0.35291576385498047, -0.4609588384628296, -0.010765870101749897, -0.5399717688560486, -0.012079997919499874, -0.9417514204978943, 0.2638075053691864, -0.6632319092750549, 0.23000279068946838, -0.4922890067100525, 0.9490710496902466, 0.9743494391441345, -0.23975762724876404, 0.3860728442668915, -0.682887613773346, -0.6275452971458435, 0.5317671298980713, -0.09121700376272202, -1.1011720895767212, 0.011270624585449696, -0.4168380796909332, -1.2552027702331543, 0.18685239553451538, 0.1907702535390854, 0.24374574422836304, -1.1856918334960938, 0.32596951723098755, 0.09354311227798462, -0.1564103066921234, 0.03654784709215164, 0.8347575068473816, 1.2385711669921875, -0.03262409567832947, 1.2495877742767334, -0.056642305105924606, 0.2630285620689392, 0.37341710925102234, 0.16485708951950073, 0.5272872447967529, 1.1185370683670044, -0.5744624733924866, -1.2184425592422485, -0.7978293299674988, 0.4142141342163086, -0.922020435333252, 0.983484148979187, 0.30889010429382324], "bn1.weight": [0.9823657274246216, 0.905855119228363, 1.1227691173553467, 0.9661663770675659, 1.2517813444137573, 0.9426454305648804, 0.9816072583198547, 1.2294431924819946, 0.9288238883018494, 1.0724105834960938, 1.1337369680404663, 0.8194297552108765, 1.1958339214324951, 1.1804661750793457, 1.3680158853530884, 0.9497236609458923, 1.1081832647323608, 1.0103708505630493, 1.1200789213180542, 0.8846105337142944, 1.4381864070892334, 1.1013844013214111, 1.1820049285888672, 0.972059965133667, 1.1417648792266846, 0.9649433493614197, 1.235534429550171, 1.036508321762085, 1.6067345142364502, 1.4282869100570679, 0.8557124733924866, 1.133471965789795, 1.1891887187957764, 1.135486364364624, 1.0505262613296509, 1.0057491064071655, 0.8052037954330444, 1.066974401473999, 1.115875244140625, 1.1946508884429932, 0.843850314617157, 1.252920150756836, 1.0716350078582764, 1.0398969650268555, 0.8607362508773804, 1.2470588684082031, 1.0497486591339111, 1.0905239582061768, 1.0439890623092651, 0.9619998335838318, 1.1317200660705566, 1.0630605220794678, 0.7541278004646301, 1.0550447702407837, 1.0079443454742432, 1.0869524478912354, 0.9640856981277466, 0.9649919867515564, 0.7611714005470276, 0.8172619938850403, 0.955120861530304, 1.0983411073684692, 1.1188207864761353, 1.0548838376998901], "bn1.bias": [-0.040925703942775726, -0.8182167410850525, -0.4445561468601227, -0.20247118175029755, -0.893915057182312, -0.15374192595481873, -0.6752400398254395, -0.31320223212242126, -0.4489172697067261, -0.7338293194770813, -0.010426515713334084, -0.0998171791434288, -0.763399064540863, -1.084070086479187, -0.39285722374916077, 0.19984404742717743, -0.44637012481689453, -0.5229105949401855, -0.8705265522003174, -0.006856488063931465, -0.7460423707962036, -0.6538166403770447, -0.08087601512670517, -0.1380777508020401, -0.056363869458436966, -0.8780233263969421, -0.37802231311798096, -0.5050269365310669, -1.1002110242843628, -0.9989201426506042, -0.5518587827682495, -0.4558429718017578, -0.8214711546897888, -1.7171756029129028, -0.2595653831958771, -1.0282423496246338, -0.5860269665718079, -1.0058361291885376, -1.1715004444122314, -0.7426938414573669, -0.018560882657766342, -0.4714072346687317, -0.8763824105262756, -0.7900996208190918, 0.13058599829673767, -0.8541224598884583, -0.6769460439682007, -0.5191296339035034, -0.5229779481887817, -0.2741340398788452, -1.0262298583984375, -0.33306461572647095, -0.21256671845912933, -0.41401204466819763, -0.7825196385383606, -0.6141959428787231, -0.6122676730155945, -0.45917224884033203, -0.298351913690567, -0.6240308284759521, -0.35592523217201233, -0.6676307320594788, -0.8493115305900574, -0.7464036345481873], "conv2.weight": [[[[-0.12404946982860565, -0.6143304705619812, -0.9319203495979309], [-0.6656284332275391, 1.1755671501159668, -0.39227181673049927], [0.4118060767650604, 0.830835223197937, 0.5251336097717285]], [[-0.31930285692214966, 0.562774121761322, 0.4379803240299225], [-0.5063515901565552, -0.23868465423583984, 0.8418691158294678], [0.4400359094142914, -0.2921958565711975, -0.05290553346276283]], [[-0.6444423198699951, -1.4735058546066284, 0.2795688807964325], [0.16598856449127197, 0.07285193353891373, -0.9851905703544617], [-0.17848142981529236, -0.350252240896225, -0.4389696419239044]], [[-0.38912728428840637, -1.5094456672668457, 0.5838426947593689], [-0.1456468403339386, -0.9090108275413513, -1.0105211734771729], [0.530006468296051, -1.1306877136230469, 0.2837091386318207]], [[0.042091432958841324, 0.2054976373910904, 0.5513501763343811], [-0.41218775510787964, 0.4385179579257965, 0.5614438652992249], [1.1028549671173096, -0.06922827661037445, -0.33691275119781494]], [[0.5348994731903076, -0.4658850133419037, 0.5264431834220886], [-0.006563691422343254, 0.4225233197212219, -0.39825835824012756], [0.7331590056419373, 0.3258826434612274, -0.0034152171574532986]], [[-0.2738339602947235, 0.9251123666763306, 0.39088204503059387], [0.6596413254737854, 0.18477888405323029, -0.3682510256767273], [-0.16965387761592865, -0.9115018248558044, -1.297868251800537]], [[0.24268440902233124, -0.2879863977432251, -0.19718609750270844], [-0.8260321021080017, 0.05535968020558357, 0.40587684512138367], [1.151267409324646, -0.5650779008865356, 0.2556258738040924]], [[-0.43797117471694946, 0.14629967510700226, 0.07359699159860611], [-1.3273019790649414, -0.07185841351747513, -0.04806103929877281], [0.8406419157981873, 0.7911364436149597, 0.7060853242874146]], [[0.43854519724845886, -1.583649754524231, 0.29657644033432007], [-0.34758177399635315, 0.4459855258464813, -0.3706299662590027], [0.9320170283317566, 0.22663187980651855, -0.8714539408683777]], [[-0.8999114632606506, 0.011434024199843407, 0.4823363721370697], [0.3963959515094757, -0.2102988213300705, 0.13841186463832855], [0.10373757034540176, -0.18031306564807892, 0.6120650172233582]], [[0.7065234184265137, -0.5784161686897278, 0.36093878746032715], [0.2275571972131729, -0.07421358674764633, 0.02856060490012169], [0.3441437780857086, 0.1083231270313263, 0.07339482009410858]], [[-0.1064048781991005, -1.134913682937622, -0.13703152537345886], [-0.3708532452583313, -0.9414882659912109, 0.5753726959228516], [-1.2071418762207031, 0.20247633755207062, 0.164992094039917]], [[-0.24099300801753998, 0.6566914319992065, 0.3277875483036041], [0.6509932279586792, -0.8274855613708496, 0.2244720309972763], [0.375852108001709, 0.2615013122558594, -0.18513000011444092]], [[-0.45627540349960327, -0.3350689709186554, 0.47359785437583923], [-0.025941267609596252, 1.0189107656478882, -0.6678665280342102], [0.5561913847923279, -0.4000624418258667, 0.4632883071899414]], [[-0.9265007972717285, 0.4861268699169159, 0.204744353890419], [-0.5454836487770081, 0.8203182220458984, 1.0525727272033691], [0.3131001889705658, -0.27892422676086426, 0.126155823469162]], [[0.07978571951389313, 0.02062375470995903, 0.5981806516647339], [0.10046226531267166, 0.671147882938385, -0.9300289750099182], [-0.6266940236091614, -0.4734763503074646, 1.0588854551315308]], [[-0.6469607949256897, 0.16409240663051605, -0.5245802998542786], [-0.2554607093334198, -0.37233421206474304, 0.06446478515863419], [-0.15797466039657593, 0.1703871339559555, -0.3194054365158081]], [[-0.053221601992845535, 0.3342423141002655, -0.022891182452440262], [0.07053342461585999, 1.157252311706543, 0.4094800055027008], [0.9028892517089844, -0.09240111708641052, 0.005233286414295435]], [[-0.31785154342651367, 0.33897581696510315, -0.058246441185474396], [-0.7181968092918396, -0.17925125360488892, -0.4936765730381012], [0.8495498299598694, 0.2426050305366516, 0.22076097130775452]], [[0.18249788880348206, 0.347560852766037, 0.7166299223899841], [0.5551921129226685, -0.2628479301929474, -0.16964513063430786], [-0.6124319434165955, 0.4058208763599396, 0.02162233367562294]], [[-0.01838146150112152, -0.4434461295604706, -0.14521245658397675], [0.3399335443973541, -0.9727320075035095, 0.3932374119758606], [-1.0273971557617188, -0.3997070789337158, 0.06591472029685974]], [[-0.7567984461784363, -0.2721973955631256, 0.2558579444885254], [-0.2112163007259369, -0.0568305067718029, -0.36284139752388], [0.20171399414539337, 0.32733049988746643, 0.12317834794521332]], [[0.03745338320732117, -0.2902044355869293, 0.9164102077484131], [-0.5434151291847229, -0.3163755536079407, 0.12622609734535217], [0.5453009009361267, 0.08478055894374847, 0.15630324184894562]], [[-0.33465877175331116, -0.009588079527020454, -0.14879994094371796], [0.033507123589515686, 0.7833331823348999, 1.1008756160736084], [0.6800525188446045, -0.17804892361164093, 0.020006470382213593]], [[-0.6485195159912109, -0.20388734340667725, 0.3322485387325287], [-0.3594479262828827, -0.41745051741600037, -0.37178051471710205], [-0.03343813866376877, 0.9484724998474121, 0.24288207292556763]], [[1.1216895580291748, 1.100594401359558, -0.5247011184692383], [-0.42468732595443726, -0.972540557384491, -0.8376279473304749], [-0.39062201976776123, -0.37875276803970337, 0.4453405439853668]], [[0.23718619346618652, -0.20420357584953308, 0.6289831399917603], [-0.05681348592042923, 0.8684993386268616, -0.17422686517238617], [-0.17279167473316193, -0.290654718875885, 0.005453440360724926]], [[-0.3104868233203888, -1.058937668800354, 0.04519357904791832], [0.1856047809123993, -0.2040644735097885, -0.0234348364174366], [0.20342759788036346, -0.030669651925563812, 0.9513969421386719]], [[0.3802907168865204, 0.7271749973297119, 1.0063313245773315], [0.5089361071586609, 0.16745178401470184, -0.1676783263683319], [-0.19045548141002655, -1.0689024925231934, 0.47374090552330017]], [[0.5704381465911865, 0.34300097823143005, -0.05591047555208206], [-0.18243388831615448, 0.5556948184967041, 0.22894594073295593], [0.31115755438804626, -0.2276432067155838, -0.6188122630119324]], [[0.10911958664655685, 0.7946439385414124, 0.703805148601532], [0.06416197866201401, -0.9498337507247925, 0.13192245364189148], [0.03190141171216965, 0.0723574161529541, -0.07210857421159744]], [[-0.32074177265167236, -0.49744686484336853, 0.07076993584632874], [0.24745307862758636, -0.4073675870895386, 0.7283703088760376], [1.7183384895324707, 0.041535213589668274, -0.4668467938899994]], [[-0.2964545786380768, 0.8782539367675781, -0.505567193031311], [-1.4013129472732544, 0.8056257367134094, 0.933006763458252], [0.0675598680973053, 0.11832381784915924, -0.588373064994812]], [[-0.17752908170223236, 1.0300477743148804, 0.7987784147262573], [0.2570616602897644, -0.28559792041778564, -0.3048095703125], [0.5572459697723389, -0.00470972154289484, -0.557952880859375]], [[-0.2321006953716278, 0.25939780473709106, -0.02701573073863983], [0.683368444442749, 0.32673946022987366, 0.3094218969345093], [-1.299992561340332, -1.0148286819458008, -0.13981473445892334]], [[0.11787470430135727, 0.3452344536781311, 0.3928492069244385], [0.1356116682291031, 0.025014974176883698, -0.36409738659858704], [-0.0022114876192063093, 0.20308730006217957, -0.05924317240715027]], [[-1.1834781169891357, 0.24884474277496338, 0.28531092405319214], [-0.5471125245094299, -0.6222123503684998, -0.3790530562400818], [0.41271647810935974, 0.0928153544664383, 0.17369358241558075]], [[-0.1109778955578804, -0.07055773586034775, -1.332287311553955], [-0.4251667261123657, 0.07745803892612457, 1.1212247610092163], [0.5300641655921936, -0.2359105497598648, -0.5451982617378235]], [[0.3000640273094177, 1.1973366737365723, 0.0689847320318222], [0.659476637840271, -0.6401141881942749, 0.089065320789814], [-0.6154952645301819, -0.4462665319442749, -0.18669946491718292]], [[0.3026893734931946, 0.09939908236265182, -0.5868470668792725], [0.27840960025787354, 0.23218078911304474, -0.03182109445333481], [0.17294985055923462, -0.012863320298492908, 0.2829533517360687]], [[0.06310798227787018, -1.4019089937210083, 0.3906841278076172], [0.29278746247291565, -0.6557191014289856, 0.31070199608802795], [0.3018430769443512, -0.5089535117149353, 0.32806381583213806]], [[-1.8214470148086548, 0.9661280512809753, 0.19828031957149506], [0.3471107482910156, 0.9726864695549011, 0.7130333781242371], [-0.7175334095954895, 0.3078117370605469, 1.0103083848953247]], [[0.2517656087875366, 0.02923300489783287, -0.11376284807920456], [0.4342983663082123, 0.25020286440849304, -0.5647081136703491], [-1.0991612672805786, 0.13026206195354462, 0.4399796426296234]], [[-0.1847294121980667, 0.05582837387919426, 0.006441850680857897], [-0.9565264582633972, -0.5005760192871094, 0.32459554076194763], [0.06755127012729645, 0.09962429106235504, 0.24968576431274414]], [[-0.8864235281944275, 0.8363020420074463, -0.3199143707752228], [0.15455450117588043, 1.0107401609420776, -0.4041479825973511], [-0.12799879908561707, -0.2189173847436905, -0.34653469920158386]], [[0.6010486483573914, -0.15964221954345703, 0.35459187626838684], [-1.6836888790130615, 0.6433977484703064, -0.48868265748023987], [0.41908469796180725, -0.7097569704055786, -0.18126904964447021]], [[0.5342093706130981, -0.35505491495132446, -0.9050304293632507], [0.31707659363746643, 0.91703861951828, -0.1474210023880005], [0.34952425956726074, -0.00964705366641283, 0.599621057510376]], [[-0.23072530329227448, -0.7698056697845459, 0.7272493243217468], [-0.6295311450958252, -0.46774977445602417, 0.48019272089004517], [-1.1071027517318726, 0.4804687201976776, -0.1300516575574875]], [[-0.8504770994186401, 0.04888211563229561, 0.2861194610595703], [-0.7809692025184631, 0.7867500185966492, 0.08583241701126099], [-0.7590006589889526, -0.5691419243812561, 0.27399536967277527]], [[0.09108136594295502, 0.46261247992515564, -0.13472962379455566], [-0.30721619725227356, -0.617851734161377, -0.06330256909132004], [-0.4858108162879944, -0.5950310230255127, -0.6806128025054932]], [[0.43933138251304626, -0.3037703335285187, 0.34706100821495056], [-0.17001323401927948, -0.03822378069162369, -0.03757945075631142], [-0.23730583488941193, -0.0985134020447731, 0.14673160016536713]], [[-0.32127827405929565, -0.3125733733177185, 0.05817228928208351], [0.1952110230922699, -0.30385953187942505, -0.44187548756599426], [0.6396728157997131, 0.005825570784509182, -0.04821052774786949]], [[-0.19685760140419006, -0.04265618696808815, 0.03477942943572998], [0.020713133737444878, 0.3187403082847595, -0.25052863359451294], [-0.675287663936615, -0.005984460469335318, -0.6919410228729248]], [[-0.39901500940322876, 0.03930503875017166, 0.5737675428390503], [0.004267935641109943, 0.9311810731887817, 0.3076587915420532], [0.4954233467578888, -0.030059969052672386, -0.2471548169851303]], [[0.3930661380290985, 0.21865355968475342, 0.20259201526641846], [0.13955573737621307, -0.7583617568016052, -0.045109737664461136], [-1.4927258491516113, -0.08333784341812134, -0.23535558581352234]], [[0.30392760038375854, 0.4902486503124237, -0.10771644860506058], [-0.3104983866214752, -0.5917763710021973, 0.40620937943458557], [0.12113837897777557, 0.3214840888977051, 0.29812049865722656]], [[-0.4267043471336365, 0.6097712516784668, 0.1643059402704239], [-0.04842543974518776, 0.17977532744407654, -1.0422736406326294], [-0.08969735354185104, -0.691366970539093, 1.0600560903549194]], [[-0.570073664188385, 0.902839183807373, -0.12938089668750763], [-0.3158770799636841, 0.8997114300727844, -0.002545124152675271], [-0.7748690843582153, -0.43920645117759705, -0.25410839915275574]], [[0.17467553913593292, -0.2514071464538574, 0.5178950428962708], [0.19192852079868317, 0.005087596829980612, 0.38232654333114624], [0.33002960681915283, 0.07278855890035629, 1.097259759902954]], [[0.7076311707496643, -0.592313289642334, -0.8007112741470337], [-0.2862797975540161, -0.23509764671325684, 0.13465876877307892], [0.15624810755252838, -0.25286543369293213, -0.2724566161632538]], [[-0.06564823538064957, 0.4132933020591736, 0.27172717452049255], [-0.7544558644294739, -1.0598094463348389, 0.5082079172134399], [-0.5143974423408508, 0.03243337199091911, -0.4281841814517975]], [[0.012880866415798664, -0.2772302031517029, 0.0008932799100875854], [-1.6359024047851562, 0.7591223120689392, 0.24226032197475433], [-0.5191740989685059, 0.5422213077545166, 0.010794143192470074]], [[-0.01288533303886652, -0.8027040958404541, -0.16457556188106537], [-1.024733543395996, 0.18958157300949097, 0.07472952455282211], [-0.4669196307659149, -0.456300288438797, -0.4988928735256195]]], [[[0.43212080001831055, -0.5626028180122375, -0.7312541604042053], [-1.0331791639328003, 0.2000540792942047, -0.7162566781044006], [0.40361401438713074, 0.6661795377731323, 0.09359651058912277]], [[0.12237733602523804, -0.269302099943161, 0.09741786122322083], [-0.5589366555213928, -0.056965574622154236, -1.1643825769424438], [0.7399600744247437, 0.836263120174408, 0.09561896324157715]], [[0.003913601394742727, 0.4656617343425751, -0.71345454454422], [-1.3173149824142456, -0.028533002361655235, -0.3079148828983307], [-1.4321815967559814, -0.5627885460853577, 0.5153678059577942]], [[-0.8758933544158936, -0.23598769307136536, -0.0005214099073782563], [-0.8005253672599792, -0.07263161242008209, -1.3023192882537842], [0.12071328610181808, -0.13665001094341278, 0.24908576905727386]], [[0.7934684753417969, -0.3221803605556488, -1.4269641637802124], [-0.4225943982601166, -0.23649132251739502, -0.29533523321151733], [0.9040790796279907, -0.39627671241760254, -0.4774254560470581]], [[0.2553727924823761, -0.21630120277404785, 1.6840767860412598], [-0.03062324970960617, -0.004456297494471073, -0.5814608335494995], [0.26106423139572144, 0.2139718234539032, -0.22429704666137695]], [[0.39945587515830994, 0.2192336618900299, -0.4924851357936859], [0.6547628045082092, -0.08938973397016525, 0.8731496930122375], [0.5084676146507263, -0.012754818424582481, -0.19016289710998535]], [[-0.30222204327583313, -0.48396816849708557, -0.537247896194458], [-0.8982451558113098, -0.5263327360153198, -0.22293545305728912], [0.038243673741817474, 0.32981178164482117, -0.23288513720035553]], [[0.36019468307495117, -0.048932816833257675, 0.5291413068771362], [-0.29133325815200806, 0.5959196090698242, 0.6558193564414978], [0.5850116014480591, -0.3169451355934143, -0.46277928352355957]], [[-0.1149815171957016, 0.3024454116821289, -0.08807071298360825], [0.06422287225723267, -0.41611531376838684, -0.4460073411464691], [0.3555699586868286, -0.028603358194231987, 0.668009340763092]], [[0.3290899097919464, -0.8294172286987305, -0.5032861828804016], [-0.5109915733337402, 0.5365701913833618, 0.4601115882396698], [0.3327290713787079, -0.620751142501831, -0.23792524635791779]], [[0.2319151610136032, 0.1672537624835968, 0.4158431887626648], [0.1468161940574646, -2.2938599586486816, -0.04627090319991112], [0.6279237866401672, 0.5570348501205444, -0.14876042306423187]], [[1.095861792564392, -0.4248524308204651, -0.4620535373687744], [-0.7037550806999207, 0.4516177177429199, 0.8187563419342041], [-0.5159950256347656, -0.02255469374358654, 0.5323762893676758]], [[0.6676056981086731, 0.33200007677078247, 0.23040367662906647], [0.116117462515831, -0.31347355246543884, -0.05354183539748192], [-0.911045491695404, 0.3500197231769562, -0.4709392189979553]], [[-0.14642474055290222, -0.2370055764913559, 0.021534932777285576], [0.6194702982902527, -0.1608545184135437, -0.1375834047794342], [1.3182134628295898, 0.0023427638225257397, 0.09208659082651138]], [[0.39351117610931396, 0.19491764903068542, -0.024706104770302773], [-0.023793619126081467, -0.03484540805220604, 0.13542643189430237], [0.11865442246198654, 0.48583608865737915, -0.3038570284843445]], [[-0.16268965601921082, -0.0813961923122406, 0.6131395101547241], [-0.9280498027801514, -0.13998304307460785, -0.19087499380111694], [0.6136133074760437, -0.05701257660984993, -0.18662729859352112]], [[-0.22831189632415771, 0.15032418072223663, -0.3032517433166504], [0.17034907639026642, -0.09543664753437042, 1.0487632751464844], [-1.1462604999542236, 0.4863894581794739, 0.1486900895833969]], [[0.9746710062026978, -0.30917906761169434, -0.30449289083480835], [0.7101680040359497, 1.2491401433944702, 0.43314599990844727], [-0.6324756145477295, 0.39432206749916077, 0.7295933365821838]], [[-0.21735264360904694, -0.5629265904426575, -1.3084300756454468], [-0.0797637552022934, -0.3896089494228363, 0.3026071786880493], [-0.48464250564575195, -0.4267294406890869, -0.5141832232475281]], [[0.07263064384460449, -0.2959059476852417, 0.590647280216217], [0.24332892894744873, -0.19213324785232544, 0.5940189361572266], [0.6020008325576782, 0.4927669167518616, 0.42554062604904175]], [[-0.04926307499408722, 0.5521654486656189, 1.363939642906189], [1.036763072013855, -0.35591790080070496, 0.10036606341600418], [-1.0529029369354248, 0.5735151171684265, -0.7164279222488403]], [[-0.5376431941986084, 0.44708147644996643, -1.4792066812515259], [-0.4139103293418884, 0.2592531442642212, 0.4085972011089325], [-0.13839872181415558, 0.40983864665031433, -0.6233569383621216]], [[0.8869900703430176, 0.16922463476657867, 0.6869695782661438], [-0.3212920129299164, 0.4500744938850403, -0.005418544169515371], [0.542228639125824, 0.3668164312839508, 0.5505443811416626]], [[-0.46376675367355347, 0.07874949276447296, 0.4409633278846741], [0.11559638381004333, -0.5372527241706848, 0.0951913595199585], [-2.076627016067505, -0.14526410400867462, -0.5395070314407349]], [[-0.1809384673833847, -0.14473170042037964, -0.1638013869524002], [-0.5034393072128296, 0.3675827085971832, -0.8891220688819885], [-0.027566125616431236, -0.7960854768753052, 0.0949886217713356]], [[0.5840190052986145, -0.45737409591674805, -0.9362072348594666], [0.4209577739238739, -0.02654077112674713, 1.312872290611267], [0.6071478724479675, 0.5888400673866272, -1.052878499031067]], [[-0.10484237223863602, 0.08118526637554169, 0.31717827916145325], [-0.17517736554145813, 0.26753470301628113, 0.39897385239601135], [-1.620410442352295, 0.6774840950965881, -0.4975884258747101]], [[-0.2628285884857178, 0.11371850222349167, 0.7187645435333252], [0.04145776107907295, -0.5776298642158508, 1.3763052225112915], [0.0699973925948143, 0.31866005063056946, 0.15614132583141327]], [[-0.5510272979736328, 0.364625483751297, -0.21752957999706268], [0.03024112991988659, -0.5795766711235046, -0.19357357919216156], [-0.660688579082489, -1.102275013923645, 0.8355183005332947]], [[0.03136832267045975, 0.5111631155014038, 0.765143096446991], [-0.4957718253135681, 0.5425425171852112, 0.10466402769088745], [-0.043033454567193985, -0.7143232226371765, 0.05943957343697548]], [[-0.11001478880643845, 0.41740626096725464, -0.5524857044219971], [-0.39566683769226074, -0.362292617559433, -0.6514506340026855], [-0.6147998571395874, -0.06879891455173492, -0.1482938677072525]], [[-0.10291744768619537, 0.06407662481069565, -0.4979076385498047], [0.32396161556243896, 0.42113277316093445, -0.07382050156593323], [0.4450109899044037, -0.34931716322898865, -0.5023055672645569]], [[0.5468093752861023, -0.5791975855827332, -0.06714461743831635], [-0.25026747584342957, -0.7012683153152466, -0.053644102066755295], [1.1582136154174805, -0.024003077298402786, 0.5617082715034485]], [[0.0035141068510711193, 0.003053274704143405, 0.43355217576026917], [-0.2984269857406616, 0.17879877984523773, 0.004708084277808666], [0.038566283881664276, -0.22984246909618378, 0.2890569269657135]], [[0.18001021444797516, -0.6608074307441711, 0.42633742094039917], [-0.2419290542602539, 0.1178245022892952, 0.029802847653627396], [0.27216410636901855, 0.19689735770225525, 0.18774105608463287]], [[0.851875364780426, 0.4981958866119385, 0.5187591314315796], [-0.08081300556659698, 0.030550850555300713, -0.894600510597229], [-0.030507920309901237, 0.638046145439148, 0.3752264976501465]], [[1.11831533908844, -0.3361608386039734, -0.09823630005121231], [0.4952087700366974, -0.37636423110961914, 0.73089599609375], [0.6012462377548218, -0.3260032534599304, 0.7007081508636475]], [[0.1313847452402115, -0.4029724597930908, 0.03850497305393219], [0.12923048436641693, 0.1941765993833542, -0.17559054493904114], [-0.3938625752925873, 0.33989495038986206, -0.1278216540813446]], [[0.4838274121284485, -0.026078470051288605, -0.1878126561641693], [0.1725533902645111, -0.35125532746315, 0.3362652063369751], [0.3643217086791992, -0.43265458941459656, -0.10396919399499893]], [[-0.22417502105236053, 0.3886696994304657, 1.5716995000839233], [-0.3785316050052643, 0.22330591082572937, 0.7722232341766357], [1.3875164985656738, -0.10451767593622208, -0.42689424753189087]], [[0.041123174130916595, 0.3025139272212982, 0.5171167850494385], [0.3295869827270508, 0.0007427334203384817, -0.8682829737663269], [0.06072860211133957, -0.8299912214279175, -0.2599242925643921]], [[-0.2799929678440094, -0.13894374668598175, 0.2863785922527313], [0.1679682433605194, 0.4910247027873993, -0.43336737155914307], [0.15184956789016724, -0.2878113389015198, 0.3805488646030426]], [[0.10132001340389252, -0.12634581327438354, -0.35380616784095764], [0.3902517855167389, 0.34007492661476135, 0.6107742190361023], [-1.2495324611663818, 0.03368263319134712, 0.5074639320373535]], [[-0.04758048802614212, -0.055080849677324295, 0.4225367605686188], [-0.2679390609264374, 0.4127238690853119, -1.1505980491638184], [0.37638458609580994, -0.2512352466583252, -0.3190959095954895]], [[-0.22024886310100555, -0.6394153237342834, 0.3758883774280548], [-0.13577355444431305, -0.8600005507469177, 0.13264024257659912], [0.6197584271430969, 0.2019205242395401, -1.1385208368301392]], [[0.15696659684181213, -0.15820620954036713, -0.9235268235206604], [-0.39608073234558105, -0.0870286151766777, -0.6047429442405701], [0.6699221134185791, -0.6049878001213074, -0.5288386344909668]], [[-0.04917583242058754, 0.043889209628105164, 0.3013094365596771], [0.06255851686000824, 0.40749993920326233, 0.9435192942619324], [-1.0557819604873657, -0.18269918859004974, 0.3298352360725403]], [[0.2648474872112274, -0.3358379900455475, -0.8397596478462219], [-0.7173665761947632, -0.41489145159721375, -0.49517202377319336], [0.6138302087783813, -0.025322500616312027, -0.07176322489976883]], [[0.3822667896747589, 0.09540992975234985, -0.39490851759910583], [-0.7910202145576477, 0.25637996196746826, 0.0764792263507843], [-0.6681185960769653, -0.11246092617511749, 0.17007721960544586]], [[-0.506340503692627, 0.3153230547904968, 0.1952507197856903], [-0.30474230647087097, -0.1660064309835434, 0.06688344478607178], [-1.3835673332214355, -0.04154202714562416, -0.3215566873550415]], [[0.37421295046806335, -0.9039795994758606, 0.09956741333007812], [0.657356321811676, -0.3571487069129944, 0.04495123773813248], [-0.9242914915084839, -0.43209752440452576, 0.15825052559375763]], [[0.36341550946235657, -0.3648937940597534, -0.24439123272895813], [0.3044772446155548, 0.11157655715942383, -0.3057008385658264], [0.6119399070739746, 0.026262400671839714, -0.006493696011602879]], [[-0.011267222464084625, 0.08887051790952682, 0.6668316721916199], [0.29598480463027954, 0.44548845291137695, -0.5930237174034119], [-0.4717068374156952, -0.821165919303894, 0.06986735016107559]], [[0.5652389526367188, 0.4497678875923157, -2.8128974437713623], [0.2519987225532532, 1.2669639587402344, -0.09697519242763519], [0.5047276616096497, 0.11396149545907974, 0.3425350487232208]], [[-0.019386984407901764, 0.4516184628009796, 0.5280770063400269], [0.4043746590614319, 0.3241329491138458, -0.2511909306049347], [0.3460308313369751, 0.3207235038280487, -0.8707404136657715]], [[0.6870152950286865, 0.3209322392940521, -0.12228403985500336], [-0.5673618912696838, -0.05453769117593765, -0.45834943652153015], [-0.6301735043525696, -0.03761781379580498, 0.29265064001083374]], [[0.5079771280288696, -0.07682505249977112, 0.402781218290329], [0.6071006059646606, 0.15606729686260223, -0.32237300276756287], [-0.9222856163978577, 0.01882927305996418, -0.374321848154068]], [[0.16059719026088715, -0.27545279264450073, -0.252901554107666], [-1.7735238075256348, 0.3335511088371277, -0.486742228269577], [-0.3912101089954376, -0.15635092556476593, 0.16973312199115753]], [[-0.654068112373352, 0.27599355578422546, 0.6562055945396423], [0.5774322152137756, 0.243098184466362, -0.6098231077194214], [0.3442348539829254, -0.6319716572761536, 0.03728187829256058]], [[-0.004393928684294224, 0.017771093174815178, 0.05700644850730896], [-0.23172257840633392, 0.6628616452217102, 0.545670211315155], [-0.5299392938613892, 0.18471947312355042, -0.2907510995864868]], [[0.48842233419418335, 0.4402218461036682, 0.952025830745697], [0.25608715415000916, 0.05273793265223503, -0.2721322178840637], [0.13827316462993622, 0.3746000826358795, 0.6950870156288147]], [[0.07788112014532089, 0.1384149044752121, -0.3228644132614136], [-0.2521480619907379, 0.6158420443534851, -0.045933302491903305], [-0.09967806935310364, -0.06490865349769592, -0.2782701253890991]], [[0.5980502367019653, 0.47631698846817017, 0.09515009820461273], [0.2554084360599518, 0.18809399008750916, -0.2020932137966156], [-0.30148109793663025, -0.48787057399749756, -0.6837719082832336]]], [[[-1.2101647853851318, 0.469303697347641, 0.6704182624816895], [-0.09624002128839493, 0.6930557489395142, 0.16691821813583374], [0.6369706988334656, 0.1580314338207245, -0.05324723944067955]], [[0.14533567428588867, -0.6052112579345703, -0.2544480860233307], [-0.3962418735027313, 0.7394771575927734, -0.7263622879981995], [0.40792688727378845, -0.7221806645393372, -0.3307555317878723]], [[0.5372272729873657, -0.05697593465447426, 0.1321665495634079], [0.08190703392028809, -0.49505096673965454, 0.23793870210647583], [0.5176318883895874, -0.628309428691864, -0.3797738552093506]], [[0.506716251373291, -0.5558425188064575, -0.056399449706077576], [0.44611915946006775, -1.6757984161376953, 0.5950082540512085], [-1.0075372457504272, -0.4815538823604584, -0.14830206334590912]], [[0.15868157148361206, -0.41086649894714355, -0.10089811682701111], [-0.26702654361724854, -0.9083866477012634, 0.3282643258571625], [0.4446181356906891, -0.4367218017578125, 0.10813477635383606]], [[-0.18912474811077118, 0.4012575149536133, -0.16111475229263306], [-0.14967520534992218, -0.29529884457588196, -0.15555700659751892], [-0.8434649705886841, 0.11139240115880966, 0.34212726354599]], [[0.14265276491641998, 0.12581218779087067, 0.07764405012130737], [-0.14659887552261353, 0.3745027184486389, 0.16373102366924286], [1.0024648904800415, -0.1648356318473816, -0.4593965709209442]], [[0.6219215989112854, 1.0202813148498535, 0.6462429761886597], [0.5634204149246216, -0.7795226573944092, -0.2947086989879608], [-0.07203035056591034, -0.23566889762878418, -0.2744702696800232]], [[-0.6613367795944214, 0.12903709709644318, -0.007935086265206337], [-0.16106772422790527, 1.458317756652832, -0.022260641679167747], [-1.4874894618988037, -0.19774198532104492, -0.015029341913759708]], [[-0.015052693895995617, 0.8026893734931946, 0.09057127684354782], [0.8222120404243469, 0.15448246896266937, 0.4950939118862152], [0.16817864775657654, -0.09375707060098648, 0.10946868360042572]], [[0.6639730334281921, 0.19931526482105255, -0.0670861303806305], [0.9660249948501587, -1.0064289569854736, -0.5507988333702087], [0.02243167720735073, 0.09519165009260178, 0.24563780426979065]], [[0.4251602292060852, 0.19237805902957916, -0.1427406221628189], [0.14364786446094513, 1.0108482837677002, -0.8812122344970703], [0.5594848990440369, -0.8887225985527039, -0.6428515911102295]], [[0.11431512236595154, 0.6019697785377502, -0.9992192387580872], [0.12423496693372726, -0.029905224218964577, 0.6440046429634094], [-0.9313708543777466, 0.39374861121177673, 0.4443242847919464]], [[0.31013065576553345, -0.5933632850646973, -0.0004292172088753432], [0.22115682065486908, 0.05953466147184372, -0.35450315475463867], [-0.6819012761116028, -0.3577209413051605, 0.3128642141819]], [[0.11059160530567169, -0.3280458450317383, -0.30169379711151123], [0.3220389783382416, 0.27273327112197876, 0.10757261514663696], [-0.6103543043136597, -0.26902055740356445, 0.7406238913536072]], [[-1.1775585412979126, 0.6467821598052979, 0.20661525428295135], [0.062298715114593506, 1.043603777885437, -0.295501172542572], [-0.3128916621208191, -1.2083311080932617, -0.022241655737161636]], [[0.027665290981531143, 0.01253579929471016, 0.7708457708358765], [-0.004377465229481459, 0.13041970133781433, -0.6343311667442322], [0.2932446599006653, -0.04388118535280228, 0.004672382492572069]], [[-0.3066094219684601, -0.5215291380882263, 0.020323658362030983], [-0.8278056383132935, -0.19098128378391266, 0.6906168460845947], [-0.17966625094413757, -0.26771894097328186, -0.432905375957489]], [[-0.21196876466274261, 0.40252819657325745, 0.7440460324287415], [-0.5876023769378662, -0.03999466449022293, 0.5798114538192749], [0.6268759369850159, 0.2659006714820862, 0.5306075215339661]], [[0.25707682967185974, 0.33297494053840637, 0.2692083418369293], [-0.5588710904121399, 0.14088493585586548, -0.12500955164432526], [0.5312166213989258, -0.5347694158554077, -1.0030075311660767]], [[0.738923192024231, 0.3542158603668213, -0.47323331236839294], [-0.3921610414981842, -0.44927969574928284, 0.3946795165538788], [-0.5408840775489807, -0.2179270088672638, -0.3293560743331909]], [[-0.5790998339653015, -0.28575876355171204, -0.41373497247695923], [-0.46872591972351074, -0.12055496871471405, 0.014379655010998249], [-0.7581475973129272, 0.2667199671268463, 0.5996049046516418]], [[-0.19535420835018158, -0.309874027967453, -0.5036697387695312], [0.2856151759624481, -0.024517429992556572, -0.9654349088668823], [0.06579304486513138, -0.4504789710044861, -0.3478878140449524]], [[-1.5028767585754395, 0.14389586448669434, 0.7783805727958679], [-1.6821945905685425, 0.020245054736733437, 0.0402858629822731], [-0.09992466866970062, -0.07501055300235748, -0.48495903611183167]], [[0.8301514387130737, -0.5054750442504883, -0.48524606227874756], [-0.08720088005065918, 0.20988281071186066, 0.19426214694976807], [-0.5732181668281555, 0.024968955665826797, -0.01140886452049017]], [[-0.2551307678222656, 0.5065463781356812, 0.032724443823099136], [0.029616128653287888, 0.6362105011940002, -0.3605431616306305], [0.0003461029555182904, 0.0517905056476593, -0.042590104043483734]], [[-0.2899325489997864, -0.09086190909147263, -0.8339009284973145], [-0.24163159728050232, 0.30952709913253784, 0.3390195071697235], [-0.07660065591335297, -0.6776247620582581, -0.10665715485811234]], [[0.3615572452545166, -0.5580866932868958, 0.4053173065185547], [-0.004493390209972858, -0.2472849041223526, -0.2475607991218567], [0.24262769520282745, -0.4979430139064789, -0.19784380495548248]], [[-0.30278003215789795, -0.5086207389831543, -0.29938241839408875], [-0.4075700044631958, -1.5815860033035278, -0.07018279284238815], [0.3159644901752472, 0.2153605967760086, 0.5656702518463135]], [[-0.02782607078552246, 0.05390918254852295, 0.23095020651817322], [-0.8093300461769104, -0.03423343971371651, -0.9389860033988953], [0.7860299348831177, -0.5820334553718567, -0.2384142279624939]], [[0.2052934169769287, -0.35058942437171936, 1.098822832107544], [-0.4081655740737915, 0.2568552494049072, -0.24103420972824097], [-0.12692998349666595, 0.2860485017299652, -0.10560006648302078]], [[-0.1383100003004074, -0.044903118163347244, 0.29859423637390137], [0.289050817489624, 0.05246637761592865, -1.4170292615890503], [0.41705790162086487, 0.4780186414718628, -0.08431486785411835]], [[0.5792537927627563, -0.1409907042980194, -0.29408854246139526], [0.003501792438328266, -0.006922170054167509, -0.7696768045425415], [1.3555383682250977, 0.7251753807067871, 0.5082746148109436]], [[0.3975834250450134, -0.10222797840833664, -0.704258918762207], [0.403543621301651, -0.3959205448627472, 0.00733005627989769], [0.7779963612556458, 0.05048145726323128, -0.0857921615242958]], [[0.5208724141120911, -0.15425121784210205, -0.20244833827018738], [-0.34427693486213684, -0.5800329446792603, -0.1739305555820465], [-0.32947713136672974, 0.2048492133617401, -0.2766321301460266]], [[-0.4868651330471039, -0.1275007575750351, 0.29164835810661316], [-0.6508867740631104, -0.14479506015777588, 0.017357084900140762], [-0.3798723816871643, -0.6225097179412842, 0.531585693359375]], [[0.325664758682251, 0.10790947824716568, 0.007047423627227545], [0.16657449305057526, -0.8546108603477478, -0.5447384715080261], [1.3840208053588867, -0.1729099005460739, 0.351009726524353]], [[-0.5268698930740356, 0.2143082618713379, -0.28712281584739685], [0.42657706141471863, 0.5369923710823059, -0.27628013491630554], [-0.9421374797821045, 0.8196474313735962, -0.5185214281082153]], [[0.39392879605293274, -0.42143765091896057, -0.07165230810642242], [0.5429130792617798, 0.165859654545784, -0.09955257922410965], [-0.19710001349449158, 0.8875383138656616, 0.029117994010448456]], [[-0.31117144227027893, -0.7478306889533997, 0.7618622779846191], [-0.10076767206192017, -0.15432295203208923, 0.028541216626763344], [-0.3094635307788849, 0.31641170382499695, 0.9250661730766296]], [[1.037795901298523, -0.07259775698184967, 0.2551923096179962], [0.14117346704006195, 0.5485202074050903, -0.5618214011192322], [0.5976726412773132, 0.32402217388153076, -1.0753368139266968]], [[1.1790492534637451, -0.5737656950950623, -1.2878029346466064], [0.7785259485244751, -0.20125560462474823, -0.6328441500663757], [0.5448713898658752, -0.7168652415275574, -0.17213718593120575]], [[0.9021398425102234, -1.1418259143829346, 0.9490537643432617], [-0.30588090419769287, 0.19973254203796387, -0.13021910190582275], [-0.29018813371658325, 0.26262980699539185, 0.217826247215271]], [[0.08120834827423096, 1.5099736452102661, 0.34209004044532776], [-0.19499188661575317, 0.7307950854301453, 0.5918081998825073], [-0.360687792301178, 0.253378689289093, -0.6780819892883301]], [[-0.3990466892719269, 0.4431307315826416, 0.36262911558151245], [-0.25551891326904297, -0.5846898555755615, 0.6158447861671448], [-0.14424049854278564, -0.9003297090530396, -0.5915622711181641]], [[0.05915661156177521, -0.9872267842292786, -0.9893479943275452], [-0.54812091588974, 0.5897014141082764, -0.17157919704914093], [-1.1959564685821533, -0.5352810025215149, -0.41503411531448364]], [[0.22925949096679688, -0.510036826133728, -0.005814895965158939], [-0.36674368381500244, -0.17923817038536072, -0.06825000792741776], [0.9062574505805969, 0.44561344385147095, -0.5980216264724731]], [[0.7885181903839111, -0.8870066404342651, 0.07107878476381302], [0.2793979048728943, 0.3778226375579834, 0.12026291340589523], [-0.267361044883728, 0.30793407559394836, -0.6238840222358704]], [[0.7638553977012634, 0.2540931701660156, 0.5100558996200562], [-0.6887829899787903, 0.6242449283599854, -0.7310395836830139], [-0.11678348481655121, 0.8527699708938599, -0.4082651138305664]], [[-0.14692866802215576, -0.3624158799648285, -0.12888550758361816], [-0.47597628831863403, -0.22627504169940948, -1.637797474861145], [0.2390068620443344, 0.24035832285881042, -0.03237466141581535]], [[0.4404977560043335, 0.8362426161766052, -0.040840405970811844], [-1.1786903142929077, 0.24339009821414948, -0.6542059779167175], [0.49386703968048096, 0.2966611385345459, 0.8553963303565979]], [[-0.32354670763015747, 0.18879695236682892, 0.4714539647102356], [-0.06620471924543381, -0.35907474160194397, -0.31998851895332336], [-0.3462475538253784, -0.7074247598648071, -1.0465774536132812]], [[0.01021273247897625, -0.2633916139602661, -0.14898307621479034], [0.6745501756668091, -0.6004531383514404, -0.7146653532981873], [0.22209374606609344, -0.28095149993896484, -0.978830099105835]], [[-0.4400996267795563, -0.45117253065109253, 0.1421394944190979], [-0.8061642050743103, -0.35120540857315063, 0.6492229104042053], [0.3844321072101593, 0.6206238865852356, -0.2985127866268158]], [[0.5273233652114868, 0.010246631689369678, 0.8933766484260559], [0.6480058431625366, -0.10758446902036667, 0.46688780188560486], [-0.3311709463596344, 0.494867205619812, -0.01205653790384531]], [[-0.028932662680745125, 0.1049439013004303, 0.178830087184906], [0.6012400388717651, 0.27911317348480225, -0.40141478180885315], [-0.07518607378005981, -1.1708014011383057, -0.42457377910614014]], [[0.348995566368103, 0.004774568602442741, 0.5468330383300781], [-0.6941274404525757, -0.5963411331176758, -0.3342045247554779], [-1.5746161937713623, 1.004019856452942, 0.2675154507160187]], [[0.36613166332244873, 0.24093018472194672, -0.43098726868629456], [-0.42413172125816345, -0.025758082047104836, 0.5064399242401123], [-0.8080097436904907, 0.3572026789188385, -0.7296099066734314]], [[-0.007192681077867746, 0.47289347648620605, -0.1262340545654297], [-0.8402138352394104, 0.10939272493124008, -0.47624775767326355], [-0.3568025827407837, 0.28995275497436523, -1.036913275718689]], [[-0.020497653633356094, 0.3476007878780365, -0.7724450826644897], [-0.621739387512207, 0.5266252756118774, 0.03794904425740242], [-0.35827022790908813, -0.53718101978302, 0.7199327945709229]], [[-0.690908670425415, 0.017056604847311974, 0.616723895072937], [0.40249013900756836, -0.03732195496559143, -0.38815805315971375], [0.5732895135879517, -0.8635413646697998, -0.541384756565094]], [[-2.178947687149048, 0.4266991913318634, 0.2930435240268707], [0.014398678205907345, 0.3256107270717621, 0.22951646149158478], [0.3145219683647156, 0.062236566096544266, 0.2595791816711426]], [[-1.1227853298187256, 0.24442806839942932, 0.06576928496360779], [0.9852874279022217, 0.4194721281528473, -0.42157575488090515], [-0.6970846056938171, 0.9421844482421875, 0.5127191543579102]], [[-0.05552258342504501, -0.0738641619682312, 0.22498252987861633], [-0.9956564903259277, 0.14682328701019287, -0.0971471443772316], [-0.6966434717178345, 0.2428896129131317, -1.5766695737838745]]], [[[0.7652357220649719, -0.030420152470469475, -0.7631955146789551], [-0.309756338596344, 0.28208354115486145, 0.31719496846199036], [-0.39860084652900696, -0.141431525349617, -0.4991782605648041]], [[-0.07007674127817154, 0.2997954487800598, 0.36983558535575867], [-0.13375551998615265, 1.0699619054794312, 0.025860629975795746], [-0.5386810898780823, -0.7005233764648438, -0.6635221838951111]], [[-0.4736451506614685, 0.7852447032928467, -0.21885420382022858], [-1.218367099761963, -0.049415525048971176, 0.6586714386940002], [-2.5494437217712402, -0.02616855502128601, -0.48474279046058655]], [[-0.08479665219783783, 0.22639557719230652, 0.8871673345565796], [0.3694312870502472, 0.416657954454422, 0.8574987649917603], [0.834957480430603, -0.9051352739334106, -0.724848210811615]], [[-0.32898765802383423, -0.3027859330177307, 0.17044499516487122], [-0.5914764404296875, 0.20505937933921814, -1.3447335958480835], [-0.012336391024291515, -0.5705775618553162, -0.41767120361328125]], [[-0.007275538984686136, -0.3582038879394531, -0.21351777017116547], [-0.15471884608268738, -0.4964068531990051, 0.0463198721408844], [-0.21346129477024078, -0.728465735912323, -0.3260383605957031]], [[0.007903269492089748, 0.05590338259935379, -0.16669616103172302], [-0.12063519656658173, -0.01682165451347828, 0.35816121101379395], [0.5210146307945251, 1.0492321252822876, -0.5110852122306824]], [[-1.8452043533325195, 0.2459259033203125, 1.1895560026168823], [0.09928593784570694, 0.15321046113967896, -0.2993452250957489], [-0.18015359342098236, 0.14417892694473267, 0.3539663553237915]], [[0.634676992893219, 0.17953234910964966, 0.22930723428726196], [-0.6753109693527222, 0.05980141833424568, -0.5362741947174072], [-0.5808132290840149, -0.22594179213047028, 0.4313449263572693]], [[0.3168714940547943, -0.13228151202201843, 0.4673333466053009], [-0.13368716835975647, -0.10364702343940735, 0.9452769160270691], [-0.22922676801681519, -0.4354342520236969, -0.37408360838890076]], [[0.04265956953167915, 0.8126274943351746, -0.07952115684747696], [0.6355400681495667, 0.8968953490257263, 0.34131449460983276], [-0.1289096474647522, -0.11655592173337936, -0.4455697238445282]], [[-0.27646496891975403, -0.029733214527368546, -0.17315882444381714], [-0.42276227474212646, 0.19555558264255524, -0.21218763291835785], [-1.0136032104492188, -0.46478039026260376, -0.23557280004024506]], [[-0.781807541847229, 0.12619733810424805, 0.019205879420042038], [-0.10510411113500595, 0.10161645710468292, 0.10329894721508026], [0.36106982827186584, 0.13716354966163635, -0.6642703413963318]], [[-0.24404720962047577, 0.020485883578658104, 0.057163506746292114], [-0.19046103954315186, -0.039014026522636414, -0.5098180770874023], [-1.0592344999313354, 0.48119646310806274, 0.20596307516098022]], [[0.04647473990917206, 0.5598459839820862, -0.3697621822357178], [-0.8685793280601501, -0.4613606035709381, -0.11831599473953247], [-0.6114757061004639, -0.2610088586807251, -0.4897232949733734]], [[0.10412658751010895, 0.06349506974220276, -0.14186795055866241], [0.16328242421150208, -0.12549540400505066, -0.2793697416782379], [-0.3294971287250519, -0.13759641349315643, 0.6996567249298096]], [[-1.2707573175430298, -0.556281566619873, 0.5444077849388123], [0.5326133966445923, -0.047789718955755234, 0.7604742050170898], [-0.18086901307106018, -0.3871748745441437, 0.43247973918914795]], [[0.30744126439094543, 0.5348919630050659, -0.4381806254386902], [-0.0055088382214307785, 0.3163011372089386, 0.06632837653160095], [0.7154701948165894, 0.052560266107320786, -0.6223650574684143]], [[0.027644610032439232, 0.4403921961784363, 0.4061443507671356], [-0.20528194308280945, -0.18650870025157928, -0.5283107161521912], [-0.6430336236953735, -0.05532883480191231, -0.8922104835510254]], [[0.22851449251174927, -0.24784739315509796, 0.2696825861930847], [0.879927396774292, -0.13166473805904388, 0.2621716856956482], [0.04094374552369118, -0.0464307963848114, -0.8159727454185486]], [[-0.04957493767142296, -0.5848770141601562, -0.3047003448009491], [-0.6367457509040833, 0.1877640187740326, 0.10824429243803024], [-0.37683412432670593, 0.3020927309989929, -0.05742153897881508]], [[1.3542917966842651, -1.0169134140014648, 0.24733102321624756], [0.1604803502559662, 0.5322757959365845, 0.0691499188542366], [-0.04861915856599808, -0.6413242816925049, -0.017751842737197876]], [[0.10253509879112244, 0.30372679233551025, -0.24365352094173431], [0.04567284137010574, -0.42154744267463684, 0.8399863243103027], [0.7500843405723572, 0.38276994228363037, -0.30882182717323303]], [[0.15465691685676575, 0.24089683592319489, -0.04780770093202591], [0.4330013692378998, -0.7180807590484619, 0.5972567796707153], [0.0611162893474102, -1.0564225912094116, -0.8335805535316467]], [[0.3396970331668854, 0.9487582445144653, -0.5532416701316833], [0.2850368618965149, -0.24046793580055237, 0.5559389591217041], [0.01893787458539009, 0.2258644849061966, -0.7807255983352661]], [[-0.3700132369995117, 0.45424211025238037, 0.44980838894844055], [-0.6530579924583435, 0.09976749122142792, 0.19118306040763855], [-0.33382028341293335, 0.22776195406913757, 0.5516353249549866]], [[0.06186933070421219, 0.3225524127483368, 0.39082324504852295], [0.7542305588722229, 0.06356494128704071, 0.10294526070356369], [-0.7276118397712708, -0.09852258116006851, -0.384785920381546]], [[-0.74860018491745, 0.6440021395683289, -0.20152044296264648], [0.07292237132787704, 0.12507858872413635, 0.23205342888832092], [-0.980891764163971, -0.35465896129608154, 0.05332450941205025]], [[-1.1312106847763062, 0.31386950612068176, -0.49620965123176575], [-1.0146995782852173, -0.321857213973999, -0.5647628307342529], [-0.46170058846473694, -0.42647725343704224, -0.5801210403442383]], [[0.9394950270652771, -0.9266690611839294, -0.016142699867486954], [-0.09043706953525543, -0.5802995562553406, -0.864056408405304], [1.1769171953201294, -0.5312924981117249, -0.2969531714916229]], [[0.8272159099578857, -0.33373022079467773, -0.35739174485206604], [0.32137706875801086, -0.141742542386055, -0.6773546934127808], [0.14046205580234528, -0.038004957139492035, -0.13048622012138367]], [[0.5776737332344055, 0.24493946135044098, -1.1100634336471558], [0.6382335424423218, 0.33710822463035583, 0.17815130949020386], [0.08004472404718399, 0.3042384684085846, -1.0366698503494263]], [[-0.4798978865146637, 0.014702138490974903, -0.45005032420158386], [-0.17907042801380157, -0.2100345641374588, -0.349927693605423], [-0.891908586025238, -0.6180298328399658, 0.04166872054338455]], [[0.6494543552398682, 0.1704578995704651, -0.814173698425293], [-0.6534103751182556, -0.2996992766857147, 0.22922922670841217], [-1.5553637742996216, 0.5842354893684387, -0.6778780817985535]], [[0.01962602138519287, 0.8853530287742615, 0.3256378471851349], [-0.5234476327896118, -0.16504034399986267, -0.5172414779663086], [-0.5847205519676208, -0.34546950459480286, 0.06490398198366165]], [[-0.4933167099952698, -0.04894629120826721, 0.19492822885513306], [0.5873409509658813, 0.07146331667900085, 0.07134763896465302], [0.441792368888855, -0.09389075636863708, -0.3527066111564636]], [[0.06051440164446831, 0.27583640813827515, -0.0486367903649807], [-0.5194883346557617, 0.08823158591985703, -0.4262945353984833], [1.1252963542938232, 0.4237407147884369, 0.23117326200008392]], [[-0.4504314064979553, 0.26230180263519287, -0.4293587803840637], [-0.7746288776397705, 0.03091040439903736, 0.21919573843479156], [-0.8073586225509644, -0.07711327075958252, 0.8636890053749084]], [[0.08132680505514145, -0.10528922826051712, -0.7019526362419128], [-0.9793095588684082, -0.15461812913417816, -0.47955837845802307], [-0.649607241153717, -0.39541172981262207, -0.8056086301803589]], [[0.6952682137489319, 0.023323263972997665, 0.5171549916267395], [-0.2523503303527832, -0.344128280878067, -0.6455101370811462], [-0.6143116354942322, 1.0839848518371582, 0.6687119603157043]], [[-0.8353220224380493, -0.6732208728790283, 1.1410436630249023], [0.2946537435054779, -0.1128770187497139, 0.9818167090415955], [-0.18459060788154602, 0.6714704632759094, 0.26908549666404724]], [[0.07623299211263657, 0.1483345627784729, 0.6570168137550354], [0.039601318538188934, 0.3037523329257965, -0.16771653294563293], [-1.365282654762268, -0.5405389070510864, 0.2550550103187561]], [[-0.17442505061626434, 0.5836158394813538, -0.9179173707962036], [-0.0013134399196133018, 0.832856297492981, -1.299910068511963], [0.8757670521736145, -0.2635873258113861, -1.1156795024871826]], [[0.05806804075837135, -0.211532860994339, -1.2178701162338257], [-0.12016836553812027, -1.020228624343872, 0.6771305799484253], [0.13289622962474823, 0.4102885127067566, 0.654496431350708]], [[-1.0739423036575317, -0.11880390346050262, 0.015813689678907394], [0.20370180904865265, -0.5757717490196228, 0.27842769026756287], [-0.6858955025672913, -0.15672370791435242, 0.5929822325706482]], [[0.6191282868385315, 0.28564581274986267, 0.12192688882350922], [-0.6374010443687439, 0.5445645451545715, 0.1529131829738617], [-0.6865501403808594, -0.854394257068634, -1.2548483610153198]], [[0.0341353565454483, -0.49617040157318115, 0.490864098072052], [-0.07359489798545837, -0.2883474826812744, 0.014218904078006744], [0.8545894026756287, -0.06701228022575378, 0.3216713070869446]], [[-0.36974671483039856, 0.08822491019964218, 1.0320299863815308], [-0.6244348883628845, 0.9203277230262756, -0.10834265500307083], [-0.979748010635376, -1.5508254766464233, -0.2851003110408783]], [[-0.08699391037225723, -0.37634459137916565, -0.21083875000476837], [-0.5074343681335449, -0.13203305006027222, -0.5057480931282043], [-0.7281801104545593, -0.8003607988357544, -0.17090469598770142]], [[0.9067760705947876, -0.9720059633255005, -0.6037411689758301], [-0.6692633032798767, 0.23208624124526978, -0.33935579657554626], [-0.16911807656288147, -0.558597981929779, -0.7625492215156555]], [[-0.33083635568618774, 0.5611827373504639, -0.21931985020637512], [-0.6571701765060425, 0.2696079909801483, 1.509628415107727], [-0.2274341732263565, 0.5378252863883972, 0.35252127051353455]], [[0.14972974359989166, 0.5720187425613403, 0.3350841999053955], [0.21457472443580627, 0.2805565893650055, 0.929387629032135], [0.454125314950943, -0.057902511209249496, 0.5697247385978699]], [[0.034205932170152664, -0.3484461009502411, -0.5727424025535583], [0.7654739022254944, 0.5289257168769836, -0.9052003622055054], [-1.3465449810028076, -0.21320967376232147, -0.28498199582099915]], [[-0.1635059267282486, -0.25237971544265747, 0.9910794496536255], [-0.46411532163619995, -1.6185683012008667, -0.15680135786533356], [-0.22270911931991577, -0.23999391496181488, 0.5827752351760864]], [[-0.7178722023963928, 0.41685599088668823, -0.6628071069717407], [-0.497907429933548, -0.1695527881383896, 0.770393967628479], [0.2028048038482666, 0.23474432528018951, 0.1876879781484604]], [[0.4407235085964203, -0.49124470353126526, 0.4974319338798523], [0.0007182995905168355, -0.893360435962677, 0.23088860511779785], [-1.5690888166427612, -1.002031683921814, 0.6171742677688599]], [[0.37360715866088867, 0.04223199188709259, -0.11466440558433533], [1.3522804975509644, -0.23797476291656494, -0.5289074182510376], [-1.119502067565918, -0.5494346022605896, -0.2228451818227768]], [[0.17594221234321594, -0.05167950317263603, 0.720747709274292], [0.997052013874054, -0.14945493638515472, -0.039065588265657425], [0.5477925539016724, -0.11678832769393921, -0.5239415168762207]], [[0.42843830585479736, -1.2858407497406006, 0.04416999593377113], [0.05885057523846626, 0.19387447834014893, -0.006692415103316307], [0.3653499484062195, 0.47510722279548645, -0.3893592953681946]], [[0.5198832750320435, 1.0595084428787231, 0.6128991842269897], [0.07427287101745605, -0.654256284236908, 0.2760666310787201], [0.07849040627479553, -0.2967521548271179, -0.4038521945476532]], [[0.31841012835502625, 0.3403651714324951, 0.574026346206665], [-0.17027698457241058, 0.7012037038803101, -0.21592912077903748], [-0.05025221407413483, -0.687995970249176, -0.09198327362537384]], [[0.39844635128974915, 0.30572155117988586, 0.6453273892402649], [0.26567867398262024, 0.30849647521972656, 0.05806896090507507], [-0.1243588924407959, -0.02420460805296898, -0.7913565635681152]], [[-0.20443572103977203, -0.4687288999557495, 0.07568404078483582], [0.22696223855018616, -0.15990576148033142, 0.30149367451667786], [0.2702670097351074, 0.6731740832328796, -0.040371451526880264]], [[-0.6131250858306885, 0.14835989475250244, 0.21574194729328156], [0.8455747961997986, 0.39256393909454346, 0.6570945978164673], [-0.6582541465759277, -0.12423302233219147, 0.8359869122505188]]], [[[-0.2780672013759613, 0.6110777854919434, 0.23858928680419922], [0.014448938891291618, -0.8074296712875366, -0.41249796748161316], [-0.13487039506435394, -0.4822706878185272, -0.26163628697395325]], [[-0.23787887394428253, -0.2116822451353073, -0.6290429830551147], [-2.028757333755493, 0.05164361745119095, 0.07487436383962631], [-0.42900651693344116, 1.1191579103469849, -0.6524966955184937]], [[-0.9862858653068542, -0.14175927639007568, -0.07042209059000015], [-0.5031839609146118, 0.5884483456611633, -0.4345301687717438], [-1.064232349395752, -0.09924668073654175, -0.2971378564834595]], [[-0.645947277545929, -0.0013147281715646386, 0.08576174080371857], [-0.25827571749687195, 0.3880310654640198, -0.2842993438243866], [-0.11917931586503983, 0.44530823826789856, 0.3246636986732483]], [[-0.41675621271133423, 0.02166554145514965, -0.37524884939193726], [0.03238556906580925, 0.03867149353027344, 0.619164764881134], [0.521674394607544, 0.26254063844680786, 0.6784564256668091]], [[0.6673396825790405, 0.28438252210617065, -0.2014772593975067], [0.4577450454235077, 0.41828691959381104, -0.5886735320091248], [-0.42784175276756287, -0.20070073008537292, 0.09375519305467606]], [[-0.14528988301753998, -0.10796740651130676, 0.23213522136211395], [0.4293430745601654, 0.4191211462020874, 0.025753969326615334], [-0.05016618221998215, 0.11176775395870209, -0.11324736475944519]], [[-1.0024014711380005, 0.5745052099227905, -0.8041297793388367], [-0.3693139851093292, -0.985822856426239, -0.5880855321884155], [-0.08375797420740128, -0.1124849021434784, 0.20214134454727173]], [[0.004164198413491249, -0.5456342101097107, 0.021465329453349113], [-0.25876057147979736, -0.22267840802669525, -0.01361212320625782], [-1.2115404605865479, -2.295639991760254, -0.11148930341005325]], [[0.5921828746795654, -0.5140829682350159, -0.6848356127738953], [-0.1379951536655426, 0.019069049507379532, 0.42238160967826843], [1.095202088356018, -0.5518019795417786, 0.48880019783973694]], [[-0.3961801528930664, 0.010998453944921494, -1.0588780641555786], [-0.43596240878105164, -0.20778416097164154, 0.1852068156003952], [0.7197263836860657, 0.06957933306694031, -0.6592894792556763]], [[0.9234136939048767, -0.12721998989582062, -0.7570963501930237], [-0.28475290536880493, 0.3408430516719818, -0.18890167772769928], [-0.23820573091506958, -0.16609983146190643, 0.617588996887207]], [[0.23309653997421265, -1.1266059875488281, 0.07583343982696533], [-0.22693584859371185, -0.06420222669839859, 0.5948247313499451], [0.1024460718035698, -0.07900277525186539, 0.1134570762515068]], [[0.5051566362380981, 0.06290421634912491, -0.7539206743240356], [-0.2591654658317566, 0.10497823357582092, 0.10410700738430023], [-0.3466145396232605, 0.7427670359611511, 0.4599398970603943]], [[0.38599035143852234, 0.43902653455734253, 0.43585875630378723], [0.6294570565223694, 0.47017619013786316, -0.7311259508132935], [0.010543365962803364, 0.3405802249908447, 0.020585021004080772]], [[0.08027495443820953, 0.05835779756307602, 0.25848063826560974], [0.29697203636169434, 1.1663259267807007, 0.4685900807380676], [-0.45233356952667236, 0.13809695839881897, -0.5358137488365173]], [[-0.10991550236940384, -1.2000478506088257, 0.5685046315193176], [0.751006543636322, 0.333170086145401, 0.5835742354393005], [0.42534950375556946, 0.09894156455993652, 0.20148171484470367]], [[-0.3987651467323303, 0.1268678605556488, 0.4505784809589386], [-0.6431480050086975, 0.09232965856790543, 0.5077508687973022], [0.836997926235199, -0.5489069819450378, -0.07941778749227524]], [[-0.1070399209856987, 0.22659817337989807, 0.13537168502807617], [-0.7884935736656189, -0.6650514602661133, -0.8229291439056396], [-0.6514365673065186, -0.7572490572929382, 0.8008695840835571]], [[-0.02575664594769478, 0.42739617824554443, -0.4695250689983368], [0.3260584771633148, -0.20398470759391785, -0.5714691281318665], [-0.24800890684127808, 0.5431338548660278, 0.2856951653957367]], [[-0.11743194609880447, -1.0801225900650024, -1.3831813335418701], [-0.18060313165187836, -0.46417954564094543, 0.33591970801353455], [-0.8641625046730042, 0.48693862557411194, 0.1657208353281021]], [[0.41484543681144714, 0.6385028958320618, 0.11476990580558777], [-0.6667285561561584, -0.07017714530229568, 0.4701991081237793], [-0.18727131187915802, 0.4095205068588257, -0.4321516752243042]], [[-0.6837254166603088, -0.07239861786365509, 0.5534177422523499], [0.3170822262763977, 0.3427712917327881, -1.1448179483413696], [0.45134156942367554, 0.841714084148407, 0.2247709482908249]], [[-0.34385502338409424, 0.34756091237068176, -0.6205924153327942], [0.8288319706916809, 0.2973214387893677, -0.17502261698246002], [-0.40372776985168457, 0.23222386837005615, -0.5749772787094116]], [[0.23028564453125, -0.09490273892879486, -0.3076114356517792], [1.052493929862976, 0.22471603751182556, 0.25288257002830505], [-0.9366375207901001, 0.4364987015724182, 0.04402933269739151]], [[-0.8022440075874329, -0.3099363148212433, 0.440042644739151], [0.017428360879421234, -0.564797043800354, 0.6069768667221069], [-0.4183112680912018, -1.1174482107162476, -0.8030638694763184]], [[-0.439008504152298, 0.07251126319169998, 0.7568120360374451], [0.48407015204429626, 0.43426403403282166, -0.24289482831954956], [0.12841004133224487, -0.26313573122024536, 0.19798722863197327]], [[0.3125850558280945, 0.3662296533584595, 0.06476832181215286], [-0.295688271522522, -0.2782544195652008, 0.013475638814270496], [-0.48985737562179565, -0.15066277980804443, 0.1304541826248169]], [[-0.2279684841632843, -0.5772423148155212, -0.23861432075500488], [-0.780451774597168, 0.5979586839675903, -0.44764700531959534], [-0.3675873875617981, -1.0544605255126953, -0.797414243221283]], [[-0.11751122772693634, -0.8256338238716125, -0.7537088990211487], [0.4774666726589203, -0.6217982769012451, 0.23541498184204102], [-0.836119532585144, 0.1738312691450119, 1.1165848970413208]], [[-0.34463509917259216, -0.683349072933197, -0.5859131813049316], [0.44796377420425415, 0.12754163146018982, -0.11571349948644638], [-0.30472975969314575, 0.9900633692741394, -0.40412673354148865]], [[-0.19253359735012054, 0.08455256372690201, 0.011958129703998566], [-0.27898144721984863, 0.5054362416267395, -0.48910942673683167], [-0.16577297449111938, 0.23195186257362366, -0.08874702453613281]], [[0.05078897625207901, -0.4896470010280609, 0.3783106505870819], [0.31429803371429443, -0.21968789398670197, -0.12334463000297546], [0.30854934453964233, -0.4935232996940613, 0.0299876406788826]], [[-0.32353878021240234, 0.817821741104126, -0.19680631160736084], [1.0057529211044312, 0.1566905379295349, -0.01547388918697834], [-0.6540242433547974, -1.5854936838150024, 0.30657637119293213]], [[0.4743567109107971, -1.2806917428970337, -0.9542311429977417], [0.14838188886642456, -0.2961772084236145, 0.47424471378326416], [-0.28264549374580383, 0.06291790306568146, 0.09979087114334106]], [[-0.3316975235939026, 0.1973857432603836, 0.9805968999862671], [0.04603061452507973, 0.27129146456718445, 0.38504236936569214], [0.6277372241020203, 0.33660274744033813, 0.20517665147781372]], [[0.7422153949737549, -0.07941020280122757, -0.33694636821746826], [0.45126408338546753, 0.9848480224609375, 0.09270450472831726], [-0.578559935092926, 0.5469174385070801, -0.13610507547855377]], [[-0.8911930918693542, 0.35236257314682007, -0.11737756431102753], [-0.21830451488494873, 0.27671018242836, 0.11890801042318344], [-0.08485811948776245, 0.7471233606338501, 0.0983467772603035]], [[0.5441392064094543, -0.9151105284690857, 0.0717950314283371], [0.4361214339733124, -1.0950955152511597, 0.3088257908821106], [-0.2504803240299225, -0.09812508523464203, -0.8657649755477905]], [[0.6209089159965515, -0.5566974878311157, 0.152993306517601], [-0.15631945431232452, -0.163873553276062, -1.1141420602798462], [1.1301653385162354, 0.3898083567619324, 0.21299514174461365]], [[-0.08490242809057236, -0.8294967412948608, -0.35743632912635803], 