{"conv1.weight": [[[[0.938381016254425, -0.8392825126647949, -1.5862395763397217], [0.17916060984134674, 1.3381552696228027, -1.8368310928344727], [0.5722644329071045, -0.1713387668132782, -0.3227033317089081]], [[0.963228702545166, -3.14970064163208, -0.24507294595241547], [0.2882365882396698, 0.0738319382071495, -0.7581568956375122], [-0.21565751731395721, -0.044722773134708405, 0.2946646809577942]], [[-0.5411492586135864, 0.7804866433143616, 0.2556847631931305], [-0.2640285789966583, 0.6439822912216187, -0.18728651106357574], [-0.8175570368766785, -0.20460066199302673, -0.7244044542312622]]], [[[0.20367710292339325, 0.7882563471794128, 1.6036837100982666], [1.1228721141815186, 0.81128990650177, 0.4776422679424286], [0.9242689609527588, 0.11314396560192108, -2.9888744354248047]], [[-1.9715707302093506, 0.1706475466489792, -1.0006049871444702], [-0.14423871040344238, -0.38822922110557556, -0.4921042323112488], [0.4027969241142273, -0.055859047919511795, 0.08037801831960678]], [[0.20324446260929108, 0.4147798717021942, 0.3471280634403229], [-0.028271328657865524, -0.22741186618804932, 0.2172984778881073], [0.4400809109210968, 0.1459430456161499, 0.9615622758865356]]], [[[-0.6435697674751282, 0.7755945324897766, -0.7947101593017578], [0.4005930423736572, 0.29116255044937134, 0.223308265209198], [-0.18328218162059784, -1.4663736820220947, 0.5176234245300293]], [[1.1865160465240479, -1.662279486656189, 0.009288815781474113], [-0.8039805293083191, 0.6241254210472107, 0.0589040070772171], [1.2978134155273438, -0.3705410659313202, -3.1115691661834717]], [[-0.2140040397644043, -0.1301509290933609, -1.2721986770629883], [0.2029731571674347, 0.24423745274543762, -0.49751514196395874], [0.6050940155982971, 0.6251971125602722, -0.6558666825294495]]], [[[-1.0820088386535645, 1.1356886625289917, -0.05322697013616562], [-1.4043453931808472, -2.2041101455688477, 0.668369472026825], [-0.0547577403485775, -1.0882670879364014, -0.21140582859516144]], [[-0.6854992508888245, -0.3353624939918518, -0.4763583242893219], [-2.428135633468628, -1.4514724016189575, 0.7818630933761597], [-0.8971552848815918, 0.5875424742698669, -0.07792317122220993]], [[-0.17095902562141418, -0.36243030428886414, -0.9175748229026794], [0.14215761423110962, 0.1493237465620041, -0.05503668263554573], [0.6240751147270203, 0.7226665019989014, -0.17417515814304352]]], [[[0.6425167322158813, -0.2661106586456299, 1.583432912826538], [-0.3109726905822754, 0.53940349817276, 0.2674076557159424], [1.0822581052780151, -0.4442360997200012, 1.7938759326934814]], [[-0.3892105221748352, -0.3528870940208435, -0.5168118476867676], [0.4136270582675934, -1.9680798053741455, -0.0887126624584198], [-0.864331841468811, 0.04605985805392265, -1.0084023475646973]], [[1.0042840242385864, 0.15231665968894958, 0.170035257935524], [0.26035648584365845, -0.6736329197883606, -0.5087617635726929], [0.4202140271663666, -0.13559859991073608, 0.18304657936096191]]], [[[-0.3631797730922699, -0.6296820640563965, -0.7196890711784363], [-0.7598171830177307, -0.44806191325187683, 0.4114725887775421], [0.9413787722587585, 0.30078715085983276, -1.2317253351211548]], [[0.5803800821304321, 0.9578794240951538, -1.036138892173767], [-0.11883232742547989, 1.4154694080352783, -1.7616119384765625], [0.7862977981567383, 0.09369486570358276, 0.4478500485420227]], [[-0.5633628368377686, 0.2450430691242218, 0.44781172275543213], [-0.5855809450149536, 0.5174099206924438, 0.537282407283783], [-1.3025394678115845, -0.4236529469490051, -1.0530774593353271]]], [[[0.9792703986167908, -0.4567919075489044, 0.6581448912620544], [-1.581673264503479, 0.14256726205348969, 0.31750380992889404], [0.6825321912765503, 0.8395383358001709, -4.073972225189209]], [[0.7849372625350952, 0.06831711530685425, 0.02842942625284195], [0.8860628008842468, 0.504911482334137, -0.5872707962989807], [-0.930711030960083, -1.126978874206543, 0.18748995661735535]], [[0.622748851776123, 0.14772169291973114, 0.3960264027118683], [0.40019533038139343, -0.054849788546562195, 0.032078105956315994], [0.27900251746177673, -0.09230802953243256, 0.14676010608673096]]], [[[-0.8865432739257812, 0.1835050731897354, -1.452360987663269], [0.08572462201118469, -0.9688981175422668, -3.1334338188171387], [-0.09499285370111465, -1.236020803451538, -0.9724934697151184]], [[0.4618994891643524, -0.7736588716506958, 1.0423718690872192], [-1.1224875450134277, -0.6897318363189697, 0.28302857279777527], [0.35842254757881165, 0.026307029649615288, 2.1951773166656494]], [[-0.2228112667798996, 0.14188091456890106, 0.42884403467178345], [0.08833031356334686, -0.35428816080093384, -0.16933836042881012], [0.13322649896144867, -0.1898851990699768, -0.13280931115150452]]], [[[-2.1091442108154297, -0.1704481840133667, -0.4358285367488861], [1.6933592557907104, 0.42276233434677124, -0.9326339960098267], [1.7272748947143555, 0.3989942669868469, 0.6169248819351196]], [[-0.12673315405845642, -1.6238065958023071, 0.23987111449241638], [0.9731158018112183, 0.9281715154647827, -0.380199670791626], [-0.5033262372016907, 0.1257966309785843, -1.4087600708007812]], [[-0.047991976141929626, 0.22684930264949799, 0.019501572474837303], [0.034432511776685715, 0.5266978740692139, 0.2989095449447632], [-0.6023330688476562, 0.155523419380188, 0.12127767503261566]]], [[[-3.1972005367279053, 0.44728904962539673, 1.271798014640808], [0.44891756772994995, -0.7781673669815063, 0.14105314016342163], [1.2526624202728271, -0.07211167365312576, 0.1685413420200348]], [[0.7467625737190247, 0.2911878228187561, -0.5239956378936768], [-0.24687834084033966, 0.37324777245521545, 0.30432847142219543], [-0.8461927175521851, 0.5286129713058472, 1.7347041368484497]], [[0.7136781811714172, 0.05574910715222359, -0.16586217284202576], [0.5947648286819458, -0.007437211461365223, -0.14959952235221863], [0.33970266580581665, -0.27026665210723877, -0.06968697160482407]]], [[[-2.180096387863159, -0.38702452182769775, -0.03770512714982033], [-0.26875588297843933, -2.116410732269287, 0.051415011286735535], [0.3597705662250519, 0.2192395031452179, -1.3977066278457642]], [[1.5767062902450562, -0.08067949116230011, 0.7764266133308411], [-0.13710933923721313, 0.7570455074310303, 0.21520964801311493], [-1.556125283241272, -0.2435312420129776, -3.100883960723877]], [[0.5513800978660583, 0.010304653085768223, 0.15498685836791992], [0.16314645111560822, -0.407330185174942, -0.2953256070613861], [-0.3821033537387848, -0.831665575504303, 0.7097339034080505]]], [[[-0.9075131416320801, 0.7657479643821716, 0.20133985579013824], [-1.1149932146072388, 0.7233279943466187, -0.4235371947288513], [-0.6327980160713196, 0.6261931657791138, 0.6851470470428467]], [[-1.30284583568573, -1.8318408727645874, -1.6229947805404663], [-0.24773100018501282, -2.1821048259735107, 0.39442914724349976], [1.1617085933685303, -2.4363722801208496, 1.0837153196334839]], [[0.04321690648794174, -0.09966330975294113, 0.23632627725601196], [0.00021795443899463862, -0.3534718155860901, 0.048755668103694916], [-0.25269052386283875, -0.21003518998622894, 0.3030911386013031]]], [[[-1.2105058431625366, -0.5489884614944458, 0.7662217617034912], [0.8575143814086914, 1.6991374492645264, -0.5930929183959961], [-1.08526611328125, -2.3420822620391846, -0.15542815625667572]], [[0.7934322357177734, -1.0766032934188843, -1.9373100996017456], [-0.8385911583900452, -0.2298290878534317, -0.4793066084384918], [-0.6540320515632629, 0.2554171681404114, -0.7339322566986084]], [[-0.4473267197608948, -0.38354718685150146, 0.0227865781635046], [0.33826252818107605, 0.2868344783782959, 0.11314982920885086], [0.20740489661693573, 0.3650725483894348, 0.6094139814376831]]], [[[0.25794968008995056, -0.371418833732605, 0.42814382910728455], [-0.5021785497665405, -1.8539917469024658, 0.25825974345207214], [0.5905166268348694, -0.6857926845550537, 0.56479811668396]], [[-0.10461441427469254, 1.000970721244812, -0.3789943754673004], [0.6138224005699158, 0.37272363901138306, 0.2678965926170349], [-0.43527451157569885, 1.3214566707611084, -0.29918545484542847]], [[-0.8960446715354919, 0.18830116093158722, -0.5840216875076294], [0.1462704986333847, 1.1964190006256104, -0.10582084208726883], [-0.22633521258831024, 0.11375405639410019, -1.6998100280761719]]], [[[0.5246070027351379, -0.09250794351100922, -0.5250680446624756], [-0.4695889949798584, 0.03902951627969742, 0.3695632219314575], [0.07840883731842041, 0.301273375749588, -0.39293602108955383]], [[-1.7937135696411133, -0.7364404201507568, 0.6307504773139954], [-0.0701567530632019, 1.4773176908493042, 0.04419524222612381], [-2.227287769317627, 0.6881893873214722, -0.5641950368881226]], [[-0.8778703808784485, -0.5162220597267151, -0.2344432771205902], [0.646404504776001, 1.1451961994171143, -0.2587628960609436], [-0.28931868076324463, 0.5812182426452637, -1.5127348899841309]]], [[[-3.0968973636627197, -0.5932385921478271, -0.3104443848133087], [0.1340218335390091, 0.47571200132369995, -1.0636500120162964], [-1.1639691591262817, -0.2871466279029846, 1.4812510013580322]], [[-1.8505754470825195, 0.02380235679447651, -0.29057544469833374], [-0.1803622841835022, -2.573988676071167, 0.10923042893409729], [-0.3287394344806671, 0.05028004199266434, -1.923518419265747]], [[0.3857565224170685, -0.26998427510261536, 0.5139282941818237], [-0.2595961093902588, -0.46120911836624146, 0.023460960015654564], [0.31705304980278015, -0.09437468647956848, 0.6569991111755371]]], [[[-0.8871240019798279, 0.9361895322799683, 0.6145475506782532], [-0.05886119604110718, 0.2851642370223999, 0.15645553171634674], [-1.3677483797073364, 1.107539415359497, 0.01899370364844799]], [[0.05512313172221184, -1.0806403160095215, 0.5638106465339661], [-2.6887125968933105, 1.0729849338531494, -1.4202296733856201], [-0.5525883436203003, -0.03549736365675926, 0.279828280210495]], [[-0.6621869206428528, -0.4575217068195343, -0.6920291185379028], [-0.06878863275051117, 0.6363434791564941, 0.9887686371803284], [-0.37166628241539, -0.7686396241188049, -0.5434885025024414]]], [[[0.5136167407035828, 0.5127700567245483, -0.8564326763153076], [-0.93999844789505, -0.9332889318466187, -0.6364320516586304], [0.050644271075725555, -0.20220598578453064, 1.1226435899734497]], [[-0.4681587517261505, -1.0454658269882202, 0.6460492610931396], [1.5195432901382446, -0.38468125462532043, 1.0897109508514404], [-0.4022271931171417, 0.5173017978668213, -0.7213270664215088]], [[-0.882550835609436, -0.8306981921195984, -0.9928220510482788], [0.22919997572898865, 0.7317028045654297, 0.7682834267616272], [-0.5498987436294556, -0.09320778399705887, -0.02348417416214943]]], [[[-0.1539188027381897, 0.3481880724430084, -0.04037852957844734], [0.40988844633102417, -1.0552986860275269, -0.41403332352638245], [0.7670517563819885, 0.34251442551612854, -0.3346739709377289]], [[1.154699444770813, 0.7329413294792175, 1.565410852432251], [0.015916388481855392, 0.4932118356227875, -0.2368881106376648], [0.6158819794654846, 0.3981759250164032, 0.2828518748283386]], [[-1.2684242725372314, -0.15864501893520355, -1.1482170820236206], [-0.41345536708831787, 1.1907999515533447, -0.2955712676048279], [-0.3049778938293457, 1.2251273393630981, 0.030853938311338425]]], [[[-0.7979227304458618, 0.4154079854488373, 0.19285792112350464], [0.9706550240516663, 0.08036792278289795, -0.15970081090927124], [-0.690125584602356, -0.9251063466072083, -0.6095876097679138]], [[-1.2769339084625244, -0.4444694519042969, 0.7582194805145264], [1.9921075105667114, 0.3184276223182678, -1.5455693006515503], [-3.0701162815093994, 0.8540776371955872, 0.7286888360977173]], [[-0.18233917653560638, 0.08482740819454193, -0.0055173784494400024], [-0.5518876910209656, 0.495771199464798, 0.13991093635559082], [-0.3111611306667328, 0.1081623062491417, 0.3926583230495453]]], [[[0.2172718048095703, -0.04977620393037796, 1.0562700033187866], [1.0248026847839355, -0.45469245314598083, 1.2076995372772217], [-0.8071357607841492, 0.05073061212897301, 0.30521440505981445]], [[0.4330592155456543, 0.21353335678577423, -0.6010023355484009], [0.47518646717071533, -0.05762619525194168, -0.5505339503288269], [-0.003698849119246006, 0.32980141043663025, -2.639280319213867]], [[-0.24440282583236694, -0.16310496628284454, -0.13614770770072937], [1.057145595550537, 1.1420137882232666, -0.24359416961669922], [-1.325356364250183, -0.6995341777801514, -1.49928879737854]]], [[[1.0794589519500732, -1.008742332458496, 0.5591486096382141], [-1.5844531059265137, 0.8902750611305237, 0.31427836418151855], [-3.3619532585144043, 0.22063976526260376, 0.7107874751091003]], [[-1.476374626159668, 0.4678027331829071, 0.06791901588439941], [-0.7472426295280457, -1.4089491367340088, 0.7268152832984924], [0.5949060916900635, -0.028164342045783997, -0.17761194705963135]], [[0.44094663858413696, -0.006965500768274069, 0.6071010828018188], [-0.27881819009780884, -0.6299870014190674, 0.21172700822353363], [0.5060176849365234, 0.23304493725299835, 0.36144062876701355]]], [[[-1.0653783082962036, -1.668019413948059, -1.257833480834961], [-1.2293012142181396, 0.21233469247817993, -0.44273582100868225], [-0.3647744953632355, -0.13081443309783936, -2.2572357654571533]], [[-2.7539165019989014, 0.6030154228210449, 1.035786747932434], [1.0185043811798096, -1.7815083265304565, 0.401837557554245], [0.28496289253234863, -1.269801139831543, 0.40462955832481384]], [[-0.1773340404033661, -0.21880103647708893, -0.10425785928964615], [0.4321158528327942, -0.5068530440330505, -0.23561035096645355], [0.8505456447601318, -0.06362570077180862, 0.11821369081735611]]], [[[-1.474838376045227, -0.4186069369316101, -1.062591791152954], [-2.690390110015869, 1.1145191192626953, -1.6613391637802124], [0.2344895750284195, -1.189643383026123, -0.005679368507117033]], [[-0.2337852120399475, 0.06599090993404388, -0.5284463763237], [1.100551962852478, -2.19244384765625, -1.77828848361969], [0.3425406217575073, 1.0802277326583862, -0.40756016969680786]], [[0.07957280427217484, 0.13454082608222961, 0.7254864573478699], [-0.20385856926441193, -0.25679388642311096, 0.31881651282310486], [-0.4542343020439148, -0.1419001966714859, 0.21386994421482086]]], [[[0.07809077203273773, -0.24589954316616058, -0.8470404148101807], [-0.729306161403656, 0.07421759516000748, 0.6595948338508606], [-0.7479386329650879, -0.685795247554779, -0.6108424663543701]], [[-0.6968845725059509, -0.3715188801288605, 0.479532927274704], [-0.2183123379945755, 0.7561582922935486, 0.13954606652259827], [2.132802963256836, 1.0084186792373657, -2.4163570404052734]], [[-0.14000561833381653, 0.8479805588722229, -0.03201403468847275], [-0.7084296941757202, 0.36895930767059326, -0.24816320836544037], [-0.9224840998649597, -0.14132973551750183, -0.5371033549308777]]], [[[-0.1466580182313919, -0.38431522250175476, 0.20397131145000458], [0.9207490086555481, 0.05026670917868614, -0.14124074578285217], [-0.6908562183380127, 0.8923771381378174, 0.4866703152656555]], [[1.1675633192062378, 1.00344717502594, 1.6542803049087524], [-1.6944905519485474, -1.25579833984375, -1.6183208227157593], [0.09465449303388596, -0.18283110857009888, 0.6036133170127869]], [[-0.6381159424781799, -0.2459716647863388, -0.04748964309692383], [0.7590961456298828, 0.3122616112232208, 0.8553851842880249], [0.4121674597263336, -0.2912294566631317, 0.2597261667251587]]], [[[-0.2919198274612427, 0.1493806540966034, -0.11768321692943573], [-0.8036239147186279, 0.12311436235904694, 0.6976951956748962], [-0.044323332607746124, -0.5978798866271973, -0.46366429328918457]], [[2.0356576442718506, -0.15864115953445435, 0.08560386300086975], [0.8762388825416565, 0.35369962453842163, 0.1499168425798416], [-2.6251063346862793, -0.28077319264411926, 0.8657060861587524]], [[-0.35031768679618835, 0.8993390798568726, -0.4709451198577881], [-0.592185914516449, 0.6535517573356628, -0.7748742699623108], [-0.6508037447929382, 0.7959778904914856, -0.5150551795959473]]], [[[-0.17364880442619324, -0.31631720066070557, -0.8446246981620789], [0.40983864665031433, -1.283144235610962, -0.11751042306423187], [-0.1640464812517166, 0.41597676277160645, -0.11706742644309998]], [[-1.5990256071090698, -0.5388439893722534, 1.2082167863845825], [-0.5981285572052002, 0.599288284778595, -0.5377892255783081], [2.2655372619628906, -0.5940284132957458, 0.9929158687591553]], [[0.4608441889286041, 0.30970683693885803, 0.5892881751060486], [0.36787092685699463, -0.16020697355270386, -0.11028359830379486], [-0.17668107151985168, -0.637309193611145, -0.9237054586410522]]], [[[0.3277930021286011, -0.15232722461223602, 0.5185370445251465], [-0.09740451723337173, -1.218508243560791, -0.38077664375305176], [-0.07677262276411057, 0.5966066718101501, 0.030945809558033943]], [[-0.5815038084983826, 0.2208280861377716, -0.25196996331214905], [1.47783362865448, 0.8615248799324036, 0.39326873421669006], [0.3439025282859802, 0.2835354506969452, 0.954376757144928]], [[0.25272271037101746, 0.7851088643074036, -0.8796730637550354], [0.6498202085494995, 0.7691347599029541, -0.23146289587020874], [-0.6775957942008972, -0.14713433384895325, -2.4812097549438477]]], [[[1.305127739906311, 0.8138022422790527, 1.8596841096878052], [-0.5197248458862305, -0.15720613300800323, -0.16937920451164246], [-0.10368432849645615, -0.19748185575008392, -0.07777288556098938]], [[-1.3939486742019653, -2.534059524536133, -0.859860360622406], [-0.11503051966428757, -0.13587042689323425, 0.0004635124350897968], [-0.3064464032649994, 0.08973316103219986, -0.057947635650634766]], [[0.08619764447212219, -0.09949993342161179, -0.41445210576057434], [0.034114155918359756, 0.2793697714805603, 0.1943121701478958], [0.8621271252632141, -0.35275280475616455, -0.1383589655160904]]], [[[1.183166265487671, 0.37544286251068115, -0.5040234327316284], [-1.6973344087600708, 0.5787599682807922, 0.017017876729369164], [0.39216890931129456, 0.2152407467365265, -0.606891393661499]], [[1.271586298942566, 0.050998441874980927, -0.5532659292221069], [1.2548736333847046, 1.2113515138626099, -0.8340936899185181], [1.667868971824646, 0.6478667855262756, 0.03987900912761688]], [[0.38617628812789917, -0.16282741725444794, 0.23604467511177063], [-0.5390049815177917, -0.10679871588945389, 0.7141410112380981], [-0.8796259164810181, -0.2623249888420105, 0.4098189175128937]]], [[[0.8495047092437744, 0.07136736810207367, 0.4843255281448364], [-1.5129057168960571, 0.3718903660774231, -0.9090670943260193], [-0.8407667279243469, -0.38907647132873535, 0.16545158624649048]], [[1.0513206720352173, -0.3836032450199127, 0.8150732517242432], [-0.6008719801902771, -1.3321174383163452, -0.25400373339653015], [-0.618010938167572, 0.36279743909835815, -1.4619081020355225]], [[-0.3198818862438202, -0.6465928554534912, -1.024882435798645], [1.3167105913162231, 0.5441492795944214, 0.7447231411933899], [-0.44814133644104004, -0.8260955810546875, 0.12527470290660858]]], [[[-0.2729104459285736, -0.06657936424016953, 1.7432674169540405], [-0.367520272731781, 1.0436794757843018, -0.5941714644432068], [1.5375556945800781, -0.4575146734714508, -1.0620509386062622]], [[0.4354563057422638, -0.07852210849523544, -1.6007877588272095], [0.10993356257677078, -1.3020626306533813, -0.18714013695716858], [-0.34277990460395813, -0.2805030345916748, 0.30135080218315125]], [[-0.3988496959209442, -0.5685809254646301, -0.7993296384811401], [-0.4634651839733124, 0.7612679600715637, -0.0069820755161345005], [0.14287994801998138, 0.9151389002799988, 0.08152463287115097]]], [[[1.4412990808486938, 0.9314321875572205, 1.5064972639083862], [0.6762174963951111, 0.8446284532546997, -0.11127573251724243], [1.575243592262268, 0.9442045092582703, 1.1861381530761719]], [[-0.41525140404701233, -0.01737271621823311, -0.03104996494948864], [-0.03320722654461861, -0.04631693661212921, -0.23844680190086365], [-0.22355902194976807, -0.10671493411064148, -0.08305178582668304]], [[0.20435208082199097, 0.5874240398406982, -0.7340887188911438], [0.5799769163131714, 0.9532309174537659, -0.04377799481153488], [0.033497028052806854, 0.518631100654602, -0.650173544883728]]], [[[1.175499439239502, 0.544366180896759, -0.04677456617355347], [-0.16966912150382996, -0.32834741473197937, -0.7198659181594849], [1.6025787591934204, 0.4576912522315979, 1.1383635997772217]], [[-0.4797995686531067, 0.15278801321983337, -0.41982343792915344], [-2.045806407928467, -0.6640154719352722, -0.19437886774539948], [-0.44478288292884827, -0.30935096740722656, -0.0829615443944931]], [[0.4355032742023468, 0.6886740922927856, -0.8214331865310669], [0.3105408251285553, 0.5191671252250671, -0.3808082044124603], [-0.5202710628509521, -0.3316291868686676, -1.4086663722991943]]], [[[-0.6995589137077332, -1.9180819988250732, -1.030700445175171], [-1.4246180057525635, 0.821674108505249, 1.1496762037277222], [-1.4166972637176514, 0.7854203581809998, 1.3966587781906128]], [[0.9538388252258301, -0.4451516568660736, -0.686561107635498], [-0.17740698158740997, 0.6503740549087524, 0.3043065369129181], [-0.12999644875526428, 0.5692122578620911, -0.3492248058319092]], [[0.5371270775794983, -0.09683690965175629, -0.11197327822446823], [-0.1468641608953476, 0.19287864863872528, 0.6014474034309387], [-0.0004577359650284052, -0.09762030094861984, 0.3732371926307678]]], [[[0.8808626532554626, 0.26896539330482483, 0.5382983088493347], [-0.37466034293174744, 0.5300211310386658, 0.94869464635849], [0.7823625802993774, -1.3519937992095947, 0.7500784993171692]], [[0.6004955172538757, 0.083495132625103, 0.4444398581981659], [-0.17970767617225647, -0.7389267086982727, 1.0381866693496704], [1.4758909940719604, 0.5676999092102051, 1.0776948928833008]], [[0.2270635962486267, 1.229906678199768, 0.7587673664093018], [-0.7747161984443665, 0.4048578441143036, 0.2601718604564667], [-0.7744543552398682, -0.6886616349220276, -0.8651829957962036]]], [[[1.8559139966964722, -1.3350707292556763, -0.5339613556861877], [1.217919945716858, 0.595752477645874, -0.9830244183540344], [-0.07091402262449265, -0.4889819025993347, -2.7385897636413574]], [[-0.5170760154724121, 0.04762278124690056, 0.7547754049301147], [-0.32630684971809387, -1.3992139101028442, -0.03345883637666702], [-0.4640776813030243, 0.37476447224617004, 0.029282497242093086]], [[0.3760353624820709, -0.0035765301436185837, 0.14018233120441437], [0.22931993007659912, -0.16356661915779114, 0.03779086098074913], [0.6618702411651611, 0.13088244199752808, -0.04564724117517471]]], [[[1.7383198738098145, 0.5745174884796143, -1.050710916519165], [0.006126759573817253, 0.9075999855995178, -0.40139904618263245], [0.014184972271323204, 0.3027326762676239, 1.868091344833374]], [[-1.1331331729888916, -0.08585398644208908, -0.04633926600217819], [-0.08374214172363281, -2.237316370010376, -0.2965022325515747], [0.014533577486872673, -0.3752696216106415, -0.1335386037826538]], [[0.3438146114349365, 0.8668721318244934, 0.2245580404996872], [-0.06779114902019501, 0.28435808420181274, -0.36611056327819824], [0.1183721199631691, 0.21803507208824158, -0.38027137517929077]]], [[[-0.9665704965591431, 0.2595520615577698, 0.23775796592235565], [0.09493739902973175, -1.6727311611175537, 0.29417967796325684], [-2.2326815128326416, -1.4947901964187622, -0.662955105304718]], [[-0.8301006555557251, 1.0413037538528442, -1.8181511163711548], [-0.14868555963039398, -1.7069580554962158, -0.8104996085166931], [-1.1587258577346802, 0.48671212792396545, 0.7605048418045044]], [[-0.3130739629268646, -0.06588181108236313, 0.4977191090583801], [-0.02233653888106346, -0.49657851457595825, -0.10528666526079178], [0.815345287322998, 0.41417497396469116, 0.4356825649738312]]], [[[0.5148540735244751, 0.7996514439582825, -1.5321177244186401], [-0.8088996410369873, -0.14312481880187988, -0.3894108831882477], [-1.3111485242843628, -0.4103563725948334, 0.43112409114837646]], [[-0.6380038261413574, -0.014552135020494461, -1.6950827836990356], [0.8287085294723511, 1.520713448524475, -0.5419125556945801], [-1.9007718563079834, -1.8230040073394775, -1.2080224752426147]], [[0.09535542875528336, 0.0014791099820286036, -0.868552029132843], [-0.42751479148864746, 0.31786391139030457, -0.09867928922176361], [-0.48116791248321533, -0.07432672381401062, 0.41795751452445984]]], [[[-2.347985029220581, 0.4832405149936676, 2.1104822158813477], [-0.07492237538099289, -0.8672230243682861, 0.05281444266438484], [0.34788408875465393, -0.18060123920440674, 0.11150692403316498]], [[-2.068002939224243, -1.5161054134368896, -0.9847863912582397], [-0.16670456528663635, 0.3295990526676178, -0.11782510578632355], [0.5433574318885803, 0.05062391236424446, -0.9870380163192749]], [[0.08852595090866089, -0.6457297205924988, -0.051962532103061676], [0.5743092894554138, -0.09449990093708038, -0.4069582521915436], [0.7788096070289612, 0.08462785929441452, -0.35165125131607056]]], [[[0.3391226828098297, 0.2033153921365738, -1.7897485494613647], [-0.3019941449165344, -0.1412796825170517, 0.654776394367218], [1.0625073909759521, 0.20726369321346283, 1.5184308290481567]], [[1.0407330989837646, -0.5681580305099487, -0.9227159023284912], [0.7074148654937744, 0.8233065009117126, -0.6865122318267822], [-2.415837287902832, -1.2213170528411865, -1.0744826793670654]], [[0.3483054041862488, -0.20394036173820496, 0.15939217805862427], [0.5779505372047424, -0.02037845551967621, 0.46993523836135864], [0.3979969322681427, -0.05310475081205368, 0.07526456564664841]]], [[[0.0731140747666359, -1.6504896879196167, -0.9364534020423889], [0.6223680377006531, -2.52466082572937, 0.45443281531333923], [0.4588906466960907, 0.2995319664478302, 0.44133591651916504]], [[-1.5367377996444702, 0.6380194425582886, 0.4602603614330292], [0.8430927991867065, -0.9675329923629761, 0.22087782621383667], [1.4060664176940918, 0.44809308648109436, -0.718294084072113]], [[0.04471611976623535, 0.5584452152252197, 0.27508461475372314], [-0.6352116465568542, 0.13456271588802338, 0.2686299979686737], [-0.7104032039642334, 0.7664852142333984, 0.7299234867095947]]], [[[-0.13625577092170715, -1.1457912921905518, -0.48025617003440857], [0.3371664583683014, -2.51952862739563, -0.5342448353767395], [0.6550693511962891, -0.8801488876342773, -0.2759825885295868]], [[0.17341101169586182, -2.2218809127807617, -1.1563209295272827], [-0.34825533628463745, 0.3878186345100403, -0.40414297580718994], [-0.9090499877929688, 0.4055894613265991, 0.61623215675354]], [[-0.6571421027183533, 0.9340099692344666, -0.6431407332420349], [-0.39379414916038513, 0.7939760088920593, -0.43479490280151367], [-0.17687870562076569, -0.2469920516014099, -1.245618224143982]]], [[[1.7167482376098633, -0.3409680426120758, -0.21389922499656677], [0.7550531625747681, -0.7704958915710449, 0.12528404593467712], [1.5852662324905396, -0.5036508440971375, 0.21714675426483154]], [[-2.3135294914245605, -0.008539145812392235, -0.17822900414466858], [-2.941627025604248, -0.11383788287639618, 0.019657930359244347], [-1.5603160858154297, 0.22064384818077087, 0.27752387523651123]], [[0.04654599726200104, -0.12222383171319962, -0.19457019865512848], [0.02423860877752304, -0.17195603251457214, 0.17679385840892792], [0.31382980942726135, 0.11758364737033844, 0.45983633399009705]]], [[[-0.04073905199766159, 0.5888465046882629, -0.640507698059082], [-2.170828342437744, 1.8086097240447998, 0.07580149918794632], [1.051346778869629, -1.4182590246200562, -0.322737455368042]], [[-1.0661215782165527, 0.038902647793293, 0.38732460141181946], [-1.4135440587997437, 0.6514412760734558, 0.8989683985710144], [-1.5791834592819214, -0.18122319877147675, -0.02274654060602188]], [[0.3086843490600586, 0.24588774144649506, 0.31203120946884155], [0.1159633994102478, -0.08498015254735947, 0.3694519102573395], [0.21119599044322968, -0.23821145296096802, 0.09229930490255356]]], [[[1.311220407485962, 1.0743651390075684, -1.3333579301834106], [0.47634005546569824, 0.5502013564109802, -0.021830661222338676], [0.4920245409011841, -0.12496516108512878, -0.06570585072040558]], [[-0.965850293636322, -0.06230629235506058, 0.027982518076896667], [0.7147337794303894, -0.2973327934741974, -0.7587406039237976], [0.6904202103614807, -0.43535542488098145, 0.3450031280517578]], [[-1.6431080102920532, 0.13197509944438934, -0.8160564303398132], [-0.05579248070716858, 1.3296480178833008, 0.08521019667387009], [0.10860642045736313, 0.14377349615097046, -1.2251616716384888]]], [[[-0.35890552401542664, -0.206536203622818, 0.4377444386482239], [-0.05644102022051811, -1.2231112718582153, 0.19466760754585266], [0.4637393355369568, 0.4505530297756195, 0.8132799863815308]], [[-1.8055509328842163, -0.028989100828766823, 1.9156622886657715], [-0.5573889017105103, 0.9196944832801819, 0.3394726812839508], [-3.0738561153411865, -1.409332036972046, 0.7071704864501953]], [[-0.27119767665863037, 0.41948071122169495, -0.14044827222824097], [-0.0049179550260305405, 0.5715616941452026, 0.2504410743713379], [-0.36014094948768616, -0.6935780644416809, -0.14694854617118835]]], [[[-0.07203847914934158, -2.255980968475342, -1.0582849979400635], [-0.39433225989341736, 0.5076374411582947, -0.5967689156532288], [0.981813371181488, 0.8882759213447571, 0.7634010910987854]], [[1.0864522457122803, 0.6592246294021606, 1.532678246498108], [-0.686178982257843, -0.6530315279960632, 0.5657894015312195], [-1.463576316833496, -1.1684799194335938, -0.9027888178825378]], [[0.32784292101860046, -0.2629142105579376, -0.6118863224983215], [0.3643128573894501, -0.008131883107125759, -0.18386971950531006], [0.6130790114402771, 0.4691943824291229, -0.04998813942074776]]], [[[0.22241796553134918, 0.04709392786026001, 0.04533348232507706], [-2.0133824348449707, -0.05281183496117592, -0.2678166329860687], [-1.8417474031448364, -0.7541425228118896, -0.08962693810462952]], [[1.3491592407226562, -0.8089048266410828, 0.3120741546154022], [1.1068586111068726, -1.0721333026885986, 0.16976433992385864], [1.5006307363510132, -0.9942942261695862, 0.9114490151405334]], [[-0.10384940356016159, -0.5020379424095154, 0.5691061615943909], [0.7754064798355103, 0.11401630192995071, 0.3749276399612427], [0.11441438645124435, -0.30341339111328125, 0.38331037759780884]]], [[[-1.1394933462142944, -0.5981360077857971, -0.33989977836608887], [-1.1082967519760132, -0.7803359627723694, 0.34636983275413513], [-0.8503403663635254, -0.22750908136367798, -0.406715989112854]], [[1.4482297897338867, 0.2559458911418915, 0.37209272384643555], [0.547736644744873, -0.22784875333309174, 0.1337479203939438], [2.164363384246826, 0.11819104850292206, 1.1799383163452148]], [[-0.4062792658805847, -0.9043497443199158, -0.6613508462905884], [-0.09927695989608765, 0.7399377226829529, 0.11520039290189743], [-0.4488545060157776, 0.17853911221027374, 0.05319816619157791]]], [[[-0.5774649381637573, -0.059815045446157455, -0.6813055872917175], [0.326819509267807, 1.0117994546890259, 0.4740610122680664], [2.3997836112976074, 0.4875097870826721, -2.0038347244262695]], [[-1.0045641660690308, 0.1406756043434143, -1.275801181793213], [-0.48873212933540344, -0.7261961102485657, 0.49963200092315674], [0.011669955216348171, 0.46379950642585754, -0.23168633878231049]], [[0.3435550034046173, -0.5602213740348816, -0.2721238434314728], [0.5055534839630127, -0.4460928738117218, 0.7526137232780457], [0.4400423467159271, -0.6804931163787842, 0.24100518226623535]]], [[[0.7466052174568176, 0.015429957769811153, -2.222212076187134], [-1.8190218210220337, 0.4688163697719574, 0.1959247589111328], [-0.9352729320526123, -0.14624227583408356, 1.6060429811477661]], [[-1.0789927244186401, -0.9524792432785034, -0.30768752098083496], [-0.8105538487434387, -1.4199225902557373, -0.7409943342208862], [0.16555815935134888, 0.8436827659606934, 0.5962801575660706]], [[-0.4116816818714142, 0.36469268798828125, -0.11154510825872421], [-0.9166030883789062, 0.3444046974182129, -0.05502994358539581], [-0.5268856287002563, 0.7416210174560547, 0.4033918082714081]]], [[[0.5239735841751099, -0.09227149188518524, -0.11326726526021957], [0.27158185839653015, -2.071850299835205, -0.024925393983721733], [-2.3158605098724365, -0.02392002008855343, 0.12783008813858032]], [[0.07510625571012497, -0.05846564844250679, 2.6350255012512207], [-0.12261754274368286, 0.7686800360679626, -0.04778774455189705], [0.6354650259017944, -0.29260605573654175, -0.10787835717201233]], [[0.5592671036720276, -0.11388066411018372, -0.45069244503974915], [0.5678001046180725, 0.061348382383584976, -0.3143739700317383], [-0.03758418560028076, -0.19428904354572296, -0.29671937227249146]]], [[[-0.3230840563774109, -0.5177916884422302, -0.5223835110664368], [-0.3646559715270996, 0.5161505937576294, -0.22111214697360992], [-0.33206477761268616, -0.197005033493042, -0.0907578393816948]], [[-0.44952255487442017, -0.2856065034866333, -0.7027477025985718], [-0.9852601885795593, 1.9548561573028564, 1.5206888914108276], [0.19414569437503815, 0.4503481984138489, 1.0796388387680054]], [[0.24044136703014374, -0.11413919180631638, -0.9584873914718628], [0.7347082495689392, -0.2185778170824051, -0.532747745513916], [0.9364716410636902, -0.3418338894844055, -0.4789229929447174]]], [[[0.743787407875061, -0.892855167388916, 0.3923649787902832], [-1.0006014108657837, -0.4418162703514099, -1.035715103149414], [-1.215278148651123, -0.17358306050300598, 0.7725923657417297]], [[1.4505380392074585, -0.32457074522972107, 0.34086287021636963], [-1.6522268056869507, 0.07803922146558762, -0.7404595613479614], [1.4333633184432983, -0.8864726424217224, -2.1723835468292236]], [[0.49722620844841003, 0.24881497025489807, 0.7501798272132874], [0.008115488104522228, -0.5756345391273499, -0.2239515483379364], [-0.03726314380764961, -0.619858980178833, 0.11978272348642349]]], [[[-0.17179866135120392, -1.4500361680984497, 1.361792802810669], [-2.1376495361328125, 1.204949975013733, 0.13114702701568604], [-2.874351739883423, 0.01689302921295166, -2.9248673915863037]], [[-0.0427158884704113, 0.41364428400993347, -0.1339830607175827], [0.10702426731586456, -0.39323341846466064, -0.7939969301223755], [-0.08791134506464005, 0.31319674849510193, 0.8715280294418335]], [[-0.5937164425849915, -0.12746861577033997, 0.8296219110488892], [0.4113803505897522, 0.02869507297873497, -0.578818678855896], [0.017439821735024452, 0.2830929458141327, -0.15049847960472107]]], [[[-0.652441680431366, -0.967903733253479, -0.6843886375427246], [-1.2025619745254517, 1.3773877620697021, 0.5003668069839478], [-0.5239649415016174, 1.2901707887649536, 0.8691492676734924]], [[-0.3480600118637085, 0.6746352314949036, 0.3172226846218109], [0.4790493845939636, 0.0023626822512596846, -0.749497652053833], [0.27092060446739197, -0.7708086967468262, -0.19209322333335876]], [[-0.30261653661727905, 0.2299523651599884, -1.176285743713379], [-0.1622248739004135, 1.1996575593948364, 0.17238202691078186], [-1.05878746509552, -0.12447690963745117, -0.19136042892932892]]], [[[0.7961911559104919, -1.0483213663101196, 0.9913236498832703], [-0.35821402072906494, 0.09608778357505798, -0.9283456802368164], [1.6611777544021606, 0.6458069086074829, 0.27593132853507996]], [[0.03576274588704109, -2.263695001602173, 0.3197832405567169], [-1.5104639530181885, 0.568804144859314, 0.6628787517547607], [0.3086310625076294, 1.1562504768371582, -0.0647144690155983]], [[-0.18132439255714417, 0.829857349395752, 0.8433613777160645], [-0.5681731700897217, 0.06518150120973587, 0.11318296939134598], [-0.3792325556278229, -0.010912641882896423, -0.2910410165786743]]], [[[-3.0276384353637695, -0.3423689305782318, -1.589043378829956], [-0.34871572256088257, 0.5221354961395264, 0.24535661935806274], [1.8812475204467773, -0.6548202037811279, 0.46966224908828735]], [[-0.9800545573234558, 0.5677596926689148, 0.8049013614654541], [-1.9776136875152588, -0.7347955703735352, 0.2952015995979309], [0.5288758873939514, 0.9358258247375488, -0.18818768858909607]], [[0.11612806469202042, 0.5943638682365417, -0.14048542082309723], [-0.17332088947296143, -0.1815466433763504, -0.34134024381637573], [0.4306832253932953, 0.06350336223840714, -0.09724456071853638]]], [[[-0.7212769985198975, 0.5429307818412781, 1.584418773651123], [0.09723526984453201, -0.11152715981006622, -0.7188407182693481], [-3.27665638923645, 0.8275935649871826, 0.7971913814544678]], [[1.0008928775787354, 0.6887125372886658, -0.5548103451728821], [0.9091337323188782, 0.5491534471511841, 0.5155786871910095], [0.14967913925647736, -0.6841936707496643, -0.7285912036895752]], [[0.28005513548851013, -0.5738689303398132, -0.32714730501174927], [0.2754981815814972, -0.1786007285118103, 0.21277107298374176], [0.626947283744812, 0.3663923442363739, 0.7177345752716064]]], [[[-3.467797040939331, 0.7394695281982422, -0.8771342039108276], [0.16602668166160583, 1.3414779901504517, 0.6126063466072083], [-0.6984916925430298, -1.207953929901123, 0.6902649998664856]], [[0.548578143119812, 0.8605902791023254, 0.4473659098148346], [0.39564797282218933, 0.09178122878074646, 0.5432664752006531], [0.6634021401405334, 0.052278462797403336, -0.8862999677658081]], [[-0.15311653912067413, 0.41586294770240784, 0.28410935401916504], [0.5569732189178467, 0.08996898680925369, 0.09774292260408401], [0.24853278696537018, -0.10922681540250778, 0.7016255855560303]]], [[[-0.8298772573471069, -1.9101535081863403, 0.1970146745443344], [-0.49376046657562256, -1.3336050510406494, -0.33772334456443787], [0.5327409505844116, -0.4733729958534241, 0.43617868423461914]], [[-0.6804797649383545, 0.18363045156002045, 0.1796092689037323], [0.7343562841415405, -2.4095284938812256, 0.8471909165382385], [-0.9856100082397461, -0.7746655344963074, 1.9232800006866455]], [[-0.3754042685031891, -0.1502954512834549, 0.6581369638442993], [0.23160481452941895, -0.035854585468769073, -0.10736722499132156], [0.5543974041938782, 0.19172118604183197, -0.2800271511077881]]]], "conv1.bias": [0.6185548901557922, -0.5161880850791931, -0.6544269323348999, 0.21530959010124207, -1.0913132429122925, 0.17984840273857117, -1.1492012739181519, 0.6412306427955627, -0.0388001911342144, 0.49941781163215637, 0.7200012803077698, -0.1316618025302887, -0.8277040123939514, 0.5406464338302612, -0.2959601581096649, 0.40728646516799927, -0.5463737845420837, -0.6702354550361633, -0.5901174545288086, -0.5480319261550903, -0.9669047594070435, -0.10695109516382217, -0.5986435413360596, 0.9657654762268066, -0.7165807485580444, 0.4358992278575897, -0.8184857368469238, 1.0615637302398682, 1.0462790727615356, 0.6374896764755249, 0.04179340973496437, -1.3967725038528442, -0.3066968321800232, 0.7079039812088013, -0.16698616743087769, -2.1529202461242676, 0.2789772152900696, -0.2021830677986145, -1.9740288257598877, 0.06191446632146835, 0.36966457962989807, 0.7684723734855652, -1.0908098220825195, 0.6827079653739929, 0.6594476103782654, -0.08414648473262787, -0.08661699295043945, 1.0878089666366577, 1.4969797134399414, -0.48096585273742676, 0.9063910841941833, 0.4588075876235962, 0.4525621235370636, 1.5726670026779175, 0.23872746527194977, 0.8369799852371216, 1.2628283500671387, -0.6911513805389404, -1.316272258758545, -1.8386719226837158, -0.5553301572799683, -0.8087971806526184, 0.5992614030838013, 1.1977996826171875], "bn1.weight": [0.989054262638092, 0.9606004953384399, 1.2169526815414429, 1.2337372303009033, 1.1679766178131104, 1.090959906578064, 1.006752610206604, 1.2175755500793457, 0.8499801754951477, 1.1980501413345337, 1.3430612087249756, 0.9644138216972351, 1.059516429901123, 1.5819268226623535, 1.3007111549377441, 1.2623655796051025, 1.0337187051773071, 1.1902803182601929, 1.4945133924484253, 0.9253635406494141, 1.475520372390747, 1.148982286453247, 1.037442922592163, 1.0072214603424072, 1.0759696960449219, 1.0881223678588867, 1.2249130010604858, 1.3379197120666504, 1.8867578506469727, 1.965394139289856, 0.8918465375900269, 1.001529335975647, 1.495513677597046, 1.300392746925354, 1.6112099885940552, 1.0527011156082153, 0.8993726372718811, 1.261804223060608, 1.5805232524871826, 1.3285446166992188, 0.9901859164237976, 1.4627125263214111, 1.0544794797897339, 1.1947996616363525, 0.9872964024543762, 1.514093041419983, 1.1186449527740479, 1.3225493431091309, 1.0812206268310547, 1.1218318939208984, 1.2907596826553345, 1.1377531290054321, 0.8772458434104919, 1.1931663751602173, 1.5036426782608032, 1.5208585262298584, 1.0485996007919312, 1.039833903312683, 1.2567272186279297, 0.802702784538269, 1.178208827972412, 1.1340728998184204, 1.183179497718811, 1.0621240139007568], "bn1.bias": [-0.1203419640660286, -0.6927054524421692, -0.24435627460479736, -0.3491296172142029, -0.8151748776435852, -0.36747029423713684, -0.2877044081687927, -0.2855064868927002, -0.3376837372779846, -1.007787823677063, 0.08731972426176071, -0.004556949716061354, -0.5389397740364075, -1.4033373594284058, -0.4175832271575928, 0.17359964549541473, -0.4366939067840576, -0.8994864821434021, -1.3742046356201172, -0.09539440274238586, -0.7751010656356812, -0.4318883717060089, 0.19007927179336548, -0.2578677237033844, 0.008199144154787064, -1.0883809328079224, -0.029961884021759033, -0.8061316013336182, -1.3997244834899902, -1.7417997121810913, -0.7220871448516846, -0.1854206770658493, -0.9000568389892578, -1.9717642068862915, -0.5801782608032227, -1.0659414529800415, -0.5135464072227478, -0.8811160326004028, -1.803446650505066, -1.0205994844436646, 0.019649406895041466, -0.6142310500144958, -0.7533088326454163, -0.7579917311668396, 0.3302639126777649, -1.1704957485198975, -0.26487457752227783, -0.5881286859512329, -0.3078066110610962, -0.6788845062255859, -1.1933070421218872, -0.2401127964258194, 0.0020622515585273504, -0.5318530201911926, -1.063957691192627, -1.1397584676742554, -0.5866158604621887, -0.036029305309057236, -0.5896228551864624, -0.45707979798316956, -0.5781022906303406, -0.9476395845413208, -0.754316508769989, -0.7405327558517456], "conv2.weight": [[[[-0.5668959617614746, -0.4853805899620056, -0.13235431909561157], [-0.6238356828689575, 1.3477634191513062, -0.2298566997051239], [-0.3517977297306061, 1.1137408018112183, 1.1080634593963623]], [[0.20712822675704956, -0.30652907490730286, 0.9644556045532227], [0.02399725653231144, -0.49303266406059265, 0.30564385652542114], [0.1556640863418579, -0.4177151620388031, -0.919680655002594]], [[-0.21425089240074158, -1.0212165117263794, -0.3537806570529938], [0.168412983417511, 0.4508754014968872, -0.21723252534866333], [0.40472713112831116, -0.4297238886356354, -0.38686826825141907]], [[0.33567044138908386, -0.4751407206058502, 0.7973699569702148], [0.284965455532074, -0.5633469820022583, -1.4402656555175781], [0.7027724385261536, -1.1736905574798584, 1.3851975202560425]], [[-0.7975929379463196, 0.09760291129350662, 0.6252049803733826], [0.1949404627084732, 0.2493756115436554, -0.058769505470991135], [1.6500451564788818, -0.6716449856758118, -0.5649044513702393]], [[1.3697537183761597, -0.6201138496398926, -0.12500979006290436], [0.17485767602920532, 0.726301908493042, 0.39597198367118835], [1.437198281288147, 0.11872852593660355, -0.09612354636192322]], [[-0.4590723216533661, 2.0466132164001465, -0.2921793758869171], [0.19470548629760742, 0.3370703160762787, -0.5338713526725769], [-0.2318328320980072, -0.7133763432502747, -1.3474431037902832]], [[0.022508570924401283, 0.20745675265789032, 0.8002845644950867], [-0.43957245349884033, 0.5832329392433167, 0.8490248918533325], [0.20101197063922882, -0.6555033922195435, 0.2066553235054016]], [[-0.526257336139679, -0.19646315276622772, 0.11453644931316376], [-1.4826819896697998, 0.16294477880001068, -0.7460247278213501], [-0.6345469951629639, -0.12891340255737305, -0.32224389910697937]], [[0.15826699137687683, -1.125215768814087, -0.3517114222049713], [-0.25302088260650635, 1.3033115863800049, 0.6661989688873291], [1.0343841314315796, 0.6292666792869568, -2.251727819442749]], [[-1.2096880674362183, -0.037637338042259216, -0.438602089881897], [0.8526045680046082, -0.008597610518336296, -0.45409271121025085], [-1.1546387672424316, 0.1968388855457306, 0.36077505350112915]], [[1.3884400129318237, -1.3848416805267334, -0.19385109841823578], [0.44984152913093567, -0.4393792450428009, 0.3452252745628357], [-0.06738485395908356, 0.6823094487190247, -0.7371516823768616]], [[-0.05470864474773407, -1.215820074081421, -0.7789055109024048], [-0.5524157881736755, 0.06662578135728836, 0.5901632905006409], [-1.6376653909683228, -0.05605357885360718, 0.32884445786476135]], [[0.1605137139558792, 0.1829456239938736, 0.11072482913732529], [0.9542707204818726, -0.07457786053419113, 0.07194701582193375], [0.7710214853286743, 0.1272168606519699, -0.6507226228713989]], [[-0.41469910740852356, 0.6256442666053772, 0.19351811707019806], [-0.05926594138145447, 0.3704759180545807, -0.8452082276344299], [-0.574364185333252, -0.002197918016463518, 0.041209034621715546]], [[-0.8488556146621704, 0.09367681294679642, -0.4322095811367035], [-0.42441317439079285, 0.7553093433380127, 0.9558278918266296], [0.8381017446517944, -0.10603462904691696, 0.3793840706348419]], [[1.74174165725708, -0.607746958732605, 0.676327645778656], [-0.4466914236545563, 0.6174502372741699, -0.4793751537799835], [-0.36342519521713257, 0.7181375026702881, 0.4190531075000763]], [[-0.1441042274236679, -0.19649985432624817, -0.7750070691108704], [-0.7894635796546936, -0.5116100311279297, -0.6530541181564331], [-0.13202625513076782, 0.23035214841365814, 0.22579647600650787]], [[-1.47038733959198, -0.13171400129795074, -0.1528666913509369], [-0.3899356722831726, 0.9457309246063232, -1.8498941659927368], [1.862865924835205, -1.166800856590271, -0.6493229269981384]], [[-0.7299720048904419, 0.49192163348197937, 0.6219814419746399], [-1.2186801433563232, -1.1418852806091309, 0.3729202449321747], [0.5642591118812561, 0.8011929392814636, -0.42952656745910645]], [[-0.7352181077003479, 0.7665389180183411, 1.0570772886276245], [1.0623438358306885, -0.1665029376745224, 0.22971408069133759], [-0.30292120575904846, -0.4569252133369446, 0.586410403251648]], [[0.05744705721735954, -0.5511339902877808, -0.9658624529838562], [0.056982774287462234, -1.698195219039917, -0.08989951014518738], [-1.2201157808303833, -0.2991611659526825, 0.5519104599952698]], [[-0.46378061175346375, 0.4422307014465332, 0.44096213579177856], [-0.6449172496795654, 0.29450324177742004, -0.8032398819923401], [-0.10626032203435898, 0.52483069896698, 0.13342297077178955]], [[-0.031663406640291214, 0.27461332082748413, 0.9764260053634644], [-0.4931855797767639, 0.4995757043361664, -0.2093803882598877], [-0.008488189429044724, 0.1785772740840912, -0.35643288493156433]], [[0.22364410758018494, -0.11311746388673782, 1.1318689584732056], [0.6303702592849731, 1.0262267589569092, 1.0487719774246216], [1.2580574750900269, -0.5332562327384949, -0.03526271879673004]], [[-0.8243244290351868, -0.9177983999252319, 0.15835842490196228], [-0.2550141513347626, 0.22012683749198914, -0.8985165953636169], [-0.9545465111732483, 1.4607720375061035, 1.1948891878128052]], [[1.438828945159912, 1.4624170064926147, -0.5030971169471741], [-0.45363685488700867, -0.37665727734565735, -1.3424121141433716], [0.2653339207172394, 0.004422243684530258, 1.3670587539672852]], [[-0.16727057099342346, -0.12582899630069733, -0.40001794695854187], [0.9262685775756836, 1.8744357824325562, -0.8154596090316772], [-0.17245560884475708, -0.8417364954948425, -0.4365842938423157]], [[-0.2821449339389801, -0.2669760584831238, -0.5041982531547546], [0.22438247501850128, -0.0882793590426445, -0.16060665249824524], [0.27018898725509644, -0.36571764945983887, 1.7613134384155273]], [[0.6513926386833191, 1.5346614122390747, 1.8741445541381836], [0.4385342001914978, 0.7691093683242798, -0.06641552597284317], [0.27672597765922546, -1.0753947496414185, 0.852472722530365]], [[0.1439032256603241, -0.47359663248062134, -0.05532808601856232], [-1.1723452806472778, -0.1422625333070755, -0.1540752500295639], [0.26359862089157104, 0.283369779586792, -1.4127044677734375]], [[0.9700203537940979, 1.3634885549545288, -0.05119050666689873], [0.9293398857116699, -0.8504018783569336, 0.04397931322455406], [0.1558392345905304, -0.585200846195221, -1.1952924728393555]], [[-0.6691854596138, -0.029036834836006165, 0.12126103043556213], [0.27033403515815735, -0.21318881213665009, 0.24496518075466156], [2.23223614692688, 0.2054866999387741, 0.03197649121284485]], [[0.14557474851608276, 0.6382385492324829, -0.26551055908203125], [-1.3225380182266235, 1.649401068687439, -0.6666237711906433], [0.5429915189743042, -0.230420783162117, -1.191776990890503]], [[-0.5883813500404358, 1.3401135206222534, 0.5196114778518677], [0.5093821287155151, 0.13385142385959625, 0.014464064501225948], [0.8372290134429932, -0.03855825588107109, 0.20906050503253937]], [[-0.3173595368862152, -0.06159476935863495, -0.7238403558731079], [0.8409264087677002, -0.5010044574737549, 0.7699834108352661], [-1.1916158199310303, -3.6643404960632324, -1.4330110549926758]], [[-0.9365662932395935, 0.9883013367652893, -0.905387818813324], [0.20812208950519562, -0.23702308535575867, -0.2442052811384201], [-0.09947294741868973, 0.31996414065361023, 0.9167700409889221]], [[-2.6188840866088867, -0.06573586910963058, 0.055302251130342484], [-2.330634117126465, -0.154205322265625, -0.3016050159931183], [-0.24655434489250183, 0.15662257373332977, 0.17295551300048828]], [[0.3155185580253601, 0.4498879909515381, -1.0695486068725586], [0.7721863985061646, 0.26134589314460754, 0.4890691637992859], [0.7811272144317627, -0.09960885345935822, -1.2510759830474854]], [[-0.1832154095172882, 0.7605692148208618, 0.42401233315467834], [-0.03269089013338089, -0.8262912631034851, 0.2634875476360321], [0.23090140521526337, 0.19747965037822723, -0.009111827239394188]], [[1.1557942628860474, 0.36016935110092163, -2.489403486251831], [0.601192831993103, -0.08558492362499237, 0.4325474202632904], [0.030339015647768974, -0.12856227159500122, 0.3922559320926666]], [[0.39048144221305847, -1.5739903450012207, 1.9162582159042358], [1.167212963104248, 0.26839450001716614, -0.8636811375617981], [0.531181812286377, -0.20793423056602478, 0.36802995204925537]], [[-2.0783121585845947, 1.1376806497573853, 1.316930890083313], [0.4048541784286499, 0.2564235329627991, 0.12058855593204498], [-1.045431137084961, 0.08127439767122269, 0.07484160363674164]], [[-0.3442772626876831, -1.0808724164962769, -0.45178356766700745], [1.0593512058258057, 0.3448215126991272, -1.3575644493103027], [-0.133798748254776, -0.5950121879577637, 0.3034849762916565]], [[-0.8134236931800842, 0.54487144947052, 0.42478764057159424], [-0.6810199618339539, 0.42561885714530945, 1.1886450052261353], [-0.2203768789768219, -0.13544806838035583, 0.2730990946292877]], [[-1.004036784172058, 1.201255440711975, -0.23855841159820557], [0.32424014806747437, 1.0137780904769897, -0.4236448407173157], [-0.8754055500030518, -0.28766751289367676, -0.8579316735267639]], [[0.487883061170578, -0.7669634819030762, 0.4808582067489624], [-1.679948329925537, 0.584934413433075, -0.33058544993400574], [-0.04476160928606987, -0.4739992022514343, 0.612998902797699]], [[-0.005640859715640545, 0.8598137497901917, -1.5876109600067139], [-0.08272665739059448, 1.3516175746917725, -0.9698092341423035], [0.1453675478696823, -0.04725239798426628, 0.6239612102508545]], [[-0.41402244567871094, -0.7190410494804382, 1.2301626205444336], [0.209079310297966, -0.40374112129211426, 0.6208239197731018], [-1.1684767007827759, -0.14924415946006775, -0.009210980497300625]], [[-0.10679688304662704, -0.5649499893188477, -0.455239862203598], [-0.7181776165962219, 1.4292277097702026, 0.16078688204288483], [-0.7488442659378052, -1.8040635585784912, 0.5252623558044434]], [[0.34415867924690247, 0.4765585958957672, -1.2884074449539185], [-0.12726087868213654, -0.598389744758606, 0.17412658035755157], [0.012119765393435955, -1.1766654253005981, -1.2586127519607544]], [[0.5843232870101929, -0.8240013122558594, 1.0148160457611084], [0.15427657961845398, 0.3592427372932434, 0.9695804119110107], [-1.1419949531555176, 0.483643114566803, -0.4287673532962799]], [[0.28104835748672485, -0.27499067783355713, -0.7528640627861023], [0.4124411940574646, 0.04096592590212822, -0.7201874256134033], [0.4543868601322174, -0.46519535779953003, 0.7753540873527527]], [[-0.01868809200823307, 0.1905408352613449, -0.7212629318237305], [0.016985446214675903, -0.29229477047920227, 0.386640727519989], [-0.3494696319103241, 0.04626666009426117, -1.0813653469085693]], [[0.9859947562217712, 0.49832549691200256, 0.8752579689025879], [0.45853930711746216, 1.2098339796066284, -1.2052961587905884], [1.0761775970458984, 0.2435152232646942, -0.10560481995344162]], [[-0.3367418348789215, 0.005449844524264336, -0.3280457556247711], [0.034317098557949066, -0.8915050625801086, 0.2494388073682785], [-0.6169908046722412, -0.17146460711956024, 0.9288866519927979]], [[0.8374940752983093, 0.42008113861083984, -0.8855436444282532], [-0.6028540134429932, -0.785807192325592, 0.5824783444404602], [0.6327341794967651, -0.23050791025161743, -0.4043735861778259]], [[-0.17155495285987854, 1.1860594749450684, -0.4371952414512634], [-0.6112565994262695, 0.20855672657489777, -0.9104902148246765], [0.22540976107120514, -1.0392948389053345, 1.020125150680542]], [[-0.8036926984786987, 0.29391244053840637, 0.09316126257181168], [-0.62562495470047, 0.8088923096656799, 0.23842830955982208], [-1.308899998664856, -0.8278902769088745, -0.33918270468711853]], [[-0.4416307210922241, -0.0967741459608078, 0.34022870659828186], [0.3354320228099823, 0.08714909851551056, -0.2661364674568176], [0.46984609961509705, -0.794680118560791, 2.2811696529388428]], [[0.167631134390831, -2.608935832977295, -1.2085429430007935], [-0.8282755613327026, -0.11317606270313263, -0.5056852698326111], [1.345701813697815, -0.12584124505519867, 0.048877816647291183]], [[0.07243072986602783, 0.02281852997839451, -0.024145498871803284], [-0.23460479080677032, -1.4997752904891968, 0.19979433715343475], [-0.8992848992347717, 0.4852970838546753, -0.7296489477157593]], [[0.6952847242355347, -1.1952723264694214, -0.5007292628288269], [-0.9345235824584961, 0.6366439461708069, 0.0029175688978284597], [0.004435634706169367, 0.01934894733130932, 0.1939498782157898]], [[1.1446714401245117, -0.631167471408844, 0.2710653245449066], [0.2559880316257477, 0.9381098747253418, 0.3576750159263611], [-0.4695170223712921, 0.18654075264930725, -1.2498235702514648]]], [[[0.015890495851635933, -0.35608339309692383, 0.033480994403362274], [-0.917192816734314, 0.07862335443496704, -0.3717675805091858], [-0.30993661284446716, 1.0592968463897705, 0.12539033591747284]], [[0.4798121154308319, -0.3780345320701599, 0.5672039985656738], [-0.44931545853614807, -1.0710620880126953, -0.9560798406600952], [0.37099117040634155, 0.44874635338783264, -0.9035273194313049]], [[0.2724006772041321, 0.16992343962192535, -0.7792643904685974], [-0.8754445910453796, 0.017130661755800247, -0.6439434289932251], [-2.0906929969787598, 0.1656673699617386, 0.5876315832138062]], [[0.19542837142944336, 0.07352268695831299, 0.3928515613079071], [0.06240703538060188, -0.2840091288089752, -1.2235647439956665], [0.8680402040481567, -0.41226568818092346, 0.9564898610115051]], [[0.13315549492835999, -0.18584555387496948, -1.5141874551773071], [-0.2589593529701233, -1.1575922966003418, -0.5680133104324341], [0.7160761952400208, -0.7901890873908997, -0.2999524474143982]], [[0.8706992268562317, 0.46347418427467346, 1.7044254541397095], [-0.09245177358388901, 0.011861471459269524, -0.009089660830795765], [-0.3025340437889099, 0.13711410760879517, 0.19600634276866913]], [[0.6685463786125183, 0.5888685584068298, -0.322672575712204], [0.6070343852043152, -0.5828475952148438, 1.2633092403411865], [0.9706828594207764, -0.07858697324991226, 0.1571045070886612]], [[-0.3939579427242279, -0.07155057042837143, -0.5185797810554504], [-0.33098357915878296, -1.0113826990127563, 0.9654977321624756], [-0.6959388256072998, -1.1472283601760864, 0.9172171950340271]], [[0.7659965753555298, -0.2615901231765747, 0.19315765798091888], [-0.348532110452652, 0.964396059513092, 0.6443821787834167], [0.8213350176811218, -0.4976009130477905, -0.35224851965904236]], [[0.37832126021385193, 0.48196619749069214, 0.39026588201522827], [-0.2791527807712555, -0.8402939438819885, 0.07912056893110275], [0.6705181002616882, -0.315471887588501, 1.0777183771133423]], [[0.24067598581314087, 0.0014582853764295578, -0.46500760316848755], [-0.19645696878433228, 0.19696247577667236, 0.19949458539485931], [0.41984739899635315, 0.28755635023117065, -1.0427314043045044]], [[-0.2682345509529114, -0.17695863544940948, 0.7081098556518555], [-0.19142548739910126, -2.468371629714966, -0.6605961322784424], [0.4800947606563568, 0.05985177680850029, 0.6426143050193787]], [[0.8557435870170593, 0.05836500972509384, 0.2343047857284546], [0.09344354271888733, -0.06595918536186218, 0.19312794506549835], [-0.9599355459213257, -0.7457027435302734, 0.07526436448097229]], [[-0.2689591348171234, -0.282428503036499, -0.15378879010677338], [0.2667829394340515, -0.014034519903361797, -0.2321215271949768], [-0.4548407196998596, 0.7472963333129883, -0.8861116766929626]], [[-0.6797699928283691, -0.40645426511764526, -1.2731276750564575], [-0.025385674089193344, 0.5583783388137817, -0.522989809513092], [2.2643370628356934, -0.14009608328342438, -0.02700110711157322]], [[0.5511603355407715, 0.3267386853694916, -0.13452385365962982], [0.08153650164604187, -0.33203843235969543, 0.1451040655374527], [0.10896384716033936, 0.3688157796859741, 0.10929271578788757]], [[-0.029102329164743423, 0.5443025827407837, -0.36410143971443176], [-0.4026298224925995, 0.31431567668914795, -0.4633638560771942], [1.706231713294983, -0.9245742559432983, 0.710703432559967]], [[0.5197892189025879, 0.22957918047904968, -0.5642064213752747], [0.4753190279006958, -0.46806469559669495, 0.9434814453125], [-0.5517586469650269, 0.5203317999839783, -0.6384881138801575]], [[0.25976476073265076, -0.5603969693183899, -0.6265594363212585], [0.30121713876724243, 1.7794774770736694, -0.19834810495376587], [-0.7591741681098938, -0.8647700548171997, 0.6654242277145386]], [[0.028076335787773132, -0.2772653102874756, -2.898099899291992], [-0.14198970794677734, -0.3383556306362152, 0.8467289209365845], [0.23254980146884918, -0.085334911942482, -0.5236002802848816]], [[-0.529568076133728, -0.6611014604568481, -0.19083157181739807], [0.4340573251247406, -0.5349071621894836, 0.7730331420898438], [-0.00466771237552166, 0.24308252334594727, 0.18855096399784088]], [[0.1294519156217575, 0.9130899906158447, 0.19692499935626984], [0.508587121963501, -0.17649586498737335, 0.7307218909263611], [-1.9602447748184204, 0.08230859786272049, -0.5555543899536133]], [[-0.5771580338478088, 0.5255967378616333, -0.6793227195739746], [0.29609766602516174, 0.105047307908535, 0.6633338332176208], [0.8754541277885437, 0.6187487840652466, -0.12277574837207794]], [[0.4207940697669983, -0.4034404754638672, 0.16362033784389496], [-0.23307198286056519, 1.0687310695648193, -0.31790176033973694], [0.17905208468437195, -0.20193374156951904, 0.6777507066726685]], [[-0.5891628265380859, 0.035658448934555054, 1.0108752250671387], [0.04367019981145859, 0.3087857961654663, -0.013039957731962204], [-2.4714818000793457, 0.1339176446199417, 0.22829878330230713]], [[-0.7449519634246826, 0.7181923985481262, -0.30699944496154785], [-0.7219272255897522, -0.3787536323070526, -0.2752765417098999], [-0.5256622433662415, -0.2975274622440338, 0.09911274164915085]], [[0.9238459467887878, -0.13446427881717682, -1.195264220237732], [-0.5442345142364502, 0.416035532951355, 1.6177564859390259], [1.1492888927459717, 0.5344046950340271, -1.5916391611099243]], [[-0.9617450833320618, -0.1726599931716919, 0.7606589198112488], [-0.5187216997146606, 1.623557209968567, 0.76114422082901], [-4.767460823059082, 0.9490498900413513, -0.7740734815597534]], [[0.0822310522198677, -0.2745380699634552, 0.9978464841842651], [-0.18246962130069733, -0.8554627895355225, 0.6490462422370911], [-0.20555366575717926, -0.17710913717746735, 0.9582499265670776]], [[-0.47529473900794983, 0.12739548087120056, 0.2751723527908325], [0.18864424526691437, -1.237714409828186, 0.04602211341261864], [-0.45378488302230835, -0.7697945237159729, 0.11410559713840485]], [[-0.07424387335777283, -0.31919392943382263, 0.5126078128814697], [-0.19581495225429535, -0.1978757232427597, 0.4578126072883606], [-0.3205079734325409, -1.1237608194351196, -0.1241404190659523]], [[-0.7210893630981445, -0.2785463035106659, -0.1459132432937622], [0.050389472395181656, -0.6620442867279053, -0.6636008620262146], [-0.9781312942504883, 0.5129283666610718, -0.1832476407289505]], [[0.015469953417778015, 0.12048643827438354, 0.19617915153503418], [0.22512701153755188, -0.5025622248649597, 0.18938104808330536], [1.9302330017089844, 0.035572782158851624, 0.4971599578857422]], [[0.21364301443099976, 0.3957948088645935, 0.5586041212081909], [0.2777974009513855, -0.3026556372642517, -0.7372795343399048], [1.9666460752487183, -1.221701979637146, 0.48510655760765076]], [[0.5823127627372742, -0.10725881904363632, 0.48898035287857056], [-0.5464946031570435, 0.6304634809494019, 0.0741676390171051], [-0.27888259291648865, 0.36492881178855896, -0.0691920593380928]], [[-0.040488846600055695, -0.31669577956199646, -0.43997785449028015], [-0.3427748680114746, 0.8759675621986389, -0.7496563792228699], [-0.715190052986145, -0.11691128462553024, 0.2965455949306488]], [[0.34063225984573364, 1.0555721521377563, 0.5224507451057434], [0.6461440324783325, 0.2454555481672287, -1.3163747787475586], [-0.3356921672821045, 0.41065189242362976, 0.24378246068954468]], [[0.1916196495294571, -0.17410531640052795, -0.7567840218544006], [-0.14189419150352478, -0.11264733970165253, -0.05746079981327057], [0.7757279276847839, -1.6390162706375122, 0.348101407289505]], [[-0.29346925020217896, -1.1434768438339233, 0.017028331756591797], [-0.06133836880326271, 0.9295176267623901, -0.1430496722459793], [-0.00048780423821881413, -0.6187446117401123, -0.5515139698982239]], [[0.5124309659004211, -1.1662158966064453, -0.061285071074962616], [0.021310744807124138, 0.2672296464443207, 0.7039917707443237], [1.1560734510421753, 0.05037124082446098, 0.41991564631462097]], [[0.13866983354091644, 0.6774162650108337, 1.4845364093780518], [-0.3689476251602173, -0.009042270481586456, 0.17435699701309204], [1.6822116374969482, 0.755730152130127, -0.1075553372502327]], [[-0.20393161475658417, -0.062123727053403854, 0.29673755168914795], [0.370715856552124, 0.14662820100784302, -1.1286613941192627], [0.5600154995918274, -1.1075263023376465, -0.8481965661048889]], [[-0.3259895443916321, -0.6044440269470215, -0.33374467492103577], [-0.14102813601493835, 0.8496724367141724, -0.7917677760124207], [0.3324178457260132, -0.1372547149658203, -0.17567649483680725]], [[0.6190608143806458, -0.4671562910079956, -0.3669210970401764], [1.1596537828445435, 0.6840788125991821, 1.297065019607544], [-1.2169740200042725, 0.7247646450996399, -0.718400239944458]], [[0.033279478549957275, 0.17398907244205475, 1.5740402936935425], [-0.49710187315940857, 0.9423252940177917, -0.16886183619499207], [-0.2966364920139313, 0.044436365365982056, 0.5359100699424744]], [[0.09788379818201065, -0.44357427954673767, 0.3637855648994446], [-0.06008215248584747, -0.799246072769165, -0.2767166495323181], [-0.24179576337337494, -0.5253963470458984, -1.67844820022583]], [[0.20147979259490967, 0.19852390885353088, -0.7565575838088989], [-0.37173569202423096, -0.13954439759254456, -0.24965800344944], [0.5649968385696411, -0.22064296901226044, 0.231855109333992]], [[-0.3656327426433563, -0.524264395236969, -0.6144152879714966], [-0.02249564789235592, 0.5556584000587463, 0.3034621775150299], [-0.6012630462646484, -0.8401100635528564, 0.37866079807281494]], [[0.4415270984172821, -1.7042142152786255, -1.8176922798156738], [-0.8684355616569519, -0.4000433683395386, -0.7535330653190613], [1.5208088159561157, -0.7316123843193054, 0.044303301721811295]], [[0.32424014806747437, 0.7583579421043396, -1.6774181127548218], [-0.03915013372898102, 0.5474130511283875, -0.08758265525102615], [0.6184085011482239, 0.5630320906639099, -0.7522926330566406]], [[-0.24195699393749237, -0.9988889694213867, 0.7462820410728455], [-0.5378600358963013, 0.17356295883655548, 0.5254929661750793], [-0.7991544604301453, -0.49374303221702576, 0.43561744689941406]], [[0.5518523454666138, -0.573803722858429, 0.27842414379119873], [0.4954434931278229, -0.6856833100318909, -0.22860810160636902], [-2.3228776454925537, 0.17266681790351868, 0.6998480558395386]], [[0.7173788547515869, -0.5418133735656738, -0.06870446354150772], [-0.3592383861541748, 0.5415081977844238, 0.721788227558136], [1.4590390920639038, -0.1804428994655609, 0.014178672805428505]], [[0.9815860986709595, 0.8648843765258789, 0.26328226923942566], [0.21567663550376892, 0.34167125821113586, -0.7122750282287598], [-0.1727762073278427, -0.32737648487091064, -0.0720081701874733]], [[1.038026213645935, 0.4228785037994385, -5.4863362312316895], [0.10576659440994263, 3.1605284214019775, -0.33013445138931274], [-0.43257758021354675, -0.09052550047636032, 0.1171131357550621]], [[0.13284794986248016, 0.6228812336921692, 1.6304399967193604], [-0.6733447313308716, 0.4563414752483368, -0.8976563215255737], [1.0718834400177002, 0.6192843914031982, 0.19511526823043823]], [[0.13504226505756378, 0.11453509330749512, 0.6808608770370483], [-0.23133349418640137, 0.7790747880935669, 0.317766934633255], [-1.6025649309158325, 0.42913222312927246, 0.4102143943309784]], [[0.8135299682617188, 0.22836367785930634, -0.07038691639900208], [0.3023611307144165, -0.015290271490812302, -0.15295928716659546], [-1.839585304260254, 0.7793682217597961, 0.044898875057697296]], [[-0.2614472508430481, -0.3558357059955597, -0.47784706950187683], [-0.9784721732139587, -0.5190274119377136, 0.5043256878852844], [-0.9419023990631104, 0.013072265312075615, 0.04618550464510918]], [[-0.5528107285499573, 0.5043377876281738, 0.10375272482633591], [-0.14408166706562042, 0.0029869950376451015, -0.2949479818344116], [0.6728658676147461, 0.2572474777698517, -0.21785739064216614]], [[-0.33681678771972656, 0.22678613662719727, -0.10601505637168884], [-0.5444313287734985, 1.0912470817565918, 1.1402277946472168], [0.37181028723716736, 0.7524881362915039, -0.17341478168964386]], [[0.7009164094924927, -0.3992299735546112, 1.4596115350723267], [1.0584548711776733, 0.278154194355011, -0.0685238242149353], [-0.5281405448913574, 0.9452642798423767, -0.05778868496417999]], [[-0.2163284569978714, 1.0000420808792114, -0.39851900935173035], [-0.19654810428619385, 0.48852628469467163, -0.12286001443862915], [-0.17219579219818115, 0.6653478741645813, 0.21075713634490967]], [[0.42816808819770813, 0.37166839838027954, -0.5821728706359863], [0.1599508821964264, -0.3491764962673187, 0.4980301260948181], [-0.08791179209947586, -0.9326142072677612, -0.13809989392757416]]], [[[-0.9502496719360352, 0.5510917901992798, 0.40930506587028503], [-0.4284619688987732, 0.16345840692520142, 0.37088778614997864], [-0.8040570020675659, 0.01928013376891613, -0.6169028878211975]], [[-0.1208166778087616, -0.4245615005493164, -0.3715168237686157], [0.3607267439365387, 0.31190189719200134, 0.3057953119277954], [1.2563778162002563, -1.1473462581634521, -0.7283479571342468]], [[0.6851115226745605, 0.2868157923221588, -0.2532224953174591], [0.5562455654144287, 0.23162558674812317, 0.20851026475429535], [0.7767919898033142, -0.8287644982337952, -0.2581062614917755]], [[-0.06808418035507202, 0.38739076256752014, -0.3683708608150482], [0.4915406107902527, -0.2916751801967621, 0.08749271929264069], [-0.36789214611053467, -0.5742422342300415, -0.5837901830673218]], [[0.058243729174137115, -0.5918340086936951, -0.6120572090148926], [0.017325719818472862, -1.9434131383895874, 1.1995000839233398], [1.1240458488464355, -0.1648252159357071, -0.1660662144422531]], [[-0.4919644594192505, 0.254386305809021, -0.7819556593894958], [0.3325643539428711, 0.40595585107803345, 0.7072934508323669], [-0.4121446907520294, 0.46679314970970154, 0.2699267864227295]], [[0.038056381046772, 0.8584645390510559, -0.8086973428726196], [-0.7089672684669495, 0.5080925226211548, -0.4590415060520172], [1.0085091590881348, -0.163885697722435, -0.23471325635910034]], [[0.4572599530220032, 1.134437084197998, -0.17522810399532318], [0.4789049029350281, -0.8253692984580994, 0.5657557845115662], [-0.3013932704925537, -0.0760698914527893, 0.06409763544797897]], [[-1.3622419834136963, 0.6530618667602539, 0.6736856698989868], [-0.2414550930261612, 2.173872470855713, -0.09025196731090546], [-1.5219805240631104, -0.4021689295768738, 0.8063377141952515]], [[0.9781297445297241, 0.7034207582473755, 0.42763862013816833], [-0.4658818244934082, 0.4864998459815979, -0.668411374092102], [-0.2842431664466858, 0.49361538887023926, 0.21910539269447327]], [[-0.06938470900058746, 0.6515081524848938, 0.5738008618354797], [0.8863415718078613, -0.4080849289894104, -0.15855243802070618], [-0.5823104977607727, 0.039300937205553055, -0.15376515686511993]], [[-0.025187600404024124, 0.7682989239692688, 0.5290737748146057], [0.2749800384044647, 0.0352657325565815, -0.5248181223869324], [0.15019139647483826, -0.660999059677124, -0.4990009367465973]], [[0.15708859264850616, 0.030997417867183685, -1.3018825054168701], [1.528655767440796, 0.8791348338127136, -0.02971697971224785], [-0.925658643245697, 0.46221834421157837, -0.2229277342557907]], [[-0.5546084046363831, 0.6107496023178101, -0.278562068939209], [-0.19633515179157257, -0.6009382605552673, 0.6886181235313416], [-0.0056256456300616264, -1.1940195560455322, -1.3566806316375732]], [[0.2463153898715973, -0.03334988281130791, -0.04715447127819061], [1.8914107084274292, 0.5432320237159729, 0.161081001162529], [-0.057279832661151886, -0.7054145336151123, 0.8899422287940979]], [[-1.5521953105926514, 0.9779990911483765, -0.03001740574836731], [0.6356209516525269, 1.2557744979858398, 0.4208744168281555], [-0.5212187170982361, -1.2327604293823242, -0.841360330581665]], [[-0.15644685924053192, 0.6063579320907593, 0.8519694209098816], [-0.4159556031227112, 0.4195534586906433, -1.2572494745254517], [0.2996419370174408, -0.01747351698577404, 0.6132062077522278]], [[-0.016090644523501396, -0.44247791171073914, 0.44112786650657654], [-1.8878164291381836, -0.45758959650993347, 0.6568120718002319], [-1.3318865299224854, -1.5608066320419312, -1.6179215908050537]], [[-0.6269385814666748, -0.1256357580423355, 0.9824211597442627], [-0.35884517431259155, 0.697878360748291, 0.42813441157341003], [0.7037334442138672, 0.3920804262161255, -0.4801526367664337]], [[-0.0678405687212944, 0.7194032669067383, 0.38810619711875916], [0.07972332090139389, 0.49676963686943054, 0.5332087874412537], [-0.5102993845939636, -0.5006152987480164, -0.13370895385742188]], [[1.1029597520828247, 0.04668870195746422, -0.3035537600517273], [-1.077561616897583, -0.6737741827964783, -0.22498030960559845], [-0.2144138514995575, 1.2166833877563477, 0.770683765411377]], [[-0.6014228463172913, -0.44876861572265625, 0.23439036309719086], [-0.931287944316864, -0.1460568755865097, 0.19397859275341034], [-0.42621129751205444, 0.39973777532577515, -0.1552412062883377]], [[-0.14971476793289185, -0.9361572861671448, -1.2707980871200562], [0.6284157633781433, 0.7735733985900879, -0.42396464943885803], [0.5729003548622131, -0.9650213718414307, -0.4976899027824402]], [[-2.0714259147644043, -0.26396530866622925, 1.497254490852356], [-3.6122665405273438, 0.6118652820587158, 0.04072149842977524], [-0.6166020631790161, -0.7328387498855591, 1.0420963764190674]], [[0.884848415851593, -0.354596346616745, -0.756873607635498], [0.21363036334514618, 0.20455017685890198, -0.6719775199890137], [-1.0074387788772583, -1.3992390632629395, -0.08829318732023239]], [[0.3656327426433563, 0.8693357706069946, 0.24570392072200775], [0.5744743347167969, 1.1611285209655762, -1.5217851400375366], [-1.5728354454040527, 0.1197807639837265, 0.20942726731300354]], [[-0.10249760746955872, -0.8281766772270203, -1.260101318359375], [0.20289117097854614, 0.17936426401138306, 0.29931527376174927], [0.17730581760406494, -0.7394443154335022, -0.6741459965705872]], [[0.10423018038272858, -0.5937938690185547, -0.544590413570404], [0.30949074029922485, -0.2719769775867462, -0.3383170962333679], [0.7185665369033813, -0.7211033701896667, 0.5211384892463684]], [[-0.5377957224845886, -0.06628957390785217, -0.6995368003845215], [-0.011320582590997219, -0.6209297180175781, -0.06684988737106323], [-1.4046653509140015, 0.25052833557128906, 0.216230571269989]], [[-0.43576890230178833, 0.2583206295967102, 0.725797176361084], [0.3221283257007599, 0.6403125524520874, -0.6105870008468628], [0.9287790060043335, -4.0843000411987305, -0.2512126863002777]], [[0.37014302611351013, 0.0366915799677372, 0.8328076601028442], [0.44013527035713196, 0.8980952501296997, -0.2559517025947571], [0.6053154468536377, 0.9294229745864868, -0.5998980402946472]], [[0.23815590143203735, -0.10972703993320465, 0.5865527391433716], [0.37341830134391785, -0.9165757298469543, -0.8534601330757141], [0.7081096172332764, -0.019420839846134186, 0.5063818693161011]], [[0.5237252116203308, -0.5224531888961792, -0.4413239061832428], [-0.4128258526325226, -0.9375220537185669, -0.6083270311355591], [1.7573121786117554, -0.1944228559732437, -0.11475354433059692]], [[1.3148573637008667, -0.2848462164402008, 0.4624137878417969], [0.19524741172790527, 1.1534210443496704, -0.5659729838371277], [2.4930202960968018, -0.14675955474376678, 0.4634993076324463]], [[0.4142566919326782, 0.48117026686668396, 0.30184319615364075], [-0.9683111906051636, -0.9095065593719482, 0.17199012637138367], [-0.2429187148809433, 0.35389137268066406, -0.007632561959326267]], [[-0.2716223895549774, -0.011856012977659702, 0.09288865327835083], [-0.9246478080749512, 0.06254518777132034, 0.12903456389904022], [-0.6290289759635925, -1.3318541049957275, 0.6566348075866699]], [[0.8600789308547974, -0.5067868828773499, 0.9263807535171509], [-0.13399915397167206, -0.6828463077545166, -0.6766368746757507], [0.8193867206573486, 0.4554131031036377, 0.8554221987724304]], [[-0.1833128035068512, -0.4741380214691162, 0.4138968288898468], [1.1321548223495483, 0.6448760032653809, -0.17575405538082123], [-0.45160576701164246, 0.7431017160415649, 0.3835703432559967]], [[0.5383450984954834, -0.4406435191631317, 0.034928616136312485], [0.843161404132843, 0.26000675559043884, 0.4531307518482208], [0.4482467770576477, 0.417805939912796, 1.0569249391555786]], [[-0.6453513503074646, 0.3771612048149109, 0.41073933243751526], [-0.2796870768070221, -0.7955585718154907, 0.4320354759693146], [-0.7394680976867676, -0.35998308658599854, 1.0384349822998047]], [[1.7215030193328857, -0.6214734315872192, 0.5094330906867981], [0.9907007813453674, 0.1621219515800476, -0.7057822346687317], [0.7606732845306396, -0.5250772833824158, -1.3678982257843018]], [[0.21556192636489868, 0.043420083820819855, -2.2189345359802246], [0.5083125233650208, 0.8296560645103455, -0.12530039250850677], [0.03865094855427742, -0.8413342237472534, 0.027070239186286926]], [[1.1283280849456787, -0.9809863567352295, -0.8849151134490967], [-1.3276069164276123, 0.8392035365104675, -0.9251955151557922], [-0.6122437119483948, 0.13126663863658905, -0.7697955369949341]], [[-0.9870085120201111, 2.046159505844116, 0.30436351895332336], [-1.5815354585647583, 0.44294384121894836, 0.47691094875335693], [-0.627449631690979, -0.05632457137107849, -0.8276659846305847]], [[0.7323797941207886, 1.0187292098999023, 0.7910311818122864], [-0.15379463136196136, -0.5280695557594299, 0.6507086753845215], [-0.9327122569084167, -0.628387451171875, -1.2764219045639038]], [[-0.18059706687927246, -1.0551716089248657, -1.3460946083068848], [0.3485071063041687, 0.8504074811935425, -0.6109279990196228], [-0.4086661636829376, -0.37538185715675354, 0.24606738984584808]], [[1.0862542390823364, -0.5729796886444092, -0.012857693247497082], [-0.37764284014701843, 0.21957606077194214, -1.1263651847839355], [1.179361343383789, -0.3730398416519165, -0.36010026931762695]], [[0.9174783825874329, -0.601021409034729, -0.3237445056438446], [-0.32304391264915466, 0.4417298138141632, 0.9755967259407043], [-1.2993667125701904, 0.17086683213710785, -0.4239254295825958]], [[-0.18487143516540527, -0.20996713638305664, 0.23731788992881775], [-0.8257336616516113, 0.9640000462532043, -0.6280288696289062], [0.28406059741973877, 1.3107725381851196, -0.622094988822937]], [[-0.030317002907395363, -0.9512873888015747, -0.4219413697719574], [0.2367233783006668, -0.263276070356369, -1.7024139165878296], [-0.20548595488071442, -1.7161335945129395, 0.036153607070446014]], [[1.189740538597107, 0.4912092685699463, 0.9360517263412476], [-1.0852482318878174, 0.0899823009967804, 0.41690582036972046], [0.8626148104667664, 0.7277601361274719, 1.3973511457443237]], [[0.6476461887359619, -0.30964282155036926, 0.41028398275375366], [0.05615122616291046, -0.7134842872619629, -0.07854718714952469], [-0.544891893863678, -0.9973461031913757, -1.4812650680541992]], [[0.5392290949821472, 0.7685911655426025, 0.27121973037719727], [1.1204553842544556, -0.47606196999549866, -0.13011270761489868], [0.2904311716556549, -1.287278175354004, -1.049124836921692]], [[0.3051578402519226, -0.8277111649513245, 0.10460272431373596], [-2.201908826828003, -0.21691004931926727, 1.567440152168274], [-0.6714573502540588, 0.5225106477737427, -0.12847402691841125]], [[-0.40228626132011414, 0.7317094206809998, 0.5612708926200867], [0.3878308832645416, -0.4084477126598358, 0.07047156244516373], [0.01956278085708618, 0.18151867389678955, -0.292378693819046]], [[-0.16962893307209015, 0.11165806651115417, -0.22676585614681244], [0.891090452671051, 0.6718233823776245, -0.1557805836200714], [-2.499011993408203, -2.520871877670288, -0.43084394931793213]], [[0.33224716782569885, -0.8440200090408325, 0.5613158941268921], [-0.428388386964798, -1.122512698173523, -0.5186737775802612], [-0.7030772566795349, 0.15608952939510345, -0.10081250965595245]], [[0.07848592847585678, 0.4040926694869995, 0.34336796402931213], [-0.49520957469940186, 0.390514075756073, 0.9787163138389587], [-0.8413920402526855, -0.13356447219848633, -1.126960277557373]], [[-0.22536948323249817, -0.26559552550315857, 0.5332832336425781], [-1.1973812580108643, 0.7120838165283203, -0.5129190683364868], [-0.8450666666030884, 0.29776549339294434, -0.6610583066940308]], [[-0.21052159368991852, -0.39527252316474915, 0.09990379214286804], [-1.1554232835769653, 0.4271188974380493, 0.02141282893717289], [-0.27253830432891846, -0.7304185628890991, 0.49266597628593445]], [[0.27157920598983765, 0.617362916469574, 0.6812705397605896], [0.45777833461761475, 0.07159990072250366, -1.5847476720809937], [1.0166035890579224, -1.1597381830215454, 0.37170854210853577]], [[-2.2531871795654297, -0.06044333055615425, -0.20059379935264587], [-0.5989951491355896, -0.11471406370401382, 0.557876706123352], [0.7593365907669067, 0.8433034420013428, 0.976456880569458]], [[-1.3009777069091797, -0.4465985894203186, 0.23359499871730804], [1.5465800762176514, 0.6463056206703186, -0.5662640333175659], [-0.5642997622489929, 0.05589433014392853, 0.21250367164611816]], [[0.511644184589386, 0.24197706580162048, -0.7752355933189392], [-1.4205869436264038, -0.6802412867546082, -0.17599625885486603], [0.5845586061477661, 0.24788178503513336, -1.7827794551849365]]], [[[0.6416605710983276, -0.3049885630607605, -0.667107105255127], [-0.13264112174510956, 0.06581099331378937, 0.11899957805871964], [-0.7617916464805603, 0.30163103342056274, -1.3830187320709229]], [[0.3994327485561371, 0.655348539352417, -0.38350582122802734], [-0.5042829513549805, 0.3819814622402191, -0.6788632273674011], [-1.1921370029449463, -0.6384747624397278, -1.2344504594802856]], [[-0.08831881731748581, 0.5678398609161377, -0.5396524667739868], [0.12482401728630066, -0.6945549845695496, 0.22483260929584503], [-3.0281505584716797, -0.3893252909183502, -0.2260337620973587]], [[-0.5532941222190857, 0.02612379752099514, 0.5255513787269592], [1.2120593786239624, 0.5077909231185913, 0.35803571343421936], [1.1183981895446777, -2.4277889728546143, 0.14161859452724457]], [[-0.27248522639274597, -0.8480875492095947, -0.7299871444702148], [-1.2003668546676636, -0.45740148425102234, -1.4114052057266235], [-0.5161060690879822, -0.2663280665874481, -0.6715431809425354]], [[0.5868836641311646, 0.06972740590572357, 0.9919939637184143], [-1.0079737901687622, -0.8486382961273193, 0.9720178246498108], [-0.15937988460063934, -0.0021593989804387093, -1.989534616470337]], [[-1.012520432472229, 0.37578335404396057, -0.7368777990341187], [0.2750855088233948, 0.21504691243171692, 0.17852552235126495], [0.4644123911857605, 0.8659769296646118, -0.8126549124717712]], [[-0.7496052384376526, 0.6362865567207336, 1.3694082498550415], [-0.3638863265514374, 1.211157202720642, 0.16200822591781616], [0.035875797271728516, 0.5163959264755249, 1.4805070161819458]], [[0.26041051745414734, 0.3701052665710449, 0.12152028828859329], [-1.0809804201126099, 1.045266032218933, -1.2106460332870483], [-1.5483516454696655, -1.3270362615585327, -0.42264091968536377]], [[-0.5409707427024841, -1.3725414276123047, 0.13221773505210876], [-0.6132500767707825, 0.08007711917161942, 1.3027156591415405], [-0.05152496322989464, -0.603777289390564, -0.035915061831474304]], [[0.37382376194000244, 1.4457265138626099, -0.32312363386154175], [0.5134210586547852, 1.7451980113983154, 0.5240195989608765], [-0.4133966267108917, -0.9495601058006287, -1.1823382377624512]], [[0.2820023000240326, 0.43343791365623474, -0.954373836517334], [-0.4182768762111664, 0.023818016052246094, -0.8364472985267639], [-1.7020249366760254, 0.4138900637626648, -0.5762491822242737]], [[-0.5568859577178955, -0.8436073660850525, -0.8838866949081421], [0.19815987348556519, 0.2987914979457855, -0.6718570590019226], [-0.5847377777099609, -0.48150962591171265, -1.7259267568588257]], [[-0.43979328870773315, -1.4996626377105713, -0.42141661047935486], [-0.7832844853401184, -0.6486188173294067, -0.5876551866531372], [0.2814379036426544, -1.2177214622497559, -0.5244682431221008]], [[0.1267581582069397, -0.11376776546239853, 0.3116001784801483], [-1.3161660432815552, -0.15433566272258759, -0.9544857144355774], [0.7224597930908203, 0.21369940042495728, -0.06880966573953629]], [[0.038197264075279236, -0.22093896567821503, -0.26548153162002563], [0.22516359388828278, -0.9684521555900574, -1.6319074630737305], [-0.8478403687477112, 0.027913620695471764, -1.111849069595337]], [[-1.4468728303909302, -0.8657832145690918, -0.10472429543733597], [0.8431015014648438, -0.02558731473982334, 0.17429544031620026], [-1.1932176351547241, 0.36023327708244324, -0.28593072295188904]], [[0.3416684865951538, 0.5583258271217346, -0.3301570415496826], [-0.7220081686973572, 0.24106267094612122, -0.054141558706760406], [0.7780614495277405, 0.4145644009113312, -0.4859040081501007]], [[0.30543601512908936, 0.27801385521888733, 0.003535094205290079], [0.16329890489578247, 0.8273482322692871, -0.2971954345703125], [-1.1104650497436523, 0.36623722314834595, -0.8523157835006714]], [[0.5222901105880737, 0.3200622797012329, 0.7574015855789185], [0.5842950344085693, 0.6827858090400696, 0.8544952273368835], [0.562788724899292, -0.21947593986988068, 0.5488532781600952]], [[-0.19084703922271729, -1.293967604637146, 0.6184375286102295], [-1.1868864297866821, 0.39544373750686646, 0.05811261013150215], [-0.10719459503889084, 0.044561661779880524, -0.49664050340652466]], [[0.7653713822364807, -1.5050231218338013, -0.16812580823898315], [0.9769397377967834, 1.0811148881912231, 0.9497913122177124], [0.16407901048660278, -0.3289356231689453, 0.15492306649684906]], [[-0.169097900390625, 0.7801157832145691, 0.2670334577560425], [0.1568029820919037, 0.04237598925828934, 1.492309331893921], [0.18551641702651978, -0.31461989879608154, -0.9604023098945618]], [[0.46542808413505554, 0.056314852088689804, 0.18203236162662506], [0.6978059411048889, -0.06218380481004715, 1.0734806060791016], [-0.2680857479572296, -1.654186487197876, -1.1599085330963135]], [[1.105205774307251, 0.29280754923820496, -1.7549028396606445], [0.9749367833137512, -0.06421048194169998, 0.049844566732645035], [0.7229349613189697, 0.34510669112205505, -1.2787386178970337]], [[-1.651284098625183, 0.37925171852111816, 1.1081552505493164], [-0.888084888458252, 0.3166637718677521, 1.258518934249878], [0.9613504409790039, 0.7599412202835083, 1.673054814338684]], [[-0.3047643005847931, 0.9552233815193176, 1.039046049118042], [0.9901478290557861, -0.13587124645709991, 0.1337638944387436], [-1.1575534343719482, -0.3483208119869232, -0.7134020328521729]], [[0.8874221444129944, 0.09710946679115295, 0.35709312558174133], [-0.34287166595458984, 0.30535081028938293, 1.1288540363311768], [-0.05235503986477852, 0.1996772587299347, 0.6461867094039917]], [[-2.087392568588257, 0.03874818980693817, -0.4139765202999115], [-1.4845740795135498, -0.28491801023483276, -0.56866455078125], [-0.3048081696033478, -0.25244948267936707, -1.3255854845046997]], [[0.6507886052131653, -0.7348690629005432, -0.11754439026117325], [-0.26730266213417053, -0.23778881132602692, -2.100773572921753], [1.0121769905090332, -0.2394869327545166, 0.24572253227233887]], [[0.011262282729148865, 0.06521624326705933, -0.47772830724716187], [1.2173423767089844, -0.9902369976043701, -0.10207214206457138], [0.12979039549827576, -0.06480967253446579, -0.6309777498245239]], [[-0.593455970287323, -0.21167756617069244, -1.642927646636963], [0.8768568634986877, 0.8641689419746399, 0.3241679072380066], [-0.3340124785900116, 0.4166693091392517, -0.9830976128578186]], [[0.428938090801239, -0.12006233632564545, -1.5205804109573364], [0.09239502996206284, -0.9443134069442749, 0.21731732785701752], [-1.843176245689392, 0.2671266496181488, 0.5751943588256836]], [[0.2114732563495636, -0.26725220680236816, -0.7668029069900513], [0.39910808205604553, 0.6026563048362732, 0.6902456283569336], [-1.2531203031539917, 0.4319137632846832, 0.024785295128822327]], [[0.218490868806839, -0.25681719183921814, 0.6449000239372253], [-0.33016806840896606, -0.6931341290473938, -0.8912051320075989], [1.078177809715271, -0.3761233687400818, -0.40297406911849976]], [[-0.6790210604667664, 0.3691116273403168, -1.1849535703659058], [0.5487475991249084, -0.39086514711380005, -0.24319279193878174], [1.355005145072937, 0.1443929523229599, 0.007791091222316027]], [[0.11254008114337921, 0.16288374364376068, 0.19585135579109192], [-0.4984901547431946, 0.7286295294761658, -0.13939693570137024], [1.3365163803100586, 0.13464109599590302, 0.4986656904220581]], [[-0.3535808026790619, 0.5660320520401001, 0.7822813391685486], [-1.2437772750854492, -0.22696086764335632, 0.6400765776634216], [-0.8534603118896484, 0.2781394124031067, 0.05396871268749237]], [[-0.18635211884975433, -0.5048954486846924, -1.403062343597412], [-0.6200402975082397, 0.34248945116996765, -0.16288983821868896], [0.07506702095270157, -0.3339148163795471, -0.9242457747459412]], [[0.2793985605239868, -0.1360369622707367, -0.2754819691181183], [0.503528892993927, -0.6099092364311218, 0.09242487698793411], [-0.41526225209236145, 0.8311796188354492, 0.7917225360870361]], [[-0.5497365593910217, -1.297370433807373, 0.6844313144683838], [0.11196908354759216, 0.20663781464099884, 0.5733895301818848], [-0.1288670152425766, 0.6331029534339905, -0.36127108335494995]], [[-0.10982763022184372, 0.10082332789897919, 0.1284165233373642], [-0.7688784003257751, 0.9595625400543213, -0.7270930409431458], [-0.8126446008682251, -0.23587067425251007, 0.19418276846408844]], [[-0.2311149537563324, 0.6573334336280823, -1.661268711090088], [-0.20642825961112976, 1.1406859159469604, -1.3922454118728638], [1.3975509405136108, -0.44592124223709106, -0.3515218496322632]], [[0.6533743143081665, -0.8968427181243896, -0.5271884202957153], [0.21037869155406952, -0.715919554233551, 1.1361180543899536], [-0.42384615540504456, 0.9815505743026733, 0.5465671420097351]], [[-1.2490297555923462, -0.3526306748390198, 0.20152981579303741], [-0.6776609420776367, -1.0183981657028198, 0.32460278272628784], [-0.32950615882873535, -1.7988821268081665, 0.21700794994831085]], [[0.7863901257514954, -0.16119271516799927, 0.7870492935180664], [-1.3353779315948486, 0.7116866707801819, 0.14974606037139893], [-1.1060312986373901, -0.9203078746795654, -1.7638384103775024]], [[-0.019329959526658058, 0.5389617085456848, 1.0131760835647583], [0.11025872081518173, -0.07663033157587051, -0.35534825921058655], [1.3913625478744507, -1.107800841331482, 0.3109077513217926]], [[-1.5297588109970093, 0.02502371370792389, -0.28771883249282837], [-0.4582768678665161, 0.8652828931808472, 0.09860894083976746], [-0.6744593381881714, -1.9733692407608032, -0.4447997808456421]], [[-0.46847593784332275, -0.6659161448478699, 0.5583855509757996], [-0.46766775846481323, -0.952893078327179, -0.8089244961738586], [-0.4269748628139496, -0.4808461666107178, -0.36120957136154175]], [[0.8425139784812927, -0.2422076165676117, 1.1768897771835327], [0.09278640151023865, -0.11618299037218094, -0.47584930062294006], [0.5427911281585693, -1.015920877456665, -0.4652310311794281]], [[-0.825040340423584, 1.226944088935852, -0.11438727378845215], [-1.154117465019226, 1.4658517837524414, 2.0919644832611084], [-0.6701348423957825, 0.9268186092376709, 0.9879139065742493]], [[0.19210804998874664, 0.34320592880249023, -0.09650716930627823], [0.8182172775268555, 0.31803271174430847, 1.2661421298980713], [0.3730158507823944, -0.2533339262008667, -0.20802554488182068]], [[0.3325190544128418, -0.2034250944852829, -0.6521220803260803], [0.1379852294921875, 0.25634071230888367, -2.298178195953369], [-2.082380533218384, -0.28042545914649963, -1.1679192781448364]], [[-0.23820717632770538, -0.9254095554351807, -0.41692498326301575], [-0.1583014577627182, -0.4364537000656128, 0.7878750562667847], [-0.7374323606491089, 0.4287240505218506, 0.44390514492988586]], [[-0.4440755844116211, 0.6140384674072266, 0.46750208735466003], [-0.4104059636592865, 0.7332830429077148, 1.81828773021698], [-0.3653981387615204, 0.02385447360575199, 0.25535938143730164]], [[0.0011266565416008234, 0.292012482881546, 1.1686002016067505], [-0.0875907838344574, -0.9312772154808044, 0.8232269287109375], [-0.7276409268379211, -0.5342925786972046, 1.4788727760314941]], [[0.5556437969207764, 0.4344601333141327, -0.7598335146903992], [0.14442381262779236, -0.09176460653543472, 0.21323229372501373], [-0.4075826108455658, -0.3052847385406494, 0.8027783036231995]], [[0.8318814039230347, 1.2258447408676147, 0.45998045802116394], [0.628695547580719, -0.8953090906143188, 0.7272355556488037], [0.48542535305023193, -0.40958234667778015, -1.172847867012024]], [[0.7340997457504272, 0.2609636187553406, 0.03314415365457535], [0.16155654191970825, -0.5393861532211304, -0.5211364030838013], [-0.5760881304740906, 0.049812864512205124, 0.321993887424469]], [[0.5283638834953308, 0.6010940670967102, -0.4074003994464874], [-0.11109072715044022, -0.8494101762771606, 0.36153537034988403], [-0.3282012641429901, -0.12338131666183472, -0.6684132218360901]], [[-0.009327169507741928, 0.733070433139801, 1.1769026517868042], [-0.7124372124671936, 0.24670906364917755, -0.6441696286201477], [1.387589931488037, -0.4421199858188629, 0.03681578114628792]], [[-0.3863081932067871, 0.2237413376569748, 0.5605433583259583], [0.21848301589488983, -0.06426232308149338, 0.06651749461889267], [0.07073814421892166, 0.4919854998588562, -1.3146687746047974]], [[0.14891541004180908, -0.18141840398311615, 0.9866528511047363], [-0.15741819143295288, -0.5031588077545166, -0.8633676171302795], [1.1934975385665894, 1.1276190280914307, 0.5515758991241455]], [[-1.309810757637024, 0.056253209710121155, -0.9846136569976807], [1.0726574659347534, -0.3560928404331207, 0.3895604610443115], [-0.6477585434913635, 1.044061541557312, 0.8661553263664246]]], [[[-0.6347819566726685, -0.24969293177127838, 0.10874616354703903], [-0.4892829358577728, -0.060103680938482285, -0.3112170398235321], [0.42408737540245056, -0.4510285556316376, -0.5689480304718018]], [[0.6497589945793152, -1.379180908203125, 1.089213252067566], [-1.0576648712158203, -0.7018923163414001, -0.2711314558982849], [0.5274852514266968, 0.6589176058769226, -0.556364893913269]], [[-1.276879072189331, 0.05812803655862808, 0.40981245040893555], [0.27475598454475403, 0.3841263949871063, -0.3530571460723877], [-0.5034487843513489, 0.6972692012786865, -0.62311190366745]], [[-2.0439295768737793, -0.06218497455120087, -0.7140824198722839], [0.47177013754844666, -0.42988595366477966, -0.06992360204458237], [-0.2849506437778473, 1.293415904045105, 0.09894806146621704]], [[-0.35806262493133545, -1.4642870426177979, 0.10922925174236298], [0.6067818999290466, -0.8759034872055054, 0.6141999959945679], [0.316993772983551, -0.7288264632225037, 0.5370139479637146]], [[1.1012622117996216, 0.29197871685028076, -1.122780203819275], [0.16945937275886536, 1.1865547895431519, -0.18865185976028442], [-0.13631807267665863, -0.028165346011519432, -0.38371333479881287]], [[-0.4341464340686798, 0.6066858768463135, 0.41963714361190796], [0.10343248397111893, -0.823945939540863, 0.04106760025024414], [0.7468370199203491, 0.1493971198797226, -0.2427152544260025]], [[-0.44652271270751953, 0.7934523820877075, -0.5172375440597534], [-0.08098810166120529, -1.1088049411773682, -0.5276049375534058], [-0.5270788073539734, 1.1417484283447266, 0.67132967710495]], [[0.026359135285019875, -0.6499528288841248, -0.1367628276348114], [0.7311010956764221, -1.2553534507751465, -0.16132792830467224], [-0.5511645674705505, -2.4825706481933594, -0.6441802382469177]], [[0.9895213842391968, 0.11652998626232147, -0.18371683359146118], [-0.6204230189323425, -0.11985373497009277, 0.9849911332130432], [1.393123984336853, -0.3275201916694641, 0.9516680836677551]], [[-1.1355552673339844, 0.22384245693683624, -1.773842215538025], [-0.3040316104888916, 0.7003257870674133, 0.020558912307024002], [1.2265796661376953, 0.8010659217834473, -0.31169915199279785]], [[0.5236247181892395, -0.3126792013645172, -0.7778400182723999], [-0.11772429943084717, -0.4014766216278076, -0.2965357303619385], [-0.2399272918701172, 0.7799692749977112, 0.6691335439682007]], [[-0.7200441956520081, -0.5355859994888306, 0.955958902835846], [-0.3612089455127716, 0.5205944776535034, 1.0454484224319458], [-0.446628212928772, -0.6935562491416931, -0.5646412372589111]], [[0.44096532464027405, 0.5167633891105652, -0.3505287766456604], [0.1571640819311142, 0.0752938836812973, -0.20099234580993652], [-0.6005575060844421, -0.21458478271961212, 0.09504019469022751]], [[0.749553382396698, -0.1387728750705719, 1.4301539659500122], [-0.27198898792266846, 0.9599925875663757, -1.9371353387832642], [-0.29686394333839417, -0.32426390051841736, 0.41359519958496094]], [[-0.9587831497192383, -0.45857396721839905, 1.1497267484664917], [-0.03731326386332512, 1.2179456949234009, -0.4536724090576172], [0.24081392586231232, -0.9720467925071716, 0.32846325635910034]], [[-0.42737072706222534, -0.6674442291259766, 1.393019199371338], [0.6215828657150269, 0.0032404325902462006, -0.2701607346534729], [-0.10584218800067902, 0.5608267784118652, 0.9529045224189758]], [[-1.6944801807403564, 0.6406852006912231, 0.36669883131980896], [-0.33894264698028564, -0.8584967851638794, 0.24292978644371033], [0.009534345008432865, -1.9086904525756836, 0.5718726515769958]], [[0.0819784626364708, 0.8490247130393982, 0.7104946374893188], [-1.4954417943954468, -1.4995996952056885, -1.6993041038513184], [-1.2136497497558594, -0.7297613024711609, 0.7037349939346313]], [[0.16672103106975555, 0.338572233915329, 0.335659384727478], [0.46263325214385986, -0.5857476592063904, -0.836674690246582], [-0.12577351927757263, 0.37702804803848267, 1.064774990081787]], [[0.8343175053596497, 0.43603426218032837, -1.4446830749511719], [-0.013628251850605011, -0.28226783871650696, -0.36208397150039673], [-0.45736226439476013, -0.46720853447914124, -0.4252568185329437]], [[1.2345064878463745, -0.31103551387786865, 1.1818863153457642], [-1.0142334699630737, -0.5584276914596558, 0.2508513927459717], [-0.2900959253311157, 0.0071168323047459126, 0.40198415517807007]], [[-1.468994140625, 0.28437820076942444, -0.29175302386283875], [-0.8340051174163818, 0.44402286410331726, -0.896609365940094], [0.23187482357025146, 1.212877869606018, 0.9476791620254517]], [[0.05496188998222351, 0.8783096671104431, 1.5150033235549927], [-0.2846826910972595, 0.2807660400867462, -0.2704226076602936], [-0.5970517992973328, -0.6163809299468994, 0.5972211360931396]], [[-0.13841280341148376, -0.38615360856056213, 0.22396492958068848], [0.6797351837158203, 1.0548497438430786, 0.5077693462371826], [-0.1101527139544487, 0.17812557518482208, 0.2980607748031616]], [[-0.7984383702278137, -0.030682627111673355, 0.11709138751029968], [-0.3166312873363495, 0.33199626207351685, 0.6085957288742065], [-0.7966163158416748, -0.7338013648986816, -0.8295968770980835]], [[-0.6133383512496948, 0.3419593870639801, -0.04677322506904602], [-0.4203748404979706, 1.2991498708724976, -0.0532681979238987], [0.07498388737440109, -0.16221007704734802, 1.1180623769760132]], [[0.28948667645454407, 0.574690580368042, 0.11023030430078506], [-0.7434558272361755, -0.2396421879529953, 1.2485023736953735], [0.7900871634483337, -0.33410513401031494, 0.6602416634559631]], [[-0.3253628611564636, -0.08740296214818954, -1.0485790967941284], [-1.514555811882019, -0.3375006914138794, -0.8375281691551208], [-0.4383769631385803, -1.2146761417388916, -1.689570426940918]], [[0.05119043588638306, -1.309483528137207, -0.8991958498954773], [0.10842821002006531, -1.5478919744491577, 0.9094113111495972], [-0.40727558732032776, 0.3827636241912842, 0.6289295554161072]], [[-1.4626555442810059, -0.9713591933250427, -0.7100337743759155], [-0.19501818716526031, -0.667792558670044, -0.5228890180587769], [-0.15743161737918854, 1.1931893825531006, -0.4143507182598114]], [[-0.31904467940330505, -0.028863321989774704, -0.30227741599082947], [0.03900090232491493, 0.8031530976295471, -0.4465491771697998], [-1.199635624885559, 0.8270534873008728, -0.03779810294508934]], [[0.17449715733528137, -0.4041229784488678, 0.7054079174995422], [0.41184622049331665, -0.8998350501060486, -0.34028586745262146], [0.6451038718223572, -0.19759373366832733, 0.2122574746608734]], [[-0.10902389138936996, -0.4059043824672699, -0.22522035241127014], [1.9953709840774536, -0.7012037038803101, 0.2865503430366516], [-0.6782028079032898, -1.8883543014526367, -0.6654136776924133]], [[-0.7662683725357056, -1.8422085046768188, -1.3090238571166992], [0.6606115698814392, -1.4884915351867676, 0.6523440480232239], [-0.6402348875999451, -0.9040451645851135, -0.7655965685844421]], [[-0.6156147122383118, 0.13706234097480774, 0.36989009380340576], [0.6784865856170654, 0.42174556851387024, 0.8015396595001221], [0.2920162081718445, 1.8741564750671387, 0.19497975707054138]], [[0.016628550365567207, 0.12150949984788895, 0.3920258581638336], [-0.4946221113204956, 0.594378650188446, 0.7899044156074524], [-0.6350852251052856, -0.44127508997917175, -0.039404306560754776]], [[-0.45857107639312744, 0.7694679498672485, -0.9905568957328796], [-0.08253103494644165, 0.6739622950553894, 0.05497182160615921], [-1.0861642360687256, 1.8156836032867432, -0.5962427258491516]], [[1.3649193048477173, -0.7680689692497253, -0.10786718875169754], [1.0690058469772339, -0.4852890074253082, 0.7028852105140686], [-1.1173646450042725, 0.15425655245780945, -0.3705654442310333]], [[1.0761224031448364, -2.002070188522339, 1.3265981674194336], [-0.13714584708213806, 0.047182049602270126, -2.824469804763794], [1.8411697149276733, 0.004271706100553274, 0.6065133213996887]], [[-0.5358494520187378, 0.06370199471712112, -0.2915659546852112], [-0.9459843039512634, 0.3756389915943146, -0.07578811049461365], [-0.09385447949171066, 0.6225181818008423, 0.6917231678962708]], [[0.4635562598705292, 0.42499563097953796, -0.7201881408691406], [-0.2633907198905945, -0.17903995513916016, 0.454675555229187], [0.17142446339130402, 0.8106467127799988, -0.15156608819961548]], [[1.0636650323867798, 0.3348003327846527, -1.2207281589508057], [1.3092260360717773, -0.3530995845794678, 1.0742722749710083], [-2.6216304302215576, 0.5567960143089294, -0.742465615272522]], [[-0.7341637015342712, 